SVM-light Version V6.02
0 # kernel type
3 # kernel parameter -d 
1 # kernel parameter -g 
1 # kernel parameter -s 
1 # kernel parameter -r 
empty# kernel parameter -u 
14492 # highest feature index 
14050 # number of training documents 
4565 # number of support vectors plus 1 
0.8183471 # threshold b, each following line is a SV (starting with alpha*y)
-0.12024722654104203 8499:1 #
-0.11823517719240831 1636:0.84198809 4536:0.53949612 #
-0.017456987865948737 9687:0.8645829 11451:0.50249022 #
-0.18187685606813786 3100:1 #
0.26653321980824496 2632:0.69760412 4922:0.52336586 13067:0.48932269 #
0.9999999999759277 1691:0.23401032 4713:0.49459675 5804:0.44904459 5806:0.49459675 8602:0.24046113 8623:0.25129306 12543:0.36520752 #
0.9999999999759277 1369:0.57201958 3359:0.45508781 14459:0.68241388 #
0.9999999999759277 2409:0.28143606 2886:0.4830133 5797:0.4830133 7116:0.50353473 11849:0.44793171 #
0.9999999999759277 1158:0.54477435 4900:0.49460086 9504:0.54477435 12543:0.4022584 #
0.9999999999759277 4767:0.71427882 10862:0.69986123 #
-0.2037285773042149 3359:1 #
-0.15954743512801267 1335:0.61306649 8663:0.55863649 14140:0.55863649 #
-0.089008556314383022 4839:0.39366379 7142:0.45693502 9221:0.46978629 12543:0.42308322 13437:0.48635447 #
-0.32405872769722766 14:0.2338607 1368:0.40329039 2001:0.29367802 4453:0.34103706 4767:0.42542708 5116:0.30918214 9190:0.27054676 12405:0.40329039 12804:0.26017773 #
0.9999999999759277 166:0.3249687 2983:0.43448251 3344:0.40559953 8553:0.44144863 9474:0.58841515 #
0.9999999999759277 3344:0.58355284 4590:0.8120752 #
0.9999999999759277 642:0.1832471 722:0.15662758 1288:0.20695995 2298:0.38907635 3280:0.24690123 3673:0.29690248 3877:0.14884357 3895:0.23683883 5531:0.13799824 5826:0.16604534 6034:0.15188618 6676:0.24690123 7059:0.11748263 7107:0.14570935 7744:0.13679476 8105:0.23683883 8583:0.23683883 8623:0.12544475 9015:0.17587024 9246:0.24690123 10690:0.16652724 11171:0.17969579 13504:0.23683883 #
-0.37355741854129992 2506:0.58345163 2509:0.43873426 4747:0.58345163 6882:0.35592228 #
0.9999999999759277 3344:0.38857388 5294:0.54074144 5771:0.44954905 6022:0.47252312 8427:0.36226586 #
-0.15131515139257989 2509:1 #
-0.48697615510383585 1181:0.30592048 2867:0.37692168 3564:0.43336383 6808:0.30592048 10909:0.30592048 11684:0.46730447 14198:0.41350982 #
-0.10772129914088323 11331:0.73873729 13985:0.67399353 #
-0.30814110403698147 8553:1 #
-0.10662889329741974 8144:0.34891161 8318:0.44515571 10175:0.59199119 10881:0.57414591 #
0.9999999999759277 14:0.30094817 1368:0.51898211 1569:0.52707547 4929:0.60189635 #
0.9999999999759277 1004:0.32644263 1172:0.2103975 1606:0.3839488 3112:0.48540407 3359:0.32370603 3578:0.29215729 3673:0.19456859 6882:0.28404254 6999:0.30666012 10994:0.25182393 #
0.9999999999759277 4929:1 #
0.9999999999759277 14:1 #
-0.99148542059379008 14:1 #
-0.9999999999759277 4929:1 #
0.9999999999759277 767:0.51260799 2509:0.45097116 7857:0.62520492 9721:0.3781229 #
0.9999999999759277 2298:0.44928744 7059:0.40699059 8627:0.55090612 12444:0.57358688 #
0.9999999999759277 3113:0.75107825 14252:0.66021323 #
0.9999999999759277 590:0.48649603 1170:0.75313199 10916:0.44284743 #
-0.061437918816396438 3754:0.78949356 9377:0.6137588 #
-0.15334864650559032 6986:1 #
0.9999999999759277 3426:0.54944342 3673:0.22023803 4163:0.40175959 4839:0.3774949 5412:0.32332715 6551:0.32914585 14237:0.36443999 #
0.6121943209561147 1879:0.38625512 2475:0.31559655 2759:0.31559655 4164:0.24963309 4221:0.31559655 4603:0.31559655 4929:0.31501594 5061:0.30273449 7417:0.31559655 8378:0.31559655 #
-0.18170801451079632 10966:1 #
-0.11215126900743688 2780:0.74404621 9809:0.66812813 #
-0.042606920107568169 11236:1 #
-0.086203114637512318 1232:0.39213949 11136:0.67450511 13311:0.62551534 #
0.9999999999759277 3673:0.58532691 12804:0.81079739 #
0.9999999999759277 3673:0.64533806 8427:0.51731533 10714:0.39639187 11603:0.39849359 #
0.9999999999759277 1927:0.62650847 1928:0.63337213 3673:0.45423225 #
-0.89187798296730125 1453:1 #
0.9999999999759277 2489:0.2559613 3673:0.28194147 4207:0.25715971 5220:0.43269774 5464:0.21003219 7600:0.31929922 9070:0.31285423 12219:0.42540273 13221:0.3516897 13814:0.23029973 #
-0.18191713817845345 1295:0.69842714 2062:0.7156812 #
0.17177278101828863 1023:0.47201204 3604:0.42738059 4632:0.27829963 8986:0.55608034 8990:0.45593247 #
0.9999999999759277 1816:0.60827309 4035:0.50019538 9754:0.61628598 #
0.9999999999759277 1112:0.59296572 5252:0.37695113 8908:0.59296572 14237:0.39330786 #
0.9999999999759277 1172:0.68729514 2722:0.72637826 #
0.9999999999759277 617:0.41010895 3492:0.26016223 6844:0.20611368 8869:0.32189223 9278:0.3933951 10909:0.25753576 11740:0.3933951 13972:0.41010895 14237:0.27202091 #
0.9999999999759277 1078:0.79326075 1172:0.60888207 #
0.9999999999759277 760:0.54251516 1172:0.28680456 3877:0.39889234 7343:0.58861488 10994:0.34327522 #
-0.18183323167120879 12982:1 #
-0.18171606953980801 8684:1 #
-0.0047954361121727018 6882:1 #
0.9999999999759277 14:0.39965695 1751:0.21997526 1828:0.26850498 2679:0.28189471 2773:0.27249289 3049:0.33986199 3673:0.16049311 4578:0.2956484 5412:0.23561679 9275:0.28757241 10072:0.40039355 10714:0.19716227 #
-0.081940014843134026 378:0.17015813 1186:0.19682473 1381:0.20795584 1945:0.20795584 1973:0.20795584 2399:0.19682473 3604:0.16661677 3733:0.1840166 4295:0.16661677 4703:0.18658315 4753:0.20795584 4756:0.18949285 5214:0.19682473 6750:0.18658315 6752:0.19682473 7098:0.16773447 7266:0.20795584 7536:0.20168713 7736:0.19682473 9051:0.20795584 10067:0.21679111 11912:0.21679111 12059:0.16555361 12093:0.21679111 12963:0.21679111 13737:0.19682473 #
0.9999999999759277 1386:0.43388751 3673:0.25633207 5462:0.58059305 13035:0.63948983 #
-0.15344158295340929 2:0.42694318 1350:0.42694318 3893:0.42694318 8235:0.39593399 11748:0.33780822 13290:0.42694318 #
0.84669338477157319 3992:0.36924535 5734:0.80035168 7107:0.47232944 #
-0.011331828210380649 1004:0.65221906 8560:0.50685972 9303:0.56365198 #
-0.013515612312543293 619:0.37915295 1405:0.34310967 4988:0.31288838 7684:0.36819559 12009:0.41609523 13188:0.37915295 14003:0.43377355 #
0.9999999999759277 636:0.43706104 1172:0.18944331 2077:0.43706104 2394:0.25575379 2557:0.32438144 2722:0.40043205 5981:0.2579326 6678:0.28024954 6969:0.21708781 10660:0.24267514 #
0.9999999999759277 56:0.29791135 181:0.36801237 6994:0.34098366 10916:0.30865386 11563:0.2881797 11813:0.42636311 12986:0.54721624 #
0.9999999999759277 14:0.1182287 398:0.16616474 464:0.34530061 467:0.16072969 1590:0.22723867 2722:0.4340795 3946:0.47378638 4006:0.44077736 5819:0.16122065 6949:0.2851648 7970:0.18090467 8623:0.1203599 #
0.9999999999759277 462:0.41678125 504:0.63336772 2722:0.39489305 6949:0.51884317 #
-0.9999999999759277 56:1 #
-0.1987409990162643 504:0.8485769 2722:0.52907205 #
-0.12282274878850671 1371:0.86737418 13021:0.49765655 #
-0.15712628963792374 6882:1 #
0.9999999999759277 10909:0.56558239 10994:0.46725202 14158:0.67955285 #
0.9999999999759277 8560:1 #
0.9999999999759277 1004:1 #
0.9999999999759277 1172:0.26338041 1423:0.30381995 2315:0.55167651 3673:0.12178271 4081:0.17904237 4951:0.30381995 5451:0.19354971 6208:0.30381995 8523:0.30381995 8602:0.14771001 9678:0.2087394 10714:0.14960739 11863:0.29143786 #
0.9999999999759277 6099:0.55847406 8845:0.65387118 10909:0.51044995 #
-0.72714580739616685 14158:1 #
-0.18177334103209813 8059:0.54803938 8123:0.5790329 10333:0.60363382 #
-0.18166512135731461 1304:1 #
-0.39629373452336941 1184:0.27952462 2409:0.57280433 3049:0.43495223 3578:0.30841774 5229:0.2836006 6590:0.2680316 8641:0.39646685 #
0.9999999999759277 407:0.66994059 1548:0.66994059 2722:0.31993619 #
0.9999999999759277 2722:0.19865073 5145:0.41597107 5976:0.38575879 6420:0.1963307 8099:0.43364412 8602:0.21082741 12177:0.23313659 12804:0.24077789 13329:0.28687346 14399:0.41597107 #
0.9999999999759277 96:0.44934946 2722:0.28016108 6991:0.41248971 8195:0.4188326 11613:0.61157691 #
0.9999999999759277 139:0.15546763 230:0.12007309 279:0.17476626 295:0.13039838 559:0.17476626 572:0.15546763 1172:0.075752117 1443:0.34953251 1541:0.19602184 1691:0.082687788 1994:0.096932888 2458:0.38158694 2585:0.17476626 2722:0.2401793 2896:0.136169 2926:0.16764371 3001:0.24798584 4654:0.17476626 4678:0.16764371 4777:0.09988644 4795:0.17476626 5006:0.10284349 5206:0.10694725 5917:0.12448778 6420:0.079124749 6590:0.091415018 6781:0.11857718 7666:0.17476626 7906:0.11687037 8508:0.12087171 8746:0.12448778 8829:0.16764371 8958:0.10890108 9248:0.12128505 9266:0.098575801 10263:0.17476626 #
-0.093625577760701975 2049:0.51454711 4430:0.44902325 6759:0.50214213 13679:0.53053999 #
-0.36085271930583274 6949:1 #
0.9999999999759277 2195:0.43807867 4499:0.43807867 4530:0.21011245 4549:0.21011245 7392:0.43807867 7511:0.21903934 8623:0.22257754 9741:0.21903934 9829:0.21903934 9848:0.21903934 10714:0.21571924 12539:0.21903934 #
0.9999999999759277 464:0.20991628 1545:0.43203866 1928:0.2414754 2454:0.43203866 5464:0.2580173 6078:0.28972629 6448:0.41443104 8623:0.21950875 11438:0.39224806 #
0.9999999999759277 464:0.39502156 5464:0.48553833 5613:0.7798785 #
-0.99640871781869378 1927:1 #
-0.053125632476966084 1276:0.48121625 5106:0.42697901 8931:0.41718042 9266:0.31537122 10971:0.55912554 #
-0.055894088519548801 230:0.64599288 13469:0.76334345 #
-0.094793653897186081 175:0.43780753 3608:0.4251551 6087:0.46598139 9683:0.39943761 10617:0.50087786 #
0.9999999999759277 6949:1 #
0.9999999999759277 1601:0.3897047 1932:0.42895582 4035:0.38815144 4211:0.44393876 10714:0.30436847 11563:0.32551223 12804:0.34319904 #
0.9999999999759277 2080:0.58997297 2722:0.27026439 3908:0.54886913 3939:0.42555773 11563:0.3106966 #
0.9999999999759277 982:0.33557934 1226:0.24204203 1830:0.29011372 2924:0.28407583 3281:0.22108041 3508:0.25233263 5148:0.22318392 6985:0.24786904 7059:0.3517527 8560:0.19317672 9190:0.21340884 12431:0.35455751 12444:0.24786904 13116:0.21540214 #
-0.026637944365732823 2853:0.22263645 6039:0.22100681 6329:0.24412709 6923:0.22436491 8551:0.2037254 8915:0.24793418 9114:0.64205456 11928:0.1818812 13813:0.43057108 13854:0.240769 #
-0.029997870960363476 550:0.60868049 1979:0.49355254 8018:0.62121969 #
0.98416148933313796 1995:0.55867732 2728:0.4742164 6196:0.45356694 11884:0.50722331 #
-0.060947745325156885 987:0.48108691 3887:0.39489716 4808:0.43346086 7547:0.45199975 7889:0.46948856 #
0.9999999999759277 1927:0.54817736 6613:0.68346524 8602:0.48205483 #
0.9999999999759277 6708:1 #
0.9999999999759277 884:0.74800515 1927:0.41354507 13541:0.51910383 #
0.9999999999759277 2272:0.35735184 6551:0.42834172 6708:0.42137086 6757:0.71503121 #
0.9999999999759277 464:0.13812952 1927:0.1571742 2232:0.19347778 3654:0.20169832 3741:0.27270472 5452:0.25289798 5840:0.2383011 5848:0.28429091 6032:0.1774867 6220:0.19596413 7090:0.28429091 7875:0.28429091 8557:0.21450065 8602:0.13821545 9377:0.18525724 9834:0.25289798 10799:0.21450065 10880:0.20887963 13598:0.28429091 14132:0.19174542 #
-0.86144778452795479 6708:1 #
-0.60078328068079057 7984:1 #
-0.21067124786809396 8602:1 #
0.9999999999759277 462:0.502114 1212:0.72581309 6420:0.47018817 #
0.9999999999759277 2851:0.55488795 8560:0.47553203 13840:0.68261898 #
0.9999999999759277 462:0.55471039 2647:0.75702184 6949:0.3452743 #
0.9999999999759277 220:0.76040936 462:0.36764854 12799:0.53536171 #
0.83239507132567325 1231:0.76972926 3992:0.11837253 5735:0.25657642 6228:0.25657642 6396:0.24611972 8993:0.41278514 9107:0.17571391 #
-0.9999999999759277 6949:1 #
-0.56961950197071654 1739:0.24140663 3113:0.37897369 4315:0.3349576 6949:0.53744847 12799:0.31433544 13298:0.33886236 13583:0.42827544 #
0.9999999999759277 14:1 #
0.9999999999759277 1928:0.24971649 1994:0.24780524 2750:0.26482671 2873:0.48455775 6654:0.44678327 8162:0.44678327 8602:0.21721537 9131:0.35340023 #
0.9999999999759277 2893:0.69575483 3264:0.53160203 6708:0.48303676 #
0.9999999999759277 8602:0.4520821 11005:0.89197636 #
-0.9999999999759277 14:1 #
-0.6291281839333116 2851:1 #
0.9999999999759277 1579:0.47456706 6949:0.34469891 7442:0.57269919 13589:0.57269919 #
0.9999999999759277 462:0.19799942 833:0.29805279 2647:0.27021286 3673:0.16415262 3857:0.40952322 4510:0.40952322 4524:0.27462736 5464:0.48914176 6949:0.24648577 8429:0.24727738 #
0.9999999999759277 462:0.14547551 1601:0.18970434 3492:0.38175038 4000:0.28862515 4891:0.2731761 5260:0.30088776 5741:0.30088776 6817:0.30088776 6949:0.18109974 6992:0.28862515 8475:0.26766211 10714:0.14816351 12506:0.20809975 13697:0.21799575 13824:0.25896165 #
-0.12907166819267504 1708:0.26224759 3849:0.33205891 4793:0.24770118 5439:0.25528207 6950:0.25424212 8111:0.33205891 9028:0.28014937 9180:0.66411781 #
-0.094525682239088235 1212:0.69263303 5935:0.72129017 #
-0.18169339921687189 9173:1 #
-0.86930134489942168 2461:1 #
-0.34197739038471203 1212:0.61778706 10644:0.78634542 #
0.9999999999759277 14:0.47272876 8268:0.881208 #
0.9999999999759277 3463:0.79935354 12177:0.60086095 #
0.9999999999759277 56:1 #
-0.9999999999759277 56:1 #
-0.06613978327388971 6857:0.44730836 8342:0.63883656 9306:0.62594175 #
-0.48975906164263 1928:0.25513357 3359:0.30441403 5006:0.26861885 6798:0.29079941 7406:0.30971399 8560:0.23856957 9046:0.53956097 9194:0.35318169 9266:0.25747201 10714:0.22477813 #
-0.91454879787606413 56:0.63443851 3719:0.7729733 #
0.9999999999759277 397:0.20947744 462:0.16607313 1214:0.34348992 2859:0.31185463 2873:0.18626559 3811:0.24567214 4018:0.32949108 4970:0.34348992 5412:0.20213111 6308:0.24886136 7059:0.16344227 8082:0.34348992 8214:0.2254916 8393:0.3055599 #
0.50957035162148634 1005:0.44025421 1739:0.35293701 4632:0.32667553 6545:0.65274191 9046:0.38577557 #
0.9999999999759277 6590:1 #
-0.9999999999759277 6590:1 #
0.9999999999759277 56:1 #
0.9999999999759277 8119:0.57824719 13021:0.81586164 #
-0.87475334003576177 96:1 #
-0.27118198651330805 14:1 #
-0.44453650463511435 355:0.39854911 5849:0.61894661 9678:0.457093 13840:0.49912897 #
-0.9999999999759277 1541:0.36793101 5224:0.35646689 5250:0.48951289 5451:0.41795138 5464:0.39181024 7001:0.41199109 #
-0.68370360311628675 6613:1 #
0.9999999999759277 466:0.73812002 2658:0.23473947 3877:0.23803343 6034:0.24289922 7389:0.35848364 10625:0.39484909 #
0.9999999999759277 831:0.45975956 2658:0.29379815 5305:0.36490726 6034:0.30401084 6424:0.35345653 8369:0.35646793 11077:0.47404954 #
0.9999999999759277 2272:1 #
-0.11218685534754336 1184:0.5539242 2708:0.8325671 #
-0.9999999999759277 2272:1 #
0.9999999999759277 96:0.39139301 1168:0.5326966 2722:0.2440263 2995:0.49558327 5120:0.40940881 10916:0.30046412 #
0.9999999999759277 2765:0.6401906 3719:0.4246316 4696:0.6401906 #
0.9999999999759277 1650:0.35585028 1927:0.23177685 1928:0.23431607 3138:0.38061857 3161:0.41922945 4261:0.34739438 6104:0.40214387 11528:0.40214387 #
-0.078391414918068558 2773:0.61811465 8214:0.5962348 10916:0.51228738 #
-0.43926066444061973 5305:1 #
-0.059854943945154747 1172:0.27299225 13030:0.54205596 13042:0.516388 13174:0.60414732 #
-0.2304494770671246 8369:1 #
-0.33936468726399766 8119:0.60997725 13356:0.79241896 #
0.9999999999759277 2272:0.61575305 6801:0.49127266 12783:0.61603522 #
0.9999999999759277 1927:0.22414503 2272:0.40523958 4444:0.34413305 5820:0.36808577 6556:0.29373407 6735:0.40542528 7059:0.19291289 11433:0.38890228 11567:0.30416355 #
0.9999999999759277 30:0.39745048 748:0.39745048 2272:0.39726844 2361:0.32267359 3052:0.39745048 5715:0.3258712 6661:0.39745048 #
0.9999999999759277 1448:0.49171636 1739:0.27716646 2272:0.51237273 4200:0.37307799 4207:0.37482473 13605:0.37307799 #
0.9999999999759277 2272:0.26914424 3200:0.53853512 3673:0.21586555 5968:0.30856383 11899:0.41389605 13758:0.41959921 13860:0.38517311 #
-0.9999999999759277 2272:1 #
0.9999999999759277 1004:0.31913945 1172:0.2056905 1188:0.40842098 1575:0.41479015 2867:0.3671622 6420:0.21484825 6972:0.2847212 8627:0.30564743 9249:0.31476042 11563:0.24990876 #
0.9999999999759277 699:0.44858959 702:0.2242948 1172:0.19444032 1331:0.1268087 1558:0.2242948 2208:0.2242948 3021:0.30436361 3315:0.19952695 3816:0.2242948 5200:0.10897897 5224:0.24373552 6590:0.23464383 6634:0.21515372 6931:0.21515372 6972:0.13457423 7906:0.14999127 8126:0.18042491 8965:0.21515372 11603:0.11103312 11827:0.19952695 11928:0.1438209 #
-0.9999999999759277 5968:0.67179877 6999:0.74073368 #
-0.52781599291803505 11899:1 #
-0.9999999999759277 1691:0.54324841 4207:0.83957201 #
0.9999999999759277 1928:0.17552961 2722:0.14386556 2881:0.60250378 3117:0.26657268 6235:0.26657268 7717:0.35264754 8126:0.25262561 10916:0.17713843 10994:0.16292723 11735:0.31405094 13272:0.31405094 #
0.9999999999759277 1506:0.52806717 3817:0.54448026 6468:0.56761318 10916:0.32015863 #
0.9999999999759277 184:0.18879671 349:0.28538918 355:0.1709633 932:0.57077837 2722:0.13073571 3201:0.18830635 3933:0.19305421 5229:0.15794964 5994:0.21933845 7058:0.28538918 8107:0.28538918 9167:0.19805562 9473:0.28538918 13928:0.28538918 #
0.9999999999759277 3246:0.23146021 3673:0.13459598 4234:0.33578613 4931:0.67157227 6568:0.33578613 12804:0.37288585 14416:0.33578613 #
0.9999999999759277 1541:1 #
-0.16683173165280685 8225:0.68740213 12773:0.72627705 #
-0.91032635620802382 1541:1 #
-0.033190075222505291 7024:0.79528844 9124:0.60623121 #
-0.077842917835021161 2272:0.51210773 3731:0.85892123 #
0.9999999999759277 2409:0.59847403 3673:0.42920452 6999:0.67647052 #
0.9999999999759277 4207:0.70394558 4929:0.48046985 5224:0.52307683 #
0.9999999999759277 6999:1 #
0.9999999999759277 4207:1 #
-0.9999999999759277 1994:0.19409099 2073:0.32555816 3673:0.14026882 3877:0.21095929 4207:0.76763779 4851:0.32555816 7137:0.31129649 #
-0.19371901019836921 3770:0.7418341 6999:0.67058343 #
-0.15991799000251489 6746:0.7864483 6999:0.61765611 #
-0.130821697760935 9275:0.58335453 14186:0.81221765 #
-0.9999999999759277 462:0.44925594 4207:0.67944098 9596:0.58011127 #
0.9999999999759277 1691:0.38299829 2272:0.40456107 2535:0.67078614 12219:0.48958001 #
0.9999999999759277 166:0.23980826 1541:0.24351366 1691:0.41088495 2903:0.26176605 4565:0.37371233 5434:0.43421665 7984:0.25737795 9190:0.25070435 11917:0.43421665 #
0.9999999999759277 1541:0.48914206 6430:0.87220412 #
-0.10764034795035327 6176:1 #
-0.0068411378931034772 9029:1 #
-0.23189057105310934 38:0.25295302 1228:0.28986531 3145:0.23647724 3350:0.28287706 3717:0.26815781 4176:0.26446918 5857:0.19001278 6586:0.26116958 12822:0.31157279 13362:0.29887471 14049:0.29887471 14089:0.31157279 14180:0.31157279 #
-0.18188929586621283 5589:1 #
-0.094284839597587586 172:0.57923931 7243:0.52378488 8759:0.62460482 #
0.9999999999759277 9596:1 #
0.9999999999759277 1331:1 #
0.9999999999759277 3078:0.66159952 5412:0.41848281 9596:0.44397786 14435:0.43593794 #
0.9999999999759277 462:0.25903928 3828:0.53577232 4536:0.29139239 4949:0.51393706 5464:0.31996796 6994:0.33385268 12177:0.28804296 #
-0.83890239684218126 9596:1 #
-0.9999999999759277 1331:1 #
0.9999999999759277 3871:0.61040026 10916:0.3442924 12219:0.36916909 13764:0.61040026 #
0.9999999999759277 4136:0.38106886 5224:0.3644813 7246:0.59674388 10561:0.44859293 12219:0.40571049 #
0.9999999999759277 2903:0.40492666 3770:0.46943709 8260:0.67169106 8429:0.405579 #
0.9999999999759277 3226:0.77284056 4929:0.63460022 #
0.16427752285216746 1675:0.48265386 3537:0.41254288 4248:0.50316 4491:0.46810451 13067:0.35293314 #
-0.13633406290283545 166:0.61117375 6424:0.79149646 #
-0.11439700253216913 312:0.49210885 961:0.46079671 3114:0.52225244 7022:0.52225244 #
-0.9793670449805657 5224:1 #
0.9999999999759277 168:0.49328223 7087:0.57452673 9596:0.50150025 13021:0.41843668 #
0.9999999999759277 1533:0.28841707 1691:0.14225747 3586:0.30067083 5693:0.28841707 6275:0.30067083 6295:0.30067083 7754:0.28841707 7773:0.28841707 8564:0.26746914 8655:0.30067083 9270:0.30067083 12219:0.18184523 13467:0.30067083 #
-0.19615310945769715 7087:1 #
0.9999999999759277 3457:0.7512821 5224:0.65998119 #
-0.45548796208011194 3457:0.64927399 6556:0.76055455 #
-0.16762530478069881 5102:0.16874565 7366:0.18518716 7739:0.55556148 8764:0.1796048 12570:0.77222025 #
-0.19873346972880018 1751:0.42132831 3102:0.53039682 6669:0.73563695 #
-0.83102818050226424 2484:0.5027287 5300:0.55152899 6169:0.57800978 8623:0.33012775 #
0.9999999999759277 166:0.34229746 2851:0.37798044 2903:0.37363955 6266:0.46498868 6300:0.6197921 #
0.9999999999759277 166:0.23121716 397:0.25532052 1184:0.22837916 1660:0.22883907 3856:0.37243012 7126:0.40159851 7445:0.41866091 8546:0.41866091 9195:0.35536772 #
0.9999999999759277 1143:0.5810324 2001:0.24269372 4672:0.34447396 4747:0.37145284 5968:0.44374657 12537:0.38723448 #
0.9999999999759277 166:0.25636369 2633:0.84288257 6590:0.24280567 8560:0.24260326 13067:0.32560059 #
-0.30415399409802801 2104:0.58659256 3154:0.68721223 5200:0.42854235 #
-0.9999999999759277 168:1 #
-0.30339963450324264 1506:0.49179417 1739:0.28582641 4536:0.28750446 7635:0.40121436 7984:0.31333688 8725:0.50707978 11563:0.27838835 #
-0.78569125861545719 166:1 #
0.9999999999759277 4323:1 #
0.9999999999759277 2893:0.48186108 3457:0.35111344 4481:0.56768358 12938:0.56768358 #
0.9999999999759277 1331:0.35004169 2741:0.61914146 12177:0.33286408 13804:0.61914146 #
-0.81380735572606255 4323:1 #
-0.39718332495133757 415:0.21365099 464:0.12061393 1739:0.26844767 1921:0.23812425 1994:0.13768528 3485:0.15217391 3508:0.16946904 5224:0.26975754 5455:0.23094612 5464:0.14825188 5608:0.1979662 5748:0.17477278 6219:0.2080832 6304:0.19078808 6581:0.23812425 6969:0.12330119 7059:0.11812026 7455:0.21365099 7680:0.18840992 7906:0.16600485 9344:0.1979662 10576:0.24824126 10789:0.23094612 10799:0.18730079 13116:0.14466617 13865:0.19484317 #
-0.85680673489720161 1143:0.75496918 8626:0.65576029 #
-0.18177593572744732 7384:1 #
0.9999999999759277 166:0.38891792 2798:0.62644464 7088:0.67550719 #
0.9999999999759277 166:0.22769584 1349:0.41228491 2524:0.41228491 3574:0.24894495 3673:0.16525961 5837:0.28919032 8090:0.39548236 8098:0.34995565 8138:0.39548236 #
0.9999999999759277 1321:0.49012133 3113:0.47595707 8134:0.56072801 9377:0.36539656 13021:0.292088 #
0.9999999999759277 168:0.38118854 303:0.35933831 5074:0.31037211 6280:0.62074423 8053:0.26712444 10943:0.27609915 12332:0.31037211 #
0.9999999999759277 105:0.19491346 166:0.14267039 462:0.12489976 1319:0.24780262 1708:0.18980575 2127:0.17806961 2145:0.24780262 3132:0.25833082 4511:0.24780262 4990:0.25833082 5412:0.15201813 5525:0.1863385 6099:0.17748609 7281:0.1652821 7680:0.19606769 7880:0.22980453 8156:0.3854968 8427:0.16601357 8696:0.25833082 10479:0.15948801 11425:0.20127825 12260:0.15451458 #
-0.9999999999759277 1321:0.69937527 4524:0.53656727 7107:0.47219682 #
-0.72505999197449356 7059:1 #
0.9999999999759277 1751:0.25373146 5146:0.77424884 7635:0.35052365 8395:0.46183571 #
0.9999999999759277 81:0.30827329 1498:0.26598644 2589:0.2715964 2748:0.37679368 5531:0.23673993 5977:0.42356613 6882:0.24785702 6969:0.21038489 12692:0.33503574 13929:0.40630382 #
0.9999999999759277 2272:0.33017686 6849:0.57746673 9908:0.66065633 11563:0.34792048 #
0.9999999999759277 1994:0.4189485 5807:0.72456402 7157:0.54725605 #
0.9999999999759277 1184:0.25886914 4035:0.29800567 7137:0.84430355 7582:0.36239603 #
-0.18168770639486095 5258:0.36676848 9962:0.7647022 12380:0.36676848 14382:0.3823511 #
-0.23218199442619047 1601:1 #
-0.48840335217054887 1172:0.29008088 1448:0.64196533 2246:0.59533894 9190:0.38640016 #
-0.15724178949252973 112:0.22545967 124:0.21339163 142:0.21339163 1424:0.41816872 1969:0.37182543 2405:0.19476467 3129:0.21339163 3805:0.22545967 3806:0.21339163 3896:0.13303986 4666:0.21866331 9575:0.23503859 10546:0.21866331 11687:0.16881046 11846:0.22545967 11974:0.19950543 12737:0.22545967 13541:0.1631131 #
-0.55533065044762253 5968:0.60695601 6266:0.79473543 #
0.9999999999759277 7059:0.4597325 10385:0.5645926 13002:0.68547887 #
0.9999999999759277 2409:0.47208965 2903:0.50919133 7059:0.4019061 13389:0.59693134 #
0.9999999999759277 1321:0.449076 6909:0.42573512 11451:0.29859975 12464:0.51376969 12674:0.51376969 #
0.9999999999759277 1415:0.36948222 4370:0.36948222 4524:0.51660562 11892:0.36948222 12820:0.56882977 #
-0.46843497064401129 13002:1 #
-0.9999999999759277 2903:1 #
-0.10995540804735171 5179:0.67321986 8377:0.36297289 8695:0.36297289 10550:0.36297289 11451:0.2199204 11733:0.32118857 #
-0.38552956286362217 2903:0.70179141 5206:0.7123825 #
0.9999999999759277 5968:0.51279801 14356:0.8585093 #
0.9999999999759277 14:0.13467529 961:0.21180141 1927:0.14918868 1928:0.15082312 2581:0.17420056 3042:0.18600783 3395:0.26984701 4812:0.19464533 5080:0.17501028 5968:0.15461391 6032:0.16846918 6844:0.27124089 7059:0.12840089 8499:0.31537551 8729:0.19145067 8926:0.36192024 11285:0.26984701 13655:0.20739336 13932:0.40055439 #
0.9999999999759277 1280:0.54901487 1601:0.34614405 6001:0.54901487 6837:0.52663994 #
0.9999999999759277 1751:0.33791885 4390:0.61507148 8044:0.61507148 8499:0.3594231 #
-0.0050929692880801961 3343:0.29966 7270:0.95404607 #
-0.1816773076931224 7971:1 #
-0.063581454145379232 7059:0.27624917 8427:0.37309375 10238:0.33223009 12458:0.58056462 12619:0.58056462 #
0.9999999999759277 5206:0.62533069 7432:0.78035986 #
0.9999999999759277 56:0.37426388 2254:0.4980734 5193:0.65944642 5206:0.4206897 #
0.27109238929129831 2903:0.38384444 4573:0.54799855 9187:0.4234623 9850:0.61077058 #
-0.15815952999595989 7533:0.55353689 9230:0.55353689 13423:0.62224901 #
-0.49104116885159055 7432:1 #
-0.15509983647061565 5241:0.75300831 8538:0.65801102 #
0.83509090315026169 656:0.40302613 1739:0.24930875 2471:0.3647134 3691:0.42896172 4632:0.23075809 7059:0.43879557 7123:0.46108589 #
0.9999999999759277 151:0.10761553 464:0.15318352 1012:0.11057192 1014:0.15763713 1172:0.13665505 1402:0.15763713 1691:0.074583426 1849:0.14311881 1879:0.19293036 2065:0.15763713 2104:0.10483948 2110:0.31527427 2535:0.13062598 2818:0.15121268 2995:0.14665446 3091:0.15763713 3371:0.15763713 3492:0.10000081 3630:0.15763713 3673:0.063187018 4063:0.15121268 4322:0.15763713 4743:0.15763713 4750:0.11893898 5012:0.15763713 5058:0.15763713 5220:0.096973605 5464:0.094142295 5826:0.10601369 6309:0.15763713 6422:0.11017077 6558:0.15121268 6590:0.082455285 7059:0.37504119 7326:0.11274583 7655:0.14665446 7712:0.15763713 7853:0.12468909 7854:0.15121268 10281:0.14311881 10714:0.077623874 13813:0.11964329 13814:0.10322677 13946:0.11699638 #
0.9999999999759277 6113:0.66224623 6972:0.39733994 13040:0.63525659 #
0.9999999999759277 333:0.38801304 355:0.23244046 3226:0.23583394 4333:0.34516656 4929:0.19364962 5981:0.22898681 6736:0.38801304 7059:0.18462765 7343:0.34516656 8161:0.38801304 10398:0.27638561 #
-0.9999999999759277 9187:0.66664439 10479:0.30942097 10660:0.27827942 11563:0.26393825 11603:0.24810258 14398:0.50118482 #
-0.85415730600595752 10561:1 #
-0.04456861569189647 323:0.28601557 3101:0.31313661 3747:0.36215398 4775:0.36215398 6785:0.35342294 7246:0.34628919 8627:0.25072649 10385:0.2274767 12820:0.28743854 13866:0.34025764 #
-0.72266795078904278 5663:0.52365333 7246:0.74756968 8602:0.40856668 #
0.9999999999759277 4034:0.86047894 6844:0.50948602 #
0.9999999999759277 3662:0.84339768 12189:0.5372898 #
0.9999999999759277 20:0.40774262 3256:0.36271748 4344:0.31547648 5006:0.47988293 6844:0.2049244 6969:0.20252536 8427:0.2620315 10238:0.2333321 12803:0.40774262 #
0.9999999999759277 64:0.2808713 1172:0.12174314 1488:0.2808713 1927:0.15528361 2903:0.1693223 3852:0.2808713 4503:0.2808713 5978:0.2808713 6442:0.5617426 6443:0.2808713 12804:0.15595184 12974:0.26942447 14317:0.21586618 #
-0.9999999999759277 3673:0.27068797 4034:0.57321191 5758:0.60073376 11493:0.48710889 #
-0.11647347208860608 681:0.42160982 4218:0.3671416 6039:0.42160982 6668:0.46571586 12860:0.54111564 #
-0.9999999999759277 4773:0.58864409 5663:0.47407439 7182:0.65479124 #
-0.0308600458276179 462:0.34280249 9144:0.56082648 9721:0.42881426 10577:0.61974066 #
-0.12837096858540614 1172:0.41177657 5839:0.91128486 #
0.9999999999759277 10561:1 #
0.9999999999759277 5663:1 #
0.9999999999759277 464:0.20976594 1368:0.37157154 4318:0.86345851 5663:0.26902092 #
0.9999999999759277 4136:0.25384721 4844:0.30411837 6590:0.23374081 6697:0.42865139 9183:0.38459668 10561:0.29882807 13373:0.42865139 14078:0.42865139 #
0.9999999999759277 5201:0.72600675 6991:0.48966905 9187:0.48284414 #
-0.024336259676888287 1541:0.25336826 2023:0.41017911 2946:0.43337613 3918:0.43337613 11469:0.43337613 14324:0.45178866 #
-0.7757765065973995 10561:1 #
-0.18180138329988393 4749:1 #
-0.11728367331333878 2394:0.54175097 6608:0.84053904 #
0.72050067688037889 640:0.41886604 4632:0.2582081 5419:0.49490798 7955:0.51593477 8551:0.37055692 11928:0.33082443 #
0.9999999999759277 104:0.095808618 118:0.12431756 132:0.14444467 200:0.14444467 235:0.14444467 236:0.14444467 260:0.14444467 263:0.14444467 264:0.14444467 265:0.14444467 266:0.14444467 268:0.14444467 295:0.10777453 365:0.12625626 392:0.14444467 421:0.12849432 441:0.14444467 445:0.12849432 503:0.097423464 585:0.14444467 603:0.11519102 615:0.14444467 907:0.14444467 908:0.14444467 1172:0.062609278 1486:0.14444467 1783:0.14444467 1930:0.1103059 2350:0.10898511 2903:0.087077983 3110:0.14444467 3219:0.11175898 3291:0.14444467 3389:0.14444467 3673:0.057898972 4169:0.1096305 4183:0.27711576 5028:0.14444467 5206:0.26517636 5255:0.14444467 5744:0.14444467 6669:0.13855788 7059:0.068730891 7540:0.14444467 9167:0.10024235 9238:0.14444467 9344:0.11519102 10634:0.11425401 11936:0.12849432 12799:0.20339084 12821:0.14444467 #
0.9999999999759277 2367:0.44185537 5206:0.35625613 8194:0.58217067 12107:0.58217067 #
0.9999999999759277 1203:0.60997725 8851:0.79241896 #
0.9999999999759277 1740:0.57174438 4682:0.47945684 6699:0.57174438 10238:0.34108341 #
0.9999999999759277 15:0.22577854 1250:0.32564619 1751:0.18651043 2589:0.21768031 2911:0.33948168 3939:0.24487403 4088:0.20305309 5451:0.21626814 5452:0.30199429 6028:0.24595737 6381:0.32564619 11493:0.48974806 #
-0.9999999999759277 1232:0.31141719 2535:0.462731 2722:0.25580812 4844:0.38003683 6612:0.53565758 14156:0.43829733 #
-0.9999999999759277 305:0.42169484 2722:0.30762154 3574:0.40547669 4682:0.54017854 5464:0.40103868 11603:0.33242476 #
-0.11161538355437402 2582:0.64712596 13033:0.7623831 #
-0.53923419246536186 15:0.40957925 2722:0.28211641 3939:0.44421992 6678:0.39488846 9297:0.53829831 12177:0.33109197 #
-0.35441563605711202 722:0.55161214 4850:0.83410072 #
0.9999999999759277 1172:0.44757327 4017:0.51629388 7402:0.51629388 12140:0.51629388 #
0.9999999999759277 1172:0.41177657 8083:0.91128486 #
0.9999999999759277 1172:0.38452649 3578:0.5339523 8620:0.75301683 #
0.9999999999759277 1172:0.39769614 6898:0.91751719 #
0.9999999999759277 1172:0.38139501 1942:0.28336847 3147:0.43995458 9104:0.43995458 9878:0.43995458 11575:0.43995458 #
-0.9999999999759277 1172:1 #
0.9999999999759277 1870:0.50124043 5901:0.50124043 11603:0.4962602 11689:0.50124043 #
0.9999999999759277 1489:0.27309343 3770:0.19086185 4792:0.27309343 4929:0.13629553 5531:0.30527523 5553:0.26196361 5663:0.17017113 5759:0.54618686 9266:0.30807325 9522:0.27309343 12354:0.26196361 13408:0.26196361 #
0.9999999999759277 1331:0.36833131 10533:0.65149152 11603:0.32250923 14427:0.57955033 #
0.9999999999759277 2722:0.21334174 3477:0.39530715 4682:0.37462473 5499:0.39530715 6626:0.46571383 7877:0.32548198 9185:0.42282176 #
-0.9999999999759277 3578:1 #
-0.9999999999759277 722:0.59864539 8620:0.80101418 #
-0.83024068068235257 8620:0.62354708 10896:0.6669479 12804:0.40788421 #
-0.18161657905478124 9039:1 #
-0.14629328007446041 1172:0.55195504 13814:0.83387387 #
0.9999999999759277 1629:0.25051028 1751:0.14347711 2329:0.50102055 3673:0.10468035 4136:0.14835209 6660:0.50102055 7489:0.26115349 7925:0.25051028 8623:0.13268599 9296:0.26115349 10407:0.26115349 11563:0.27506179 12804:0.14500368 #
0.9999999999759277 2858:0.73946285 3673:0.15930116 4260:0.3812232 7466:0.36973143 7983:0.32932195 8602:0.19321609 #
0.9999999999759277 1751:0.49699622 4412:0.86775267 #
0.9999999999759277 1660:0.22296435 2409:0.22799113 2685:0.25718191 2722:0.18686345 3276:0.40791312 5893:0.40791312 10337:0.36286914 10815:0.40791312 13323:0.40791312 #
0.9999999999759277 47:0.44620967 1751:0.24514654 2722:0.20440696 7584:0.44620967 8270:0.4280245 8656:0.44620967 13655:0.34293848 #
-0.43403093298305917 1751:1 #
-0.053317087803439064 1739:0.35693663 8499:0.38575879 8984:0.56815445 9066:0.63323528 #
-0.033951982164019824 671:0.61396646 6051:0.78933209 #
0.9999999999759277 1172:0.43883547 2722:0.11594747 3341:0.22979616 4682:0.20360193 6235:0.21484245 6420:0.11459332 7107:0.14937183 7268:0.5062145 7620:0.25310725 7893:0.22979616 8151:0.25310725 10277:0.25310725 11690:0.25310725 12785:0.22979616 #
0.9999999999759277 1694:0.28737983 2153:0.34284139 3361:0.32886899 3667:0.34284139 3802:0.34284139 4218:0.23261449 5548:0.34284139 6509:0.34284139 8214:0.22506586 8560:0.17918061 8620:0.29101059 #
0.9999999999759277 760:0.69474959 8620:0.71925169 #
0.9999999999759277 1172:0.35424653 7118:0.56915587 10464:0.74200469 #
-0.32113480137277822 2127:0.19210139 3042:0.19210139 3295:0.19548041 4078:0.20015989 4565:0.2398545 5281:0.2398545 6590:0.14577293 6887:0.24791299 7073:0.37593168 8689:0.25302017 8733:0.26732931 8774:0.34665811 9784:0.27868712 10943:0.24791299 11451:0.16197124 13157:0.20476232 13655:0.21418752 #
0.57395765434813817 1939:0.86545044 4827:0.50099456 #
-0.17445120086024066 462:0.39866003 3673:0.33051154 4010:0.64718515 6629:0.55944943 #
-0.9999999999759277 1004:0.61989111 3779:0.34773436 5642:0.35420871 5837:0.32327214 6801:0.36753529 8560:0.24086834 11451:0.26785699 #
-0.48274476304104041 14:0.3991265 4018:0.76713169 6808:0.50220215 #
0.9999999999759277 1660:0.47115403 6678:0.55271083 9344:0.68740427 #
0.9999999999759277 1660:0.47962499 1996:0.87747359 #
0.9999999999759277 1083:0.2860406 1172:0.12398376 1660:0.31269825 1805:0.2860406 4315:0.21459718 4871:0.2743831 5200:0.13897964 5771:0.22811022 5875:0.2860406 8319:0.2743831 8602:0.13906612 8657:0.22451167 9274:0.2860406 10756:0.2860406 12222:0.2743831 12487:0.25445446 #
0.9999999999759277 1660:0.34058878 2468:0.59771234 3632:0.6231069 13121:0.37212497 #
0.9999999999759277 1331:0.37680259 1660:0.36429378 3475:0.42020071 3575:0.63931322 7717:0.37419227 #
-0.9999999999759277 1660:1 #
-0.080703894656357689 2272:0.51210773 5190:0.85892123 #
0.9999999999759277 462:0.2937184 3861:0.60749924 4088:0.36336157 6808:0.38149077 6857:0.38619018 8144:0.34345955 #
0.9999999999759277 5583:0.83203089 13116:0.55472928 #
0.9999999999759277 1691:0.25033656 3811:0.3784273 4013:0.5291034 6808:0.33226058 9187:0.35188994 12438:0.5291034 #
0.9999999999759277 1739:0.2801128 3939:0.37368324 5250:0.38653767 5464:0.30938801 6489:0.51805663 11463:0.51805663 #
-0.1241408085903766 127:0.89713705 2722:0.44175228 #
-0.72178624825196991 6324:0.58375752 9303:0.47820511 9344:0.65616083 #
0.9999999999759277 14:0.20047647 1766:0.38532105 3348:0.38532105 4009:0.38532105 5536:0.40169191 6369:0.29660711 7717:0.22552976 10183:0.40169191 10238:0.22986956 #
0.9999999999759277 7717:0.44542485 9487:0.76101524 11819:0.47164872 #
0.9999999999759277 14:0.27977461 1226:0.36708933 1283:0.49867818 6272:0.56058049 6844:0.28173807 7406:0.38034832 #
0.9999999999759277 3960:0.66426796 5224:0.41291589 8072:0.62309593 #
0.9999999999759277 1509:0.30786559 2069:0.52015692 3281:0.31111979 3578:0.31307453 4843:0.4114379 13468:0.52015692 #
-0.0017374522960480476 4358:1 #
0.9999999999759277 7435:0.63837177 9303:0.38678089 10525:0.66549379 #
-0.18166960131275656 9686:1 #
0.9999999999759277 4929:0.44655505 10244:0.89475614 #
0.9999999999759277 794:0.41692987 3264:0.27040142 3475:0.26286682 5266:0.41692987 6551:0.24976318 8602:0.20270136 8924:0.41692987 11140:0.32258481 14101:0.35883433 #
0.8798781519569141 766:0.33486483 945:0.27186286 1664:0.32121748 2270:0.222708 3673:0.13422668 3992:0.15449119 4615:0.19937776 5095:0.33486483 5636:0.33486483 6783:0.33486483 6798:0.21332695 8626:0.21821354 9303:0.19462135 12930:0.33486483 #
-0.046136863339876488 13121:1 #
-0.9999999999759277 760:0.38713542 1012:0.33119687 1331:0.26694992 6034:0.29046574 6851:0.37348214 7059:0.22467272 7132:0.43927515 8451:0.34364858 11089:0.28944507 #
-0.96187978454833734 1691:0.34500289 2798:0.64866632 7179:0.67838413 #
-0.9999999999759277 1331:1 #
0.9999999999759277 1361:0.47629386 2298:0.25018734 4569:0.45688266 5262:0.37983245 6402:0.47629386 6802:0.3614971 #
0.9999999999759277 954:0.5754413 1143:0.45005718 4536:0.32626411 9909:0.59988964 #
0.9999999999759277 3938:0.41979954 5001:0.30844313 5677:0.31494758 6232:0.40269074 6235:0.35633421 6678:0.26918122 6969:0.20851402 7745:0.41979954 8560:0.21940157 #
0.9999999999759277 4026:0.54277772 7001:0.34084764 12083:0.54277772 12315:0.54277772 #
0.9999999999759277 1078:0.37675169 1689:0.63997787 3626:0.44492075 13840:0.50053173 #
-0.83663867181932638 5677:0.61910766 6185:0.53519964 7118:0.57468867 #
-0.38135096345260933 314:0.58749479 8270:0.80922794 #
-0.36664832649340273 2254:1 #
-0.51265330728428327 1679:0.39976043 1942:0.27676219 5394:0.41218555 6700:0.41218555 8252:0.3189165 10574:0.39012277 11005:0.41218555 #
-0.64982595393860609 4088:0.34531736 6227:0.50463408 11602:0.53710836 11813:0.44982731 12189:0.36779124 #
0.9999999999759277 25:0.34071827 361:0.34071827 1331:0.1926306 1691:0.16120525 2154:0.34071827 3239:0.32683238 4556:0.32683238 5464:0.20347996 6708:0.40157339 8034:0.28920844 14042:0.29781514 #
0.9999999999759277 805:0.89684081 1691:0.44235349 #
0.9999999999759277 641:0.43269944 4528:0.34230107 5781:0.37407559 6146:0.45717007 7182:0.41018432 9670:0.31209147 13121:0.28462586 #
-0.15787783874845737 1189:0.32949391 1691:0.20893759 3626:0.29449654 4081:0.26023895 8508:0.30542168 10300:0.40093225 11657:0.41083696 12531:0.40093225 13840:0.33130586 #
-0.33448793607721894 4528:1 #
-0.0040763069233200611 4383:1 #
-0.9999999999759277 56:0.29669327 184:0.36052594 2722:0.24965273 4344:0.42165813 5997:0.45681742 7281:0.34868175 7414:0.34222984 10916:0.30739182 #
-0.67487268782693499 1569:0.44553196 2609:0.45342961 3673:0.20431337 6708:0.30037722 7754:0.48894179 12670:0.4742029 #
0.9999999999759277 6185:1 #
0.9999999999759277 314:0.33862776 958:0.44146672 968:0.46643317 3122:0.48625016 8734:0.48625016 #
0.9999999999759277 1541:0.3201991 3682:0.57095683 4088:0.34150457 4729:0.39356536 6860:0.54768765 #
0.9999999999759277 722:0.28587449 1181:0.28298846 3049:0.38251281 5027:0.40913689 5353:0.45064071 9570:0.40087855 10337:0.40087855 #
0.9999999999759277 1021:0.32282707 2230:0.42004198 4786:0.2895385 4929:0.20963463 5580:0.39077738 6659:0.40292329 8845:0.33788586 14335:0.40292329 #
-0.81831996448640876 6185:1 #
-0.35402695027066433 4729:1 #
0.071946485773664012 3081:0.26327756 4634:0.38066837 4804:0.36515436 6765:0.36515436 7414:0.23904799 7793:0.38066837 9521:0.38066837 9588:0.32762554 10561:0.25456202 #
0.9999999999759277 1232:0.17293668 1643:0.26321924 2272:0.15497911 2707:0.31010023 4186:0.2974622 4850:0.2974622 5200:0.15066959 6503:0.31010023 6573:0.21595581 7959:0.28849536 8680:0.31010023 10821:0.21915548 12086:0.31010023 13021:0.16153386 14280:0.2974622 #
0.9999999999759277 1739:0.28455877 2660:0.52627927 3949:0.52627927 5089:0.52627927 10916:0.29684448 #
-0.040547175567159005 1541:0.2505157 1642:0.28163773 3424:0.33903763 4777:0.25530952 5938:0.41558015 6145:0.29955968 7350:0.28971037 8851:0.42849696 13673:0.38445809 #
-0.096065322698360794 3459:0.64603013 7746:0.76331192 #
-0.43695948375883498 1021:1 #
-0.4093592843957678 2017:0.17662416 2468:0.51086569 3866:0.71064174 6356:0.20747595 9566:0.24176048 9670:0.17437366 11677:0.26628524 #
-0.065763778752590693 9670:1 #
0.9999999999759277 2172:0.66352665 6725:0.66352665 13021:0.3456367 #
0.9999999999759277 1631:0.62737632 2445:0.39716655 4799:0.46810439 6124:0.47909909 #
0.9999999999759277 4162:0.84089077 10479:0.54120493 #
0.9999999999759277 134:0.48737875 2323:0.48737875 2722:0.22326636 8707:0.48737875 11421:0.48737875 #
-0.55883461119896227 6124:1 #
-0.067474794610410505 14:0.18019399 1005:0.24351852 2750:0.21401037 2959:0.30646828 4420:0.32779941 4640:0.30646828 5552:0.31558862 6480:0.30264467 6481:0.27087337 8904:0.26277536 11865:0.36105219 11995:0.32118285 #
-0.46002170919934965 1853:0.49600357 4561:0.54344046 5193:0.57417393 6972:0.35913399 #
-0.25034517355790198 2445:0.52771658 8156:0.62197191 9167:0.57850337 #
-0.9999999999759277 1172:0.24498862 2873:0.30649781 3939:0.40769476 4088:0.3380664 5148:0.34128296 5464:0.33754757 12313:0.48645166 12804:0.31382817 #
0.9999999999759277 1172:0.21566691 3424:0.37763843 4078:0.35736048 6145:0.33366576 7679:0.43490833 8820:0.47728306 9268:0.39356482 #
0.9999999999759277 251:0.1933656 686:0.2967338 690:0.2967338 731:0.2967338 742:0.2967338 1042:0.2967338 1879:0.18158461 2377:0.2967338 2567:0.26396686 4459:0.2967338 6071:0.2967338 8254:0.2967338 9303:0.17245986 9670:0.19431253 #
0.9999999999759277 689:0.2666007 3744:0.5332014 4629:0.2666007 6212:0.25573546 8688:0.2666007 8720:0.22629598 9317:0.2666007 9670:0.17458023 13118:0.5332014 #
0.9999999999759277 1642:0.50580674 1814:0.76955831 5200:0.3897942 #
0.9999999999759277 4431:0.29814464 4491:0.33472854 5594:0.28240165 6145:0.24127997 6408:0.24411784 6497:0.35979572 6556:0.26067507 6957:0.30966133 8621:0.34513235 9183:0.30966133 12177:0.19343409 13912:0.23619592 #
-0.96240290509724424 5200:1 #
0.9999999999759277 14:0.25672877 2257:0.33520955 3939:0.37104842 5464:0.30720651 5529:0.49343947 8354:0.51440382 12804:0.28561917 #
0.9999999999759277 1822:0.43966097 2206:0.27396336 3939:0.31713507 4917:0.28191662 5979:0.43966097 6251:0.32464322 10904:0.43966097 12804:0.24411871 #
0.9999999999759277 3855:0.75080347 3939:0.66052562 #
0.9999999999759277 2861:0.56344557 2873:0.31852311 6721:0.51342106 7091:0.56344557 #
-0.9999999999759277 1172:0.13938494 1691:0.15214668 2022:0.30846676 2867:0.49761054 3485:0.39425293 4682:0.25867593 6028:0.23298191 6099:0.22093616 6307:0.272957 6312:0.30846676 12177:0.34576872 #
-0.70875579109487008 10479:1 #
-0.3528871904929396 1331:1 #
-0.061465048989851057 767:0.67596018 6145:0.55287051 9046:0.48724946 #
-0.18171987241729026 787:1 #
0.9999999999759277 39:0.37018979 5200:0.3073746 7281:0.4047567 9767:0.6068399 13233:0.48620754 #
0.9999999999759277 5091:0.66569704 5200:0.33718672 11979:0.66569704 #
0.9999999999759277 994:0.34705794 1802:0.41386086 2400:0.43144426 4552:0.3917084 5200:0.20962746 6290:0.43144426 6844:0.21683644 14137:0.30262932 #
0.9999999999759277 2658:0.2308327 2873:0.21055277 3992:0.35826677 4081:0.2288136 4679:0.38827759 5200:0.18865392 6293:0.38827759 8166:0.38827759 8252:0.28817493 10677:0.38827759 #
0.9999999999759277 56:0.19393671 288:0.25374708 1172:0.15440775 1691:0.16854493 3571:0.31137469 5200:0.17308341 5936:0.35623118 6595:0.35623118 8233:0.3417131 8326:0.35623118 13807:0.32342243 13993:0.3417131 #
-0.55969171796777717 5200:1 #
-0.091074555742965857 1341:0.27560416 1957:0.32739589 2761:0.2649141 5401:0.36489838 8147:0.33839557 11773:0.29236105 11860:0.38040155 12219:0.23006624 14137:0.26682627 14246:0.38040155 #
0.9999999999759277 2766:0.36038876 4378:0.32719707 4609:0.36038876 5225:0.36038876 6586:0.30208856 7559:0.32059267 9069:0.36038876 10479:0.22249644 11190:0.36038876 #
0.9999999999759277 355:0.36470976 3485:0.37320569 6742:0.60881037 7118:0.42397946 9715:0.42106494 #
0.9999999999759277 1445:0.29573369 1739:0.20522764 1994:0.21052016 4136:0.21561451 5451:0.24180004 5464:0.22667645 6131:0.35311559 6145:0.25453377 6196:0.30814883 7591:0.37955976 8901:0.23267321 10544:0.32667139 10994:0.19691271 12177:0.20405966 #
0.9999999999759277 90:0.2052844 112:0.1969181 166:0.11337404 433:0.14246416 513:0.2052844 2081:0.2052844 2817:0.2052844 2867:0.15883157 3432:0.2052844 3839:0.1909821 4278:0.2052844 4889:0.1969181 5220:0.25256953 5252:0.13050027 5531:0.11473773 6574:0.15401119 7499:0.1909821 7903:0.4105688 8126:0.16513278 8494:0.1909821 8526:0.15994719 8730:0.1577732 8937:0.2052844 9038:0.1969181 9046:0.12132469 9658:0.2052844 #
0.9999999999759277 3485:0.40456367 6869:0.63306791 7474:0.65996456 #
-0.9999999999759277 1172:0.33787596 3264:0.50555235 6251:0.57558388 14137:0.54677224 #
-0.9999999999759277 1188:0.86354655 6844:0.50426912 #
-0.9999999999759277 39:1 #
-0.6119362809848683 1184:0.36516222 7127:0.64212775 8560:0.34985617 9183:0.57613295 #
0.9999999999759277 1740:0.40684557 3045:0.42413092 4682:0.34117505 5663:0.26428622 7602:0.42413092 8017:0.40684557 10909:0.26634112 12177:0.2280221 #
0.9999999999759277 645:0.34204957 1938:0.46323419 4632:0.23183323 5200:0.45014673 8716:0.44435519 8969:0.46323419 #
0.9499275524789722 1233:0.24512583 2473:0.31578895 4586:0.30283678 5200:0.17553717 5364:0.36128137 5412:0.21260072 7250:0.32138672 8967:0.2563214 10205:0.3066628 11934:0.33611065 13021:0.18819454 14415:0.36128137 #
0.9999999999759277 1172:0.234235 1630:0.48072535 3775:0.37375042 5837:0.37905389 8564:0.48072535 10909:0.33935395 12177:0.29053044 #
-0.89018077257890582 2461:0.27997434 2622:0.27853221 3248:0.32319042 7983:0.35069719 8564:0.37648153 9036:0.40596721 11523:0.39372954 11983:0.39372954 #
-0.16751815779760737 5837:1 #
-0.12621257462634694 3969:0.63342851 8244:0.64647752 13121:0.42524719 #
-0.10940067097945916 2888:0.76185524 9843:0.64774734 #
0.9999999999759277 39:0.57683975 11808:0.81685734 #
0.9999999999759277 39:0.37037152 2671:0.6071378 7110:0.42094362 7412:0.56304097 #
0.9999999999759277 7418:0.50200993 14137:0.70425284 14138:0.50200993 #
0.9999999999759277 1038:0.42302167 1128:0.41026992 1188:0.37954557 5514:0.39229733 7892:0.44099429 11884:0.40037888 #
-0.9999999999759277 1172:0.31856167 5200:0.35709181 8053:0.63253903 11808:0.60901415 #
0.9999999999759277 6185:0.61633492 7983:0.78748417 #
-0.9999999999759277 4665:0.53739804 7983:0.62516975 8025:0.56600893 #
-0.71847803685617562 5981:0.34556898 7610:0.4908329 7983:0.48522326 8025:0.43930581 8145:0.45960194 #
-0.03223172389037976 11425:1 #
-0.9999999999759277 39:1 #
-0.42410145578889097 4347:0.40401611 5272:0.42686459 7705:0.40401611 8533:0.41399699 9218:0.40401611 10337:0.39586112 #
0.9999999999759277 42:0.47618091 509:0.45069271 590:0.30759567 2461:0.32839707 11387:0.49641207 13067:0.3481999 #
0.9999999999759277 1184:0.38399586 8464:0.70393485 9472:0.59751391 #
0.89697354021364084 1184:0.22494482 4043:0.39555931 5186:0.41236514 5697:0.30298078 6196:0.33478218 7646:0.39555931 9187:0.27425101 10479:0.25458556 13927:0.35002372 #
0.9999999999759277 1487:0.37912339 1882:0.37912339 1942:0.24418797 2149:0.36367232 3719:0.25146851 4088:0.22676386 5531:0.21189997 6934:0.33138433 8848:0.27467814 8869:0.29757184 10916:0.21384214 12177:0.20382507 #
-0.8205794132759221 8869:0.46181124 9266:0.66373694 9753:0.58837372 #
-0.058652850840374145 642:0.46885672 722:0.4007479 1691:0.29888907 5819:0.42992666 6686:0.58770984 #
-0.67755632599533677 1291:0.56986618 6590:0.32831797 8869:0.49265844 13354:0.56986618 #
-0.7608794158518013 5531:1 #
0.9999999999759277 39:0.57683975 11808:0.81685734 #
0.9999999999759277 2433:0.47959074 4665:0.34161735 6237:0.46004513 6821:0.46004513 8038:0.47959074 #
0.9999999999759277 1793:0.37915766 4467:0.3217032 5981:0.86760968 #
0.9999999999759277 14:0.33278808 7619:0.66680288 8660:0.66680288 #
-0.9999999999759277 5981:1 #
-0.0013622220583125099 2130:0.35180241 3189:0.34263438 3240:0.39210063 5224:0.22209436 5981:0.24123038 6246:0.37111291 6318:0.35180241 8072:0.33514354 13533:0.35180241 #
-0.1653347644156771 3026:0.62875265 5495:0.58308589 6863:0.51447159 #
-0.13405545314775547 6515:1 #
0.9999999999759277 9266:1 #
0.9999999999759277 3939:0.53523076 11913:0.71177763 14435:0.45486331 #
0.9999999999759277 107:0.40982074 3841:0.39311862 4787:0.40982074 5531:0.22905736 5946:0.40982074 6415:0.28440917 9769:0.29691863 10064:0.27111334 11563:0.21582331 #
0.38153849712693116 883:0.40868109 3979:0.47391626 6028:0.39894605 7822:0.51227999 8869:0.43219715 #
-0.022660957734377821 7315:0.73915744 8749:0.67353266 #
-0.9999999999759277 2266:0.37343189 3939:0.75008011 5412:0.30596408 10916:0.29326752 11604:0.3439602 #
-0.10661137620026873 13765:1 #
0.9999999999759277 5981:0.50824618 12727:0.86121184 #
0.9999999999759277 3434:0.25641969 4281:0.24596938 4744:0.25641969 5981:0.45398009 5982:0.25641969 8429:0.15483077 8430:0.71566433 #
0.9999999999759277 2387:0.6451751 5981:0.4092654 8430:0.6451751 #
-0.9999999999759277 5092:0.42899531 8429:0.37195948 8430:0.57309479 8435:0.59090739 #
-0.82605554226772338 959:0.55883455 4581:0.55883455 4929:0.29978979 7343:0.53435379 #
-0.9999999999759277 14:0.27265975 185:0.29155174 3226:0.33205551 3992:0.25204894 4929:0.27265975 6420:0.24734631 7977:0.35515919 8651:0.36047751 9053:0.35187984 10398:0.3891525 #
-0.19784932917757003 4467:1 #
0.9999999999759277 1217:0.55354881 4558:0.55354881 5715:0.45385686 8560:0.28930348 9266:0.3122257 #
0.9999999999759277 3786:0.64714712 8144:0.40299037 12223:0.64714712 #
-0.9999999999759277 10:0.52646631 2232:0.54301423 5715:0.65419328 #
-0.87092140409787167 6857:1 #
-0.076624583855992426 2722:0.43093997 4564:0.90238059 #
-0.10947715966745031 4304:0.67622644 11674:0.73669386 #
-0.2739256450462772 900:0.4563008 2461:0.35562527 7081:0.47820935 7520:0.44545794 12223:0.48806074 #
0.9999999999759277 2376:0.32724985 5092:0.23758148 5116:0.22510092 6828:0.2471686 9109:0.34115347 9650:0.34115347 9667:0.30348146 11111:0.34115347 12693:0.22510092 13105:0.34115347 13546:0.34115347 #
0.9999999999759277 6590:1 #
0.9999999999759277 2631:0.84070832 9053:0.54148823 #
0.9999999999759277 4088:0.39630106 8388:0.66257036 9075:0.63556749 #
0.9999999999759277 1184:0.30873641 3059:0.51384485 3234:0.56597054 8865:0.56597054 #
-0.029430293440020461 14207:1 #
-0.9999999999759277 6590:1 #
0.9999999999759277 2748:0.48811153 3673:0.2199409 6857:0.34881258 7877:0.38348159 10775:0.40940323 12945:0.52633995 #
0.9999999999759277 10:0.44938341 4721:0.57810283 7248:0.68106657 #
0.9999999999759277 2266:0.36517075 2461:0.33635101 3256:0.45229125 6267:0.36836582 6336:0.50843543 7394:0.39338401 #
0.9999999999759277 1116:0.70944661 6099:0.70475924 #
0.9999999999759277 104:0.19696644 168:0.18235445 2258:0.21818371 2461:0.39289466 3042:0.20469292 3673:0.11903057 3992:0.13700089 4426:0.21238856 5275:0.59390801 5603:0.29695401 6972:0.17816891 8845:0.23887269 13532:0.27626503 #
-0.9999999999759277 3059:0.91480833 3673:0.40388826 #
-0.69393681854205513 1768:0.37854308 2903:0.24529314 3572:0.36196032 4162:0.39030874 6267:0.5895927 13791:0.40689147 #
-0.63877427741467496 2748:0.63174021 8936:0.68121755 13021:0.36992833 #
-0.38928223278527813 340:0.51844114 346:0.44181669 1942:0.36779425 2461:0.37776193 3256:0.50797653 #
-0.9999999999759277 6957:0.8661136 6969:0.49984717 #
0.9999999999759277 2730:0.3369759 4917:0.25455761 5464:0.23708798 5968:0.22746484 6304:0.3051129 6590:0.20765541 8741:0.3969934 9620:0.3969934 11604:0.26262751 12505:0.3289685 13157:0.29168656 #
0.9999999999759277 1244:0.28334692 2621:0.36383256 3485:0.2862511 4200:0.33985651 6590:0.24425356 7355:0.33398184 9412:0.44793046 10104:0.46696135 #
0.9999999999759277 184:0.26367629 5220:0.2451936 6420:0.18045498 6590:0.20848465 6905:0.39857873 7742:0.79715747 #
-0.9999999999759277 464:0.55523086 4200:0.83169627 #
-0.51384942832103275 5220:1 #
0.9999999999759277 1172:0.18126476 1503:0.41819248 2397:0.29226986 5079:0.41819248 5083:0.35054135 6420:0.18933502 6969:0.20771579 8528:0.41819248 8869:0.32823694 13021:0.21784002 #
0.9999999999759277 6701:0.56535739 6957:0.52301878 9027:0.55172741 11563:0.32003003 #
0.9999999999759277 3666:0.5759176 6957:0.54595023 10163:0.60848767 #
-0.50912580494666371 2621:1 #
-0.1810326675109718 7272:1 #
0.9999999999759277 1756:0.72809488 4200:0.52991062 13121:0.43482471 #
0.9999999999759277 4081:0.23539364 4685:0.79888678 5713:0.39944339 8777:0.38316417 #
-0.58076729277667694 7355:1 #
-0.9999999999759277 433:0.095858656 466:0.08607088 1172:0.059871316 1386:0.093718469 2367:0.10483625 2550:0.13249861 2722:0.063275903 2803:0.11888104 2867:0.10687165 2873:0.074903183 2881:0.52999443 2901:0.11445972 2973:0.12850451 3222:0.13249861 3359:0.092114717 3485:0.084673569 3689:0.12540644 3896:0.078185141 4207:0.10100082 5179:0.12287514 5690:0.12850451 5703:0.1076223 6042:0.13249861 6833:0.11578298 6976:0.11578298 7059:0.065725222 7626:0.11445972 7877:0.09653604 7906:0.092369474 7907:0.12540644 8126:0.33333448 8379:0.11578298 8935:0.12540644 9050:0.097618438 9125:0.09521278 9314:0.13812798 10337:0.12287514 10714:0.068017147 11603:0.27351114 11670:0.11578298 11849:0.12287514 12022:0.27625597 14372:0.12540644 #
-0.53806670132520651 462:0.22071983 3127:0.38266528 3463:0.32651109 5377:0.29969007 6032:0.28500918 6420:0.20668584 6994:0.28446615 8627:0.29403543 11171:0.33225432 11593:0.38749984 13021:0.23780306 #
-0.18224927424663317 5155:1 #
-0.020512938536991328 2409:0.37842238 2412:0.62988782 7355:0.48424867 14137:0.47491163 #
0.9999999999759277 1420:0.41541165 2873:0.22526686 2939:0.3260543 4559:0.39848167 4953:0.41541165 11819:0.49392802 13946:0.30831352 #
0.9999999999759277 7386:0.66319954 8204:0.63617104 11819:0.39427498 #
0.9999999999759277 978:0.3094902 2409:0.23306836 3908:0.38794461 4929:0.20811497 4999:0.41699708 5376:0.41699708 11819:0.24790655 12824:0.40000248 13389:0.29470208 #
0.9999999999759277 1200:0.4195652 3312:0.40691763 5968:0.25061136 7509:0.4195652 8494:0.40691763 8799:0.43739092 10238:0.25029844 #
-0.20038471323359724 2025:0.36160627 2557:0.28847829 6531:0.33452624 11960:0.72321254 13336:0.3886863 #
-0.66905924812641571 11819:1 #
0.9999999999759277 1172:0.15240166 1606:0.27811372 3909:0.70320588 4827:0.203537 7355:0.2514748 7495:0.35160294 8386:0.35160294 13814:0.23024292 #
0.9999999999759277 462:0.2079547 760:0.35265198 3547:0.34021485 3554:0.43011379 3674:0.4125846 5617:0.29550952 11982:0.29849222 13771:0.43011379 #
0.9999999999759277 2867:0.64862096 4104:0.76111156 #
0.83352927300052038 2445:0.73797899 4827:0.6748237 #
0.9999999999759277 9050:1 #
-0.45400506050742839 11140:1 #
-0.9999999999759277 355:0.46629995 746:0.57771534 1368:0.66993237 #
-0.29144138982492673 6304:1 #
-0.15045271343780509 5697:1 #
0.9999999999759277 975:0.70322192 8623:0.35729066 9258:0.61467248 #
0.9999999999759277 1708:0.32690629 2379:0.42679548 8623:0.22605774 9190:0.25688902 10922:0.44492841 11346:0.44492841 11784:0.44492841 #
0.9999999999759277 56:0.34149787 1858:0.62727779 5596:0.62727779 11603:0.31052265 #
0.9999999999759277 2212:0.40249544 2837:0.38609186 3126:0.40249544 4379:0.40249544 6844:0.20228727 9201:0.40249544 12509:0.40249544 #
-0.68969424618165132 2873:0.32765192 6308:0.43776152 9487:0.57959384 13433:0.6042186 #
-0.53335077540038478 56:0.40416399 1776:0.63015163 6969:0.3687422 13946:0.55098963 #
-0.083309886582876816 4870:0.69565743 13758:0.71837372 #
-0.43079106571158232 462:0.29808742 3400:0.46001592 5670:0.59140903 6627:0.59140903 #
0.9999999999759277 3154:0.52106619 3492:0.42424551 7059:0.3182165 8102:0.66876304 #
-0.05031653047864193 5412:1 #
0.9999999999759277 918:0.34272188 1596:0.34272188 2001:0.22392194 3181:0.34272188 3289:0.34272188 9192:0.34272188 12049:0.34272188 13350:0.34272188 13871:0.35728282 #
-0.51845318867475565 10775:1 #
-0.090173095895395128 174:0.43085963 2321:0.45725149 2984:0.4492873 10613:0.43085963 13766:0.46667114 #
-0.078667813092234584 4846:1 #
-0.0022075242790235983 7148:1 #
-0.29197842598383966 1128:0.76629359 3616:0.39608976 3696:0.24927311 5326:0.23014434 6530:0.23014434 7756:0.26337036 11603:0.13591599 #
0.9999999999759277 56:0.4429546 4633:0.68201542 6995:0.58193314 #
0.9999999999759277 3427:0.39233688 6432:0.51048368 6969:0.25355676 7170:0.51048368 12461:0.51048368 #
0.9999999999759277 1698:0.60494077 9086:0.4423399 11488:0.48662025 13946:0.44897974 #
0.9999999999759277 303:0.23446825 1378:0.40503559 1945:0.38852847 6730:0.38852847 7410:0.38852847 11003:0.40503559 11152:0.40503559 #
-0.57129528861263279 6995:1 #
-0.43075794756289365 9086:1 #
-0.065072345195386405 11782:1 #
-0.083541485389118306 1847:0.53675067 9086:0.84374094 #
-0.015992083055540007 6458:1 #
0.9999999999759277 3574:0.41123271 5786:0.60584867 7837:0.68105435 #
0.9999999999759277 2030:0.47229224 3183:0.49235818 4075:0.49235818 6420:0.22291325 12815:0.49235818 #
0.9999999999759277 2272:0.26584744 3616:0.38369647 6849:0.464957 10781:0.53193849 12480:0.53193849 #
0.9999999999759277 211:0.29073367 1450:0.30995136 2345:0.42587182 4228:0.40851554 5200:0.20691998 5208:0.40851554 6802:0.32322782 13430:0.39620104 #
-0.69004680271181063 211:0.38606504 1498:0.3551259 8358:0.38981423 11753:0.56551492 11849:0.50306773 #
-0.095840764639188447 1745:0.56480324 2452:0.56480324 2851:0.35907966 13957:0.48275912 #
-0.9999999999759277 104:0.35469398 1660:0.2922931 1802:0.51295644 2378:0.43015811 6022:0.44824335 6422:0.37373057 #
-0.43491138324709777 39:0.15924335 1660:0.1487473 1782:0.24706972 1816:0.20781577 2070:0.26104236 2658:0.16178426 2722:0.12466313 3256:0.72624797 6367:0.26104236 6769:0.20915033 8746:0.19384313 8967:0.19307257 10238:0.15572907 #
-0.9999999999759277 1695:0.32517469 5530:0.31733519 5583:0.30551422 6952:0.33528158 7717:0.19624148 10238:0.40003538 11072:0.46618405 11589:0.27434134 14427:0.31092983 #
0.9999999999759277 2272:0.35686409 4443:0.63520539 6110:0.68495411 #
0.9999999999759277 2685:0.24926847 2935:0.39536169 3850:0.79072338 11506:0.39536169 #
0.9999999999759277 1172:0.14204031 2364:0.3276985 2409:0.36631504 3235:0.30486754 4261:0.54309458 6882:0.19175842 8175:0.3276985 11855:0.3276985 12823:0.31434324 #
0.9999999999759277 2820:0.60165334 4754:0.54624134 8606:0.46550807 13116:0.35062215 #
0.9999999999759277 1012:0.51254493 4536:0.39741436 8407:0.53688186 11017:0.53955293 #
-0.9999999999759277 4536:1 #
0.9999999999759277 6848:0.58290458 9185:0.52921933 10238:0.33356914 11849:0.51853716 #
0.9999999999759277 1660:0.20037672 1828:0.24583559 2224:0.36658904 4008:0.36658904 5760:0.36658904 6916:0.36658904 7457:0.35164881 7672:0.35164881 10238:0.20978183 12478:0.2655969 #
0.9999999999759277 1498:0.53180587 7810:0.84686631 #
0.9999999999759277 104:0.50788409 2043:0.65901077 6028:0.55475992 #
-0.72098276947793216 11017:1 #
-0.27808634524251763 641:0.42469576 1595:0.35503367 1647:0.41612336 8407:0.34369472 9998:0.40887552 10880:0.34369472 13215:0.3420448 #
-0.13754799561254114 14:0.31141469 3196:0.51160145 10363:0.6239773 13851:0.5019334 #
-0.0082945083676743102 779:0.41156277 2684:0.32334158 4070:0.36047435 4765:0.36595157 8407:0.67985588 #
0.9999999999759277 4536:0.67608106 7984:0.73682725 #
0.9999999999759277 306:0.35925788 2673:0.83588129 3992:0.26846561 4536:0.31648448 #
0.9999999999759277 4536:0.54747677 5293:0.32344851 5954:0.50331259 7485:0.50331259 7984:0.29833391 #
0.9999999999759277 1007:0.70708901 4536:0.47807351 7984:0.52102864 #
0.9999999999759277 1942:0.12547544 2673:0.13991851 2743:0.19481169 2761:0.13566813 3466:0.77924675 4536:0.31785876 6060:0.38962337 7030:0.1868722 7984:0.11547285 #
-0.11367895366015165 480:0.6858688 1226:0.46821484 8699:0.55709857 #
-0.9999999999759277 4536:1 #
0.9999999999759277 14:0.12310729 2531:0.24666837 3703:0.24666837 5167:0.49333674 6465:0.24666837 7990:0.24666837 9243:0.24666837 10238:0.14115681 10880:0.54371065 12546:0.24666837 13073:0.24666837 #
0.33812957205369548 7414:0.64971286 8407:0.76017976 #
0.9999999999759277 1331:0.34408909 1556:0.47769678 5583:0.53197646 6262:0.60861278 #
0.9999999999759277 1595:0.50083238 2161:0.65987635 3117:0.56011617 #
0.9999999999759277 1652:0.46771836 3919:0.8321408 5451:0.29796183 #
-0.21354542990285491 2458:0.74960321 5293:0.66188747 #
-0.9999999999759277 1187:0.50950283 4443:0.57300586 4793:0.44701937 5439:0.46070042 #
-0.045977655917808474 14:0.077135541 166:0.085357532 659:0.14378743 1403:0.14032091 1407:0.13509385 1413:0.14032091 1493:0.13509385 3470:0.24084346 3746:0.14378743 4536:0.084058598 5382:0.14378743 7405:0.13509385 9025:0.39356911 9096:0.12955295 10334:0.14032091 12804:0.085815825 12924:0.75286281 #
-0.17604278197964601 1994:0.34090772 3096:0.47555873 10131:0.61464351 12340:0.52899826 #
0.9999999999759277 1867:0.87847877 4536:0.47778136 #
0.9999999999759277 1003:0.65856594 1341:0.47713664 2761:0.45862958 4536:0.35817659 #
0.9999999999759277 1100:0.63137722 3226:0.19187522 4396:0.31568861 8402:0.28661379 11141:0.1942021 11352:0.58738875 #
0.9999999999759277 2041:0.5528875 3967:0.5528875 4523:0.5528875 13021:0.2880038 #
-0.52879957653703225 1341:0.62668562 2673:0.62124991 4536:0.47043988 #
-0.9999999999759277 7984:1 #
0.9999999999759277 19:0.454662 306:0.28069875 3947:0.43613237 6831:0.43613237 8697:0.35686168 8745:0.454662 #
0.9999999999759277 2443:0.82154703 4793:0.57014078 #
0.9999999999759277 306:0.31572667 886:0.49055657 2000:0.47576898 2387:0.47576898 7343:0.45492709 #
0.9999999999759277 1172:0.13888676 1232:0.17869349 1498:0.20121576 1660:0.17514247 2397:0.22393994 2425:0.29809892 2473:0.28007549 5146:0.53717619 5224:0.17409784 5384:0.23320527 5523:0.23320527 6234:0.27577487 9715:0.22161071 11603:0.15861969 11819:0.19049285 12238:0.21427451 #
0.9999999999759277 8:0.32765213 462:0.20744413 726:0.2902402 809:0.41157165 5857:0.26166105 8384:0.42905778 8413:0.42905778 14428:0.39916503 #
-0.63814167473541039 2387:0.55847454 3768:0.49218643 5626:0.54501045 10879:0.38577497 #
-0.09773543767988313 8729:1 #
-0.22065702581942195 4339:0.73481905 8606:0.67826319 #
-0.094547246944816241 935:0.36342525 1394:0.52944857 2466:0.43146095 2658:0.36010352 3299:0.52131873 #
-0.077197142052240569 1691:0.21384835 4152:0.4204931 5525:0.32602322 6487:0.43356261 7935:0.43356261 8565:0.43356261 13697:0.32746556 #
0.9999999999759277 7984:1 #
0.9999999999759277 4035:0.50691992 4929:0.40287599 5001:0.59310859 7984:0.47848234 #
0.9999999999759277 1341:0.54235101 1765:0.37428892 2310:0.37428892 2315:0.33981705 3485:0.22944215 3939:0.26998109 5018:0.37428892 10916:0.21111529 #
0.9999999999759277 4207:1 #
-0.9999999999759277 7984:1 #
-0.52986392347911926 1232:0.29886779 5771:0.42737705 7984:0.63531476 8623:0.27228478 9248:0.37191507 9596:0.33457768 #
-0.065572242913509063 2722:0.28621513 4447:0.59932929 7087:0.44686648 11788:0.59932929 #
0.9999999999759277 828:0.36342821 988:0.40029523 3096:0.30971432 3168:0.31418949 5006:0.23555896 5739:0.31188974 5863:0.38398132 5968:0.22935669 10193:0.40029523 #
0.9999999999759277 1172:0.30721334 2317:0.70876604 4383:0.48089075 6882:0.41474664 #
0.62035595835419632 3477:0.57703376 3913:0.58508182 6022:0.56983447 #
0.9999999999759277 1207:0.38489422 3171:0.51200825 6117:0.38279027 9618:0.57556528 11451:0.33451498 #
-0.29057316531071142 245:0.44640693 6225:0.610484 8926:0.42678571 13817:0.49586704 #
-0.11681585432770319 3281:0.54079467 6332:0.84115463 #
-0.9999999999759277 4929:1 #
0.9999999999759277 1232:0.18921761 2338:0.32546645 3425:0.60365516 4598:0.33929428 5510:0.32546645 8570:0.22753166 10494:0.33929428 11650:0.32546645 #
0.9999999999759277 168:0.24725181 6383:0.80527145 8137:0.40263572 11522:0.3581745 #
0.9999999999759277 168:0.44801876 305:0.45814958 1405:0.57708383 13541:0.50631255 #
-0.16071164620631784 3758:0.77294791 8382:0.63446945 #
-0.9999999999759277 462:0.11944769 464:0.12003721 2127:0.17029661 2315:0.22430068 3113:0.62911379 4161:0.19541699 5464:0.14754301 5787:0.19249216 6147:0.17459935 6808:0.15514247 7350:0.16022798 7394:0.19114955 7406:0.16762389 8049:0.20472148 8958:0.15394549 13893:0.22984186 14252:0.3686693 #
-0.30197362836265451 1405:0.45262498 11425:0.89170098 #
-0.9999999999759277 3044:0.36357495 3603:0.38023168 3756:0.29354301 4035:0.25665507 4892:0.33510011 6420:0.1850403 7717:0.22946812 11676:0.37106481 12252:0.3318119 12693:0.26967397 12804:0.22693148 #
-0.17688069756557673 6975:0.73915744 8966:0.67353266 #
-0.15117653613591647 2542:0.49880022 8325:0.59998339 12983:0.62547445 #
0.9999999999759277 4929:0.34320757 6242:0.68768024 11944:0.63976908 #
0.9999999999759277 3597:0.38102448 4929:0.39648202 6149:0.38102448 6215:0.38102448 6798:0.25304595 9195:0.33716211 10690:0.26790771 12235:0.39721277 #
-0.9999999999759277 4929:1 #
0.9999999999759277 786:0.53356028 1994:0.14796774 2938:0.2559076 3972:0.20248055 4140:0.53356028 5930:0.26678014 6969:0.13250944 8444:0.26678014 8892:0.26678014 9315:0.26678014 #
0.9999999999759277 12693:1 #
-0.65363178534041233 10690:1 #
-0.12679549840979759 1277:0.52342266 6746:0.43893492 7227:0.48540607 11566:0.54566091 #
-0.9999999999759277 1509:0.47035646 6099:0.54599476 7059:0.37813839 7158:0.58109027 #
-0.9999999999759277 11563:1 #
0.9999999999759277 1541:0.3063446 1739:0.29535821 2532:0.49594277 4899:0.52399004 11412:0.54625243 #
0.9999999999759277 468:0.48081014 642:0.53656358 1191:0.69348478 #
0.9999999999759277 3896:0.32004249 5254:0.50297618 6447:0.56541204 6569:0.39238709 7027:0.41343603 #
0.9999999999759277 4635:0.31449482 5531:0.23017946 6928:0.28994533 8751:0.39504445 8905:0.4118284 9187:0.27389404 9266:0.23228918 10043:0.37389916 13296:0.4118284 #
0.9999999999759277 464:0.15335083 1139:0.31561863 1842:0.31561863 2032:0.31561863 2206:0.19666959 2685:0.19899189 5464:0.18849024 5903:0.31561863 6064:0.30275568 6078:0.21165469 7252:0.30275568 11015:0.24102375 11089:0.19347678 11928:0.20237899 13410:0.31561863 #
-0.68666738391014792 168:0.69166267 11928:0.72222072 #
-0.15534732027516707 6145:1 #
-0.18146663967167098 510:1 #
-0.67274994041570502 503:0.44840297 1191:0.63772893 2024:0.50161684 10916:0.37498954 #
-0.96254101033462225 3130:0.56284839 3896:0.35813901 6699:0.60693014 13684:0.43194202 #
0.9999999999759277 5769:0.60526997 10100:0.60526997 10306:0.40705451 11563:0.31875247 #
0.9999999999759277 2201:0.49130526 3081:0.36524287 6546:0.38801438 7306:0.52809823 8626:0.34413347 11563:0.27811161 #
0.9999999999759277 144:0.22877644 145:0.22877644 697:0.29338917 726:0.15475799 739:0.26774496 740:0.25163904 872:0.24351609 1137:0.30269012 1524:0.21945272 1736:0.20351371 2352:0.21945272 2873:0.12405948 4167:0.18095942 4929:0.11417779 5224:0.12430281 5464:0.13662732 5868:0.22877644 6444:0.22877644 6934:0.19996901 6994:0.14255613 8602:0.11122564 11563:0.24096042 13655:0.17582822 #
0.76579680480074741 951:0.42662019 1395:0.42662019 4632:0.21350914 6205:0.30150297 7758:0.40923339 7893:0.38732862 13745:0.42662019 #
-0.9999999999759277 14:0.15187967 303:0.17616522 1332:0.20908238 1475:0.20841008 3027:0.22706172 8845:0.73439193 9050:0.43013972 11451:0.17686842 13889:0.22706172 #
-0.9999999999759277 186:0.28943187 685:0.19758339 708:0.27393964 739:0.17656176 740:0.16594088 854:0.18837337 872:0.16058427 970:0.2290058 1036:0.25002745 1137:0.199606 3541:0.28943187 5879:0.22062764 6105:0.28943187 7414:0.37895265 7785:0.28943187 14285:0.28943187 #
0.68532152245829192 3992:0.27105585 5931:0.58752263 6301:0.56357831 6721:0.513542 #
0.9999999999759277 648:0.77181077 13684:0.63585228 #
0.9999999999759277 9044:0.82589638 13684:0.56382191 #
0.9999999999759277 1073:0.66077048 1142:0.59991378 13684:0.451094 #
0.9999999999759277 650:0.6473608 5733:0.62097782 13684:0.4419395 #
0.9999999999759277 1473:0.48722512 1739:0.26344222 3088:0.48722512 5500:0.46736839 8019:0.48722512 #
-0.9999999999759277 833:0.41362584 1691:0.2688913 3378:0.39306107 13684:0.77596015 #
-0.09629161593300517 9050:1 #
-0.1127668948204483 6647:0.79241896 9215:0.60997725 #
-0.82132256347514032 6934:0.51323229 7508:0.4512735 7985:0.56323838 12692:0.46444306 #
0.9999999999759277 708:0.70126778 3959:0.38620302 6863:0.3031286 9021:0.38620302 11827:0.3435564 #
0.9999999999759277 1509:0.2850318 4785:0.4815779 5618:0.4815779 6808:0.30241606 8043:0.46195132 8126:0.38738593 #
0.9999999999759277 2554:0.36323914 5608:0.3019813 6234:0.65181434 6291:0.3786718 7158:0.27688932 13530:0.36323914 #
-0.12217003752811692 4536:0.49321932 12784:0.86990499 #
0.9999999999759277 1509:0.18563557 2146:0.31364214 2810:0.21411684 4259:0.31364214 5726:0.28475583 6028:0.22723641 6302:0.31364214 7538:0.31364214 7897:0.31364214 9101:0.31364214 11304:0.31364214 12835:0.31364214 #
-0.80495272468453138 1232:0.13619912 3168:0.76676196 3826:0.40943256 6234:0.42038795 8836:0.22173156 #
-0.54303733848898317 7027:1 #
-0.0060184932859698179 726:0.5011881 1026:0.67266238 6546:0.54436737 #
-0.18160020508918484 10298:1 #
-0.35377950780963746 1450:0.4547672 1724:0.59938264 7557:0.50728834 10306:0.42022115 #
0.9999999999759277 2356:0.41716638 2652:0.40016487 3027:0.3112604 3423:0.40016487 5441:0.37874553 8462:0.41716638 10230:0.30224061 #
0.9999999999759277 1258:0.43088129 2337:0.47459093 3673:0.19023426 3837:0.47459093 11036:0.34702653 13048:0.4552491 #
0.9999999999759277 2158:0.4559969 3673:0.18278106 6973:0.41399977 7062:0.41399977 7067:0.4559969 7383:0.4559969 #
-0.9999999999759277 3673:0.33207852 6099:0.56919301 8721:0.752159 #
-0.15251148317261695 2140:0.65016967 3359:0.49604687 9754:0.57551444 #
-0.9999999999759277 1233:0.51525271 2348:0.35325107 4111:0.34473467 5200:0.18448891 9195:0.32230148 9667:0.33777627 10026:0.35325107 12333:0.33777627 #
-0.9999999999759277 5582:0.5460133 8144:0.33181527 8602:0.28533834 12291:0.58690327 13541:0.40730166 #
-0.087191156849332152 7453:0.87264842 8623:0.48834902 #
0.9999999999759277 1772:0.53770804 5080:0.34873256 7027:0.39317852 7865:0.53770804 10952:0.38149232 #
0.9999999999759277 5634:0.93812257 5902:0.31270754 7059:0.14879514 #
0.9999999999759277 80:0.32827893 4532:0.37557065 4806:0.37557065 5149:0.26542503 5592:0.36026436 6378:0.37557065 7087:0.26861706 7414:0.23584677 8479:0.37557065 #
0.9999999999759277 1172:0.19841546 1446:0.40721214 2237:0.39397559 2722:0.20969836 3855:0.37531966 4034:0.38855624 5247:0.45776054 6078:0.30697542 #
-0.077885544139559143 5080:1 #
-0.59196035770016486 468:0.71593988 5080:0.69816196 #
-0.35757897200879496 10994:1 #
-0.99761364860297863 1172:1 #
0.9999999999759277 2348:0.77842623 2602:0.62773609 #
0.9999999999759277 1950:0.50327998 5771:0.41840518 8602:0.25507835 10130:0.50327998 14351:0.50327998 #
0.9999999999759277 667:0.45410758 947:0.45410758 2089:0.45410758 5523:0.3305015 8142:0.45410758 8144:0.25673708 #
0.9999999999759277 8148:0.66711831 8499:0.38983715 13605:0.4855316 14435:0.40894893 #
0.9999999999759277 1649:0.27280155 2390:0.27280155 4201:0.21336025 4997:0.28439188 5459:0.28439188 5461:0.25819948 7147:0.28439188 7273:0.28439188 7717:0.15967171 7878:0.27280155 8063:0.27280155 8664:0.20999339 9275:0.20425718 11730:0.28439188 14433:0.27280155 #
-0.15007019789785081 2602:1 #
-0.10934354708169659 1114:0.76443774 2602:0.64469761 #
-0.18186493190127961 329:1 #
-0.35517418917467913 5523:1 #
0.9999999999759277 1172:0.29303917 2493:0.67606509 8165:0.67606509 #
0.9999999999759277 381:0.27875492 740:0.15330604 764:0.24797329 1172:0.24165161 1226:0.18253927 1928:0.31160387 2596:0.27875492 2730:0.23661272 2845:0.26739433 3616:0.20107076 5418:0.25308171 8480:0.27875492 9158:0.17504948 9469:0.20382892 10281:0.25308171 11813:0.21719168 12770:0.27875492 #
0.9999999999759277 1232:0.15479434 1368:0.23889168 1474:0.19330046 1498:0.1743044 2083:0.27756843 2305:0.27756843 2543:0.27756843 2645:0.26625621 2649:0.27756843 2681:0.27756843 3961:0.25823006 7110:0.18460199 7281:0.17759047 11928:0.17798069 12003:0.27756843 13559:0.27756843 14245:0.27756843 #
0.9999999999759277 1828:0.29630882 3119:0.44185451 3315:0.39306256 5080:0.28656638 5772:0.44185451 6781:0.29979393 6897:0.44185451 #
0.86741818617333111 1172:0.23371422 6781:0.36584026 7197:0.53919762 7250:0.47965652 8585:0.53919762 #
-0.4976815420921209 251:0.51169401 3315:0.69852269 5451:0.50023532 #
-0.9999999999759277 1928:0.3707203 3056:0.60219103 4431:0.54962575 8570:0.44479647 #
-0.3808216768953569 1828:0.57296389 2155:0.81958061 #
-0.60904129450304523 642:0.67166084 961:0.23676971 1004:0.20287022 1138:0.21855381 3264:0.19564144 5515:0.26367337 6218:0.28936404 7059:0.14353748 7717:0.16936578 10250:0.28936404 12432:0.17241055 12628:0.22274263 #
-0.39284036863305072 4578:1 #
0.9999999999759277 1590:0.37904102 1691:0.37391278 1927:0.21846147 4891:0.35875234 7965:0.29177293 8774:0.24575989 9411:0.37904102 9662:0.37904102 12505:0.32743686 #
0.9999999999759277 389:0.27179614 462:0.26282015 1172:0.11780953 2020:0.26071915 2104:0.18076302 2362:0.24178295 2722:0.12450878 3061:0.27179614 3825:0.27179614 3887:0.20755848 5358:0.27179614 5841:0.26071915 6314:0.25285992 6437:0.27179614 6609:0.27179614 10994:0.14100575 13067:0.19064683 14052:0.26071915 #
0.38490166549364313 1894:0.30236816 3117:0.25665611 3340:0.30236816 3365:0.29004523 4028:0.30236816 4074:0.21537991 4125:0.2210952 4586:0.25345397 5200:0.14691278 6501:0.29004523 6844:0.15196502 8845:0.24322788 8847:0.24791285 11037:0.30236816 11845:0.27452016 #
-0.9999999999759277 462:0.55508322 6028:0.8317948 #
-0.99868030812719211 1606:0.50276679 1691:0.30073255 4167:0.50276679 9900:0.63561869 #
-0.48782665726990349 3492:0.47249117 4125:0.54461801 8355:0.69292372 #
-0.13897065826721944 1412:0.72417629 9715:0.55166209 10994:0.41380873 #
-0.050965122075323464 883:0.41407311 3154:0.43469414 7663:0.53517133 10994:0.28943878 13432:0.51903886 #
0.9999999999759277 8570:1 #
0.9999999999759277 4431:0.66512144 7828:0.74673522 #
0.9999999999759277 39:0.36703914 503:0.42305267 5294:0.60167515 6062:0.56946969 #
0.9999999999759277 114:0.45684761 128:0.45684761 269:0.45684761 429:0.45684761 2798:0.40640005 #
-0.11786895104058714 6256:0.84999305 11819:0.52679384 #
0.9999999999759277 1177:0.5613904 6099:0.42482972 6788:0.47841817 8786:0.52485859 #
-0.0096147335088863431 2272:0.4963609 10843:0.86811626 #
0.7164835277716759 3081:0.43932596 5645:0.63521361 6847:0.63521361 #
-0.1618927119949426 8570:1 #
-0.098621122144511589 8570:0.80169076 14400:0.59773904 #
-0.039980128472798554 67:0.51884848 167:0.41485563 532:0.5389238 2272:0.29666081 6424:0.4245522 #
0.9999999999759277 3817:0.57735026 7878:0.57735026 11126:0.57735026 #
0.9999999999759277 6028:1 #
0.9999999999759277 2867:0.30487844 2903:0.23754869 4968:0.394045 5006:0.23188092 6028:0.28548896 6655:0.394045 7033:0.394045 11014:0.394045 13817:0.30701986 #
0.9999999999759277 2216:0.92588592 10994:0.37780318 #
-0.14715781607226075 1519:0.55414647 3334:0.5975467 14487:0.57953399 #
-0.38904896764934904 2216:0.66584879 4400:0.74608672 #
-0.84791232343666001 6062:0.75649375 12040:0.65400094 #
-0.068525602098320385 2213:0.31017756 2787:0.33447036 4614:0.23586841 4909:0.28307948 5515:0.304775 7407:0.31656739 8182:0.304775 8427:0.22407602 8517:0.33447036 8771:0.33447036 8895:0.31017756 #
-0.18197978416840754 4219:1 #
0.9999999999759277 1889:0.49178782 2272:0.31072694 5122:0.59639984 7559:0.55308294 #
0.9999999999759277 8643:0.80048424 11687:0.59935379 #
0.71784776978790377 654:0.51353943 746:0.45469967 1187:0.48459691 4125:0.44797522 4632:0.30660966 #
0.9999999999759277 395:0.63080293 760:0.25859889 1172:0.13671018 2589:0.20223974 5076:0.31540146 5373:0.31540146 7717:0.17708203 8328:0.30254737 9144:0.24947877 13773:0.30254737 #
-0.73071873183952241 11687:1 #
-0.2386540729835287 2397:1 #
-0.078306866093576732 11563:1 #
0.9999999999759277 682:0.49293613 1321:0.5805347 4400:0.47309232 5000:0.44291884 #
0.9999999999759277 1879:0.30626428 5748:0.35235804 8045:0.50047725 11295:0.34498319 11334:0.50047725 11488:0.40258875 #
0.9999999999759277 1742:0.4848035 1879:0.29667282 5703:0.37773427 8560:0.25337484 10259:0.4848035 11571:0.4848035 #
0.9999999999759277 1138:0.43548688 1691:0.28439066 4637:0.46196473 5607:0.55920148 13840:0.45094949 #
-0.9999999999759277 978:0.33058119 2043:0.76669955 3574:0.26894912 7107:0.26286235 10916:0.25123316 11665:0.31359136 #
-0.17684417604612465 1242:0.26690915 1889:0.23253866 2786:0.27350292 3575:0.28200376 5410:0.27350292 6069:0.28200376 6715:0.22055738 7352:0.21026509 7488:0.24954036 7500:0.28200376 7660:0.23253866 7947:0.28200376 8697:0.23074722 12833:0.2410395 13313:0.29398504 #
-0.35688014840062993 1498:0.36433357 5096:0.5071218 8499:0.33903247 12754:0.43060076 13048:0.55653256 #
-0.13858331285990333 1889:0.71241808 10559:0.70175529 #
0.9999999999759277 2595:0.76999193 7983:0.63805366 #
0.9999999999759277 253:0.45002168 2794:0.58553946 5709:0.56167597 12189:0.37302023 #
0.9999999999759277 3937:0.67219007 8834:0.74037862 #
0.9999999999759277 131:0.48934245 3470:0.39746955 4833:0.48934245 6132:0.48934245 8323:0.35163882 #
0.9999999999759277 8993:1 #
-0.28215141838682245 253:1 #
-0.94510433578714925 97:0.32234904 253:0.36514059 632:0.35080948 1172:0.20593019 1857:0.45573515 1942:0.3060036 2806:0.4032723 13655:0.36514059 #
-0.9999999999759277 1942:0.45710406 2581:0.45814544 8847:0.58188128 10593:0.49251682 #
-0.9999999999759277 2730:0.8638289 11603:0.50378537 #
-0.9999999999759277 12189:1 #
0.9999999999759277 1110:0.50489759 7431:0.5427084 8312:0.39498556 13926:0.5427084 #
0.9999999999759277 2360:0.69224834 3465:0.72165936 #
0.9999999999759277 6354:0.63857955 6713:0.42945579 7064:0.63857955 #
0.9999999999759277 3592:1 #
0.9999999999759277 5244:0.70710677 12087:0.70710677 #
-0.63004726746670559 6713:1 #
-0.089125745298005987 1138:1 #
-0.9999999999759277 590:0.2129266 3592:0.61137038 4283:0.31198248 5116:0.22673547 6760:0.32962617 7833:0.26971385 10673:0.27403691 10714:0.16921106 11603:0.17010824 14350:0.34363073 #
-0.58226792932303773 2358:0.28287551 2419:0.30503005 2857:0.29583508 2865:0.29583508 4229:0.27368054 4586:0.26654837 6991:0.42894831 7906:0.42529449 7969:0.29583508 8312:0.23143424 #
-0.089099010709839194 6950:0.58005852 10385:0.47586426 13488:0.66112429 #
0.9999999999759277 8847:1 #
0.9999999999759277 1283:0.60069263 5790:0.64773834 10593:0.46861866 #
0.9999999999759277 3134:0.42687273 3947:0.40947565 6100:0.42687273 6434:0.40947565 7611:0.33505002 8380:0.33765122 12189:0.27194095 #
-0.9999999999759277 1283:0.74563432 6551:0.50212157 8560:0.43806773 #
-0.02593779759163126 3201:0.46523947 9515:0.70509732 13691:0.53515416 #
-0.51669817517010996 7611:1 #
0.9999999999759277 669:0.4392949 809:0.42139158 2730:0.37288225 3215:0.4392949 4537:0.34747702 6551:0.263161 8931:0.32777116 #
0.9999999999759277 1956:0.73343647 2466:0.67975801 #
0.9999999999759277 4976:0.65492272 10507:0.5033468 12966:0.56366497 #
0.9999999999759277 7310:0.70710677 14109:0.70710677 #
-0.9999999999759277 304:0.51593769 1226:0.49333465 6196:0.61162919 6420:0.34108496 #
-0.069331343524948519 4400:1 #
-0.17970829514184672 7965:1 #
-0.23415259551892767 3424:0.73052788 10952:0.68288291 #
-0.50211351940079507 8323:1 #
0.9999999999759277 3983:1 #
0.9999999999759277 11391:1 #
0.9999999999759277 6547:1 #
0.9999999999759277 2335:0.59074336 6279:0.59074336 12331:0.54958588 #
0.9999999999759277 890:0.23126051 1846:0.24108589 3610:0.24108589 4190:0.17243035 4208:0.46252102 4299:0.24108589 5034:0.24108589 5927:0.24108589 6317:0.16910565 7951:0.24108589 8230:0.46252102 9045:0.23126051 11786:0.24108589 #
-0.17015761727991252 3172:0.68434155 3427:0.72916162 #
-0.97100886828837729 1181:1 #
0.9999999999759277 10952:1 #
0.9999999999759277 1687:0.54126412 8034:0.5164668 10994:0.31566063 12806:0.58365542 #
0.9999999999759277 8527:1 #
-0.59668923745781843 14:0.46155119 1200:0.88711357 #
-0.1259102615971531 3995:0.49378139 9215:0.41713035 10297:0.51288682 13709:0.5649153 #
-0.9999999999759277 2409:0.3676815 3673:0.26368827 5146:0.5514226 8946:0.56617731 10909:0.41310436 #
-0.36764696498695049 5145:0.5138998 8215:0.38814345 10064:0.35440978 10694:0.37308824 12713:0.46108365 14435:0.32840896 #
-0.25084951430042257 1660:0.22657497 5912:0.39762515 8230:0.7952503 9377:0.27011979 9502:0.29183948 #
0.9999999999759277 1181:1 #
0.9999999999759277 1181:0.53180587 9247:0.84686631 #
0.9999999999759277 300:0.29805869 306:0.20268212 1181:0.4123176 2409:0.18349063 2722:0.15039048 3570:0.31491494 3679:0.31491494 4035:0.2061588 4668:0.32829449 5146:0.27518621 6420:0.14863406 7717:0.18432082 10267:0.32829449 13810:0.23578912 #
0.9999999999759277 4496:1 #
0.9999999999759277 5527:0.57983333 8109:0.81473511 #
-0.9999999999759277 1181:1 #
0.9999999999759277 1051:0.36500573 3146:0.35013002 3673:0.1463083 4378:0.33138883 6170:0.70026004 10055:0.35013002 #
0.9999999999759277 14:0.13867149 230:0.19089957 251:0.18106271 1645:0.27785411 2873:0.15067302 3171:0.24717197 3201:0.18333454 6099:0.57269871 6657:0.27785411 7576:0.25849584 7880:0.24717197 8519:0.27785411 10416:0.27785411 10479:0.17154129 #
0.9999999999759277 1602:0.43398073 2156:0.43398073 2401:0.43398073 3390:0.43398073 4565:0.37350929 6882:0.25395131 7059:0.2065004 #
0.9999999999759277 1681:0.70710677 2771:0.70710677 #
-0.62201857543429639 15:0.48370659 2722:0.333175 8109:0.69766247 10916:0.41023093 #
-0.18140077586459313 5527:0.59161007 7637:0.80622423 #
-0.1800190972488136 1753:0.81473511 5527:0.57983333 #
-0.11200835208253292 4646:0.4875119 6836:0.60441333 11741:0.63009256 #
-0.14002113258675969 2091:0.57951212 2675:0.6213603 5527:0.52733016 #
0.9999999999759277 8452:1 #
0.9999999999759277 2498:0.5574069 8676:0.59915006 9262:0.57473189 #
0.9999999999759277 5535:0.69224834 12448:0.72165936 #
0.9999999999759277 4235:1 #
0.9999999999759277 9352:1 #
-0.55725417142647959 1203:0.40632522 1934:0.51194352 5531:0.30756408 5535:0.52785546 8184:0.44675118 #
-0.21122805629206659 5323:0.56715333 6771:0.55005676 6994:0.36842185 12505:0.48993877 #
-0.70694331951933886 3475:0.54925144 12945:0.83565712 #
-0.20083025952705094 682:0.61193931 2340:0.7909047 #
-0.91043286622393682 519:0.39004534 773:0.40511194 4828:0.39455464 5739:0.36674544 9303:0.27356786 11226:0.35514829 13116:0.27430713 13605:0.34257743 #
0.9999999999759277 3463:0.43130857 4509:0.60304004 10916:0.34014091 11525:0.57846332 #
0.9999999999759277 5845:1 #
-0.22147983947424843 3105:0.59213609 6863:0.59213609 10230:0.54658008 #
-0.052322365718163955 1445:1 #
-0.53525362089354989 2489:1 #
-0.59321247046064773 8864:0.69328064 9721:0.4618293 9769:0.55324101 #
0.9999999999759277 913:0.29945189 1579:0.4962815 1739:0.16191339 2127:0.20641473 2367:0.22727774 2735:0.2455218 3939:0.21599986 4604:0.29945189 6281:0.28724781 6994:0.18659571 10238:0.17136237 11655:0.29945189 12804:0.3325372 #
0.9999999999759277 2273:1 #
0.9999999999759277 1674:1 #
0.9999999999759277 661:0.70710677 8273:0.70710677 #
0.9999999999759277 905:1 #
-0.043733704193887404 5590:0.8620199 9266:0.50687438 #
-0.79646842980670352 6185:0.56010348 7091:0.82842267 #
-0.10014460594887703 5968:0.77636093 12485:0.63028854 #
-0.3457766553049359 1651:0.5012942 2722:0.24683836 5797:0.51687509 6974:0.41148418 11403:0.5012942 #
-0.92375832393697921 8477:0.65136278 9070:0.75876647 #
0.9999999999759277 2489:0.34048909 2919:0.46783054 3979:0.40264243 5220:0.28779522 11913:0.44876423 13106:0.46783054 #
0.9999999999759277 2539:0.57735026 2799:0.57735026 12866:0.57735026 #
0.9999999999759277 8176:1 #
0.9999999999759277 3397:0.57735026 4223:0.57735026 11108:0.57735026 #
0.9999999999759277 3562:0.57735026 6410:0.57735026 11008:0.57735026 #
-0.95646771764374305 1564:0.33661747 2127:0.48378298 2410:0.29786709 2843:0.2941508 6303:0.33661747 6849:0.30673149 9678:0.24109882 10205:0.29786709 12542:0.3509191 #
-0.59729359339659382 2644:0.36710146 4207:0.32023317 5242:0.40743634 7662:0.38958788 8144:0.24760129 10276:0.4379485 13921:0.4379485 #
-0.9999999999759277 3081:0.29937923 3087:0.39300027 3092:0.40270901 4971:0.65320617 6420:0.19597892 8756:0.35869527 #
-0.3508127824337462 4750:0.58686996 7118:0.54167533 7167:0.60180682 #
0.9999999999759277 3665:0.59854031 9070:0.53244627 11520:0.59854031 #
0.9999999999759277 6825:0.5840928 8901:0.35805362 10235:0.51054406 11936:0.51959407 #
0.9999999999759277 5778:1 #
-0.88877058686129118 56:0.52199692 11936:0.85294735 #
-0.92786814413999275 1541:0.22304499 1980:0.38150942 4426:0.28445759 5778:0.36108863 6884:0.38150942 7094:0.37000903 11488:0.3199285 12361:0.3121669 13754:0.33337933 #
-0.69445581288368419 1642:0.39874235 6721:0.55280375 13094:0.53013033 13790:0.50435543 #
-0.37112967905271937 289:0.45569602 305:0.33249307 1457:0.44942769 2748:0.47100624 11422:0.50789505 #
-0.23559212386949685 4537:0.48579517 8543:0.57137334 10339:0.46339241 14317:0.47202015 #
0.9999999999759277 2835:0.52759212 2866:0.52759212 3081:0.36489287 8560:0.27573764 8602:0.25650272 9190:0.30461669 13021:0.27482724 #
0.9999999999759277 8280:1 #
0.9999999999759277 3875:1 #
0.9999999999759277 6205:0.57714218 9016:0.81664366 #
0.9999999999759277 5360:0.44721359 7760:0.89442718 #
-0.9999999999759277 2589:0.67334729 3875:0.7393263 #
-0.03609852685658721 2891:1 #
-0.0093236436133462552 3292:1 #
-0.12357403814417904 2413:0.61264735 4670:0.63168931 4988:0.47500724 #
-0.26913991603559756 4952:0.70512861 6205:0.53565091 8901:0.46461996 #
0.9999999999759277 4426:1 #
0.9999999999759277 6408:0.47085497 8207:0.69397473 12361:0.54469687 #
0.9999999999759277 56:0.16033527 95:0.27399191 1575:0.25742599 3047:0.29451066 3125:0.29451066 3673:0.23610236 3996:0.28250796 4972:0.29451066 6142:0.26198921 6950:0.20978293 7199:0.20509914 7490:0.28250796 8098:0.2499865 8439:0.29451066 13417:0.23115978 #
0.9999999999759277 2205:0.44704059 6721:0.40735087 7269:0.44704059 8120:0.46603364 10947:0.46603364 #
-0.12206744444843934 4258:0.70710677 13289:0.70710677 #
-0.38604025920706997 4426:0.62659711 4738:0.77934337 #
-0.58462518165368094 3960:0.49791461 6408:0.3864978 7017:0.48352513 8511:0.52995646 13021:0.2967324 #
-0.9999999999759277 1147:0.49029356 6408:0.53979629 8623:0.40421796 13541:0.55212325 #
0.9999999999759277 949:0.35043845 950:0.35043845 952:0.35043845 953:0.35043845 6523:0.31816322 7192:0.33615643 7996:0.27304384 8879:0.31174114 13879:0.35043845 #
0.9999999999759277 5783:0.69224834 9217:0.72165936 #
0.9999999999759277 7292:0.69224834 9649:0.72165936 #
0.9999999999759277 2661:0.72276044 3694:0.69109863 #
0.9999999999759277 10936:1 #
-0.77863774231184324 1994:0.43129447 8085:0.61507803 8098:0.66004854 #
-0.58739918436347849 9190:1 #
-0.38045442825195064 3887:0.4244315 6590:0.29071698 6629:0.37709776 9323:0.55578959 11483:0.53313857 #
-0.19612057025047025 5206:0.53782326 7347:0.84305757 #
0.9999999999759277 2515:0.39139381 3060:0.34817401 6062:0.35534659 6088:0.39139381 6089:0.39139381 7414:0.24578322 8247:0.37544265 8623:0.19885805 13116:0.22809038 #
0.9999999999759277 1288:0.53371537 2126:0.63671726 3960:0.55654204 #
0.9999999999759277 2349:0.58519053 5328:0.58519053 13066:0.56134129 #
-0.9999999999759277 2279:0.40990889 2425:0.44309118 2426:0.43240887 3673:0.19090869 4227:0.36849979 6000:0.43240887 7414:0.29908502 #
-0.36033927293730134 539:0.4574407 1575:0.47700521 2469:0.36807284 4807:0.47700521 11749:0.44743991 #
-0.18124771243380666 3388:0.69109863 4886:0.72276044 #
-0.13110733715922024 1695:0.35310271 2439:0.33175367 3427:0.29170346 3905:0.3266595 4404:0.33763444 4891:0.34458992 5166:0.27498427 8375:0.36407766 8453:0.36407766 #
0.9999999999759277 9190:0.55710208 12868:0.83044404 #
0.9999999999759277 1978:1 #
0.9999999999759277 5187:1 #
0.9999999999759277 657:0.44486299 2757:0.50273651 7456:0.52409589 9567:0.52409589 #
0.9999999999759277 2403:1 #
-0.016191257009532584 1498:0.46612662 6185:0.48140609 13113:0.74227631 #
-0.10381904145549214 7996:1 #
-0.45740861450990355 1341:1 #
0.9999999999759277 2395:0.36127502 6198:0.36127502 6765:0.34655136 7414:0.22686955 7993:0.36127502 8060:0.31578341 8477:0.27588949 11518:0.36127502 13635:0.36127502 #
0.9999999999759277 1697:1 #
0.9999999999759277 7434:0.7623831 8786:0.64712596 #
0.9999999999759277 6780:0.70710677 12025:0.70710677 #
-0.29800902850666539 3209:0.33173913 4253:0.33173913 4891:0.38077199 5148:0.25324023 6844:0.21078241 7467:0.38077199 7747:0.38077199 7748:0.39017865 9715:0.29006401 #
-0.13403499630827506 1932:0.24622829 5624:0.29740709 6340:0.34034386 6788:0.54903388 7651:0.2880505 9590:0.3548038 12615:0.33008438 12888:0.34034386 #
-0.35074132051423373 1286:0.46072578 5355:0.46072578 5724:0.48678142 6808:0.31867105 7509:0.48678142 #
-0.28522693988360098 3470:0.6420669 4880:0.76664859 #
-0.9999999999759277 1691:0.27307755 2658:0.34312883 3770:0.40337601 6708:0.3401275 7059:0.27463296 8081:0.55364567 9187:0.38385618 #
-0.12538329546940249 12310:0.88688678 13021:0.46198687 #
0.9999999999759277 6629:1 #
0.9999999999759277 5774:1 #
0.9999999999759277 3238:1 #
0.9999999999759277 6299:1 #
-0.9687627400945853 4078:0.64947701 6629:0.61354601 6969:0.44915572 #
-0.23286972925458022 2750:0.35578954 6629:0.40726006 7461:0.55842525 7744:0.33256346 7912:0.53396243 #
-0.013420091518547839 4536:0.53061682 5424:0.62390935 6266:0.24398221 8067:0.31195468 10763:0.30255097 12204:0.28425834 #
-0.11622017556835901 11133:0.83906692 13897:0.54402816 #
-0.32153645498694761 2566:0.57515049 5149:0.4237425 6629:0.4068135 11036:0.43842477 12002:0.36322269 #
0.9999999999759277 4680:1 #
-0.39040725640128793 1798:0.41460541 2409:0.26511475 2655:0.41460541 3238:0.42195481 7014:0.38509151 10879:0.30482528 12601:0.40823904 #
-0.9999999999759277 1600:0.6633423 3939:0.59999412 12177:0.44719571 #
-0.3706358095545651 4173:0.77095109 4637:0.63689435 #
0.9999999999759277 2353:0.59335917 7133:0.56917697 8770:0.56917697 #
0.9999999999759277 5383:0.76999193 10670:0.63805366 #
0.9999999999759277 8598:1 #
0.9999999999759277 13606:0.70710677 13742:0.70710677 #
-0.71745640456136572 4190:0.5399006 9235:0.56323087 10670:0.62552243 #
-0.37038231498318219 9144:1 #
-0.024237641464936472 1463:0.5513944 2582:0.48791954 4988:0.41462842 5990:0.53477287 #
-0.9999999999759277 1172:0.32212093 5083:0.62293804 8063:0.71287185 #
-0.22881981682686628 1116:0.62050378 1871:0.78420347 #
0.9999999999759277 3939:0.38888282 4109:0.5391286 6490:0.51715654 11879:0.5391286 #
0.9999999999759277 2281:0.57735026 9425:0.57735026 12302:0.57735026 #
0.9999999999759277 5399:0.59915006 12334:0.5574069 12449:0.57473189 #
0.9999999999759277 2166:1 #
-0.19375190522707758 2166:0.30139628 2326:0.30139628 2572:0.14615543 3502:0.13731867 3505:0.31605652 3711:0.14615543 4088:0.093966164 4426:0.11236218 4824:0.13335024 4948:0.14263183 4992:0.15069814 5096:0.13731867 5314:0.15069814 5793:0.30139628 5917:0.2238089 6762:0.14263183 7240:0.14615543 7326:0.11236218 7744:0.087041117 8119:0.11600232 8576:0.11786221 9254:0.13731867 9793:0.31420147 9847:0.15710074 10065:0.31420147 10306:0.10565296 12270:0.14263183 12804:0.087229103 14076:0.15069814 #
-0.030577927399732394 1994:0.56764811 7770:0.82327127 #
-0.27280548856332049 39:0.30935562 95:0.49182966 633:0.47997233 4120:0.50711644 7853:0.41816524 #
-0.030255558239570046 4862:0.40596795 5059:0.44495177 5934:0.45878148 9653:0.44495177 9656:0.47827339 #
-0.42263556048338302 11015:1 #
0.9999999999759277 6013:0.52626324 6099:0.36156899 9469:0.76961994 #
0.9999999999759277 4268:0.68121713 5083:0.57101649 10306:0.4581303 #
0.9999999999759277 5361:0.70710677 9436:0.70710677 #
0.9999999999759277 551:0.57735026 2657:0.57735026 2945:0.57735026 #
0.9999999999759277 1747:0.56917697 7172:0.59335917 13534:0.56917697 #
-0.24051774176316187 9469:1 #
-0.18181302535581581 10907:0.74037862 13581:0.67219007 #
-0.39076277635726075 2855:0.34532934 7562:0.30983806 8128:0.32024783 8853:0.34532934 9108:0.34532934 9436:0.34532934 9695:0.36000109 12059:0.27491662 14095:0.34532934 #
-0.15913402591098144 1705:0.34621069 3189:0.31964308 3277:0.33331406 4158:0.30958694 4935:0.33331406 6369:0.56314564 8312:0.27753446 10306:0.25645176 #
0.9999999999759277 39:0.24453749 2756:0.41789335 3226:0.25399515 3673:0.16750769 6939:0.41789335 9170:0.38877845 10661:0.31717232 11524:0.40086222 13067:0.29312426 #
0.9999999999759277 9284:0.70710677 12718:0.70710677 #
0.9999999999759277 13970:1 #
0.9999999999759277 2006:0.4157415 2680:0.4157415 4067:0.39879808 6493:0.4157415 7827:0.4157415 9184:0.38677654 #
-0.35359100032680746 10661:1 #
-0.045802597029500625 5412:1 #
-0.14667073574421685 3226:1 #
-0.52915894521807239 2661:0.65357774 3673:0.28159818 10042:0.70252299 #
0.9999999999759277 9181:0.67219007 9310:0.74037862 #
0.9999999999759277 4570:1 #
0.9999999999759277 11742:1 #
0.9999999999759277 5426:1 #
-0.85239294163017776 1390:0.26856512 1497:0.26856512 2384:0.24753134 2722:0.13830055 3206:0.26856512 3264:0.19580022 3915:0.21873119 4200:0.2197262 4570:0.28959888 5220:0.18572152 5531:0.1687398 5873:0.22649758 8515:0.48570719 11667:0.25017172 13220:0.26856512 #
-0.9999999999759277 1606:0.42635933 3937:0.48937759 6078:0.36146906 9754:0.41704866 10238:0.30845672 11752:0.42307475 #
-0.39743455689016371 7910:0.74659592 12820:0.66527784 #
-0.29488021379096735 836:0.47192279 1811:0.2766698 3933:0.45171291 10585:0.33388025 10988:0.28735694 12788:0.2387991 13946:0.49560377 #
-0.92287573283145174 1571:0.38539681 3071:0.41019791 5464:0.26331946 7198:0.41019791 8208:0.53161049 10799:0.33267671 10994:0.22874433 #
0.9999999999759277 5812:1 #
0.9999999999759277 6045:0.79476064 6282:0.60692298 #
0.9999999999759277 5892:0.57735026 6202:0.57735026 6763:0.57735026 #
0.9999999999759277 130:1 #
-0.27519397145588609 6282:1 #
-0.18221513876297379 69:0.5574069 489:0.57473189 11185:0.59915006 #
0.37296314248431334 1557:0.68067199 7414:0.427441 8060:0.59496206 #
-0.082510246845949209 1469:1 #
-0.66667609804243999 4524:1 #
0.9999999999759277 1622:0.79090559 3264:0.61193818 #
0.9999999999759277 5071:0.66465002 6375:0.74715483 #
-0.99653184709961784 2647:1 #
-0.63101929774037313 895:0.31612292 1674:0.39791304 7577:0.83228582 11603:0.22143136 #
-0.59722027283955337 13116:1 #
0.9999999999759277 3537:0.50288922 4524:0.41131505 8869:0.48141608 13643:0.58835441 #
0.9999999999759277 1549:0.45831633 6506:0.53251809 8827:0.49541721 11398:0.51081544 #
0.9999999999759277 9574:1 #
0.9999999999759277 3698:0.63619661 11838:0.77152699 #
0.9999999999759277 6932:1 #
-0.15093802464504641 3212:0.78052294 4786:0.62512714 #
-0.9999999999759277 3537:0.62683439 5170:0.64894128 10916:0.43122366 #
-0.55653974862881495 12799:1 #
-0.35748839794997134 9015:1 #
0.9999999999759277 2339:0.60478908 7414:0.37978888 11114:0.60478908 13116:0.35244954 #
0.9999999999759277 469:0.38074264 2647:0.26189628 2722:0.18182708 6196:0.32224205 7110:0.26397827 7813:0.76148528 #
0.9999999999759277 2778:0.5 3046:0.5 4969:0.5 12844:0.5 #
0.9999999999759277 7368:1 #
-0.9999999999759277 1739:0.34867984 7414:0.4049575 8602:0.31351966 10593:0.44752863 12433:0.64486849 #
-0.9999999999759277 169:0.72032106 464:0.37619489 2722:0.35468769 5464:0.46239766 #
-0.7692026843402171 1459:0.18411104 1512:0.23620644 2254:0.22266808 3001:0.43609765 3060:0.27339897 4426:0.21981454 6257:0.55806226 7414:0.19299798 7717:0.17255409 7906:0.2055234 9053:0.1979512 10090:0.21184981 10306:0.20668925 #
-0.3284276723088585 167:0.33888412 2757:0.46512857 4914:0.36179113 6080:0.39756334 11255:0.44023195 13016:0.43134597 #
-0.4440039795337688 2409:0.18636341 4986:0.31984535 6002:0.28697318 6347:0.27338415 6961:0.31984535 6972:0.20005669 7813:0.6396907 8958:0.207771 13325:0.33343437 #
0.9999999999759277 13782:1 #
0.9999999999759277 14332:1 #
0.9999999999759277 1566:0.41099221 5331:0.41099221 8241:0.41099221 8265:0.39424235 11369:0.41099221 12127:0.41099221 #
0.9999999999759277 8411:0.75803691 10689:0.65221167 #
-0.82941719958921911 10689:1 #
-0.69897986479822105 462:0.34665474 1815:0.68776715 14332:0.6378141 #
-0.53758325186740163 1601:0.4522728 8411:0.56741083 9202:0.68810922 #
-0.12848274757085826 5531:0.40637684 5792:0.69744235 8948:0.59028131 #
0.9999999999759277 261:0.35131499 472:0.35131499 571:0.35131499 1331:0.19862163 5890:0.35131499 7414:0.22061497 7519:0.35131499 8743:0.35131499 8958:0.21891287 10315:0.35131499 #
0.9999999999759277 1233:0.1957538 2254:0.20903075 3289:0.27675557 5640:0.28851387 6801:0.23008259 7097:0.27675557 8712:0.27675557 9119:0.2119824 9150:0.27675557 9344:0.23008259 10695:0.27675557 11073:0.28851387 12106:0.26194185 13757:0.28851387 13774:0.25665462 #
-0.75922398742970598 1928:0.40252671 2567:0.64065874 6166:0.65385669 #
-0.7278830126961745 1928:1 #
-0.32215560248303476 9119:1 #
0.9999999999759277 3712:0.45453122 6624:0.43600693 7976:0.45453122 8695:0.43600693 9833:0.45453122 #
0.9999999999759277 11348:1 #
0.9999999999759277 2513:1 #
0.9999999999759277 3851:1 #
-0.44001945324447095 1994:0.30003282 4660:0.42147893 9131:0.85576624 #
-0.24058081922207408 288:0.41345924 1207:0.38815966 2206:0.72338277 4218:0.39382848 #
-0.095912066864456746 2586:0.65388995 6533:0.56486672 9215:0.50334233 #
-0.80053966879334215 303:0.32178882 1771:0.46062881 4205:0.46595412 6027:0.47184095 7250:0.49449563 #
-0.3271363167688276 2233:0.48588654 4050:0.5009886 8848:0.37839174 9489:0.5009886 12693:0.34460822 #
0.9999999999759277 2567:0.83218366 2750:0.5545001 #
0.9999999999759277 462:0.20534524 1928:0.23738298 2761:0.29577541 3040:0.42471662 4004:0.42471662 4006:0.39512634 8845:0.34164619 8870:0.42471662 #
0.9999999999759277 7274:1 #
-0.17999333638916648 2750:1 #
-0.2515293630517938 2761:0.63428336 12285:0.77310067 #
-0.44915436505867989 3616:1 #
-0.46847943867940645 9158:1 #
0.9999999999759277 1952:0.28805754 2206:0.1871217 2953:0.60059208 5188:0.26713571 5412:0.17671311 6505:0.28805754 8560:0.15694495 9186:0.30029604 9945:0.28805754 10575:0.30029604 13605:0.21855676 #
0.9999999999759277 6438:0.65156358 10278:0.6250093 12693:0.42991665 #
0.9999999999759277 6059:1 #
-0.20398011082469186 762:0.412954 4088:0.29466727 8392:0.63606369 10273:0.38667837 10385:0.28788498 12693:0.32506192 #
-0.65726599769306748 3750:0.73326838 11603:0.40805054 12693:0.54388624 #
-0.03352523279367297 1927:0.32146341 2851:0.35459822 3719:0.38567039 7595:0.55775428 7870:0.55775428 #
-0.9999999999759277 5412:1 #
0.9999999999759277 7974:1 #
0.9999999999759277 3086:0.47123069 3513:0.35985768 7702:0.45202583 9260:0.47123069 10998:0.47123069 #
0.9999999999759277 1597:1 #
0.9999999999759277 3111:1 #
0.9999999999759277 2740:0.70710677 3518:0.70710677 #
-0.9999999999759277 726:0.36969402 5452:0.48616424 6422:0.38195172 6999:0.17263328 7641:0.22184572 7974:0.46389127 14276:0.43228537 #
-0.52519405389143192 3513:1 #
-0.9999999999759277 1229:0.40136981 1708:0.41232142 3485:0.34400836 7974:0.4763414 8602:0.27283269 10159:0.49921215 #
-0.077840795857272688 2301:0.49829641 6890:0.49829641 8239:0.48327553 11921:0.51946718 #
0.9999999999759277 3083:0.66424435 5412:0.39088324 8862:0.63717324 #
0.9999999999759277 4497:0.52984262 4612:0.55235362 6317:0.38743916 11934:0.51387078 #
0.9999999999759277 2012:0.3921968 2016:0.3921968 3281:0.23458342 4088:0.23458342 4768:0.37621292 6981:0.3921968 7655:0.36487219 13147:0.3921968 #
0.9999999999759277 2974:1 #
-0.29687053487604098 314:0.26064849 1828:0.25099072 3654:0.26554108 7655:0.69640058 7906:0.25028753 10814:0.33294675 13425:0.37427637 #
-0.8938732148413101 3281:1 #
-0.092343915142422683 8195:0.56503785 12581:0.82506496 #
0.9999999999759277 1999:0.45188066 5521:0.45188066 8602:0.2196936 14081:0.43346441 14082:0.45188066 14101:0.38891503 #
-0.059747422563349195 6220:1 #
-0.2908924470380797 14:0.28986892 185:0.3099533 1972:0.52731431 2906:0.54034114 14101:0.49987599 #
-0.18161372519246644 7020:1 #
-0.49817497527821847 1587:0.70710677 5384:0.70710677 #
0.9999999999759277 1471:1 #
0.9999999999759277 4575:1 #
0.9999999999759277 3720:1 #
0.9999999999759277 4022:1 #
-0.27057155713046638 1232:0.26436701 4575:0.40799347 8125:0.45472822 8554:0.34345177 9112:0.42170098 9125:0.32676524 13696:0.3928197 #
-0.77606911016232871 464:0.37489584 1302:0.5145582 4575:0.66407645 8623:0.39202735 #
-0.57339065251985077 1339:0.28644729 2859:0.30217043 3574:0.20096464 4104:0.30217043 5723:0.31925923 5770:0.31925923 6890:0.31925923 8154:0.30217043 8158:0.54576635 #
-0.26210443944809025 467:1 #
0.9999999999759277 5137:0.72165936 13801:0.69224834 #
0.9999999999759277 7668:1 #
0.9999999999759277 338:0.70710677 776:0.70710677 #
0.9999999999759277 4758:0.44624791 5227:0.63279653 6391:0.63279653 #
0.9999999999759277 3974:1 #
-0.49717210480516166 4790:0.42730978 5227:0.55787814 6141:0.47683999 6453:0.52801698 #
-0.19730458142729704 303:0.15539466 1184:0.14643312 2466:0.19121166 4720:0.24973647 4758:0.54476386 8454:0.48743135 8869:0.2106961 9327:0.26843879 11045:0.25749862 11402:0.26843879 13799:0.25749862 #
-0.1820011229199382 12733:1 #
-0.074287827877475093 956:0.63016272 2873:0.44166246 8602:0.39597291 11141:0.5010336 #
-0.0045236622043853814 3686:0.55883664 4636:0.67771119 4758:0.47792172 #
0.9999999999759277 5933:0.57735026 6561:0.57735026 8787:0.57735026 #
0.9999999999759277 6244:1 #
0.9999999999759277 7083:0.59617722 7580:0.80285287 #
0.9999999999759277 5174:0.70710677 8624:0.70710677 #
-0.70439282773045164 7083:1 #
-0.63230988519778031 1832:0.4157643 3493:0.39755103 7580:0.42868686 8697:0.35076943 10439:0.44690013 12177:0.24026334 12478:0.32378295 #
-0.095157326316916008 2170:0.58448613 7083:0.48374042 7704:0.65143776 #
-0.39489831302068135 230:1 #
-0.27896746600528155 1244:0.34576759 4498:0.50690794 9353:0.56983185 13929:0.54660851 #
