SVM-light Version V6.02
0 # kernel type
3 # kernel parameter -d 
1 # kernel parameter -g 
1 # kernel parameter -s 
1 # kernel parameter -r 
empty# kernel parameter -u 
3000 # highest feature index 
10473 # number of training documents 
2627 # number of support vectors plus 1 
0.84987457 # threshold b, each following line is a SV (starting with alpha*y)
-0.086890347557334935 2219:1 #
-1.0000000240560962 191:0.89442718 863:0.44721359 #
-1.0000000240560962 974:1 #
-0.34121994188445315 339:1 #
-0.025998701827337295 315:0.70710677 2167:0.70710677 #
1.0000000240560962 172:0.5 313:0.5 1120:0.5 1681:0.5 #
1.0000000240560962 22:0.33333334 44:0.33333334 779:0.33333334 1848:0.33333334 2132:0.66666669 2546:0.33333334 #
1.0000000240560962 990:0.70710677 1117:0.70710677 #
0.69228821882790392 669:0.70710677 705:0.35355338 992:0.35355338 1471:0.35355338 1511:0.35355338 #
1.0000000240560962 5:0.43759498 44:0.14586499 46:0.14586499 70:0.14586499 119:0.14586499 162:0.58345997 187:0.14586499 363:0.29172999 370:0.14586499 449:0.14586499 649:0.14586499 782:0.14586499 993:0.14586499 1670:0.29172999 1872:0.14586499 2140:0.14586499 2144:0.14586499 2461:0.14586499 #
-0.72142775547405935 990:1 #
-1.0000000240560962 162:0.70710677 2132:0.70710677 #
-1.0000000240560962 7:0.15430336 22:0.30860671 27:0.15430336 47:0.15430336 67:0.15430336 73:0.15430336 75:0.30860671 79:0.15430336 87:0.15430336 128:0.15430336 162:0.30860671 214:0.15430336 272:0.15430336 310:0.46291006 970:0.15430336 978:0.46291006 2395:0.15430336 #
-0.32783641435990407 156:0.70710677 1664:0.70710677 #
-0.12963683806243176 1086:1 #
1.0000000240560962 974:1 #
1.0000000240560962 6:0.31622776 168:0.31622776 531:0.31622776 974:0.31622776 2121:0.31622776 2122:0.31622776 2150:0.63245553 #
-0.45807353784752114 365:1 #
0.1423291027286116 3:0.44721359 14:0.44721359 22:0.44721359 1334:0.44721359 1374:0.44721359 #
-1.0000000240560962 974:0.70710677 2121:0.70710677 #
1.0000000240560962 132:0.89442718 1427:0.44721359 #
1.0000000240560962 14:0.2 131:0.2 168:0.2 191:0.2 654:0.2 971:0.2 2461:0.80000001 2556:0.2 2595:0.2 2600:0.2 #
1.0000000240560962 450:0.35355338 1098:0.35355338 1672:0.35355338 2461:0.70710677 2530:0.35355338 #
1.0000000240560962 528:0.70710677 2461:0.70710677 #
1.0000000240560962 46:0.49319696 54:0.16439898 68:0.16439898 162:0.32879797 167:0.16439898 650:0.16439898 2133:0.16439898 2136:0.16439898 2461:0.65759593 2526:0.16439898 2530:0.16439898 #
-0.1294323272900943 8:0.33333334 23:0.33333334 49:0.33333334 192:0.33333334 194:0.33333334 226:0.33333334 753:0.33333334 851:0.33333334 1844:0.33333334 #
-1.0000000240560962 1670:1 #
-0.99941719640505955 1681:0.57735026 1871:0.57735026 2461:0.57735026 #
-1.0000000240560962 5:0.2 126:0.40000001 274:0.2 364:0.2 478:0.2 531:0.60000002 779:0.2 2132:0.40000001 2461:0.2 2491:0.2 2534:0.2 #
-0.14984458759609476 264:1 #
1.0000000240560962 974:0.70710677 2121:0.70710677 #
1.0000000240560962 974:1 #
1.0000000240560962 68:0.35355338 168:0.35355338 643:0.35355338 974:0.70710677 2121:0.35355338 #
-1.0000000240560962 974:1 #
1.0000000240560962 1120:0.57735026 1518:0.57735026 2461:0.57735026 #
1.0000000240560962 20:0.36514837 125:0.18257418 146:0.18257418 247:0.18257418 717:0.36514837 873:0.18257418 882:0.18257418 965:0.18257418 1869:0.18257418 2121:0.18257418 2150:0.18257418 2461:0.54772258 2530:0.36514837 #
-0.013071914370928361 208:1 #
-0.14996867552028703 1165:1 #
-0.087526180936012568 849:0.70710677 1208:0.70710677 #
-0.086953804170887175 1909:0.70710677 2805:0.70710677 #
-0.086203500401066918 373:0.70710677 422:0.70710677 #
-1.0000000240560962 251:1 #
1.0000000240560962 126:1 #
1.0000000240560962 1871:1 #
1.0000000240560962 991:1 #
1.0000000240560962 167:0.44721359 262:0.44721359 660:0.44721359 1088:0.44721359 2461:0.44721359 #
-1.0000000240560962 126:1 #
-1.0000000240560962 991:1 #
1.0000000240560962 68:0.70710677 1659:0.70710677 #
1.0000000240560962 68:0.57735026 168:0.57735026 1650:0.57735026 #
1.0000000240560962 5:0.18569534 7:0.18569534 214:0.18569534 491:0.18569534 768:0.18569534 974:0.18569534 1120:0.18569534 1507:0.18569534 1638:0.18569534 2121:0.74278134 2461:0.18569534 2559:0.18569534 2585:0.18569534 2586:0.18569534 #
1.0000000240560962 6:0.70710677 79:0.35355338 783:0.35355338 1852:0.35355338 2121:0.35355338 #
1.0000000240560962 447:0.70710677 2121:0.70710677 #
-0.92197410300202665 1871:1 #
-0.14541048494986716 221:0.57735026 262:0.57735026 1088:0.57735026 #
-0.15020173452297447 2859:1 #
1.0000000240560962 3:0.22941573 6:0.11470786 8:0.11470786 23:0.11470786 46:0.22941573 53:0.11470786 126:0.57353932 130:0.11470786 162:0.3441236 178:0.11470786 188:0.11470786 204:0.11470786 214:0.11470786 250:0.11470786 364:0.22941573 451:0.11470786 487:0.11470786 530:0.11470786 637:0.11470786 645:0.11470786 679:0.11470786 779:0.11470786 852:0.11470786 885:0.11470786 1508:0.11470786 1682:0.11470786 2121:0.22941573 2132:0.11470786 2150:0.11470786 2523:0.11470786 2548:0.11470786 2597:0.11470786 #
1.0000000240560962 162:0.70710677 1670:0.70710677 #
-0.66839969816053135 221:0.37796447 242:0.37796447 640:0.37796447 875:0.37796447 1678:0.37796447 2124:0.37796447 2534:0.37796447 #
-1.0000000240560962 162:1 #
1.0000000240560962 10:0.57735026 221:0.57735026 2117:0.57735026 #
1.0000000240560962 14:0.81649661 221:0.40824831 246:0.40824831 #
1.0000000240560962 4:0.37796447 214:0.37796447 221:0.37796447 240:0.37796447 495:0.37796447 2461:0.37796447 2534:0.37796447 #
-1.0000000240560962 14:0.44721359 74:0.44721359 132:0.44721359 214:0.44721359 530:0.44721359 #
-0.29647097880952555 2144:1 #
-0.40368100405205509 71:0.5 417:0.5 727:0.5 879:0.5 #
-1.0000000240560962 14:1 #
1.0000000240560962 46:0.28867513 63:0.28867513 162:0.86602539 2543:0.28867513 #
1.0000000240560962 162:0.70710677 226:0.35355338 290:0.35355338 2519:0.35355338 2560:0.35355338 #
1.0000000240560962 1:0.44721359 162:0.89442718 #
1.0000000240560962 91:0.37796447 162:0.75592893 215:0.37796447 1394:0.37796447 #
1.0000000240560962 73:0.35355338 162:0.70710677 226:0.35355338 342:0.35355338 1683:0.35355338 #
-1.0000000240560962 162:1 #
1.0000000240560962 14:0.70710677 2495:0.70710677 #
1.0000000240560962 14:0.70710677 24:0.70710677 #
1.0000000240560962 14:0.40824831 316:0.40824831 530:0.81649661 #
-1.0000000240560962 10:0.44721359 162:0.44721359 191:0.44721359 310:0.44721359 734:0.44721359 #
-0.048807746001403252 226:1 #
-1.0000000240560962 126:0.37796447 358:0.37796447 365:0.37796447 1117:0.37796447 1683:0.37796447 1872:0.37796447 2413:0.37796447 #
0.79165084419444065 1:0.21320072 5:0.21320072 6:0.42640144 109:0.21320072 162:0.21320072 172:0.21320072 178:0.21320072 189:0.21320072 191:0.21320072 222:0.21320072 432:0.21320072 483:0.21320072 530:0.21320072 565:0.21320072 1276:0.21320072 1287:0.21320072 1379:0.21320072 1606:0.21320072 2566:0.21320072 #
-0.19929756954267785 529:1 #
1.0000000240560962 74:1 #
-0.96801399714080227 8:0.37796447 20:0.37796447 74:0.37796447 231:0.37796447 240:0.37796447 1159:0.37796447 1980:0.37796447 #
-1.0000000240560962 7:0.5 74:0.5 124:0.5 974:0.5 #
-0.76318455344131064 8:0.33333334 10:0.33333334 74:0.33333334 529:0.33333334 530:0.33333334 760:0.33333334 778:0.33333334 1789:0.33333334 2855:0.33333334 #
-1.0000000240560962 974:1 #
1.0000000240560962 214:1 #
1.0000000240560962 156:0.44721359 363:0.89442718 #
1.0000000240560962 214:0.57735026 2121:0.57735026 2505:0.57735026 #
1.0000000240560962 68:0.5 870:0.5 2562:0.5 2581:0.5 #
-1.0000000240560962 214:1 #
-1.0000000240560962 214:1 #
1.0000000240560962 8:1 #
1.0000000240560962 74:1 #
-0.6795791877051045 1101:0.70710677 2461:0.70710677 #
-0.028093213730043951 1050:0.70710677 1802:0.70710677 #
-0.60023387759704572 870:1 #
1.0000000240560962 10:0.53452247 214:0.80178374 487:0.26726124 #
1.0000000240560962 55:0.70710677 214:0.70710677 #
1.0000000240560962 214:0.70710677 1456:0.70710677 #
-0.062447843354830446 594:1 #
-1.0000000240560962 214:1 #
1.0000000240560962 208:0.35355338 961:0.35355338 974:0.35355338 1680:0.35355338 2121:0.70710677 #
1.0000000240560962 7:0.23570226 91:0.23570226 162:0.47140452 205:0.23570226 345:0.23570226 363:0.23570226 482:0.23570226 530:0.47140452 567:0.23570226 870:0.23570226 1336:0.23570226 2528:0.23570226 #
1.0000000240560962 437:0.70710677 2121:0.70710677 #
1.0000000240560962 992:0.70710677 2121:0.70710677 #
1.0000000240560962 132:0.57735026 530:0.57735026 1681:0.57735026 #
0.41746267595345832 74:1 #
-0.29811922262185586 156:0.57735026 487:0.57735026 2737:0.57735026 #
-0.99227768974057984 1120:1 #
-1.0000000240560962 91:0.40824831 156:0.40824831 162:0.40824831 190:0.40824831 314:0.40824831 616:0.40824831 #
1.0000000240560962 214:1 #
1.0000000240560962 214:0.57735026 1460:0.57735026 2535:0.57735026 #
1.0000000240560962 119:0.35355338 130:0.35355338 162:0.35355338 214:0.70710677 364:0.35355338 #
1.0000000240560962 214:0.44721359 365:0.44721359 1645:0.44721359 1667:0.44721359 2588:0.44721359 #
-1.0000000240560962 214:1 #
1.0000000240560962 156:0.75592893 167:0.37796447 965:0.37796447 2125:0.37796447 #
1.0000000240560962 49:0.2773501 156:0.5547002 165:0.2773501 278:0.2773501 570:0.2773501 979:0.2773501 2554:0.5547002 #
-0.15084011025336552 2383:1 #
1.0000000240560962 1:0.26726124 2:0.26726124 126:0.26726124 156:0.53452247 344:0.53452247 565:0.26726124 1683:0.26726124 2550:0.26726124 #
-1.0000000240560962 364:1 #
1.0000000240560962 190:0.57735026 760:0.57735026 975:0.57735026 #
1.0000000240560962 877:0.5 974:0.5 1236:0.5 1871:0.5 #
1.0000000240560962 5:0.37796447 105:0.37796447 139:0.37796447 191:0.37796447 370:0.37796447 870:0.37796447 1088:0.37796447 #
1.0000000240560962 395:0.70710677 991:0.70710677 #
1.0000000240560962 490:0.70710677 778:0.70710677 #
-1.0000000240560962 2535:1 #
-0.14433852654029045 1018:1 #
-0.19214238539256906 1872:1 #
-1.0000000240560962 167:1 #
1.0000000240560962 7:0.44721359 156:0.44721359 191:0.44721359 364:0.44721359 572:0.44721359 #
1.0000000240560962 364:0.70710677 2491:0.70710677 #
1.0000000240560962 7:0.40824831 146:0.40824831 249:0.40824831 364:0.40824831 417:0.40824831 2461:0.40824831 #
1.0000000240560962 364:0.70710677 2476:0.70710677 #
1.0000000240560962 191:0.70710677 364:0.70710677 #
-1.0000000240560962 364:1 #
1.0000000240560962 20:0.37796447 167:0.75592893 363:0.37796447 2504:0.37796447 #
1.0000000240560962 167:0.70710677 2462:0.70710677 #
1.0000000240560962 992:1 #
-0.17740857823200981 222:1 #
-0.10216931135093925 833:0.37796447 853:0.37796447 882:0.37796447 937:0.37796447 1939:0.37796447 2020:0.37796447 2527:0.37796447 #
-0.14992378567657871 1197:1 #
-0.18770637080426195 126:0.70710677 1024:0.70710677 #
-0.88580673449359693 36:1 #
1.0000000240560962 183:0.28867513 214:0.28867513 421:0.28867513 422:0.28867513 530:0.28867513 760:0.28867513 995:0.28867513 1100:0.28867513 2535:0.57735026 #
0.87875400193741915 488:0.40824831 569:0.40824831 673:0.40824831 858:0.40824831 2475:0.40824831 2535:0.40824831 #
0.8782774622622479 1864:0.37796447 2132:0.75592893 2508:0.37796447 2535:0.37796447 #
1.0000000240560962 22:0.89442718 340:0.44721359 #
1.0000000240560962 115:0.44721359 190:0.44721359 781:0.44721359 856:0.44721359 1872:0.44721359 #
-0.33007513141954725 214:1 #
-1.0000000240560962 27:0.5 343:0.5 856:0.5 1219:0.5 #
-0.035139694302180197 214:0.57735026 533:0.57735026 1008:0.57735026 #
-1.0000000240560962 22:1 #
-0.86697579314443296 528:1 #
-0.087082080846357504 738:0.70710677 2133:0.70710677 #
-1.0000000240560962 46:0.5 204:0.5 779:0.5 2132:0.5 #
-1.0000000240560962 2530:1 #
1.0000000240560962 22:0.75 39:0.25 340:0.5 780:0.25 1087:0.25 #
1.0000000240560962 22:0.70710677 369:0.70710677 #
1.0000000240560962 22:0.57735026 249:0.57735026 340:0.57735026 #
1.0000000240560962 22:0.40824831 191:0.40824831 208:0.40824831 364:0.40824831 369:0.40824831 2494:0.40824831 #
-0.95672344813254417 22:1 #
1.0000000240560962 204:1 #
1.0000000240560962 222:1 #
1.0000000240560962 7:0.57735026 119:0.57735026 1671:0.57735026 #
1.0000000240560962 91:0.30151135 156:0.30151135 204:0.60302269 285:0.30151135 365:0.30151135 878:0.30151135 1875:0.30151135 2137:0.30151135 #
0.11845927467333826 4:0.44721359 859:0.44721359 1467:0.44721359 1876:0.44721359 2492:0.44721359 #
-0.013011274687711682 1185:0.5 1227:0.5 1734:0.5 2066:0.5 #
-1.0000000240560962 162:0.57735026 191:0.57735026 340:0.57735026 #
-0.9904074070979596 208:1 #
1.0000000240560962 43:0.5 364:0.5 1238:0.5 2500:0.5 #
1.0000000240560962 46:0.57735026 367:0.57735026 760:0.57735026 #
1.0000000240560962 120:0.5 248:0.5 868:0.5 2512:0.5 #
1.0000000240560962 24:0.44721359 314:0.44721359 1683:0.44721359 2489:0.44721359 2507:0.44721359 #
-0.49426203567425264 364:0.57735026 1238:0.57735026 2121:0.57735026 #
-0.0051015991029514929 53:1 #
-1.0000000240560962 155:0.5 364:0.5 781:0.5 2588:0.5 #
-0.088948392441130675 162:0.70710677 2103:0.70710677 #
-1.0000000240560962 1238:1 #
1.0000000240560962 91:0.37796447 126:0.37796447 138:0.37796447 162:0.37796447 208:0.37796447 272:0.37796447 392:0.37796447 #
1.0000000240560962 208:0.70710677 395:0.70710677 #
-1.0000000240560962 162:0.70710677 856:0.70710677 #
-0.085763462002242719 217:0.57735026 2653:0.57735026 2799:0.57735026 #
-1.0000000240560962 91:0.40824831 162:0.81649661 1236:0.40824831 #
-1.0000000240560962 130:0.40824831 162:0.81649661 564:0.40824831 #
1.0000000240560962 191:1 #
1.0000000240560962 191:0.57735026 978:0.57735026 1674:0.57735026 #
-1.0000000240560962 191:1 #
1.0000000240560962 162:0.70710677 2501:0.70710677 #
1.0000000240560962 162:0.70710677 1612:0.70710677 #
1.0000000240560962 144:0.5 162:0.5 856:0.5 991:0.5 #
1.0000000240560962 6:0.57735026 162:0.57735026 2599:0.57735026 #
-1.0000000240560962 272:0.5 395:0.5 573:0.5 2133:0.5 #
-0.79591815336206884 272:0.70710677 2581:0.70710677 #
-1.0000000240560962 44:0.37796447 364:0.37796447 395:0.37796447 1203:0.37796447 1683:0.37796447 1794:0.37796447 2728:0.37796447 #
-0.74055050502907749 45:0.33333334 76:0.33333334 192:0.33333334 272:0.33333334 345:0.33333334 363:0.33333334 369:0.33333334 591:0.33333334 641:0.33333334 #
-1.0000000240560962 23:0.53452247 272:0.26726124 316:0.26726124 322:0.26726124 395:0.26726124 1128:0.26726124 1670:0.26726124 2133:0.53452247 #
1.0000000240560962 162:0.44721359 178:0.44721359 868:0.44721359 1238:0.44721359 1525:0.44721359 #
1.0000000240560962 5:0.26726124 125:0.53452247 167:0.26726124 172:0.26726124 214:0.26726124 529:0.26726124 641:0.26726124 647:0.26726124 761:0.26726124 876:0.26726124 2535:0.26726124 #
1.0000000240560962 274:0.70710677 564:0.70710677 #
1.0000000240560962 641:0.44721359 1238:0.44721359 2461:0.44721359 2471:0.44721359 2593:0.44721359 #
1.0000000240560962 2:0.5 20:0.5 566:0.5 1238:0.5 #
-0.11130547330195151 1921:1 #
1.0000000240560962 23:0.63245553 70:0.31622776 272:0.31622776 2133:0.63245553 #
-1.0000000240560962 70:0.31622776 187:0.31622776 249:0.31622776 423:0.31622776 529:0.63245553 574:0.31622776 641:0.31622776 #
-1.0000000240560962 70:0.44721359 187:0.44721359 191:0.44721359 974:0.44721359 1674:0.44721359 #
-0.98691345255365093 274:1 #
-0.71146626920068368 5:1 #
1.0000000240560962 272:0.70710677 1608:0.70710677 #
1.0000000240560962 229:0.70710677 272:0.70710677 #
1.0000000240560962 272:0.57735026 454:0.57735026 974:0.57735026 #
1.0000000240560962 165:0.20851441 247:0.20851441 272:0.41702881 394:0.20851441 481:0.20851441 779:0.20851441 884:0.20851441 1094:0.20851441 1659:0.20851441 1683:0.20851441 1852:0.20851441 1871:0.20851441 2121:0.41702881 2598:0.41702881 #
1.0000000240560962 272:0.44721359 286:0.44721359 396:0.44721359 1541:0.44721359 2121:0.44721359 #
-1.0000000240560962 272:1 #
1.0000000240560962 274:1 #
1.0000000240560962 23:0.81649661 191:0.40824831 1086:0.40824831 #
1.0000000240560962 529:0.70710677 1428:0.70710677 #
1.0000000240560962 574:1 #
1.0000000240560962 423:1 #
-1.0000000240560962 20:0.70710677 2121:0.70710677 #
-1.0000000240560962 2121:1 #
1.0000000240560962 8:0.5 339:0.5 576:0.5 1088:0.5 #
1.0000000240560962 76:0.5 214:0.5 222:0.5 857:0.5 #
1.0000000240560962 132:0.30151135 162:0.60302269 315:0.30151135 395:0.30151135 492:0.30151135 529:0.30151135 972:0.30151135 2523:0.30151135 #
1.0000000240560962 192:0.70710677 878:0.70710677 #
1.0000000240560962 6:1 #
-0.65801121642162108 392:0.70710677 1659:0.70710677 #
-1.0000000240560962 130:0.40824831 162:0.81649661 564:0.40824831 #
-0.11972244885620686 1949:1 #
-1.0000000240560962 974:1 #
1.0000000240560962 449:0.37796447 1091:0.37796447 2121:0.75592893 2123:0.37796447 #
1.0000000240560962 70:0.57735026 222:0.57735026 2121:0.57735026 #
-1.0000000240560962 222:0.70710677 2121:0.70710677 #
-1.0000000240560962 2121:1 #
1.0000000240560962 130:0.70710677 162:0.70710677 #
-0.21055705706311795 855:0.70710677 1945:0.70710677 #
1.0000000240560962 2131:1 #
-1.0000000240560962 7:0.33333334 36:0.33333334 126:0.33333334 226:0.33333334 449:0.33333334 488:0.33333334 760:0.33333334 1852:0.33333334 2150:0.33333334 #
-0.20773435368207788 417:0.70710677 992:0.70710677 #
-0.0046480543498498283 1716:1 #
-1.0000000240560962 5:0.28867513 14:0.28867513 33:0.28867513 49:0.28867513 178:0.28867513 226:0.28867513 782:0.28867513 992:0.57735026 2362:0.28867513 #
-0.21106945991990195 49:0.70710677 162:0.70710677 #
1.0000000240560962 421:1 #
1.0000000240560962 340:0.44721359 564:0.44721359 1088:0.44721359 1674:0.44721359 2545:0.44721359 #
1.0000000240560962 36:0.5 275:0.5 421:0.5 574:0.5 #
-1.0000000240560962 421:1 #
-0.036528816665871204 272:0.40824831 330:0.40824831 641:0.81649661 #
-0.089773044843148908 866:0.70710677 2307:0.70710677 #
1.0000000240560962 5:1 #
1.0000000240560962 49:0.57735026 992:0.57735026 2135:0.57735026 #
1.0000000240560962 91:0.57735026 417:0.57735026 992:0.57735026 #
1.0000000240560962 7:0.30151135 27:0.30151135 214:0.30151135 311:0.30151135 1856:0.30151135 1874:0.60302269 2121:0.30151135 2531:0.30151135 #
-0.3057598485851386 251:1 #
-0.15026814932645227 1948:1 #
-0.022498388082511256 170:1 #
-1.0000000240560962 16:0.37796447 90:0.37796447 146:0.37796447 149:0.37796447 291:0.37796447 759:0.37796447 976:0.37796447 #
1.0000000240560962 421:1 #
1.0000000240560962 421:0.70710677 787:0.70710677 #
1.0000000240560962 177:0.70710677 421:0.70710677 #
1.0000000240560962 178:0.5 421:0.5 857:0.5 991:0.5 #
1.0000000240560962 421:0.5 642:0.5 975:0.5 1882:0.5 #
-1.0000000240560962 421:1 #
-1.0000000240560962 49:0.57735026 421:0.57735026 642:0.57735026 #
-0.10550964208823019 330:0.70710677 841:0.70710677 #
-0.75869452973743701 421:0.81649661 529:0.40824831 533:0.40824831 #
1.0000000240560962 68:0.35355338 191:0.35355338 214:0.35355338 290:0.35355338 974:0.35355338 1853:0.35355338 1873:0.35355338 2555:0.35355338 #
1.0000000240560962 14:0.40824831 974:0.81649661 2132:0.40824831 #
1.0000000240560962 974:1 #
-1.0000000240560962 974:1 #
1.0000000240560962 126:1 #
1.0000000240560962 126:0.57735026 487:0.57735026 2503:0.57735026 #
-1.0000000240560962 191:0.66666669 214:0.33333334 587:0.33333334 1674:0.33333334 2545:0.33333334 2909:0.33333334 #
-0.25364806762286218 866:1 #
-0.1253010384012789 1070:0.70710677 1210:0.70710677 #
-0.87884503659445612 198:0.19611613 229:0.19611613 247:0.19611613 257:0.19611613 372:0.19611613 869:0.19611613 975:0.58834839 976:0.19611613 993:0.19611613 1679:0.19611613 1680:0.19611613 1864:0.19611613 2121:0.19611613 2461:0.19611613 2598:0.39223227 #
1.0000000240560962 53:1 #
1.0000000240560962 49:1 #
1.0000000240560962 365:0.57735026 449:0.57735026 1496:0.57735026 #
1.0000000240560962 339:0.57735026 439:0.57735026 2482:0.57735026 #
-1.0000000240560962 6:0.24253562 27:0.24253562 49:0.24253562 102:0.24253562 150:0.24253562 162:0.24253562 177:0.24253562 178:0.24253562 194:0.24253562 262:0.24253562 319:0.24253562 365:0.24253562 369:0.24253562 564:0.24253562 582:0.24253562 1990:0.24253562 2462:0.24253562 #
-0.26050877102816367 126:0.57735026 345:0.57735026 2187:0.57735026 #
0.42563620898529275 396:0.57735026 685:0.57735026 2469:0.57735026 #
-0.45372427977405477 162:0.30151135 167:0.30151135 185:0.60302269 186:0.30151135 572:0.30151135 1050:0.30151135 1674:0.30151135 2150:0.30151135 #
-0.42399292926638393 191:0.70710677 994:0.70710677 #
1.0000000240560962 33:0.57735026 162:0.57735026 214:0.57735026 #
1.0000000240560962 214:0.57735026 2133:0.57735026 2150:0.57735026 #
1.0000000240560962 36:0.44721359 214:0.44721359 530:0.44721359 962:0.44721359 1464:0.44721359 #
-1.0000000240560962 214:1 #
1.0000000240560962 53:0.57735026 191:0.57735026 787:0.57735026 #
1.0000000240560962 49:0.57735026 344:0.57735026 2121:0.57735026 #
1.0000000240560962 365:1 #
-0.073856098338221821 368:0.5 479:0.5 727:0.5 1748:0.5 #
-0.077862947769695157 365:0.70710677 2140:0.70710677 #
-0.45503504574272391 1105:1 #
-0.32930208101032388 190:1 #
-0.085230598735423269 49:0.57735026 118:0.57735026 2332:0.57735026 #
1.0000000240560962 53:0.5 133:0.5 319:0.5 1315:0.5 #
1.0000000240560962 53:0.44721359 72:0.44721359 364:0.44721359 976:0.44721359 1860:0.44721359 #
1.0000000240560962 105:0.70710677 262:0.70710677 #
1.0000000240560962 53:0.37796447 144:0.37796447 771:0.37796447 1557:0.37796447 1680:0.37796447 1683:0.37796447 2479:0.37796447 #
-0.46117976578579856 146:1 #
-1.0000000240560962 53:1 #
1.0000000240560962 5:0.31622776 7:0.31622776 12:0.31622776 221:0.31622776 272:0.31622776 530:0.31622776 974:0.31622776 1844:0.31622776 2133:0.31622776 2461:0.31622776 #
1.0000000240560962 10:0.35355338 23:0.35355338 90:0.35355338 143:0.35355338 162:0.35355338 419:0.35355338 974:0.35355338 1375:0.35355338 #
1.0000000240560962 857:0.57735026 1670:0.57735026 2133:0.57735026 #
1.0000000240560962 17:0.5 119:0.5 191:0.5 1670:0.5 #
-1.0000000240560962 364:1 #
1.0000000240560962 3:0.37796447 5:0.75592893 967:0.37796447 2539:0.37796447 #
-0.09659559679493146 27:1 #
-0.16233074559429134 26:0.70710677 223:0.70710677 #
-0.87825510526654116 167:0.57735026 311:0.57735026 992:0.57735026 #
1.0000000240560962 53:0.70710677 972:0.70710677 #
1.0000000240560962 53:0.33333334 162:0.33333334 207:0.33333334 214:0.33333334 228:0.33333334 362:0.33333334 365:0.33333334 879:0.33333334 2133:0.33333334 #
1.0000000240560962 53:0.40824831 272:0.40824831 642:0.40824831 1843:0.40824831 1858:0.40824831 2133:0.40824831 #
1.0000000240560962 53:0.37796447 365:0.37796447 2539:0.37796447 2576:0.75592893 #
1.0000000240560962 36:0.40824831 214:0.40824831 365:0.40824831 565:0.40824831 641:0.40824831 782:0.40824831 #
1.0000000240560962 243:0.5 1674:0.5 2534:0.5 2564:0.5 #
-0.52515571926320104 216:0.35355338 339:0.35355338 364:0.35355338 389:0.35355338 406:0.35355338 415:0.35355338 769:0.35355338 785:0.35355338 #
-0.045035680723883531 365:1 #
1.0000000240560962 20:0.26726124 144:0.26726124 363:0.26726124 364:0.26726124 974:0.53452247 1526:0.53452247 2471:0.26726124 2541:0.26726124 #
1.0000000240560962 119:0.5 364:0.5 846:0.5 974:0.5 #
-1.0000000240560962 2133:1 #
1.0000000240560962 2150:1 #
1.0000000240560962 55:0.70710677 530:0.70710677 #
1.0000000240560962 49:0.70710677 530:0.70710677 #
-0.1229602767613554 572:0.57735026 974:0.57735026 1681:0.57735026 #
-0.5650243072284642 204:1 #
-1.0000000240560962 974:1 #
1.0000000240560962 781:0.70710677 2133:0.70710677 #
1.0000000240560962 119:0.35355338 172:0.35355338 190:0.35355338 192:0.35355338 204:0.35355338 214:0.35355338 272:0.35355338 1874:0.35355338 #
1.0000000240560962 89:0.2236068 184:0.2236068 214:0.44721359 247:0.44721359 361:0.44721359 421:0.44721359 2575:0.2236068 2601:0.2236068 #
1.0000000240560962 14:0.5547002 46:0.2773501 146:0.2773501 530:0.2773501 766:0.2773501 975:0.5547002 2535:0.2773501 #
-0.96553740515953979 39:0.35355338 46:0.35355338 204:0.35355338 303:0.35355338 1206:0.35355338 2131:0.35355338 2132:0.35355338 2535:0.35355338 #
-0.11587459815741541 363:1 #
-1.0000000240560962 846:0.70710677 2135:0.70710677 #
-0.6313279468592653 275:1 #
-1.0000000240560962 1652:0.40824831 2143:0.40824831 2482:0.81649661 #
1.0000000240560962 974:1 #
1.0000000240560962 345:0.70710677 974:0.70710677 #
1.0000000240560962 6:0.70710677 974:0.70710677 #
1.0000000240560962 488:0.70710677 974:0.70710677 #
1.0000000240560962 139:0.70710677 974:0.70710677 #
-1.0000000240560962 974:1 #
1.0000000240560962 1681:1 #
1.0000000240560962 63:0.70710677 2135:0.70710677 #
1.0000000240560962 2135:1 #
1.0000000240560962 71:0.37796447 119:0.37796447 162:0.37796447 191:0.37796447 227:0.37796447 364:0.37796447 846:0.37796447 #
-0.0025217250902469512 300:1 #
-0.072240629879009699 172:0.5 2057:0.5 2320:0.5 2327:0.5 #
-0.14997469961994436 412:1 #
-0.14992589568162495 2233:1 #
-0.21429657246307746 1906:0.70710677 2549:0.70710677 #
1.0000000240560962 53:0.57735026 693:0.57735026 2150:0.57735026 #
1.0000000240560962 243:0.37796447 341:0.37796447 639:0.37796447 869:0.37796447 1653:0.37796447 2121:0.37796447 2150:0.37796447 #
1.0000000240560962 8:0.40824831 33:0.40824831 49:0.40824831 68:0.40824831 130:0.40824831 204:0.40824831 #
1.0000000240560962 1087:0.70710677 2129:0.70710677 #
1.0000000240560962 46:0.70710677 90:0.70710677 #
-0.085298409975099299 14:0.5 407:0.5 421:0.5 1127:0.5 #
-0.86688762034047118 2150:1 #
-0.27424944555359854 204:1 #
-0.9973092905865496 2150:1 #
1.0000000240560962 6:0.5 974:0.5 1090:0.5 2521:0.5 #
1.0000000240560962 44:0.25 119:0.25 126:0.25 162:0.25 191:0.25 261:0.25 529:0.25 779:0.25 849:0.25 861:0.25 974:0.5 1682:0.25 2132:0.25 #
1.0000000240560962 974:0.70710677 2585:0.70710677 #
-1.0000000240560962 119:1 #
-0.46214773129750786 214:0.70710677 2121:0.70710677 #
-0.14953996935044744 2388:1 #
1.0000000240560962 702:0.70710677 2150:0.70710677 #
1.0000000240560962 1111:0.70710677 2150:0.70710677 #
1.0000000240560962 162:0.37796447 243:0.37796447 966:0.37796447 1112:0.37796447 1325:0.37796447 1350:0.37796447 2150:0.37796447 #
-0.96933974008761359 214:0.70710677 2121:0.70710677 #
-0.096710994499316361 272:1 #
1.0000000240560962 71:0.44721359 119:0.44721359 162:0.44721359 2121:0.44721359 2526:0.44721359 #
1.0000000240560962 119:0.70710677 133:0.70710677 #
-0.17783579429218044 77:0.57735026 531:0.57735026 561:0.57735026 #
-1.0000000240560962 192:0.57735026 857:0.57735026 2129:0.57735026 #
-0.57622206432028666 191:0.70710677 974:0.70710677 #
-0.57669250408431927 6:1 #
1.0000000240560962 565:1 #
1.0000000240560962 363:0.57735026 530:0.57735026 565:0.57735026 #
1.0000000240560962 6:0.2773501 55:0.2773501 312:0.5547002 533:0.5547002 1660:0.2773501 2150:0.2773501 2535:0.2773501 #
-1.0000000240560962 565:1 #
0.73529019394185857 3:0.57735026 291:0.57735026 2535:0.57735026 #
-0.089723375395910021 614:1 #
-0.99952992113571648 222:0.70710677 565:0.70710677 #
-1.0000000240560962 55:0.70710677 565:0.70710677 #
1.0000000240560962 191:0.70710677 676:0.70710677 #
1.0000000240560962 10:0.53452247 22:0.26726124 162:0.26726124 165:0.26726124 168:0.26726124 191:0.53452247 974:0.26726124 1657:0.26726124 #
-0.049051449721847558 530:0.70710677 855:0.70710677 #
-0.0043098436152504416 2373:1 #
1.0000000240560962 158:0.5 857:0.5 1855:0.5 2146:0.5 #
1.0000000240560962 168:0.30151135 192:0.30151135 274:0.30151135 363:0.30151135 565:0.60302269 974:0.30151135 2461:0.30151135 2535:0.30151135 #
-0.073330535872381433 181:0.44721359 1734:0.44721359 2066:0.44721359 2301:0.44721359 2836:0.44721359 #
-1.0000000240560962 363:1 #
1.0000000240560962 530:1 #
1.0000000240560962 24:0.2773501 162:0.5547002 530:0.2773501 669:0.5547002 874:0.2773501 993:0.2773501 2133:0.2773501 #
1.0000000240560962 341:1 #
-1.0000000240560962 15:0.31622776 20:0.31622776 22:0.31622776 122:0.31622776 130:0.31622776 192:0.31622776 530:0.63245553 #
-0.072600206507943188 654:1 #
-1.0000000240560962 361:0.5 530:0.5 1087:0.5 2881:0.5 #
-1.0000000240560962 8:0.25819889 65:0.25819889 73:0.25819889 171:0.25819889 214:0.25819889 222:0.25819889 310:0.25819889 978:0.51639777 2461:0.51639777 #
1.0000000240560962 15:0.70710677 363:0.70710677 #
1.0000000240560962 247:0.5 363:0.5 867:0.5 1332:0.5 #
1.0000000240560962 27:0.44721359 363:0.44721359 1425:0.44721359 1655:0.44721359 2466:0.44721359 #
1.0000000240560962 363:0.44721359 715:0.44721359 775:0.44721359 1677:0.44721359 2516:0.44721359 #
-1.0000000240560962 363:1 #
1.0000000240560962 22:0.57735026 530:0.57735026 2461:0.57735026 #
-1.0000000240560962 27:0.70710677 1655:0.70710677 #
-0.11463699371638457 10:0.2773501 526:0.2773501 654:0.5547002 829:0.2773501 2461:0.5547002 2471:0.2773501 2598:0.2773501 #
-0.60726231464036506 867:1 #
-1.0000000240560962 49:0.70710677 867:0.70710677 #
1.0000000240560962 90:0.2773501 119:0.2773501 162:0.5547002 639:0.2773501 643:0.2773501 974:0.5547002 1087:0.2773501 #
1.0000000240560962 876:1 #
1.0000000240560962 122:1 #
1.0000000240560962 8:0.40824831 222:0.40824831 272:0.40824831 530:0.40824831 1412:0.40824831 2133:0.40824831 #
-0.38713630121955533 641:0.70710677 876:0.70710677 #
-0.53629019597273175 122:1 #
1.0000000240560962 6:0.5 313:0.5 867:0.5 2562:0.5 #
1.0000000240560962 27:0.5 49:0.5 865:0.5 2148:0.5 #
1.0000000240560962 49:0.70710677 703:0.70710677 #
1.0000000240560962 49:0.70710677 684:0.70710677 #
1.0000000240560962 49:0.70710677 1459:0.70710677 #
-0.071528448397450678 49:0.57735026 313:0.57735026 530:0.57735026 #
-0.53633522846535109 79:0.57735026 183:0.57735026 854:0.57735026 #
-1.0000000240560962 162:0.40824831 530:0.81649661 656:0.40824831 #
-0.037858888978124089 547:0.57735026 991:0.57735026 2008:0.57735026 #
-1.0000000240560962 162:0.5 228:0.5 488:0.5 991:0.5 #
-0.088694644263710654 2996:1 #
1.0000000240560962 394:1 #
1.0000000240560962 261:0.5 310:0.5 781:0.5 1101:0.5 #
1.0000000240560962 79:0.57735026 1655:0.57735026 1878:0.57735026 #
1.0000000240560962 22:0.40824831 89:0.40824831 120:0.40824831 425:0.40824831 766:0.40824831 2540:0.40824831 #
-1.0000000240560962 8:0.57735026 643:0.57735026 1878:0.57735026 #
-0.55048485816495307 394:1 #
1.0000000240560962 99:0.2773501 114:0.2773501 162:0.5547002 178:0.2773501 190:0.2773501 214:0.2773501 530:0.2773501 1473:0.2773501 2534:0.2773501 2589:0.2773501 #
-0.37491072008616033 97:1 #
-0.088832152518659141 618:0.70710677 1011:0.70710677 #
-0.35609782940096202 230:1 #
-0.089517923903486729 35:0.70710677 2054:0.70710677 #
1.0000000240560962 22:0.37796447 162:0.37796447 344:0.37796447 667:0.37796447 880:0.37796447 1681:0.37796447 2131:0.37796447 #
1.0000000240560962 8:0.70710677 2569:0.70710677 #
-1.0000000240560962 8:0.40824831 144:0.40824831 162:0.40824831 178:0.40824831 1681:0.40824831 1706:0.40824831 #
-1.0000000240560962 22:0.44721359 522:0.44721359 1086:0.44721359 2562:0.44721359 2798:0.44721359 #
-0.17140384186424304 27:0.57735026 90:0.57735026 1878:0.57735026 #
-1.0000000240560962 120:0.5 162:0.5 319:0.5 1075:0.5 #
1.0000000240560962 974:0.70710677 1091:0.70710677 #
1.0000000240560962 643:0.70710677 974:0.70710677 #
1.0000000240560962 484:0.57735026 657:0.57735026 974:0.57735026 #
-1.0000000240560962 974:1 #
0.74901288867596594 120:0.57735026 162:0.57735026 656:0.57735026 #
1.0000000240560962 162:0.70710677 2136:0.70710677 #
1.0000000240560962 48:0.24253562 119:0.24253562 120:0.24253562 162:0.24253562 272:0.24253562 312:0.24253562 574:0.24253562 761:0.24253562 1088:0.24253562 1652:0.24253562 1866:0.24253562 1867:0.24253562 2150:0.24253562 2598:0.48507124 #
0.010941073916580205 24:0.70710677 1443:0.70710677 #
1.0000000240560962 47:0.44721359 49:0.44721359 243:0.44721359 276:0.44721359 1579:0.44721359 #
1.0000000240560962 20:0.31622776 49:0.31622776 77:0.31622776 243:0.31622776 279:0.31622776 313:0.31622776 772:0.31622776 991:0.31622776 1844:0.31622776 2132:0.31622776 #
1.0000000240560962 1680:1 #
-1.0000000240560962 1091:1 #
-1.0000000240560962 877:1 #
1.0000000240560962 25:0.35355338 118:0.70710677 167:0.35355338 280:0.35355338 1548:0.35355338 #
1.0000000240560962 71:1 #
-0.11979693230376021 317:1 #
-1.0000000240560962 1088:1 #
-0.029092924964344697 1216:0.70710677 2639:0.70710677 #
1.0000000240560962 877:1 #
1.0000000240560962 263:0.44721359 449:0.44721359 1091:0.44721359 1423:0.44721359 2114:0.44721359 #
1.0000000240560962 22:0.35355338 23:0.35355338 90:0.35355338 126:0.35355338 192:0.35355338 340:0.35355338 877:0.35355338 2132:0.35355338 #
1.0000000240560962 192:0.44721359 877:0.44721359 971:0.44721359 1652:0.44721359 1845:0.44721359 #
-1.0000000240560962 877:1 #
-0.088708081621204429 1870:0.70710677 2613:0.70710677 #
-0.30585257521926068 386:0.70710677 877:0.70710677 #
-1.0000000240560962 530:1 #
-1.0000000240560962 5:0.21821789 14:0.21821789 29:0.21821789 261:0.21821789 480:0.43643579 491:0.21821789 877:0.21821789 1853:0.21821789 1867:0.21821789 2132:0.65465367 #
1.0000000240560962 423:0.70710677 1095:0.70710677 #
1.0000000240560962 214:0.5 343:0.5 646:0.5 1681:0.5 #
-0.14984798923596376 2961:1 #
-1.0000000240560962 423:1 #
-0.081499701228249774 47:0.57735026 504:0.57735026 553:0.57735026 #
-1.0000000240560962 214:0.70710677 1671:0.70710677 #
1.0000000240560962 877:0.57735026 1313:0.57735026 2586:0.57735026 #
1.0000000240560962 5:0.5 363:0.5 1682:0.5 2132:0.5 #
1.0000000240560962 222:0.70710677 2132:0.70710677 #
-1.0000000240560962 71:0.81649661 119:0.40824831 2132:0.40824831 #
-1.0000000240560962 6:0.5 17:0.5 126:0.5 2132:0.5 #
-1.0000000240560962 363:1 #
1.0000000240560962 158:0.44721359 214:0.44721359 395:0.44721359 686:0.44721359 866:0.44721359 #
1.0000000240560962 20:0.33333334 214:0.33333334 215:0.66666669 641:0.33333334 1874:0.33333334 2494:0.33333334 #
1.0000000240560962 49:0.30151135 178:0.30151135 214:0.60302269 530:0.30151135 877:0.30151135 880:0.30151135 1848:0.30151135 2518:0.30151135 #
1.0000000240560962 214:0.37796447 365:0.37796447 960:0.75592893 1403:0.37796447 #
1.0000000240560962 178:0.57735026 214:0.57735026 2121:0.57735026 #
-0.086580053010317903 394:0.70710677 2337:0.70710677 #
-1.0000000240560962 133:0.35355338 214:0.70710677 541:0.35355338 776:0.35355338 2322:0.35355338 #
-0.30043142958997521 214:0.44721359 1677:0.44721359 2046:0.44721359 2146:0.44721359 2258:0.44721359 #
1.0000000240560962 6:0.70710677 17:0.70710677 #
1.0000000240560962 6:0.70710677 1850:0.70710677 #
1.0000000240560962 6:0.57735026 1673:0.57735026 1878:0.57735026 #
1.0000000240560962 6:0.57735026 213:0.57735026 2532:0.57735026 #
-1.0000000240560962 6:1 #
1.0000000240560962 91:0.70710677 214:0.70710677 #
1.0000000240560962 169:0.33333334 191:0.33333334 214:0.33333334 782:0.66666669 994:0.33333334 1676:0.33333334 #
1.0000000240560962 60:0.30151135 126:0.30151135 148:0.30151135 156:0.30151135 211:0.30151135 214:0.30151135 272:0.30151135 1246:0.30151135 1486:0.30151135 1519:0.30151135 2568:0.30151135 #
-0.088236707287519256 1237:0.70710677 2625:0.70710677 #
-1.0000000240560962 91:0.5 162:0.5 761:0.5 1095:0.5 #
-1.0000000240560962 49:0.30151135 295:0.30151135 296:0.30151135 490:0.60302269 728:0.30151135 1088:0.30151135 1842:0.30151135 2218:0.30151135 #
-0.42849495184153663 880:1 #
-0.18963021645992797 548:0.40824831 759:0.40824831 833:0.40824831 879:0.40824831 2339:0.40824831 2527:0.40824831 #
1.0000000240560962 70:0.57735026 489:0.57735026 1875:0.57735026 #
1.0000000240560962 14:0.22941573 113:0.22941573 119:0.22941573 162:0.22941573 191:0.45883146 214:0.22941573 363:0.22941573 370:0.22941573 881:0.22941573 1668:0.45883146 2120:0.22941573 2498:0.22941573 2567:0.22941573 #
1.0000000240560962 25:0.30151135 183:0.30151135 214:0.30151135 1321:0.30151135 1322:0.30151135 1329:0.30151135 1341:0.30151135 1346:0.30151135 1349:0.30151135 1631:0.30151135 1877:0.30151135 #
-0.08535813900393506 14:0.70710677 2099:0.70710677 #
-0.66238915995171155 489:1 #
0.16492735454267649 1:0.30151135 74:0.30151135 658:0.90453404 #
-0.5893530176242 5:0.24253562 225:0.24253562 339:0.24253562 345:0.24253562 478:0.24253562 761:0.24253562 846:0.24253562 970:0.24253562 991:0.24253562 1101:0.24253562 1825:0.24253562 1849:0.24253562 1925:0.24253562 2532:0.48507124 #
-1.0000000240560962 1120:1 #
1.0000000240560962 162:0.5 272:0.5 564:0.5 637:0.5 #
1.0000000240560962 1662:1 #
1.0000000240560962 122:0.57735026 346:0.57735026 1678:0.57735026 #
1.0000000240560962 77:0.57735026 247:0.57735026 880:0.57735026 #
1.0000000240560962 876:1 #
-0.18973833269759677 876:1 #
-1.0000000240560962 876:1 #
1.0000000240560962 489:1 #
1.0000000240560962 63:0.5 275:0.5 975:0.5 2121:0.5 #
1.0000000240560962 79:0.5 172:0.5 886:0.5 2121:0.5 #
1.0000000240560962 17:0.5 251:0.5 657:0.5 974:0.5 #
-0.039546525919478048 889:1 #
-0.34737125827188553 162:0.70710677 167:0.70710677 #
-0.32154117177828945 880:0.5 2129:0.5 2245:0.5 2317:0.5 #
-1.0000000240560962 974:1 #
-0.76435130676706586 637:1 #
1.0000000240560962 876:0.57735026 2132:0.57735026 2150:0.57735026 #
-0.29489748347508959 14:1 #
1.0000000240560962 191:1 #
-1.0000000240560962 2150:1 #
1.0000000240560962 247:1 #
1.0000000240560962 77:1 #
1.0000000240560962 49:0.5 272:0.5 670:0.5 1846:0.5 #
-1.0000000240560962 191:1 #
1.0000000240560962 423:0.5 643:0.5 1539:0.5 2118:0.5 #
1.0000000240560962 656:0.70710677 2582:0.70710677 #
1.0000000240560962 245:0.35355338 530:0.35355338 577:0.35355338 761:0.35355338 1405:0.35355338 1431:0.35355338 1559:0.35355338 1605:0.35355338 #
-0.71071186121701502 12:0.26726124 120:0.26726124 162:0.53452247 185:0.26726124 203:0.26726124 1034:0.26726124 1876:0.26726124 2040:0.26726124 2535:0.26726124 2889:0.26726124 2965:0.26726124 #
-1.0000000240560962 1678:1 #
-0.67495784208027509 346:1 #
-0.14961696031909877 2350:0.70710677 2366:0.70710677 #
1.0000000240560962 191:0.57735026 345:0.57735026 1116:0.57735026 #
1.0000000240560962 345:1 #
1.0000000240560962 16:0.2773501 115:0.5547002 144:0.5547002 156:0.2773501 493:0.2773501 1658:0.2773501 2143:0.2773501 #
-1.0000000240560962 345:1 #
-1.0000000240560962 345:0.70710677 365:0.70710677 #
-0.040748611898548615 419:1 #
-0.58874570044434194 123:0.5 167:0.5 262:0.5 2142:0.5 #
-0.0064589993148472802 1782:1 #
1.0000000240560962 1363:0.40824831 1876:0.81649661 2138:0.40824831 #
1.0000000240560962 204:1 #
1.0000000240560962 15:0.57735026 162:0.57735026 668:0.57735026 #
-0.1438722957426056 338:0.70710677 1088:0.70710677 #
-1.0000000240560962 204:1 #
1.0000000240560962 345:0.70710677 2542:0.70710677 #
1.0000000240560962 71:0.44721359 126:0.44721359 315:0.44721359 338:0.44721359 345:0.44721359 #
1.0000000240560962 22:0.35355338 243:0.35355338 262:0.35355338 345:0.35355338 429:0.35355338 2463:0.35355338 2497:0.35355338 2590:0.35355338 #
-0.0024230622684369256 50:0.40824831 872:0.40824831 1140:0.40824831 1162:0.40824831 1912:0.40824831 2461:0.40824831 #
-0.27316208955430876 313:0.5 367:0.5 368:0.5 642:0.5 #
-0.5568381267321254 144:1 #
1.0000000240560962 10:0.44721359 975:0.89442718 #
1.0000000240560962 769:0.5 975:0.5 2529:0.5 2563:0.5 #
1.0000000240560962 178:0.35355338 204:0.35355338 247:0.35355338 394:0.35355338 1865:0.70710677 #
-0.1499048365206318 267:1 #
-1.0000000240560962 975:1 #
-1.0000000240560962 5:0.19245009 6:0.19245009 44:0.19245009 68:0.19245009 77:0.19245009 89:0.19245009 156:0.38490018 162:0.19245009 183:0.19245009 365:0.38490018 395:0.19245009 527:0.19245009 615:0.38490018 759:0.19245009 781:0.19245009 1094:0.19245009 1968:0.19245009 2121:0.19245009 #
1.0000000240560962 26:0.44721359 144:0.44721359 190:0.44721359 208:0.44721359 395:0.44721359 #
1.0000000240560962 125:0.31622776 530:0.31622776 779:0.63245553 879:0.31622776 1681:0.31622776 2133:0.31622776 2150:0.31622776 #
-1.0000000240560962 91:0.44721359 190:0.44721359 304:0.44721359 530:0.44721359 1869:0.44721359 #
-1.0000000240560962 190:0.57735026 646:0.57735026 2498:0.57735026 #
-1.0000000240560962 974:1 #
-0.66571224762059278 7:0.31622776 37:0.31622776 120:0.31622776 162:0.31622776 165:0.31622776 214:0.31622776 377:0.31622776 465:0.31622776 2133:0.31622776 2883:0.31622776 #
-1.0000000240560962 1681:1 #
0.024453426125811382 488:0.57735026 975:0.57735026 1632:0.57735026 #
1.0000000240560962 59:1 #
-0.14997302036294613 2906:1 #
-0.061373159998608567 1120:0.70710677 2417:0.70710677 #
-0.15027884926600421 502:1 #
0.26459614086952354 341:1 #
-0.21475690412858395 509:0.70710677 642:0.70710677 #
1.0000000240560962 190:0.40824831 429:0.40824831 983:0.40824831 1088:0.40824831 2461:0.40824831 2595:0.40824831 #
1.0000000240560962 190:0.57735026 201:0.57735026 1674:0.57735026 #
1.0000000240560962 26:0.40824831 27:0.40824831 97:0.40824831 190:0.40824831 648:0.40824831 786:0.40824831 #
1.0000000240560962 759:0.70710677 858:0.70710677 #
-1.0000000240560962 858:0.70710677 960:0.70710677 #
-0.04638208876560479 397:1 #
0.094385504249525937 40:0.70710677 856:0.70710677 #
-0.086519564538066196 1011:1 #
1.0000000240560962 47:0.22941573 574:0.22941573 781:0.22941573 974:0.22941573 1623:0.6882472 2111:0.22941573 2121:0.22941573 2150:0.45883146 #
-1.0000000240560962 22:0.31622776 126:0.31622776 162:0.31622776 178:0.31622776 201:0.31622776 494:0.31622776 1658:0.31622776 1670:0.31622776 1946:0.31622776 2121:0.31622776 #
-1.0000000240560962 20:0.35355338 162:0.35355338 173:0.35355338 950:0.35355338 974:0.35355338 1674:0.35355338 1875:0.35355338 2137:0.35355338 #
-0.36952036970530355 1669:1 #
-1.0000000240560962 45:0.28867513 162:0.57735026 178:0.28867513 191:0.28867513 395:0.28867513 402:0.28867513 814:0.28867513 2004:0.28867513 2579:0.28867513 #
-0.25177277473385651 340:0.44721359 466:0.44721359 583:0.44721359 2535:0.44721359 2545:0.44721359 #
1.0000000240560962 50:0.44721359 282:0.44721359 485:0.44721359 858:0.44721359 2113:0.44721359 #
1.0000000240560962 26:0.21821789 28:0.21821789 30:0.21821789 73:0.21821789 97:0.21821789 100:0.21821789 117:0.21821789 145:0.21821789 146:0.21821789 190:0.21821789 202:0.21821789 366:0.21821789 418:0.21821789 487:0.21821789 527:0.21821789 697:0.43643579 985:0.21821789 1871:0.21821789 #
-1.0000000240560962 22:0.26726124 47:0.26726124 79:0.80178374 973:0.26726124 988:0.26726124 1106:0.26726124 #
-1.0000000240560962 880:0.70710677 2135:0.70710677 #
-1.0000000240560962 70:0.40824831 313:0.40824831 363:0.40824831 619:0.40824831 1051:0.40824831 2584:0.40824831 #
-0.81005371103060186 2136:1 #
-1.0000000240560962 23:0.30151135 146:0.60302269 222:0.30151135 1747:0.30151135 2116:0.30151135 2151:0.30151135 2461:0.30151135 2539:0.30151135 #
1.0000000240560962 22:0.40824831 225:0.40824831 871:0.40824831 874:0.40824831 1237:0.40824831 1445:0.40824831 #
1.0000000240560962 5:0.44721359 22:0.44721359 72:0.44721359 1105:0.44721359 2562:0.44721359 #
1.0000000240560962 2519:1 #
1.0000000240560962 24:0.37796447 26:0.37796447 64:0.37796447 162:0.37796447 228:0.37796447 365:0.37796447 1654:0.37796447 #
-1.0000000240560962 2519:1 #
-0.056676020511842173 397:1 #
-0.088643954158874771 110:0.70710677 2676:0.70710677 #
1.0000000240560962 88:0.37796447 178:0.37796447 223:0.37796447 451:0.37796447 479:0.37796447 483:0.37796447 1670:0.37796447 #
1.0000000240560962 89:0.5 90:0.5 315:0.5 2461:0.5 #
-0.0011443516699399803 110:1 #
-0.21253264195147609 49:0.70710677 791:0.70710677 #
-0.84724086905139839 168:1 #
-1.0000000240560962 657:1 #
1.0000000240560962 636:0.70710677 698:0.70710677 #
1.0000000240560962 15:0.20412415 122:0.20412415 126:0.20412415 144:0.20412415 162:0.20412415 272:0.20412415 342:0.20412415 491:0.20412415 530:0.20412415 695:0.61237246 712:0.20412415 846:0.20412415 857:0.20412415 1870:0.20412415 2126:0.20412415 2474:0.20412415 #
1.0000000240560962 41:0.5 51:0.5 81:0.5 162:0.5 #
-0.15043461417889048 2403:1 #
-1.0000000240560962 47:0.37796447 162:0.75592893 178:0.37796447 784:0.37796447 #
-1.0000000240560962 162:0.31622776 395:0.31622776 857:0.63245553 923:0.31622776 995:0.31622776 1168:0.31622776 2108:0.31622776 #
-0.086066828287550676 858:0.70710677 2297:0.70710677 #
1.0000000240560962 119:0.44721359 172:0.44721359 191:0.44721359 974:0.44721359 2461:0.44721359 #
1.0000000240560962 1241:0.5 1513:0.5 1617:0.5 2461:0.5 #
-1.0000000240560962 974:1 #
-1.0000000240560962 10:0.5 22:0.5 249:0.5 2461:0.5 #
-0.14962724743223077 1818:1 #
1.0000000240560962 5:0.31622776 14:0.31622776 162:0.31622776 168:0.31622776 562:0.31622776 883:0.31622776 1091:0.31622776 1683:0.31622776 1852:0.31622776 2121:0.31622776 #
1.0000000240560962 162:0.60302269 976:0.30151135 1239:0.30151135 1242:0.30151135 1401:0.30151135 1416:0.30151135 1468:0.30151135 1534:0.30151135 #
-0.29533161292737914 243:0.35355338 274:0.35355338 636:0.35355338 1675:0.70710677 2526:0.35355338 #
-0.02203489885916024 1067:0.57735026 2241:0.57735026 2882:0.57735026 #
-0.086691666902310033 201:0.70710677 1776:0.70710677 #
-0.063132749996194906 871:0.57735026 1823:0.57735026 2807:0.57735026 #
0.970825700247541 249:0.5 1120:0.5 2461:0.5 2464:0.5 #
1.0000000240560962 249:0.5 340:0.5 1245:0.5 2461:0.5 #
1.0000000240560962 243:0.5 534:0.5 2127:0.5 2461:0.5 #
1.0000000240560962 274:0.44721359 338:0.44721359 679:0.44721359 2461:0.44721359 2564:0.44721359 #
-1.0000000240560962 14:0.57735026 89:0.57735026 167:0.57735026 #
-0.078260428575018429 90:0.57735026 263:0.57735026 1977:0.57735026 #
-0.68758463275469595 14:0.17407766 20:0.17407766 74:0.17407766 170:0.34815532 189:0.17407766 367:0.17407766 564:0.17407766 875:0.17407766 975:0.52223295 992:0.34815532 1052:0.17407766 1747:0.17407766 1879:0.17407766 1903:0.17407766 2375:0.17407766 2461:0.34815532 #
-0.084951449518321356 365:0.57735026 479:0.57735026 1716:0.57735026 #
-0.18840432557839132 126:0.70710677 1767:0.70710677 #
1.0000000240560962 162:0.81649661 310:0.40824831 861:0.40824831 #
1.0000000240560962 162:0.57735026 966:0.57735026 1438:0.57735026 #
-0.35332566612456817 148:0.53452247 153:0.26726124 272:0.53452247 2148:0.26726124 2832:0.53452247 #
-1.0000000240560962 7:0.31622776 119:0.31622776 162:0.31622776 991:0.63245553 1088:0.31622776 1846:0.31622776 2247:0.31622776 #
-1.0000000240560962 5:0.21821789 12:0.21821789 162:0.21821789 278:0.65465367 313:0.21821789 364:0.21821789 395:0.43643579 487:0.21821789 2121:0.21821789 2736:0.21821789 #
-0.14964342715863699 2949:1 #
-1.0000000240560962 162:0.70710677 1654:0.70710677 #
0.8956318099874816 855:0.44721359 1105:0.44721359 2132:0.44721359 2583:0.44721359 2594:0.44721359 #
1.0000000240560962 319:0.40824831 857:0.40824831 963:0.40824831 1107:0.40824831 1461:0.40824831 2462:0.40824831 #
-0.88229139629526721 2462:1 #
-0.91338988563645018 167:0.94868332 460:0.31622776 #
-1.0000000240560962 158:0.70710677 2462:0.70710677 #
-1.0000000240560962 167:0.70710677 243:0.70710677 #
1.0000000240560962 162:0.37796447 485:0.37796447 652:0.37796447 785:0.37796447 977:0.37796447 1114:0.37796447 1654:0.37796447 #
1.0000000240560962 162:0.44721359 490:0.44721359 1328:0.44721359 1620:0.44721359 2483:0.44721359 #
1.0000000240560962 5:0.22941573 6:0.22941573 44:0.22941573 162:0.22941573 527:0.22941573 673:0.45883146 781:0.22941573 1683:0.45883146 1882:0.22941573 2124:0.22941573 2133:0.22941573 2515:0.22941573 2549:0.22941573 #
1.0000000240560962 46:0.37796447 162:0.37796447 249:0.37796447 876:0.37796447 1680:0.37796447 2121:0.37796447 2562:0.37796447 #
-1.0000000240560962 46:0.22941573 96:0.22941573 103:0.22941573 133:0.22941573 162:0.6882472 178:0.22941573 279:0.22941573 551:0.22941573 1017:0.22941573 1200:0.22941573 2879:0.22941573 #
-0.14993114262823171 2916:1 #
-1.0000000240560962 162:0.70710677 2121:0.70710677 #
-0.086718425599886323 1726:0.70710677 1989:0.70710677 #
1.0000000240560962 167:0.70710677 2462:0.70710677 #
1.0000000240560962 167:0.5547002 204:0.2773501 243:0.5547002 643:0.2773501 974:0.2773501 1875:0.2773501 2131:0.2773501 #
1.0000000240560962 158:0.75592893 245:0.37796447 530:0.37796447 762:0.37796447 #
1.0000000240560962 167:0.40824831 272:0.40824831 700:0.81649661 #
1.0000000240560962 3:0.37796447 5:0.37796447 12:0.37796447 47:0.37796447 642:0.37796447 992:0.37796447 2462:0.37796447 #
-1.0000000240560962 530:1 #
-1.0000000240560962 9:0.31622776 44:0.31622776 132:0.31622776 205:0.31622776 643:0.63245553 786:0.31622776 2798:0.31622776 #
-0.089027241015280367 217:1 #
-0.00036348442274591886 214:0.33333334 530:0.66666669 2235:0.66666669 #
-1.0000000240560962 6:0.22941573 9:0.22941573 148:0.22941573 165:0.22941573 191:0.22941573 527:0.22941573 625:0.22941573 824:0.22941573 976:0.22941573 2132:0.45883146 2520:0.22941573 2599:0.22941573 2731:0.45883146 #
1.0000000240560962 4:0.57735026 162:0.57735026 1240:0.57735026 #
1.0000000240560962 162:0.5 191:0.5 364:0.5 961:0.5 #
1.0000000240560962 15:0.57735026 162:0.57735026 668:0.57735026 #
-1.0000000240560962 162:0.70710677 191:0.70710677 #
-0.11062756786066719 1875:1 #
-1.0000000240560962 53:0.23570226 120:0.23570226 191:0.23570226 272:0.23570226 292:0.23570226 315:0.70710677 529:0.23570226 1652:0.23570226 1675:0.23570226 2595:0.23570226 #
-1.0000000240560962 274:0.5 961:0.5 1139:0.5 1683:0.5 #
-0.089175516199788446 115:0.70710677 544:0.70710677 #
-1.0000000240560962 24:0.37796447 47:0.37796447 48:0.37796447 49:0.37796447 224:0.37796447 306:0.37796447 416:0.37796447 #
-0.25261005610234183 998:0.70710677 2535:0.70710677 #
-0.053161312058626738 1066:0.57735026 1949:0.57735026 2430:0.57735026 #
-1.0000000240560962 47:0.35355338 49:0.35355338 120:0.35355338 421:0.35355338 642:0.35355338 857:0.35355338 1821:0.35355338 1855:0.35355338 #
1.0000000240560962 103:0.70710677 1683:0.70710677 #
1.0000000240560962 279:0.5 1652:0.5 1675:0.5 2485:0.5 #
1.0000000240560962 222:0.57735026 279:0.57735026 765:0.57735026 #
1.0000000240560962 1572:0.57735026 1683:0.57735026 2513:0.57735026 #
-1.0000000240560962 1683:1 #
-0.04846355236253836 499:0.57735026 2078:0.57735026 2448:0.57735026 #
-1.0000000240560962 515:0.31622776 876:0.31622776 1683:0.63245553 2129:0.31622776 2328:0.31622776 2466:0.31622776 2841:0.31622776 #
1.0000000240560962 47:0.70710677 786:0.70710677 #
1.0000000240560962 278:1 #
-0.82125071875699851 57:0.37796447 192:0.37796447 222:0.37796447 279:0.37796447 370:0.37796447 389:0.37796447 2628:0.37796447 #
-0.32458466879580294 118:1 #
-0.24202634719905836 786:1 #
1.0000000240560962 1683:0.70710677 2575:0.70710677 #
1.0000000240560962 1482:0.5 1683:0.5 2477:0.5 2503:0.5 #
1.0000000240560962 369:0.40824831 781:0.40824831 1088:0.40824831 1304:0.40824831 1465:0.40824831 1683:0.40824831 #
-0.088948392441130897 162:0.70710677 1892:0.70710677 #
-0.44826399749834567 103:1 #
-1.0000000240560962 781:1 #
1.0000000240560962 5:0.33333334 12:0.33333334 27:0.33333334 53:0.33333334 130:0.33333334 132:0.33333334 2137:0.33333334 2466:0.33333334 2594:0.33333334 #
-0.89594924134487397 787:1 #
1.0000000240560962 781:1 #
1.0000000240560962 170:1 #
1.0000000240560962 120:0.33333334 209:0.66666669 224:0.33333334 973:0.33333334 1664:0.33333334 2116:0.33333334 #
1.0000000240560962 655:1 #
-1.0000000240560962 6:0.5 130:0.5 866:0.5 985:0.5 #
-0.17478489404437725 530:1 #
-1.0000000240560962 53:0.89442718 1850:0.44721359 #
-0.058876500171632519 858:0.70710677 1023:0.70710677 #
-0.47400962919638834 190:0.70710677 2121:0.70710677 #
1.0000000240560962 71:0.33333334 77:0.33333334 162:0.33333334 214:0.33333334 230:0.33333334 273:0.33333334 846:0.33333334 976:0.33333334 2596:0.33333334 #
1.0000000240560962 150:0.37796447 156:0.37796447 167:0.37796447 178:0.37796447 344:0.37796447 483:0.37796447 2528:0.37796447 #
1.0000000240560962 244:0.5 656:0.5 701:0.5 1630:0.5 #
-1.0000000240560962 8:0.18257418 9:0.18257418 16:0.18257418 33:0.36514837 156:0.18257418 169:0.18257418 175:0.18257418 208:0.18257418 249:0.36514837 779:0.54772258 906:0.18257418 922:0.18257418 1014:0.18257418 1184:0.18257418 1972:0.18257418 2685:0.18257418 #
0.47465143813752891 285:0.31622776 431:0.31622776 435:0.31622776 447:0.31622776 642:0.31622776 857:0.31622776 1355:0.31622776 1424:0.31622776 1643:0.31622776 2506:0.31622776 #
-1.0000000240560962 156:0.5 207:0.5 1683:0.5 2516:0.5 #
-0.21280092117874858 70:0.89442718 127:0.2236068 214:0.2236068 362:0.2236068 2790:0.2236068 #
1.0000000240560962 53:0.35355338 221:0.35355338 310:0.35355338 364:0.35355338 644:0.35355338 994:0.35355338 1604:0.35355338 2470:0.35355338 #
1.0000000240560962 1:0.35355338 53:0.35355338 135:0.35355338 212:0.35355338 364:0.35355338 1247:0.35355338 1581:0.35355338 2520:0.35355338 #
-0.72522315434024076 489:0.70710677 1089:0.70710677 #
-0.079245823990743397 1134:0.57735026 1670:0.57735026 2094:0.57735026 #
-1.0000000240560962 5:0.16012815 7:0.32025629 12:0.16012815 72:0.16012815 146:0.16012815 167:0.16012815 178:0.16012815 190:0.16012815 205:0.16012815 247:0.32025629 310:0.16012815 315:0.16012815 364:0.32025629 417:0.32025629 717:0.16012815 974:0.16012815 981:0.16012815 1703:0.16012815 1839:0.16012815 2461:0.16012815 2520:0.16012815 2585:0.16012815 2739:0.16012815 2834:0.32025629 #
-1.0000000240560962 364:1 #
1.0000000240560962 59:0.40824831 530:0.40824831 717:0.40824831 1096:0.40824831 2132:0.40824831 2536:0.40824831 #
-0.73003107182281535 26:1 #
-0.0015095930907541577 118:1 #
-0.70450535236963974 2554:1 #
1.0000000240560962 3:0.5 190:0.5 364:0.5 2561:0.5 #
-0.96414303838797821 162:0.30151135 190:0.30151135 365:0.30151135 570:0.60302269 2536:0.60302269 #
-0.9792787248499033 4:0.15249857 47:0.30499715 55:0.15249857 132:0.15249857 160:0.30499715 214:0.30499715 319:0.15249857 524:0.15249857 529:0.30499715 633:0.15249857 642:0.15249857 857:0.15249857 896:0.45749572 939:0.15249857 1707:0.15249857 1832:0.15249857 2462:0.15249857 2501:0.15249857 2518:0.15249857 2537:0.15249857 2650:0.15249857 2718:0.15249857 2964:0.15249857 #
-1.0000000240560962 530:1 #
-0.1507746233601614 335:0.70710677 630:0.70710677 #
0.89143526390868655 91:0.70710677 2465:0.70710677 #
1.0000000240560962 672:0.70710677 1089:0.70710677 #
-0.59663134048417965 775:1 #
-0.53647474363006542 2114:1 #
-1.0000000240560962 15:0.57735026 168:0.57735026 976:0.57735026 #
-0.55788757032222935 648:1 #
1.0000000240560962 6:0.33333334 72:0.33333334 205:0.66666669 222:0.33333334 229:0.33333334 480:0.33333334 #
1.0000000240560962 974:0.37796447 1257:0.37796447 1267:0.37796447 1308:0.37796447 1545:0.37796447 1592:0.37796447 2566:0.37796447 #
1.0000000240560962 5:0.5 7:0.5 1427:0.5 2115:0.5 #
-1.0000000240560962 5:0.22086306 6:0.44172612 11:0.11043153 14:0.22086306 53:0.33129457 60:0.11043153 90:0.11043153 105:0.11043153 167:0.11043153 178:0.11043153 204:0.22086306 207:0.11043153 229:0.11043153 261:0.11043153 268:0.11043153 310:0.22086306 365:0.22086306 404:0.22086306 449:0.11043153 646:0.11043153 805:0.11043153 881:0.11043153 889:0.11043153 970:0.11043153 1084:0.11043153 1088:0.11043153 1100:0.11043153 1183:0.11043153 1203:0.11043153 1652:0.11043153 1719:0.11043153 1870:0.22086306 1936:0.11043153 2091:0.11043153 2134:0.11043153 2138:0.11043153 2254:0.11043153 2461:0.11043153 #
-0.90311598970243478 229:1 #
-0.067433988857298136 106:0.70710677 2657:0.70710677 #
-1.0000000240560962 6:0.33333334 17:0.33333334 26:0.33333334 119:0.33333334 178:0.33333334 277:0.33333334 574:0.33333334 1652:0.33333334 2133:0.33333334 #
-0.64940478239227106 2115:1 #
1.0000000240560962 168:1 #
1.0000000240560962 168:0.57735026 700:0.57735026 974:0.57735026 #
1.0000000240560962 148:0.5 1343:0.5 1422:0.5 1560:0.5 #
-1.0000000240560962 168:1 #
1.0000000240560962 530:1 #
1.0000000240560962 530:0.70710677 574:0.70710677 #
1.0000000240560962 440:0.70710677 530:0.70710677 #
-0.24415670312440654 974:0.70710677 1670:0.70710677 #
-1.0000000240560962 63:1 #
-0.90787397214475973 857:1 #
-0.13579331905506331 344:1 #
1.0000000240560962 183:0.26726124 214:0.26726124 655:0.26726124 976:0.26726124 1089:0.80178374 1591:0.26726124 #
0.28375888846658337 2:0.70710677 1636:0.70710677 #
1.0000000240560962 875:1 #
-1.0000000240560962 655:0.70710677 875:0.70710677 #
-1.0000000240560962 17:0.5 365:0.5 369:0.5 875:0.5 #
-0.57325341216146231 344:0.57735026 875:0.57735026 1166:0.57735026 #
-0.14997505997962982 1132:0.70710677 2804:0.70710677 #
-0.61266534164341169 875:0.70710677 1217:0.70710677 #
1.0000000240560962 311:0.57735026 974:0.57735026 2538:0.57735026 #
-0.17706099244280069 468:0.40824831 579:0.40824831 949:0.40824831 1088:0.40824831 1752:0.40824831 2517:0.40824831 #
1.0000000240560962 130:0.57735026 859:0.57735026 974:0.57735026 #
-1.0000000240560962 974:1 #
1.0000000240560962 875:0.70710677 1090:0.70710677 #
1.0000000240560962 768:0.57735026 875:0.57735026 1561:0.57735026 #
-0.045133309869503507 311:0.70710677 2790:0.70710677 #
-1.0000000240560962 133:0.40824831 162:0.40824831 278:0.40824831 1225:0.40824831 2150:0.40824831 2538:0.40824831 #
-1.0000000240560962 272:0.70710677 1089:0.70710677 #
-0.74407241285539538 2538:1 #
1.0000000240560962 7:0.28867513 103:0.28867513 120:0.28867513 190:0.28867513 365:0.57735026 764:0.28867513 973:0.28867513 1842:0.28867513 2579:0.28867513 #
-1.0000000240560962 530:1 #
1.0000000240560962 177:0.5 866:0.5 2150:0.5 2473:0.5 #
-0.21080362535577241 265:0.70710677 318:0.70710677 #
-1.0000000240560962 7:0.57735026 1001:0.57735026 2132:0.57735026 #
-1.0000000240560962 6:0.37796447 177:0.75592893 313:0.37796447 780:0.37796447 #
-0.015188711714628491 939:0.44721359 955:0.44721359 1884:0.44721359 1981:0.44721359 2664:0.44721359 #
1.0000000240560962 25:0.44721359 227:0.44721359 530:0.44721359 2461:0.44721359 2573:0.44721359 #
0.84976637516783571 1409:1 #
-1.0000000240560962 530:1 #
1.0000000240560962 33:0.37796447 274:0.37796447 364:0.37796447 2132:0.75592893 #
1.0000000240560962 642:0.5 1331:0.5 1601:0.5 1670:0.5 #
1.0000000240560962 642:0.70710677 1473:0.70710677 #
-1.0000000240560962 133:0.33333334 781:0.33333334 813:0.66666669 979:0.33333334 1668:0.33333334 2150:0.33333334 #
-0.45992331696731004 125:0.70710677 365:0.70710677 #
-1.0000000240560962 22:0.44721359 25:0.44721359 126:0.44721359 328:0.44721359 894:0.44721359 #
-1.0000000240560962 18:0.30151135 119:0.30151135 130:0.60302269 162:0.30151135 650:0.30151135 717:0.30151135 1101:0.30151135 2121:0.30151135 #
-0.92005756833982355 2121:0.70710677 2561:0.70710677 #
1.0000000240560962 162:0.37796447 214:0.37796447 654:0.37796447 1086:0.37796447 1526:0.37796447 1868:0.37796447 2538:0.37796447 #
-0.19799191730409602 214:0.57735026 574:0.57735026 827:0.57735026 #
-0.12712746582226148 474:0.57735026 538:0.57735026 987:0.57735026 #
-0.06202204593595366 855:0.57735026 884:0.57735026 1826:0.57735026 #
-1.0000000240560962 162:1 #
-1.0000000240560962 189:0.44721359 214:0.44721359 396:0.44721359 530:0.44721359 1875:0.44721359 #
1.0000000240560962 633:1 #
1.0000000240560962 27:0.60302269 73:0.30151135 151:0.30151135 191:0.30151135 249:0.30151135 272:0.30151135 974:0.30151135 1669:0.30151135 #
-0.56900293372140331 97:0.70710677 451:0.70710677 #
-0.092458722026525053 104:1 #
1.0000000240560962 130:0.40824831 214:0.40824831 530:0.40824831 1101:0.40824831 2121:0.40824831 2600:0.40824831 #
-0.020223524841509615 371:0.96225047 1064:0.19245009 2097:0.19245009 #
-0.21768307274933882 115:0.37796447 886:0.37796447 1120:0.37796447 1238:0.37796447 1669:0.37796447 1854:0.37796447 2093:0.37796447 #
0.16908500690608694 3:0.57735026 1879:0.57735026 1881:0.57735026 #
-0.75807550571699689 2600:1 #
-0.08879153859232114 162:0.70710677 2614:0.70710677 #
1.0000000240560962 7:0.5 1408:0.5 1627:0.5 2528:0.5 #
1.0000000240560962 2528:1 #
1.0000000240560962 974:0.57735026 976:0.57735026 2522:0.57735026 #
1.0000000240560962 27:0.25 68:0.25 126:0.5 162:0.25 204:0.25 230:0.25 277:0.25 363:0.25 391:0.25 636:0.25 960:0.25 1496:0.25 1679:0.25 #
-1.0000000240560962 2528:1 #
0.17943270478888551 1674:1 #
1.0000000240560962 162:0.23570226 191:0.70710677 565:0.23570226 641:0.23570226 643:0.23570226 871:0.23570226 1097:0.23570226 1870:0.23570226 2121:0.23570226 2472:0.23570226 #
1.0000000240560962 71:0.40824831 191:0.40824831 2583:0.81649661 #
1.0000000240560962 272:0.57735026 1120:0.57735026 2536:0.57735026 #
-0.019693673574874171 148:0.5 901:0.5 1652:0.5 2994:0.5 #
-0.084818044799631731 195:1 #
-0.08803752924216586 874:0.70710677 2377:0.70710677 #
1.0000000240560962 450:0.57735026 1854:0.57735026 2528:0.57735026 #
1.0000000240560962 396:0.44721359 1105:0.89442718 #
1.0000000240560962 192:0.57735026 396:0.57735026 709:0.57735026 #
1.0000000240560962 50:0.70710677 79:0.35355338 1236:0.35355338 1867:0.35355338 2535:0.35355338 #
-1.0000000240560962 450:1 #
-1.0000000240560962 71:0.70710677 2121:0.70710677 #
1.0000000240560962 126:0.37796447 278:0.37796447 313:0.37796447 1113:0.37796447 1238:0.37796447 1506:0.37796447 2510:0.37796447 #
1.0000000240560962 138:0.5 974:0.5 1874:0.5 2486:0.5 #
-1.0000000240560962 5:0.21821789 12:0.21821789 162:0.21821789 221:0.21821789 278:0.65465367 313:0.21821789 364:0.21821789 395:0.43643579 2121:0.21821789 2736:0.21821789 #
-0.40917549289214905 156:0.70710677 168:0.70710677 #
-0.088575669075123403 77:0.70710677 2294:0.70710677 #
-0.011848944177618555 158:0.89442718 2006:0.44721359 #
1.0000000240560962 64:0.33333334 162:0.33333334 165:0.33333334 168:0.33333334 635:0.33333334 1120:0.33333334 1683:0.33333334 2121:0.33333334 2132:0.33333334 #
1.0000000240560962 33:0.35355338 222:0.35355338 449:0.35355338 760:0.35355338 975:0.35355338 1555:0.35355338 1644:0.35355338 2121:0.35355338 #
1.0000000240560962 46:0.40824831 172:0.40824831 249:0.40824831 987:0.40824831 2133:0.40824831 2499:0.40824831 #
-1.0000000240560962 46:0.35355338 191:0.35355338 192:0.35355338 241:0.35355338 994:0.35355338 2132:0.35355338 2133:0.35355338 2573:0.35355338 #
-1.0000000240560962 73:0.37796447 162:0.37796447 222:0.37796447 1683:0.37796447 2121:0.37796447 2132:0.37796447 2865:0.37796447 #
-1.0000000240560962 10:0.5 976:0.5 2051:0.5 2121:0.5 #
-0.8406208633304163 115:1 #
-1.0000000240560962 126:0.30151135 222:0.30151135 249:0.30151135 531:0.30151135 781:0.30151135 864:0.30151135 2133:0.30151135 2548:0.60302269 #
1.0000000240560962 247:0.5 363:0.5 867:0.5 1332:0.5 #
1.0000000240560962 22:0.35355338 47:0.35355338 136:0.35355338 284:0.35355338 363:0.35355338 1258:0.35355338 1259:0.35355338 1490:0.35355338 #
-1.0000000240560962 363:1 #
1.0000000240560962 395:0.70710677 2129:0.70710677 #
1.0000000240560962 126:0.40824831 365:0.40824831 369:0.40824831 491:0.40824831 527:0.40824831 2578:0.40824831 #
1.0000000240560962 123:0.81649661 1628:0.40824831 1870:0.40824831 #
1.0000000240560962 278:0.70710677 2571:0.70710677 #
-0.032581958073863326 47:1 #
-0.30585543266436255 650:0.70710677 782:0.70710677 #
1.0000000240560962 363:0.57735026 530:0.57735026 2475:0.57735026 #
1.0000000240560962 125:0.70710677 1504:0.70710677 #
1.0000000240560962 1568:0.57735026 1625:0.57735026 2537:0.57735026 #
-0.38880875383534347 7:0.70710677 125:0.70710677 #
-0.068741508877062277 7:0.89442718 1793:0.44721359 #
-1.0000000240560962 6:0.2773501 19:0.2773501 101:0.2773501 345:0.2773501 359:0.2773501 396:0.5547002 562:0.2773501 1172:0.2773501 1683:0.2773501 2127:0.2773501 #
-0.14975351930805569 1060:1 #
-1.0000000240560962 530:1 #
0.87349782350029892 1:0.40824831 22:0.40824831 47:0.40824831 177:0.40824831 1434:0.40824831 2142:0.40824831 #
1.0000000240560962 22:0.31622776 47:0.31622776 448:0.31622776 674:0.31622776 680:0.31622776 694:0.31622776 1505:0.31622776 1550:0.31622776 1609:0.31622776 1842:0.31622776 #
-0.99994459567670579 22:1 #
1.0000000240560962 17:0.57735026 562:0.57735026 2591:0.57735026 #
1.0000000240560962 140:0.35355338 364:0.35355338 396:0.70710677 575:0.35355338 2571:0.35355338 #
-0.665948495135819 64:0.70710677 2499:0.70710677 #
-1.0000000240560962 132:0.33333334 204:0.33333334 760:0.33333334 1087:0.33333334 1867:0.33333334 2529:0.66666669 #
-0.8366526084247955 304:0.44721359 574:0.44721359 1087:0.44721359 1833:0.44721359 2475:0.44721359 #
-0.54529501252697443 247:0.70710677 1092:0.70710677 #
1.0000000240560962 447:0.57735026 1352:0.57735026 1411:0.57735026 #
1.0000000240560962 146:0.44721359 283:0.44721359 362:0.44721359 1501:0.44721359 1528:0.44721359 #
1.0000000240560962 770:0.57735026 1869:0.57735026 2529:0.57735026 #
1.0000000240560962 14:0.81649661 221:0.40824831 246:0.40824831 #
1.0000000240560962 46:0.40824831 71:0.40824831 120:0.40824831 162:0.40824831 846:0.40824831 2126:0.40824831 #
1.0000000240560962 157:0.44721359 162:0.44721359 484:0.44721359 991:0.44721359 1671:0.44721359 #
1.0000000240560962 122:0.57735026 1425:0.57735026 2121:0.57735026 #
-1.0000000240560962 22:0.40824831 57:0.40824831 83:0.40824831 120:0.40824831 222:0.40824831 2021:0.40824831 #
1.0000000240560962 5:0.31622776 14:0.31622776 104:0.31622776 139:0.31622776 272:0.31622776 858:0.31622776 974:0.31622776 1460:0.31622776 1585:0.31622776 1875:0.31622776 #
-1.0000000240560962 191:1 #
-0.14957886913831342 1993:1 #
1.0000000240560962 396:0.5 530:0.5 1254:0.5 1647:0.5 #
1.0000000240560962 422:0.57735026 706:0.57735026 970:0.57735026 #
1.0000000240560962 191:0.44721359 214:0.44721359 272:0.44721359 450:0.44721359 971:0.44721359 #
1.0000000240560962 2536:1 #
1.0000000240560962 642:0.40824831 857:0.40824831 1115:0.40824831 1354:0.40824831 1626:0.40824831 1670:0.40824831 #
1.0000000240560962 633:1 #
1.0000000240560962 89:0.89442718 315:0.44721359 #
1.0000000240560962 2488:1 #
1.0000000240560962 851:1 #
1.0000000240560962 10:0.5 68:0.5 310:0.5 1847:0.5 #
1.0000000240560962 345:0.57735026 1117:0.57735026 1238:0.57735026 #
1.0000000240560962 183:0.26726124 214:0.26726124 655:0.26726124 976:0.26726124 1089:0.80178374 1591:0.26726124 #
1.0000000240560962 10:0.33333334 47:0.33333334 60:0.33333334 68:0.33333334 310:0.33333334 312:0.33333334 478:0.33333334 1090:0.33333334 1105:0.33333334 #
1.0000000240560962 6:0.37796447 8:0.37796447 162:0.37796447 310:0.37796447 529:0.37796447 660:0.37796447 2461:0.37796447 #
-0.063306320403366589 22:0.57735026 1681:0.57735026 2088:0.57735026 #
-0.30764938924111274 338:0.57735026 2597:0.57735026 2711:0.57735026 #
-0.28165373544333538 489:0.70710677 491:0.70710677 #
-1.0000000240560962 851:0.70710677 1105:0.70710677 #
-0.99190555410048975 1090:1 #
1.0000000240560962 53:0.44721359 103:0.44721359 178:0.44721359 275:0.44721359 2121:0.44721359 #
1.0000000240560962 22:0.5 70:0.25 132:0.25 178:0.25 566:0.25 856:0.25 1656:0.25 1674:0.5 1870:0.25 2121:0.25 #
1.0000000240560962 119:0.30151135 162:0.30151135 169:0.60302269 208:0.30151135 249:0.30151135 421:0.30151135 1604:0.30151135 2108:0.30151135 #
-0.72398862197918856 71:1 #
-0.56551424769725833 8:0.20412415 20:0.20412415 169:0.81649661 214:0.20412415 942:0.20412415 991:0.20412415 1874:0.20412415 1972:0.20412415 2562:0.20412415 #
-0.44351434682291324 534:1 #
0.47550874339149762 1:0.35355338 53:0.35355338 135:0.35355338 212:0.35355338 364:0.35355338 1247:0.35355338 1581:0.35355338 2520:0.35355338 #
-0.26422067057524773 454:0.70710677 1228:0.70710677 #
1.0000000240560962 222:0.44721359 782:0.44721359 1090:0.44721359 2150:0.44721359 2535:0.44721359 #
1.0000000240560962 222:0.5 361:0.5 1598:0.5 2577:0.5 #
1.0000000240560962 339:0.57735026 439:0.57735026 2482:0.57735026 #
1.0000000240560962 50:0.44721359 671:0.44721359 863:0.44721359 872:0.44721359 2133:0.44721359 #
-1.0000000240560962 396:0.44721359 463:0.44721359 530:0.44721359 575:0.44721359 2150:0.44721359 #
-1.0000000240560962 50:1 #
-0.53870111831973044 50:0.70710677 1875:0.70710677 #
-0.99575787610567934 222:0.44721359 387:0.44721359 394:0.44721359 971:0.44721359 1054:0.44721359 #
-0.041793624880157143 741:0.57735026 991:0.57735026 2126:0.57735026 #
1.0000000240560962 871:0.5 1637:0.5 1844:0.5 1872:0.5 #
1.0000000240560962 2516:1 #
-0.14946039101853026 2228:1 #
-1.0000000240560962 243:1 #
-1.0000000240560962 46:0.5 132:0.5 396:0.5 2524:0.5 #
-0.9977495851714886 2131:1 #
1.0000000240560962 5:0.44721359 27:0.44721359 119:0.44721359 282:0.44721359 876:0.44721359 #
1.0000000240560962 576:0.57735026 1508:0.57735026 1681:0.57735026 #
1.0000000240560962 996:1 #
1.0000000240560962 110:0.44721359 186:0.89442718 #
1.0000000240560962 2128:1 #
-0.71172397550079081 49:0.57735026 88:0.28867513 370:0.28867513 576:0.28867513 642:0.28867513 823:0.28867513 991:0.28867513 1123:0.28867513 1843:0.28867513 #
-1.0000000240560962 27:1 #
-0.20881064501911722 782:0.70710677 1731:0.70710677 #
1.0000000240560962 318:1 #
1.0000000240560962 1851:1 #
1.0000000240560962 1640:1 #
1.0000000240560962 2493:1 #
1.0000000240560962 699:1 #
-0.05425161787634214 126:0.57735026 846:0.57735026 2310:0.57735026 #
-0.38195454042040511 1873:1 #
-1.0000000240560962 122:0.57735026 190:0.57735026 2503:0.57735026 #
-1.0000000240560962 6:0.57735026 102:0.57735026 1674:0.57735026 #
-0.5786006653357898 422:1 #
1.0000000240560962 24:0.33333334 73:0.33333334 162:0.33333334 190:0.33333334 222:0.33333334 785:0.33333334 991:0.33333334 1120:0.33333334 2551:0.33333334 #
1.0000000240560962 1366:1 #
1.0000000240560962 2110:1 #
1.0000000240560962 2514:1 #
-1.0000000240560962 1238:1 #
-1.0000000240560962 73:0.2773501 162:0.2773501 259:0.2773501 278:0.2773501 508:0.2773501 527:0.5547002 750:0.2773501 1089:0.2773501 1114:0.2773501 2510:0.2773501 #
-0.62555701828146182 566:1 #
-1.0000000240560962 490:0.70710677 778:0.70710677 #
1.0000000240560962 6:0.40824831 91:0.40824831 529:0.40824831 856:0.40824831 863:0.40824831 2121:0.40824831 #
1.0000000240560962 4:0.44721359 346:0.44721359 422:0.44721359 992:0.44721359 1358:0.44721359 #
1.0000000240560962 55:0.57735026 530:0.57735026 1674:0.57735026 #
1.0000000240560962 6:0.33333334 191:0.33333334 214:0.33333334 527:0.33333334 715:0.66666669 974:0.33333334 #
1.0000000240560962 40:1 #
-0.3502059406748238 447:0.70710677 992:0.70710677 #
-1.0000000240560962 122:0.17960531 126:0.17960531 178:0.17960531 183:0.17960531 299:0.71842122 447:0.17960531 530:0.35921061 819:0.17960531 858:0.17960531 992:0.17960531 1847:0.17960531 1876:0.17960531 1963:0.17960531 #
-1.0000000240560962 530:0.44721359 1088:0.44721359 1126:0.44721359 1200:0.44721359 1674:0.44721359 #
-1.0000000240560962 992:1 #
1.0000000240560962 2481:1 #
1.0000000240560962 134:0.44721359 1108:0.89442718 #
1.0000000240560962 2547:1 #
1.0000000240560962 1493:1 #
0.99902230359879018 1340:1 #
-1.0000000240560962 2461:1 #
-0.27726999963428955 214:0.5 377:0.5 1882:0.5 2549:0.5 #
-0.73966245432255739 950:0.57735026 971:0.57735026 2125:0.57735026 #
-1.0000000240560962 114:0.28867513 218:0.28867513 249:0.28867513 394:0.28867513 567:0.28867513 904:0.57735026 1178:0.28867513 1656:0.28867513 1881:0.28867513 #
-0.9748213986117702 23:0.40824831 58:0.40824831 351:0.40824831 484:0.40824831 1682:0.40824831 2032:0.40824831 #
1.0000000240560962 872:0.37796447 1104:0.75592893 1674:0.37796447 1874:0.37796447 #
1.0000000240560962 640:0.70710677 1393:0.70710677 #
1.0000000240560962 52:1 #
1.0000000240560962 1463:1 #
-0.68655759089548885 592:0.57735026 640:0.57735026 2598:0.57735026 #
-0.91682096239799293 123:1 #
-0.092739441077346552 7:0.57735026 1202:0.57735026 2062:0.57735026 #
1.0000000240560962 1256:1 #
1.0000000240560962 1466:1 #
1.0000000240560962 1119:0.70710677 1470:0.70710677 #
1.0000000240560962 1410:0.81649661 1446:0.40824831 1546:0.40824831 #
-0.39998073110402965 151:0.57735026 2305:0.57735026 2470:0.57735026 #
-0.52806141580904553 1653:1 #
-1.0000000240560962 72:0.44721359 761:0.44721359 974:0.44721359 1857:0.44721359 2132:0.44721359 #
-1.0000000240560962 654:1 #
1.0000000240560962 55:0.5 123:0.5 1621:0.5 2517:0.5 #
1.0000000240560962 1409:1 #
1.0000000240560962 1633:0.70710677 1634:0.70710677 #
-1.0000000240560962 6:0.44721359 204:0.44721359 2120:0.44721359 2123:0.44721359 2517:0.44721359 #
1.0000000240560962 151:1 #
-1.0000000240560962 151:1 #
-0.47313361543773896 77:0.57735026 725:0.57735026 1865:0.57735026 #
0.55429942095972207 171:0.5 249:0.5 974:0.5 1851:0.5 #
1.0000000240560962 90:0.31622776 162:0.31622776 204:0.31622776 288:0.31622776 289:0.31622776 527:0.31622776 1429:0.31622776 1481:0.31622776 1673:0.31622776 2532:0.31622776 #
0.99967804853026943 1279:0.57735026 1293:0.57735026 1582:0.57735026 #
1.0000000240560962 704:0.70710677 1533:0.70710677 #
1.0000000240560962 287:0.5 445:0.5 1439:0.5 1529:0.5 #
1.0000000240560962 82:0.57735026 109:0.57735026 1367:0.57735026 #
-0.064184822767427319 143:0.5 524:0.5 2133:0.5 2527:0.5 #
-1.0000000240560962 17:0.35355338 365:0.35355338 369:0.35355338 589:0.35355338 653:0.35355338 857:0.35355338 1872:0.35355338 2779:0.35355338 #
-0.99285914407327613 1086:1 #
1.0000000240560962 14:0.33333334 363:0.33333334 703:0.33333334 704:0.33333334 857:0.66666669 2462:0.33333334 #
1.0000000240560962 1371:0.5 1483:0.5 1566:0.5 1618:0.5 #
1.0000000240560962 563:1 #
1.0000000240560962 80:0.70710677 1298:0.70710677 #
1.0000000240560962 678:0.5 1252:0.5 1338:0.5 1347:0.5 #
-1.0000000240560962 14:0.57735026 167:0.57735026 1852:0.57735026 #
-1.0000000240560962 85:0.44721359 575:0.44721359 633:0.44721359 639:0.44721359 2481:0.44721359 #
-1.0000000240560962 919:0.57735026 1116:0.57735026 2112:0.57735026 #
-0.21581872853956224 220:0.70710677 564:0.70710677 #
-0.20278729062942225 157:1 #
1.0000000240560962 191:0.30151135 488:0.30151135 1640:0.30151135 1869:0.60302269 2150:0.60302269 #
1.0000000240560962 213:0.35355338 438:0.35355338 659:0.35355338 681:0.35355338 1296:0.35355338 1593:0.35355338 1682:0.35355338 2150:0.35355338 #
1.0000000240560962 1642:1 #
-1.0000000240560962 2150:1 #
1.0000000240560962 682:1 #
1.0000000240560962 444:0.70710677 486:0.70710677 #
1.0000000240560962 13:1 #
-0.22183883371664903 1120:0.40824831 1670:0.81649661 1751:0.40824831 #
-0.45189259832153017 1856:1 #
-0.21595694639847129 2531:1 #
-1.0000000240560962 2133:1 #
-0.41265806751246414 2118:1 #
1.0000000240560962 873:1 #
1.0000000240560962 7:0.31622776 72:0.31622776 162:0.31622776 214:0.31622776 242:0.31622776 780:0.31622776 1683:0.31622776 1852:0.31622776 2132:0.31622776 2583:0.31622776 #
1.0000000240560962 7:0.28867513 103:0.28867513 120:0.28867513 190:0.28867513 365:0.57735026 764:0.28867513 973:0.28867513 1842:0.28867513 2579:0.28867513 #
-1.0000000240560962 422:0.70710677 873:0.70710677 #
-0.074500928188955012 10:0.2 47:0.2 89:0.40000001 214:0.2 292:0.40000001 298:0.2 334:0.2 624:0.40000001 652:0.2 932:0.2 973:0.40000001 1074:0.2 1872:0.2 #
-0.30257357758698966 71:0.5 608:0.5 873:0.5 1003:0.5 #
-0.73275718292653191 14:1 #
1.0000000240560962 972:0.44721359 2538:0.89442718 #
1.0000000240560962 99:0.5 675:0.5 857:0.5 2570:0.5 #
-1.0000000240560962 49:0.44721359 272:0.44721359 940:0.44721359 1844:0.44721359 1867:0.44721359 #
-0.20273470869347074 49:0.33333334 177:0.33333334 313:0.66666669 2007:0.33333334 2016:0.33333334 2018:0.33333334 #
-1.0000000240560962 68:0.37796447 147:0.37796447 272:0.37796447 276:0.37796447 656:0.37796447 2080:0.37796447 2643:0.37796447 #
-1.0000000240560962 620:0.35355338 642:0.70710677 963:0.35355338 2184:0.35355338 2242:0.35355338 #
-0.070090269966430419 214:0.70710677 1149:0.70710677 #
1.0000000240560962 88:0.57735026 143:0.57735026 437:0.57735026 #
1.0000000240560962 22:0.35355338 47:0.35355338 136:0.35355338 284:0.35355338 363:0.35355338 1258:0.35355338 1259:0.35355338 1490:0.35355338 #
-0.12158074762467341 201:1 #
-0.16437593275060791 208:0.5 223:0.5 758:0.5 983:0.5 #
-0.42702164452063751 493:1 #
1.0000000240560962 285:0.44721359 431:0.44721359 435:0.44721359 642:0.44721359 857:0.44721359 #
1.0000000240560962 183:0.57735026 865:0.57735026 1103:0.57735026 #
-1.0000000240560962 865:1 #
-0.032250097773359118 183:0.44721359 553:0.44721359 865:0.44721359 1681:0.44721359 1831:0.44721359 #
-1.0000000240560962 642:1 #
1.0000000240560962 208:0.75592893 249:0.37796447 364:0.37796447 1850:0.37796447 #
1.0000000240560962 454:1 #
1.0000000240560962 119:0.31622776 167:0.31622776 488:0.31622776 781:0.63245553 988:0.31622776 2133:0.31622776 2596:0.31622776 #
1.0000000240560962 278:0.57735026 1285:0.57735026 2511:0.57735026 #
-0.1581207719015878 454:0.70710677 652:0.70710677 #
-0.027590463213259975 315:0.5 454:0.5 549:0.5 1062:0.5 #
-0.040776902280524732 53:0.40824831 103:0.40824831 2288:0.81649661 #
-0.61898182750870545 21:0.35355338 405:0.70710677 781:0.35355338 976:0.35355338 2250:0.35355338 #
-0.39640569391147634 156:0.44721359 272:0.44721359 877:0.44721359 1652:0.44721359 1675:0.44721359 #
1.0000000240560962 964:0.57735026 1099:0.57735026 2474:0.57735026 #
1.0000000240560962 114:0.33333334 162:0.33333334 222:0.33333334 450:0.33333334 530:0.33333334 874:0.33333334 2123:0.33333334 2466:0.33333334 2500:0.33333334 #
1.0000000240560962 2582:0.70710677 2584:0.70710677 #
-0.72670843039614064 475:0.5 772:0.5 964:0.5 2536:0.5 #
-0.051888386630955012 1995:0.70710677 2074:0.70710677 #
0.82741565216839419 272:0.44721359 286:0.44721359 396:0.44721359 1541:0.44721359 2121:0.44721359 #
-0.76320504313083526 162:0.37796447 601:0.75592893 991:0.37796447 1845:0.37796447 #
1.0000000240560962 319:0.40824831 857:0.40824831 963:0.40824831 1107:0.40824831 1461:0.40824831 2462:0.40824831 #
1.0000000240560962 74:0.70710677 78:0.70710677 #
-0.12150684154481084 2078:1 #
-0.18713942771226044 60:1 #
-1.0000000240560962 1090:1 #
1.0000000240560962 485:0.70710677 875:0.70710677 #
1.0000000240560962 2518:1 #
-0.56576318914861001 183:0.57735026 1670:0.57735026 2518:0.57735026 #
-1.0000000240560962 1115:0.70710677 1670:0.70710677 #
-1.0000000240560962 364:0.5 555:0.5 643:0.5 2262:0.5 #
-1.0000000240560962 1675:1 #
-1.0000000240560962 183:0.30151135 1041:0.30151135 1842:0.30151135 2092:0.30151135 2172:0.60302269 2299:0.30151135 2558:0.30151135 2575:0.30151135 #
1.0000000240560962 1507:1 #
1.0000000240560962 426:0.5 1113:0.5 1253:0.5 1597:0.5 #
-1.0000000240560962 74:0.2773501 89:0.2773501 158:0.2773501 162:0.2773501 259:0.2773501 483:0.2773501 848:0.2773501 1857:0.2773501 2145:0.2773501 2207:0.2773501 2528:0.2773501 2564:0.2773501 2757:0.2773501 #
-1.0000000240560962 340:0.70710677 477:0.70710677 #
-1.0000000240560962 857:1 #
-0.40016725709481871 391:1 #
1.0000000240560962 1675:1 #
1.0000000240560962 49:0.33333334 718:0.33333334 1235:0.33333334 1320:0.33333334 1323:0.33333334 1477:0.33333334 1584:0.33333334 1842:0.33333334 2565:0.33333334 #
-0.088055867668466514 114:0.70710677 2070:0.70710677 #
-0.34085595778780464 1235:0.5 2129:0.5 2404:0.5 2848:0.5 #
-0.39941371148652477 174:0.57735026 991:0.57735026 1675:0.57735026 #
-0.75312580930518691 355:0.33333334 421:0.66666669 783:0.33333334 1683:0.33333334 1686:0.33333334 2574:0.33333334 #
0.53802238438509264 91:0.31622776 115:0.31622776 144:0.31622776 162:0.31622776 178:0.31622776 992:0.31622776 1423:0.31622776 1585:0.31622776 1859:0.31622776 2145:0.31622776 #
0.97888168695500355 25:0.44721359 759:0.44721359 1310:0.44721359 1440:0.44721359 1554:0.44721359 #
-1.0000000240560962 344:1 #
-0.15264669249561025 156:0.70710677 1100:0.70710677 #
-0.026070874203627081 113:1 #
1.0000000240560962 448:0.70710677 1569:0.70710677 #
1.0000000240560962 2485:0.44721359 2533:0.89442718 #
-0.061167394113677186 595:0.57735026 1996:0.57735026 2243:0.57735026 #
-0.11990723472486126 1037:0.70710677 2921:0.70710677 #
-0.3794388326954532 2111:1 #
-0.2431913502832086 338:1 #
1.0000000240560962 873:1 #
1.0000000240560962 433:1 #
1.0000000240560962 1336:1 #
-0.22580068330131733 536:0.89442718 2532:0.44721359 #
-0.28626910298976033 1013:0.70710677 2523:0.70710677 #
-0.85616746272679867 1112:0.5 1721:0.5 2087:0.5 2870:0.5 #
1.0000000240560962 6:0.44721359 245:0.44721359 1106:0.44721359 1586:0.44721359 2570:0.44721359 #
0.5662289601620909 41:0.5 441:0.5 696:0.5 1611:0.5 #
1.0000000240560962 110:0.70710677 707:0.70710677 #
-0.24048418301119168 6:0.35355338 979:0.35355338 1100:0.35355338 1652:0.35355338 2148:0.70710677 #
-0.19610454808814587 148:0.5 156:0.5 590:0.5 2722:0.5 #
-0.33541173703032301 2559:1 #
1.0000000240560962 14:0.40824831 430:0.40824831 1112:0.40824831 1244:0.40824831 1391:0.40824831 2539:0.40824831 #
1.0000000240560962 125:0.40824831 146:0.40824831 247:0.40824831 282:0.40824831 364:0.40824831 2576:0.40824831 #
-0.83615784513614988 6:1 #
-0.15022366864325876 2669:1 #
-0.071297406060910104 880:0.70710677 1005:0.70710677 #
-0.64178786009129762 869:1 #
1.0000000240560962 1261:0.57735026 1453:0.57735026 2512:0.57735026 #
1.0000000240560962 2479:0.70710677 2574:0.70710677 #
1.0000000240560962 341:0.70710677 1120:0.70710677 #
-1.0000000240560962 495:0.70710677 2566:0.70710677 #
-0.77935564304526428 824:0.5 2101:0.5 2513:0.5 2817:0.5 #
-1.0000000240560962 126:0.70710677 2596:0.70710677 #
-0.28622660761676977 316:0.5 633:0.5 2272:0.5 2462:0.5 #
-0.57029263160533417 342:0.5 2125:0.5 2683:0.5 2712:0.5 #
1.0000000240560962 56:0.5 427:0.5 965:0.5 1238:0.5 #
-0.10412296005648558 885:1 #
1.0000000240560962 178:0.57735026 850:0.57735026 878:0.57735026 #
-0.15013267763969773 1985:1 #
-0.13041766418266124 1961:0.44721359 2127:0.44721359 2202:0.44721359 2538:0.44721359 2847:0.44721359 #
-0.23002056735565235 884:0.70710677 2708:0.70710677 #
0.89651886226995547 211:0.57735026 486:0.57735026 1335:0.57735026 #
1.0000000240560962 77:0.5 120:0.5 1314:0.5 1629:0.5 #
1.0000000240560962 138:0.57735026 261:0.57735026 2121:0.57735026 #
-0.1620919193012394 1199:0.70710677 2556:0.70710677 #
-0.14536754429949972 1091:1 #
1.0000000240560962 691:0.70710677 2593:0.70710677 #
1.0000000240560962 694:1 #
1.0000000240560962 47:0.70710677 976:0.70710677 #
1.0000000240560962 421:0.70710677 1674:0.70710677 #
1.0000000240560962 55:0.5 130:0.5 281:0.5 574:0.5 #
-0.14979864593520142 473:1 #
-0.038227978394160547 128:0.70710677 2587:0.70710677 #
-0.52280586956845365 1877:1 #
1.0000000240560962 162:0.70710677 1612:0.70710677 #
1.0000000240560962 74:0.2236068 90:0.2236068 126:0.2236068 162:0.2236068 168:0.2236068 172:0.2236068 222:0.2236068 274:0.2236068 420:0.67082042 864:0.2236068 2109:0.2236068 2132:0.2236068 #
1.0000000240560962 80:0.44721359 162:0.44721359 1368:0.44721359 1523:0.44721359 2585:0.44721359 #
1.0000000240560962 162:0.5 1638:0.5 2505:0.5 2590:0.5 #
-0.039448034598871286 228:0.70710677 1916:0.70710677 #
1.0000000240560962 3:0.44721359 14:0.44721359 22:0.44721359 1334:0.44721359 1374:0.44721359 #
-0.20821798030751693 530:1 #
-0.47337209470934899 3:0.17149858 20:0.17149858 49:0.17149858 313:0.17149858 344:0.17149858 355:0.85749292 530:0.17149858 977:0.17149858 1670:0.17149858 2977:0.17149858 #
-1.0000000240560962 8:0.81649661 10:0.40824831 2132:0.40824831 #
-0.77526787258005203 29:0.2773501 272:0.2773501 455:0.2773501 857:0.2773501 888:0.2773501 1698:0.5547002 1876:0.5547002 #
-0.57192859412592878 190:0.33333334 214:0.33333334 272:0.33333334 315:0.33333334 1226:0.33333334 2123:0.66666669 #
-0.095361377163497074 272:0.57735026 1176:0.57735026 2710:0.57735026 #
-1.0000000240560962 6:0.31622776 17:0.31622776 55:0.31622776 365:0.31622776 396:0.31622776 575:0.31622776 1238:0.31622776 1958:0.31622776 2601:0.31622776 2900:0.31622776 #
0.21730387732614526 52:0.40824831 109:0.40824831 856:0.40824831 1288:0.40824831 1291:0.40824831 2573:0.40824831 #
-0.15083367497414801 1190:1 #
0.82089995484817546 1:0.30151135 32:0.60302269 89:0.30151135 189:0.30151135 339:0.30151135 714:0.30151135 1297:0.30151135 1515:0.30151135 #
1.0000000240560962 68:0.5 90:0.5 191:0.5 643:0.5 #
1.0000000240560962 124:0.44721359 209:0.44721359 634:0.44721359 2576:0.44721359 2597:0.44721359 #
-0.26917246792094229 881:1 #
-0.058513420838462338 852:1 #
-0.26379028696247275 645:1 #
-0.41340253803985416 2550:1 #
0.99732037534978701 41:0.57735026 442:0.57735026 857:0.57735026 #
1.0000000240560962 5:0.37796447 125:0.37796447 204:0.37796447 310:0.37796447 1412:0.37796447 1658:0.37796447 2121:0.37796447 #
1.0000000240560962 114:0.5 395:0.5 1372:0.5 1499:0.5 #
-0.24058875637805255 370:1 #
0.13274988755570052 20:0.37139067 22:0.18569534 91:0.18569534 178:0.18569534 214:0.18569534 244:0.18569534 530:0.18569534 975:0.18569534 996:0.18569534 2131:0.18569534 2564:0.74278134 #
1.0000000240560962 53:0.5 133:0.5 319:0.5 1315:0.5 #
1.0000000240560962 1539:1 #
-0.077892167184927474 14:0.40824831 20:0.40824831 1121:0.40824831 1676:0.40824831 2117:0.40824831 2155:0.40824831 #
-0.60661988299456049 66:0.33333334 90:0.33333334 154:0.33333334 369:0.33333334 554:0.33333334 864:0.33333334 1102:0.33333334 2052:0.33333334 2150:0.33333334 #
-0.18909956925545848 221:0.70710677 2420:0.70710677 #
-1.0000000240560962 214:1 #
1.0000000240560962 214:0.33333334 222:0.33333334 364:0.33333334 869:0.33333334 1120:0.33333334 1843:0.33333334 1862:0.33333334 2578:0.33333334 2585:0.33333334 #
1.0000000240560962 1:0.31622776 856:0.31622776 878:0.63245553 1433:0.31622776 1475:0.31622776 2134:0.31622776 2507:0.31622776 #
-0.055996786956323437 364:0.44721359 753:0.89442718 #
0.28944130071426044 82:0.57735026 109:0.57735026 1367:0.57735026 #
0.99823863466863116 99:0.70710677 1110:0.70710677 #
-1.0000000240560962 1869:1 #
-0.90722627109060672 530:0.40824831 1652:0.40824831 2356:0.40824831 2457:0.40824831 2485:0.40824831 2746:0.40824831 #
-0.10317241676294854 458:0.33333334 910:0.33333334 948:0.33333334 1757:0.33333334 2123:0.33333334 2199:0.33333334 2781:0.33333334 2782:0.33333334 2927:0.33333334 #
-1.0000000240560962 974:1 #
-1.0000000240560962 303:0.24253562 558:0.24253562 759:0.24253562 932:0.24253562 973:0.48507124 1683:0.24253562 1872:0.24253562 2131:0.24253562 2348:0.48507124 2535:0.24253562 2575:0.24253562 #
1.0000000240560962 3:0.33333334 47:0.33333334 107:0.33333334 494:0.33333334 767:0.66666669 776:0.33333334 #
1.0000000240560962 2:0.30151135 143:0.30151135 361:0.60302269 782:0.30151135 1262:0.30151135 1275:0.30151135 1432:0.30151135 2535:0.30151135 #
1.0000000240560962 1850:1 #
-0.3585513945016443 481:1 #
-1.0000000240560962 24:0.35355338 46:0.35355338 47:0.35355338 306:0.35355338 367:0.35355338 489:0.35355338 991:0.35355338 1791:0.35355338 #
-0.5643229245331326 968:1 #
1.0000000240560962 20:0.57735026 74:0.57735026 641:0.57735026 #
1.0000000240560962 640:0.70710677 1393:0.70710677 #
-0.39749948984699568 20:0.25 46:0.25 50:0.25 312:0.25 355:0.25 576:0.5 1177:0.5 2189:0.25 2562:0.25 2719:0.25 #
-0.086342687781340854 858:0.70710677 2957:0.70710677 #
-0.087931733100665432 1218:0.70710677 1872:0.70710677 #
-0.13117439174654924 543:0.70710677 1089:0.70710677 #
1.0000000240560962 667:0.35355338 862:0.35355338 1527:0.35355338 1558:0.35355338 2584:0.70710677 #
1.0000000240560962 166:0.5 427:0.5 683:0.5 1621:0.5 #
-0.2563880283809985 110:1 #
1.0000000240560962 146:0.57735026 273:0.57735026 2131:0.57735026 #
1.0000000240560962 184:0.37796447 214:0.37796447 370:0.37796447 691:0.37796447 971:0.37796447 1458:0.37796447 1845:0.37796447 #
1.0000000240560962 60:0.30151135 126:0.30151135 148:0.30151135 156:0.30151135 211:0.30151135 214:0.30151135 272:0.30151135 1246:0.30151135 1486:0.30151135 1519:0.30151135 2568:0.30151135 #
1.0000000240560962 22:0.23570226 23:0.23570226 49:0.23570226 272:0.23570226 691:0.23570226 971:0.23570226 976:0.47140452 1236:0.23570226 1504:0.23570226 1652:0.23570226 1845:0.23570226 1869:0.23570226 2136:0.23570226 2150:0.23570226 2517:0.23570226 #
1.0000000240560962 286:0.40824831 991:0.40824831 1436:0.40824831 1614:0.40824831 1649:0.40824831 2469:0.40824831 #
-1.0000000240560962 1120:1 #
1.0000000240560962 17:0.57735026 527:0.57735026 1403:0.57735026 #
1.0000000240560962 25:0.57735026 530:0.57735026 1086:0.57735026 #
1.0000000240560962 642:0.40824831 857:0.40824831 1115:0.40824831 1354:0.40824831 1626:0.40824831 1670:0.40824831 #
1.0000000240560962 530:0.44721359 771:0.44721359 1116:0.44721359 1309:0.44721359 1447:0.44721359 #
-1.0000000240560962 2110:1 #
-0.46834626487500369 318:0.89442718 2730:0.44721359 #
-1.0000000240560962 873:1 #
-1.0000000240560962 247:0.5 963:0.5 996:0.5 2538:0.5 #
-0.99973909946081352 2150:1 #
1.0000000240560962 1363:0.40824831 1876:0.81649661 2138:0.40824831 #
1.0000000240560962 49:0.70710677 1518:0.70710677 #
-1.0000000240560962 41:0.40824831 208:0.40824831 214:0.40824831 327:0.40824831 456:0.40824831 1907:0.40824831 #
-0.96003005909842709 872:1 #
-0.71425865001273858 186:1 #
-1.0000000240560962 10:0.5 91:0.5 119:0.5 180:0.5 #
1.0000000240560962 132:0.44721359 562:0.44721359 2112:0.44721359 2528:0.44721359 2590:0.44721359 #
-1.0000000240560962 190:0.5 191:0.5 341:0.5 2565:0.5 #
-0.9524663603765281 2128:1 #
-1.0000000240560962 124:0.37796447 222:0.37796447 974:0.37796447 2512:0.75592893 #
-0.72812489101509004 1103:1 #
-1.0000000240560962 5:0.33333334 68:0.33333334 883:0.33333334 1874:0.33333334 2461:0.33333334 2583:0.66666669 #
1.0000000240560962 642:0.5 1331:0.5 1601:0.5 1670:0.5 #
1.0000000240560962 1105:0.5 1670:0.5 2132:0.5 2464:0.5 #
1.0000000240560962 672:0.70710677 1089:0.70710677 #
1.0000000240560962 477:0.75592893 528:0.37796447 1458:0.37796447 2132:0.37796447 #
-1.0000000240560962 2533:1 #
-1.0000000240560962 1238:1 #
-0.490308823014031 2528:1 #
1.0000000240560962 91:0.2773501 167:0.2773501 364:0.2773501 858:0.2773501 869:0.2773501 974:0.2773501 1086:0.2773501 1093:0.2773501 1116:0.5547002 2585:0.2773501 #
1.0000000240560962 162:0.44721359 490:0.44721359 1328:0.44721359 1620:0.44721359 2483:0.44721359 #
1.0000000240560962 669:0.70710677 705:0.35355338 992:0.35355338 1471:0.35355338 1511:0.35355338 #
-1.0000000240560962 364:0.70710677 768:0.70710677 #
-1.0000000240560962 364:0.5 465:0.5 974:0.5 976:0.5 #
-1.0000000240560962 74:0.5 75:0.5 162:0.5 2611:0.5 #
-0.94861630727988566 252:0.70710677 1110:0.70710677 #
-0.037286218404007261 578:0.70710677 863:0.70710677 #
1.0000000240560962 2527:0.70710677 2591:0.70710677 #
1.0000000240560962 5:0.37796447 209:0.37796447 967:0.37796447 973:0.37796447 1841:0.37796447 2534:0.37796447 2588:0.37796447 #
-1.0000000240560962 274:0.5 1850:0.5 2034:0.5 2821:0.5 #
-1.0000000240560962 6:0.37796447 21:0.37796447 41:0.37796447 116:0.37796447 345:0.37796447 856:0.37796447 909:0.37796447 #
-1.0000000240560962 20:0.24253562 47:0.48507124 78:0.48507124 91:0.24253562 131:0.24253562 365:0.24253562 454:0.24253562 562:0.24253562 634:0.24253562 760:0.24253562 2135:0.24253562 #
-1.0000000240560962 214:1 #
-1.0000000240560962 6:0.42640144 22:0.21320072 29:0.21320072 110:0.21320072 162:0.21320072 233:0.21320072 566:0.21320072 781:0.21320072 975:0.21320072 996:0.21320072 1656:0.21320072 1674:0.42640144 1950:0.21320072 2061:0.21320072 2133:0.21320072 2563:0.21320072 #
1.0000000240560962 440:0.70710677 530:0.70710677 #
1.0000000240560962 122:0.70710677 2539:0.70710677 #
1.0000000240560962 36:0.44721359 214:0.44721359 530:0.44721359 962:0.44721359 1464:0.44721359 #
1.0000000240560962 25:0.57735026 575:0.57735026 1542:0.57735026 #
-0.50830543305529452 318:0.70710677 530:0.70710677 #
-1.0000000240560962 31:0.2236068 70:0.2236068 124:0.2236068 144:0.2236068 178:0.2236068 214:0.44721359 222:0.2236068 329:0.2236068 563:0.2236068 876:0.44721359 1104:0.2236068 1683:0.2236068 2624:0.2236068 2774:0.2236068 #
-1.0000000240560962 69:0.31622776 127:0.31622776 144:0.31622776 190:0.31622776 192:0.31622776 310:0.31622776 530:0.31622776 572:0.31622776 872:0.31622776 1905:0.31622776 #
1.0000000240560962 47:0.44721359 102:0.44721359 2134:0.44721359 2564:0.44721359 2575:0.44721359 #
1.0000000240560962 8:0.40824831 561:0.40824831 690:0.40824831 1674:0.40824831 1869:0.40824831 2569:0.40824831 #
1.0000000240560962 369:0.40824831 781:0.40824831 1088:0.40824831 1304:0.40824831 1465:0.40824831 1683:0.40824831 #
1.0000000240560962 2:0.70710677 8:0.70710677 #
-0.87616757481968877 2134:1 #
-1.0000000240560962 36:0.44721359 247:0.44721359 1006:0.44721359 1659:0.44721359 2584:0.44721359 #
-1.0000000240560962 421:0.44721359 858:0.44721359 1674:0.44721359 2150:0.44721359 2461:0.44721359 #
-1.0000000240560962 11:0.22941573 14:0.22941573 28:0.22941573 30:0.22941573 47:0.22941573 99:0.22941573 209:0.22941573 319:0.45883146 398:0.22941573 497:0.22941573 575:0.22941573 576:0.22941573 973:0.22941573 986:0.22941573 2606:0.22941573 2648:0.22941573 #
1.0000000240560962 162:0.37796447 243:0.37796447 966:0.37796447 1112:0.37796447 1325:0.37796447 1350:0.37796447 2150:0.37796447 #
1.0000000240560962 961:1 #
1.0000000240560962 280:1 #
1.0000000240560962 2123:0.70710677 2536:0.70710677 #
-0.47639135189341469 55:0.44721359 193:0.44721359 417:0.44721359 870:0.44721359 2536:0.44721359 #
-0.049028458158695172 162:0.35355338 186:0.35355338 781:0.35355338 1847:0.70710677 2532:0.35355338 #
-0.3921352962179836 785:1 #
1.0000000240560962 447:0.57735026 1352:0.57735026 1411:0.57735026 #
1.0000000240560962 530:0.40824831 858:0.40824831 870:0.40824831 971:0.40824831 1313:0.40824831 2586:0.40824831 #
-1.0000000240560962 90:1 #
-0.81675434625221333 718:1 #
0.050654059644900017 2582:0.70710677 2584:0.70710677 #
-1.0000000240560962 1870:1 #
1.0000000240560962 1628:1 #
1.0000000240560962 165:0.44721359 167:0.44721359 272:0.44721359 663:0.44721359 976:0.44721359 #
1.0000000240560962 1:0.5 367:0.5 991:0.5 2133:0.5 #
-0.089374204645314842 110:0.70710677 2059:0.70710677 #
-0.71569405874121217 863:0.44721359 892:0.44721359 988:0.44721359 1106:0.44721359 2529:0.44721359 #
1.0000000240560962 279:0.5 1652:0.5 1675:0.5 2485:0.5 #
1.0000000240560962 49:0.37796447 860:0.37796447 965:0.37796447 1319:0.37796447 1485:0.37796447 1502:0.37796447 1602:0.37796447 #
-1.0000000240560962 5:0.31622776 119:0.63245553 143:0.31622776 203:0.31622776 279:0.31622776 1890:0.31622776 2133:0.31622776 #
-1.0000000240560962 641:1 #
1.0000000240560962 53:0.5 310:0.5 1105:0.5 1676:0.5 #
-0.55462200724863808 874:1 #
0.9984393737890368 285:0.31622776 431:0.31622776 435:0.31622776 447:0.31622776 642:0.31622776 857:0.31622776 1355:0.31622776 1424:0.31622776 1643:0.31622776 2506:0.31622776 #
-0.30769710834790132 2109:1 #
-1.0000000240560962 125:1 #
-1.0000000240560962 49:1 #
-0.22801939727585877 167:0.5 1088:0.5 1099:0.5 2794:0.5 #
-1.0000000240560962 642:1 #
1.0000000240560962 225:0.70710677 873:0.70710677 #
1.0000000240560962 191:0.70710677 676:0.70710677 #
1.0000000240560962 191:0.5 369:0.5 680:0.5 2538:0.5 #
0.74519681725265463 24:0.40824831 140:0.40824831 247:0.40824831 1406:0.40824831 1488:0.40824831 1575:0.40824831 #
-1.0000000240560962 7:0.5 53:0.5 1680:0.5 2132:0.5 #
-1.0000000240560962 8:0.25819889 53:0.25819889 91:0.25819889 122:0.25819889 185:0.25819889 206:0.25819889 272:0.25819889 393:0.25819889 633:0.25819889 866:0.25819889 875:0.25819889 1195:0.25819889 1674:0.25819889 2462:0.25819889 2995:0.25819889 #
-0.97383050316558006 1105:1 #
1.0000000240560962 246:0.70710677 363:0.70710677 #
1.0000000240560962 91:0.57735026 875:0.57735026 1870:0.57735026 #
1.0000000240560962 63:0.57735026 130:0.57735026 1120:0.57735026 #
1.0000000240560962 484:0.70710677 1359:0.70710677 #
1.0000000240560962 654:0.57735026 1672:0.57735026 1850:0.57735026 #
-0.8278319113306124 308:0.57735026 2121:0.57735026 2536:0.57735026 #
-1.0000000240560962 17:0.40824831 118:0.40824831 167:0.40824831 198:0.40824831 278:0.40824831 987:0.40824831 #
1.0000000240560962 769:1 #
1.0000000240560962 2486:1 #
1.0000000240560962 1408:1 #
1.0000000240560962 1627:1 #
0.39388623685396518 972:1 #
1.0000000240560962 90:0.40824831 643:0.40824831 1645:0.40824831 1851:0.40824831 2121:0.40824831 2125:0.40824831 #
0.85092069750909816 2477:1 #
1.0000000240560962 1:0.21320072 5:0.21320072 6:0.42640144 109:0.21320072 162:0.21320072 172:0.21320072 178:0.21320072 189:0.21320072 191:0.21320072 222:0.21320072 432:0.21320072 483:0.21320072 530:0.21320072 565:0.21320072 1276:0.21320072 1287:0.21320072 1379:0.21320072 1606:0.21320072 2566:0.21320072 #
-0.81116880228904376 191:0.70710677 530:0.70710677 #
-1.0000000240560962 191:1 #
1.0000000240560962 49:0.57735026 1434:0.57735026 2529:0.57735026 #
1.0000000240560962 49:0.5 272:0.5 670:0.5 1846:0.5 #
1.0000000240560962 49:0.33333334 718:0.33333334 1235:0.33333334 1320:0.33333334 1323:0.33333334 1477:0.33333334 1584:0.33333334 1842:0.33333334 2565:0.33333334 #
1.0000000240560962 974:0.37796447 1257:0.37796447 1267:0.37796447 1308:0.37796447 1545:0.37796447 1592:0.37796447 2566:0.37796447 #
1.0000000240560962 1241:0.5 1513:0.5 1617:0.5 2461:0.5 #
-0.65959800408520741 523:0.37796447 529:0.37796447 833:0.37796447 2527:0.75592893 #
-1.0000000240560962 870:0.57735026 1808:0.57735026 2564:0.57735026 #
-0.34815216699796814 1741:0.70710677 2534:0.70710677 #
-1.0000000240560962 116:0.40824831 121:0.40824831 130:0.40824831 141:0.40824831 162:0.40824831 266:0.40824831 #
-0.37286192130181034 494:0.70710677 2534:0.70710677 #
-1.0000000240560962 6:0.45883146 22:0.22941573 91:0.45883146 105:0.22941573 156:0.22941573 200:0.22941573 344:0.22941573 470:0.22941573 821:0.22941573 1198:0.45883146 #
1.0000000240560962 191:0.5 249:0.5 364:0.5 1469:0.5 #
1.0000000240560962 6:0.5 133:0.5 191:0.5 2501:0.5 #
-1.0000000240560962 191:1 #
1.0000000240560962 91:0.57735026 183:0.57735026 1114:0.57735026 #
0.98576362515300431 344:0.5 396:0.5 714:0.5 765:0.5 #
1.0000000240560962 1572:0.57735026 1683:0.57735026 2513:0.57735026 #
1.0000000240560962 1632:1 #
-0.098212468675780221 294:0.70710677 1142:0.70710677 #
-0.89355774695887613 339:1 #
1.0000000240560962 660:0.70710677 1682:0.70710677 #
0.98255564529644546 2583:1 #
1.0000000240560962 1568:0.57735026 1625:0.57735026 2537:0.57735026 #
1.0000000240560962 2491:1 #
-1.0000000240560962 1682:1 #
-1.0000000240560962 447:1 #
-1.0000000240560962 1683:1 #
1.0000000240560962 973:0.70710677 1846:0.70710677 #
-1.0000000240560962 974:0.70710677 1846:0.70710677 #
-1.0000000240560962 49:0.70710677 363:0.70710677 #
-1.0000000240560962 49:1 #
-0.015263130911771894 2046:1 #
-0.72920186376502638 1676:1 #
-1.0000000240560962 47:0.40824831 102:0.40824831 183:0.40824831 214:0.40824831 272:0.40824831 961:0.40824831 #
-0.61182425254129535 875:0.70710677 2216:0.70710677 #
-1.0000000240560962 45:0.40824831 144:0.40824831 165:0.40824831 249:0.40824831 1759:0.40824831 2073:0.40824831 #
-1.0000000240560962 5:0.25819889 91:0.25819889 162:0.25819889 272:0.25819889 530:0.25819889 596:0.25819889 792:0.25819889 1084:0.25819889 1154:0.51639777 1910:0.25819889 2060:0.25819889 2529:0.25819889 #
-1.0000000240560962 49:1 #
-1.0000000240560962 1120:1 #
-0.39717047215003426 301:0.70710677 2597:0.70710677 #
-0.69128189232530612 42:0.33333334 44:0.33333334 478:0.33333334 954:0.33333334 976:0.33333334 2113:0.33333334 2137:0.33333334 2289:0.33333334 2823:0.33333334 #
-0.73151393787029129 184:1 #
-1.0000000240560962 315:0.5 1098:0.5 1851:0.5 2182:0.5 #
-0.0078779040734329731 172:0.70710677 634:0.70710677 #
1.0000000240560962 768:0.57735026 875:0.57735026 1561:0.57735026 #
1.0000000240560962 126:0.37796447 278:0.37796447 313:0.37796447 1113:0.37796447 1238:0.37796447 1506:0.37796447 2510:0.37796447 #
1.0000000240560962 278:0.70710677 963:0.70710677 #
1.0000000240560962 191:0.70710677 1674:0.70710677 #
-0.28444117943538672 36:0.5 352:0.5 471:0.5 873:0.5 #
-0.017736901047759962 1093:0.70710677 2517:0.70710677 #
-1.0000000240560962 1088:1 #
-1.0000000240560962 15:0.21320072 16:0.21320072 62:0.21320072 72:0.21320072 74:0.21320072 88:0.21320072 105:0.21320072 115:0.21320072 154:0.21320072 162:0.21320072 170:0.21320072 178:0.21320072 278:0.21320072 314:0.21320072 567:0.21320072 830:0.21320072 867:0.21320072 1075:0.21320072 1682:0.21320072 1700:0.21320072 2145:0.21320072 2215:0.21320072 #
-1.0000000240560962 2528:1 #
-0.10959946266371429 50:0.44721359 841:0.44721359 2135:0.44721359 2743:0.44721359 2776:0.44721359 #
-1.0000000240560962 6:0.44721359 8:0.44721359 204:0.44721359 240:0.44721359 2590:0.44721359 #
-1.0000000240560962 191:1 #
1.0000000240560962 1673:0.70710677 2137:0.70710677 #
-1.0000000240560962 105:0.44721359 126:0.44721359 162:0.44721359 1658:0.44721359 1674:0.44721359 #
-0.90623730553100845 967:1 #
-0.035249965036944192 903:0.70710677 1099:0.70710677 #
-0.79552628194948938 2138:1 #
1.0000000240560962 6:0.44721359 245:0.44721359 1106:0.44721359 1586:0.44721359 2570:0.44721359 #
-1.0000000240560962 2124:0.70710677 2537:0.70710677 #
-1.0000000240560962 363:1 #
-0.23263078248623936 275:0.5 363:0.5 408:0.5 873:0.5 #
