SVM-light Version V6.02
0 # kernel type
3 # kernel parameter -d 
1 # kernel parameter -g 
1 # kernel parameter -s 
1 # kernel parameter -r 
empty# kernel parameter -u 
3000 # highest feature index 
<<<<<<< HEAD
10290 # number of training documents 
3243 # number of support vectors plus 1 
0.92521028 # threshold b, each following line is a SV (starting with alpha*y)
-1.0000000244590914189046770843561 11:1 #
-0.056734063499777609429486346925842 142:1 #
-1.0000000244590914189046770843561 38:1 #
-0.11855853834544834157771475702248 243:0.57735026 777:0.57735026 1210:0.57735026 #
-0.07479893217107679015409615885801 1148:0.70710677 2713:0.70710677 #
1.0000000244590914189046770843561 43:0.44721359 456:0.44721359 458:0.44721359 2028:0.44721359 2489:0.44721359 #
-0.13077685200432087597732788708527 331:0.70710677 1395:0.70710677 #
1.0000000244590914189046770843561 1956:1 #
1.0000000244590914189046770843561 109:0.70710677 1653:0.70710677 #
1.0000000244590914189046770843561 56:0.2 60:0.60000002 80:0.2 306:0.2 372:0.2 424:0.40000001 1381:0.2 1431:0.40000001 2035:0.2 2494:0.2 2525:0.2 #
-0.72182063069743829242241872634622 1956:1 #
-0.016760523754217993008808207378024 944:1 #
-0.00842393736306212836950635391986 105:1 #
-1.0000000244590914189046770843561 306:0.70710677 458:0.70710677 #
-0.071505699995452087769365334679605 2083:1 #
1.0000000244590914189046770843561 38:1 #
1.0000000244590914189046770843561 38:0.70710677 99:0.70710677 #
1.0000000244590914189046770843561 4:0.57735026 38:0.57735026 766:0.57735026 #
1.0000000244590914189046770843561 24:1 #
-0.99384173440552259215508001943817 38:1 #
-0.17484489003185932354256237886148 356:0.5 1157:0.5 1376:0.5 2263:0.5 #
1.0000000244590914189046770843561 413:1 #
-1.0000000244590914189046770843561 25:1 #
0.80438645722347201783009040809702 13:0.28867513 68:0.28867513 207:0.28867513 340:0.28867513 472:0.28867513 1380:0.57735026 1411:0.28867513 1433:0.28867513 1548:0.28867513 #
1.0000000244590914189046770843561 109:0.40824831 281:0.40824831 1431:0.40824831 1964:0.40824831 2013:0.40824831 2458:0.40824831 #
-1.0000000244590914189046770843561 1653:1 #
-1.0000000244590914189046770843561 60:1 #
1.0000000244590914189046770843561 38:0.57735026 424:0.57735026 788:0.57735026 #
1.0000000244590914189046770843561 202:0.57735026 331:0.57735026 424:0.57735026 #
1.0000000244590914189046770843561 424:1 #
1.0000000244590914189046770843561 458:1 #
1.0000000244590914189046770843561 239:0.57735026 460:0.57735026 781:0.57735026 #
-0.31121124121437870879702813908807 330:1 #
-1.0000000244590914189046770843561 151:1 #
-0.2585207495871790217556451807468 670:0.57735026 1433:0.57735026 1922:0.57735026 #
-0.92074307628309270956634691174258 24:1 #
1.0000000244590914189046770843561 60:1 #
1.0000000244590914189046770843561 60:0.5 678:0.5 1378:0.5 1381:0.5 #
1.0000000244590914189046770843561 1653:1 #
-1.0000000244590914189046770843561 60:1 #
-0.18566257664451354947310335319344 60:0.57735026 678:0.57735026 2255:0.57735026 #
-1.0000000244590914189046770843561 60:0.57735026 355:0.57735026 678:0.57735026 #
1.0000000244590914189046770843561 24:1 #
1.0000000244590914189046770843561 24:0.70710677 1380:0.70710677 #
1.0000000244590914189046770843561 24:0.70710677 1544:0.70710677 #
1.0000000244590914189046770843561 24:0.53452247 40:0.26726124 45:0.26726124 49:0.26726124 87:0.26726124 221:0.26726124 238:0.26726124 1180:0.26726124 1923:0.26726124 2476:0.26726124 2498:0.26726124 #
1.0000000244590914189046770843561 24:0.57735026 342:0.57735026 1645:0.57735026 #
-1.0000000244590914189046770843561 24:1 #
1.0000000244590914189046770843561 60:1 #
1.0000000244590914189046770843561 60:0.57735026 272:0.57735026 678:0.57735026 #
-1.0000000244590914189046770843561 1653:1 #
-0.99867091733740198655766562296776 45:0.2773501 247:0.2773501 545:0.2773501 1174:0.2773501 1378:0.5547002 1431:0.5547002 1711:0.2773501 #
-0.51918762694940678859012450629962 834:0.40824831 1431:0.40824831 1653:0.40824831 2446:0.40824831 2457:0.40824831 2488:0.40824831 #
1.0000000244590914189046770843561 44:1 #
1.0000000244590914189046770843561 197:0.70710677 456:0.70710677 #
-0.61111256485544607208737488690531 151:0.70710677 591:0.70710677 #
1.0000000244590914189046770843561 44:0.70710677 1013:0.70710677 #
1.0000000244590914189046770843561 1149:0.70710677 1431:0.70710677 #
-1.0000000244590914189046770843561 44:1 #
-1.0000000244590914189046770843561 534:1 #
-0.34472025278340934217879976131371 158:0.57735026 215:0.57735026 784:0.57735026 #
1.0000000244590914189046770843561 686:0.70710677 1653:0.70710677 #
1.0000000244590914189046770843561 1431:1 #
1.0000000244590914189046770843561 2457:1 #
-1.0000000244590914189046770843561 38:0.35355338 1431:0.70710677 1903:0.35355338 2024:0.35355338 2457:0.35355338 #
-1.0000000244590914189046770843561 13:0.5547002 135:0.2773501 263:0.2773501 272:0.5547002 456:0.2773501 738:0.2773501 2047:0.2773501 #
-1.0000000244590914189046770843561 5:0.19245009 29:0.19245009 35:0.19245009 55:0.19245009 113:0.19245009 197:0.19245009 241:0.19245009 299:0.19245009 403:0.38490018 458:0.19245009 604:0.19245009 631:0.19245009 686:0.19245009 1005:0.19245009 1030:0.19245009 1377:0.19245009 1924:0.19245009 2065:0.19245009 2143:0.19245009 2287:0.19245009 2462:0.38490018 #
-1.0000000244590914189046770843561 17:0.33333334 26:0.33333334 41:0.66666669 304:0.33333334 686:0.33333334 1431:0.33333334 #
-1.0000000244590914189046770843561 456:1 #
1.0000000244590914189046770843561 44:0.57735026 196:0.57735026 780:0.57735026 #
-1.0000000244590914189046770843561 6:0.30151135 11:0.30151135 122:0.30151135 197:0.30151135 199:0.30151135 271:0.30151135 780:0.30151135 912:0.30151135 1789:0.30151135 2416:0.30151135 2728:0.30151135 #
1.0000000244590914189046770843561 22:0.5 44:0.5 272:0.5 678:0.5 #
-0.70812716620689331037397096224595 282:0.70710677 331:0.70710677 #
-1.0000000244590914189046770843561 44:1 #
-0.70110564649537820969271706417203 2525:1 #
1.0000000244590914189046770843561 13:1 #
1.0000000244590914189046770843561 13:0.70710677 60:0.70710677 #
1.0000000244590914189046770843561 263:0.33333334 403:0.33333334 1412:0.33333334 1987:0.66666669 2042:0.33333334 2528:0.33333334 #
1.0000000244590914189046770843561 13:0.44721359 25:0.44721359 123:0.44721359 241:0.44721359 1468:0.44721359 #
-1.0000000244590914189046770843561 13:1 #
1.0000000244590914189046770843561 22:0.40824831 42:0.40824831 44:0.40824831 217:0.40824831 583:0.40824831 1005:0.40824831 #
1.0000000244590914189046770843561 28:0.5 44:0.5 90:0.5 2530:0.5 #
1.0000000244590914189046770843561 44:0.5 684:0.5 1430:0.5 1976:0.5 #
1.0000000244590914189046770843561 44:0.35355338 456:0.35355338 506:0.35355338 672:0.35355338 988:0.35355338 1485:0.35355338 1652:0.35355338 1988:0.35355338 #
1.0000000244590914189046770843561 273:1 #
-1.0000000244590914189046770843561 1013:1 #
-0.8190032552608574878405534036574 40:0.57735026 109:0.57735026 143:0.57735026 #
-0.0088865722300461649774128147782903 38:0.37796447 355:0.37796447 2788:0.37796447 2929:0.75592893 #
-0.043196259984888574212646972227958 115:0.70710677 1718:0.70710677 #
1.0000000244590914189046770843561 11:0.33333334 24:0.33333334 43:0.33333334 44:0.33333334 299:0.33333334 1174:0.33333334 1378:0.33333334 1434:0.33333334 1984:0.33333334 #
1.0000000244590914189046770843561 11:0.44721359 44:0.44721359 47:0.44721359 274:0.44721359 1565:0.44721359 #
1.0000000244590914189046770843561 273:0.70710677 306:0.70710677 #
1.0000000244590914189046770843561 44:0.40824831 85:0.40824831 368:0.40824831 505:0.40824831 1177:0.40824831 1992:0.40824831 #
-1.0000000244590914189046770843561 28:1 #
-1.0000000244590914189046770843561 25:1 #
-0.40143289238040774646876229780901 28:0.70710677 306:0.70710677 #
-0.074599221032623508342851437191712 2874:1 #
-0.21570725124297548958018921894109 100:0.57735026 331:0.57735026 1012:0.57735026 #
1.0000000244590914189046770843561 1013:1 #
1.0000000244590914189046770843561 79:0.5 1013:0.5 1157:0.5 2472:0.5 #
1.0000000244590914189046770843561 581:0.57735026 1013:0.57735026 1992:0.57735026 #
-1.0000000244590914189046770843561 581:1 #
1.0000000244590914189046770843561 11:1 #
-1.0000000244590914189046770843561 11:1 #
-0.99666879156766918779197794719948 79:1 #
-1.0000000244590914189046770843561 1157:1 #
1.0000000244590914189046770843561 25:1 #
1.0000000244590914189046770843561 5:0.44721359 99:0.89442718 #
1.0000000244590914189046770843561 19:0.57735026 25:0.57735026 1431:0.57735026 #
-1.0000000244590914189046770843561 24:0.35355338 25:0.70710677 629:0.35355338 1986:0.35355338 1992:0.35355338 #
-1.0000000244590914189046770843561 25:1 #
1.0000000244590914189046770843561 79:0.89442718 337:0.44721359 #
1.0000000244590914189046770843561 39:0.40824831 79:0.81649661 1012:0.40824831 #
1.0000000244590914189046770843561 79:0.70710677 1149:0.70710677 #
1.0000000244590914189046770843561 40:0.44721359 79:0.44721359 184:0.44721359 1378:0.44721359 1978:0.44721359 #
1.0000000244590914189046770843561 13:0.5 65:0.5 79:0.5 686:0.5 #
-1.0000000244590914189046770843561 19:1 #
-1.0000000244590914189046770843561 1987:1 #
1.0000000244590914189046770843561 25:0.70710677 68:0.70710677 #
1.0000000244590914189046770843561 25:0.70710677 810:0.70710677 #
-1.0000000244590914189046770843561 68:1 #
-0.10541819821765661957524429226396 229:0.40824831 231:0.40824831 1431:0.40824831 1866:0.40824831 1987:0.40824831 2641:0.40824831 #
-1.0000000244590914189046770843561 25:1 #
1.0000000244590914189046770843561 1157:1 #
1.0000000244590914189046770843561 38:0.44721359 86:0.44721359 678:0.44721359 1487:0.44721359 2047:0.44721359 #
1.0000000244590914189046770843561 123:0.70710677 1157:0.70710677 #
1.0000000244590914189046770843561 39:0.40824831 306:0.40824831 356:0.40824831 460:0.40824831 678:0.40824831 1175:0.40824831 #
1.0000000244590914189046770843561 28:1 #
-0.074110869353570363315952818084043 909:1 #
-0.72126592035539349723194391117431 2526:1 #
-1.0000000244590914189046770843561 1430:1 #
-1.0000000244590914189046770843561 1157:0.70710677 1175:0.70710677 #
-0.96632928679498075741349794043344 219:0.70710677 682:0.70710677 #
1.0000000244590914189046770843561 68:1 #
1.0000000244590914189046770843561 25:0.44721359 68:0.44721359 660:0.44721359 688:0.44721359 1182:0.44721359 #
1.0000000244590914189046770843561 25:1 #
-1.0000000244590914189046770843561 25:1 #
1.0000000244590914189046770843561 678:1 #
1.0000000244590914189046770843561 20:1 #
1.0000000244590914189046770843561 24:0.57735026 85:0.57735026 678:0.57735026 #
-0.94188877517208202672094330409891 68:0.70710677 660:0.70710677 #
-1.0000000244590914189046770843561 68:1 #
-0.01326644283523992218221110306331 1175:1 #
-0.062425510397723149580428980698343 77:0.5 698:0.5 749:0.5 1939:0.5 #
1.0000000244590914189046770843561 424:0.70710677 1175:0.70710677 #
1.0000000244590914189046770843561 1986:1 #
1.0000000244590914189046770843561 21:0.40824831 1175:0.81649661 1570:0.40824831 #
1.0000000244590914189046770843561 28:0.70710677 47:0.70710677 #
1.0000000244590914189046770843561 11:0.23570226 243:0.23570226 456:0.23570226 841:0.23570226 1008:0.70710677 1017:0.23570226 1652:0.23570226 1924:0.23570226 1974:0.23570226 2528:0.23570226 #
-0.69759876690691902112462230434176 1008:1 #
-1.0000000244590914189046770843561 11:1 #
-0.87411431931637217918051874221419 1182:1 #
-1.0000000244590914189046770843561 688:1 #
1.0000000244590914189046770843561 68:0.70710677 660:0.70710677 #
1.0000000244590914189046770843561 68:0.70710677 2042:0.70710677 #
1.0000000244590914189046770843561 24:0.25819889 35:0.25819889 46:0.25819889 68:0.25819889 197:0.25819889 272:0.51639777 403:0.25819889 469:0.25819889 530:0.25819889 660:0.25819889 1411:0.25819889 1928:0.25819889 #
1.0000000244590914189046770843561 39:0.35355338 68:0.35355338 118:0.35355338 271:0.35355338 365:0.35355338 678:0.35355338 789:0.35355338 1571:0.35355338 #
1.0000000244590914189046770843561 11:0.44721359 20:0.44721359 28:0.44721359 68:0.44721359 2460:0.44721359 #
-0.47874777258524187084631762445497 36:0.70710677 1408:0.70710677 #
-1.0000000244590914189046770843561 39:0.70710677 660:0.70710677 #
-1.0000000244590914189046770843561 2042:1 #
-0.15926485266537812601761459063709 24:0.57735026 566:0.57735026 1157:0.57735026 #
1.0000000244590914189046770843561 1182:1 #
1.0000000244590914189046770843561 688:0.70710677 1488:0.70710677 #
1.0000000244590914189046770843561 19:0.5 274:0.5 526:0.5 1384:0.5 #
1.0000000244590914189046770843561 19:0.5 99:0.5 165:0.5 1179:0.5 #
-0.06348032363252287257893158312072 370:1 #
-1.0000000244590914189046770843561 151:1 #
-1.0000000244590914189046770843561 1182:1 #
-0.33117298826570562564342026234954 19:1 #
1.0000000244590914189046770843561 39:1 #
1.0000000244590914189046770843561 18:0.35355338 35:0.35355338 39:0.70710677 248:0.35355338 306:0.35355338 #
1.0000000244590914189046770843561 39:0.75592893 403:0.37796447 528:0.37796447 657:0.37796447 #
1.0000000244590914189046770843561 39:0.57735026 1927:0.57735026 1977:0.57735026 #
-1.0000000244590914189046770843561 39:1 #
-1.0000000244590914189046770843561 39:0.70710677 403:0.70710677 #
-0.22241238247457367771531266953389 214:0.57735026 217:0.57735026 1013:0.57735026 #
1.0000000244590914189046770843561 8:0.57735026 19:0.57735026 1378:0.57735026 #
1.0000000244590914189046770843561 19:0.44721359 89:0.44721359 151:0.44721359 360:0.44721359 779:0.44721359 #
1.0000000244590914189046770843561 11:0.57735026 411:0.57735026 2458:0.57735026 #
-0.79306011396581865824373380746692 2458:1 #
-0.071382992610783166376187125479191 66:0.40824831 726:0.40824831 2474:0.81649661 #
0.10671187448331742597673610362108 467:1 #
-0.063450206946562393017785552729038 99:0.57735026 462:0.57735026 1989:0.57735026 #
1.0000000244590914189046770843561 39:0.57735026 678:0.57735026 1522:0.57735026 #
1.0000000244590914189046770843561 1:0.28867513 5:0.28867513 39:0.57735026 160:0.28867513 305:0.57735026 1498:0.28867513 #
-1.0000000244590914189046770843561 39:0.70710677 678:0.70710677 #
-0.056190533769173156564136206725379 646:1 #
-1.0000000244590914189046770843561 39:0.57735026 144:0.57735026 780:0.57735026 #
-0.19615937870887123484209269008716 505:1 #
-1.0000000244590914189046770843561 678:1 #
1.0000000244590914189046770843561 40:0.5 1378:0.5 1407:0.5 1989:0.5 #
1.0000000244590914189046770843561 834:0.70710677 1602:0.70710677 #
1.0000000244590914189046770843561 361:1 #
1.0000000244590914189046770843561 456:0.57735026 527:0.57735026 1989:0.57735026 #
-0.83895830674265503557052170435782 361:1 #
-0.087169740253682473363205929217656 271:0.33333334 305:0.66666669 361:0.33333334 1147:0.33333334 1385:0.33333334 1686:0.33333334 #
-1.0000000244590914189046770843561 151:0.57735026 305:0.57735026 505:0.57735026 #
-0.074112171097438950262414891767548 1096:1 #
1.0000000244590914189046770843561 39:0.5 183:0.5 678:0.5 2459:0.5 #
1.0000000244590914189046770843561 39:1 #
1.0000000244590914189046770843561 678:0.89442718 1988:0.44721359 #
1.0000000244590914189046770843561 39:0.5 217:0.25 246:0.25 403:0.25 405:0.25 416:0.25 424:0.25 678:0.25 689:0.25 814:0.25 1178:0.25 1943:0.25 1984:0.25 #
1.0000000244590914189046770843561 305:1 #
-1.0000000244590914189046770843561 5:0.25819889 21:0.25819889 28:0.25819889 69:0.25819889 224:0.25819889 339:0.25819889 360:0.51639777 424:0.25819889 528:0.25819889 686:0.25819889 981:0.25819889 2035:0.25819889 #
-1.0000000244590914189046770843561 11:1 #
-1.0000000244590914189046770843561 187:0.70710677 1381:0.70710677 #
-1.0000000244590914189046770843561 789:0.57735026 1407:0.57735026 2459:0.57735026 #
-0.074527780039223556762806310871383 1213:1 #
1.0000000244590914189046770843561 361:0.70710677 417:0.70710677 #
1.0000000244590914189046770843561 361:0.70710677 1939:0.70710677 #
1.0000000244590914189046770843561 144:1 #
1.0000000244590914189046770843561 25:0.44721359 45:0.44721359 188:0.44721359 361:0.44721359 1605:0.44721359 #
1.0000000244590914189046770843561 278:0.25819889 361:0.51639777 580:0.77459669 1931:0.25819889 #
-0.0022598803136391065748966866522096 361:1 #
-1.0000000244590914189046770843561 11:0.5 52:0.5 91:0.5 459:0.5 #
-0.042826799333794296487099018122535 361:0.70710677 2759:0.70710677 #
-1.0000000244590914189046770843561 11:1 #
-0.04317837323138980221148841565082 361:0.70710677 2415:0.70710677 #
1.0000000244590914189046770843561 12:0.40824831 657:0.40824831 779:0.40824831 989:0.40824831 1445:0.40824831 1446:0.40824831 #
1.0000000244590914189046770843561 989:0.70710677 1157:0.70710677 #
1.0000000244590914189046770843561 38:0.44721359 40:0.2236068 79:0.2236068 99:0.2236068 184:0.2236068 677:0.2236068 1378:0.44721359 1407:0.44721359 2010:0.2236068 2495:0.2236068 2521:0.2236068 #
-0.04196228705895924809832209234628 313:0.70710677 2895:0.70710677 #
-0.70447665144362991984650079757557 580:0.89442718 2525:0.44721359 #
-1.0000000244590914189046770843561 580:1 #
-0.22141513630168979664958328612556 60:0.70710677 925:0.70710677 #
1.0000000244590914189046770843561 18:0.57735026 1462:0.57735026 1953:0.57735026 #
1.0000000244590914189046770843561 21:1 #
-1.0000000244590914189046770843561 21:0.70710677 1989:0.70710677 #
-0.4366953673900336729829518844781 417:1 #
-0.037947627843527294289049933695424 919:0.57735026 1092:0.57735026 1214:0.57735026 #
-0.051557469077438522475631543784402 28:0.5 137:0.5 1376:0.5 2792:0.5 #
-0.0096683609270109688305083750492486 163:0.26726124 792:0.26726124 995:0.80178374 1800:0.26726124 2414:0.26726124 2482:0.26726124 #
1.0000000244590914189046770843561 580:1 #
1.0000000244590914189046770843561 580:0.70710677 1480:0.70710677 #
0.80928574325008084677790520800045 2:0.70710677 580:0.70710677 #
1.0000000244590914189046770843561 109:0.5 123:0.5 245:0.5 580:0.5 #
-1.0000000244590914189046770843561 580:1 #
-0.0059957352555101151025951367046218 1017:1 #
-1.0000000244590914189046770843561 678:1 #
1.0000000244590914189046770843561 21:0.70710677 467:0.70710677 #
1.0000000244590914189046770843561 21:0.5 24:0.5 1553:0.5 1652:0.5 #
1.0000000244590914189046770843561 21:0.40824831 122:0.40824831 151:0.40824831 808:0.40824831 1012:0.40824831 1430:0.40824831 #
-0.0049940860251156404814310008077882 403:1 #
-1.0000000244590914189046770843561 21:0.57735026 271:0.57735026 467:0.57735026 #
-0.18304539572171746319995122576074 21:0.57735026 458:0.57735026 2489:0.57735026 #
-1.0000000244590914189046770843561 1378:1 #
-1.0000000244590914189046770843561 2480:1 #
1.0000000244590914189046770843561 8:0.5547002 142:0.5547002 580:0.2773501 782:0.2773501 1173:0.2773501 1987:0.2773501 2473:0.2773501 #
1.0000000244590914189046770843561 580:0.44721359 2504:0.89442718 #
-1.0000000244590914189046770843561 305:1 #
-0.81185322224228206877683078346308 8:0.70710677 2530:0.70710677 #
-0.032996312414414287472741449391833 1223:0.70710677 2492:0.70710677 #
-1.0000000244590914189046770843561 174:0.70710677 2504:0.70710677 #
-0.042964583569956159292413389039211 771:0.70710677 2441:0.70710677 #
1.0000000244590914189046770843561 271:1 #
1.0000000244590914189046770843561 36:0.40824831 271:0.81649661 331:0.40824831 #
1.0000000244590914189046770843561 11:0.5 87:0.5 590:0.5 1378:0.5 #
-1.0000000244590914189046770843561 271:1 #
-1.0000000244590914189046770843561 87:0.70710677 271:0.70710677 #
-1.0000000244590914189046770843561 271:0.70710677 528:0.70710677 #
-0.12121527111368715634576176398696 271:0.70710677 500:0.70710677 #
-0.8367186522538525572656453732634 271:0.70710677 531:0.70710677 #
1.0000000244590914189046770843561 8:0.94280905 424:0.23570226 505:0.23570226 #
1.0000000244590914189046770843561 8:1 #
-1.0000000244590914189046770843561 8:1 #
1.0000000244590914189046770843561 174:0.70710677 506:0.70710677 #
1.0000000244590914189046770843561 52:0.35355338 87:0.35355338 123:0.70710677 585:0.35355338 666:0.35355338 #
0.75639193157935480371634184848517 28:0.33333334 184:0.33333334 360:0.66666669 458:0.33333334 503:0.33333334 2453:0.33333334 #
1.0000000244590914189046770843561 2459:1 #
1.0000000244590914189046770843561 48:0.2773501 67:0.2773501 86:0.2773501 87:0.2773501 123:0.83205032 #
-1.0000000244590914189046770843561 11:0.40824831 12:0.40824831 121:0.40824831 472:0.40824831 507:0.40824831 988:0.40824831 #
-1.0000000244590914189046770843561 85:0.70710677 508:0.70710677 #
-0.074580737245899086929057375527918 2887:1 #
-1.0000000244590914189046770843561 424:1 #
1.0000000244590914189046770843561 21:0.5 780:0.5 1382:0.5 2521:0.5 #
1.0000000244590914189046770843561 271:0.70710677 531:0.70710677 #
1.0000000244590914189046770843561 271:1 #
1.0000000244590914189046770843561 21:0.40824831 236:0.40824831 1155:0.40824831 1541:0.40824831 2478:0.40824831 2519:0.40824831 #
1.0000000244590914189046770843561 38:0.35355338 85:0.35355338 299:0.35355338 681:0.35355338 791:0.35355338 1377:0.35355338 1963:0.35355338 2453:0.35355338 #
-1.0000000244590914189046770843561 8:0.70710677 271:0.70710677 #
-0.031215659124230889231998986588223 413:0.40824831 2479:0.81649661 2562:0.40824831 #
-0.013704703899033172931343216305322 141:0.26726124 564:0.80178374 1064:0.26726124 1889:0.26726124 1950:0.26726124 2045:0.26726124 #
1.0000000244590914189046770843561 11:1 #
1.0000000244590914189046770843561 11:0.80178374 136:0.53452247 183:0.26726124 #
-0.1461925975027554835961041135306 584:1 #
-0.22012137781550455972734425813542 65:1 #
-1.0000000244590914189046770843561 11:0.24253562 99:0.24253562 104:0.24253562 105:0.24253562 216:0.24253562 316:0.24253562 355:0.24253562 681:0.72760689 782:0.24253562 #
-1.0000000244590914189046770843561 11:1 #
1.0000000244590914189046770843561 331:0.70710677 507:0.70710677 #
1.0000000244590914189046770843561 472:0.70710677 660:0.70710677 #
1.0000000244590914189046770843561 25:0.57735026 331:0.57735026 507:0.57735026 #
-1.0000000244590914189046770843561 331:1 #
1.0000000244590914189046770843561 11:1 #
1.0000000244590914189046770843561 11:0.70710677 342:0.70710677 #
-0.027814337921273451365022921777381 24:0.35355338 793:0.35355338 997:0.35355338 1337:0.70710677 2904:0.35355338 #
-1.0000000244590914189046770843561 136:1 #
1.0000000244590914189046770843561 12:0.2773501 90:0.5547002 123:0.2773501 272:0.5547002 665:0.2773501 1924:0.2773501 2040:0.2773501 #
1.0000000244590914189046770843561 46:0.26726124 106:0.26726124 331:0.80178374 1411:0.26726124 1548:0.26726124 2488:0.26726124 #
1.0000000244590914189046770843561 988:1 #
-0.078170765833464245231354539100721 36:0.30151135 82:0.30151135 217:0.30151135 236:0.30151135 362:0.30151135 571:0.30151135 625:0.30151135 1657:0.30151135 1782:0.30151135 1939:0.30151135 2995:0.30151135 #
-0.99999870184630068603581776187639 2521:1 #
1.0000000244590914189046770843561 136:1 #
1.0000000244590914189046770843561 69:0.70710677 136:0.70710677 #
1.0000000244590914189046770843561 85:0.81649661 136:0.40824831 2531:0.40824831 #
1.0000000244590914189046770843561 136:0.57735026 811:0.57735026 1652:0.57735026 #
1.0000000244590914189046770843561 136:0.5 403:0.5 678:0.5 990:0.5 #
-1.0000000244590914189046770843561 28:0.44721359 183:0.44721359 507:0.44721359 528:0.44721359 1017:0.44721359 #
-1.0000000244590914189046770843561 2478:0.70710677 2519:0.70710677 #
-1.0000000244590914189046770843561 1012:1 #
-1.0000000244590914189046770843561 122:0.44721359 1156:0.44721359 1157:0.44721359 1376:0.44721359 1963:0.44721359 #
-0.3644746596621140088956281033461 1987:1 #
1.0000000244590914189046770843561 151:0.70710677 2521:0.70710677 #
1.0000000244590914189046770843561 67:0.70710677 590:0.70710677 #
1.0000000244590914189046770843561 362:1 #
1.0000000244590914189046770843561 13:0.26726124 60:0.26726124 149:0.26726124 184:0.26726124 217:0.26726124 356:0.26726124 424:0.26726124 678:0.26726124 681:0.26726124 1408:0.26726124 1427:0.26726124 1531:0.26726124 2513:0.26726124 2534:0.26726124 #
1.0000000244590914189046770843561 163:0.40824831 206:0.40824831 458:0.40824831 1171:0.40824831 1418:0.40824831 1947:0.40824831 #
-0.26630900072107888121308860718273 163:1 #
-1.0000000244590914189046770843561 151:1 #
1.0000000244590914189046770843561 25:0.57735026 122:0.57735026 1156:0.57735026 #
1.0000000244590914189046770843561 528:1 #
1.0000000244590914189046770843561 11:0.33333334 25:0.33333334 28:0.33333334 198:0.33333334 2041:0.33333334 2525:0.66666669 #
1.0000000244590914189046770843561 1376:1 #
1.0000000244590914189046770843561 1156:1 #
-1.0000000244590914189046770843561 258:0.40824831 472:0.40824831 506:0.40824831 678:0.40824831 926:0.40824831 1400:0.40824831 #
-0.043456225224292155395744430279592 457:0.70710677 2913:0.70710677 #
-1.0000000244590914189046770843561 13:0.66666669 60:0.33333334 135:0.33333334 1681:0.33333334 2726:0.33333334 2808:0.33333334 #
-0.097635887399833976019181136507541 306:0.44721359 506:0.44721359 678:0.44721359 1408:0.44721359 1955:0.44721359 #
-0.042637366745939958567745975415164 306:0.40824831 1429:0.40824831 1938:0.81649661 #
1.0000000244590914189046770843561 151:1 #
-1.0000000244590914189046770843561 188:1 #
-0.027593570599965522999186262609328 110:0.75592893 580:0.37796447 614:0.37796447 1175:0.37796447 #
-1.0000000244590914189046770843561 1986:1 #
1.0000000244590914189046770843561 15:0.70710677 1624:0.70710677 #
1.0000000244590914189046770843561 2478:1 #
1.0000000244590914189046770843561 11:0.25 15:0.5 29:0.25 414:0.25 505:0.25 591:0.25 783:0.5 1419:0.25 1973:0.25 1997:0.25 #
1.0000000244590914189046770843561 15:0.70710677 362:0.70710677 #
1.0000000244590914189046770843561 503:0.70710677 1012:0.70710677 #
-0.98590705266930855898976915341336 503:1 #
-1.0000000244590914189046770843561 11:1 #
-1.0000000244590914189046770843561 2478:1 #
-0.071478307900435897326296696974168 170:0.35355338 236:0.35355338 661:0.35355338 790:0.35355338 1006:0.35355338 1060:0.35355338 1680:0.35355338 1972:0.35355338 #
1.0000000244590914189046770843561 8:0.66666669 22:0.33333334 25:0.33333334 188:0.33333334 461:0.33333334 580:0.33333334 #
1.0000000244590914189046770843561 28:0.37796447 45:0.37796447 237:0.37796447 272:0.37796447 339:0.37796447 375:0.37796447 1503:0.37796447 #
1.0000000244590914189046770843561 28:0.5 86:0.5 339:0.5 2018:0.5 #
-0.0054806521450686540575247818196658 13:0.5 335:0.5 2049:0.5 2443:0.5 #
0.24307348399659839399689076344657 365:0.33333334 678:0.66666669 780:0.33333334 1456:0.33333334 1506:0.33333334 1618:0.33333334 #
-1.0000000244590914189046770843561 8:0.5 135:0.5 339:0.5 1730:0.5 #
-0.039726619817910702181507076602429 59:1 #
-0.1424208705674748776104365788342 1953:1 #
1.0000000244590914189046770843561 299:0.70710677 2478:0.70710677 #
1.0000000244590914189046770843561 219:0.70710677 2478:0.70710677 #
-1.0000000244590914189046770843561 2478:1 #
-0.705477460864422423192365840805 43:0.40824831 1175:0.40824831 2478:0.81649661 #
-0.096523211663988361941335369920125 464:1 #
-1.0000000244590914189046770843561 671:0.70710677 2478:0.70710677 #
-0.15420082552950520327073036241927 1655:0.70710677 2478:0.70710677 #
1.0000000244590914189046770843561 8:1 #
1.0000000244590914189046770843561 339:1 #
-0.29216043711758948875356622920663 18:0.70710677 1000:0.70710677 #
-0.056065088713778202245130444225651 5:0.24253562 8:0.24253562 14:0.24253562 21:0.24253562 110:0.24253562 331:0.24253562 374:0.24253562 613:0.24253562 990:0.24253562 1391:0.24253562 1877:0.48507124 1990:0.24253562 2012:0.24253562 2548:0.24253562 #
-0.25501053591169781098457747248176 217:0.2773501 331:0.2773501 684:0.2773501 1171:0.2773501 1428:0.2773501 1934:0.2773501 1951:0.2773501 2414:0.2773501 2532:0.2773501 2734:0.5547002 #
-1.0000000244590914189046770843561 99:1 #
-0.10619174045888518653768528565706 1001:0.70710677 2225:0.70710677 #
1.0000000244590914189046770843561 671:0.70710677 1951:0.70710677 #
1.0000000244590914189046770843561 28:0.30151135 303:0.30151135 520:0.30151135 1418:0.30151135 1432:0.30151135 2025:0.30151135 2478:0.60302269 2519:0.30151135 #
-1.0000000244590914189046770843561 1418:1 #
-1.0000000244590914189046770843561 299:1 #
-0.089047584376784172377483628224581 25:0.70710677 114:0.70710677 #
-0.064291462295856360853463229432236 484:0.44721359 496:0.44721359 498:0.44721359 782:0.44721359 2038:0.44721359 #
1.0000000244590914189046770843561 8:1 #
1.0000000244590914189046770843561 43:0.5 327:0.5 404:0.5 423:0.5 #
1.0000000244590914189046770843561 47:0.70710677 66:0.70710677 #
-0.0052563083524884701702717393345665 336:1 #
-0.97436321840172956942893733867095 8:1 #
1.0000000244590914189046770843561 121:0.57735026 173:0.57735026 299:0.57735026 #
1.0000000244590914189046770843561 248:0.57735026 299:0.57735026 775:0.57735026 #
1.0000000244590914189046770843561 299:0.70710677 587:0.70710677 #
1.0000000244590914189046770843561 91:0.57735026 299:0.57735026 459:0.57735026 #
-1.0000000244590914189046770843561 506:1 #
-0.045026992881233990351219631520507 947:0.57735026 1409:0.57735026 2071:0.57735026 #
-1.0000000244590914189046770843561 339:1 #
-0.25837893537226608309254061168758 144:0.44721359 300:0.44721359 396:0.44721359 581:0.44721359 1991:0.44721359 #
-0.10413797118247487827336072996331 388:0.44721359 515:0.44721359 1076:0.44721359 1339:0.44721359 2230:0.44721359 #
1.0000000244590914189046770843561 8:1 #
1.0000000244590914189046770843561 8:0.70710677 1525:0.70710677 #
1.0000000244590914189046770843561 8:0.70710677 249:0.70710677 #
1.0000000244590914189046770843561 8:0.70710677 680:0.70710677 #
-1.0000000244590914189046770843561 8:1 #
1.0000000244590914189046770843561 28:0.5 506:0.5 678:0.5 1650:0.5 #
-1.0000000244590914189046770843561 21:0.25819889 56:0.51639777 87:0.25819889 90:0.51639777 1993:0.51639777 2523:0.25819889 #
-0.27917876221995208130266519219731 88:0.24253562 106:0.24253562 137:0.24253562 266:0.24253562 331:0.24253562 351:0.24253562 359:0.24253562 528:0.24253562 679:0.24253562 1023:0.24253562 1152:0.24253562 1157:0.24253562 1160:0.24253562 1376:0.24253562 1809:0.24253562 2001:0.24253562 2171:0.24253562 #
-1.0000000244590914189046770843561 8:1 #
1.0000000244590914189046770843561 11:0.33333334 57:0.33333334 240:0.33333334 339:0.33333334 461:0.33333334 503:0.33333334 785:0.33333334 1410:0.33333334 1412:0.33333334 #
-1.0000000244590914189046770843561 461:1 #
-1.0000000244590914189046770843561 8:0.31622776 11:0.31622776 15:0.63245553 114:0.31622776 680:0.31622776 1380:0.31622776 1969:0.31622776 #
-0.57446615213955165568648908447358 2018:1 #
1.0000000244590914189046770843561 99:0.57735026 678:0.57735026 778:0.57735026 #
1.0000000244590914189046770843561 99:1 #
-1.0000000244590914189046770843561 99:1 #
1.0000000244590914189046770843561 461:1 #
1.0000000244590914189046770843561 45:0.35355338 411:0.35355338 506:0.35355338 1385:0.35355338 1418:0.35355338 1430:0.35355338 1432:0.35355338 1652:0.35355338 #
1.0000000244590914189046770843561 8:0.2773501 15:0.2773501 18:0.2773501 208:0.5547002 414:0.2773501 1990:0.2773501 2045:0.5547002 #
1.0000000244590914189046770843561 5:0.5 216:0.5 424:0.5 819:0.5 #
-0.049524464830714778895703886973934 77:0.44721359 236:0.44721359 1754:0.44721359 1790:0.44721359 1939:0.44721359 #
1.0000000244590914189046770843561 25:0.35355338 110:0.35355338 165:0.35355338 197:0.35355338 361:0.35355338 771:0.35355338 782:0.35355338 1381:0.35355338 #
-1.0000000244590914189046770843561 1381:1 #
-0.012675019075844340399328302737558 944:1 #
-0.71855702375195573683441807588679 423:1 #
-0.18642540145533936790656071025296 163:1 #
1.0000000244590914189046770843561 678:0.70710677 2038:0.70710677 #
1.0000000244590914189046770843561 473:0.5 528:0.5 678:0.5 1989:0.5 #
1.0000000244590914189046770843561 678:0.57735026 1176:0.57735026 1411:0.57735026 #
-1.0000000244590914189046770843561 678:1 #
1.0000000244590914189046770843561 197:1 #
1.0000000244590914189046770843561 339:1 #
-0.24505592433806056007483675784897 99:0.33333334 678:0.33333334 1653:0.33333334 2021:0.66666669 2037:0.33333334 2460:0.33333334 #
1.0000000244590914189046770843561 781:0.70710677 1415:0.70710677 #
-0.0070706906950815939794097175763454 603:0.5 1404:0.5 1413:0.5 2124:0.5 #
-1.0000000244590914189046770843561 25:0.31622776 211:0.31622776 678:0.63245553 2460:0.63245553 #
-1.0000000244590914189046770843561 99:1 #
1.0000000244590914189046770843561 147:0.5 790:0.5 1381:0.5 2019:0.5 #
1.0000000244590914189046770843561 13:0.23570226 105:0.23570226 113:0.23570226 283:0.23570226 299:0.23570226 338:0.70710677 424:0.23570226 1381:0.23570226 1421:0.23570226 2467:0.23570226 #
1.0000000244590914189046770843561 85:0.37796447 337:0.37796447 360:0.37796447 505:0.37796447 1381:0.37796447 1647:0.37796447 1652:0.37796447 #
1.0000000244590914189046770843561 36:0.70710677 1017:0.70710677 #
0.028029662785653733370061502228054 39:0.44721359 57:0.44721359 165:0.44721359 472:0.44721359 507:0.44721359 #
-1.0000000244590914189046770843561 36:1 #
1.0000000244590914189046770843561 3:0.5 38:0.5 471:0.5 678:0.5 #
1.0000000244590914189046770843561 272:0.5 359:0.5 678:0.5 988:0.5 #
1.0000000244590914189046770843561 151:0.57735026 410:0.57735026 678:0.57735026 #
-0.024798684191574181523431974483174 299:0.37796447 531:0.37796447 2457:0.37796447 2569:0.75592893 #
-0.74878929830922780208624089937075 1984:1 #
-0.039326747854281696170630766573595 105:0.57735026 114:0.57735026 465:0.57735026 #
-1.0000000244590914189046770843561 39:0.70710677 1381:0.70710677 #
-0.67665705232970063676134486740921 122:1 #
1.0000000244590914189046770843561 2453:1 #
1.0000000244590914189046770843561 515:0.70710677 528:0.70710677 #
1.0000000244590914189046770843561 36:1 #
1.0000000244590914189046770843561 36:0.5 83:0.5 789:0.5 2528:0.5 #
-1.0000000244590914189046770843561 36:1 #
-1.0000000244590914189046770843561 45:0.70710677 988:0.70710677 #
1.0000000244590914189046770843561 28:1 #
1.0000000244590914189046770843561 144:0.40824831 303:0.81649661 802:0.40824831 #
1.0000000244590914189046770843561 11:0.28867513 24:0.28867513 39:0.28867513 99:0.57735026 123:0.28867513 250:0.28867513 340:0.28867513 417:0.28867513 2529:0.28867513 #
1.0000000244590914189046770843561 28:0.70710677 103:0.70710677 #
-1.0000000244590914189046770843561 528:1 #
-1.0000000244590914189046770843561 2453:1 #
-0.074204130706047921606227646407206 2299:1 #
1.0000000244590914189046770843561 36:0.57735026 84:0.57735026 1998:0.57735026 #
1.0000000244590914189046770843561 36:0.44721359 64:0.44721359 109:0.44721359 1634:0.44721359 2526:0.44721359 #
1.0000000244590914189046770843561 36:0.60302269 64:0.30151135 128:0.30151135 688:0.30151135 1587:0.30151135 1924:0.30151135 2462:0.30151135 2530:0.30151135 #
1.0000000244590914189046770843561 36:0.40824831 64:0.40824831 136:0.40824831 163:0.40824831 469:0.40824831 1504:0.40824831 #
1.0000000244590914189046770843561 2036:1 #
-1.0000000244590914189046770843561 64:0.5 1422:0.5 1431:0.5 1652:0.5 #
-1.0000000244590914189046770843561 2036:1 #
-0.15841104771372005455276621432859 85:0.63245553 1278:0.31622776 1963:0.63245553 2532:0.31622776 #
1.0000000244590914189046770843561 2453:0.70710677 2521:0.70710677 #
1.0000000244590914189046770843561 85:0.2773501 190:0.2773501 472:0.2773501 678:0.2773501 801:0.2773501 832:0.2773501 1437:0.2773501 2006:0.2773501 2453:0.5547002 2478:0.2773501 #
1.0000000244590914189046770843561 123:0.35355338 424:0.70710677 678:0.35355338 1017:0.35355338 2453:0.35355338 #
1.0000000244590914189046770843561 28:0.33333334 305:0.33333334 678:0.33333334 1460:0.66666669 1510:0.33333334 2453:0.33333334 #
1.0000000244590914189046770843561 1:0.30151135 216:0.30151135 580:0.60302269 1379:0.30151135 1430:0.30151135 1966:0.30151135 2009:0.30151135 2453:0.30151135 #
-1.0000000244590914189046770843561 28:0.5 128:0.5 424:0.5 1927:0.5 #
-1.0000000244590914189046770843561 2521:1 #
1.0000000244590914189046770843561 118:0.5 281:0.5 1652:0.5 2021:0.5 #
1.0000000244590914189046770843561 64:1 #
1.0000000244590914189046770843561 24:0.40824831 56:0.40824831 64:0.81649661 #
1.0000000244590914189046770843561 76:0.70710677 457:0.70710677 #
-1.0000000244590914189046770843561 11:0.63245553 24:0.31622776 42:0.31622776 56:0.31622776 457:0.31622776 472:0.31622776 1962:0.31622776 #
-1.0000000244590914189046770843561 8:1 #
-1.0000000244590914189046770843561 339:0.70710677 409:0.70710677 #
-0.95399283801750500710880942278891 151:0.70710677 1998:0.70710677 #
-1.0000000244590914189046770843561 36:0.70710677 64:0.70710677 #
-1.0000000244590914189046770843561 424:1 #
-0.20688017856046081455190233100438 59:1 #
-1.0000000244590914189046770843561 110:0.70710677 1430:0.70710677 #
-1.0000000244590914189046770843561 76:0.33333334 113:0.33333334 403:0.33333334 531:0.33333334 788:0.66666669 831:0.33333334 #
-0.0038497990119519265306280431104824 2021:1 #
1.0000000244590914189046770843561 1431:1 #
-0.76692158423933032285191302435123 20:0.2773501 24:0.2773501 141:0.2773501 678:0.5547002 757:0.2773501 1431:0.5547002 2600:0.2773501 #
-0.074629167068196888834563651471399 2173:1 #
-0.2059372832167887523713289965599 5:0.21821789 31:0.43643579 57:0.21821789 110:0.43643579 378:0.43643579 566:0.21821789 1415:0.21821789 1431:0.43643579 1827:0.21821789 #
-0.50915338805510035324886075613904 1953:1 #
-0.3118638553124346013412093725492 71:0.57735026 745:0.57735026 1431:0.57735026 #
1.0000000244590914189046770843561 76:0.57735026 784:0.57735026 1978:0.57735026 #
-1.0000000244590914189046770843561 25:1 #
-1.0000000244590914189046770843561 331:0.70710677 1411:0.70710677 #
-1.0000000244590914189046770843561 8:1 #
-1.0000000244590914189046770843561 1411:1 #
1.0000000244590914189046770843561 1431:1 #
-0.079123028223870031649944678520114 4:0.19245009 20:0.19245009 21:0.38490018 30:0.19245009 38:0.19245009 44:0.19245009 51:0.19245009 86:0.19245009 90:0.38490018 109:0.19245009 176:0.19245009 212:0.19245009 595:0.19245009 1198:0.19245009 1376:0.19245009 1410:0.19245009 1652:0.19245009 1747:0.19245009 1894:0.19245009 1944:0.19245009 2423:0.19245009 #
-1.0000000244590914189046770843561 28:0.5 337:0.5 678:0.5 2534:0.5 #
-1.0000000244590914189046770843561 85:0.70710677 784:0.70710677 #
-0.95629730930780121322953846174642 197:1 #
-1.0000000244590914189046770843561 187:1 #
-0.090132661346319045692077054354741 266:0.44721359 1942:0.89442718 #
-1.0000000244590914189046770843561 123:0.57735026 2453:0.57735026 2529:0.57735026 #
-0.28813427996695090138601358376036 21:0.44721359 39:0.44721359 658:0.44721359 1193:0.44721359 1991:0.44721359 #
-0.77844097032244896627872776662116 197:1 #
-0.047834515203238336944480124657275 47:0.57735026 476:0.57735026 597:0.57735026 #
-0.77478335625763972149826486202073 35:1 #
-0.83198506272236361080985034277546 216:1 #
-0.56643283339023575706505653215572 36:0.24253562 207:0.24253562 216:0.24253562 249:0.24253562 264:0.24253562 547:0.24253562 784:0.24253562 791:0.24253562 1431:0.48507124 1737:0.24253562 1884:0.24253562 1928:0.24253562 2322:0.24253562 2457:0.24253562 #
-1.0000000244590914189046770843561 2045:1 #
-0.12010210756870476345170573040377 39:0.40824831 103:0.40824831 495:0.40824831 583:0.40824831 1653:0.40824831 2821:0.40824831 #
-0.029221530931861635499435791984979 8:0.57735026 52:0.57735026 61:0.28867513 406:0.28867513 1263:0.28867513 2015:0.28867513 #
-0.090407046784023281649211867261329 174:0.61237246 188:0.20412415 336:0.20412415 359:0.40824831 458:0.20412415 510:0.20412415 646:0.20412415 773:0.20412415 778:0.20412415 845:0.20412415 1098:0.20412415 2606:0.20412415 2916:0.20412415 #
1.0000000244590914189046770843561 1376:0.70710677 1652:0.70710677 #
-0.040047143102690085925132734701037 77:0.5 698:0.5 749:0.5 1939:0.5 #
-1.0000000244590914189046770843561 1156:1 #
-0.5066049487198254208664138786844 461:1 #
-0.039364648882424080333919391705422 1296:0.5 1355:0.5 1704:0.5 2878:0.5 #
-1.0000000244590914189046770843561 1376:1 #
-1.0000000244590914189046770843561 60:0.70710677 1376:0.70710677 #
-1.0000000244590914189046770843561 409:0.70710677 2525:0.70710677 #
-1.0000000244590914189046770843561 1652:1 #
1.0000000244590914189046770843561 25:0.40824831 64:0.81649661 215:0.40824831 #
-1.0000000244590914189046770843561 39:0.70710677 64:0.70710677 #
-0.32350252964364201169189527718117 331:0.70710677 1424:0.70710677 #
-0.35623079193769724426488210156094 1984:1 #
-1.0000000244590914189046770843561 52:0.57735026 207:0.57735026 1177:0.57735026 #
-0.10533727755924704450052331594634 64:0.70710677 259:0.70710677 #
1.0000000244590914189046770843561 846:0.57735026 1649:0.57735026 1652:0.57735026 #
1.0000000244590914189046770843561 15:0.40824831 335:0.40824831 534:0.40824831 1652:0.40824831 2480:0.40824831 2525:0.40824831 #
-0.8674651038220232424080791133747 25:0.70710677 1652:0.70710677 #
1.0000000244590914189046770843561 45:0.5 64:0.5 1627:0.5 1970:0.5 #
-1.0000000244590914189046770843561 1430:1 #
-0.1906695116737731621192608599813 5:0.28867513 145:0.28867513 238:0.28867513 265:0.28867513 671:0.28867513 678:0.28867513 1406:0.28867513 2044:0.57735026 2490:0.28867513 #
-0.28141380221241640846585596591467 46:0.28867513 155:0.28867513 216:0.28867513 342:0.28867513 357:0.28867513 504:0.28867513 1013:0.28867513 1391:0.57735026 2500:0.28867513 #
-0.28737787541378279065895640087547 8:1 #
-0.75702972608946783594774387893267 299:0.57735026 528:0.57735026 2517:0.57735026 #
-0.55472726462417676351890349906171 122:0.40824831 475:0.40824831 1156:0.81649661 #
-0.097761690668145218019446929247351 428:0.57735026 1411:0.57735026 2945:0.57735026 #
-1.0000000244590914189046770843561 6:0.18257418 24:0.18257418 28:0.18257418 36:0.18257418 39:0.18257418 44:0.36514837 64:0.36514837 86:0.18257418 99:0.18257418 104:0.18257418 111:0.18257418 122:0.18257418 196:0.18257418 272:0.18257418 305:0.18257418 320:0.18257418 458:0.18257418 681:0.18257418 1007:0.18257418 1293:0.18257418 1970:0.18257418 2266:0.18257418 2553:0.18257418 2905:0.18257418 #
-0.19546312428053991272491884956253 109:1 #
-0.046873612533342004504710587298177 46:0.57735026 1694:0.57735026 2377:0.57735026 #
-0.045631212487923976384163182729026 516:0.70710677 1891:0.70710677 #
-0.077405180006500165501570620563143 79:0.37796447 1893:0.37796447 1989:0.37796447 2168:0.75592893 #
-0.92668776991455104052874958142638 187:1 #
-0.68079784544056987094506894209189 103:0.70710677 136:0.70710677 #
-0.10813319848681524071309922874207 99:1 #
-1.0000000244590914189046770843561 11:1 #
-1.0000000244590914189046770843561 11:0.70710677 103:0.70710677 #
-0.034644703915905683544451676425524 91:0.5 414:0.5 459:0.5 2832:0.5 #
-1.0000000244590914189046770843561 91:0.60302269 245:0.30151135 459:0.60302269 1163:0.30151135 1376:0.30151135 #
-0.095102105642939777085942409939889 168:0.44721359 279:0.44721359 783:0.44721359 842:0.44721359 2453:0.44721359 #
-1.0000000244590914189046770843561 85:0.2773501 305:0.2773501 362:0.83205032 533:0.2773501 2478:0.2773501 #
-0.3050876505246837844254059746163 303:1 #
-0.26050083870329854285330384300323 190:0.35355338 229:0.35355338 1081:0.35355338 1183:0.35355338 1277:0.35355338 1774:0.35355338 2454:0.35355338 2456:0.35355338 #
-0.97731831757206488742184546936187 273:1 #
-0.0043551906144673746545947778940899 61:0.25819889 210:0.51639777 253:0.25819889 362:0.25819889 576:0.25819889 1411:0.25819889 1929:0.51639777 1972:0.25819889 2773:0.25819889 #
-0.0030215556738747428866531663516071 1951:1 #
-0.07511281542621595086473007540917 2149:1 #
-0.14484812356494486396130128014192 253:0.44721359 583:0.44721359 832:0.44721359 1254:0.44721359 1929:0.44721359 #
-1.0000000244590914189046770843561 28:0.57735026 281:0.57735026 1176:0.57735026 #
-0.66078161932029333414106986310799 988:0.70710677 2480:0.70710677 #
-0.095195523709546051027707846969861 372:0.70710677 934:0.70710677 #
-0.76314644556969701838511355163064 272:0.57735026 1378:0.57735026 1938:0.57735026 #
-0.021058919448998656559490783024557 331:0.24253562 401:0.24253562 416:0.24253562 515:0.48507124 1185:0.48507124 1403:0.24253562 1724:0.24253562 1885:0.24253562 1936:0.24253562 2395:0.24253562 2962:0.24253562 #
-0.043699450257636766881130796491561 8:0.70710677 2579:0.70710677 #
-0.074860230326287191537915077788057 2737:1 #
-0.012511672200798835616342152832203 572:0.57735026 1806:0.57735026 1936:0.57735026 #
-0.19678523814483739329261879902333 36:0.40824831 235:0.40824831 319:0.40824831 999:0.40824831 1174:0.40824831 2026:0.40824831 #
-0.37912728454505140174291000221274 8:1 #
-1.0000000244590914189046770843561 19:0.57735026 136:0.57735026 2038:0.57735026 #
-1.0000000244590914189046770843561 678:1 #
-0.92426904307075830047324416227639 403:0.70710677 1970:0.70710677 #
-0.077259408526524131488599778094795 1172:0.70710677 1181:0.70710677 #
-0.10602508492511045212758347133786 165:0.31622776 252:0.31622776 306:0.31622776 471:0.31622776 783:0.63245553 1403:0.31622776 1973:0.31622776 #
-0.65194710238687536563162439051666 775:1 #
-0.95847238379324783963397749175783 359:1 #
-0.016496222930644482973505660083902 446:1 #
-0.26676352279683013257738366519334 24:0.70710677 995:0.70710677 #
-0.060035742281708416590024768311196 68:0.70710677 2134:0.70710677 #
-1.0000000244590914189046770843561 36:0.37796447 151:0.37796447 588:0.37796447 1408:0.37796447 1976:0.37796447 2526:0.37796447 2940:0.37796447 #
-1.0000000244590914189046770843561 331:0.70710677 2453:0.70710677 #
-0.82662271942378451328181654389482 44:0.21821789 52:0.21821789 173:0.21821789 362:0.21821789 794:0.21821789 959:0.21821789 1177:0.21821789 1380:0.21821789 1405:0.43643579 1709:0.43643579 2025:0.21821789 2357:0.43643579 #
-0.14986965325868811804710389878892 990:0.70710677 1310:0.70710677 #
-1.0000000244590914189046770843561 24:0.70710677 684:0.70710677 #
-0.015874426949022857336046854470624 2452:1 #
-0.33016248104285800257784444511344 44:0.70710677 299:0.70710677 #
-0.14506818978569749334361915771296 40:0.37796447 184:0.75592893 215:0.37796447 1378:0.37796447 #
-0.79618219750932495148987300126464 342:1 #
1.0000000244590914189046770843561 123:1 #
1.0000000244590914189046770843561 339:1 #
1.0000000244590914189046770843561 123:0.89442718 1481:0.44721359 #
-1.0000000244590914189046770843561 123:1 #
1.0000000244590914189046770843561 331:0.44721359 1411:0.89442718 #
1.0000000244590914189046770843561 1411:1 #
1.0000000244590914189046770843561 215:0.70710677 1411:0.70710677 #
1.0000000244590914189046770843561 40:0.70710677 123:0.70710677 #
1.0000000244590914189046770843561 11:0.44721359 52:0.44721359 97:0.44721359 99:0.44721359 136:0.44721359 #
1.0000000244590914189046770843561 18:0.57735026 99:0.57735026 362:0.57735026 #
1.0000000244590914189046770843561 24:0.31622776 25:0.31622776 459:0.31622776 1151:0.31622776 1403:0.63245553 2036:0.31622776 2453:0.31622776 #
1.0000000244590914189046770843561 129:0.40824831 151:0.81649661 237:0.40824831 #
1.0000000244590914189046770843561 60:0.70710677 247:0.70710677 #
1.0000000244590914189046770843561 274:0.57735026 767:0.57735026 1653:0.57735026 #
1.0000000244590914189046770843561 184:1 #
1.0000000244590914189046770843561 60:0.5 184:0.5 1929:0.5 1984:0.5 #
1.0000000244590914189046770843561 60:0.70710677 86:0.70710677 #
1.0000000244590914189046770843561 151:1 #
1.0000000244590914189046770843561 1430:0.70710677 2516:0.70710677 #
1.0000000244590914189046770843561 22:0.24253562 26:0.24253562 41:0.24253562 42:0.24253562 44:0.24253562 79:0.24253562 107:0.24253562 112:0.24253562 140:0.24253562 165:0.24253562 183:0.24253562 189:0.24253562 262:0.24253562 295:0.24253562 506:0.24253562 1923:0.24253562 2461:0.24253562 #
1.0000000244590914189046770843561 424:0.70710677 468:0.70710677 #
1.0000000244590914189046770843561 11:1 #
1.0000000244590914189046770843561 28:0.44721359 307:0.44721359 459:0.44721359 678:0.44721359 1543:0.44721359 #
1.0000000244590914189046770843561 136:0.44721359 208:0.44721359 250:0.44721359 403:0.44721359 534:0.44721359 #
1.0000000244590914189046770843561 988:1 #
1.0000000244590914189046770843561 28:0.70710677 824:0.70710677 #
1.0000000244590914189046770843561 8:0.57735026 11:0.57735026 680:0.57735026 #
1.0000000244590914189046770843561 11:0.70710677 2523:0.70710677 #
1.0000000244590914189046770843561 11:0.70710677 1606:0.70710677 #
1.0000000244590914189046770843561 18:0.5 201:0.5 678:0.5 2482:0.5 #
1.0000000244590914189046770843561 13:0.33333334 28:0.33333334 44:0.33333334 57:0.66666669 97:0.33333334 678:0.33333334 #
1.0000000244590914189046770843561 365:0.33333334 678:0.66666669 780:0.33333334 1456:0.33333334 1506:0.33333334 1618:0.33333334 #
1.0000000244590914189046770843561 11:0.57735026 103:0.57735026 331:0.57735026 #
1.0000000244590914189046770843561 8:0.33333334 11:0.33333334 21:0.33333334 29:0.16666667 45:0.16666667 103:0.16666667 183:0.16666667 250:0.16666667 359:0.16666667 456:0.16666667 580:0.16666667 1155:0.5 1433:0.16666667 2459:0.33333334 2529:0.16666667 2534:0.16666667 #
1.0000000244590914189046770843561 11:0.70710677 214:0.70710677 #
1.0000000244590914189046770843561 11:0.70710677 2518:0.70710677 #
1.0000000244590914189046770843561 583:0.57735026 831:0.57735026 2480:0.57735026 #
1.0000000244590914189046770843561 199:0.57735026 988:0.57735026 1969:0.57735026 #
1.0000000244590914189046770843561 99:1 #
1.0000000244590914189046770843561 375:0.57735026 423:0.57735026 671:0.57735026 #
1.0000000244590914189046770843561 217:0.70710677 1987:0.70710677 #
1.0000000244590914189046770843561 273:0.5 364:0.5 1383:0.5 1591:0.5 #
1.0000000244590914189046770843561 164:0.81649661 519:0.40824831 2531:0.40824831 #
1.0000000244590914189046770843561 5:0.57735026 1539:0.57735026 2041:0.57735026 #
1.0000000244590914189046770843561 831:0.70710677 1408:0.70710677 #
1.0000000244590914189046770843561 19:0.40824831 24:0.40824831 25:0.40824831 46:0.40824831 507:0.40824831 2035:0.40824831 #
1.0000000244590914189046770843561 110:0.5 513:0.5 2467:0.5 2480:0.5 #
1.0000000244590914189046770843561 39:0.5 271:0.5 531:0.5 827:0.5 #
1.0000000244590914189046770843561 39:0.44721359 187:0.89442718 #
1.0000000244590914189046770843561 205:0.57735026 271:0.57735026 1400:0.57735026 #
1.0000000244590914189046770843561 31:0.57735026 216:0.57735026 2016:0.57735026 #
1.0000000244590914189046770843561 8:0.57735026 272:0.57735026 306:0.57735026 #
1.0000000244590914189046770843561 25:0.70710677 43:0.70710677 #
1.0000000244590914189046770843561 2000:1 #
1.0000000244590914189046770843561 581:0.40824831 1152:0.81649661 1642:0.40824831 #
1.0000000244590914189046770843561 60:0.25819889 196:0.77459669 249:0.25819889 506:0.25819889 784:0.25819889 1433:0.25819889 1998:0.25819889 #
1.0000000244590914189046770843561 21:0.37796447 60:0.37796447 92:0.37796447 369:0.37796447 1381:0.37796447 1414:0.37796447 1594:0.37796447 #
1.0000000244590914189046770843561 8:0.81649661 404:0.40824831 1180:0.40824831 #
1.0000000244590914189046770843561 8:0.57735026 371:0.57735026 2466:0.57735026 #
1.0000000244590914189046770843561 8:0.57735026 28:0.57735026 135:0.57735026 #
1.0000000244590914189046770843561 8:0.70710677 414:0.70710677 #
1.0000000244590914189046770843561 216:0.70710677 422:0.70710677 #
1.0000000244590914189046770843561 339:1 #
1.0000000244590914189046770843561 46:0.40824831 99:0.40824831 339:0.40824831 783:0.40824831 818:0.40824831 1184:0.40824831 #
1.0000000244590914189046770843561 581:0.57735026 1176:0.57735026 2532:0.57735026 #
-1.0000000244590914189046770843561 52:0.70710677 342:0.70710677 #
-1.0000000244590914189046770843561 60:0.57735026 86:0.57735026 184:0.57735026 #
-1.0000000244590914189046770843561 60:1 #
-0.050269778702332727771118214832313 327:0.70710677 2942:0.70710677 #
-0.1696294933066537224952696760738 471:0.70710677 1369:0.70710677 #
1.0000000244590914189046770843561 342:1 #
1.0000000244590914189046770843561 56:0.70710677 1156:0.70710677 #
1.0000000244590914189046770843561 85:1 #
1.0000000244590914189046770843561 1156:0.70710677 2468:0.70710677 #
1.0000000244590914189046770843561 85:0.57735026 197:0.57735026 529:0.57735026 #
-0.11345486010676766874816223662492 271:0.70710677 349:0.70710677 #
-0.074290345592487150305771592684323 2683:1 #
-1.0000000244590914189046770843561 5:0.056888014 19:0.056888014 24:0.17066404 25:0.056888014 26:0.056888014 28:0.11377603 36:0.11377603 41:0.056888014 52:0.056888014 54:0.17066404 64:0.056888014 69:0.056888014 104:0.11377603 107:0.056888014 110:0.11377603 112:0.056888014 127:0.11377603 136:0.056888014 140:0.056888014 170:0.056888014 173:0.11377603 186:0.056888014 189:0.056888014 197:0.056888014 239:0.62576813 246:0.056888014 262:0.056888014 295:0.056888014 297:0.056888014 331:0.056888014 339:0.11377603 411:0.056888014 428:0.11377603 532:0.5119921 580:0.056888014 678:0.056888014 757:0.056888014 838:0.056888014 992:0.056888014 1004:0.056888014 1137:0.056888014 1381:0.056888014 1408:0.056888014 1413:0.056888014 1430:0.11377603 1433:0.11377603 1653:0.056888014 1777:0.056888014 1829:0.056888014 1896:0.056888014 2353:0.11377603 2402:0.056888014 2457:0.056888014 2682:0.11377603 2757:0.056888014 2925:0.056888014 2994:0.056888014 #
-1.0000000244590914189046770843561 414:1 #
1.0000000244590914189046770843561 5:0.37796447 8:0.37796447 60:0.37796447 245:0.37796447 473:0.37796447 678:0.37796447 1430:0.37796447 #
1.0000000244590914189046770843561 60:0.40824831 69:0.40824831 505:0.40824831 506:0.40824831 678:0.40824831 785:0.40824831 #
1.0000000244590914189046770843561 91:1 #
1.0000000244590914189046770843561 8:0.44721359 28:0.44721359 35:0.44721359 99:0.44721359 1001:0.44721359 #
-0.17911115817902317770560216558806 25:0.33333334 219:0.33333334 357:0.33333334 458:0.33333334 501:0.66666669 2019:0.33333334 #
-0.70945139290674397170022302816506 5:0.37796447 60:0.37796447 506:0.37796447 996:0.37796447 2000:0.37796447 2200:0.37796447 2532:0.37796447 #
-0.67323167425647867379012723176857 1923:1 #
1.0000000244590914189046770843561 13:0.25 24:0.25 36:0.25 85:0.25 99:0.25 331:0.25 337:0.25 458:0.25 516:0.5 1381:0.25 1436:0.25 2453:0.25 2531:0.25 #
1.0000000244590914189046770843561 24:0.70710677 424:0.70710677 #
1.0000000244590914189046770843561 788:0.57735026 1376:0.57735026 1378:0.57735026 #
1.0000000244590914189046770843561 409:1 #
-1.0000000244590914189046770843561 8:0.35355338 158:0.35355338 208:0.35355338 516:0.35355338 780:0.35355338 2453:0.35355338 2534:0.35355338 2684:0.35355338 #
-1.0000000244590914189046770843561 5:0.44721359 99:0.44721359 1376:0.44721359 1837:0.44721359 1988:0.44721359 #
-0.78321536695028570740362283686409 208:1 #
-0.43287928243812379136556955927517 40:0.44721359 70:0.44721359 1378:0.44721359 1989:0.44721359 2528:0.44721359 #
-0.14757502130573346699193848508003 905:0.57735026 1411:0.57735026 2622:0.57735026 #
1.0000000244590914189046770843561 1013:1 #
1.0000000244590914189046770843561 143:0.57735026 272:0.57735026 684:0.57735026 #
1.0000000244590914189046770843561 21:0.40824831 52:0.40824831 337:0.40824831 403:0.40824831 793:0.40824831 1984:0.40824831 #
1.0000000244590914189046770843561 25:0.57735026 142:0.57735026 339:0.57735026 #
1.0000000244590914189046770843561 1163:1 #
-0.0047037230929305572785237288258031 239:0.44721359 532:0.44721359 1012:0.44721359 1175:0.44721359 2547:0.44721359 #
-1.0000000244590914189046770843561 24:0.28867513 52:0.57735026 57:0.28867513 81:0.28867513 164:0.57735026 686:0.28867513 #
-0.9797119171152544048197796655586 24:1 #
-1.0000000244590914189046770843561 25:0.44721359 763:0.44721359 1035:0.44721359 1380:0.44721359 1411:0.44721359 #
-1.0000000244590914189046770843561 187:1 #
1.0000000244590914189046770843561 11:0.48507124 40:0.48507124 83:0.24253562 361:0.24253562 406:0.24253562 678:0.24253562 1153:0.24253562 1376:0.24253562 1422:0.24253562 1986:0.24253562 2046:0.24253562 #
1.0000000244590914189046770843561 113:0.70710677 356:0.70710677 #
1.0000000244590914189046770843561 8:0.31622776 86:0.31622776 113:0.31622776 582:0.31622776 659:0.31622776 682:0.63245553 1652:0.31622776 #
1.0000000244590914189046770843561 68:0.37796447 99:0.37796447 362:0.37796447 505:0.37796447 843:0.37796447 1429:0.37796447 2457:0.37796447 #
1.0000000244590914189046770843561 110:1 #
-1.0000000244590914189046770843561 11:0.44721359 472:0.44721359 751:0.44721359 999:0.44721359 1013:0.44721359 #
-0.54150730259769108698719719541259 183:0.70710677 1433:0.70710677 #
-1.0000000244590914189046770843561 24:1 #
-0.041347974511267926445157172565814 272:0.57735026 1804:0.57735026 2635:0.57735026 #
-1.0000000244590914189046770843561 678:1 #
1.0000000244590914189046770843561 35:0.31622776 52:0.31622776 128:0.31622776 136:0.31622776 187:0.31622776 403:0.31622776 687:0.31622776 689:0.31622776 1641:0.31622776 1958:0.31622776 #
1.0000000244590914189046770843561 90:0.30151135 164:0.30151135 330:0.30151135 675:0.30151135 766:0.60302269 806:0.30151135 1968:0.30151135 2526:0.30151135 #
1.0000000244590914189046770843561 339:1 #
1.0000000244590914189046770843561 52:0.57735026 528:0.57735026 995:0.57735026 #
-0.01213990780514623279984220971528 35:0.75592893 403:0.37796447 1943:0.37796447 1984:0.37796447 #
-0.074769593330913486362021558306878 706:1 #
-1.0000000244590914189046770843561 35:1 #
1.0000000244590914189046770843561 122:0.70710677 523:0.70710677 #
1.0000000244590914189046770843561 1431:0.70710677 1556:0.70710677 #
-1.0000000244590914189046770843561 52:0.70710677 1433:0.70710677 #
-1.0000000244590914189046770843561 18:0.5 339:0.5 375:0.5 2476:0.5 #
-1.0000000244590914189046770843561 52:0.70710677 529:0.70710677 #
-0.96673111406617018293019327757065 46:0.70710677 995:0.70710677 #
-1.0000000244590914189046770843561 11:1 #
1.0000000244590914189046770843561 35:0.57735026 1561:0.57735026 2522:0.57735026 #
1.0000000244590914189046770843561 238:0.70710677 403:0.70710677 #
1.0000000244590914189046770843561 403:0.70710677 524:0.70710677 #
1.0000000244590914189046770843561 32:0.70710677 1981:0.70710677 #
-1.0000000244590914189046770843561 143:0.5 403:0.5 417:0.5 583:0.5 #
-0.55672206730742612723616957737249 44:0.70710677 306:0.70710677 #
-0.62358143772422769401941877731588 45:0.35355338 52:0.35355338 64:0.35355338 68:0.35355338 285:0.35355338 1013:0.35355338 1930:0.35355338 2474:0.35355338 #
-0.32583534541809844320425781916128 778:1 #
-0.0043746145439710892866003177914536 305:0.70710677 551:0.70710677 #
1.0000000244590914189046770843561 52:0.70710677 305:0.70710677 #
1.0000000244590914189046770843561 52:0.5 822:0.5 1584:0.5 1931:0.5 #
1.0000000244590914189046770843561 52:0.44721359 1955:0.89442718 #
1.0000000244590914189046770843561 150:0.70710677 2517:0.70710677 #
-1.0000000244590914189046770843561 52:1 #
-0.076467881861753572714235360763269 28:0.5 151:0.5 1069:0.5 1368:0.5 #
1.0000000244590914189046770843561 56:1 #
1.0000000244590914189046770843561 151:0.70710677 271:0.70710677 #
1.0000000244590914189046770843561 403:0.57735026 458:0.57735026 1150:0.57735026 #
1.0000000244590914189046770843561 151:0.70710677 336:0.70710677 #
1.0000000244590914189046770843561 129:0.5 271:0.5 508:0.5 1436:0.5 #
-1.0000000244590914189046770843561 458:1 #
-0.32356032076707857969566362044134 11:0.37796447 150:0.37796447 151:0.37796447 505:0.75592893 #
-0.051796380353366859583541526035333 142:0.44721359 1695:0.89442718 #
-1.0000000244590914189046770843561 151:0.70710677 689:0.70710677 #
-1.0000000244590914189046770843561 151:1 #
1.0000000244590914189046770843561 504:0.70710677 533:0.70710677 #
1.0000000244590914189046770843561 102:0.57735026 144:0.57735026 820:0.57735026 #
1.0000000244590914189046770843561 992:0.70710677 1620:0.70710677 #
1.0000000244590914189046770843561 11:0.26726124 28:0.26726124 306:0.26726124 678:0.53452247 988:0.26726124 1484:0.26726124 1988:0.53452247 2005:0.26726124 #
1.0000000244590914189046770843561 1007:1 #
-1.0000000244590914189046770843561 28:1 #
-1.0000000244590914189046770843561 89:0.5 102:0.5 1432:0.5 2411:0.5 #
-1.0000000244590914189046770843561 8:0.57735026 183:0.57735026 410:0.57735026 #
-0.55070744700721341313709444875713 504:0.5 834:0.5 1155:0.5 2500:0.5 #
-1.0000000244590914189046770843561 214:1 #
1.0000000244590914189046770843561 143:0.57735026 506:0.57735026 667:0.57735026 #
-0.4211617499963198341106362931896 205:1 #
-0.77957767938371347327120020054281 32:0.57735026 245:0.57735026 2035:0.57735026 #
-0.16560263322762031057422404956014 52:0.70710677 2231:0.70710677 #
-1.0000000244590914189046770843561 28:1 #
1.0000000244590914189046770843561 8:0.33333334 21:0.33333334 359:0.33333334 510:0.33333334 685:0.33333334 796:0.33333334 1653:0.33333334 1962:0.33333334 2470:0.33333334 #
1.0000000244590914189046770843561 106:0.40824831 123:0.40824831 217:0.40824831 409:0.40824831 1157:0.40824831 1567:0.40824831 #
1.0000000244590914189046770843561 243:0.5 466:0.5 1552:0.5 1568:0.5 #
1.0000000244590914189046770843561 778:1 #
1.0000000244590914189046770843561 207:1 #
-0.19754303252000993129655626034946 18:1 #
-0.48294200575120305174436907691415 294:1 #
-0.044375471257209836428714311296062 1011:0.70710677 2213:0.70710677 #
-1.0000000244590914189046770843561 12:0.40824831 21:0.40824831 123:0.40824831 1379:0.40824831 2016:0.40824831 2026:0.40824831 #
-0.042618687455271864195083253434859 1031:1 #
1.0000000244590914189046770843561 245:1 #
1.0000000244590914189046770843561 127:0.31622776 2529:0.94868332 #
1.0000000244590914189046770843561 656:1 #
-0.26186354820833335210750192345586 28:0.57735026 125:0.57735026 1431:0.57735026 #
-0.95530541682676595183210110917571 110:0.57735026 2459:0.57735026 2527:0.57735026 #
-0.044935260741691074315440346254036 66:1 #
-0.34046034072038128259762856941961 99:0.70710677 245:0.70710677 #
-1.0000000244590914189046770843561 8:0.26726124 92:0.26726124 142:0.26726124 413:0.26726124 581:0.53452247 650:0.26726124 1150:0.26726124 1384:0.26726124 1900:0.26726124 2137:0.26726124 2477:0.26726124 #
1.0000000244590914189046770843561 283:0.70710677 409:0.70710677 #
1.0000000244590914189046770843561 409:0.70710677 2461:0.70710677 #
-1.0000000244590914189046770843561 422:0.70710677 2461:0.70710677 #
-0.89642295952581463325259392149746 20:0.70710677 2461:0.70710677 #
-0.03964025283164832047511083601421 306:0.44721359 1742:0.44721359 1986:0.44721359 2111:0.44721359 2791:0.44721359 #
-1.0000000244590914189046770843561 362:0.57735026 1411:0.57735026 2530:0.57735026 #
-0.044564779740638764404803140450895 165:0.70710677 1085:0.70710677 #
1.0000000244590914189046770843561 5:0.5547002 15:0.2773501 79:0.2773501 85:0.5547002 360:0.2773501 1995:0.2773501 2477:0.2773501 #
1.0000000244590914189046770843561 1409:1 #
1.0000000244590914189046770843561 123:0.81649661 520:0.40824831 677:0.40824831 #
1.0000000244590914189046770843561 534:0.70710677 1175:0.70710677 #
1.0000000244590914189046770843561 1928:1 #
-1.0000000244590914189046770843561 8:0.30151135 15:0.30151135 36:0.30151135 85:0.30151135 1380:0.30151135 1432:0.30151135 1969:0.60302269 1984:0.30151135 #
-1.0000000244590914189046770843561 303:0.70710677 1157:0.70710677 #
-0.41922960494331784619959080373519 513:1 #
1.0000000244590914189046770843561 280:0.44721359 362:0.89442718 #
1.0000000244590914189046770843561 362:0.70710677 1499:0.70710677 #
1.0000000244590914189046770843561 8:0.40824831 13:0.40824831 244:0.40824831 362:0.40824831 1181:0.40824831 2476:0.40824831 #
1.0000000244590914189046770843561 36:0.33333334 39:0.33333334 64:0.33333334 91:0.33333334 299:0.33333334 300:0.33333334 331:0.33333334 788:0.33333334 2462:0.33333334 #
1.0000000244590914189046770843561 56:0.57735026 1430:0.57735026 2454:0.57735026 #
-0.87523989904030308206728250297601 362:0.70710677 1177:0.70710677 #
-1.0000000244590914189046770843561 362:0.70710677 1653:0.70710677 #
-0.022606020658405889811604083661223 615:1 #
-0.19967362093044371817995852325112 85:0.57735026 362:0.57735026 406:0.57735026 #
-0.23376309205317899464482422899891 18:0.30151135 60:0.30151135 97:0.30151135 150:0.30151135 273:0.30151135 548:0.30151135 951:0.30151135 1930:0.60302269 #
1.0000000244590914189046770843561 337:0.70710677 582:0.70710677 #
1.0000000244590914189046770843561 1376:0.70710677 1994:0.70710677 #
1.0000000244590914189046770843561 38:0.35355338 272:0.35355338 424:0.35355338 989:0.35355338 1599:0.70710677 #
1.0000000244590914189046770843561 339:0.5 1392:0.5 1984:0.5 2470:0.5 #
-0.22128382368697208093522021954414 2494:1 #
-0.43405102582093635366078387960442 337:0.57735026 413:0.57735026 534:0.57735026 #
-0.074658534711477056444728361839225 399:0.70710677 1249:0.70710677 #
-1.0000000244590914189046770843561 1929:1 #
1.0000000244590914189046770843561 24:0.57735026 87:0.57735026 2512:0.57735026 #
1.0000000244590914189046770843561 24:0.2773501 208:0.2773501 273:0.2773501 360:0.2773501 362:0.2773501 459:0.2773501 678:0.2773501 793:0.2773501 995:0.2773501 1158:0.2773501 1167:0.2773501 1413:0.2773501 1430:0.2773501 #
-1.0000000244590914189046770843561 793:1 #
-0.085906296514255311991270502858242 36:0.40824831 132:0.40824831 326:0.40824831 430:0.40824831 587:0.40824831 2760:0.40824831 #
-0.76630786399370542927300675728475 280:0.70710677 1414:0.70710677 #
1.0000000244590914189046770843561 137:0.5 1000:0.5 1376:0.5 1518:0.5 #
1.0000000244590914189046770843561 1376:0.57735026 1975:0.57735026 2479:0.57735026 #
1.0000000244590914189046770843561 678:0.44721359 1983:0.89442718 #
1.0000000244590914189046770843561 36:0.5 64:0.5 1571:0.5 1652:0.5 #
-1.0000000244590914189046770843561 1652:1 #
1.0000000244590914189046770843561 24:0.40824831 456:0.40824831 671:0.40824831 1176:0.40824831 1593:0.40824831 2455:0.40824831 #
-0.043287786928586036161448191705858 1386:1 #
-0.13053603008299768939437512926816 36:0.30151135 60:0.30151135 92:0.30151135 271:0.30151135 424:0.30151135 1378:0.60302269 1666:0.30151135 2533:0.30151135 #
-1.0000000244590914189046770843561 671:1 #
-0.83194337144814423101735201271367 456:1 #
-0.015164071225127084829864543280564 403:1 #
-1.0000000244590914189046770843561 8:0.20851441 148:0.20851441 219:0.20851441 362:0.20851441 418:0.20851441 967:0.20851441 1055:0.20851441 1165:0.20851441 1167:0.41702881 1185:0.20851441 1411:0.20851441 1992:0.41702881 2372:0.20851441 2426:0.20851441 2439:0.20851441 2518:0.20851441 2531:0.20851441 #
-0.54421122745043815083221261375002 92:0.57735026 149:0.57735026 2534:0.57735026 #
-0.025546033122825450439874472863266 433:0.44721359 471:0.44721359 499:0.44721359 729:0.44721359 1931:0.44721359 #
-0.091074866189557401874310471612262 1004:1 #
-0.38844087876614957766108204850752 24:0.40824831 40:0.40824831 92:0.40824831 587:0.40824831 1932:0.40824831 2559:0.40824831 #
-0.58501500003151363227260617350112 1184:1 #
-0.10414114917625827416713946149684 123:1 #
-1.0000000244590914189046770843561 28:0.11867817 40:0.23735633 65:0.11867817 76:0.11867817 99:0.11867817 105:0.11867817 113:0.23735633 119:0.23735633 123:0.11867817 144:0.23735633 151:0.23735633 219:0.11867817 236:0.11867817 266:0.11867817 305:0.11867817 360:0.11867817 413:0.11867817 423:0.23735633 424:0.11867817 456:0.11867817 462:0.23735633 470:0.11867817 583:0.11867817 640:0.11867817 671:0.23735633 672:0.11867817 766:0.23735633 788:0.11867817 1412:0.11867817 1653:0.11867817 1708:0.11867817 1764:0.11867817 1788:0.11867817 1794:0.23735633 1823:0.11867817 2040:0.11867817 2212:0.11867817 2297:0.11867817 2479:0.11867817 2506:0.11867817 2632:0.11867817 #
-0.04496838235641500980399598574877 171:0.44721359 889:0.44721359 1772:0.44721359 2026:0.44721359 2525:0.44721359 #
-0.015498334085752074607000849937322 249:1 #
-0.099504157947140070561431457463186 996:1 #
1.0000000244590914189046770843561 187:0.70710677 458:0.70710677 #
1.0000000244590914189046770843561 52:1 #
1.0000000244590914189046770843561 11:0.57735026 20:0.57735026 2035:0.57735026 #
-0.75647803134779045830526911231573 672:1 #
-0.84159534920479439623619555277401 333:0.44721359 529:0.44721359 766:0.44721359 1003:0.44721359 1991:0.44721359 #
-1.0000000244590914189046770843561 11:0.25819889 52:0.25819889 299:0.25819889 337:0.25819889 472:0.25819889 582:0.51639777 1201:0.25819889 1220:0.25819889 1365:0.25819889 1896:0.25819889 1998:0.25819889 2141:0.25819889 #
-0.27283147200680202271172447581193 31:0.40824831 732:0.40824831 1009:0.40824831 1431:0.40824831 1863:0.40824831 1944:0.40824831 #
-1.0000000244590914189046770843561 38:0.5 322:0.5 1155:0.5 2523:0.5 #
1.0000000244590914189046770843561 375:0.70710677 1987:0.70710677 #
1.0000000244590914189046770843561 151:1 #
-1.0000000244590914189046770843561 21:0.35355338 36:0.35355338 105:0.35355338 375:0.35355338 936:0.35355338 1783:0.35355338 1923:0.35355338 2462:0.35355338 #
-1.0000000244590914189046770843561 1984:1 #
-0.052894427135629334957300784481049 69:0.37796447 151:0.37796447 243:0.37796447 1095:0.37796447 1411:0.37796447 2035:0.37796447 2627:0.37796447 #
-1.0000000244590914189046770843561 43:0.5 151:0.5 1929:0.5 2512:0.5 #
1.0000000244590914189046770843561 8:0.33333334 45:0.66666669 60:0.33333334 165:0.33333334 306:0.33333334 2461:0.33333334 #
1.0000000244590914189046770843561 11:0.28867513 29:0.28867513 2457:0.28867513 2460:0.86602539 #
1.0000000244590914189046770843561 8:0.30151135 48:0.30151135 97:0.60302269 413:0.30151135 588:0.30151135 988:0.30151135 1402:0.30151135 2002:0.30151135 #
1.0000000244590914189046770843561 2530:1 #
1.0000000244590914189046770843561 11:0.5 28:0.5 75:0.5 1652:0.5 #
-1.0000000244590914189046770843561 24:1 #
-0.0049570021341639458611894042405766 403:1 #
-0.9346124258870939227605845189828 2047:1 #
-1.0000000244590914189046770843561 11:0.44721359 29:0.44721359 1427:0.44721359 2036:0.44721359 2476:0.44721359 #
-0.0097234396602106209356319865833029 26:0.33333334 41:0.33333334 107:0.33333334 112:0.33333334 140:0.33333334 189:0.33333334 262:0.33333334 295:0.33333334 2052:0.33333334 #
1.0000000244590914189046770843561 151:1 #
1.0000000244590914189046770843561 151:0.57735026 522:0.57735026 787:0.57735026 #
1.0000000244590914189046770843561 151:0.57735026 1496:0.57735026 2532:0.57735026 #
-0.0060058869623291349926219595545263 249:0.5 996:0.5 2478:0.5 2967:0.5 #
-0.030291605186537694238690932024838 121:0.70710677 309:0.70710677 #
-0.042263356649456663982622472985895 1061:0.70710677 2275:0.70710677 #
-0.00033253054592319308824244217248634 2526:1 #
-0.047643556902584940915268418848427 11:0.70710677 968:0.70710677 #
1.0000000244590914189046770843561 1929:1 #
1.0000000244590914189046770843561 97:0.57735026 339:0.57735026 529:0.57735026 #
1.0000000244590914189046770843561 11:0.40824831 57:0.40824831 103:0.40824831 105:0.40824831 1930:0.40824831 2525:0.40824831 #
1.0000000244590914189046770843561 11:0.44721359 57:0.44721359 268:0.44721359 581:0.44721359 1157:0.44721359 #
1.0000000244590914189046770843561 271:0.40824831 509:0.40824831 1929:0.81649661 #
-0.029247060886948200719714918704994 621:0.70710677 1107:0.70710677 #
-0.61463809647670386571149947485537 8:0.2773501 52:0.2773501 57:0.2773501 85:0.2773501 88:0.2773501 1184:0.2773501 1411:0.2773501 1805:0.2773501 1929:0.2773501 2532:0.5547002 #
-1.0000000244590914189046770843561 1157:0.57735026 1985:0.57735026 2497:0.57735026 #
-1.0000000244590914189046770843561 529:1 #
1.0000000244590914189046770843561 25:0.5 134:0.5 404:0.5 997:0.5 #
1.0000000244590914189046770843561 20:0.57735026 40:0.57735026 158:0.57735026 #
1.0000000244590914189046770843561 151:1 #
1.0000000244590914189046770843561 45:0.37796447 99:0.75592893 506:0.37796447 592:0.37796447 #
-1.0000000244590914189046770843561 11:0.23570226 25:0.23570226 28:0.23570226 58:0.23570226 99:0.23570226 148:0.23570226 245:0.23570226 248:0.23570226 298:0.23570226 306:0.23570226 473:0.23570226 531:0.23570226 592:0.23570226 1040:0.23570226 1180:0.23570226 1984:0.23570226 2462:0.23570226 2530:0.23570226 #
-1.0000000244590914189046770843561 99:1 #
-1.0000000244590914189046770843561 123:1 #
-1.0000000244590914189046770843561 30:0.57735026 99:0.57735026 307:0.57735026 #
1.0000000244590914189046770843561 1411:1 #
1.0000000244590914189046770843561 529:0.70710677 1609:0.70710677 #
1.0000000244590914189046770843561 529:0.70710677 1409:0.70710677 #
1.0000000244590914189046770843561 89:0.5 102:0.5 422:0.5 797:0.5 #
-0.1044128485050911520071181826097 529:0.70710677 2830:0.70710677 #
-0.21269746954728652177379899512744 79:1 #
-0.53591591880949662751731921161991 86:0.44721359 375:0.89442718 #
-0.68844766694539805129693377239164 991:1 #
1.0000000244590914189046770843561 99:1 #
1.0000000244590914189046770843561 52:0.5 99:0.5 580:0.5 581:0.5 #
-0.41575353391185287943443427138845 85:0.44721359 473:0.44721359 2473:0.44721359 2510:0.44721359 2525:0.44721359 #
-0.019854257250723005012726929408018 45:0.70710677 105:0.70710677 #
-1.0000000244590914189046770843561 52:0.94868332 331:0.31622776 #
-0.37350713460427498180393968141288 79:0.35355338 451:0.35355338 1923:0.35355338 2434:0.35355338 2534:0.70710677 #
-1.0000000244590914189046770843561 52:1 #
1.0000000244590914189046770843561 473:0.57735026 804:0.57735026 1433:0.57735026 #
1.0000000244590914189046770843561 473:1 #
1.0000000244590914189046770843561 505:1 #
1.0000000244590914189046770843561 29:0.57735026 244:0.57735026 1985:0.57735026 #
-0.17974748088286923719536503085692 102:0.57735026 473:0.57735026 2000:0.57735026 #
-1.0000000244590914189046770843561 473:1 #
-1.0000000244590914189046770843561 1987:1 #
-0.745902406379528426505487459508 11:0.18257418 14:0.18257418 25:0.18257418 89:0.36514837 99:0.18257418 147:0.18257418 239:0.18257418 242:0.18257418 249:0.18257418 274:0.18257418 335:0.36514837 408:0.18257418 532:0.18257418 686:0.18257418 840:0.18257418 1103:0.18257418 1189:0.18257418 1376:0.18257418 1792:0.18257418 2049:0.36514837 2389:0.18257418 #
1.0000000244590914189046770843561 52:1 #
1.0000000244590914189046770843561 52:0.5 99:0.5 217:0.5 2036:0.5 #
1.0000000244590914189046770843561 52:0.5 794:0.5 1591:0.5 1653:0.5 #
1.0000000244590914189046770843561 69:0.5 339:0.5 995:0.5 2506:0.5 #
1.0000000244590914189046770843561 473:1 #
-0.14442680561633211566707757356198 766:0.37796447 1230:0.75592893 1433:0.37796447 1928:0.37796447 #
-0.74956696904193986785713832432521 31:0.70710677 662:0.70710677 #
-0.4053861553019875163528240591404 134:0.5 244:0.5 1433:0.5 2482:0.5 #
-0.029260625242257871925222190157001 40:0.24253562 43:0.24253562 97:0.24253562 286:0.24253562 339:0.24253562 356:0.24253562 678:0.24253562 959:0.48507124 1431:0.48507124 1652:0.24253562 2505:0.24253562 #
-0.048955359779140630860361227405519 1333:0.70710677 2281:0.70710677 #
1.0000000244590914189046770843561 403:0.5 414:0.5 418:0.5 2522:0.5 #
1.0000000244590914189046770843561 2026:1 #
1.0000000244590914189046770843561 414:0.81649661 473:0.40824831 778:0.40824831 #
1.0000000244590914189046770843561 305:1 #
-1.0000000244590914189046770843561 21:0.2773501 114:0.2773501 135:0.2773501 151:0.2773501 245:0.2773501 414:0.2773501 595:0.2773501 1153:0.2773501 1376:0.2773501 1414:0.2773501 1918:0.2773501 2015:0.2773501 2046:0.2773501 #
-0.081023460652252993208222164867038 458:0.70710677 2650:0.70710677 #
-1.0000000244590914189046770843561 272:1 #
-0.39856571824569508866176192896091 771:1 #
-0.18225210996329765933410271827597 659:1 #
1.0000000244590914189046770843561 8:0.28867513 11:0.28867513 90:0.28867513 135:0.28867513 219:0.57735026 1433:0.28867513 1948:0.28867513 1986:0.28867513 2534:0.28867513 #
1.0000000244590914189046770843561 45:0.5 97:0.5 999:0.5 2031:0.5 #
1.0000000244590914189046770843561 35:0.57735026 832:0.57735026 2048:0.57735026 #
1.0000000244590914189046770843561 2534:1 #
-0.07444645868980782899004822183997 1083:0.70710677 1815:0.70710677 #
-0.070642515711239847742142217157379 39:0.57735026 272:0.57735026 671:0.57735026 #
1.0000000244590914189046770843561 142:0.70710677 1414:0.70710677 #
1.0000000244590914189046770843561 114:1 #
1.0000000244590914189046770843561 15:0.31622776 114:0.63245553 404:0.31622776 792:0.31622776 1177:0.31622776 1413:0.31622776 1991:0.31622776 #
1.0000000244590914189046770843561 86:0.44721359 99:0.89442718 #
1.0000000244590914189046770843561 245:0.57735026 413:0.57735026 1390:0.57735026 #
-1.0000000244590914189046770843561 45:1 #
1.0000000244590914189046770843561 25:0.53452247 35:0.26726124 87:0.26726124 134:0.26726124 136:0.53452247 331:0.26726124 418:0.26726124 2459:0.26726124 #
1.0000000244590914189046770843561 2526:1 #
1.0000000244590914189046770843561 28:0.5 40:0.5 1984:0.5 2526:0.5 #
1.0000000244590914189046770843561 35:1 #
-1.0000000244590914189046770843561 11:1 #
-0.14312947187383717739805888413684 77:0.70710677 587:0.70710677 #
1.0000000244590914189046770843561 45:0.5 1150:0.5 1174:0.5 1398:0.5 #
1.0000000244590914189046770843561 45:1 #
-1.0000000244590914189046770843561 45:1 #
-0.075044808281152564077842725964729 2361:1 #
1.0000000244590914189046770843561 339:0.5 662:0.5 1015:0.5 1576:0.5 #
1.0000000244590914189046770843561 14:0.57735026 591:0.57735026 2527:0.57735026 #
1.0000000244590914189046770843561 44:0.57735026 412:0.57735026 472:0.57735026 #
1.0000000244590914189046770843561 275:0.5 795:0.5 1015:0.5 1999:0.5 #
-0.4763095993962276342159611886018 14:0.70710677 1001:0.70710677 #
-0.48044080699064461992264796208474 1939:0.70710677 2963:0.70710677 #
-0.064447499334111174595918214436097 1070:0.70710677 1765:0.70710677 #
-0.042129465677592535521878147619645 300:0.70710677 2581:0.70710677 #
1.0000000244590914189046770843561 45:1 #
1.0000000244590914189046770843561 28:0.57735026 307:0.57735026 1652:0.57735026 #
-1.0000000244590914189046770843561 45:1 #
1.0000000244590914189046770843561 1476:0.70710677 2015:0.70710677 #
1.0000000244590914189046770843561 92:1 #
1.0000000244590914189046770843561 793:1 #
1.0000000244590914189046770843561 31:0.70710677 2469:0.70710677 #
1.0000000244590914189046770843561 2473:1 #
-0.85004987113018748434711824302212 789:0.70710677 1987:0.70710677 #
-0.34133318660152822676678852076293 2498:1 #
-0.5927261931227177926828630916134 11:0.19245009 248:0.19245009 298:0.19245009 342:0.19245009 360:0.19245009 418:0.19245009 529:0.19245009 1116:0.57735026 1408:0.19245009 1856:0.57735026 2317:0.19245009 #
1.0000000244590914189046770843561 45:1 #
1.0000000244590914189046770843561 22:0.37796447 57:0.37796447 111:0.37796447 461:0.37796447 1420:0.37796447 1988:0.37796447 2461:0.37796447 #
1.0000000244590914189046770843561 45:0.70710677 783:0.70710677 #
1.0000000244590914189046770843561 137:1 #
-1.0000000244590914189046770843561 45:1 #
-1.0000000244590914189046770843561 832:0.89442718 1985:0.44721359 #
1.0000000244590914189046770843561 1987:1 #
1.0000000244590914189046770843561 187:0.44721359 789:0.44721359 1653:0.44721359 2475:0.44721359 2524:0.44721359 #
1.0000000244590914189046770843561 298:0.70710677 581:0.70710677 #
1.0000000244590914189046770843561 11:0.51639777 52:0.25819889 91:0.25819889 99:0.25819889 158:0.25819889 300:0.25819889 1411:0.25819889 1987:0.51639777 2502:0.25819889 #
1.0000000244590914189046770843561 5:0.37796447 11:0.37796447 18:0.37796447 60:0.37796447 1182:0.37796447 1924:0.37796447 2528:0.37796447 #
-1.0000000244590914189046770843561 581:1 #
-0.18459270175914532785554911242798 5:0.37796447 52:0.75592893 216:0.37796447 2947:0.37796447 #
-0.075418075392671535261968074337346 2285:1 #
-0.036317499081579274200493046009797 210:0.57735026 471:0.57735026 1120:0.57735026 #
1.0000000244590914189046770843561 8:0.57735026 832:0.57735026 1393:0.57735026 #
1.0000000244590914189046770843561 11:0.70710677 832:0.70710677 #
1.0000000244590914189046770843561 1411:1 #
-1.0000000244590914189046770843561 305:0.57735026 1152:0.57735026 1411:0.57735026 #
-0.04764355690258531561553922983876 11:0.70710677 3000:0.70710677 #
-0.088368701470202898340389197073819 52:0.25819889 280:0.51639777 530:0.25819889 933:0.25819889 1130:0.25819889 1378:0.25819889 1411:0.51639777 1849:0.25819889 2708:0.25819889 #
1.0000000244590914189046770843561 581:0.70710677 2048:0.70710677 #
1.0000000244590914189046770843561 581:0.70710677 1642:0.70710677 #
1.0000000244590914189046770843561 186:0.5 270:0.5 581:0.5 782:0.5 #
1.0000000244590914189046770843561 45:1 #
-1.0000000244590914189046770843561 45:1 #
-0.14342127634165297012103224005841 305:0.44721359 478:0.44721359 591:0.44721359 1411:0.44721359 1868:0.44721359 #
-1.0000000244590914189046770843561 581:1 #
-0.89661893163831429820476159875398 186:0.57735026 356:0.57735026 1157:0.57735026 #
1.0000000244590914189046770843561 280:1 #
1.0000000244590914189046770843561 18:0.40824831 154:0.40824831 359:0.40824831 1152:0.40824831 1432:0.40824831 2459:0.40824831 #
1.0000000244590914189046770843561 279:0.70710677 1181:0.70710677 #
1.0000000244590914189046770843561 331:0.70710677 1411:0.70710677 #
1.0000000244590914189046770843561 305:1 #
-0.038951731488814325676806049614243 39:0.57735026 1199:0.57735026 2396:0.57735026 #
-0.99751678652833319915771426167339 339:1 #
-1.0000000244590914189046770843561 2459:1 #
-0.099117724694255421313826559526206 458:0.70710677 1679:0.70710677 #
-0.81864916739491766506375824974384 2036:1 #
1.0000000244590914189046770843561 265:1 #
1.0000000244590914189046770843561 299:0.70710677 1380:0.70710677 #
1.0000000244590914189046770843561 996:0.70710677 2481:0.70710677 #
1.0000000244590914189046770843561 845:0.70710677 996:0.70710677 #
-0.79568611735196681511439464884461 405:1 #
1.0000000244590914189046770843561 779:1 #
1.0000000244590914189046770843561 11:0.40824831 29:0.40824831 586:0.40824831 995:0.40824831 2492:0.40824831 2533:0.40824831 #
1.0000000244590914189046770843561 988:0.70710677 2500:0.70710677 #
1.0000000244590914189046770843561 11:0.5 45:0.5 779:0.5 2522:0.5 #
-0.32553494130215421265006625617389 35:1 #
-1.0000000244590914189046770843561 779:1 #
1.0000000244590914189046770843561 339:0.5 1016:0.5 1564:0.5 2503:0.5 #
1.0000000244590914189046770843561 339:0.70710677 2524:0.70710677 #
-0.17208452378052752074211184663 456:0.5 541:0.5 593:0.5 2516:0.5 #
1.0000000244590914189046770843561 1386:1 #
1.0000000244590914189046770843561 31:0.57735026 339:0.57735026 1379:0.57735026 #
-0.0079541264559020996571803152619395 18:1 #
-0.24224995651035452493005095675471 39:0.40824831 68:0.40824831 85:0.40824831 334:0.40824831 2222:0.40824831 2534:0.40824831 #
-0.45231359224437706068044917628868 2013:1 #
1.0000000244590914189046770843561 676:0.70710677 779:0.70710677 #
1.0000000244590914189046770843561 25:1 #
1.0000000244590914189046770843561 25:0.70710677 1165:0.70710677 #
-1.0000000244590914189046770843561 25:0.57735026 1119:0.57735026 2523:0.57735026 #
-0.78356293008901634067342456546612 1376:0.70710677 2046:0.70710677 #
-0.47873566048132393246916649331979 19:0.15811388 26:0.31622776 41:0.31622776 43:0.15811388 45:0.31622776 107:0.31622776 123:0.15811388 140:0.31622776 151:0.15811388 166:0.15811388 343:0.31622776 344:0.15811388 427:0.15811388 659:0.15811388 926:0.15811388 1652:0.15811388 1933:0.15811388 2102:0.15811388 2118:0.15811388 2462:0.15811388 2473:0.15811388 2532:0.15811388 #
-1.0000000244590914189046770843561 18:0.28867513 25:0.28867513 35:0.28867513 89:0.28867513 103:0.28867513 421:0.28867513 528:0.28867513 1376:0.28867513 1652:0.28867513 2185:0.28867513 2462:0.28867513 2522:0.28867513 #
-0.46758347652542786576645994500723 248:1 #
1.0000000244590914189046770843561 335:0.70710677 2049:0.70710677 #
1.0000000244590914189046770843561 2049:1 #
1.0000000244590914189046770843561 8:0.125 11:0.125 21:0.125 39:0.625 64:0.125 99:0.125 104:0.25 183:0.125 218:0.125 304:0.125 339:0.125 457:0.125 467:0.125 678:0.125 683:0.125 817:0.125 1438:0.125 1461:0.125 1471:0.125 1473:0.25 1483:0.125 1491:0.125 1493:0.125 1497:0.125 1509:0.125 1529:0.125 1534:0.125 1562:0.125 1595:0.125 1596:0.125 1964:0.125 1984:0.125 2462:0.125 2475:0.125 #
-1.0000000244590914189046770843561 335:0.70710677 2049:0.70710677 #
-0.99624523277678445065674850411597 77:0.53452247 332:0.26726124 338:0.26726124 360:0.26726124 575:0.26726124 836:0.26726124 1046:0.26726124 1183:0.26726124 1334:0.26726124 2771:0.26726124 2876:0.26726124 #
-0.0063147685647975126954634106368758 1160:1 #
1.0000000244590914189046770843561 28:0.5 56:0.5 1652:0.5 2523:0.5 #
-1.0000000244590914189046770843561 39:0.44721359 781:0.44721359 1426:0.44721359 1922:0.44721359 2909:0.44721359 #
1.0000000244590914189046770843561 25:0.70710677 333:0.70710677 #
1.0000000244590914189046770843561 52:0.5 584:0.5 1377:0.5 1652:0.5 #
-1.0000000244590914189046770843561 35:1 #
1.0000000244590914189046770843561 13:0.70710677 2035:0.70710677 #
1.0000000244590914189046770843561 1520:0.70710677 1922:0.70710677 #
0.86090000576823266786874455647194 3:0.5 21:0.5 99:0.5 1927:0.5 #
-1.0000000244590914189046770843561 2035:1 #
-1.0000000244590914189046770843561 473:1 #
1.0000000244590914189046770843561 35:1 #
1.0000000244590914189046770843561 35:0.44721359 403:0.44721359 1651:0.44721359 1987:0.44721359 2001:0.44721359 #
1.0000000244590914189046770843561 4:0.24253562 35:0.24253562 36:0.24253562 39:0.24253562 43:0.24253562 1004:0.24253562 1421:0.72760689 1652:0.24253562 2462:0.24253562 #
1.0000000244590914189046770843561 84:0.37796447 528:0.75592893 1013:0.37796447 1984:0.37796447 #
-1.0000000244590914189046770843561 35:1 #
1.0000000244590914189046770843561 8:0.24253562 153:0.48507124 185:0.48507124 331:0.48507124 814:0.24253562 1425:0.24253562 2035:0.24253562 2511:0.24253562 #
1.0000000244590914189046770843561 197:0.40824831 248:0.40824831 658:0.81649661 #
-0.98565654949373993076733313500881 2041:1 #
-0.0035228366604639349546346238639671 464:1 #
-0.30699454999174902170011591806542 45:0.37796447 969:0.37796447 978:0.37796447 1757:0.37796447 2038:0.37796447 2528:0.37796447 2851:0.37796447 #
-0.33557109448430311182676177850226 183:0.70710677 184:0.70710677 #
0.46569955827297954131793744636525 356:0.70710677 686:0.70710677 #
1.0000000244590914189046770843561 118:0.44721359 410:0.44721359 1966:0.44721359 2046:0.44721359 2493:0.44721359 #
1.0000000244590914189046770843561 1923:1 #
1.0000000244590914189046770843561 51:0.40824831 803:0.40824831 1447:0.40824831 1463:0.40824831 1492:0.40824831 1639:0.40824831 #
-1.0000000244590914189046770843561 1923:1 #
-0.57229673116334744964461833660607 591:1 #
1.0000000244590914189046770843561 1467:0.5 1597:0.5 1601:0.5 2522:0.5 #
1.0000000244590914189046770843561 15:0.44721359 419:0.44721359 781:0.44721359 1177:0.44721359 1411:0.44721359 #
1.0000000244590914189046770843561 1998:1 #
-1.0000000244590914189046770843561 245:0.44721359 311:0.44721359 675:0.44721359 680:0.44721359 1987:0.44721359 #
-1.0000000244590914189046770843561 52:0.40824831 91:0.40824831 680:0.81649661 #
-0.053272335780937818405789130338235 546:1 #
-0.079160232576808362003895069847204 28:0.33333334 170:0.33333334 508:0.66666669 1219:0.33333334 1728:0.33333334 1924:0.33333334 #
1.0000000244590914189046770843561 591:0.70710677 1612:0.70710677 #
1.0000000244590914189046770843561 406:0.70710677 1589:0.70710677 #
1.0000000244590914189046770843561 106:1 #
1.0000000244590914189046770843561 8:0.33333334 21:0.33333334 48:0.33333334 86:0.33333334 199:0.33333334 794:0.33333334 1012:0.33333334 1423:0.33333334 2467:0.33333334 #
-1.0000000244590914189046770843561 106:0.44721359 150:0.44721359 1380:0.44721359 1969:0.44721359 2290:0.44721359 #
-1.0000000244590914189046770843561 406:0.70710677 1652:0.70710677 #
-0.074442207033223128931354040105361 1224:1 #
-0.35177023606916235642927404114744 665:1 #
1.0000000244590914189046770843561 680:1 #
1.0000000244590914189046770843561 13:0.44721359 245:0.44721359 357:0.44721359 827:0.44721359 1526:0.44721359 #
1.0000000244590914189046770843561 680:0.70710677 1526:0.70710677 #
-1.0000000244590914189046770843561 5:0.25819889 9:0.25819889 60:0.25819889 69:0.25819889 95:0.51639777 680:0.25819889 1212:0.25819889 1316:0.25819889 1992:0.51639777 #
-0.074643671764567431914372264145641 2413:1 #
-1.0000000244590914189046770843561 85:0.57735026 508:0.57735026 680:0.57735026 #
1.0000000244590914189046770843561 151:0.5 164:0.5 197:0.5 675:0.5 #
1.0000000244590914189046770843561 40:0.40824831 267:0.40824831 424:0.40824831 1017:0.40824831 1419:0.40824831 2047:0.40824831 #
-0.520933055112729470614851834398 40:0.5 44:0.5 534:0.5 1162:0.5 #
-1.0000000244590914189046770843561 11:0.44721359 21:0.44721359 142:0.44721359 687:0.44721359 2433:0.44721359 #
-0.78490434130265962497929876917624 39:0.5 48:0.5 49:0.5 2040:0.5 #
1.0000000244590914189046770843561 5:0.44721359 60:0.44721359 784:0.44721359 1411:0.44721359 1992:0.44721359 #
1.0000000244590914189046770843561 5:0.70710677 1586:0.70710677 #
1.0000000244590914189046770843561 5:0.70710677 1940:0.70710677 #
1.0000000244590914189046770843561 5:0.70710677 1640:0.70710677 #
-0.044542003524102986855570662783066 188:0.70710677 1853:0.70710677 #
-1.0000000244590914189046770843561 5:0.37796447 180:0.37796447 269:0.37796447 507:0.37796447 2268:0.37796447 2495:0.37796447 2740:0.37796447 #
-1.0000000244590914189046770843561 678:1 #
1.0000000244590914189046770843561 331:0.40824831 518:0.81649661 2533:0.40824831 #
1.0000000244590914189046770843561 2533:1 #
1.0000000244590914189046770843561 331:0.57735026 809:0.57735026 1494:0.57735026 #
1.0000000244590914189046770843561 158:0.37796447 331:0.37796447 458:0.37796447 580:0.37796447 1013:0.37796447 1450:0.37796447 2027:0.37796447 #
-0.69157458898029511296101645712042 79:0.44721359 238:0.44721359 458:0.44721359 622:0.44721359 2528:0.44721359 #
-0.33501644512990208513159018366423 153:0.35355338 185:0.35355338 1427:0.70710677 1968:0.35355338 2242:0.35355338 #
-1.0000000244590914189046770843561 298:0.37796447 783:0.75592893 992:0.37796447 1433:0.37796447 #
1.0000000244590914189046770843561 14:0.31622776 24:0.31622776 39:0.31622776 110:0.31622776 272:0.31622776 340:0.31622776 521:0.31622776 660:0.31622776 803:0.31622776 822:0.31622776 #
1.0000000244590914189046770843561 61:0.70710677 2465:0.70710677 #
1.0000000244590914189046770843561 672:0.44721359 833:0.44721359 991:0.44721359 1420:0.44721359 1637:0.44721359 #
1.0000000244590914189046770843561 24:0.57735026 339:0.57735026 1553:0.57735026 #
1.0000000244590914189046770843561 409:1 #
-0.25975831571939361763767806223768 97:0.5 409:0.5 515:0.5 1725:0.5 #
1.0000000244590914189046770843561 1427:1 #
1.0000000244590914189046770843561 79:0.40824831 99:0.81649661 1540:0.40824831 #
1.0000000244590914189046770843561 214:1 #
-0.56708988069410104504441960671102 1427:0.89442718 2753:0.44721359 #
-0.0023451685807093225477615305862855 47:1 #
-0.24379564808763065641983303066809 1400:1 #
1.0000000244590914189046770843561 11:0.21821789 57:0.43643579 307:0.21821789 462:0.21821789 532:0.21821789 678:0.21821789 826:0.21821789 1453:0.21821789 1457:0.43643579 1469:0.21821789 1555:0.21821789 1611:0.21821789 1622:0.21821789 1631:0.21821789 1652:0.21821789 #
-1.0000000244590914189046770843561 1421:1 #
1.0000000244590914189046770843561 502:0.70710677 592:0.70710677 #
1.0000000244590914189046770843561 150:0.5 239:0.5 467:0.5 1416:0.5 #
-0.28274062791682186279729194211541 31:0.70710677 2016:0.70710677 #
-0.46153654253935005868925145477988 35:1 #
-0.043808177102561907112487915583188 447:0.70710677 2710:0.70710677 #
-0.047559758672341079233092386857606 11:0.70710677 552:0.70710677 #
1.0000000244590914189046770843561 279:1 #
1.0000000244590914189046770843561 243:0.26726124 301:0.26726124 359:0.26726124 528:0.26726124 530:0.53452247 1014:0.26726124 1465:0.26726124 1482:0.26726124 1977:0.26726124 1990:0.26726124 2036:0.26726124 #
-1.0000000244590914189046770843561 21:0.44721359 678:0.44721359 1376:0.44721359 1430:0.44721359 2532:0.44721359 #
-0.043997495105587480779263387375977 24:0.70710677 2350:0.70710677 #
-1.0000000244590914189046770843561 362:0.70710677 465:0.70710677 #
-0.51802605545115487650775776273804 35:1 #
-0.7078770873945978703289938493981 791:1 #
1.0000000244590914189046770843561 404:0.70710677 791:0.70710677 #
1.0000000244590914189046770843561 98:1 #
1.0000000244590914189046770843561 215:1 #
-0.10779365099370483149776589471003 119:0.70710677 2019:0.70710677 #
1.0000000244590914189046770843561 114:0.70710677 465:0.70710677 #
1.0000000244590914189046770843561 362:0.40824831 416:0.40824831 1927:0.40824831 1930:0.40824831 1992:0.40824831 2008:0.40824831 #
1.0000000244590914189046770843561 52:1 #
1.0000000244590914189046770843561 302:0.70710677 1475:0.70710677 #
0.21856703361575677280193019669241 67:0.44721359 519:0.44721359 528:0.44721359 1602:0.44721359 1625:0.44721359 #
-0.56241683236765593889572301122826 136:0.57735026 1389:0.57735026 1413:0.57735026 #
1.0000000244590914189046770843561 28:0.37796447 247:0.37796447 679:0.75592893 1495:0.37796447 #
1.0000000244590914189046770843561 28:0.70710677 1598:0.70710677 #
1.0000000244590914189046770843561 36:0.40824831 84:0.40824831 106:0.40824831 678:0.40824831 832:0.40824831 1410:0.40824831 #
1.0000000244590914189046770843561 11:0.35355338 13:0.35355338 60:0.35355338 456:0.35355338 772:0.35355338 816:0.35355338 2511:0.35355338 2518:0.35355338 #
-1.0000000244590914189046770843561 32:0.37796447 291:0.37796447 834:0.37796447 941:0.37796447 1227:0.37796447 2053:0.37796447 2472:0.37796447 #
1.0000000244590914189046770843561 186:0.70710677 1524:0.70710677 #
1.0000000244590914189046770843561 823:0.57735026 1925:0.57735026 2463:0.57735026 #
1.0000000244590914189046770843561 110:0.70710677 1478:0.70710677 #
1.0000000244590914189046770843561 110:0.70710677 1536:0.70710677 #
1.0000000244590914189046770843561 407:0.44721359 685:0.44721359 1479:0.44721359 1929:0.44721359 2036:0.44721359 #
-0.11220088428293530091739427234643 48:0.70710677 835:0.70710677 #
-0.066247358173156856153696026012767 137:0.5 789:0.5 1376:0.5 2046:0.5 #
-0.17151209624940400022552466907655 793:0.70710677 1122:0.70710677 #
1.0000000244590914189046770843561 305:0.57735026 1972:0.57735026 1985:0.57735026 #
1.0000000244590914189046770843561 8:0.44721359 135:0.44721359 998:0.44721359 1653:0.44721359 1986:0.44721359 #
1.0000000244590914189046770843561 249:0.57735026 424:0.57735026 780:0.57735026 #
1.0000000244590914189046770843561 777:1 #
-0.0480029432558405355635500200151 209:1 #
-1.0000000244590914189046770843561 21:0.57735026 557:0.57735026 780:0.57735026 #
-0.10676586905605744970415571515332 29:1 #
1.0000000244590914189046770843561 1:0.35355338 236:0.35355338 1541:0.35355338 2459:0.35355338 2478:0.70710677 #
-0.094305035765513189893738399405265 153:0.57735026 185:0.57735026 2840:0.57735026 #
-0.12922881031771252247075665309239 39:0.70710677 841:0.70710677 #
1.0000000244590914189046770843561 508:0.57735026 1411:0.57735026 1970:0.57735026 #
1.0000000244590914189046770843561 18:0.70710677 780:0.70710677 #
1.0000000244590914189046770843561 8:0.5 409:0.5 534:0.5 1995:0.5 #
-0.021419008814211215607770100177731 1999:1 #
-0.7085613806862706143263608282723 52:0.18569534 106:0.37139067 124:0.18569534 181:0.37139067 196:0.18569534 215:0.18569534 283:0.18569534 362:0.18569534 406:0.18569534 505:0.18569534 1036:0.18569534 1145:0.18569534 1177:0.37139067 1240:0.18569534 1795:0.18569534 2025:0.18569534 2291:0.37139067 #
-0.19439688478186090137000974209514 267:1 #
1.0000000244590914189046770843561 39:0.5 152:0.5 1149:0.5 1984:0.5 #
1.0000000244590914189046770843561 61:0.33333334 472:0.33333334 658:0.33333334 790:0.33333334 831:0.33333334 1164:0.33333334 1381:0.33333334 1606:0.33333334 2532:0.33333334 #
1.0000000244590914189046770843561 77:0.57735026 466:0.57735026 1452:0.57735026 #
0.75822908250826259735077883306076 829:1 #
1.0000000244590914189046770843561 1439:0.70710677 1528:0.70710677 #
1.0000000244590914189046770843561 2474:1 #
-0.63237716378463160182832325517666 143:0.70710677 586:0.70710677 #
-0.075102396354651268506330552554573 28:0.81649661 678:0.40824831 2206:0.40824831 #
-0.31965002934898523179185758635867 18:1 #
1.0000000244590914189046770843561 52:0.70710677 1558:0.70710677 #
1.0000000244590914189046770843561 106:0.70710677 128:0.70710677 #
1.0000000244590914189046770843561 1583:1 #
-0.59246215321221518124161775631364 2521:1 #
-0.046013065420515197878614799265051 25:0.70710677 2379:0.70710677 #
-0.96687707725334381958504081922001 1410:1 #
-0.096362585582659116001380539273669 995:0.70710677 1724:0.70710677 #
1.0000000244590914189046770843561 999:0.70710677 2039:0.70710677 #
1.0000000244590914189046770843561 91:0.57735026 792:0.57735026 1923:0.57735026 #
1.0000000244590914189046770843561 1535:1 #
1.0000000244590914189046770843561 1603:1 #
-1.0000000244590914189046770843561 403:1 #
-0.043991453232372190740306905354373 2958:1 #
1.0000000244590914189046770843561 60:0.5 1378:0.5 1938:0.5 1945:0.5 #
1.0000000244590914189046770843561 59:0.35355338 60:0.35355338 187:0.35355338 217:0.35355338 332:0.35355338 339:0.35355338 1389:0.35355338 2012:0.35355338 #
0.99915692499267449999678092353861 1511:1 #
1.0000000244590914189046770843561 223:0.70710677 276:0.70710677 #
-0.035512895151281774486218267838922 35:0.57735026 39:0.57735026 2119:0.57735026 #
-0.45250890719300895792542860363028 843:1 #
-0.039565286046792345897582521274671 132:0.35355338 173:0.35355338 430:0.35355338 587:0.35355338 1765:0.35355338 2085:0.35355338 2125:0.35355338 2294:0.35355338 #
-0.047643556902585343371114845467673 11:0.70710677 1784:0.70710677 #
-0.074734447639427492582342438254273 1139:0.44721359 1846:0.89442718 #
-0.031609353187365796244989724073093 1386:1 #
-1.0000000244590914189046770843561 5:0.44721359 60:0.44721359 114:0.44721359 217:0.44721359 792:0.44721359 #
-1.0000000244590914189046770843561 98:0.70710677 2534:0.70710677 #
-1.0000000244590914189046770843561 5:0.57735026 60:0.57735026 2474:0.57735026 #
-1.0000000244590914189046770843561 99:0.44721359 265:0.44721359 845:0.44721359 1930:0.44721359 1940:0.44721359 #
-0.93629215813025379322454000430298 5:0.5 217:0.5 2477:0.5 2522:0.5 #
1.0000000244590914189046770843561 25:0.28867513 59:0.28867513 60:0.28867513 143:0.57735026 183:0.28867513 358:0.28867513 403:0.28867513 506:0.28867513 1965:0.28867513 #
1.0000000244590914189046770843561 25:0.5547002 83:0.2773501 97:0.5547002 306:0.2773501 593:0.2773501 993:0.2773501 1577:0.2773501 #
1.0000000244590914189046770843561 24:0.33333334 69:0.33333334 148:0.33333334 272:0.33333334 403:0.33333334 678:0.33333334 802:0.33333334 1380:0.33333334 1412:0.33333334 #
1.0000000244590914189046770843561 25:0.44721359 271:0.44721359 1629:0.44721359 1924:0.44721359 1969:0.44721359 #
1.0000000244590914189046770843561 25:0.40824831 48:0.40824831 417:0.40824831 1574:0.40824831 1973:0.40824831 2036:0.40824831 #
-0.10856840474447959632442461952451 46:1 #
-1.0000000244590914189046770843561 25:0.70710677 2048:0.70710677 #
-0.11245747406405764978742922721722 52:0.57735026 504:0.57735026 1275:0.57735026 #
1.0000000244590914189046770843561 105:0.37796447 362:0.37796447 529:0.37796447 1432:0.75592893 #
-0.079712917356595580642419918149244 57:0.40824831 306:0.40824831 339:0.40824831 533:0.40824831 1924:0.40824831 2210:0.40824831 #
1.0000000244590914189046770843561 47:0.37796447 151:0.37796447 413:0.37796447 1652:0.37796447 1931:0.37796447 1981:0.37796447 2532:0.37796447 #
1.0000000244590914189046770843561 1446:0.57735026 1615:0.57735026 2040:0.57735026 #
-0.042916659311074578653233402292244 128:0.70710677 429:0.70710677 #
-0.074718016953354893239236389490543 255:1 #
-1.0000000244590914189046770843561 11:0.57735026 1378:0.57735026 2533:0.57735026 #
-0.45686373131992985552329855636344 778:0.70710677 1924:0.70710677 #
-1.0000000244590914189046770843561 331:0.70710677 2517:0.70710677 #
1.0000000244590914189046770843561 25:0.37796447 781:0.37796447 2459:0.37796447 2521:0.75592893 #
1.0000000244590914189046770843561 8:0.44721359 25:0.44721359 1184:0.44721359 1379:0.44721359 1600:0.44721359 #
1.0000000244590914189046770843561 1:0.21320072 8:0.42640144 25:0.21320072 28:0.21320072 43:0.21320072 60:0.21320072 77:0.21320072 103:0.21320072 109:0.21320072 204:0.21320072 249:0.21320072 678:0.21320072 1376:0.42640144 1486:0.21320072 1652:0.21320072 2000:0.21320072 #
0.61527042630534189981972303939983 687:1 #
-1.0000000244590914189046770843561 8:0.70710677 2470:0.70710677 #
-0.8240925781480061829142869100906 19:0.44721359 215:0.89442718 #
-1.0000000244590914189046770843561 11:1 #
