SVM-light Version V6.02
0 # kernel type
3 # kernel parameter -d 
1 # kernel parameter -g 
1 # kernel parameter -s 
1 # kernel parameter -r 
empty# kernel parameter -u 
3000 # highest feature index 
3581 # number of training documents 
1212 # number of support vectors plus 1 
0.73282209 # threshold b, each following line is a SV (starting with alpha*y)
-0.019857324868349790492061401891988 1772:1 #
-0.093258666485542485169446536019677 971:1 #
-0.16831668808802266457114171771536 229:0.57735026 1377:0.57735026 2739:0.57735026 #
-0.26717241048636797273729825974442 2700:1 #
-0.17742581636878781981003783130291 37:0.57735026 260:0.57735026 1305:0.57735026 #
1.000000022514158093400737925549 396:0.44721359 848:0.44721359 895:0.44721359 2290:0.44721359 2391:0.44721359 #
1.000000022514158093400737925549 368:0.30151135 1106:0.90453404 1316:0.30151135 #
1.000000022514158093400737925549 154:0.70710677 337:0.70710677 #
1.000000022514158093400737925549 99:0.30151135 255:0.30151135 489:0.30151135 670:0.30151135 800:0.30151135 805:0.30151135 887:0.30151135 1326:0.30151135 1337:0.30151135 1343:0.30151135 2286:0.30151135 #
1.000000022514158093400737925549 40:0.70710677 722:0.70710677 #
-0.25532902551262415258293003716972 1291:0.70710677 1890:0.70710677 #
1.000000022514158093400737925549 61:0.70710677 888:0.70710677 #
1.000000022514158093400737925549 682:0.57735026 1105:0.57735026 1518:0.57735026 #
1.000000022514158093400737925549 779:0.57735026 886:0.57735026 1518:0.57735026 #
1.000000022514158093400737925549 61:0.57735026 675:0.57735026 2393:0.57735026 #
1.000000022514158093400737925549 61:0.57735026 349:0.57735026 350:0.57735026 #
-0.16536125819921035362547456770699 28:0.40824831 30:0.40824831 52:0.40824831 1739:0.40824831 1746:0.40824831 2255:0.40824831 #
-0.32724012191024620666013333902811 40:0.72760689 258:0.24253562 945:0.48507124 988:0.24253562 1105:0.24253562 2051:0.24253562 #
-0.26680803340245007326814175030449 1633:1 #
-0.65718535523390397834475606941851 40:0.70710677 2411:0.70710677 #
-0.068370289134206230219348299215198 39:0.70710677 1819:0.70710677 #
1.000000022514158093400737925549 555:0.5 902:0.5 1040:0.5 1195:0.5 #
1.000000022514158093400737925549 323:0.44721359 445:0.44721359 1317:0.44721359 1340:0.44721359 2389:0.44721359 #
1.000000022514158093400737925549 122:0.40824831 583:0.40824831 815:0.40824831 882:0.40824831 1191:0.40824831 1317:0.40824831 #
1.000000022514158093400737925549 27:0.27472112 36:0.13736056 39:0.13736056 88:0.13736056 93:0.13736056 134:0.13736056 213:0.27472112 232:0.13736056 254:0.27472112 285:0.13736056 288:0.13736056 323:0.13736056 325:0.13736056 457:0.13736056 462:0.13736056 607:0.13736056 616:0.13736056 625:0.13736056 642:0.27472112 643:0.13736056 658:0.13736056 689:0.13736056 792:0.13736056 971:0.13736056 1324:0.13736056 1329:0.13736056 1347:0.13736056 1518:0.27472112 2229:0.13736056 2238:0.13736056 2257:0.13736056 2258:0.13736056 2263:0.13736056 2267:0.13736056 2330:0.13736056 2341:0.13736056 2344:0.13736056 2442:0.13736056 #
1.000000022514158093400737925549 85:0.37796447 136:0.37796447 566:0.37796447 705:0.37796447 1317:0.37796447 1321:0.37796447 1347:0.37796447 #
-0.63111254427496144003839617653284 1106:1 #
-0.52495296124494938982962821683032 1316:1 #
-0.65564287266353526995033007551683 255:1 #
-0.7378298487010725992263360240031 99:1 #
1.000000022514158093400737925549 40:0.70710677 121:0.70710677 #
1.000000022514158093400737925549 77:0.5 84:0.5 2245:0.5 2411:0.5 #
1.000000022514158093400737925549 41:0.57735026 154:0.57735026 665:0.57735026 #
1.000000022514158093400737925549 154:0.44721359 559:0.44721359 562:0.44721359 1779:0.44721359 1784:0.44721359 #
-0.84745943725354222486600974661997 121:1 #
-0.12538070056142536223831029928988 117:0.70710677 2703:0.70710677 #
-0.067777335739155897265106887061847 1246:0.35355338 1431:0.35355338 1714:0.35355338 1829:0.35355338 1836:0.35355338 2660:0.35355338 2728:0.35355338 2954:0.35355338 #
-0.26710749321028759428742205273011 2201:1 #
-0.097712208625133689654518320821808 1773:0.70710677 2755:0.70710677 #
1.000000022514158093400737925549 99:0.70710677 1774:0.70710677 #
1.000000022514158093400737925549 4:0.26726124 5:0.26726124 190:0.26726124 252:0.26726124 255:0.26726124 499:0.26726124 545:0.26726124 1332:0.26726124 2251:0.53452247 2259:0.26726124 2334:0.26726124 #
1.000000022514158093400737925549 5:0.24253562 152:0.48507124 217:0.24253562 336:0.24253562 679:0.24253562 1316:0.24253562 1324:0.24253562 1773:0.24253562 2236:0.24253562 2239:0.24253562 2324:0.48507124 #
1.000000022514158093400737925549 61:0.44721359 335:0.44721359 433:0.44721359 494:0.44721359 2237:0.44721359 #
1.000000022514158093400737925549 97:0.70710677 2240:0.70710677 #
-0.88108510788177329953185790145653 1774:1 #
-0.21040365691663234781749736157508 924:0.70710677 2577:0.70710677 #
-0.16412105761238016121694727189606 28:0.57735026 989:0.57735026 2444:0.57735026 #
-1.000000022514158093400737925549 2245:1 #
-0.14327506562620051511203200789168 133:0.5 939:0.5 1733:0.5 2973:0.5 #
1.000000022514158093400737925549 121:0.70710677 136:0.70710677 #
1.000000022514158093400737925549 41:1 #
1.000000022514158093400737925549 41:0.70710677 728:0.70710677 #
1.000000022514158093400737925549 154:0.5 254:0.5 609:0.5 2288:0.5 #
-1.000000022514158093400737925549 41:1 #
1.000000022514158093400737925549 5:0.44721359 838:0.44721359 2243:0.44721359 2245:0.44721359 2246:0.44721359 #
1.000000022514158093400737925549 5:0.34299716 87:0.17149858 286:0.17149858 420:0.17149858 565:0.17149858 632:0.17149858 667:0.17149858 669:0.17149858 684:0.34299716 709:0.17149858 758:0.17149858 868:0.17149858 897:0.17149858 947:0.17149858 959:0.17149858 964:0.17149858 1106:0.17149858 1518:0.17149858 2283:0.17149858 2365:0.34299716 2366:0.17149858 2368:0.17149858 2378:0.17149858 2398:0.17149858 2445:0.17149858 #
1.000000022514158093400737925549 5:0.33333334 45:0.33333334 215:0.33333334 332:0.33333334 352:0.33333334 361:0.33333334 822:0.33333334 1194:0.33333334 2245:0.33333334 #
1.000000022514158093400737925549 1519:0.70710677 2438:0.70710677 #
1.000000022514158093400737925549 575:0.44721359 604:0.44721359 740:0.44721359 876:0.44721359 2245:0.44721359 #
-0.043790158117889221855989489995409 1398:0.5 1514:0.5 1707:0.5 2661:0.5 #
-0.26710749321028759428742205273011 1998:1 #
-0.14154924242758398778008199769829 152:0.5 254:0.5 1098:0.5 1413:0.5 #
-1.000000022514158093400737925549 254:1 #
0.75235808988114150075432462472236 323:0.40824831 326:0.40824831 333:0.40824831 791:0.40824831 951:0.40824831 967:0.40824831 #
1.000000022514158093400737925549 323:0.37796447 778:0.37796447 802:0.37796447 804:0.37796447 967:0.37796447 1777:0.37796447 2244:0.37796447 #
1.000000022514158093400737925549 133:0.70710677 970:0.70710677 #
1.000000022514158093400737925549 702:0.33333334 795:0.33333334 945:0.33333334 2403:0.66666669 2425:0.33333334 2426:0.33333334 #
1.000000022514158093400737925549 5:0.25819889 83:0.25819889 92:0.25819889 369:0.25819889 392:0.25819889 626:0.25819889 649:0.25819889 668:0.25819889 688:0.25819889 764:0.25819889 1516:0.25819889 1769:0.25819889 2394:0.25819889 2412:0.25819889 2429:0.25819889 #
-0.97390472682069739729371349312714 970:1 #
1.000000022514158093400737925549 254:1 #
1.000000022514158093400737925549 98:0.70710677 254:0.70710677 #
-0.77301842042027091306266584069817 13:0.30151135 136:0.30151135 276:0.30151135 291:0.60302269 1169:0.30151135 1286:0.30151135 2022:0.30151135 2968:0.30151135 #
-0.26719764279835656051176329128793 2988:1 #
-1.000000022514158093400737925549 4:0.57735026 264:0.57735026 2241:0.57735026 #
1.000000022514158093400737925549 154:0.31622776 209:0.31622776 230:0.31622776 254:0.31622776 405:0.31622776 556:0.31622776 598:0.31622776 617:0.31622776 814:0.31622776 2281:0.31622776 #
1.000000022514158093400737925549 254:0.44721359 460:0.44721359 568:0.44721359 635:0.44721359 843:0.44721359 #
1.000000022514158093400737925549 254:0.44721359 738:0.44721359 827:0.44721359 1035:0.44721359 1511:0.44721359 #
1.000000022514158093400737925549 28:0.44721359 52:0.44721359 254:0.44721359 1511:0.44721359 2249:0.44721359 #
-0.14929227390235255690242865966866 981:0.70710677 2228:0.70710677 #
-1.000000022514158093400737925549 254:1 #
1.000000022514158093400737925549 31:0.70710677 2309:0.70710677 #
1.000000022514158093400737925549 31:0.70710677 781:0.70710677 #
1.000000022514158093400737925549 31:0.5547002 81:0.2773501 701:0.2773501 1034:0.2773501 1041:0.2773501 1331:0.2773501 2253:0.2773501 2294:0.2773501 2369:0.2773501 2371:0.2773501 #
1.000000022514158093400737925549 27:0.2773501 86:0.2773501 214:0.2773501 338:0.2773501 339:0.2773501 386:0.2773501 421:0.2773501 820:0.2773501 857:0.2773501 903:0.2773501 1190:0.2773501 2232:0.2773501 2354:0.2773501 #
-0.48214880572234319888735853965045 18:0.17677669 28:0.53033006 37:0.17677669 56:0.17677669 61:0.17677669 154:0.35355338 216:0.17677669 221:0.17677669 230:0.17677669 235:0.17677669 256:0.17677669 257:0.17677669 323:0.17677669 1052:0.17677669 1145:0.17677669 1290:0.35355338 2250:0.17677669 2560:0.17677669 #
-1.000000022514158093400737925549 5:0.2773501 55:0.5547002 119:0.2773501 154:0.2773501 209:0.2773501 323:0.2773501 1317:0.2773501 1747:0.2773501 1983:0.2773501 2244:0.2773501 #
-0.93655268458758655913953816707362 31:1 #
1.000000022514158093400737925549 20:0.35355338 254:0.35355338 285:0.35355338 432:0.35355338 484:0.35355338 508:0.35355338 1509:0.35355338 2358:0.35355338 #
1.000000022514158093400737925549 61:0.35355338 153:0.35355338 254:0.35355338 362:0.35355338 454:0.35355338 741:0.35355338 1346:0.35355338 2440:0.35355338 #
-0.014425055700423072835292259696871 1034:0.5 1218:0.5 1469:0.5 2929:0.5 #
-0.036280681961378520583583195957544 115:0.40824831 996:0.40824831 1013:0.40824831 1930:0.40824831 2191:0.40824831 2983:0.40824831 #
1.000000022514158093400737925549 119:1 #
1.000000022514158093400737925549 154:0.33333334 467:0.33333334 560:0.33333334 592:0.33333334 899:0.33333334 1345:0.33333334 2293:0.33333334 2406:0.33333334 2420:0.33333334 #
1.000000022514158093400737925549 14:0.44721359 31:0.44721359 435:0.44721359 614:0.44721359 1784:0.44721359 #
-0.075165984609154537499087211926962 47:0.40824831 119:0.81649661 1912:0.40824831 #
-0.58928733599866334191830219424446 27:0.25819889 45:0.25819889 217:0.25819889 243:0.25819889 316:0.25819889 936:0.25819889 966:0.25819889 1314:0.25819889 1508:0.25819889 1539:0.25819889 1713:0.25819889 2389:0.25819889 2509:0.25819889 2627:0.25819889 2795:0.25819889 #
-0.24769716524703855320410639251349 119:0.70710677 1579:0.70710677 #
-1.000000022514158093400737925549 14:0.5 119:0.5 188:0.5 2039:0.5 #
1.000000022514158093400737925549 98:0.70710677 621:0.70710677 #
1.000000022514158093400737925549 254:0.30151135 287:0.30151135 323:0.30151135 630:0.30151135 782:0.30151135 809:0.30151135 945:0.30151135 952:0.30151135 962:0.30151135 967:0.30151135 1331:0.30151135 #
1.000000022514158093400737925549 88:0.45883146 210:0.22941573 254:0.22941573 373:0.22941573 470:0.22941573 639:0.22941573 756:0.22941573 896:0.45883146 968:0.22941573 1313:0.22941573 1517:0.22941573 1776:0.22941573 2234:0.22941573 #
1.000000022514158093400737925549 81:0.5 965:0.5 1034:0.5 2317:0.5 #
1.000000022514158093400737925549 20:0.22941573 108:0.45883146 136:0.22941573 254:0.22941573 329:0.22941573 334:0.22941573 391:0.22941573 483:0.22941573 514:0.22941573 581:0.22941573 600:0.22941573 797:0.22941573 1042:0.22941573 1779:0.22941573 1783:0.22941573 2434:0.22941573 #
-1.000000022514158093400737925549 1034:1 #
-0.081808458897730154668614943602734 27:0.30151135 31:0.30151135 113:0.30151135 133:0.30151135 959:0.30151135 1516:0.30151135 1614:0.60302269 2111:0.30151135 #
-0.083548956323239748078535171771364 183:0.31622776 209:0.31622776 232:0.31622776 322:0.31622776 1031:0.31622776 1130:0.31622776 1984:0.31622776 2066:0.31622776 2239:0.31622776 2879:0.31622776 #
-0.037634630109468013292595145458108 265:0.57735026 1139:0.57735026 2167:0.57735026 #
1.000000022514158093400737925549 119:0.5 567:0.5 2356:0.5 2386:0.5 #
1.000000022514158093400737925549 119:0.5 449:0.5 959:0.5 2277:0.5 #
1.000000022514158093400737925549 14:0.24253562 41:0.24253562 188:0.48507124 213:0.24253562 254:0.24253562 480:0.24253562 515:0.24253562 520:0.24253562 586:0.24253562 654:0.24253562 655:0.24253562 687:0.24253562 1341:0.24253562 2428:0.24253562 #
1.000000022514158093400737925549 87:0.70710677 188:0.70710677 #
-0.26687192207553633860328545779339 2631:1 #
-0.4337325417259764726019000136148 28:0.40824831 246:0.40824831 302:0.40824831 1190:0.40824831 1509:0.40824831 1779:0.40824831 #
-0.15048241010130333772387700719264 31:0.35355338 225:0.35355338 1070:0.70710677 1073:0.35355338 2044:0.35355338 #
-0.033151699503215836806191418872913 124:0.44721359 212:0.44721359 314:0.44721359 1323:0.44721359 1518:0.44721359 #
-0.57881821917698772494986769743264 41:1 #
1.000000022514158093400737925549 615:0.5 716:0.5 1034:0.5 1770:0.5 #
1.000000022514158093400737925549 45:1 #
1.000000022514158093400737925549 45:0.70710677 256:0.70710677 #
1.000000022514158093400737925549 256:0.70710677 968:0.70710677 #
-0.093350469716910758344319276602619 3:0.40824831 1192:0.40824831 1496:0.40824831 1549:0.40824831 2549:0.40824831 2622:0.40824831 #
-0.025043555702655456718375148739142 254:0.70710677 274:0.70710677 #
-0.091784768831186414050904431860545 190:0.37796447 1277:0.75592893 1281:0.37796447 2176:0.37796447 #
1.000000022514158093400737925549 41:0.40824831 83:0.40824831 628:0.40824831 787:0.40824831 834:0.40824831 2352:0.40824831 #
1.000000022514158093400737925549 252:0.40824831 330:0.40824831 384:0.40824831 1193:0.40824831 1509:0.40824831 1518:0.40824831 #
1.000000022514158093400737925549 28:0.37796447 61:0.37796447 360:0.37796447 786:0.37796447 904:0.37796447 946:0.37796447 2252:0.37796447 #
-1.000000022514158093400737925549 968:1 #
-0.010844945152505003349574508320075 113:0.5 117:0.5 247:0.5 1351:0.5 #
1.000000022514158093400737925549 12:0.5 45:0.5 471:0.5 854:0.5 #
1.000000022514158093400737925549 211:0.63245553 533:0.31622776 750:0.31622776 890:0.31622776 1037:0.31622776 2342:0.31622776 2397:0.31622776 #
1.000000022514158093400737925549 14:0.30151135 216:0.30151135 536:0.30151135 558:0.30151135 622:0.30151135 640:0.30151135 641:0.30151135 765:0.30151135 867:0.30151135 2302:0.30151135 2392:0.30151135 #
-0.85166121210744405445325355685782 175:0.5 242:0.5 254:0.5 256:0.5 #
-0.08214496979463914438923666239134 1409:1 #
-0.26706438656272513121336942276685 1079:1 #
-1.000000022514158093400737925549 209:0.70710677 213:0.70710677 #
-0.74112735937520535234313001637929 192:0.40824831 965:0.40824831 1144:0.40824831 1191:0.40824831 1321:0.40824831 1777:0.40824831 #
1.000000022514158093400737925549 60:0.25819889 210:0.25819889 570:0.25819889 590:0.51639777 612:0.25819889 968:0.25819889 1324:0.25819889 2244:0.51639777 2336:0.25819889 #
1.000000022514158093400737925549 154:0.40824831 155:0.40824831 413:0.40824831 710:0.40824831 1515:0.40824831 2236:0.40824831 #
1.000000022514158093400737925549 90:0.20851441 254:0.20851441 371:0.20851441 372:0.20851441 496:0.20851441 588:0.20851441 595:0.20851441 676:0.41702881 817:0.20851441 944:0.20851441 953:0.20851441 961:0.41702881 1190:0.41702881 1513:0.20851441 #
-0.080689715673324280409417497139657 18:0.5 289:0.5 1266:0.5 1765:0.5 #
-1.000000022514158093400737925549 61:1 #
1.000000022514158093400737925549 95:0.5 209:0.5 213:0.5 2349:0.5 #
1.000000022514158093400737925549 69:0.70710677 209:0.35355338 724:0.35355338 1347:0.35355338 2415:0.35355338 #
1.000000022514158093400737925549 437:0.5 574:0.5 811:0.5 1512:0.5 #
1.000000022514158093400737925549 453:0.5 788:0.5 1512:0.5 2242:0.5 #
-0.26341901845320842001640926355321 961:0.81649661 1721:0.40824831 2954:0.40824831 #
-0.12577638877123314964379119373916 917:0.57735026 961:0.57735026 2232:0.57735026 #
-0.097425475896728688796066819577391 181:0.44721359 1503:0.89442718 #
-0.82663913726047477670277885408723 212:0.70710677 2244:0.70710677 #
-0.050801991892807291106848310846544 243:0.70710677 2244:0.70710677 #
1.000000022514158093400737925549 59:0.26726124 61:0.26726124 74:0.26726124 78:0.26726124 209:0.26726124 229:0.26726124 367:0.26726124 495:0.26726124 602:0.26726124 696:0.26726124 744:0.26726124 879:0.26726124 956:0.26726124 1325:0.26726124 #
1.000000022514158093400737925549 28:0.25819889 61:0.25819889 89:0.25819889 516:0.25819889 585:0.25819889 806:0.25819889 963:0.25819889 1348:0.51639777 1778:0.25819889 2259:0.25819889 2385:0.25819889 2427:0.25819889 #
1.000000022514158093400737925549 14:0.30151135 174:0.30151135 461:0.30151135 550:0.30151135 823:0.30151135 1782:0.30151135 2295:0.30151135 2413:0.60302269 #
-1.000000022514158093400737925549 28:0.57735026 1033:0.57735026 1324:0.57735026 #
-0.82541685696917654890825133406906 174:1 #
-0.52521667236376068377268211406772 174:0.40824831 990:0.40824831 1035:0.40824831 1385:0.40824831 1821:0.40824831 1889:0.40824831 #
1.000000022514158093400737925549 344:0.33333334 422:0.33333334 629:0.33333334 961:0.66666669 2269:0.33333334 2373:0.33333334 #
1.000000022514158093400737925549 770:0.37796447 961:0.37796447 1333:0.37796447 2254:0.37796447 2275:0.37796447 2364:0.37796447 2408:0.37796447 #
1.000000022514158093400737925549 212:0.40824831 430:0.40824831 479:0.40824831 1343:0.40824831 1775:0.40824831 2305:0.40824831 #
1.000000022514158093400737925549 772:0.5 785:0.5 874:0.5 2250:0.5 #
1.000000022514158093400737925549 85:0.44721359 212:0.44721359 768:0.44721359 891:0.44721359 1783:0.44721359 #
-0.26704410433798375645864098260063 1373:1 #
-0.40774888362142203135363160981797 1515:0.70710677 2652:0.70710677 #
-0.35210098780798204654018945802818 229:1 #
-0.1578270065564554291981380629295 111:0.70710677 2586:0.70710677 #
-0.59978220105645208004574442384182 215:1 #
1.000000022514158093400737925549 153:0.2236068 188:0.2236068 378:0.2236068 547:0.2236068 680:0.2236068 1033:0.67082042 1190:0.2236068 2247:0.2236068 2301:0.44721359 #
1.000000022514158093400737925549 444:0.33333334 751:0.33333334 1033:0.66666669 1042:0.33333334 1776:0.33333334 2279:0.33333334 #
1.000000022514158093400737925549 28:0.40824831 189:0.81649661 1042:0.40824831 #
1.000000022514158093400737925549 41:0.26726124 135:0.53452247 620:0.26726124 686:0.26726124 836:0.26726124 849:0.26726124 1324:0.26726124 1776:0.26726124 2319:0.26726124 2418:0.26726124 2443:0.26726124 #
0.38836027678590478995346302326652 174:0.35355338 288:0.35355338 323:0.35355338 692:0.35355338 747:0.35355338 841:0.35355338 861:0.35355338 1336:0.35355338 #
-1.000000022514158093400737925549 1033:1 #
-0.13716236031877376833065795835864 172:0.89442718 2707:0.44721359 #
-0.21401283725565867221973803680157 162:0.70710677 2048:0.70710677 #
-0.045119831957087498663927505049287 1085:0.37796447 1387:0.37796447 1481:0.37796447 1604:0.37796447 1892:0.37796447 2495:0.37796447 2871:0.37796447 #
1.000000022514158093400737925549 73:0.31622776 258:0.31622776 603:0.63245553 794:0.31622776 1327:0.31622776 2271:0.31622776 2436:0.31622776 #
1.000000022514158093400737925549 258:0.44721359 837:0.44721359 944:0.44721359 2325:0.44721359 2435:0.44721359 #
1.000000022514158093400737925549 355:0.37796447 408:0.37796447 469:0.37796447 732:0.37796447 2242:0.37796447 2331:0.37796447 2370:0.37796447 #
-0.60528933192871570145854320799117 7:0.25 34:0.25 106:0.25 915:0.25 1282:0.25 1435:0.25 1517:0.25 1546:0.25 1629:0.25 1776:0.5 2179:0.25 2245:0.25 2982:0.25 #
-0.61761463617643153067859884686186 259:0.40824831 1042:0.40824831 1214:0.81649661 #
-0.10943045831880993112861233385047 962:0.5 1194:0.5 1375:0.5 2173:0.5 #
-0.11234307551061939456360505573684 254:0.70710677 306:0.70710677 #
-0.062263511480414999998966862904126 237:0.70710677 1528:0.70710677 #
0.98194565862942595479978535877308 37:0.33333334 323:0.33333334 324:0.33333334 412:0.33333334 703:0.33333334 957:0.33333334 1033:0.33333334 1327:0.33333334 2264:0.33333334 #
1.000000022514158093400737925549 383:0.44721359 582:0.44721359 821:0.44721359 1319:0.44721359 1333:0.44721359 #
1.000000022514158093400737925549 56:0.28867513 474:0.28867513 490:0.28867513 733:0.28867513 745:0.28867513 798:0.28867513 812:0.28867513 813:0.28867513 864:0.28867513 2228:0.28867513 2312:0.28867513 2321:0.28867513 #
-0.56383081540188739744223767047515 1519:0.70710677 2228:0.70710677 #
-0.66170574617092325908629391051363 8:0.5547002 21:0.2773501 49:0.2773501 61:0.2773501 204:0.2773501 228:0.2773501 323:0.2773501 1190:0.2773501 1269:0.2773501 1809:0.2773501 #
-0.46468889204047991725587962719146 41:0.20851441 57:0.20851441 191:0.20851441 209:0.20851441 290:0.62554324 323:0.20851441 1007:0.20851441 1017:0.20851441 1081:0.20851441 1158:0.20851441 1499:0.20851441 1514:0.20851441 2009:0.20851441 2223:0.20851441 2228:0.20851441 #
-0.43818873204787645025959363920265 241:0.35355338 308:0.35355338 1067:0.35355338 1332:0.70710677 2228:0.35355338 #
-0.93265154042409181833761522284476 72:0.44721359 170:0.44721359 252:0.44721359 1449:0.44721359 2439:0.44721359 #
1.000000022514158093400737925549 107:0.40824831 376:0.40824831 1038:0.40824831 1041:0.40824831 1777:0.40824831 2274:0.40824831 #
1.000000022514158093400737925549 10:0.2 28:0.2 154:0.2 327:0.2 340:0.2 345:0.40000001 347:0.2 354:0.2 377:0.2 395:0.2 466:0.2 523:0.2 610:0.2 783:0.2 858:0.2 892:0.2 1196:0.2 1318:0.2 1778:0.2 1781:0.2 2260:0.2 2298:0.2 #
1.000000022514158093400737925549 1779:1 #
-1.000000022514158093400737925549 13:0.35355338 1295:0.35355338 1317:0.35355338 1779:0.70710677 2233:0.35355338 #
-0.71025041543427724910486631415552 56:0.44721359 261:0.44721359 1148:0.44721359 1779:0.44721359 2506:0.44721359 #
-0.37744986242438943735422185454809 248:0.40824831 919:0.40824831 1317:0.40824831 1779:0.40824831 2531:0.40824831 2597:0.40824831 #
-0.031207964026293860682059744249273 61:1 #
-0.49075489787911347194793165726878 27:0.51639777 214:0.25819889 248:0.25819889 1652:0.25819889 1779:0.51639777 1908:0.25819889 1927:0.25819889 2780:0.25819889 2931:0.25819889 #
1.000000022514158093400737925549 97:0.5 174:0.5 2228:0.5 2240:0.5 #
1.000000022514158093400737925549 191:0.35355338 438:0.35355338 501:0.35355338 587:0.35355338 685:0.35355338 748:0.35355338 769:0.35355338 2241:0.35355338 #
1.000000022514158093400737925549 538:0.70710677 2241:0.70710677 #
1.000000022514158093400737925549 504:1 #
-0.57382356275823476199349215676193 25:0.5 1366:0.5 1680:0.5 2240:0.5 #
-0.25319610611210258133141337566485 14:0.37796447 50:0.37796447 1288:0.37796447 1769:0.37796447 1782:0.37796447 2185:0.37796447 2241:0.37796447 #
-1.000000022514158093400737925549 69:0.70710677 1347:0.70710677 #
-1.000000022514158093400737925549 5:0.57735026 1474:0.57735026 2241:0.57735026 #
-0.050712548703721882503714368795045 53:0.5 129:0.5 283:0.5 1720:0.5 #
1.000000022514158093400737925549 1779:1 #
1.000000022514158093400737925549 833:0.70710677 1779:0.70710677 #
1.000000022514158093400737925549 93:0.40824831 525:0.40824831 627:0.40824831 2233:0.40824831 2315:0.40824831 2423:0.40824831 #
-0.30571861309249453997338719091204 70:0.40824831 187:0.40824831 292:0.40824831 1374:0.40824831 1779:0.40824831 1974:0.40824831 #
-0.38177498909978768715234309638618 29:0.33333334 207:0.33333334 222:0.33333334 1050:0.33333334 1473:0.33333334 1646:0.33333334 1772:0.33333334 1779:0.33333334 2006:0.33333334 #
-0.59548245334707239351246244041249 1:0.40824831 31:0.40824831 1775:0.40824831 1779:0.40824831 1907:0.40824831 2035:0.40824831 #
-0.07465027741229013358292831981089 232:0.5 238:0.5 1004:0.5 1945:0.5 #
1.000000022514158093400737925549 86:0.25819889 91:0.25819889 364:0.25819889 374:0.25819889 666:0.51639777 707:0.25819889 863:0.25819889 966:0.25819889 1107:0.25819889 1317:0.25819889 1318:0.25819889 2308:0.25819889 #
1.000000022514158093400737925549 69:0.40824831 475:0.40824831 671:0.40824831 777:0.40824831 1346:0.40824831 2353:0.40824831 #
1.000000022514158093400737925549 789:0.70710677 2304:0.70710677 #
-0.61859908488940362758512492291629 68:0.5 132:0.5 1318:0.5 2260:0.5 #
-0.13182885005065347883146387175657 966:1 #
-0.7552837202023510165815878281137 1777:0.70710677 2243:0.70710677 #
-0.63173977772111211681504983062041 132:0.37796447 157:0.37796447 1576:0.37796447 1618:0.37796447 2309:0.37796447 2345:0.37796447 2813:0.37796447 #
-0.79723133941835699900479994539637 161:0.70710677 1337:0.70710677 #
1.000000022514158093400737925549 1779:1 #
1.000000022514158093400737925549 70:0.37796447 353:0.37796447 417:0.37796447 760:0.37796447 901:0.37796447 2250:0.37796447 2262:0.37796447 #
1.000000022514158093400737925549 13:0.35355338 548:0.35355338 584:0.35355338 624:0.35355338 647:0.35355338 749:0.35355338 1784:0.35355338 2285:0.35355338 #
1.000000022514158093400737925549 528:1 #
1.000000022514158093400737925549 2262:0.70710677 2396:0.70710677 #
-0.53392167512121946337799727189122 34:0.28867513 1029:0.28867513 1217:0.57735026 1784:0.28867513 2025:0.57735026 2120:0.28867513 #
1.000000022514158093400737925549 2345:1 #
-0.44691232179684736713909387617605 1781:1 #
-0.42307184988125223767951865738723 1196:1 #
-0.60765449857365883001847350897151 42:0.40824831 46:0.40824831 71:0.40824831 1202:0.40824831 1783:0.40824831 2778:0.40824831 #
-0.10084098287781556591014009427454 100:0.70710677 1228:0.70710677 #
-0.22157640693693203548519932155614 209:0.5 1193:0.5 1355:0.5 2848:0.5 #
1.000000022514158093400737925549 534:0.57735026 898:0.57735026 2332:0.57735026 #
1.000000022514158093400737925549 2375:1 #
-0.18570375821140117089669274719199 1095:1 #
-0.33496392422811971378848738822853 2001:0.70710677 2245:0.70710677 #
-0.021463981429563214892164424441034 32:0.28867513 965:0.28867513 1320:0.28867513 1371:0.57735026 1768:0.28867513 2037:0.28867513 2467:0.28867513 2552:0.28867513 2877:0.28867513 #
-0.17184548697604384859261017481913 230:1 #
-0.12321677445833957575960226904499 163:0.44721359 1076:0.89442718 #
1.000000022514158093400737925549 708:0.70710677 856:0.70710677 #
1.000000022514158093400737925549 761:0.70710677 2303:0.70710677 #
1.000000022514158093400737925549 439:0.70710677 1320:0.70710677 #
1.000000022514158093400737925549 881:0.70710677 2270:0.70710677 #
1.000000022514158093400737925549 2340:1 #
-0.87462349136568973140271054944606 1320:1 #
-0.034252213351504412486292494577356 2968:1 #
-1.000000022514158093400737925549 154:0.57735026 1041:0.57735026 1200:0.57735026 #
-0.26707976519996023956338149218936 2529:1 #
-0.48057071432426695656303650139307 151:0.37796447 163:0.37796447 181:0.37796447 303:0.37796447 2249:0.37796447 2844:0.37796447 2852:0.37796447 #
1.000000022514158093400737925549 84:0.57735026 859:0.57735026 2245:0.57735026 #
1.000000022514158093400737925549 569:0.70710677 734:0.70710677 #
1.000000022514158093400737925549 1349:0.70710677 2280:0.70710677 #
1.000000022514158093400737925549 390:1 #
-0.15103250487311123406719559625344 5:0.40824831 16:0.40824831 2098:0.40824831 2231:0.40824831 2393:0.40824831 2442:0.40824831 #
-0.37688183421481746826486869395012 1171:0.5 1479:0.5 2133:0.5 2295:0.5 #
-0.22368995796622867522351896241162 1174:0.70710677 1513:0.70710677 #
-0.063986401956439592497716262187168 29:0.57735026 1844:0.57735026 2245:0.57735026 #
-0.46442411212109890872312689680257 37:0.31622776 247:0.31622776 286:0.31622776 1007:0.31622776 2215:0.31622776 2353:0.31622776 2505:0.63245553 #
1.000000022514158093400737925549 774:0.57735026 1041:0.57735026 2339:0.57735026 #
1.000000022514158093400737925549 2400:1 #
-0.38228241802289791850810729556542 986:0.57735026 1302:0.57735026 2371:0.57735026 #
-0.60234937296421753316622016427573 262:0.5 1586:0.5 2253:0.5 2544:0.5 #
-0.079986439297817152338510027220764 6:0.33333334 963:0.33333334 1208:0.33333334 1598:0.66666669 1605:0.33333334 1620:0.33333334 #
-0.059073171354156496504206330655506 27:0.40824831 139:0.40824831 941:0.40824831 1112:0.40824831 1333:0.40824831 2615:0.40824831 #
-0.55605050445885173537874379690038 125:0.37796447 139:0.37796447 309:0.37796447 988:0.37796447 1737:0.37796447 1950:0.37796447 2251:0.37796447 #
1.000000022514158093400737925549 537:1 #
1.000000022514158093400737925549 1350:1 #
1.000000022514158093400737925549 399:0.57735026 552:0.57735026 2300:0.57735026 #
1.000000022514158093400737925549 763:0.70710677 1322:0.70710677 #
1.000000022514158093400737925549 76:1 #
-0.89873029402880910687656523805344 1322:1 #
-0.26762537080026638225405122284428 1807:1 #
-0.26682214761519817969315226946492 1696:1 #
-0.51959399298697284130810203350848 41:0.31622776 1273:0.31622776 1350:0.31622776 1780:0.31622776 1805:0.63245553 2031:0.31622776 2751:0.31622776 #
-0.22284433995720021037811875430634 2204:1 #
1.000000022514158093400737925549 767:0.5 2253:0.5 2346:0.5 2387:0.5 #
1.000000022514158093400737925549 424:1 #
1.000000022514158093400737925549 593:0.57735026 808:0.57735026 1036:0.57735026 #
1.000000022514158093400737925549 723:0.70710677 766:0.70710677 #
-0.81171249493744923597660090308636 22:0.5 144:0.5 1036:0.5 1965:0.5 #
-0.50747145830663675791782907253946 1036:0.30151135 1051:0.60302269 1308:0.30151135 1309:0.60302269 2194:0.30151135 #
-0.21600005928128482302064128361963 70:0.22941573 1452:0.22941573 1453:0.6882472 1552:0.45883146 1604:0.22941573 2259:0.22941573 2872:0.22941573 2984:0.22941573 #
-0.71507751684011855441980287650949 1319:1 #
-0.28985455392312120537212649651337 190:1 #
1.000000022514158093400737925549 718:0.5 1780:0.5 2289:0.5 2291:0.5 #
1.000000022514158093400737925549 10:0.15249857 27:0.15249857 41:0.15249857 60:0.15249857 154:0.15249857 254:0.15249857 256:0.15249857 258:0.15249857 358:0.15249857 379:0.15249857 416:0.15249857 418:0.30499715 455:0.15249857 472:0.15249857 487:0.15249857 493:0.15249857 506:0.15249857 530:0.15249857 546:0.15249857 563:0.15249857 572:0.15249857 573:0.15249857 591:0.15249857 645:0.15249857 721:0.15249857 727:0.15249857 735:0.15249857 949:0.15249857 1191:0.15249857 1318:0.30499715 1324:0.15249857 1328:0.15249857 1332:0.15249857 1518:0.15249857 1768:0.15249857 1784:0.15249857 2306:0.15249857 #
1.000000022514158093400737925549 2338:1 #
1.000000022514158093400737925549 542:1 #
-0.24659051991547392690407036752731 14:0.24253562 38:0.48507124 1129:0.24253562 1768:0.24253562 1784:0.24253562 1804:0.24253562 1995:0.24253562 2074:0.48507124 2124:0.24253562 2156:0.24253562 2815:0.24253562 #
-0.28505578902960709841707398481958 164:0.37796447 231:0.37796447 918:0.37796447 1184:0.37796447 1681:0.37796447 2289:0.37796447 2426:0.37796447 #
-0.14456039270658582740480824213591 38:1 #
1.000000022514158093400737925549 851:1 #
1.000000022514158093400737925549 451:0.89442718 481:0.44721359 #
1.000000022514158093400737925549 691:1 #
1.000000022514158093400737925549 2424:1 #
1.000000022514158093400737925549 2384:1 #
-0.29507910902612882741991029433848 1780:0.70710677 2199:0.70710677 #
-0.36409937279665099962855379089888 2228:0.70710677 2245:0.70710677 #
-0.12874910052895072176681878772797 1033:1 #
-0.024675618294341616909548520197859 2035:1 #
-0.0094112261009324793548103116336279 61:0.57735026 1245:0.57735026 1727:0.57735026 #
1.000000022514158093400737925549 737:0.70710677 871:0.70710677 #
1.000000022514158093400737925549 653:1 #
1.000000022514158093400737925549 2320:1 #
1.000000022514158093400737925549 419:0.5 870:0.5 1039:0.5 2287:0.5 #
-0.52207212912826361783658057902358 99:0.44721359 1240:0.44721359 2011:0.44721359 2237:0.44721359 2864:0.44721359 #
-0.10724277485929027686761827453665 294:0.37796447 1016:0.37796447 1285:0.37796447 1667:0.37796447 1866:0.37796447 2247:0.37796447 2441:0.37796447 #
-0.38762656744412776754771243759023 314:0.40824831 973:0.40824831 1105:0.40824831 1175:0.40824831 2246:0.40824831 2480:0.40824831 #
-0.25636363680618284854872968026029 118:0.44721359 967:0.44721359 972:0.44721359 1341:0.44721359 2969:0.44721359 #
-0.51392540311220180626605724683031 907:0.75592893 967:0.37796447 1328:0.37796447 2714:0.37796447 #
1.000000022514158093400737925549 101:0.57735026 440:0.57735026 448:0.57735026 #
1.000000022514158093400737925549 634:1 #
1.000000022514158093400737925549 714:0.70710677 844:0.70710677 #
1.000000022514158093400737925549 1338:1 #
1.000000022514158093400737925549 793:1 #
-0.64245224049524629617025084371562 14:0.40824831 205:0.40824831 224:0.40824831 918:0.40824831 1338:0.40824831 1874:0.40824831 #
-0.095632278864846348431782985244354 1250:0.70710677 2229:0.70710677 #
-0.25095832979969473486292486086313 54:0.70710677 2242:0.70710677 #
-0.46943004076184036144070432783337 257:0.30151135 285:0.30151135 913:0.60302269 942:0.30151135 1031:0.30151135 1411:0.30151135 2078:0.30151135 2621:0.30151135 #
-0.17577263105181428759493655888946 2233:1 #
1.000000022514158093400737925549 446:0.35355338 500:0.35355338 510:0.35355338 1328:0.70710677 2258:0.35355338 #
1.000000022514158093400737925549 700:0.57735026 2237:0.57735026 2284:0.57735026 #
1.000000022514158093400737925549 618:1 #
1.000000022514158093400737925549 720:0.70710677 2379:0.70710677 #
1.000000022514158093400737925549 553:0.70710677 869:0.70710677 #
-0.42136382985094278375015619531041 927:0.5 1388:0.5 2095:0.5 2257:0.5 #
-1.000000022514158093400737925549 1518:1 #
-0.92963462972693355901299128163373 107:0.35355338 254:0.35355338 929:0.35355338 1131:0.35355338 1657:0.35355338 2016:0.35355338 2824:0.35355338 2942:0.35355338 #
-0.26696961719077128005750410011387 1545:1 #
-0.035060407948242659770254903150999 1018:0.70710677 1518:0.70710677 #
1.000000022514158093400737925549 174:0.37796447 285:0.37796447 485:0.37796447 816:0.37796447 866:0.37796447 2249:0.37796447 2444:0.37796447 #
1.000000022514158093400737925549 75:1 #
1.000000022514158093400737925549 406:1 #
-0.81431828458137300863484142610105 1512:1 #
-0.081461132250381027009034085040184 1364:0.57735026 1512:0.57735026 1693:0.57735026 #
-0.14409076220822925051834317855537 154:0.44721359 1161:0.44721359 1283:0.44721359 1661:0.44721359 2259:0.44721359 #
-0.15872164886587503129788956357515 193:1 #
1.000000022514158093400737925549 375:0.33333334 690:0.33333334 862:0.33333334 872:0.33333334 954:0.33333334 1037:0.33333334 2257:0.33333334 2276:0.33333334 2430:0.33333334 #
1.000000022514158093400737925549 411:0.70710677 638:0.70710677 #
-0.38322277019364203720641626205179 2213:0.70710677 2445:0.70710677 #
-0.26694809166066513217430156146293 1472:1 #
-0.31060293616251111181725264032139 103:0.5 184:0.5 1166:0.5 2444:0.5 #
-1.000000022514158093400737925549 4:0.22941573 21:0.22941573 25:0.22941573 51:0.22941573 135:0.6882472 279:0.22941573 1246:0.22941573 1475:0.22941573 1771:0.22941573 2002:0.22941573 2629:0.22941573 #
-0.19122112098684931891234839440585 185:0.40824831 322:0.40824831 1122:0.40824831 1475:0.40824831 1697:0.40824831 2274:0.40824831 #
1.000000022514158093400737925549 678:0.57735026 719:0.57735026 1314:0.57735026 #
1.000000022514158093400737925549 2328:0.70710677 2404:0.70710677 #
1.000000022514158093400737925549 527:0.70710677 880:0.70710677 #
1.000000022514158093400737925549 731:0.70710677 2314:0.70710677 #
-0.34953838969958161975171151425457 27:0.35355338 200:0.35355338 220:0.35355338 943:0.35355338 1128:0.35355338 1314:0.35355338 2569:0.35355338 2880:0.35355338 #
-0.039586985249967676647742109707906 152:0.28867513 180:0.28867513 269:0.28867513 1113:0.28867513 1221:0.28867513 1906:0.28867513 2211:0.57735026 2221:0.28867513 2237:0.28867513 #
-0.36155675989129432146285125782015 216:0.31622776 230:0.31622776 275:0.31622776 911:0.31622776 964:0.31622776 1073:0.31622776 1180:0.31622776 1778:0.31622776 2116:0.31622776 2792:0.31622776 #
-0.055117021774751362439559443373582 216:0.2773501 1030:0.83205032 1294:0.2773501 1631:0.2773501 2392:0.2773501 #
-0.22119689459452324120647404015472 295:0.70710677 964:0.70710677 #
1.000000022514158093400737925549 135:0.44721359 564:0.44721359 1330:0.44721359 1337:0.44721359 2416:0.44721359 #
1.000000022514158093400737925549 253:0.5 957:0.5 1771:0.5 1772:0.5 #
1.000000022514158093400737925549 135:0.70710677 554:0.70710677 #
1.000000022514158093400737925549 1344:1 #
1.000000022514158093400737925549 394:0.70710677 885:0.70710677 #
-0.34561806029702368814326973733841 1771:1 #
-0.50231603477101716137553921726067 154:0.37796447 305:0.37796447 1771:0.37796447 1969:0.37796447 2135:0.37796447 2140:0.37796447 2384:0.37796447 #
1.000000022514158093400737925549 136:0.66666669 154:0.33333334 254:0.33333334 784:0.33333334 2236:0.33333334 2278:0.33333334 #
-0.012235938852075961894017019915282 117:0.13736056 1535:0.96152395 1750:0.13736056 1771:0.13736056 2882:0.13736056 #
-0.0061015406222843029948599280487542 32:0.33333334 236:0.33333334 265:0.33333334 1059:0.33333334 1275:0.33333334 1768:0.33333334 1960:0.33333334 2045:0.33333334 2230:0.33333334 #
1.000000022514158093400737925549 465:0.37796447 535:0.37796447 644:0.37796447 736:0.75592893 #
1.000000022514158093400737925549 677:0.70710677 2265:0.70710677 #
1.000000022514158093400737925549 79:0.70710677 342:0.70710677 #
1.000000022514158093400737925549 398:0.57735026 711:0.57735026 780:0.57735026 #
1.000000022514158093400737925549 359:0.57735026 434:0.57735026 540:0.57735026 #
-0.36124494843489940443248542578658 1293:0.57735026 1915:0.57735026 2440:0.57735026 #
-0.23312738095321372533419435058022 1353:0.5 1607:0.5 1644:0.5 2440:0.5 #
-0.11071345030963153366343476591283 924:0.70710677 993:0.70710677 #
-0.21069972024476368854806196395657 1005:1 #
-0.055545468716619694760083802975714 275:1 #
1.000000022514158093400737925549 589:0.5 657:0.5 1036:0.5 1783:0.5 #
1.000000022514158093400737925549 613:0.57735026 790:0.57735026 1035:0.57735026 #
1.000000022514158093400737925549 107:0.35355338 476:0.35355338 619:0.35355338 2310:0.70710677 2367:0.35355338 #
1.000000022514158093400737925549 662:0.89442718 1037:0.44721359 #
1.000000022514158093400737925549 539:0.44721359 693:0.44721359 883:0.44721359 2241:0.44721359 2327:0.44721359 #
-0.63795440521696977764776192998397 110:0.44721359 1035:0.44721359 1108:0.44721359 1773:0.44721359 2930:0.44721359 #
-0.26719028885613516077768281320459 147:0.70710677 2153:0.70710677 #
-0.20756448944066782646977742388117 203:0.70710677 2748:0.70710677 #
-0.1060580246918115254750603071443 1487:0.70710677 2120:0.70710677 #
-0.26703665299985701597762499659439 2091:1 #
1.000000022514158093400737925549 136:0.35355338 154:0.35355338 356:0.35355338 646:0.35355338 726:0.35355338 2252:0.35355338 2318:0.35355338 2437:0.35355338 #
1.000000022514158093400737925549 14:0.31622776 211:0.31622776 323:0.31622776 526:0.31622776 754:0.31622776 824:0.31622776 884:0.31622776 958:0.31622776 2383:0.31622776 2395:0.31622776 #
1.000000022514158093400737925549 873:0.57735026 875:0.57735026 1313:0.57735026 #
1.000000022514158093400737925549 428:0.5 829:0.5 2251:0.5 2355:0.5 #
-0.14031780417566075414015358546749 211:1 #
-0.26684561042197774138884369676816 1383:1 #
1.000000022514158093400737925549 217:0.44721359 497:0.44721359 601:0.44721359 1778:0.44721359 2441:0.44721359 #
1.000000022514158093400737925549 82:0.40824831 464:0.40824831 561:0.40824831 1776:0.40824831 2261:0.40824831 2266:0.40824831 #
1.000000022514158093400737925549 385:0.44721359 507:0.44721359 810:0.44721359 1314:0.44721359 2417:0.44721359 #
1.000000022514158093400737925549 713:0.44721359 762:0.44721359 773:0.44721359 2239:0.44721359 2390:0.44721359 #
-0.8789171678260396802784271130804 14:0.5 232:0.5 997:0.5 1348:0.5 #
-0.12943506095061846350446899123199 1660:1 #
-0.26680580359448913263520353211788 2921:1 #
-0.043812569564920661457918527048605 262:0.33333334 1251:0.33333334 1354:0.33333334 1837:0.33333334 2196:0.33333334 2197:0.66666669 #
-0.26698764155026094568867733869411 935:0.89442718 1672:0.44721359 #
1.000000022514158093400737925549 73:0.57735026 1335:0.57735026 2273:0.57735026 #
1.000000022514158093400737925549 969:0.70710677 1336:0.70710677 #
1.000000022514158093400737925549 331:0.30151135 407:0.30151135 498:0.30151135 541:0.30151135 799:0.30151135 949:0.30151135 2263:0.60302269 2326:0.30151135 #
1.000000022514158093400737925549 633:0.57735026 825:0.57735026 1345:0.57735026 #
-0.020585610481393845638820039312122 268:0.70710677 969:0.70710677 #
-0.03320407665848134487474041520727 241:0.44721359 1044:0.44721359 1816:0.44721359 1997:0.44721359 2646:0.44721359 #
-0.11484632702016998873073561071578 969:0.57735026 1024:0.57735026 2889:0.57735026 #
-0.21705368618115294943038406927371 1006:1 #
1.000000022514158093400737925549 532:0.44721359 1326:0.44721359 1342:0.44721359 2255:0.44721359 2297:0.44721359 #
1.000000022514158093400737925549 60:0.57735026 775:0.57735026 1323:0.57735026 #
1.000000022514158093400737925549 90:0.70710677 753:0.70710677 #
1.000000022514158093400737925549 10:0.25 429:0.25 1348:0.25 2307:0.25 2316:0.25 2323:0.75 2419:0.25 2422:0.25 #
-0.60140480122469264223639129340881 70:0.40824831 100:0.40824831 199:0.40824831 1943:0.40824831 2255:0.40824831 2397:0.40824831 #
-0.18592324129486770267760675778845 1509:1 #
-0.26650236922192349631188790226588 2532:1 #
-0.15550348855369131029213747297035 1708:0.70710677 1842:0.70710677 #
-0.169230862949010657514392619305 37:0.70710677 2712:0.70710677 #
1.000000022514158093400737925549 210:0.5 393:0.5 681:0.5 2333:0.5 #
1.000000022514158093400737925549 80:0.28867513 323:0.28867513 594:0.28867513 631:0.28867513 698:0.28867513 757:0.28867513 807:0.28867513 962:0.28867513 967:0.28867513 1040:0.28867513 2243:0.28867513 2407:0.28867513 #
1.000000022514158093400737925549 650:0.35355338 659:0.70710677 1324:0.35355338 2230:0.35355338 2382:0.35355338 #
-0.15107558714104266095468176445138 962:0.70710677 1311:0.70710677 #
-0.14964139312856072905333348899148 962:0.70710677 2062:0.70710677 #
-0.010881293457709044492087713251749 962:0.70710677 1419:0.70710677 #
-0.11626020489674060431894986322732 962:0.70710677 1700:0.70710677 #
-1.000000022514158093400737925549 967:0.5 1344:0.5 1777:0.5 2450:0.5 #
1.000000022514158093400737925549 436:0.40824831 517:0.40824831 1315:0.40824831 1318:0.40824831 2239:0.40824831 2282:0.40824831 #
1.000000022514158093400737925549 107:0.57735026 286:0.57735026 2238:0.57735026 #
-1.000000022514158093400737925549 6:0.37796447 254:0.37796447 1077:0.37796447 2238:0.75592893 #
-0.3682383709741444688390288320079 1315:0.70710677 2805:0.70710677 #
-0.7489849638415236876554104128445 108:0.5 908:0.5 1318:0.5 1630:0.5 #
-0.72428001077681614106040797196329 21:0.21320072 108:0.21320072 210:0.42640144 269:0.21320072 1023:0.21320072 1165:0.21320072 1317:0.42640144 1591:0.21320072 1592:0.21320072 1619:0.21320072 1793:0.21320072 2021:0.21320072 2202:0.21320072 2230:0.21320072 2527:0.21320072 2775:0.21320072 #
-0.14981186447598882072185233482742 8:0.23570226 149:0.23570226 156:0.23570226 179:0.23570226 939:0.23570226 1010:0.23570226 1281:0.47140452 1324:0.23570226 1757:0.23570226 1961:0.23570226 2854:0.47140452 2951:0.23570226 #
1.000000022514158093400737925549 10:0.37796447 456:0.37796447 488:0.37796447 729:0.37796447 771:0.37796447 962:0.37796447 963:0.37796447 #
1.000000022514158093400737925549 288:0.57735026 557:0.57735026 656:0.57735026 #
-0.55226757605804854822650895584957 52:0.31622776 288:0.31622776 1014:0.31622776 1101:0.31622776 1430:0.31622776 1831:0.63245553 2029:0.31622776 #
-0.5427434151025080089070229405479 134:0.5 1329:0.5 2162:0.5 2325:0.5 #
-0.21443499490991738132272814709722 1785:0.57735026 1887:0.57735026 2243:0.57735026 #
-0.90045815019160690972910288110143 1511:1 #
1.000000022514158093400737925549 252:1 #
1.000000022514158093400737925549 947:0.5 1038:0.5 2322:0.5 2335:0.5 #
-0.3277993030671187968394519884896 1775:0.70710677 2797:0.70710677 #
-0.15817540127746598788149867687025 1617:1 #
-0.15785328512611851436986398766749 1063:1 #
-0.26768846245748489920401880226564 1043:1 #
-0.10918596010099979043417306456831 67:1 #
1.000000022514158093400737925549 441:0.57735026 1350:0.57735026 2247:0.57735026 #
1.000000022514158093400737925549 95:0.44721359 213:0.44721359 832:0.44721359 855:0.44721359 1334:0.44721359 #
1.000000022514158093400737925549 60:0.44721359 401:0.44721359 512:0.44721359 580:0.44721359 2409:0.44721359 #
1.000000022514158093400737925549 101:0.37796447 209:0.37796447 409:0.37796447 578:0.37796447 759:0.37796447 1324:0.37796447 2414:0.37796447 #
-0.24561657299033659573872512282833 1135:0.5 1392:0.5 2414:0.5 2545:0.5 #
-1.000000022514158093400737925549 60:0.44721359 61:0.44721359 154:0.44721359 1054:0.44721359 1891:0.44721359 #
-0.41623312818719437888859147278708 168:0.57735026 1007:0.57735026 1334:0.57735026 #
-0.12230151271156219916491636467981 1404:1 #
-0.19935075196331164537610902698361 23:1 #
1.000000022514158093400737925549 77:0.44721359 389:0.44721359 608:0.44721359 694:0.44721359 1314:0.44721359 #
-0.94996328494342840986774945122306 254:0.5 1470:0.5 1779:0.5 2587:0.5 #
-0.80508430102229111557932128562243 69:0.28867513 196:0.28867513 254:0.57735026 931:0.28867513 1345:0.28867513 2247:0.28867513 2441:0.28867513 2839:0.28867513 2853:0.28867513 #
-0.2670766960884443097512530584936 146:1 #
-0.2672383241790026175976890954189 2149:1 #
-0.26695602555048336679277554139844 1204:1 #
1.000000022514158093400737925549 12:0.40824831 217:0.40824831 370:0.40824831 683:0.40824831 725:0.40824831 2405:0.40824831 #
-0.15780496206421112947992924091523 1641:0.70710677 2895:0.70710677 #
-0.1493944067487913973657498445391 2895:1 #
-0.26730292896865581742105177909252 2596:1 #
-0.17757988929714629833256367419381 1059:0.70710677 1244:0.70710677 #
0.78044122709763397160998010804178 10:0.30151135 414:0.30151135 524:0.30151135 597:0.30151135 651:0.30151135 796:0.30151135 801:0.30151135 819:0.30151135 877:0.30151135 1778:0.30151135 2432:0.30151135 #
0.92629903157720794304452738288091 45:0.17960531 82:0.17960531 210:0.35921061 256:0.17960531 257:0.17960531 323:0.17960531 348:0.17960531 404:0.17960531 423:0.17960531 571:0.35921061 695:0.17960531 699:0.17960531 755:0.17960531 776:0.17960531 1189:0.17960531 1313:0.17960531 1351:0.17960531 1510:0.17960531 1512:0.17960531 1767:0.17960531 2231:0.17960531 2241:0.17960531 2256:0.17960531 2374:0.17960531 2401:0.17960531 #
-1.000000022514158093400737925549 5:0.5 31:0.5 217:0.5 1339:0.5 #
-0.53285068593220130672705181495985 31:0.70710677 2319:0.70710677 #
-0.38138786308295213878238882898586 209:0.44721359 1455:0.44721359 1769:0.44721359 2327:0.44721359 2956:0.44721359 #
1.000000022514158093400737925549 189:0.5 1344:0.5 1777:0.5 2246:0.5 #
1.000000022514158093400737925549 91:0.57735026 2264:0.57735026 2388:0.57735026 #
1.000000022514158093400737925549 468:0.57735026 951:0.57735026 1039:0.57735026 #
1.000000022514158093400737925549 94:0.23570226 100:0.23570226 357:0.23570226 363:0.23570226 397:0.23570226 402:0.23570226 577:0.23570226 652:0.23570226 663:0.23570226 818:0.47140452 889:0.23570226 946:0.23570226 1192:0.23570226 1350:0.23570226 2241:0.23570226 #
1.000000022514158093400737925549 850:0.40824831 960:0.40824831 1339:0.40824831 1348:0.40824831 1778:0.40824831 2238:0.40824831 #
-1.000000022514158093400737925549 45:0.70710677 1037:0.70710677 #
-0.59641119348977023051361356920097 28:0.57735026 2145:0.57735026 2284:0.57735026 #
-0.45765888356266271053129912615987 28:0.57735026 123:0.57735026 2387:0.57735026 #
-0.41620705224699922064601764759573 45:0.57735026 245:0.57735026 2261:0.57735026 #
-0.78162861706522468452362772950437 27:0.085749291 31:0.085749291 55:0.085749291 70:0.25724787 138:0.085749291 170:0.085749291 202:0.60024506 244:0.085749291 282:0.085749291 1159:0.085749291 1263:0.085749291 1350:0.51449573 1655:0.25724787 1698:0.085749291 1780:0.085749291 1805:0.17149858 1840:0.085749291 1912:0.085749291 2031:0.17149858 2241:0.17149858 2484:0.17149858 2502:0.17149858 #
1.000000022514158093400737925549 452:0.33333334 491:0.33333334 509:0.33333334 549:0.33333334 954:0.33333334 1324:0.33333334 1340:0.33333334 2248:0.33333334 2299:0.33333334 #
1.000000022514158093400737925549 74:0.40824831 826:0.40824831 956:0.40824831 1325:0.40824831 2241:0.40824831 2410:0.40824831 #
1.000000022514158093400737925549 188:0.44721359 544:0.44721359 648:0.44721359 697:0.44721359 2265:0.44721359 #
-0.043280783159156233086406473375973 1724:0.70710677 2154:0.70710677 #
-0.18240470488115570479870086728624 164:0.57735026 996:0.57735026 1723:0.57735026 #
0.75322209453501354214921548191342 10:0.26726124 96:0.26726124 209:0.26726124 210:0.26726124 213:0.26726124 831:0.26726124 835:0.26726124 839:0.26726124 2357:0.26726124 2359:0.53452247 2360:0.26726124 #
0.44346051414969184234493582152936 10:0.66666669 492:0.33333334 803:0.33333334 1510:0.33333334 2272:0.33333334 2329:0.33333334 #
-0.8728730747542789991655354242539 20:0.57735026 1107:0.57735026 2303:0.57735026 #
-0.2570672609331122737685859647172 1440:0.70710677 1510:0.70710677 #
-0.22574432841655661663438081632194 53:0.70710677 1642:0.70710677 #
-0.23297161457467732703641161151609 1192:0.70710677 1665:0.70710677 #
0.84701113973098807186090652976418 107:0.44721359 217:0.44721359 518:0.44721359 519:0.44721359 840:0.44721359 #
1.000000022514158093400737925549 92:0.40824831 403:0.40824831 1039:0.81649661 #
-1.000000022514158093400737925549 41:0.57735026 1084:0.57735026 2239:0.57735026 #
-0.50339074836543717950121390458662 1405:0.70710677 2299:0.70710677 #
-0.71433818730953690945284506597091 58:0.57735026 1979:0.57735026 2250:0.57735026 #
-0.020780624513138334918949112761766 173:0.57735026 1189:0.57735026 1895:0.57735026 #
-0.98463559471967765368560776551021 15:0.40824831 157:0.40824831 258:0.40824831 1039:0.40824831 1052:0.40824831 1446:0.40824831 #
-0.33134005832988955297935262933606 221:0.5 321:0.5 1764:0.5 2276:0.5 #
-0.50448004130304258119110727420775 16:0.70710677 2390:0.70710677 #
-0.18214570219454553900995108506322 193:0.57735026 214:0.57735026 1947:0.57735026 #
-0.16595235462565971484849569606013 1186:0.57735026 2909:0.57735026 2967:0.57735026 #
-0.25452192513697180498155603345367 1913:0.57735026 2167:0.57735026 2939:0.57735026 #
-0.095540742567651770755787765665445 275:1 #
-0.25516977922437245052122989363852 1113:1 #
-0.50938552332200726091571141296299 154:0.40824831 279:0.40824831 1283:0.40824831 1314:0.40824831 2571:0.40824831 2896:0.40824831 #
-0.13761635702716173978998881466396 112:0.40824831 186:0.81649661 2094:0.40824831 #
-0.26706569814943026397457970233518 1761:1 #
-0.2669542567291359191905542047607 1212:0.70710677 2781:0.70710677 #
-0.26666024258256071366446349202306 2581:1 #
-0.26716497949199402572872941163951 1791:1 #
-0.21432146820803754661000084524858 2109:1 #
-0.22081071032156224243081510394404 1997:0.70710677 2646:0.70710677 #
-0.26692296425483119648447427607607 280:1 #
-0.26745664128894475197739666327834 2070:1 #
-0.1575667495946752594271345060406 1926:0.70710677 2964:0.70710677 #
-0.26700636635814889441320474361419 1307:1 #
-0.26691883617589340360609639901668 2015:1 #
-0.14987850017527382107118683052249 1183:0.57735026 1289:0.57735026 1753:0.57735026 #
-0.34780539955036016142031485287589 1009:0.37796447 1323:0.37796447 2076:0.37796447 2130:0.37796447 2159:0.37796447 2185:0.37796447 2860:0.37796447 #
-0.14943784919652308706972121399303 284:0.70710677 1506:0.70710677 #
-0.26744088354765394033307757126749 1232:1 #
-0.22066354878760849334007332345209 1161:0.70710677 1610:0.70710677 #
-0.17899699896918397357126195856836 1477:0.5 1481:0.5 1561:0.5 2687:0.5 #
-0.26691299005908863950509157803026 1360:1 #
-0.26691299005908863950509157803026 1812:1 #
-0.26717253550912622994673029097612 2112:1 #
-0.26717254867953488250975624396233 1575:0.70710677 2998:0.70710677 #
-0.26717254867953488250975624396233 2601:0.70710677 2901:0.70710677 #
-0.17877910117864037609081151458668 171:0.5 1843:0.5 2468:0.5 2566:0.5 #
-0.0022557988176512299739739919601789 41:0.57735026 1518:0.57735026 2235:0.57735026 #
-0.26744198355926984689290293317754 2990:1 #
-0.26744198355926984689290293317754 1417:1 #
-0.26680803340245007326814175030449 1069:1 #
-0.19733606122324090503816762520728 150:0.57735026 922:0.57735026 1032:0.57735026 #
-0.14189539561221825580972222269338 26:0.57735026 1352:0.57735026 2466:0.57735026 #
-0.14189539561221825580972222269338 26:0.57735026 1922:0.57735026 2535:0.57735026 #
-0.26739742628686602454735066203284 1815:1 #
-0.2675782568538421779535951827711 2205:0.70710677 2530:0.70710677 #
-0.18330400195228335746833181474358 187:0.5 1578:0.5 2550:0.5 2594:0.5 #
-0.26764781489894035049204035203729 311:0.70710677 1600:0.70710677 #
-0.060612237799553353445602965621219 197:0.33333334 1008:0.33333334 1163:0.66666669 1412:0.33333334 1941:0.33333334 2061:0.33333334 #
-0.26762537080026638225405122284428 1020:1 #
-0.26714608079898916059846669668332 1422:0.70710677 1717:0.70710677 #
-0.25673868966881291386883390259754 1702:0.70710677 1993:0.70710677 #
-0.26689666061433880983599920000415 995:1 #
-0.26689666061433880983599920000415 1954:1 #
-0.15827472199228756477573654137814 1744:0.70710677 2830:0.70710677 #
-0.04378178198535331855367758180364 111:1 #
-0.26712085077713687564227029724861 1731:1 #
-0.26731734665890755087147567792272 2789:0.70710677 2893:0.70710677 #
-0.24439681435442811574532129270665 1743:0.70710677 2071:0.70710677 #
-0.2225739562074495747623359420686 1103:1 #
-0.076507261066308174246586304434459 1057:0.40824831 1457:0.81649661 1743:0.40824831 #
-0.26707976519996023956338149218936 251:1 #
-0.26665215673397368867370005318662 140:1 #
-0.26719319865598423202612821114599 1601:1 #
-0.26554663339282125189555472388747 1690:0.70710677 1729:0.70710677 #
-0.24200866143568741661873389148241 910:0.70710677 1382:0.70710677 #
-0.26174096712009664589260182765429 2501:1 #
-0.26705556279146602793872489201021 1687:1 #
-0.26685127641830708178360964666354 131:1 #
-0.26685127641830708178360964666354 1099:1 #
-0.26705557199098056697650349633477 1403:0.70710677 1855:0.70710677 #
-0.26785672213205435898686346263275 2030:1 #
-0.017735388256627793168718199012801 936:1 #
-0.11736044168571539703105344187861 1694:0.70710677 2922:0.70710677 #
-0.23637847098707165383046913120779 1724:1 #
-0.15795759106184770192982114167535 1708:1 #
-0.26744198355926984689290293317754 2785:1 #
-0.26694344930323665732174731601845 263:0.70710677 1045:0.70710677 #
-0.24282412078967607893531521767727 312:1 #
-0.24866082488641358394509950358042 271:0.70710677 1585:0.70710677 #
-0.26694344930323665732174731601845 1254:0.70710677 1626:0.70710677 #
-0.15417568312136570307657734701934 1270:0.70710677 1663:0.70710677 #
-0.26704410433798375645864098260063 1666:1 #
-0.26682214761519817969315226946492 1454:1 #
-0.19450731872024135116205911799625 983:0.37796447 1554:0.75592893 1923:0.37796447 2469:0.37796447 #
-0.15813349434698290019163380293321 1379:0.70710677 1562:0.70710677 #
-0.15814160753920059043764467787696 145:0.70710677 1624:0.70710677 #
-0.26707970349518150854351006273646 1859:1 #
-0.17281506581239425290874578422518 1168:0.44721359 1658:0.44721359 1736:0.44721359 2005:0.44721359 2311:0.44721359 #
-0.19130396363868562570331732786144 1089:0.5 1297:0.5 1735:0.5 1932:0.5 #
-0.26684809746854509793223542146734 1260:1 #
-0.26697800263981563695381282741437 1456:1 #
-0.21112697463417179344347118785663 1049:0.70710677 1437:0.70710677 #
-0.24410461240558867235250772864674 1606:0.70710677 1854:0.70710677 #
-0.2231986954003977452476448206653 1975:0.70710677 2057:0.70710677 #
-0.26707976519996023956338149218936 2717:1 #
-0.13438554745567382608939510646451 317:0.70710677 1713:0.70710677 #
-0.20588833016577873236130358236551 1279:0.70710677 1284:0.70710677 #
-0.26744088354765394033307757126749 1249:1 #
-0.26719764279835656051176329128793 1356:1 #
-0.20399994068040108730066606312903 1083:0.70710677 1734:0.70710677 #
-0.26731733753477449067048610231723 1571:1 #
-0.14638780977617871226215129354387 1455:0.70710677 2148:0.70710677 #
-0.26696961719077128005750410011387 1929:1 #
-0.077740105240691331767166616373288 1019:1 #
-0.26708811282447408874674010803574 2008:1 #
-0.26713327656427410250472576080938 1857:1 #
-0.14412695961506483133263145646197 1173:1 #
-0.1845707978376951441390474428772 1931:1 #
-0.18471366837177410902270935366687 1931:0.44721359 2496:0.89442718 #
-0.011629614102503241929165156420822 37:0.57735026 247:0.57735026 2493:0.57735026 #
-0.2668523830762374871028441702947 1938:1 #
-0.26719976572226800115572586946655 2107:0.70710677 2788:0.70710677 #
-0.26706438656272513121336942276685 2979:1 #
-0.26677505751757168983573365039774 930:1 #
-0.0021655727346898689944509897031821 1246:1 #
-0.26677505751757168983573365039774 1444:1 #
-0.26684922079436490527371006464818 1572:1 #
-0.15618659790084499228157710604137 1400:1 #
-0.26694344008051640315670738345943 934:1 #
-0.26731471765857522937537282814446 1705:0.70710677 2985:0.70710677 #
-0.19881888004655023927114143589279 1141:1 #
-0.54182482178273150275060743297217 137:0.37796447 282:0.37796447 941:0.37796447 965:0.37796447 1699:0.37796447 2241:0.37796447 2647:0.37796447 #
-0.012413675359951414911563460918842 1777:1 #
-0.25753502520456572622009616679861 287:0.70710677 2000:0.70710677 #
-0.61832965181291044132194656413049 204:0.44721359 254:0.44721359 1236:0.44721359 1779:0.44721359 2940:0.44721359 #
-0.80283526901845192469409084878862 41:0.5 1191:0.5 1199:0.5 1798:0.5 #
1.000000022514158093400737925549 1349:1 #
0.99046945523817220280449191704975 76:0.5 660:0.5 1342:0.5 2255:0.5 #
0.79685067884185234454719193308847 98:0.40824831 288:0.40824831 450:0.40824831 743:0.40824831 828:0.40824831 847:0.40824831 #
-0.26663908017797632865608647989575 1544:0.70710677 2920:0.70710677 #
-0.26663907124521213365397898087394 126:1 #
-0.26663907124521213365397898087394 1934:1 #
-0.23696393965940582004847669850278 59:0.70710677 1002:0.70710677 #
-0.23737032652260664500332154602802 59:0.70710677 1296:0.70710677 #
-1.000000022514158093400737925549 45:0.33333334 231:0.33333334 962:0.66666669 1012:0.33333334 2248:0.33333334 2400:0.33333334 #
-0.56883380281072259965213788746041 18:0.30151135 967:0.60302269 1194:0.30151135 1211:0.30151135 1313:0.30151135 1581:0.30151135 1659:0.30151135 2801:0.30151135 #
-0.72528128527764623711959757201839 1:0.22941573 61:0.22941573 99:0.22941573 169:0.22941573 254:0.22941573 323:0.22941573 1000:0.22941573 1010:0.22941573 1512:0.45883146 1654:0.45883146 2448:0.22941573 2504:0.22941573 2734:0.22941573 #
1.000000022514158093400737925549 15:0.5 253:0.5 952:0.5 1324:0.5 #
-0.51276158349015177329022208141396 69:0.33333334 195:0.33333334 206:0.33333334 209:0.33333334 227:0.33333334 1292:0.33333334 1426:0.33333334 2265:0.33333334 2667:0.33333334 #
-0.29696536568644321674170782898727 52:0.33333334 121:0.33333334 145:0.33333334 256:0.33333334 1354:0.33333334 1599:0.33333334 2610:0.33333334 2733:0.33333334 2794:0.33333334 #
-0.10415368900859806045033906229946 13:0.42857143 60:0.14285715 66:0.14285715 173:0.14285715 175:0.42857143 188:0.2857143 212:0.14285715 267:0.14285715 273:0.14285715 284:0.14285715 305:0.14285715 321:0.14285715 921:0.2857143 1021:0.14285715 1038:0.14285715 1149:0.14285715 1173:0.14285715 1178:0.14285715 1317:0.2857143 1320:0.14285715 1534:0.14285715 1778:0.14285715 1993:0.14285715 2767:0.14285715 #
-0.43735008156221327757506855959946 104:0.40824831 216:0.40824831 1040:0.40824831 1180:0.40824831 1398:0.40824831 2768:0.40824831 #
-0.22447182509754226575893198969425 2007:1 #
0.72802747752614793697034656361211 28:0.35355338 135:0.35355338 323:0.35355338 380:0.35355338 521:0.70710677 #
-0.26720340430300304479516171340947 2628:1 #
-0.12793861795177668971845719170233 99:0.37796447 1034:0.37796447 1364:0.37796447 1460:0.37796447 2046:0.37796447 2196:0.37796447 2330:0.37796447 #
-0.47510978180545909710374985479575 1518:0.5 1712:0.5 2416:0.5 2857:0.5 #
-0.82388531132328068906645057722926 116:0.37796447 971:0.37796447 1047:0.37796447 1090:0.37796447 1324:0.37796447 1494:0.37796447 1518:0.37796447 #
-0.14233183095301826792677957200794 11:0.21320072 14:0.21320072 16:0.21320072 29:0.21320072 31:0.21320072 254:0.21320072 306:0.21320072 316:0.63960212 323:0.21320072 1297:0.21320072 1394:0.21320072 2136:0.21320072 2558:0.21320072 2978:0.21320072 #
-0.26701839978758468152619798274827 1850:1 #
-0.26701840895137268772074889966461 1751:0.70710677 1990:0.70710677 #
0.6438533176692456949652410003182 60:1 #
1.000000022514158093400737925549 75:0.57735026 1191:0.57735026 1776:0.57735026 #
-0.26666024258256071366446349202306 2567:1 #
-0.15289860107380576215163614506309 923:0.70710677 1880:0.70710677 #
-0.26666024258256071366446349202306 2518:1 #
-0.26489374010671984382980781447259 1613:1 #
0.66142818317554641360800360416761 31:0.2 323:0.40000001 400:0.40000001 482:0.2 505:0.2 637:0.40000001 674:0.2 1040:0.40000001 1334:0.40000001 2228:0.2 #
-0.089732105308263587772898972616531 142:1 #
-0.26780282814515166123214839899447 1365:1 #
-0.26780283665166360052012350934092 1261:0.70710677 2777:0.70710677 #
-0.26492750040233392638810983044095 1064:1 #
0.43518750157389618493652960751206 210:0.70710677 1338:0.70710677 #
0.53046746113593346017012208903907 101:0.44721359 189:0.44721359 2248:0.44721359 2261:0.44721359 2343:0.44721359 #
-0.26713625006520025362277692693169 2856:1 #
-0.26681186436494463976032420760021 2900:1 #
-0.15559002875834446188996196269727 1689:0.70710677 2745:0.70710677 #
-0.15774598410291684746908913439256 2745:1 #
-0.090124324636609728922387319016707 1138:0.70710677 2855:0.70710677 #
-0.26685733565205449480117749772035 2835:1 #
-0.26685733565205449480117749772035 1936:1 #
-0.26672320732300353052224295424821 1662:0.57735026 1946:0.57735026 2833:0.57735026 #
-0.26672320689200607057856018400344 1551:0.70710677 2653:0.70710677 #
0.42769034798719263168464976843097 10:0.57735026 661:0.57735026 2402:0.57735026 #
0.40558824381416436199998543088441 9:0.40824831 10:0.40824831 12:0.40824831 346:0.40824831 746:0.40824831 948:0.40824831 #
-0.35501474492738610555520040179545 57:0.40824831 153:0.40824831 254:0.40824831 940:0.40824831 1135:0.40824831 1776:0.40824831 #
-0.51557333466905641561339734835201 27:0.20412415 138:0.20412415 150:0.20412415 154:0.20412415 199:0.20412415 254:0.20412415 269:0.20412415 1094:0.20412415 1197:0.40824831 1335:0.20412415 1346:0.20412415 1351:0.20412415 1783:0.20412415 2233:0.20412415 2239:0.20412415 2272:0.40824831 2690:0.20412415 2943:0.20412415 #
-1.000000022514158093400737925549 153:0.5 154:0.5 167:0.5 210:0.5 #
-0.10833301675154938248368807762745 254:1 #
-1.000000022514158093400737925549 13:0.25 30:0.25 31:0.25 39:0.25 41:0.25 52:0.25 70:0.25 323:0.25 1138:0.25 1478:0.25 1509:0.25 1722:0.25 1772:0.25 1778:0.25 2190:0.25 2612:0.25 #
-0.59395207272350791782855594647117 122:1 #
-0.42518768488129110583173542181612 26:0.31622776 114:0.31622776 1192:0.31622776 1300:0.31622776 1336:0.31622776 1598:0.31622776 1605:0.31622776 1673:0.31622776 1679:0.31622776 2242:0.31622776 #
-0.039886850661623993175020075341308 943:0.70710677 2220:0.70710677 #
0.66702757294972003787592029766529 210:0.57735026 288:0.57735026 447:0.57735026 #
-0.74425987503470780737302447960246 61:0.80178374 1776:0.26726124 2443:0.53452247 #
-0.3822909469298455542585202238115 1594:0.5 2229:0.5 2382:0.5 2875:0.5 #
-0.26689534715245311069509170920355 1505:1 #
-0.21623127963499036430228272820386 1432:0.57735026 1999:0.57735026 2851:0.57735026 #
0.50416723786946049390422786018462 285:0.40824831 323:0.40824831 382:0.40824831 579:0.40824831 704:0.40824831 2292:0.40824831 #
-0.44912058117650666133613412966952 2:0.39223227 3:0.19611613 6:0.19611613 106:0.19611613 119:0.19611613 254:0.39223227 323:0.19611613 1102:0.19611613 1132:0.39223227 1143:0.19611613 1195:0.19611613 1282:0.19611613 1550:0.19611613 2232:0.19611613 2243:0.19611613 2245:0.19611613 2976:0.19611613 #
-0.22710574356287049901936825335724 2950:1 #
-0.26698260573020815566991359446547 1916:1 #
0.50967829006039189199128713880782 60:0.31622776 256:0.31622776 599:0.63245553 1313:0.31622776 1329:0.31622776 1351:0.31622776 1778:0.31622776 #
-0.26707057759705288280116519672447 2689:1 #
-0.26707057759705288280116519672447 1046:1 #
-0.17858857476476119874320147573599 2779:1 #
-0.26783640945899123142481812465121 2634:1 #
-0.26707976519996023956338149218936 1485:1 #
0.98174594802142101102049309702124 100:0.57735026 323:0.57735026 341:0.57735026 #
-0.26719027955816765373953103335225 1872:1 #
-0.26703050525125604508502874523401 1146:1 #
-0.26703050525125604508502874523401 1649:1 #
-0.26706438656272513121336942276685 2834:1 #
-0.34059823838093383763236943195807 159:0.70710677 1770:0.70710677 #
-1.000000022514158093400737925549 10:0.17747129 28:0.088735647 29:0.088735647 37:0.088735647 41:0.088735647 45:0.17747129 61:0.088735647 142:0.17747129 174:0.088735647 194:0.088735647 211:0.26620695 212:0.088735647 217:0.17747129 223:0.17747129 258:0.17747129 276:0.17747129 286:0.088735647 301:0.088735647 308:0.088735647 316:0.088735647 909:0.088735647 937:0.17747129 963:0.088735647 967:0.17747129 1056:0.088735647 1071:0.17747129 1106:0.26620695 1107:0.088735647 1186:0.088735647 1189:0.088735647 1190:0.17747129 1278:0.17747129 1288:0.088735647 1306:0.088735647 1324:0.17747129 1399:0.088735647 1410:0.088735647 1508:0.088735647 1510:0.17747129 1513:0.088735647 1516:0.088735647 1519:0.088735647 1692:0.088735647 1728:0.088735647 1770:0.17747129 1933:0.088735647 2021:0.088735647 2242:0.088735647 2258:0.088735647 2264:0.17747129 2348:0.088735647 2524:0.17747129 2571:0.088735647 2769:0.088735647 2804:0.088735647 2807:0.088735647 2923:0.17747129 #
-0.37671757504922975812178265186958 17:0.40824831 100:0.40824831 148:0.40824831 1101:0.40824831 1327:0.40824831 2649:0.40824831 #
-0.26720444899884387979227540199645 1237:0.70710677 1651:0.70710677 #
-0.26703235593715535234338176451274 62:1 #
-0.19826656850297169620844783821667 905:0.57735026 1061:0.57735026 2962:0.57735026 #
-0.26677367021506559474630648765014 1219:1 #
0.47871582209890650716488380567171 60:0.37796447 217:0.37796447 286:0.37796447 502:0.37796447 1036:0.37796447 2348:0.37796447 2431:0.37796447 #
-0.17277740359231508193715853849426 143:1 #
-0.26682129117845754251447942806408 1239:0.70710677 2917:0.70710677 #
-0.14800210168738517357844841626502 989:0.70710677 1828:0.70710677 #
-0.163175005964603575536742141594 928:0.70710677 2937:0.70710677 #
-0.26762537080026638225405122284428 2161:1 #
-0.26719636506841937251266472230782 1766:1 #
-0.040408776065395585197492778206652 208:0.81649661 1248:0.40824831 2049:0.40824831 #
-0.2671536620576832055107274754846 916:1 #
-0.26715367123151767536626266519306 1833:0.70710677 2105:0.70710677 #
-0.24990689198224352862709451983392 2056:0.40824831 2902:0.40824831 2952:0.81649661 #
-0.12551496616677182416310643020552 172:1 #
-0.092659798747951008235368419718725 248:0.57735026 2096:0.57735026 2746:0.57735026 #
-0.26763798948457473425577290981892 987:1 #
-0.26710668902290130022336711590469 1825:0.70710677 1955:0.70710677 #
-0.26710749321028759428742205273011 2685:1 #
-0.26716497949199402572872941163951 2741:1 #
-0.26707057759705288280116519672447 1830:1 #
-0.23004679837963026844960268135765 1111:1 #
-0.26707057759705288280116519672447 1582:1 #
-0.26707057759705288280116519672447 2607:1 #
-0.21043023958782067217576638995524 985:0.57735026 2958:0.57735026 2966:0.57735026 #
-0.26692297257000957566575038981682 1899:0.70710677 2589:0.70710677 #
-0.26692297257000957566575038981682 2620:0.70710677 2716:0.70710677 #
-0.21554603813429606962159823524416 176:0.70710677 293:0.70710677 #
-0.26685128549386616381156045463285 1703:0.70710677 2965:0.70710677 #
-0.26684561042197774138884369676816 1376:1 #
-0.26684561042197774138884369676816 1140:1 #
-0.22067096954283860199552691483404 155:1 #
-0.26684561953270247158798156306148 1445:0.70710677 2996:0.70710677 #
-0.26685127641830708178360964666354 1558:1 #
-0.26644885028429177165065766530461 1256:1 #
-0.26644885028429177165065766530461 1560:1 #
-0.26644885028429177165065766530461 2648:1 #
-0.26661422746421703511288114896161 2810:1 #
-0.26683418448325024741052402532659 1958:1 #
-0.20402689695281839288298897372442 307:1 #
-0.26719765236283005149786617948848 1438:0.57735026 1637:0.57735026 2485:0.57735026 #
-0.2498839787669847600781736218778 1304:1 #
-0.26715530391234704188363480170665 1710:0.70710677 2837:0.70710677 #
-0.24743433233552566963275864964089 1048:0.57735026 1104:0.57735026 2980:0.57735026 #
-0.26624728090279570213994020377868 2032:1 #
-0.26666024258256071366446349202306 2225:1 #
-0.24057296200248617923378446903371 1086:0.70710677 1944:0.70710677 #
-0.26689285561928444145962657785276 1476:0.70710677 1636:0.70710677 #
-0.17333955454100033466424690686836 1160:0.70710677 2084:0.70710677 #
-0.26730576250071358401783072622493 1832:1 #
-0.26694810119971840167707455293566 1468:0.57735026 1957:0.57735026 2481:0.57735026 #
-0.26702115087914490842990744567942 2873:1 #
-0.26702115087914490842990744567942 2847:1 #
-0.26687453740229494236757545877481 1786:1 #
-0.26704819611158647774118435336277 1421:1 #
-0.26716497949199402572872941163951 1949:1 #
-0.25745090608946741284057679877151 1142:1 #
-0.2671208598930056576925551325985 1595:0.70710677 2227:0.70710677 #
-0.26666024258256071366446349202306 1497:1 #
-0.26687192207553633860328545779339 2019:1 #
-0.26717241048636797273729825974442 1677:1 #
-0.20034694884698533989819679845823 2081:1 #
-0.26697251576737734968247650613193 1653:1 #
-0.26697251576737734968247650613193 1526:1 #
-0.26696199338336978890140471776249 1402:1 #
-0.14042670460245668118126616263908 11:0.53452247 130:0.26726124 296:0.80178374 #
-0.026775354814236762557300153275719 1508:1 #
-0.16571737087400395527225782643654 43:0.70710677 1025:0.70710677 #
-0.020993584127388126986391014838773 990:0.57735026 1659:0.57735026 2141:0.57735026 #
-0.10198934114534216610614691944647 254:0.40824831 1272:0.40824831 1578:0.40824831 1590:0.40824831 1848:0.40824831 2514:0.40824831 #
-0.2270356479340868149918719609559 41:0.35355338 254:0.35355338 1155:0.70710677 1557:0.35355338 2407:0.35355338 #
0.52790169488408933418099877599161 60:0.33333334 217:0.33333334 431:0.33333334 513:0.33333334 551:0.33333334 1314:0.66666669 #
-0.14120729354749733674978529052169 15:0.70710677 1390:0.70710677 #
-0.16335806328042645763076734510832 905:0.5 1436:0.5 2220:0.5 2776:0.5 #
-0.26673796069057853497241694640252 1541:0.57735026 2559:0.57735026 2849:0.57735026 #
-0.159137254470319455812443720788 921:0.70710677 1529:0.70710677 #
-0.17982954428339958941052145746653 237:1 #
-0.0093158228130080233952980961475987 983:1 #
-0.15741897520062950177610616719903 166:0.70710677 2907:0.70710677 #
-0.26719897768133538118462411148357 1074:0.70710677 2713:0.70710677 #
-0.13212181432332636976667572525912 1412:0.57735026 2635:0.57735026 2690:0.57735026 #
-0.055717330994443231562129881240253 254:0.70710677 1228:0.70710677 #
-0.15749745189550432011849068203446 66:0.70710677 1223:0.70710677 #
-0.23615397837390994517647868633503 2978:1 #
-0.23629331072176673611551223075367 1394:1 #
-0.14583172491107679324962020928069 1581:0.70710677 2602:0.70710677 #
-0.36679698117132719659139183931984 7:0.30151135 288:0.30151135 969:0.30151135 1015:0.30151135 1100:0.30151135 1370:0.30151135 1400:0.30151135 1728:0.30151135 2095:0.30151135 2245:0.30151135 2995:0.30151135 #
-1.000000022514158093400737925549 27:0.5 961:0.5 973:0.5 1314:0.5 #
-0.13078265564201002613131663565582 15:0.25 154:0.25 156:0.25 961:0.5 965:0.25 983:0.25 1162:0.25 1163:0.25 1235:0.25 1324:0.25 1767:0.25 2114:0.25 2803:0.25 #
-0.42322999342918904419619252621487 45:0.23570226 154:0.47140452 158:0.23570226 245:0.23570226 256:0.23570226 909:0.23570226 954:0.47140452 1419:0.23570226 1443:0.23570226 1736:0.23570226 1823:0.23570226 2230:0.23570226 #
-0.54445646346929466030672983833938 20:0.28867513 963:0.28867513 1016:0.86602539 1331:0.28867513 #
0.7046181869615569803855237296375 107:1 #
-0.70214691294015652012205919163534 5:0.40824831 1000:0.40824831 1316:0.40824831 1416:0.40824831 1527:0.40824831 1778:0.40824831 #
-0.60090567545766027102160933281993 40:0.5 121:0.5 178:0.5 1330:0.5 #
-1.000000022514158093400737925549 45:0.40824831 107:0.40824831 258:0.40824831 1240:0.40824831 2443:0.40824831 2630:0.40824831 #
-0.57881509679058762429804119165055 48:0.5 117:0.25 202:0.25 323:0.25 966:0.25 1317:0.5 1404:0.25 1416:0.25 1513:0.25 2117:0.25 #
-0.48099930243860089529306378608453 191:1 #
-0.6541932963835480618897122440103 1195:1 #
-0.047720130793793336110297786945011 243:0.5 964:0.5 1441:0.5 2099:0.5 #
-0.29879004558263372315352057739801 2210:0.57735026 2231:0.57735026 2515:0.57735026 #
-1.000000022514158093400737925549 119:1 #
0.73607099035700929157144400960533 10:0.5 865:0.5 1330:0.5 2235:0.5 #
-0.26711232079517738258189751832106 1243:0.89442718 1565:0.44721359 #
-0.26711231443526750606309860813781 182:1 #
-0.2670766960884443097512530584936 2600:1 #
-0.26673795136747024958623342172359 1241:1 #
-0.11345451438072939875922884311876 1124:1 #
-0.15256299541440226930077983524825 283:0.70710677 1011:0.70710677 #
-0.14924033582274223719288386291737 24:0.57735026 35:0.57735026 2944:0.57735026 #
-0.26624728090279570213994020377868 313:1 #
-0.11238157705751819492867582539475 100:0.57735026 133:0.57735026 1968:0.57735026 #
-0.16454264510366589657763825016445 310:0.35355338 1517:0.35355338 1876:0.35355338 2193:0.35355338 2547:0.70710677 #
0.34313303078003060120337863736495 323:0.57735026 706:0.57735026 955:0.57735026 #
-0.52293960232633351914444119756809 294:0.57735026 976:0.28867513 1021:0.28867513 1389:0.57735026 1776:0.28867513 2097:0.28867513 #
-0.28852589977083553662851045373827 2093:0.70710677 2441:0.70710677 #
-0.35778320019017062492139302776195 3:0.33333334 47:0.33333334 72:0.33333334 285:0.33333334 1985:0.33333334 2541:0.66666669 #
-0.43355124334159206300753908180923 19:0.56694669 57:0.18898223 119:0.18898223 122:0.18898223 205:0.18898223 323:0.18898223 940:0.18898223 969:0.18898223 1095:0.18898223 1096:0.18898223 1135:0.18898223 2158:0.37796447 2243:0.18898223 2542:0.37796447 #
-0.3310363074457277066109384122683 8:0.17149858 11:0.34299716 14:0.51449573 18:0.17149858 40:0.17149858 121:0.17149858 174:0.17149858 188:0.51449573 967:0.17149858 1005:0.17149858 1081:0.17149858 1301:0.17149858 1499:0.17149858 2470:0.17149858 2686:0.17149858 #
-0.22688826002926432146011848089984 1301:0.70710677 1711:0.70710677 #
-0.50192655056170853988817270874279 105:0.37796447 155:0.37796447 1040:0.37796447 1194:0.37796447 1358:0.37796447 1790:0.37796447 2229:0.37796447 #
-0.26687192207553633860328545779339 1125:1 #
-0.43128253048727061003120297755231 100:1 #
-0.23852542439157389808634945893573 219:0.5 1418:0.5 1518:0.5 1767:0.5 #
-0.31307445216312251856649595538329 1321:0.70710677 2464:0.70710677 #
-0.26712086034033577508495227448293 1137:0.57735026 1465:0.57735026 1489:0.57735026 #
-0.40454732551810784757506667119742 10:0.22941573 52:0.22941573 61:0.22941573 154:0.45883146 158:0.22941573 194:0.22941573 196:0.22941573 220:0.22941573 226:0.22941573 1109:0.22941573 1181:0.22941573 1192:0.22941573 1233:0.22941573 1774:0.22941573 1885:0.22941573 2354:0.22941573 #
-0.51772221421874831115417237015208 45:0.53452247 50:0.26726124 52:0.26726124 98:0.26726124 153:0.26726124 154:0.26726124 245:0.26726124 1206:0.26726124 1328:0.26726124 1982:0.26726124 2176:0.26726124 #
-0.26689535639643263698062014555035 1028:0.70710677 1715:0.70710677 #
-0.26528125799604973522605178004596 2882:1 #
-0.88894300649512880685421123416745 28:0.44721359 158:0.44721359 211:0.44721359 1317:0.44721359 1324:0.44721359 #
-0.26701268360121166445253493293421 1674:1 #
-1.000000022514158093400737925549 40:0.60302269 54:0.30151135 60:0.30151135 121:0.30151135 174:0.30151135 1105:0.30151135 1469:0.30151135 1509:0.30151135 #
-0.22839957546557926315600184352661 1159:0.57735026 2451:0.57735026 2678:0.57735026 #
-0.64645177271630849258343687324668 1190:1 #
-0.30337156116092439672726754906762 108:0.35355338 154:0.35355338 300:0.35355338 1779:0.35355338 2006:0.35355338 2172:0.35355338 2470:0.35355338 2479:0.35355338 #
-0.2457676532553478010445502377479 44:0.57735026 198:0.57735026 2823:0.57735026 #
-0.33088729360281221580919464031467 12:0.28867513 14:0.57735026 154:0.28867513 266:0.28867513 318:0.28867513 1082:0.28867513 1865:0.28867513 1980:0.28867513 2441:0.28867513 #
-0.230269653546475772110113666713 2174:0.70710677 2984:0.70710677 #
-0.2422483120209032447789354591805 1294:0.70710677 2663:0.70710677 #
-0.16391160968108028916923046836018 1194:0.33333334 1386:0.33333334 2142:0.33333334 2534:0.66666669 2590:0.33333334 2822:0.33333334 #
-0.24791670841506643907514728653041 1208:0.70710677 2821:0.70710677 #
-0.20055727775715392890987232021871 244:1 #
-0.19204568944563371601930157339666 979:1 #
-0.22550161794086820421512129541952 287:0.5 1262:0.5 1814:0.5 1841:0.5 #
-0.20599839494269300832485214414191 1824:0.5 1887:0.5 1977:0.5 2729:0.5 #
-0.21426829707773320521368987101596 239:0.40824831 2132:0.40824831 2740:0.81649661 #
-0.62020035722361166463656445557717 209:1 #
-0.26672075916204740497761349615757 932:1 #
-0.60748443073692048876921489863889 1022:0.57735026 1034:0.57735026 2242:0.57735026 #
-0.46102699237555677669320175482426 36:0.70710677 2245:0.70710677 #
-0.48499668092994480117496891580231 14:0.15075567 15:0.15075567 40:0.15075567 41:0.15075567 42:0.15075567 46:0.15075567 71:0.15075567 138:0.15075567 176:0.15075567 234:0.15075567 262:0.15075567 323:0.15075567 1315:0.15075567 1323:0.15075567 1509:0.15075567 1518:0.75377834 1780:0.15075567 2246:0.15075567 2782:0.15075567 2936:0.15075567 #
0.27573146591244374059570532153884 10:0.25819889 89:0.25819889 101:0.25819889 256:0.25819889 388:0.25819889 427:0.25819889 486:0.25819889 522:0.25819889 531:0.25819889 611:0.25819889 717:0.25819889 852:0.25819889 1778:0.25819889 2313:0.25819889 2347:0.25819889 #
-0.011926859296460867732037058885908 1772:1 #
-0.88298124805194522224383035791107 45:0.40824831 254:0.40824831 256:0.40824831 925:0.40824831 968:0.40824831 1519:0.40824831 #
-0.8132023256378732023463840050681 128:0.44721359 133:0.44721359 173:0.44721359 1106:0.44721359 2240:0.44721359 #
-0.39577098479732758518068180819682 152:0.70710677 2226:0.70710677 #
-0.47761892939858952011888959532371 154:0.57735026 958:0.57735026 1221:0.57735026 #
-0.18860620490932428205965720735549 1317:0.57735026 1894:0.57735026 2235:0.57735026 #
-0.15489933815445591780424194894294 1167:0.70710677 1518:0.70710677 #
-0.15533414857966887367979325063061 1518:0.70710677 1547:0.70710677 #
-0.0043213912032658268608242835284727 171:0.57735026 1594:0.57735026 2722:0.57735026 #
-0.14971400434357662323492377254297 20:0.57735026 912:0.57735026 2060:0.57735026 #
-0.23222147236962573102481144360354 149:0.70710677 2725:0.70710677 #
-0.16654164435078164241410547674604 214:0.33333334 265:0.33333334 939:0.33333334 1310:0.33333334 1448:0.33333334 1553:0.33333334 1643:0.33333334 1808:0.33333334 1967:0.33333334 #
-0.26690271599805076574440931835852 277:0.57735026 2055:0.57735026 2617:0.57735026 #
-0.23482757997274072980786741027259 272:0.57735026 1559:0.57735026 1892:0.57735026 #
-0.17021732793543487005649694765452 171:0.57735026 1127:0.57735026 1164:0.57735026 #
-0.24979334005810119312407380220975 2069:0.70710677 2615:0.70710677 #
-0.25953356619632983459666775161168 961:0.70710677 1555:0.70710677 #
-0.20388911990789615469310547268833 961:0.70710677 2949:0.70710677 #
-0.23269880686397356739369968181563 961:0.70710677 1904:0.70710677 #
-0.70980267593897761191357176357997 5:0.42640144 15:0.21320072 127:0.42640144 154:0.21320072 323:0.21320072 961:0.21320072 969:0.21320072 983:0.21320072 1062:0.21320072 1163:0.21320072 1510:0.21320072 1657:0.21320072 2234:0.42640144 #
-0.18903219338108789848718060966348 1097:0.37796447 1170:0.37796447 1182:0.37796447 1252:0.37796447 1439:0.37796447 1704:0.37796447 1795:0.37796447 #
0.21741078935660768101101325555646 10:0.44721359 12:0.44721359 415:0.44721359 845:0.44721359 2380:0.44721359 #
0.20104638013973835652947741436947 10:0.57735026 963:0.57735026 2311:0.57735026 #
-0.17988601713065743847863586779567 32:0.57735026 965:0.57735026 1817:0.57735026 #
-0.2410439914742233125100057122836 1768:0.70710677 2124:0.70710677 #
-0.2196394901868133353595169410255 1251:0.57735026 1658:0.57735026 2442:0.57735026 #
-0.26744198355926984689290293317754 1716:1 #
-0.18408542627998189522564587150555 1158:0.57735026 1425:0.57735026 2088:0.57735026 #
-0.24581619589039710449540621084452 152:0.5 180:0.5 1276:0.5 1386:0.5 #
-0.24534099265411574153361584649247 1:0.13245323 28:0.13245323 45:0.13245323 49:0.13245323 53:0.13245323 60:0.13245323 61:0.26490647 99:0.13245323 100:0.13245323 148:0.13245323 158:0.13245323 201:0.13245323 314:0.13245323 320:0.13245323 928:0.13245323 1015:0.13245323 1189:0.13245323 1193:0.13245323 1197:0.13245323 1303:0.13245323 1364:0.13245323 1515:0.13245323 1589:0.26490647 1606:0.13245323 1618:0.13245323 1779:0.52981293 1822:0.13245323 2137:0.13245323 2228:0.13245323 2231:0.13245323 2442:0.26490647 2673:0.13245323 2683:0.13245323 #
-0.39487690384168444568402378536121 67:0.33333334 197:0.33333334 917:0.33333334 1154:0.33333334 1770:0.33333334 1779:0.33333334 2738:0.33333334 2791:0.33333334 2963:0.33333334 #
-0.15612353090369607278020680496411 33:0.70710677 2737:0.70710677 #
-0.14387029773596693438264537689975 69:0.37796447 1769:0.75592893 2020:0.37796447 2188:0.37796447 #
-0.17355082311140335171728565910598 1450:0.24253562 1490:0.24253562 1681:0.48507124 1750:0.24253562 1869:0.72760689 2755:0.24253562 #
-0.19684934570116527363659031379939 1293:0.37796447 1353:0.37796447 1487:0.37796447 1828:0.37796447 2129:0.37796447 2405:0.37796447 2500:0.37796447 #
-0.15433485963122470230324267959077 1253:0.70710677 1514:0.70710677 #
-0.51334463288281173554139513726113 134:0.5 254:0.5 269:0.5 2236:0.5 #
-0.12258558071591024729585228669748 5:0.37796447 134:0.37796447 151:0.37796447 920:0.37796447 1062:0.37796447 1493:0.37796447 2241:0.37796447 #
-0.19636037822606522418311669753166 1139:0.30151135 1395:0.90453404 2228:0.30151135 #
-0.18088199471272228824325623008917 190:0.42640144 233:0.63960212 281:0.21320072 1193:0.21320072 1312:0.21320072 1380:0.21320072 1495:0.21320072 1664:0.21320072 2554:0.21320072 2561:0.21320072 2846:0.21320072 #
-0.45619658715145683380853824928636 154:0.70710677 240:0.35355338 1227:0.35355338 2270:0.35355338 2928:0.35355338 #
-0.13376113577314008296070824144408 51:0.44721359 1408:0.44721359 1484:0.44721359 2157:0.44721359 2989:0.44721359 #
-0.039143684793914820807536614211131 2:0.33333334 59:0.33333334 212:0.33333334 968:0.33333334 1304:0.33333334 1515:0.33333334 1779:0.33333334 2597:0.33333334 2754:0.33333334 #
-0.15682939771711776333340537803451 1033:0.70710677 2926:0.70710677 #
-0.063217258765337791537319844792364 968:1 #
-0.21005859325137915538661559367029 209:0.44721359 955:0.44721359 999:0.44721359 1110:0.44721359 1297:0.44721359 #
-0.2422909793985394966142621342442 1515:0.57735026 1644:0.57735026 2497:0.57735026 #
-0.027644840135480241993803929290152 212:0.57735026 1291:0.57735026 1670:0.57735026 #
-0.18436512634288607093147049909021 212:0.57735026 1861:0.57735026 1914:0.57735026 #
-0.1857627515814622431999936225111 212:0.57735026 1384:0.57735026 2198:0.57735026 #
-0.2411763554967977229992470711295 177:0.57735026 273:0.57735026 906:0.57735026 #
-0.15778726195600220605363972481427 1773:0.70710677 2619:0.70710677 #
-0.2727777025292305590475905319181 103:0.57735026 1105:0.57735026 2256:0.57735026 #
-0.14522530655776075270146918683167 1283:0.44721359 1612:0.89442718 #
-0.15734733972951012170859996786021 61:0.70710677 2101:0.70710677 #
-0.15734733972951014946417558348912 61:0.70710677 1150:0.70710677 #
-0.1332943850045201772402947426599 301:0.70710677 1096:0.70710677 #
0.2535309519785545750991673230601 98:0.5 958:0.5 1314:0.5 1335:0.5 #
-0.20094042607049308890587724363286 1517:0.57735026 1615:0.57735026 2193:0.57735026 #
-0.17226428164008533716611282216036 257:0.5 1215:0.5 2477:0.5 2679:0.5 #
-0.15808250404496543284338372359343 230:0.70710677 2885:0.70710677 #
-0.209098993115533621223178784021 34:0.31622776 69:0.31622776 106:0.63245553 143:0.31622776 288:0.31622776 1133:0.31622776 1726:0.31622776 #
-0.26785672213205435898686346263275 1238:1 #
0.3060781086296420205883350718068 189:1 #
-0.11290372659604581973002979111698 155:0.57735026 994:0.57735026 1838:0.57735026 #
-0.099060268500630738186529811173386 1023:0.57735026 1461:0.57735026 1570:0.57735026 #
-0.10165839627645877063510937432511 1023:0.57735026 1570:0.57735026 3000:0.57735026 #
-0.098174328069901006799113929446321 1169:0.5 1909:0.5 2827:0.5 2973:0.5 #
-0.224748625736778590011866185705 969:0.57735026 1471:0.57735026 1516:0.57735026 #
-0.16417564914955112831407291196228 1645:0.70710677 1927:0.70710677 #
-0.21897276998179404650102242158027 115:1 #
-0.2668753229322783360188964252302 1463:1 #
-0.21099626398270010518842809688067 112:1 #
-0.15438759621471168093087555917009 967:0.57735026 1001:0.57735026 1315:0.57735026 #
-0.26713200218227078908128646617115 1114:0.70710677 1498:0.70710677 #
-0.1413332898056181285983967654829 1415:0.57735026 1479:0.57735026 2656:0.57735026 #
-0.26661422746421703511288114896161 2637:1 #
-0.29641750070854094856187543882697 24:0.33333334 35:0.33333334 255:0.33333334 295:0.33333334 305:0.33333334 1038:0.33333334 1182:0.33333334 1185:0.33333334 2068:0.33333334 #
-0.17408740204141229246381783468678 1128:0.70710677 1188:0.70710677 #
-0.11982747345615074596736349121784 203:0.70710677 1431:0.70710677 #
-0.1969145910216536510262130832416 235:0.57735026 1434:0.57735026 1441:0.57735026 #
-0.20709998265048257248821528264671 2815:1 #
-0.18468768077201780375418138646637 1409:1 #
-0.14514497325018241302707622253365 1065:0.57735026 1231:0.57735026 2524:0.57735026 #
-0.061919903375814655532849428709596 19:0.57735026 981:0.57735026 2820:0.57735026 #
-0.14137124176359500138389080348134 937:0.70710677 1152:0.70710677 #
-0.18167374264389829496835204736271 27:0.31622776 61:0.31622776 99:0.31622776 1235:0.31622776 1580:0.31622776 2086:0.31622776 2098:0.31622776 2119:0.31622776 2251:0.31622776 2664:0.31622776 #
-0.087189847107926599090177433026838 61:0.57735026 1170:0.57735026 1203:0.57735026 #
-0.22200355929126927567729410384345 7:0.37796447 31:0.37796447 123:0.37796447 168:0.37796447 213:0.37796447 2804:0.37796447 2808:0.37796447 #
-0.16106958806163299002811584159645 52:0.33333334 59:0.33333334 61:0.33333334 226:0.33333334 1189:0.33333334 1779:0.33333334 1879:0.33333334 2545:0.33333334 2645:0.33333334 #
-0.18908796347326972675517708921689 1122:1 #
-0.19852608816393746415940313454485 1013:0.5 1267:0.5 2890:0.5 2966:0.5 #
-0.10276499927812697554596610416411 153:0.70710677 1849:0.70710677 #
-0.17668142007677076210647726384195 41:0.5 160:0.5 1964:0.5 2770:0.5 #
-0.19842965789080890814943813893478 156:1 #
-0.11920723573385538784918935562018 1300:1 #
-0.19570261992118678784358110078756 195:0.57735026 1678:0.57735026 2232:0.57735026 #
-0.26739742628686602454735066203284 1952:1 #
-0.1764870753191010166460728214588 1059:0.70710677 2799:0.70710677 #
-0.16827541799202050398776009387802 1173:0.57735026 2471:0.57735026 2812:0.57735026 #
-0.21955097507335519235738274801406 1216:0.5 1648:0.5 2244:0.5 2635:0.5 #
-0.17365622439328110004908012342639 1083:0.5 1667:0.5 1686:0.5 2517:0.5 #
-0.14576985671065278982183599509881 1292:0.70710677 2970:0.70710677 #
-0.21983618337007307386166132801009 1030:0.70710677 2977:0.70710677 #
-0.18821141668230201293710024401662 113:1 #
-0.30829947917738559359790428970882 69:0.31622776 106:0.31622776 165:0.31622776 174:0.31622776 268:0.31622776 1342:0.31622776 1459:0.31622776 1750:0.31622776 2582:0.31622776 2702:0.31622776 #
-0.061960981011495469550354187049379 52:0.2773501 1065:0.5547002 1145:0.5547002 1290:0.2773501 1836:0.2773501 2308:0.2773501 2731:0.2773501 #
-0.16320855041311901900691339051264 265:0.57735026 287:0.57735026 2144:0.57735026 #
-0.11064453937377624614946114434133 1302:0.70710677 1524:0.70710677 #
-0.098079122735838408786435138608795 298:0.5 1094:0.5 1845:0.5 2179:0.5 #
-0.2108158760876736870226721975996 236:0.57735026 239:0.57735026 1447:0.57735026 #
-0.26684809746854509793223542146734 982:1 #
-0.16736784414393113262775614202837 190:0.62469506 1193:0.31234753 1507:0.31234753 1557:0.15617377 2771:0.62469506 #
-0.068717831583142249818330071775563 45:0.37796447 1098:0.37796447 1504:0.37796447 2004:0.37796447 2242:0.37796447 2245:0.37796447 2604:0.37796447 #
-0.23530862958905107706897297248361 64:1 #
-0.15667062644859308662148578150664 155:0.70710677 1220:0.70710677 #
0.17966493744586484182512720053637 107:0.26726124 323:0.26726124 672:0.26726124 739:0.26726124 967:0.26726124 1191:0.53452247 1315:0.26726124 1324:0.26726124 1339:0.26726124 1341:0.26726124 2381:0.26726124 #
-0.15141546789929630212334643601935 1284:0.57735026 2142:0.57735026 2557:0.57735026 #
-0.44037043951839310862439447191719 14:0.28867513 154:0.28867513 175:0.28867513 189:0.28867513 256:0.28867513 931:0.28867513 1007:0.28867513 1019:0.28867513 1124:0.28867513 1225:0.28867513 1512:0.28867513 1797:0.28867513 #
-0.12253481625741130534024136977678 237:0.35355338 299:0.35355338 1625:0.70710677 1975:0.35355338 2077:0.35355338 #
-0.26053801007422533464463754171447 56:0.30151135 138:0.30151135 292:0.30151135 974:0.30151135 1049:0.30151135 1205:0.30151135 1779:0.30151135 1780:0.60302269 #
-0.12601464178543128613618762301485 967:0.44721359 1004:0.44721359 1214:0.44721359 1315:0.44721359 1318:0.44721359 #
-0.39774142253998728824271324810979 45:0.35355338 61:0.35355338 254:0.35355338 1153:0.35355338 1392:0.35355338 1776:0.35355338 2211:0.35355338 2245:0.35355338 #
-0.12947599958470656922315811243607 114:0.40824831 1179:0.81649661 1227:0.40824831 #
-0.11129356303017898244256400630547 61:0.44721359 121:0.44721359 289:0.44721359 967:0.44721359 2365:0.44721359 #
-0.16845467303639527489877991683898 936:0.57735026 1851:0.57735026 2103:0.57735026 #
-0.17603136272414637852889995883743 34:0.37796447 129:0.37796447 178:0.37796447 258:0.37796447 276:0.37796447 1324:0.37796447 1528:0.37796447 #
-0.11530305296456277996952621833771 943:1 #
-0.18303125340281833910438535895082 141:0.44721359 212:0.44721359 1516:0.44721359 2125:0.44721359 2528:0.44721359 #
-0.22362247623692663167638272625481 961:0.70710677 1512:0.35355338 1883:0.35355338 2344:0.35355338 2465:0.35355338 #
-0.16728871481217022498810820252402 962:0.57735026 2975:0.57735026 2997:0.57735026 #
-0.15485993631736219566796819435694 1080:0.70710677 1511:0.70710677 #
-0.19695185241200979797682180105767 50:0.70710677 1193:0.70710677 #
-0.40827762170287074106056479649851 60:0.18569534 154:0.55708599 254:0.18569534 267:0.18569534 284:0.37139067 315:0.18569534 979:0.18569534 1011:0.18569534 1322:0.18569534 1517:0.18569534 1518:0.18569534 1847:0.18569534 1878:0.18569534 1896:0.18569534 2263:0.18569534 2728:0.18569534 2867:0.18569534 2899:0.18569534 #
-0.15987877029466635026011545051006 1481:1 #
-0.13684358410614977374919476460491 23:0.26726124 37:0.26726124 141:0.26726124 218:0.26726124 247:0.26726124 305:0.26726124 317:0.26726124 1287:0.26726124 1631:0.26726124 1770:0.26726124 1779:0.26726124 1803:0.26726124 2092:0.26726124 2224:0.26726124 #
-0.0930258620162131427688834151013 221:0.57735026 2118:0.57735026 2539:0.57735026 #
-0.35885543656640761511766868352424 1772:1 #
-0.18476977380282469387573485164467 154:0.44721359 254:0.44721359 257:0.44721359 1588:0.44721359 2266:0.44721359 #
-0.24684745222593093560981003520283 154:0.57735026 1092:0.57735026 1782:0.57735026 #
-0.09764664694698665936556380984257 114:0.40824831 254:0.40824831 2934:0.81649661 #
-0.15368657127604609669013768780133 39:0.57735026 1901:0.57735026 2763:0.57735026 #
-0.12042308417697955569281020871131 1186:0.70710677 1264:0.70710677 #
-0.15689924337712990443094440706773 1660:0.70710677 1740:0.70710677 #
-0.18409652969985612624981285989634 2922:1 #
-0.15825562267918269476751902402611 923:1 #
-0.12786137104717443246926222855109 1067:0.89442718 1483:0.44721359 #
-0.14910438797552372225396766225458 211:0.57735026 2139:0.57735026 2166:0.57735026 #
-0.26223118560664471221599569616956 984:0.57735026 1862:0.57735026 2478:0.57735026 #
-0.10394154724958304392146146710729 2:0.5 1206:0.5 2181:0.5 2953:0.5 #
-0.15466330109922571400815627384873 1033:0.70710677 1948:0.70710677 #
-0.090247096885160110746326722619415 20:0.37796447 962:0.37796447 1568:0.75592893 2063:0.37796447 #
-0.15810218161372591172408874626854 1270:1 #
-0.062847459614918554926532578974729 1699:1 #
-0.14172117227479474887985588793526 302:0.70710677 1087:0.70710677 #
-0.26335628035550756598226485039049 304:0.70710677 1245:0.70710677 #
-0.31518401179516308818762126975344 8:0.44721359 31:0.44721359 278:0.44721359 1779:0.44721359 2963:0.44721359 #
-0.10964341723023210417586881249008 208:0.33333334 1057:0.33333334 1495:0.33333334 1530:0.33333334 1683:0.66666669 1944:0.33333334 #
-0.11208355808876702131016145358444 181:0.35355338 1539:0.35355338 1732:0.35355338 1818:0.35355338 2180:0.70710677 #
-0.081885727490245946436075996643922 914:0.57735026 939:0.57735026 1009:0.57735026 #
-0.082649560104420941031300174017815 143:0.33333334 186:0.33333334 1315:0.33333334 1564:0.66666669 2245:0.33333334 2595:0.33333334 #
-0.26689270441379164822137681767344 1258:1 #
-0.10918298404088042086179655143496 5:0.57735026 1177:0.57735026 1706:0.57735026 #
-0.15488620502491590169569235513336 31:0.70710677 2918:0.70710677 #
-0.17676298365535791923264241631841 287:0.5 992:0.5 1271:0.5 2500:0.5 #
-0.15540513079694279197084938459739 254:0.70710677 1792:0.70710677 #
-0.11212434763778614255080867678771 254:0.70710677 2154:0.70710677 #
-0.11260138133781627534091285269824 2202:1 #
-0.11260138133781627534091285269824 1592:1 #
-0.14082594967433459398620243518963 23:0.20412415 124:0.81649661 190:0.20412415 1436:0.20412415 1542:0.40824831 1566:0.20412415 #
-0.15530222542841531918611508444883 254:0.70710677 2104:0.70710677 #
-0.15234858053681255007916206523078 911:1 #
-0.0091876765635007240362597258354072 19:0.5 250:0.5 1025:0.5 2664:0.5 #
-0.15224352068793145509317810137873 118:1 #
-0.15503335463952228057138427175232 166:1 #
-0.065737598578051781306186285291915 1085:0.70710677 1158:0.70710677 #
-0.14864483608619571963771477385308 133:0.44721359 1650:0.44721359 2081:0.44721359 2219:0.44721359 2672:0.44721359 #
-0.1134871521874025734888391525601 994:0.57735026 1462:0.57735026 1777:0.57735026 #
-0.11357342049126072092146699787918 48:0.44721359 65:0.44721359 1501:0.44721359 1537:0.44721359 2171:0.44721359 #
-0.0037801208038300451556856796031525 209:0.70710677 2172:0.70710677 #
-0.017062391543132937599125398264732 191:0.5 207:0.5 289:0.5 2862:0.5 #
-0.23318301463145951757383045332972 254:0.57735026 1511:0.57735026 2235:0.57735026 #
-0.14159999211534490815012077291613 1374:1 #
-0.0997169848293788518844849022571 230:1 #
-0.036457293228382058047909453080138 39:0.33333334 152:0.33333334 249:0.66666669 309:0.33333334 2053:0.33333334 2164:0.33333334 #
-0.16815106884113859009310942838056 966:0.57735026 1230:0.57735026 1458:0.57735026 #
-0.12611051914372944926512332131097 1019:0.5 1639:0.5 2005:0.5 2991:0.5 #
-0.13644189035434040047078951829462 43:0.57735026 1102:0.57735026 2869:0.57735026 #
-0.084009825000073146128443113411777 45:0.5 212:0.5 2007:0.5 2259:0.5 #
-0.15928538336166131461624217990902 300:1 #
-0.090034624032614501976112819647824 13:0.37796447 52:0.37796447 130:0.37796447 1154:0.37796447 1255:0.37796447 1779:0.37796447 1863:0.37796447 #
-0.10724407786696155131522800729726 1034:0.40824831 1196:0.40824831 1433:0.40824831 1963:0.40824831 2540:0.40824831 2760:0.40824831 #
-0.16067832144674873418033200778154 5:0.63245553 45:0.31622776 100:0.31622776 155:0.31622776 274:0.31622776 1006:0.31622776 1784:0.31622776 #
-0.14022507040936293964961123492685 66:1 #
-0.066896890049261248378797972691245 61:0.57735026 1105:0.57735026 1996:0.57735026 #
-0.10297701064101057177868625558403 1942:0.70710677 2797:0.70710677 #
-0.12414806254457411149871859379346 921:1 #
-0.15680837807712699749629337020451 33:1 #
-0.090162551382381633802154397017148 45:0.35355338 148:0.35355338 1175:0.35355338 1427:0.35355338 1691:0.35355338 2014:0.35355338 2186:0.35355338 2360:0.35355338 #
-0.056520825555504417003760408988455 45:0.30151135 57:0.30151135 998:0.90453404 #
-0.15706318813183406390976415423211 111:0.70710677 1147:0.70710677 #
-0.087954335449148351999681949564547 127:0.44721359 319:0.44721359 1882:0.44721359 2444:0.44721359 2950:0.44721359 #
-0.10226705973789462778000824982882 2751:1 #
-0.15480505436645639050219358523464 1063:0.70710677 1959:0.70710677 #
-0.13300105049551882996361484856607 909:0.70710677 2043:0.70710677 #
-0.067829028840853872184268880118907 32:0.36369649 35:0.036369648 38:0.036369648 121:0.036369648 193:0.036369648 214:0.036369648 1148:0.036369648 1415:0.036369648 1432:0.036369648 1451:0.036369648 1559:0.036369648 1589:0.036369648 1613:0.036369648 1663:0.036369648 1670:0.036369648 1768:0.036369648 1947:0.036369648 2123:0.9092412 2204:0.036369648 2501:0.072739296 2724:0.036369648 2763:0.036369648 2932:0.036369648 2933:0.036369648 2944:0.072739296 2955:0.036369648 2984:0.036369648 #
-0.15496525659976898015024460164568 41:0.70710677 1088:0.70710677 #
-0.22345049831267113638055832325335 1457:0.57735026 1535:0.57735026 2960:0.57735026 #
-0.16231970618209043411006575752253 928:0.70710677 1986:0.70710677 #
-0.3171022358059967238830267888261 61:1 #
-0.11585323797048924232555577873427 255:0.70710677 1531:0.70710677 #
-0.082962472197655304229080286404496 261:0.57735026 2126:0.57735026 2543:0.57735026 #
-0.076720010135060745515289681861759 167:0.28867513 1265:0.86602539 1767:0.28867513 2801:0.28867513 #
-0.15528796663928767785023410397116 1379:1 #
-0.28508018241106708456911178473092 104:0.47140452 115:0.11785113 151:0.11785113 191:0.11785113 216:0.82495791 1039:0.11785113 1779:0.11785113 2624:0.11785113 2905:0.11785113 #
-0.12825730282511119129118526416278 56:0.31622776 919:0.63245553 1420:0.31622776 1518:0.31622776 2233:0.31622776 2396:0.31622776 2949:0.31622776 #
-0.1048873270359801240791952636755 309:0.57735026 310:0.57735026 1758:0.57735026 #
-0.13191791954046164225822224125295 36:0.31622776 69:0.31622776 130:0.31622776 163:0.31622776 285:0.31622776 1031:0.31622776 1130:0.31622776 1514:0.31622776 1782:0.31622776 2621:0.31622776 #
-0.12223858893028713423767328549729 105:0.70710677 2191:0.70710677 #
-0.2666144009188744501415158083546 1091:1 #
-0.15504581362266736666022381996299 211:0.70710677 2085:0.70710677 #
-0.15520364006867287676172395549656 211:0.70710677 1369:0.70710677 #
-0.15572450405908622173001276678406 1926:1 #
-0.12297154087611486539266536510695 240:0.57735026 993:0.57735026 2090:0.57735026 #
-0.17229390845520076158692290846375 152:0.5 1018:0.5 1999:0.5 2066:0.5 #
-0.1957314726258782278112136054915 1156:0.57735026 1160:0.57735026 1839:0.57735026 #
-0.11722921668875987966096374748304 16:0.15811388 323:0.15811388 929:0.63245553 962:0.31622776 997:0.15811388 1181:0.15811388 1192:0.15811388 1194:0.15811388 1518:0.15811388 1546:0.15811388 1676:0.47434166 1679:0.15811388 1921:0.15811388 1941:0.15811388 #
-0.11696870884871879425759289006237 61:1 #
-0.10644146226424609780192298558177 258:0.70710677 1577:0.70710677 #
-0.4192281935100702350283086161653 969:1 #
-0.15423919469326308195888941554585 1003:0.57735026 2049:0.57735026 2779:0.57735026 #
-0.07412492281906078728237474706475 266:0.70710677 1278:0.70710677 #
-0.091069341591446389960751162107044 214:0.40824831 243:0.40824831 1168:0.40824831 1431:0.40824831 1900:0.40824831 2138:0.40824831 #
-0.065426693589713494358939271933195 7:0.57735026 1763:0.57735026 1893:0.57735026 #
-0.045527980617048130485002843670372 185:0.57735026 2228:0.57735026 2399:0.57735026 #
-0.074305507696450820431799400012096 228:0.66666669 2059:0.66666669 2228:0.33333334 #
-0.062040267213547696523168184512542 51:0.70710677 2761:0.70710677 #
-0.15464641046771898658107602386735 1744:1 #
-0.040493949180801458442857665431802 990:1 #
