SVM-light Version V6.02
0 # kernel type
3 # kernel parameter -d 
1 # kernel parameter -g 
1 # kernel parameter -s 
1 # kernel parameter -r 
empty# kernel parameter -u 
2500 # highest feature index 
10244 # number of training documents 
3223 # number of support vectors plus 1 
0.93534407 # threshold b, each following line is a SV (starting with alpha*y)
-0.31453582069557373124268906394718 1391:1 #
-0.11832819104737976600993931697303 388:0.57735026 912:0.57735026 1243:0.57735026 #
-1.0000000248699565386090171159594 33:1 #
-0.41292539971992381353516066155862 122:0.5 212:0.5 2420:0.5 2453:0.5 #
-0.4826053909941371289349376638711 120:1 #
1.0000000248699565386090171159594 47:0.44721359 439:0.44721359 487:0.44721359 1980:0.44721359 2426:0.44721359 #
0.94986870930147460079240318009397 398:1 #
1.0000000248699565386090171159594 1416:0.70710677 2458:0.70710677 #
1.0000000248699565386090171159594 85:0.70710677 980:0.70710677 #
1.0000000248699565386090171159594 48:0.20851441 55:0.62554324 72:0.20851441 343:0.20851441 436:0.41702881 438:0.20851441 987:0.41702881 1940:0.20851441 2431:0.20851441 #
-0.014923492233975809220791752807145 192:0.70710677 1073:0.70710677 #
-0.065022995706884634259381527954247 24:0.70710677 2328:0.70710677 #
-0.5838077877737648524458791143843 179:0.40824831 1940:0.40824831 2458:0.81649661 #
-0.2380209927069646402841840426845 85:1 #
1.0000000248699565386090171159594 33:1 #
1.0000000248699565386090171159594 33:0.70710677 139:0.70710677 #
1.0000000248699565386090171159594 14:0.5 24:0.5 27:0.5 912:0.5 #
1.0000000248699565386090171159594 912:1 #
1.0000000248699565386090171159594 27:1 #
-1.0000000248699565386090171159594 980:1 #
-1.0000000248699565386090171159594 912:0.57735026 980:0.57735026 1370:0.57735026 #
1.0000000248699565386090171159594 85:0.57735026 120:0.57735026 567:0.57735026 #
1.0000000248699565386090171159594 1996:0.70710677 2006:0.70710677 #
1.0000000248699565386090171159594 62:0.5 85:0.5 95:0.5 1915:0.5 #
1.0000000248699565386090171159594 85:0.40824831 259:0.40824831 987:0.40824831 1377:0.40824831 1945:0.40824831 1968:0.40824831 #
1.0000000248699565386090171159594 235:0.57735026 382:0.57735026 436:0.57735026 #
-1.0000000248699565386090171159594 55:0.57735026 269:0.57735026 487:0.57735026 #
-1.0000000248699565386090171159594 55:1 #
1.0000000248699565386090171159594 980:1 #
1.0000000248699565386090171159594 545:0.5 980:0.5 1370:0.5 1994:0.5 #
1.0000000248699565386090171159594 980:0.70710677 1144:0.70710677 #
-0.19154309330755714402272360530333 643:1 #
-0.39407356976742269338842561410274 1416:1 #
-0.037110642656554837515159306349233 1001:1 #
1.0000000248699565386090171159594 62:0.37796447 95:0.37796447 284:0.75592893 1145:0.37796447 #
-0.15286494775716785721186852242681 187:1 #
-0.77287380306755015801911667949753 33:0.37796447 987:0.75592893 1670:0.37796447 1977:0.37796447 #
1.0000000248699565386090171159594 55:1 #
1.0000000248699565386090171159594 55:0.70710677 542:0.70710677 #
1.0000000248699565386090171159594 12:0.70710677 55:0.70710677 #
1.0000000248699565386090171159594 55:0.70710677 318:0.70710677 #
-1.0000000248699565386090171159594 55:1 #
-1.0000000248699565386090171159594 5:0.37796447 12:0.37796447 55:0.75592893 1969:0.37796447 #
-0.52918282162193519546633524441859 55:0.81649661 119:0.40824831 651:0.40824831 #
1.0000000248699565386090171159594 269:1 #
1.0000000248699565386090171159594 62:0.40824831 269:0.81649661 382:0.40824831 #
1.0000000248699565386090171159594 165:0.70710677 269:0.70710677 #
1.0000000248699565386090171159594 269:0.70710677 916:0.70710677 #
-1.0000000248699565386090171159594 269:1 #
-0.11538909088259624580175000119198 269:0.57735026 916:0.57735026 2028:0.57735026 #
-1.0000000248699565386090171159594 269:0.70710677 918:0.70710677 #
-1.0000000248699565386090171159594 67:0.70710677 269:0.70710677 #
-0.15644642128572988637458252014767 269:0.70710677 471:0.70710677 #
1.0000000248699565386090171159594 5:0.57735026 55:0.57735026 1337:0.57735026 #
1.0000000248699565386090171159594 5:0.57735026 55:0.57735026 2446:0.57735026 #
1.0000000248699565386090171159594 5:0.44721359 139:0.89442718 #
-1.0000000248699565386090171159594 5:0.70710677 55:0.70710677 #
-1.0000000248699565386090171159594 5:0.44721359 55:0.44721359 116:0.44721359 542:0.44721359 1424:0.44721359 #
-0.57208746035693780473962988253334 49:0.37796447 176:0.37796447 567:0.75592893 2446:0.37796447 #
1.0000000248699565386090171159594 92:0.70710677 269:0.70710677 #
1.0000000248699565386090171159594 24:0.44721359 269:0.44721359 1385:0.44721359 1908:0.44721359 2417:0.44721359 #
-0.80494560303655093846941781521309 115:1 #
-0.047064993529654652881788479135139 365:0.44721359 480:0.44721359 1043:0.44721359 1300:0.44721359 2184:0.44721359 #
-0.38536624305359101771983887374518 269:0.70710677 1128:0.70710677 #
-0.00023113979321309763292902061948553 651:1 #
1.0000000248699565386090171159594 55:1 #
1.0000000248699565386090171159594 55:0.70710677 90:0.70710677 #
1.0000000248699565386090171159594 55:0.70710677 151:0.35355338 1392:0.35355338 1430:0.35355338 2404:0.35355338 #
-1.0000000248699565386090171159594 55:1 #
-1.0000000248699565386090171159594 55:0.70710677 2446:0.70710677 #
-1.0000000248699565386090171159594 55:0.57735026 90:0.57735026 153:0.57735026 #
-0.067011717845888274514010163329658 337:0.70710677 2497:0.70710677 #
1.0000000248699565386090171159594 1987:1 #
1.0000000248699565386090171159594 116:1 #
1.0000000248699565386090171159594 16:0.31622776 116:0.63245553 489:0.31622776 984:0.31622776 1147:0.31622776 1424:0.31622776 1427:0.31622776 #
-1.0000000248699565386090171159594 116:1 #
-1.0000000248699565386090171159594 24:0.70710677 116:0.70710677 #
-0.6895204546601572115349654268357 206:1 #
-0.150291322421859274705013831408 50:1 #
1.0000000248699565386090171159594 153:1 #
1.0000000248699565386090171159594 139:1 #
-0.96606243373593037038205011413083 318:1 #
-0.017673577337546330506823366590652 319:0.70710677 2470:0.70710677 #
-1.0000000248699565386090171159594 139:0.70710677 567:0.70710677 #
-1.0000000248699565386090171159594 139:1 #
-0.067347324583611062331911512046645 58:0.53452247 310:0.26726124 443:0.26726124 532:0.26726124 552:0.26726124 618:0.53452247 904:0.26726124 1146:0.26726124 #
1.0000000248699565386090171159594 116:0.70710677 434:0.70710677 #
1.0000000248699565386090171159594 28:0.57735026 56:0.57735026 116:0.57735026 #
-1.0000000248699565386090171159594 14:1 #
-0.65616794150159962750734621295123 2448:1 #
-0.063875325168373478512684471297689 95:0.70710677 871:0.70710677 #
-1.0000000248699565386090171159594 24:1 #
1.0000000248699565386090171159594 90:0.44721359 139:0.89442718 #
1.0000000248699565386090171159594 139:1 #
-1.0000000248699565386090171159594 139:1 #
1.0000000248699565386090171159594 5:0.37796447 9:0.37796447 55:0.37796447 380:0.37796447 567:0.37796447 978:0.37796447 1939:0.37796447 #
1.0000000248699565386090171159594 55:0.35355338 71:0.35355338 288:0.35355338 542:0.35355338 545:0.35355338 649:0.35355338 1340:0.35355338 1967:0.35355338 #
1.0000000248699565386090171159594 542:1 #
-1.0000000248699565386090171159594 1987:1 #
1.0000000248699565386090171159594 14:0.40824831 70:0.40824831 82:0.40824831 91:0.40824831 1143:0.40824831 1940:0.40824831 #
-0.064561605611029526663458000257378 727:1 #
-0.10851762211265048030384150479222 14:0.89442718 584:0.44721359 #
-0.082787116732573981514597960540414 48:0.44721359 120:0.44721359 752:0.44721359 978:0.44721359 1337:0.44721359 #
-0.87427928904494822681670029851375 28:0.44721359 436:0.89442718 #
-1.0000000248699565386090171159594 12:0.70710677 153:0.70710677 #
1.0000000248699565386090171159594 1987:1 #
-0.18321057526786307945165788169106 195:0.57735026 920:0.57735026 2127:0.57735026 #
1.0000000248699565386090171159594 27:0.70710677 436:0.70710677 #
1.0000000248699565386090171159594 24:1 #
-1.0000000248699565386090171159594 1987:1 #
1.0000000248699565386090171159594 978:1 #
1.0000000248699565386090171159594 12:1 #
-0.10203063714411825246841658554331 58:0.57735026 116:0.57735026 619:0.57735026 #
-0.87632964538405744292504095938057 545:1 #
-1.0000000248699565386090171159594 24:1 #
-0.3355625735744766080514978057181 24:0.35355338 27:0.70710677 310:0.35355338 542:0.35355338 2417:0.35355338 #
1.0000000248699565386090171159594 48:1 #
1.0000000248699565386090171159594 28:0.57735026 48:0.57735026 2415:0.57735026 #
1.0000000248699565386090171159594 87:0.40824831 317:0.40824831 388:0.40824831 438:0.40824831 913:0.40824831 978:0.40824831 #
1.0000000248699565386090171159594 5:0.25 43:0.25 55:0.25 58:0.25 81:0.25 84:0.25 310:0.25 345:0.25 351:0.25 438:0.25 545:0.25 1370:0.25 2405:0.5 #
-0.037445468113687166433756203787198 30:0.70710677 2117:0.70710677 #
-0.0025079930221244550736514611344319 36:1 #
-0.55526902712463188649394396634307 14:0.40824831 81:0.40824831 1147:0.40824831 1427:0.40824831 2426:0.40824831 2433:0.40824831 #
-1.0000000248699565386090171159594 438:1 #
1.0000000248699565386090171159594 24:1 #
1.0000000248699565386090171159594 24:0.70710677 47:0.70710677 #
1.0000000248699565386090171159594 24:0.31622776 27:0.31622776 542:0.63245553 977:0.31622776 1144:0.31622776 1354:0.31622776 1425:0.31622776 #
-1.0000000248699565386090171159594 24:1 #
1.0000000248699565386090171159594 319:0.70710677 438:0.70710677 #
-0.11512127515651804365859334211564 138:1 #
1.0000000248699565386090171159594 9:0.57735026 200:0.57735026 438:0.57735026 #
1.0000000248699565386090171159594 128:0.57735026 310:0.57735026 2405:0.57735026 #
1.0000000248699565386090171159594 310:0.70710677 1688:0.70710677 #
-1.0000000248699565386090171159594 139:1 #
-0.19501662041366027433575425220624 152:0.70710677 481:0.70710677 #
-1.0000000248699565386090171159594 14:0.2773501 16:0.5547002 27:0.2773501 55:0.2773501 423:0.2773501 913:0.2773501 1136:0.2773501 1337:0.2773501 1505:0.2773501 2462:0.2773501 #
-0.45718845093894588949012813827721 62:1 #
1.0000000248699565386090171159594 15:0.57735026 1413:0.57735026 1733:0.57735026 #
1.0000000248699565386090171159594 14:0.25 439:0.25 491:0.25 760:0.25 774:0.25 927:0.75 1391:0.25 2417:0.25 #
1.0000000248699565386090171159594 102:0.57735026 259:0.57735026 1974:0.57735026 #
1.0000000248699565386090171159594 216:0.70710677 439:0.70710677 #
1.0000000248699565386090171159594 439:0.70710677 1138:0.70710677 #
-0.98105385371528963656118094149861 439:1 #
-0.053096868710440947580764259328134 28:0.81649661 978:0.40824831 2161:0.40824831 #
-1.0000000248699565386090171159594 913:0.70710677 2454:0.70710677 #
1.0000000248699565386090171159594 14:0.33333334 27:0.33333334 45:0.33333334 47:0.33333334 310:0.33333334 1429:0.33333334 1705:0.33333334 1941:0.33333334 1987:0.33333334 #
1.0000000248699565386090171159594 14:0.25819889 28:0.25819889 438:0.25819889 544:0.25819889 978:0.51639777 1704:0.25819889 1759:0.25819889 1959:0.25819889 2455:0.51639777 #
-0.38088542344441472797811343298235 80:0.24253562 121:0.24253562 176:0.24253562 243:0.24253562 333:0.24253562 382:0.24253562 441:0.24253562 918:0.24253562 975:0.24253562 981:0.24253562 993:0.24253562 1116:0.24253562 1580:0.24253562 1955:0.24253562 2126:0.24253562 2446:0.24253562 2454:0.24253562 #
-0.36186255588641225156010250429972 195:0.5 544:0.5 978:0.5 1994:0.5 #
-1.0000000248699565386090171159594 1987:1 #
1.0000000248699565386090171159594 439:0.57735026 565:0.57735026 1422:0.57735026 #
1.0000000248699565386090171159594 4:0.57735026 439:0.57735026 1917:0.57735026 #
-1.0000000248699565386090171159594 543:1 #
1.0000000248699565386090171159594 27:0.40824831 439:0.40824831 543:0.40824831 982:0.40824831 1871:0.40824831 1943:0.40824831 #
-1.0000000248699565386090171159594 439:0.70710677 982:0.70710677 #
-0.28136666456644965350619713717606 16:0.57735026 165:0.57735026 391:0.57735026 #
-0.52369955079434915568015185272088 35:0.70710677 1146:0.70710677 #
1.0000000248699565386090171159594 139:0.40824831 195:0.81649661 542:0.40824831 #
1.0000000248699565386090171159594 139:1 #
-0.095571112654201234581918811272772 14:0.28867513 78:0.28867513 382:0.28867513 450:0.28867513 480:0.57735026 2044:0.57735026 #
-1.0000000248699565386090171159594 139:1 #
1.0000000248699565386090171159594 55:0.5 153:0.5 1336:0.5 1987:0.5 #
1.0000000248699565386090171159594 1431:1 #
-0.92560446446934130371175797336036 542:0.57735026 1980:0.57735026 2470:0.57735026 #
-1.0000000248699565386090171159594 27:0.70710677 542:0.70710677 #
-1.0000000248699565386090171159594 15:0.70710677 542:0.70710677 #
-1.0000000248699565386090171159594 45:1 #
-0.060755169390879160129514957588981 79:0.57735026 542:0.57735026 984:0.57735026 #
1.0000000248699565386090171159594 139:1 #
1.0000000248699565386090171159594 83:0.40824831 139:0.81649661 1818:0.40824831 #
1.0000000248699565386090171159594 139:0.70710677 1695:0.70710677 #
-1.0000000248699565386090171159594 139:1 #
1.0000000248699565386090171159594 542:0.70710677 2403:0.70710677 #
-1.0000000248699565386090171159594 978:1 #
-0.15448355744373645781486459327425 139:0.70710677 1943:0.70710677 #
-0.092105961693991170169404369971744 291:0.57735026 1338:0.57735026 1692:0.57735026 #
-0.6175476054336113129750174266519 439:1 #
-0.10915170132161507166035363525225 139:0.57735026 383:0.57735026 1422:0.57735026 #
1.0000000248699565386090171159594 9:0.40824831 14:0.40824831 23:0.40824831 29:0.20412415 42:0.20412415 82:0.20412415 152:0.20412415 227:0.20412415 439:0.20412415 441:0.20412415 1430:0.40824831 2453:0.20412415 #
1.0000000248699565386090171159594 35:0.37796447 42:0.37796447 67:0.37796447 99:0.37796447 439:0.37796447 1136:0.37796447 1703:0.37796447 #
1.0000000248699565386090171159594 12:0.33333334 14:0.33333334 55:0.33333334 439:0.33333334 656:0.33333334 957:0.33333334 2406:0.33333334 2412:0.33333334 2470:0.33333334 #
-0.2171162038022004248105645274336 1396:1 #
-1.0000000248699565386090171159594 14:0.35355338 200:0.35355338 439:0.35355338 587:0.35355338 930:0.35355338 1176:0.35355338 1317:0.35355338 1695:0.35355338 #
-0.21637419023301118770064022100996 14:0.57735026 55:0.57735026 2040:0.57735026 #
-0.031144313367800092323678384786945 419:0.70710677 1177:0.70710677 #
-0.21004762699048434848592137313972 170:0.70710677 2468:0.70710677 #
1.0000000248699565386090171159594 139:0.70710677 400:0.70710677 #
1.0000000248699565386090171159594 139:0.70710677 1867:0.70710677 #
-0.06458938176937856212589394999668 599:1 #
1.0000000248699565386090171159594 13:0.70710677 1726:0.70710677 #
-0.78964689154784717395330062572611 95:0.57735026 99:0.57735026 1703:0.57735026 #
-0.094394677622643308190220068354392 156:0.44721359 1113:0.89442718 #
-1.0000000248699565386090171159594 5:0.19245009 29:0.19245009 35:0.19245009 50:0.19245009 100:0.19245009 216:0.19245009 229:0.19245009 310:0.19245009 320:0.38490018 487:0.19245009 589:0.19245009 613:0.19245009 923:0.19245009 1000:0.19245009 1114:0.19245009 1136:0.38490018 1144:0.19245009 2022:0.19245009 2098:0.19245009 2240:0.19245009 2417:0.19245009 #
1.0000000248699565386090171159594 544:0.70710677 930:0.70710677 #
1.0000000248699565386090171159594 2:0.44721359 14:0.44721359 81:0.44721359 135:0.44721359 978:0.44721359 #
1.0000000248699565386090171159594 79:0.33333334 141:0.33333334 179:0.33333334 646:0.33333334 937:0.33333334 978:0.33333334 1688:0.33333334 1708:0.33333334 1960:0.33333334 #
-1.0000000248699565386090171159594 45:0.70710677 438:0.70710677 #
-0.043839503974586691015247197356075 433:1 #
-1.0000000248699565386090171159594 232:1 #
1.0000000248699565386090171159594 139:1 #
1.0000000248699565386090171159594 139:0.70710677 1137:0.70710677 #
1.0000000248699565386090171159594 18:0.33333334 139:0.66666669 311:0.33333334 445:0.33333334 761:0.33333334 1375:0.33333334 #
1.0000000248699565386090171159594 320:0.70710677 487:0.70710677 #
1.0000000248699565386090171159594 24:0.40824831 95:0.81649661 188:0.40824831 #
1.0000000248699565386090171159594 9:0.33333334 42:0.66666669 55:0.33333334 140:0.33333334 438:0.33333334 1703:0.33333334 #
-0.038213960204502364637058065000019 9:0.70710677 2075:0.70710677 #
1.0000000248699565386090171159594 15:0.35355338 35:0.35355338 87:0.70710677 314:0.35355338 438:0.35355338 #
-0.28035556025453578499195828044321 32:0.70710677 567:0.70710677 #
1.0000000248699565386090171159594 1:0.5 320:0.5 339:0.5 388:0.5 #
1.0000000248699565386090171159594 165:1 #
-0.26527076271177219002339597864193 35:0.5 1337:0.5 1380:0.5 1998:0.5 #
-1.0000000248699565386090171159594 542:1 #
-1.0000000248699565386090171159594 1431:1 #
1.0000000248699565386090171159594 1114:0.70710677 1943:0.70710677 #
1.0000000248699565386090171159594 739:1 #
1.0000000248699565386090171159594 768:0.70710677 1949:0.70710677 #
-1.0000000248699565386090171159594 200:0.70710677 542:0.70710677 #
-1.0000000248699565386090171159594 73:0.57735026 200:0.57735026 542:0.57735026 #
-0.12529720936282517929072355400422 45:0.57735026 172:0.57735026 1429:0.57735026 #
-0.8802447569541463900932853903214 43:1 #
1.0000000248699565386090171159594 216:1 #
1.0000000248699565386090171159594 9:0.57735026 45:0.57735026 165:0.57735026 #
1.0000000248699565386090171159594 144:0.5 165:0.5 216:0.5 747:0.5 #
1.0000000248699565386090171159594 165:1 #
-0.62919007791917092031752645198139 9:1 #
-1.0000000248699565386090171159594 9:0.57735026 165:0.57735026 1701:0.57735026 #
-0.26596410084449051414168252449599 743:1 #
-0.91811347398779019624015518274973 986:1 #
-1.0000000248699565386090171159594 24:1 #
1.0000000248699565386090171159594 12:0.28867513 14:0.28867513 433:0.28867513 542:0.28867513 1151:0.28867513 1790:0.28867513 1915:0.28867513 1941:0.57735026 2473:0.28867513 #
1.0000000248699565386090171159594 542:1 #
-1.0000000248699565386090171159594 542:1 #
1.0000000248699565386090171159594 9:0.57735026 1112:0.57735026 1689:0.57735026 #
1.0000000248699565386090171159594 9:0.44721359 24:0.44721359 1131:0.44721359 1878:0.44721359 1989:0.44721359 #
0.95721909331979593282824225752847 27:0.35355338 28:0.35355338 87:0.35355338 160:0.35355338 1367:0.35355338 1704:0.35355338 1855:0.35355338 2449:0.35355338 #
1.0000000248699565386090171159594 9:0.33333334 90:0.33333334 100:0.33333334 483:0.33333334 642:0.66666669 1155:0.33333334 #
-1.0000000248699565386090171159594 1150:1 #
-1.0000000248699565386090171159594 12:0.75592893 55:0.37796447 160:0.37796447 1458:0.37796447 #
-1.0000000248699565386090171159594 12:1 #
1.0000000248699565386090171159594 542:1 #
1.0000000248699565386090171159594 83:0.89442718 263:0.44721359 #
1.0000000248699565386090171159594 24:0.70710677 73:0.70710677 #
-0.038785479714939397055672998249065 12:0.5 291:0.5 1692:0.5 2391:0.5 #
-1.0000000248699565386090171159594 542:1 #
1.0000000248699565386090171159594 12:1 #
1.0000000248699565386090171159594 12:0.44721359 27:0.44721359 55:0.44721359 71:0.44721359 81:0.44721359 #
1.0000000248699565386090171159594 9:0.40824831 12:0.40824831 212:0.40824831 391:0.40824831 1113:0.40824831 1995:0.40824831 #
-1.0000000248699565386090171159594 28:0.57735026 292:0.57735026 978:0.57735026 #
-1.0000000248699565386090171159594 15:0.30151135 24:0.30151135 35:0.30151135 77:0.30151135 82:0.30151135 386:0.30151135 918:0.30151135 1136:0.30151135 2140:0.30151135 2446:0.30151135 2464:0.30151135 #
-0.4480276850049756953708879336773 1968:1 #
1.0000000248699565386090171159594 542:0.70710677 1423:0.70710677 #
1.0000000248699565386090171159594 542:0.57735026 1118:0.57735026 1739:0.57735026 #
1.0000000248699565386090171159594 27:0.5 432:0.5 542:0.5 1990:0.5 #
-1.0000000248699565386090171159594 542:1 #
-1.0000000248699565386090171159594 490:0.44721359 542:0.89442718 #
1.0000000248699565386090171159594 269:0.37796447 382:0.37796447 918:0.37796447 1911:0.37796447 2001:0.37796447 2446:0.37796447 2453:0.37796447 #
1.0000000248699565386090171159594 24:1 #
-0.49041312293681815770440834967303 14:0.70710677 82:0.70710677 #
-0.56964180081350224149616678914754 38:0.57735026 1336:0.57735026 1377:0.57735026 #
-0.013425526579125546255966128228465 506:0.5 870:0.5 1028:0.5 1559:0.5 #
-0.13541617537839459317616785938299 42:0.37796447 269:0.37796447 310:0.37796447 1429:0.37796447 1489:0.37796447 1959:0.37796447 2469:0.37796447 #
-0.15087577894688875002060512997559 491:0.57735026 661:0.57735026 1179:0.57735026 #
1.0000000248699565386090171159594 542:1 #
1.0000000248699565386090171159594 20:0.40824831 38:0.40824831 45:0.40824831 484:0.40824831 542:0.40824831 923:0.40824831 #
1.0000000248699565386090171159594 14:0.40824831 35:0.40824831 232:0.40824831 315:0.40824831 318:0.40824831 2456:0.40824831 #
1.0000000248699565386090171159594 12:0.25819889 91:0.25819889 100:0.25819889 150:0.25819889 283:0.77459669 310:0.25819889 436:0.25819889 #
-0.064880164211969404419733109534718 272:1 #
-0.064107436333877165779426832159515 1601:1 #
1.0000000248699565386090171159594 9:0.125 14:0.125 23:0.125 87:0.625 95:0.125 139:0.125 151:0.25 152:0.125 198:0.125 271:0.125 390:0.125 537:0.125 563:0.125 643:0.125 649:0.125 978:0.125 1136:0.125 1377:0.125 1709:0.125 1732:0.125 1743:0.125 1746:0.25 1758:0.125 1766:0.125 1768:0.125 1773:0.125 1787:0.125 1806:0.125 1811:0.125 1837:0.125 1873:0.125 1874:0.125 1987:0.125 1994:0.125 #
-0.24932217810221063425402121538355 14:0.40824831 109:0.40824831 315:0.40824831 1337:0.40824831 1995:0.40824831 2445:0.40824831 #
-0.18665021319393404475306397216627 55:0.57735026 71:0.57735026 278:0.57735026 #
1.0000000248699565386090171159594 42:1 #
-0.064081720675513542673229494539555 1329:1 #
-0.064563970371698545247518552514521 1655:0.70710677 2076:0.70710677 #
-1.0000000248699565386090171159594 24:1 #
-0.27234492082366112963853765904787 1959:1 #
1.0000000248699565386090171159594 269:0.40824831 474:0.40824831 1336:0.81649661 #
1.0000000248699565386090171159594 269:1 #
1.0000000248699565386090171159594 1336:1 #
-0.087380465885487673682874287806044 30:0.44721359 1665:0.44721359 2408:0.44721359 2450:0.44721359 2463:0.44721359 #
-1.0000000248699565386090171159594 6:0.31622776 14:0.31622776 109:0.31622776 185:0.31622776 216:0.31622776 269:0.31622776 764:0.31622776 839:0.31622776 1561:0.31622776 2365:0.31622776 #
-0.2325485855247287625413576961364 14:0.5 128:0.5 191:0.5 269:0.5 #
1.0000000248699565386090171159594 55:0.5 1400:0.5 1406:0.5 1429:0.5 #
1.0000000248699565386090171159594 28:0.5 90:0.5 649:0.5 1972:0.5 #
1.0000000248699565386090171159594 33:0.45883146 43:0.22941573 83:0.22941573 139:0.22941573 153:0.22941573 749:0.22941573 1134:0.45883146 1429:0.45883146 1964:0.22941573 2432:0.22941573 #
-0.070317091001988185627880056927097 9:0.31622776 33:0.31622776 290:0.31622776 920:0.31622776 1400:0.31622776 1429:0.63245553 2417:0.31622776 #
-0.0027991406650495209706974719665595 9:0.57735026 1996:0.57735026 2030:0.57735026 #
-0.47624005241413486233525986790482 42:0.2773501 318:0.2773501 501:0.2773501 987:0.5547002 1429:0.5547002 1487:0.2773501 1941:0.2773501 #
-1.0000000248699565386090171159594 95:1 #
1.0000000248699565386090171159594 196:0.57735026 269:0.57735026 1351:0.57735026 #
1.0000000248699565386090171159594 14:1 #
-0.069715699260652908009205930284224 42:0.57735026 335:0.57735026 2060:0.57735026 #
-0.064050731719203279901364567194832 2218:1 #
-0.01802680675478842559078529461658 126:0.70710677 2131:0.70710677 #
1.0000000248699565386090171159594 128:0.57735026 1369:0.57735026 1424:0.57735026 #
1.0000000248699565386090171159594 128:1 #
1.0000000248699565386090171159594 42:1 #
-1.0000000248699565386090171159594 14:1 #
-0.064291768992282685712957857049332 858:0.70710677 1527:0.70710677 #
-0.1581240317823897623128459599684 55:0.37796447 128:0.37796447 249:0.75592893 567:0.37796447 #
-0.65458440176218668504759534698678 314:1 #
-1.0000000248699565386090171159594 13:0.5 18:0.5 2417:0.5 2454:0.5 #
1.0000000248699565386090171159594 14:1 #
-0.1265690646499194049745540269214 87:0.70710677 760:0.70710677 #
-0.091938096814288022828876023595512 128:0.37796447 382:0.75592893 450:0.37796447 1241:0.37796447 #
-0.12360767232685143657278104001307 55:0.5 320:0.5 2133:0.5 2187:0.5 #
-0.037353135759902518497899137628337 655:0.70710677 2389:0.70710677 #
1.0000000248699565386090171159594 165:0.81649661 206:0.40824831 345:0.40824831 #
-0.064561605611029526663458000257378 1265:1 #
-0.49175199419257847877062772568024 439:0.37796447 488:0.75592893 902:0.37796447 1431:0.37796447 #
1.0000000248699565386090171159594 764:0.70710677 2446:0.70710677 #
1.0000000248699565386090171159594 9:0.35355338 473:0.35355338 545:0.35355338 1926:0.35355338 2446:0.70710677 #
1.0000000248699565386090171159594 1111:1 #
1.0000000248699565386090171159594 12:0.2773501 27:0.2773501 62:0.2773501 79:0.2773501 139:0.2773501 263:0.2773501 382:0.2773501 442:0.5547002 487:0.2773501 1707:0.2773501 #
1.0000000248699565386090171159594 176:0.5 770:0.5 1795:0.5 2446:0.5 #
0.2833562593165325216304495370423 439:0.44721359 488:0.44721359 650:0.44721359 1130:0.44721359 1144:0.44721359 #
1.0000000248699565386090171159594 187:1 #
1.0000000248699565386090171159594 14:0.70710677 187:0.70710677 #
1.0000000248699565386090171159594 42:1 #
1.0000000248699565386090171159594 42:0.70710677 648:0.70710677 #
1.0000000248699565386090171159594 42:0.57735026 1349:0.57735026 1941:0.57735026 #
-0.44021782225371941521530061436351 47:0.40824831 913:0.40824831 1688:0.81649661 #
-0.23778958407660166773922583161038 12:0.57735026 42:0.57735026 1357:0.57735026 #
-0.094519045293083414627233196370071 1413:1 #
-0.16239475837202244079549018351827 108:0.57735026 897:0.57735026 1938:0.57735026 #
1.0000000248699565386090171159594 14:0.57735026 28:0.57735026 104:0.57735026 #
1.0000000248699565386090171159594 14:0.57735026 70:0.57735026 102:0.57735026 #
1.0000000248699565386090171159594 14:1 #
1.0000000248699565386090171159594 62:0.57735026 95:0.57735026 1846:0.57735026 #
1.0000000248699565386090171159594 62:1 #
1.0000000248699565386090171159594 445:1 #
1.0000000248699565386090171159594 114:0.70710677 121:0.70710677 #
1.0000000248699565386090171159594 12:0.44721359 24:0.44721359 120:0.44721359 229:0.44721359 1739:0.44721359 #
1.0000000248699565386090171159594 109:0.70710677 559:0.70710677 #
1.0000000248699565386090171159594 550:0.44721359 752:0.44721359 1357:0.44721359 1920:0.44721359 1992:0.44721359 #
-0.86712949273699047036956244483008 387:1 #
1.0000000248699565386090171159594 24:0.5547002 84:0.2773501 195:0.5547002 438:0.2773501 488:0.2773501 773:0.2773501 1852:0.2773501 #
1.0000000248699565386090171159594 9:0.35355338 23:0.35355338 41:0.35355338 90:0.35355338 185:0.35355338 740:0.35355338 1358:0.35355338 1374:0.35355338 #
1.0000000248699565386090171159594 24:0.57735026 109:0.57735026 1938:0.57735026 #
1.0000000248699565386090171159594 42:1 #
1.0000000248699565386090171159594 108:0.57735026 161:0.57735026 310:0.57735026 #
1.0000000248699565386090171159594 292:1 #
1.0000000248699565386090171159594 28:0.37796447 318:0.37796447 981:0.75592893 1770:0.37796447 #
1.0000000248699565386090171159594 987:1 #
1.0000000248699565386090171159594 9:0.57735026 646:0.57735026 1344:0.57735026 #
1.0000000248699565386090171159594 45:0.70710677 1998:0.70710677 #
1.0000000248699565386090171159594 1372:1 #
-0.061103670479625761535746875097175 14:0.70710677 1204:0.70710677 #
1.0000000248699565386090171159594 12:0.44721359 322:0.44721359 567:0.44721359 968:0.44721359 1803:0.44721359 #
-0.21554079827951000414287818784942 741:1 #
1.0000000248699565386090171159594 1928:0.70710677 2464:0.70710677 #
1.0000000248699565386090171159594 258:1 #
1.0000000248699565386090171159594 165:1 #
1.0000000248699565386090171159594 24:0.28867513 55:0.28867513 71:0.28867513 129:0.57735026 152:0.28867513 320:0.28867513 323:0.28867513 977:0.28867513 1379:0.28867513 #
1.0000000248699565386090171159594 24:0.37796447 55:0.37796447 1133:0.37796447 1428:0.37796447 1855:0.37796447 2447:0.37796447 2461:0.37796447 #
1.0000000248699565386090171159594 557:0.40824831 662:0.40824831 1701:0.81649661 #
1.0000000248699565386090171159594 14:0.57735026 42:0.57735026 569:0.57735026 #
1.0000000248699565386090171159594 14:0.35355338 18:0.35355338 73:0.35355338 388:0.35355338 490:0.35355338 973:0.35355338 979:0.35355338 1146:0.35355338 #
1.0000000248699565386090171159594 14:0.70710677 2412:0.70710677 #
1.0000000248699565386090171159594 14:0.70710677 18:0.70710677 #
1.0000000248699565386090171159594 23:0.40824831 55:0.40824831 78:0.40824831 398:0.40824831 1148:0.40824831 1872:0.40824831 #
-1.0000000248699565386090171159594 1336:1 #
-0.94443982277824467530535912374035 14:0.5 35:0.5 70:0.5 1938:0.5 #
-0.69664704690064860326259577050223 1423:1 #
-0.97700825245155842324606965121347 43:1 #
1.0000000248699565386090171159594 12:0.2773501 55:0.2773501 138:0.2773501 153:0.2773501 317:0.2773501 436:0.2773501 542:0.2773501 641:0.2773501 978:0.2773501 1363:0.2773501 1808:0.2773501 2408:0.2773501 2462:0.2773501 #
1.0000000248699565386090171159594 28:0.40824831 266:0.40824831 542:0.40824831 985:0.40824831 2417:0.40824831 2450:0.40824831 #
1.0000000248699565386090171159594 58:0.5 139:0.5 542:0.5 1375:0.5 #
1.0000000248699565386090171159594 120:0.37796447 121:0.37796447 445:0.37796447 542:0.37796447 951:0.37796447 1864:0.37796447 2454:0.37796447 #
1.0000000248699565386090171159594 9:0.40824831 139:0.40824831 436:0.40824831 481:0.40824831 912:0.40824831 2433:0.40824831 #
-1.0000000248699565386090171159594 5:0.26726124 23:0.26726124 28:0.26726124 81:0.26726124 217:0.26726124 436:0.26726124 486:0.53452247 649:0.26726124 905:0.26726124 918:0.26726124 1144:0.26726124 #
-1.0000000248699565386090171159594 139:0.57735026 981:0.57735026 1349:0.57735026 #
-0.95745041524908158780959865907789 187:1 #
-1.0000000248699565386090171159594 269:0.44721359 323:0.44721359 545:0.44721359 647:0.44721359 1428:0.44721359 #
1.0000000248699565386090171159594 28:0.37796447 42:0.37796447 200:0.37796447 337:0.37796447 345:0.37796447 649:0.37796447 1779:0.37796447 #
1.0000000248699565386090171159594 11:0.2773501 74:0.5547002 120:0.2773501 200:0.5547002 572:0.2773501 1950:0.2773501 2417:0.2773501 #
1.0000000248699565386090171159594 28:0.33333334 55:0.33333334 110:0.33333334 380:0.66666669 1360:0.33333334 1939:0.33333334 #
-1.0000000248699565386090171159594 216:0.70710677 1138:0.70710677 #
-0.67070601667566376313800446951063 2456:1 #
-0.2860410034359261999270529486239 216:1 #
-0.13159369046375452017016982608766 58:0.37796447 155:0.37796447 292:0.37796447 391:0.37796447 1113:0.37796447 1120:0.37796447 2406:0.37796447 #
-1.0000000248699565386090171159594 1369:1 #
1.0000000248699565386090171159594 9:0.70710677 325:0.70710677 #
1.0000000248699565386090171159594 42:0.37796447 139:0.75592893 977:0.37796447 983:0.37796447 #
1.0000000248699565386090171159594 206:0.5 269:0.5 640:0.5 1707:0.5 #
1.0000000248699565386090171159594 9:1 #
-0.02230135375548891740749013479217 399:0.70710677 1534:0.70710677 #
-0.028329117061739461647107418684755 12:1 #
-1.0000000248699565386090171159594 9:0.70710677 646:0.70710677 #
-1.0000000248699565386090171159594 110:1 #
-0.10239710315047589883619139072835 9:1 #
1.0000000248699565386090171159594 55:0.57735026 200:0.57735026 978:0.57735026 #
1.0000000248699565386090171159594 27:0.53452247 42:0.26726124 43:0.26726124 44:0.26726124 67:0.26726124 208:0.26726124 213:0.26726124 1369:0.26726124 1428:0.26726124 1995:0.26726124 2435:0.26726124 #
1.0000000248699565386090171159594 1749:0.70710677 1970:0.70710677 #
1.0000000248699565386090171159594 5:0.40824831 55:0.40824831 81:0.40824831 238:0.40824831 438:0.40824831 486:0.40824831 #
1.0000000248699565386090171159594 216:1 #
-0.037979713526324503092279627480821 750:0.70710677 2314:0.70710677 #
-1.0000000248699565386090171159594 27:0.5 28:0.5 55:0.5 90:0.5 #
0.17277435542177396743390715982969 151:0.35355338 161:0.35355338 958:0.70710677 1125:0.35355338 1795:0.35355338 #
-1.0000000248699565386090171159594 27:1 #
-0.4016386274728535044076238591515 640:0.81649661 693:0.40824831 1111:0.40824831 #
1.0000000248699565386090171159594 9:1 #
1.0000000248699565386090171159594 9:0.94280905 436:0.23570226 552:0.23570226 #
-1.0000000248699565386090171159594 9:0.57735026 152:0.57735026 284:0.57735026 #
-0.64128048549223748420189394892077 1351:1 #
-0.37856862737424845644085280582658 196:1 #
-0.10523907511034003015026883076644 283:1 #
1.0000000248699565386090171159594 14:0.44721359 40:0.44721359 45:0.44721359 231:0.44721359 1841:0.44721359 #
1.0000000248699565386090171159594 2403:1 #
1.0000000248699565386090171159594 14:0.53452247 58:0.26726124 128:0.26726124 139:0.26726124 145:0.26726124 261:0.26726124 2403:0.53452247 2439:0.26726124 #
1.0000000248699565386090171159594 116:0.37796447 316:0.37796447 767:0.37796447 937:0.37796447 1700:0.37796447 1703:0.37796447 1871:0.37796447 #
-0.18350277374295276278104438461014 1998:1 #
-1.0000000248699565386090171159594 2403:1 #
1.0000000248699565386090171159594 319:1 #
1.0000000248699565386090171159594 545:1 #
1.0000000248699565386090171159594 564:0.70710677 1429:0.70710677 #
-0.081047738810549996291143770577037 188:0.89442718 231:0.44721359 #
-1.0000000248699565386090171159594 120:1 #
-0.47094526899880195802694515805342 216:1 #
-0.051393462223726427140491068712436 137:1 #
-1.0000000248699565386090171159594 24:1 #
1.0000000248699565386090171159594 337:0.70710677 2403:0.70710677 #
1.0000000248699565386090171159594 1690:0.81649661 1997:0.40824831 2403:0.40824831 #
1.0000000248699565386090171159594 240:0.35355338 320:0.35355338 1951:0.35355338 2403:0.70710677 2447:0.35355338 #
1.0000000248699565386090171159594 226:0.5 282:0.5 1687:0.5 1985:0.5 #
-1.0000000248699565386090171159594 2403:1 #
1.0000000248699565386090171159594 24:0.37796447 113:0.37796447 140:0.37796447 216:0.37796447 399:0.37796447 647:0.37796447 655:0.37796447 #
1.0000000248699565386090171159594 35:1 #
1.0000000248699565386090171159594 1704:1 #
-0.0050733987559186365101648874542661 51:0.26726124 58:0.26726124 115:0.26726124 121:0.26726124 137:0.26726124 462:0.53452247 1147:0.26726124 1191:0.26726124 2224:0.26726124 2358:0.26726124 2463:0.26726124 #
-0.92771107516088302524792652548058 649:0.57735026 1688:0.57735026 1690:0.57735026 #
-1.0000000248699565386090171159594 445:1 #
-0.13740930808332585399966774275526 552:1 #
-0.37557340372667769035075480132946 1690:1 #
1.0000000248699565386090171159594 982:0.70710677 1137:0.70710677 #
1.0000000248699565386090171159594 73:0.40824831 139:0.40824831 391:0.40824831 552:0.40824831 762:0.40824831 1365:0.40824831 #
-0.32644959624589175994913148315391 551:1 #
-0.29298162148617779010351114266086 913:1 #
-1.0000000248699565386090171159594 73:0.44721359 1137:0.89442718 #
-1.0000000248699565386090171159594 24:1 #
-1.0000000248699565386090171159594 139:1 #
1.0000000248699565386090171159594 121:0.40824831 649:0.40824831 1155:0.40824831 1387:0.40824831 1690:0.40824831 1938:0.40824831 #
1.0000000248699565386090171159594 110:0.44721359 186:0.44721359 227:0.44721359 320:0.44721359 444:0.44721359 #
1.0000000248699565386090171159594 320:0.70710677 560:0.70710677 #
1.0000000248699565386090171159594 320:0.70710677 1907:0.70710677 #
-1.0000000248699565386090171159594 11:0.40824831 14:0.40824831 108:0.40824831 141:0.40824831 400:0.40824831 544:0.40824831 #
-0.32216937873706263939510563432123 438:0.40824831 1365:0.40824831 1400:0.81649661 #
-1.0000000248699565386090171159594 320:1 #
1.0000000248699565386090171159594 139:1 #
1.0000000248699565386090171159594 139:0.57735026 1778:0.57735026 2463:0.57735026 #
-0.27618770029956990486041945587203 167:0.70710677 246:0.70710677 #
0.40797241635170578000213481573155 1:0.31622776 84:0.31622776 89:0.63245553 109:0.31622776 211:0.31622776 440:0.31622776 2417:0.31622776 #
-0.30011898558386812529974463359395 984:0.70710677 1113:0.70710677 #
-1.0000000248699565386090171159594 2463:1 #
-1.0000000248699565386090171159594 139:0.40824831 342:0.40824831 438:0.40824831 545:0.40824831 1354:0.40824831 1989:0.40824831 #
1.0000000248699565386090171159594 14:0.5 101:0.5 320:0.5 1937:0.5 #
1.0000000248699565386090171159594 14:0.80178374 110:0.53452247 152:0.26726124 #
1.0000000248699565386090171159594 14:0.22941573 83:0.45883146 90:0.45883146 124:0.22941573 206:0.22941573 216:0.22941573 321:0.22941573 436:0.22941573 743:0.22941573 1132:0.22941573 1422:0.22941573 1870:0.22941573 1940:0.22941573 #
1.0000000248699565386090171159594 544:1 #
-1.0000000248699565386090171159594 14:1 #
-0.15440491831739211470164718775777 1150:1 #
1.0000000248699565386090171159594 184:0.70710677 2463:0.70710677 #
1.0000000248699565386090171159594 1903:0.70710677 2463:0.70710677 #
1.0000000248699565386090171159594 1140:0.70710677 2463:0.70710677 #
-1.0000000248699565386090171159594 2403:1 #
-0.0028115947924843842642417257593479 325:1 #
-0.011804676741300319797733919813254 291:0.57735026 321:0.57735026 1692:0.57735026 #
-1.0000000248699565386090171159594 978:1 #
-1.0000000248699565386090171159594 544:1 #
1.0000000248699565386090171159594 11:0.40824831 548:0.40824831 569:0.40824831 745:0.40824831 1716:0.40824831 1717:0.40824831 #
1.0000000248699565386090171159594 14:0.57735026 139:0.57735026 545:0.57735026 #
1.0000000248699565386090171159594 14:0.30151135 29:0.30151135 1431:0.90453404 #
1.0000000248699565386090171159594 22:0.5 139:0.5 140:0.5 986:0.5 #
-0.31957993328774292329796935518971 14:0.70710677 82:0.70710677 #
-0.06544008721309146903166720221634 464:0.5 1057:0.5 1058:0.5 1948:0.5 #
-0.52424050969960456214380428718869 14:0.70710677 337:0.70710677 #
1.0000000248699565386090171159594 544:1 #
1.0000000248699565386090171159594 544:0.70710677 2437:0.70710677 #
1.0000000248699565386090171159594 185:0.57735026 544:0.57735026 1385:0.57735026 #
-1.0000000248699565386090171159594 16:0.5 70:0.5 653:0.5 1995:0.5 #
-1.0000000248699565386090171159594 544:1 #
1.0000000248699565386090171159594 14:0.70710677 482:0.70710677 #
-1.0000000248699565386090171159594 121:0.40824831 134:0.40824831 1385:0.40824831 1990:0.40824831 2243:0.40824831 2452:0.40824831 #
-1.0000000248699565386090171159594 569:1 #
1.0000000248699565386090171159594 24:0.70710677 1120:0.70710677 #
1.0000000248699565386090171159594 24:0.57735026 382:0.57735026 400:0.57735026 #
1.0000000248699565386090171159594 337:0.57735026 381:0.57735026 543:0.57735026 #
1.0000000248699565386090171159594 14:0.33333334 33:0.33333334 341:0.33333334 346:0.66666669 648:0.33333334 1941:0.33333334 #
-0.70014349748780735360753624263452 1155:1 #
0.3718808525627352312703521874937 3:0.83205032 385:0.2773501 978:0.2773501 985:0.2773501 1398:0.2773501 #
-0.024169106621550091873462662306338 351:0.57735026 1018:0.57735026 1082:0.57735026 #
-0.42682389057503439255825128384458 128:0.57735026 211:0.57735026 1987:0.57735026 #
1.0000000248699565386090171159594 569:1 #
1.0000000248699565386090171159594 380:0.57735026 940:0.57735026 2453:0.57735026 #
1.0000000248699565386090171159594 14:0.44721359 70:0.44721359 443:0.44721359 1137:0.44721359 2454:0.44721359 #
1.0000000248699565386090171159594 544:1 #
-0.046724864617150176082649437603322 102:0.31622776 114:0.31622776 1059:0.31622776 1127:0.31622776 1251:0.31622776 1422:0.63245553 1544:0.31622776 #
-0.33194979087718157195752155530499 444:1 #
-1.0000000248699565386090171159594 14:0.30151135 22:0.30151135 70:0.60302269 400:0.30151135 745:0.30151135 1114:0.30151135 1345:0.30151135 1605:0.30151135 #
-1.0000000248699565386090171159594 87:1 #
-0.98822753663507578725244684392237 569:1 #
1.0000000248699565386090171159594 552:1 #
1.0000000248699565386090171159594 552:0.57735026 917:0.57735026 1854:0.57735026 #
1.0000000248699565386090171159594 134:0.70710677 2411:0.70710677 #
1.0000000248699565386090171159594 165:0.70710677 2452:0.70710677 #
-0.013584386406783388601127171568805 468:1 #
-0.83759229137338431225856538731023 552:1 #
1.0000000248699565386090171159594 14:0.57735026 70:0.57735026 139:0.57735026 #
1.0000000248699565386090171159594 569:0.70710677 748:0.70710677 #
-1.0000000248699565386090171159594 544:1 #
1.0000000248699565386090171159594 347:1 #
1.0000000248699565386090171159594 216:0.40824831 314:0.40824831 549:0.81649661 #
1.0000000248699565386090171159594 292:0.57735026 1371:0.57735026 1390:0.57735026 #
1.0000000248699565386090171159594 291:0.70710677 1692:0.70710677 #
-1.0000000248699565386090171159594 139:1 #
-0.064315651248602612177762694045668 669:1 #
-1.0000000248699565386090171159594 121:0.5 440:0.5 766:0.5 2412:0.5 #
-1.0000000248699565386090171159594 2454:1 #
-1.0000000248699565386090171159594 445:0.70710677 1940:0.70710677 #
-0.035985904127253665052421638392843 550:1 #
1.0000000248699565386090171159594 770:1 #
1.0000000248699565386090171159594 1701:0.70710677 1909:0.70710677 #
1.0000000248699565386090171159594 189:0.70710677 739:0.70710677 #
-1.0000000248699565386090171159594 739:0.70710677 1703:0.70710677 #
-1.0000000248699565386090171159594 770:1 #
-0.99373319188992625949907733229338 739:1 #
-0.06466166394541350559421744037536 1671:1 #
-0.42412439633178594666773619792366 15:0.70710677 770:0.70710677 #
1.0000000248699565386090171159594 745:0.70710677 2454:0.70710677 #
1.0000000248699565386090171159594 45:0.35355338 439:0.35355338 544:0.35355338 550:0.35355338 977:0.35355338 1760:0.35355338 2450:0.35355338 2455:0.35355338 #
1.0000000248699565386090171159594 2454:1 #
-1.0000000248699565386090171159594 473:0.70710677 2454:0.70710677 #
-0.16803415546338865138586982084234 542:0.5 914:0.5 1118:0.5 1423:0.5 #
-0.15700350267402363169111367824371 1676:0.70710677 2454:0.70710677 #
-0.12939443567499775422646735023591 1442:0.70710677 2454:0.70710677 #
1.0000000248699565386090171159594 77:0.44721359 94:0.44721359 739:0.44721359 933:0.44721359 2474:0.44721359 #
1.0000000248699565386090171159594 176:0.5 210:0.5 284:0.5 770:0.5 #
1.0000000248699565386090171159594 290:0.57735026 538:0.57735026 1154:0.57735026 #
-0.35374596110015565919582058995729 14:0.70710677 1122:0.70710677 #
-0.42211822082387084886789807569585 196:0.57735026 1371:0.57735026 2434:0.57735026 #
-0.033514325924141719070803446811624 176:0.57735026 1370:0.57735026 2446:0.57735026 #
-0.19499120644741696484203430372872 1998:1 #
-0.64830324187710064443024293723283 153:0.57735026 176:0.57735026 2446:0.57735026 #
1.0000000248699565386090171159594 653:0.5 764:0.5 1939:0.5 2454:0.5 #
1.0000000248699565386090171159594 232:0.40824831 473:0.81649661 938:0.40824831 #
-0.6352897708459238623746045959706 34:0.20851441 102:0.20851441 158:0.20851441 318:0.20851441 979:0.20851441 1491:0.41702881 1690:0.20851441 1940:0.41702881 1997:0.62554324 #
-0.057042723342117018781038950692164 64:1 #
-1.0000000248699565386090171159594 27:1 #
-0.26810690654254726306149336778617 232:0.57735026 388:0.57735026 1939:0.57735026 #
-0.064563968140123439987121400918113 467:1 #
1.0000000248699565386090171159594 2446:1 #
1.0000000248699565386090171159594 176:1 #
1.0000000248699565386090171159594 1699:0.70710677 2446:0.70710677 #
1.0000000248699565386090171159594 1989:0.70710677 2446:0.70710677 #
-1.0000000248699565386090171159594 2446:1 #
1.0000000248699565386090171159594 232:0.57735026 489:0.57735026 1755:0.57735026 #
1.0000000248699565386090171159594 1338:1 #
1.0000000248699565386090171159594 62:0.70710677 774:0.70710677 #
-0.77215148507332165284111624714569 1699:1 #
-0.53651333823878410989038911793614 1985:1 #
-0.41682449508442276364661438492476 2441:1 #
-0.15776538482705704247166522691259 70:1 #
-0.041427836635758712169330664210065 40:0.57735026 448:0.57735026 582:0.57735026 #
1.0000000248699565386090171159594 14:0.57735026 262:0.57735026 947:0.57735026 #
1.0000000248699565386090171159594 15:0.57735026 139:0.57735026 391:0.57735026 #
1.0000000248699565386090171159594 1939:1 #
1.0000000248699565386090171159594 14:0.40824831 188:0.40824831 1359:0.40824831 1877:0.40824831 1937:0.40824831 2459:0.40824831 #
-0.065010720386291631633923771005357 2139:1 #
0.40667716749275584220413293223828 979:0.70710677 1697:0.70710677 #
-1.0000000248699565386090171159594 364:0.75592893 977:0.37796447 978:0.37796447 1936:0.37796447 #
-0.064307877175301730865442095819162 929:1 #
-0.065191689213745962483415041788248 1218:1 #
-1.0000000248699565386090171159594 1939:1 #
-0.13136244407572245096460505919822 1430:0.57735026 1937:0.57735026 1939:0.57735026 #
-1.0000000248699565386090171159594 113:0.70710677 1939:0.70710677 #
1.0000000248699565386090171159594 2466:1 #
1.0000000248699565386090171159594 491:0.5 536:0.5 1829:0.5 1843:0.5 #
1.0000000248699565386090171159594 1431:1 #
-1.0000000248699565386090171159594 1431:1 #
-1.0000000248699565386090171159594 391:1 #
1.0000000248699565386090171159594 48:0.57735026 1939:0.57735026 1942:0.57735026 #
1.0000000248699565386090171159594 23:0.40824831 109:0.40824831 165:0.40824831 946:0.40824831 1374:0.40824831 1939:0.40824831 #
1.0000000248699565386090171159594 42:0.57735026 400:0.57735026 1939:0.57735026 #
1.0000000248699565386090171159594 113:1 #
1.0000000248699565386090171159594 45:0.5 1378:0.5 1939:0.5 2001:0.5 #
-1.0000000248699565386090171159594 292:0.57735026 391:0.57735026 552:0.57735026 #
-1.0000000248699565386090171159594 978:1 #
-1.0000000248699565386090171159594 110:1 #
1.0000000248699565386090171159594 391:1 #
-1.0000000248699565386090171159594 165:0.57735026 391:0.57735026 399:0.57735026 #
-0.28617336553215300121166819735663 1937:1 #
-0.11541847837428406697846128281526 14:0.37796447 83:0.75592893 877:0.37796447 1422:0.37796447 #
0.7116575745773350281098146297154 561:1 #
1.0000000248699565386090171159594 1937:1 #
1.0000000248699565386090171159594 81:0.70710677 640:0.70710677 #
1.0000000248699565386090171159594 167:0.5 246:0.5 647:0.5 1137:0.5 #
1.0000000248699565386090171159594 24:0.53452247 35:0.26726124 67:0.26726124 110:0.53452247 122:0.26726124 350:0.26726124 382:0.26726124 1430:0.26726124 #
-1.0000000248699565386090171159594 1937:1 #
1.0000000248699565386090171159594 14:1 #
1.0000000248699565386090171159594 399:1 #
1.0000000248699565386090171159594 14:0.70710677 646:0.70710677 #
-0.024695083602402030653610864874281 305:0.70710677 1702:0.70710677 #
-0.43077001553532756616959886741824 28:0.57735026 259:0.57735026 982:0.57735026 #
-0.050718957209052818735361967128483 652:0.57735026 1321:0.57735026 1336:0.57735026 #
-1.0000000248699565386090171159594 24:1 #
-0.15977131246396480968030573421856 2447:1 #
1.0000000248699565386090171159594 165:1 #
-1.0000000248699565386090171159594 165:1 #
1.0000000248699565386090171159594 24:0.57735026 650:0.57735026 1141:0.57735026 #
1.0000000248699565386090171159594 5:0.44721359 24:0.44721359 35:0.44721359 481:0.44721359 1937:0.44721359 #
1.0000000248699565386090171159594 24:0.70710677 1912:0.70710677 #
1.0000000248699565386090171159594 24:0.70710677 950:0.70710677 #
-1.0000000248699565386090171159594 1137:1 #
-0.95219337257198077839603911343147 81:1 #
1.0000000248699565386090171159594 165:1 #
1.0000000248699565386090171159594 30:1 #
-1.0000000248699565386090171159594 978:1 #
-1.0000000248699565386090171159594 122:0.40824831 128:0.81649661 1430:0.40824831 #
-0.093010057790318345638524988316931 552:1 #
-1.0000000248699565386090171159594 23:0.44721359 1941:0.89442718 #
-0.047418246019681253855537761410233 85:1 #
1.0000000248699565386090171159594 268:0.70710677 1137:0.70710677 #
1.0000000248699565386090171159594 1137:0.70710677 1925:0.70710677 #
1.0000000248699565386090171159594 1137:0.70710677 1691:0.70710677 #
1.0000000248699565386090171159594 83:0.70710677 915:0.70710677 #
-1.0000000248699565386090171159594 1137:1 #
-0.24070899335055007117745162759093 675:0.44721359 1137:0.89442718 #
-1.0000000248699565386090171159594 28:0.70710677 1137:0.70710677 #
-0.10320930264419975186385158849589 593:0.70710677 1137:0.70710677 #
1.0000000248699565386090171159594 81:0.70710677 110:0.70710677 #
1.0000000248699565386090171159594 81:0.5 649:0.5 751:0.5 2441:0.5 #
1.0000000248699565386090171159594 35:0.70710677 1836:0.70710677 #
-0.0032738886813238887718569003482116 9:0.57735026 28:0.57735026 2146:0.57735026 #
-0.32593849731613389053563878405839 1358:1 #
-1.0000000248699565386090171159594 35:1 #
1.0000000248699565386090171159594 1137:0.70710677 1366:0.70710677 #
1.0000000248699565386090171159594 28:0.57735026 1367:0.57735026 1941:0.57735026 #
-1.0000000248699565386090171159594 1366:1 #
-1.0000000248699565386090171159594 81:1 #
-0.68957942974708841266107128831209 24:0.70710677 1366:0.70710677 #
1.0000000248699565386090171159594 35:1 #
1.0000000248699565386090171159594 35:0.57735026 646:0.57735026 1691:0.57735026 #
1.0000000248699565386090171159594 35:0.44721359 320:0.44721359 1935:0.44721359 1955:0.44721359 2403:0.44721359 #
-1.0000000248699565386090171159594 35:1 #
1.0000000248699565386090171159594 1366:1 #
1.0000000248699565386090171159594 145:0.40824831 382:0.40824831 487:0.40824831 1366:0.40824831 1721:0.40824831 1979:0.40824831 #
-0.024185091350452332659148879656641 837:0.70710677 1257:0.70710677 #
-0.048550128237214898452300815279159 833:0.70710677 834:0.70710677 #
-0.6676681465858722575035244517494 2405:1 #
-0.17714863203155570281488451200858 35:0.57735026 266:0.57735026 1386:0.57735026 #
-1.0000000248699565386090171159594 481:1 #
1.0000000248699565386090171159594 24:0.57735026 1133:0.57735026 1430:0.57735026 #
1.0000000248699565386090171159594 167:0.70710677 1801:0.70710677 #
1.0000000248699565386090171159594 70:0.5 101:0.5 1863:0.5 1914:0.5 #
1.0000000248699565386090171159594 9:0.26726124 23:0.26726124 27:0.26726124 79:0.53452247 314:0.26726124 441:0.53452247 1396:0.26726124 2453:0.26726124 #
1.0000000248699565386090171159594 9:0.35355338 23:0.35355338 441:0.35355338 475:0.35355338 932:0.35355338 980:0.35355338 1380:0.35355338 1421:0.35355338 #
-1.0000000248699565386090171159594 441:1 #
1.0000000248699565386090171159594 110:1 #
0.51859612600098181633967442394351 151:0.44721359 318:0.44721359 649:0.44721359 1969:0.44721359 2401:0.44721359 #
1.0000000248699565386090171159594 649:0.57735026 1142:0.57735026 1840:0.57735026 #
-0.56086561735279572005197223916184 206:1 #
-1.0000000248699565386090171159594 79:0.70710677 640:0.70710677 #
-0.06465712820379054814878827528446 1308:1 #
-0.033340090893203833122271362299216 27:0.57735026 522:0.57735026 2454:0.57735026 #
-1.0000000248699565386090171159594 28:0.89442718 978:0.44721359 #
1.0000000248699565386090171159594 128:0.70710677 2405:0.70710677 #
1.0000000248699565386090171159594 14:0.33333334 70:0.33333334 228:0.33333334 389:0.33333334 430:0.33333334 649:0.33333334 741:0.33333334 1135:0.33333334 2447:0.33333334 #
1.0000000248699565386090171159594 128:0.57735026 1741:0.57735026 2405:0.57735026 #
-1.0000000248699565386090171159594 128:0.63245553 567:0.31622776 2405:0.63245553 2446:0.31622776 #
-1.0000000248699565386090171159594 14:0.5 58:0.5 128:0.5 2405:0.5 #
-0.11094228368160838349432140148565 128:0.57735026 588:0.57735026 2405:0.57735026 #
-1.0000000248699565386090171159594 128:0.57735026 338:0.57735026 2405:0.57735026 #
-0.085721378613239251897937265312066 1987:1 #
1.0000000248699565386090171159594 62:0.37796447 95:0.37796447 110:0.37796447 143:0.37796447 428:0.37796447 1772:0.37796447 1780:0.37796447 #
1.0000000248699565386090171159594 24:0.44721359 122:0.44721359 489:0.44721359 766:0.44721359 2459:0.44721359 #
1.0000000248699565386090171159594 1133:0.70710677 1371:0.70710677 #
-1.0000000248699565386090171159594 70:0.44721359 310:0.44721359 322:0.44721359 1130:0.44721359 2452:0.44721359 #
-1.0000000248699565386090171159594 489:1 #
-0.51094135787958550043441618981888 482:1 #
1.0000000248699565386090171159594 83:0.5 979:0.5 1366:0.5 2454:0.5 #
1.0000000248699565386090171159594 33:0.44721359 90:0.44721359 978:0.44721359 1689:0.44721359 1762:0.44721359 #
-1.0000000248699565386090171159594 1372:1 #
1.0000000248699565386090171159594 24:0.44721359 41:0.44721359 349:0.44721359 1375:0.44721359 1849:0.44721359 #
1.0000000248699565386090171159594 1375:1 #
1.0000000248699565386090171159594 1937:0.57735026 1999:0.57735026 2446:0.57735026 #
1.0000000248699565386090171159594 14:0.5 67:0.5 481:0.5 1429:0.5 #
1.0000000248699565386090171159594 115:1 #
1.0000000248699565386090171159594 24:0.70710677 289:0.70710677 #
1.0000000248699565386090171159594 24:0.70710677 1130:0.70710677 #
1.0000000248699565386090171159594 27:1 #
1.0000000248699565386090171159594 27:0.70710677 1822:0.70710677 #
1.0000000248699565386090171159594 64:0.70710677 390:0.70710677 #
1.0000000248699565386090171159594 27:0.57735026 482:0.57735026 1929:0.57735026 #
1.0000000248699565386090171159594 27:0.5 292:0.5 964:0.5 1722:0.5 #
1.0000000248699565386090171159594 2446:1 #
1.0000000248699565386090171159594 14:0.35355338 24:0.35355338 28:0.35355338 315:0.35355338 1940:0.70710677 #
1.0000000248699565386090171159594 28:0.44721359 2427:0.89442718 #
1.0000000248699565386090171159594 23:1 #
1.0000000248699565386090171159594 24:0.44721359 73:0.44721359 490:0.44721359 638:0.44721359 2457:0.44721359 #
1.0000000248699565386090171159594 482:1 #
1.0000000248699565386090171159594 9:1 #
-0.00064347402352499098211746630937569 73:0.70710677 310:0.70710677 #
-1.0000000248699565386090171159594 2457:1 #
-0.039614308574787773786773925621674 199:0.5 269:0.5 1669:0.5 2450:0.5 #
-1.0000000248699565386090171159594 310:1 #
1.0000000248699565386090171159594 9:0.26726124 15:0.26726124 16:0.26726124 186:0.53452247 338:0.26726124 1425:0.26726124 1954:0.53452247 2465:0.26726124 #
1.0000000248699565386090171159594 58:0.57735026 139:0.57735026 1137:0.57735026 #
1.0000000248699565386090171159594 28:0.44721359 352:0.44721359 978:0.44721359 1821:0.44721359 2405:0.44721359 #
1.0000000248699565386090171159594 55:0.37796447 81:0.37796447 552:0.37796447 741:0.37796447 977:0.37796447 978:0.37796447 1782:0.37796447 #
1.0000000248699565386090171159594 18:0.25819889 33:0.25819889 58:0.25819889 139:0.51639777 290:0.25819889 352:0.25819889 544:0.25819889 913:0.25819889 918:0.25819889 1136:0.25819889 1152:0.25819889 2449:0.25819889 #
-1.0000000248699565386090171159594 977:1 #
-0.95485030868475972987141631165287 48:0.70710677 977:0.70710677 #
-1.0000000248699565386090171159594 18:0.70710677 28:0.35355338 320:0.35355338 979:0.35355338 2287:0.35355338 #
-1.0000000248699565386090171159594 5:0.44721359 139:0.44721359 1606:0.44721359 2446:0.44721359 2455:0.44721359 #
1.0000000248699565386090171159594 73:0.35355338 87:0.35355338 102:0.35355338 269:0.35355338 394:0.35355338 978:0.35355338 1370:0.35355338 1846:0.35355338 #
1.0000000248699565386090171159594 128:0.70710677 755:0.70710677 #
1.0000000248699565386090171159594 128:0.70710677 1738:0.70710677 #
1.0000000248699565386090171159594 1369:1 #
1.0000000248699565386090171159594 87:0.5 215:0.25 320:0.25 339:0.25 348:0.25 436:0.25 542:0.25 955:0.25 978:0.25 985:0.25 1146:0.25 1404:0.25 1987:0.25 #
-1.0000000248699565386090171159594 213:0.37796447 764:0.37796447 978:0.37796447 1159:0.37796447 1429:0.37796447 1704:0.37796447 2373:0.37796447 #
-0.087430215495371832457038863140042 42:0.57735026 82:0.57735026 931:0.57735026 #
0.37828027169269318186195505404612 151:0.40824831 215:0.81649661 564:0.40824831 #
-1.0000000248699565386090171159594 68:0.5 92:0.5 978:0.5 987:0.5 #
-1.0000000248699565386090171159594 291:0.57735026 1692:0.57735026 1704:0.57735026 #
1.0000000248699565386090171159594 5:0.70710677 1402:0.70710677 #
1.0000000248699565386090171159594 20:0.37796447 70:0.37796447 99:0.37796447 389:0.37796447 1357:0.37796447 1703:0.37796447 2455:0.37796447 #
1.0000000248699565386090171159594 104:0.5547002 391:0.2773501 542:0.2773501 977:0.2773501 1382:0.2773501 1933:0.2773501 1946:0.5547002 #
1.0000000248699565386090171159594 47:0.5 381:0.5 489:0.5 546:0.5 #
-0.40045794256370714769843743852107 381:1 #
-0.20284491571126217479559272760525 115:0.5 178:0.5 2109:0.5 2463:0.5 #
-1.0000000248699565386090171159594 42:1 #
-0.038043650385203457708893637345682 43:0.70710677 1574:0.70710677 #
1.0000000248699565386090171159594 978:1 #
1.0000000248699565386090171159594 12:0.2773501 28:0.2773501 45:0.2773501 70:0.5547002 195:0.2773501 978:0.2773501 1704:0.5547002 #
1.0000000248699565386090171159594 978:0.70710677 982:0.70710677 #
1.0000000248699565386090171159594 978:0.70710677 1948:0.70710677 #
-1.0000000248699565386090171159594 165:0.57735026 292:0.57735026 552:0.57735026 #
-0.19959780083020450813791057953495 762:1 #
-1.0000000248699565386090171159594 14:1 #
0.25507798505767698138413379638223 1731:0.81649661 2455:0.40824831 2456:0.40824831 #
-0.082878078051468739850804468005663 325:1 #
1.0000000248699565386090171159594 45:0.44721359 79:0.44721359 397:0.44721359 552:0.44721359 984:0.44721359 #
-1.0000000248699565386090171159594 436:1 #
-1.0000000248699565386090171159594 6:0.18569534 27:0.18569534 28:0.18569534 45:0.37139067 62:0.18569534 87:0.18569534 90:0.18569534 95:0.37139067 99:0.18569534 109:0.18569534 139:0.18569534 151:0.18569534 200:0.18569534 262:0.18569534 292:0.18569534 304:0.18569534 487:0.18569534 641:0.18569534 925:0.18569534 1256:0.18569534 1386:0.18569534 2220:0.18569534 2495:0.18569534 #
-0.038280926913058635485676006737776 58:0.57735026 144:0.57735026 999:0.57735026 #
-0.67477008764041912503017783819814 2415:1 #
-0.65859752398926629801678700459888 1338:1 #
1.0000000248699565386090171159594 232:1 #
1.0000000248699565386090171159594 64:0.57735026 1337:0.57735026 2003:0.57735026 #
1.0000000248699565386090171159594 47:0.31622776 563:0.31622776 1426:0.63245553 1429:0.63245553 #
-0.040860126334738934572587965021739 725:0.70710677 2230:0.70710677 #
-1.0000000248699565386090171159594 978:1 #
-1.0000000248699565386090171159594 9:1 #
-1.0000000248699565386090171159594 1366:0.70710677 1429:0.70710677 #
-1.0000000248699565386090171159594 23:0.70710677 1429:0.70710677 #
1.0000000248699565386090171159594 95:1 #
1.0000000248699565386090171159594 42:0.5 95:0.5 1386:0.5 1906:0.5 #
1.0000000248699565386090171159594 87:0.57735026 438:0.28867513 546:0.28867513 640:0.28867513 750:0.28867513 912:0.28867513 916:0.28867513 1388:0.28867513 1939:0.28867513 #
1.0000000248699565386090171159594 73:0.57735026 87:0.57735026 139:0.57735026 #
1.0000000248699565386090171159594 9:0.40824831 28:0.40824831 35:0.40824831 139:0.40824831 919:0.40824831 2464:0.40824831 #
-1.0000000248699565386090171159594 649:1 #
-0.66010781728966416714854403835488 87:0.70710677 200:0.70710677 #
-1.0000000248699565386090171159594 87:0.57735026 129:0.57735026 578:0.57735026 #
-1.0000000248699565386090171159594 87:0.44721359 1133:0.44721359 1361:0.44721359 1368:0.44721359 2415:0.44721359 #
-0.1554996013001492538574410673391 9:0.70710677 2457:0.70710677 #
1.0000000248699565386090171159594 23:0.40824831 913:0.81649661 1845:0.40824831 #
1.0000000248699565386090171159594 43:0.5 1134:0.5 1422:0.5 1429:0.5 #
-0.86976625030227261436976959885214 139:1 #
-0.46489394807294792677510031353449 94:0.57735026 187:0.57735026 1422:0.57735026 #
-0.04287905225342369952556964562973 390:1 #
-0.48859803764295839378917207795894 152:0.70710677 2453:0.70710677 #
1.0000000248699565386090171159594 545:0.5 567:0.5 1345:0.5 1696:0.5 #
1.0000000248699565386090171159594 29:0.57735026 212:0.57735026 1371:0.57735026 #
1.0000000248699565386090171159594 13:0.57735026 914:0.57735026 2404:0.57735026 #
-1.0000000248699565386090171159594 9:0.40824831 545:0.40824831 1371:0.81649661 #
-1.0000000248699565386090171159594 28:1 #
-0.0019559800378160518974368642375339 441:1 #
-1.0000000248699565386090171159594 176:0.70710677 1425:0.70710677 #
-1.0000000248699565386090171159594 23:0.33333334 62:0.33333334 91:0.33333334 337:0.33333334 863:0.33333334 1136:0.33333334 1369:0.33333334 1555:0.33333334 2460:0.33333334 #
1.0000000248699565386090171159594 94:0.57735026 232:0.57735026 960:0.57735026 #
1.0000000248699565386090171159594 62:0.57735026 84:0.57735026 1370:0.57735026 #
1.0000000248699565386090171159594 1143:1 #
-0.15454193348232478366632847155415 475:0.70710677 1143:0.70710677 #
-0.99928303173006871595873690239387 62:1 #
1.0000000248699565386090171159594 9:0.80178374 165:0.26726124 176:0.26726124 491:0.26726124 2416:0.26726124 2446:0.26726124 #
1.0000000248699565386090171159594 9:0.70710677 20:0.35355338 24:0.35355338 166:0.35355338 389:0.35355338 #
1.0000000248699565386090171159594 9:0.70710677 338:0.70710677 #
1.0000000248699565386090171159594 9:0.70710677 211:0.70710677 #
-1.0000000248699565386090171159594 9:1 #
-0.1061645642076880502457925103954 139:1 #
-1.0000000248699565386090171159594 9:1 #
-0.379956529241883833591941765917 9:0.70710677 1365:0.70710677 #
1.0000000248699565386090171159594 58:0.57735026 751:0.57735026 918:0.57735026 #
1.0000000248699565386090171159594 918:1 #
1.0000000248699565386090171159594 35:0.31622776 58:0.31622776 110:0.31622776 114:0.31622776 320:0.31622776 545:0.31622776 639:0.31622776 1146:0.31622776 1418:0.31622776 1924:0.31622776 #
1.0000000248699565386090171159594 445:1 #
1.0000000248699565386090171159594 441:1 #
-1.0000000248699565386090171159594 22:0.57735026 110:0.57735026 1948:0.57735026 #
-1.0000000248699565386090171159594 445:0.57735026 2409:0.57735026 2453:0.57735026 #
-1.0000000248699565386090171159594 12:0.24253562 14:0.24253562 24:0.24253562 35:0.24253562 56:0.48507124 60:0.24253562 85:0.24253562 87:0.24253562 229:0.24253562 286:0.24253562 320:0.24253562 348:0.24253562 1135:0.24253562 1423:0.24253562 #
-0.25146472343566184104446392666432 9:0.57735026 164:0.57735026 1371:0.57735026 #
-0.0074474636887361667092477546248119 64:1 #
1.0000000248699565386090171159594 9:1 #
1.0000000248699565386090171159594 9:0.70710677 1111:0.70710677 #
1.0000000248699565386090171159594 9:0.70710677 1802:0.70710677 #
-0.11527910741122621152143778999744 9:0.70710677 1430:0.70710677 #
-0.27789119887868796165975027179229 28:0.44721359 436:0.89442718 #
-1.0000000248699565386090171159594 9:0.30151135 148:0.30151135 399:0.30151135 648:0.30151135 724:0.30151135 1140:0.30151135 1949:0.30151135 2403:0.60302269 #
-0.1641574515382677734720573425875 548:1 #
-1.0000000248699565386090171159594 11:0.44721359 14:0.44721359 915:0.44721359 982:0.44721359 1111:0.44721359 #
1.0000000248699565386090171159594 24:0.44721359 27:0.44721359 974:0.44721359 1375:0.44721359 2405:0.44721359 #
1.0000000248699565386090171159594 14:0.57735026 16:0.57735026 948:0.57735026 #
1.0000000248699565386090171159594 436:0.5 542:0.5 1423:0.5 1814:0.5 #
1.0000000248699565386090171159594 42:0.5 195:0.5 768:0.5 1983:0.5 #
-0.65197506411789640790033217854216 195:0.70710677 337:0.70710677 #
-1.0000000248699565386090171159594 195:1 #
-1.0000000248699565386090171159594 1375:1 #
1.0000000248699565386090171159594 9:0.60302269 124:0.60302269 647:0.30151135 1129:0.30151135 2403:0.30151135 #
1.0000000248699565386090171159594 5:0.16222142 22:0.16222142 55:0.16222142 71:0.16222142 90:0.16222142 139:0.16222142 162:0.16222142 195:0.16222142 445:0.16222142 978:0.16222142 1128:0.16222142 1132:0.16222142 1136:0.32444283 1337:0.32444283 1394:0.32444283 2403:0.48666427 2417:0.32444283 2454:0.16222142 #
-1.0000000248699565386090171159594 14:1 #
-1.0000000248699565386090171159594 24:0.5 735:0.5 1005:0.5 1990:0.5 #
-1.0000000248699565386090171159594 24:0.70710677 1374:0.70710677 #
-0.022875770958209140637507061910583 120:1 #
-1.0000000248699565386090171159594 120:1 #
1.0000000248699565386090171159594 9:0.30151135 41:0.30151135 195:0.60302269 541:0.30151135 544:0.30151135 912:0.30151135 1353:0.30151135 1956:0.30151135 #
1.0000000248699565386090171159594 14:0.44721359 58:0.44721359 110:0.44721359 139:0.44721359 195:0.44721359 #
-0.47275196496337079654637136627571 477:1 #
1.0000000248699565386090171159594 28:0.70710677 82:0.70710677 #
-0.029316232467786636911588615816981 1387:0.89442718 2325:0.44721359 #
-0.033567598705660173230569398583611 894:1 #
-1.0000000248699565386090171159594 5:0.57735026 542:0.57735026 1996:0.57735026 #
-0.45424676628426452484887931859703 548:1 #
-0.073912124399389281248495819909294 38:0.57735026 757:0.57735026 1062:0.57735026 #
1.0000000248699565386090171159594 24:0.67082042 56:0.2236068 82:0.2236068 139:0.2236068 568:0.2236068 740:0.2236068 745:0.2236068 1137:0.44721359 2460:0.2236068 #
-0.18721596078754315639613992061641 14:0.44721359 121:0.44721359 122:0.44721359 640:0.44721359 1545:0.44721359 #
-0.19877569122643634624836295188288 1150:1 #
-0.16927661676719674144209193400457 116:0.5 252:0.5 767:0.5 1372:0.5 #
1.0000000248699565386090171159594 100:0.70710677 317:0.70710677 #
1.0000000248699565386090171159594 120:0.70710677 2454:0.70710677 #
1.0000000248699565386090171159594 79:0.89442718 110:0.44721359 #
1.0000000248699565386090171159594 231:0.5 980:0.5 1946:0.5 2470:0.5 #
1.0000000248699565386090171159594 20:0.24253562 25:0.24253562 37:0.24253562 38:0.24253562 45:0.24253562 83:0.24253562 97:0.24253562 103:0.24253562 130:0.24253562 140:0.24253562 152:0.24253562 177:0.24253562 239:0.24253562 265:0.24253562 977:0.24253562 1369:0.24253562 1703:0.24253562 #
-1.0000000248699565386090171159594 64:0.33333334 100:0.33333334 320:0.33333334 645:0.33333334 916:0.33333334 1130:0.66666669 #
-1.0000000248699565386090171159594 79:0.57735026 640:0.57735026 1111:0.57735026 #
-0.059126312362566602054414488520706 529:1 #
-0.44770665612844051661767252880963 120:0.70710677 919:0.70710677 #
-0.064396387580964442598485675262054 1234:1 #
1.0000000248699565386090171159594 28:1 #
1.0000000248699565386090171159594 28:0.70710677 40:0.70710677 #
-1.0000000248699565386090171159594 1137:1 #
-1.0000000248699565386090171159594 28:1 #
-0.12311371990186405211975539941704 96:0.57735026 382:0.57735026 1374:0.57735026 #
-0.037012731598251358278162115311716 1074:1 #
-0.34428367858433972514831111766398 4:0.09578263 12:0.09578263 22:0.09578263 29:0.09578263 48:0.09578263 62:0.09578263 65:0.09578263 70:0.09578263 90:0.09578263 93:0.19156526 95:0.19156526 110:0.09578263 126:0.19156526 129:0.09578263 179:0.09578263 212:0.19156526 216:0.09578263 226:0.19156526 255:0.19156526 269:0.09578263 282:0.19156526 283:0.09578263 367:0.09578263 449:0.19156526 474:0.09578263 487:0.19156526 661:0.09578263 771:0.57469577 774:0.09578263 895:0.09578263 978:0.19156526 982:0.19156526 1064:0.19156526 1358:0.09578263 1502:0.09578263 1987:0.09578263 2049:0.09578263 2189:0.09578263 #
1.0000000248699565386090171159594 14:0.28867513 27:0.28867513 87:0.28867513 120:0.28867513 139:0.57735026 227:0.28867513 349:0.28867513 650:0.28867513 2476:0.28867513 #
1.0000000248699565386090171159594 139:0.44721359 382:0.44721359 568:0.44721359 2403:0.44721359 2456:0.44721359 #
1.0000000248699565386090171159594 39:0.40824831 139:0.40824831 648:0.40824831 649:0.40824831 958:0.40824831 1131:0.40824831 #
-0.18981558677997426021200055856752 292:0.81649661 334:0.40824831 739:0.40824831 #
-0.06468575662849529450681984599214 1055:1 #
-0.035716998815737671657544183290156 42:0.30151135 113:0.60302269 269:0.30151135 577:0.30151135 650:0.30151135 916:0.30151135 978:0.30151135 1948:0.30151135 #
0.34968738576637053983020564373874 3:0.70710677 1897:0.70710677 #
1.0000000248699565386090171159594 18:0.57735026 43:0.57735026 145:0.57735026 #
1.0000000248699565386090171159594 645:0.57735026 2415:0.57735026 2462:0.57735026 #
1.0000000248699565386090171159594 28:1 #
-0.52582732252364583480641613277839 478:1 #
-0.84404465575791853826359556478565 1131:1 #
-0.31094351592433849829077985305048 27:0.5 574:0.5 738:0.5 1384:0.5 #
-0.52387715943799806339598035265226 14:0.57735026 504:0.57735026 987:0.57735026 #
-0.99901438419077748243068981537363 2403:1 #
1.0000000248699565386090171159594 14:0.28867513 139:0.28867513 1132:0.28867513 1785:0.86602539 #
1.0000000248699565386090171159594 139:0.57735026 568:0.57735026 978:0.57735026 #
-1.0000000248699565386090171159594 47:0.5 165:0.5 1336:0.5 2407:0.5 #
-1.0000000248699565386090171159594 978:1 #
-0.39971359516130278155543464890798 571:1 #
1.0000000248699565386090171159594 351:1 #
1.0000000248699565386090171159594 351:0.70710677 1737:0.70710677 #
1.0000000248699565386090171159594 431:1 #
1.0000000248699565386090171159594 2448:1 #
1.0000000248699565386090171159594 578:0.70710677 961:0.70710677 #
-0.5869638373070300563227874590666 431:0.57735026 753:0.57735026 2437:0.57735026 #
1.0000000248699565386090171159594 27:0.70710677 560:0.70710677 #
-1.0000000248699565386090171159594 1371:0.5 2434:0.5 2454:0.5 2459:0.5 #
-1.0000000248699565386090171159594 568:0.70710677 2417:0.70710677 #
-0.038353687862468996416787092584855 1001:0.70710677 1254:0.70710677 #
1.0000000248699565386090171159594 14:0.44721359 344:0.44721359 763:0.44721359 1372:0.44721359 2003:0.44721359 #
1.0000000248699565386090171159594 14:0.40824831 29:0.40824831 539:0.40824831 751:0.40824831 1991:0.40824831 2429:0.40824831 #
-0.012630852958705564292873901877101 387:0.70710677 1017:0.70710677 #
-0.68766629665241585378510080772685 140:0.35355338 248:0.35355338 429:0.35355338 438:0.35355338 648:0.70710677 #
-1.0000000248699565386090171159594 14:0.70710677 1357:0.70710677 #
-0.058761805815517292872485199950461 208:0.70710677 351:0.70710677 #
-0.086348440673534920808407377990079 82:0.28867513 244:0.28867513 673:0.28867513 731:0.28867513 980:0.28867513 1372:0.28867513 1390:0.57735026 2078:0.28867513 2284:0.28867513 #
1.0000000248699565386090171159594 753:0.70710677 1880:0.70710677 #
1.0000000248699565386090171159594 5:0.44721359 189:0.44721359 436:0.44721359 959:0.44721359 2458:0.44721359 #
-0.037625475093091026446145974659885 28:0.5 487:0.5 731:0.5 1643:0.5 #
-0.51588496884019774402219127296121 766:0.70710677 1983:0.70710677 #
-1.0000000248699565386090171159594 487:1 #
1.0000000248699565386090171159594 1368:0.70710677 1797:0.70710677 #
1.0000000248699565386090171159594 925:1 #
-0.03088927326013046759101143834414 2446:1 #
-1.0000000248699565386090171159594 113:0.80000001 189:0.2 221:0.2 224:0.2 372:0.2 482:0.2 526:0.2 1077:0.2 1983:0.2 2455:0.2 #
-0.01839084026039541214236905375401 232:0.57735026 1210:0.57735026 2334:0.57735026 #
-0.52489728634042731592046493460657 1387:1 #
1.0000000248699565386090171159594 2443:1 #
1.0000000248699565386090171159594 14:0.35355338 178:0.35355338 561:0.35355338 914:0.35355338 1111:0.35355338 1912:0.35355338 1987:0.35355338 2008:0.35355338 #
-0.34980552444202334116951647047244 549:0.33333334 1336:0.66666669 2443:0.66666669 #
-0.064589995649968034996390997548588 306:1 #
-1.0000000248699565386090171159594 296:0.44721359 567:0.44721359 747:0.44721359 1111:0.44721359 2403:0.44721359 #
-1.0000000248699565386090171159594 978:1 #
-0.025443225077331876882169581222115 346:1 #
1.0000000248699565386090171159594 40:0.70710677 63:0.70710677 #
1.0000000248699565386090171159594 1427:1 #
1.0000000248699565386090171159594 439:0.70710677 1144:0.70710677 #
-0.18161786616044484077292509027757 314:0.70710677 2465:0.70710677 #
-0.4076504221032984931483156287868 1397:1 #
-1.0000000248699565386090171159594 289:0.57735026 443:0.57735026 1427:0.57735026 #
-0.19346137304013910629407746455399 120:1 #
-0.45487946002563672820429019338917 206:1 #
1.0000000248699565386090171159594 124:0.70710677 1148:0.70710677 #
1.0000000248699565386090171159594 567:0.57735026 912:0.57735026 1341:0.57735026 #
0.11595689281331855724488377745729 15:0.25819889 124:0.25819889 569:0.25819889 639:0.25819889 767:0.25819889 1336:0.25819889 2006:0.77459669 #
1.0000000248699565386090171159594 567:1 #
-0.10088481308450861217984595441521 58:0.31622776 382:0.31622776 751:0.63245553 918:0.31622776 1419:0.31622776 1517:0.31622776 1639:0.31622776 #
-0.47342921645903912608588370858342 1979:1 #
-0.12275563951734881629196394214887 14:0.28867513 200:0.57735026 268:0.28867513 925:0.57735026 1228:0.28867513 1937:0.28867513 #
1.0000000248699565386090171159594 435:1 #
1.0000000248699565386090171159594 74:0.31622776 144:0.31622776 287:0.31622776 644:0.63245553 747:0.31622776 943:0.31622776 1384:0.31622776 #
1.0000000248699565386090171159594 435:0.70710677 1889:0.70710677 #
1.0000000248699565386090171159594 134:0.5 214:0.5 537:0.5 1151:0.5 #
-0.038213960204502364637058065000019 9:0.70710677 2291:0.70710677 #
-1.0000000248699565386090171159594 24:0.33333334 388:0.33333334 399:0.33333334 983:0.33333334 1144:0.33333334 1367:0.33333334 1661:0.33333334 1955:0.33333334 2461:0.33333334 #
-0.41803833693848868602316315445933 1340:1 #
-1.0000000248699565386090171159594 12:0.37796447 120:0.37796447 227:0.37796447 280:0.37796447 1270:0.37796447 1406:0.37796447 1695:0.37796447 #
-0.14338101635617864215710426378791 9:0.44721359 145:0.44721359 2368:0.44721359 2413:0.44721359 2463:0.44721359 #
1.0000000248699565386090171159594 20:0.5 45:0.5 200:0.5 978:0.5 #
1.0000000248699565386090171159594 110:0.5 320:0.5 771:0.5 978:0.5 #
-0.55967939114302101000220091009396 444:1 #
-1.0000000248699565386090171159594 1939:0.70710677 2427:0.70710677 #
-0.034779988457791566336396726910607 44:0.57735026 1939:0.57735026 2427:0.57735026 #
1.0000000248699565386090171159594 16:0.40824831 291:0.40824831 444:0.40824831 1940:0.40824831 1988:0.40824831 2461:0.40824831 #
1.0000000248699565386090171159594 113:0.40824831 139:0.40824831 394:0.40824831 399:0.40824831 1149:0.40824831 2423:0.40824831 #
1.0000000248699565386090171159594 14:0.21821789 16:0.21821789 47:0.21821789 55:0.21821789 153:0.43643579 319:0.21821789 486:0.65465367 980:0.21821789 1948:0.21821789 2404:0.21821789 #
-0.039036650003806835917963269366737 1074:0.70710677 2154:0.70710677 #
-1.0000000248699565386090171159594 388:1 #
-1.0000000248699565386090171159594 165:0.70710677 382:0.70710677 #
-0.079084973258352064817700011190027 31:0.23570226 84:0.23570226 104:0.23570226 115:0.23570226 125:0.23570226 188:0.23570226 238:0.23570226 575:0.70710677 586:0.23570226 1427:0.23570226 #
1.0000000248699565386090171159594 1987:1 #
1.0000000248699565386090171159594 551:0.5 921:0.5 1143:0.5 1706:0.5 #
1.0000000248699565386090171159594 87:0.5 269:0.5 916:0.5 968:0.5 #
1.0000000248699565386090171159594 53:0.70710677 1695:0.70710677 #
-1.0000000248699565386090171159594 42:0.40824831 91:0.40824831 2458:0.81649661 #
-0.96704407234453404473839555066661 17:0.33333334 25:0.33333334 37:0.66666669 271:0.33333334 987:0.33333334 1144:0.33333334 #
1.0000000248699565386090171159594 188:1 #
1.0000000248699565386090171159594 395:0.70710677 1427:0.70710677 #
1.0000000248699565386090171159594 750:0.57735026 983:0.57735026 2448:0.57735026 #
-0.99942654648804551964502707050997 347:1 #
1.0000000248699565386090171159594 82:0.57735026 436:0.57735026 1383:0.57735026 #
1.0000000248699565386090171159594 263:0.70710677 483:0.70710677 #
1.0000000248699565386090171159594 206:0.70710677 1870:0.70710677 #
-1.0000000248699565386090171159594 14:1 #
1.0000000248699565386090171159594 42:0.44721359 104:0.44721359 322:0.44721359 1943:0.44721359 1989:0.44721359 #
1.0000000248699565386090171159594 87:1 #
1.0000000248699565386090171159594 87:0.75592893 320:0.37796447 548:0.37796447 918:0.37796447 #
1.0000000248699565386090171159594 12:0.5 60:0.5 83:0.5 1144:0.5 #
1.0000000248699565386090171159594 43:0.70710677 120:0.70710677 #
1.0000000248699565386090171159594 765:0.70710677 2419:0.70710677 #
1.0000000248699565386090171159594 568:1 #
1.0000000248699565386090171159594 1431:1 #
1.0000000248699565386090171159594 55:0.5 747:0.5 1337:0.5 2403:0.5 #
1.0000000248699565386090171159594 15:0.44721359 486:0.44721359 542:0.44721359 1123:0.44721359 2403:0.44721359 #
1.0000000248699565386090171159594 242:1 #
1.0000000248699565386090171159594 93:1 #
0.82153982041644024736370965911192 970:1 #
1.0000000248699565386090171159594 1710:0.70710677 1805:0.70710677 #
1.0000000248699565386090171159594 1859:1 #
1.0000000248699565386090171159594 1813:1 #
1.0000000248699565386090171159594 949:1 #
1.0000000248699565386090171159594 1881:1 #
1.0000000248699565386090171159594 70:1 #
1.0000000248699565386090171159594 14:0.2236068 70:0.44721359 352:0.2236068 383:0.2236068 437:0.2236068 967:0.2236068 978:0.2236068 1724:0.2236068 1728:0.44721359 1740:0.2236068 1831:0.2236068 1891:0.2236068 1902:0.2236068 1910:0.2236068 #
-0.0813776757014734730688587660552 741:1 #
1.0000000248699565386090171159594 391:0.70710677 1775:0.70710677 #
1.0000000248699565386090171159594 1789:1 #
1.0000000248699565386090171159594 758:0.70710677 1986:0.70710677 #
1.0000000248699565386090171159594 1853:1 #
-0.046076932719227622903268581922021 165:0.44721359 837:0.89442718 #
1.0000000248699565386090171159594 1138:1 #
1.0000000248699565386090171159594 2451:1 #
1.0000000248699565386090171159594 1150:1 #
1.0000000248699565386090171159594 953:0.70710677 1698:0.70710677 #
1.0000000248699565386090171159594 1993:1 #
-1.0000000248699565386090171159594 27:0.28867513 58:0.57735026 70:0.28867513 75:0.28867513 144:0.57735026 1144:0.28867513 #
-1.0000000248699565386090171159594 1431:1 #
-1.0000000248699565386090171159594 139:1 #
1.0000000248699565386090171159594 165:1 #
1.0000000248699565386090171159594 5:0.40824831 14:0.40824831 15:0.40824831 55:0.40824831 2417:0.40824831 2457:0.40824831 #
1.0000000248699565386090171159594 165:0.70710677 2416:0.70710677 #
1.0000000248699565386090171159594 165:0.70710677 1771:0.70710677 #
1.0000000248699565386090171159594 399:0.70710677 545:0.70710677 #
-1.0000000248699565386090171159594 435:1 #
-0.28774998044250105211361301371653 102:0.44721359 216:0.44721359 1372:0.44721359 1378:0.44721359 2461:0.44721359 #
-1.0000000248699565386090171159594 45:0.5 87:0.5 1703:0.5 2417:0.5 #
-1.0000000248699565386090171159594 1946:1 #
1.0000000248699565386090171159594 22:0.57735026 24:0.57735026 987:0.57735026 #
1.0000000248699565386090171159594 129:0.57735026 574:0.57735026 977:0.57735026 #
1.0000000248699565386090171159594 5:0.23570226 14:0.23570226 24:0.47140452 241:0.23570226 436:0.23570226 1361:0.47140452 1708:0.23570226 2411:0.47140452 2452:0.23570226 #
1.0000000248699565386090171159594 14:0.57735026 1145:0.57735026 1945:0.57735026 #
1.0000000248699565386090171159594 1430:1 #
-0.064636634953599170216875791084021 1054:1 #
-1.0000000248699565386090171159594 188:0.70710677 436:0.70710677 #
-0.79501273128440952397966157150222 124:1 #
-1.0000000248699565386090171159594 188:1 #
1.0000000248699565386090171159594 310:0.70710677 540:0.70710677 #
1.0000000248699565386090171159594 18:1 #
1.0000000248699565386090171159594 430:0.70710677 1374:0.70710677 #
1.0000000248699565386090171159594 1366:1 #
1.0000000248699565386090171159594 1692:1 #
-0.25655118542364974132397037465125 13:0.37796447 214:0.37796447 269:0.37796447 437:0.37796447 763:0.37796447 913:0.37796447 1692:0.37796447 #
-0.75779093877437353476977932587033 1148:0.70710677 1988:0.70710677 #
-0.14870565804802540754714357262856 469:0.57735026 1337:0.57735026 2456:0.57735026 #
-1.0000000248699565386090171159594 1426:1 #
-0.15248260155188442244167390526854 1944:1 #
1.0000000248699565386090171159594 766:1 #
1.0000000248699565386090171159594 199:0.70710677 1688:0.70710677 #
1.0000000248699565386090171159594 543:0.70710677 1411:0.70710677 #
1.0000000248699565386090171159594 1688:1 #
1.0000000248699565386090171159594 73:0.70710677 1951:0.70710677 #
-0.062814119314840266561361659114482 1068:1 #
-0.0074036214293126123564547924615908 1954:1 #
-0.86863419702089306184689121437259 916:1 #
-0.77107704031368440311666745401453 1411:1 #
1.0000000248699565386090171159594 24:0.37796447 42:0.37796447 166:0.37796447 399:0.37796447 1883:0.37796447 2460:0.37796447 2477:0.37796447 #
1.0000000248699565386090171159594 58:0.37796447 67:0.37796447 120:0.75592893 1388:0.37796447 #
1.0000000248699565386090171159594 1371:0.70710677 2434:0.70710677 #
1.0000000248699565386090171159594 143:0.40824831 197:0.40824831 487:0.40824831 1126:0.40824831 1153:0.40824831 1408:0.40824831 #
1.0000000248699565386090171159594 41:0.26726124 67:0.26726124 90:0.26726124 92:0.26726124 120:0.80178374 2460:0.26726124 #
-0.064260254072436656658240394790482 24:0.25819889 27:0.25819889 67:0.25819889 186:0.25819889 209:0.25819889 381:0.25819889 1190:0.25819889 1372:0.25819889 1569:0.51639777 2204:0.25819889 2429:0.25819889 2463:0.25819889 #
-0.23164472444484962565525165700819 1388:1 #
-1.0000000248699565386090171159594 918:0.57735026 1137:0.57735026 1993:0.57735026 #
1.0000000248699565386090171159594 23:0.40824831 210:0.40824831 1688:0.40824831 1819:0.40824831 1854:0.40824831 2413:0.40824831 #
1.0000000248699565386090171159594 121:1 #
1.0000000248699565386090171159594 5:0.60302269 27:0.30151135 351:0.30151135 573:0.30151135 649:0.30151135 942:0.30151135 1380:0.30151135 1387:0.30151135 #
-0.77528118059344741652694210642949 27:0.70710677 767:0.70710677 #
-1.0000000248699565386090171159594 14:0.63245553 27:0.31622776 38:0.31622776 48:0.31622776 141:0.31622776 390:0.31622776 1421:0.31622776 #
-0.76328672566567989932195814617444 113:0.57735026 1430:0.57735026 2404:0.57735026 #
-0.064657467450768169037189636583207 1635:1 #
-1.0000000248699565386090171159594 977:1 #
1.0000000248699565386090171159594 129:0.57735026 200:0.57735026 1378:0.57735026 #
1.0000000248699565386090171159594 62:0.57735026 110:0.57735026 398:0.57735026 #
1.0000000248699565386090171159594 347:1 #
1.0000000248699565386090171159594 78:0.70710677 2467:0.70710677 #
1.0000000248699565386090171159594 638:0.70710677 1763:0.70710677 #
-0.9978632117856511829501187094138 129:0.5 320:0.5 349:0.5 484:0.5 #
-1.0000000248699565386090171159594 487:1 #
-0.086400978875423972702662922529271 41:0.70710677 754:0.70710677 #
-1.0000000248699565386090171159594 139:0.44721359 242:0.44721359 662:0.44721359 1143:0.44721359 1402:0.44721359 #
1.0000000248699565386090171159594 14:0.57735026 82:0.57735026 382:0.57735026 #
1.0000000248699565386090171159594 14:1 #
-0.062416599713583820197015938902041 2456:1 #
-0.048117348750635106913176031184776 1247:0.57735026 1939:0.57735026 2039:0.57735026 #
-0.044067384298712819479248992138309 998:1 #
1.0000000248699565386090171159594 165:0.57735026 558:0.57735026 744:0.57735026 #
-0.035006258020490677029812331966241 744:0.75592893 847:0.37796447 1048:0.37796447 2467:0.37796447 #
-0.24843674466271481460211134617566 744:1 #
1.0000000248699565386090171159594 15:0.5 234:0.5 978:0.5 2420:0.5 #
1.0000000248699565386090171159594 14:0.45883146 43:0.45883146 84:0.22941573 340:0.22941573 399:0.22941573 976:0.22941573 978:0.22941573 1372:0.22941573 2446:0.22941573 2471:0.45883146 #
1.0000000248699565386090171159594 9:0.57735026 14:0.57735026 1111:0.57735026 #
-1.0000000248699565386090171159594 216:1 #
-1.0000000248699565386090171159594 28:0.33333334 139:0.33333334 487:0.33333334 875:0.33333334 978:0.33333334 1049:0.33333334 1378:0.33333334 1664:0.33333334 1936:0.33333334 #
-0.16631431141079877633615069498774 87:0.37796447 290:0.37796447 325:0.37796447 2466:0.75592893 #
-0.65218666550559112327078992166207 750:1 #
-0.19481570907844192319657850021031 28:0.70710677 978:0.70710677 #
1.0000000248699565386090171159594 33:0.35355338 79:0.35355338 310:0.35355338 641:0.35355338 1114:0.35355338 1376:0.35355338 1423:0.35355338 2459:0.35355338 #
1.0000000248699565386090171159594 187:1 #
1.0000000248699565386090171159594 1135:0.70710677 2410:0.70710677 #
-0.67741454996923067266578755152295 79:1 #
-1.0000000248699565386090171159594 1114:1 #
-0.18499826712942113449145153936115 139:1 #
-1.0000000248699565386090171159594 14:0.24253562 91:0.24253562 139:0.24253562 151:0.24253562 189:0.24253562 301:0.24253562 316:0.24253562 641:0.72760689 647:0.24253562 #
-0.19428631360157544438749255277799 320:1 #
-0.16902350092443807483277851133607 755:1 #
-0.0753786257255475988792170483066 343:0.70710677 861:0.70710677 #
1.0000000248699565386090171159594 319:0.5 393:0.5 1694:0.5 1869:0.5 #
1.0000000248699565386090171159594 389:1 #
1.0000000248699565386090171159594 5:0.70710677 81:0.35355338 139:0.35355338 538:0.35355338 978:0.35355338 #
-0.41814687867156963285708570765564 2440:1 #
-0.21624207137610876316990982104471 81:0.57735026 210:0.57735026 1429:0.57735026 #
-0.40782282558627935831196964500123 1937:1 #
-0.9848797656175469761308249871945 5:0.40824831 58:0.81649661 189:0.40824831 #
1.0000000248699565386090171159594 73:1 #
1.0000000248699565386090171159594 73:0.70710677 490:0.70710677 #
1.0000000248699565386090171159594 487:0.70710677 545:0.70710677 #
1.0000000248699565386090171159594 1363:1 #
-1.0000000248699565386090171159594 73:0.70710677 567:0.70710677 #
-0.064913680312741917077801190316677 2323:1 #
-0.30751649705514894073132836638251 226:0.35355338 282:0.35355338 1363:0.70710677 1384:0.35355338 2196:0.35355338 #
-0.11672276107294901614785942456365 485:0.57735026 2319:0.57735026 2454:0.57735026 #
1.0000000248699565386090171159594 9:0.5 22:0.5 1429:0.5 2451:0.5 #
1.0000000248699565386090171159594 5:0.70710677 1862:0.70710677 #
1.0000000248699565386090171159594 5:0.70710677 1817:0.70710677 #
-0.14300494528111776237899732677761 143:0.26726124 751:0.80178374 1424:0.26726124 1571:0.26726124 2363:0.26726124 2420:0.26726124 #
-1.0000000248699565386090171159594 490:1 #
-0.77235177304465185699200446833856 2419:1 #
-0.88471931767566980298056478204671 39:0.70710677 751:0.70710677 #
-1.0000000248699565386090171159594 87:1 #
1.0000000248699565386090171159594 341:0.44721359 1336:0.44721359 1375:0.44721359 1380:0.44721359 1752:0.44721359 #
-0.1254518144778994370724944928952 2451:1 #
-0.84873822598572501441083204554161 79:1 #
-0.010132336043686240856231961515732 9:0.37796447 73:0.37796447 906:0.75592893 2443:0.37796447 #
1.0000000248699565386090171159594 649:1 #
-0.41175664938978928653057209885446 67:1 #
-1.0000000248699565386090171159594 21:0.28867513 649:0.57735026 1141:0.28867513 1149:0.28867513 1174:0.28867513 1492:0.28867513 1608:0.28867513 2112:0.28867513 2466:0.28867513 #
-0.048756375418874647875711048072844 73:0.70710677 616:0.70710677 #
-1.0000000248699565386090171159594 42:0.57735026 310:0.57735026 1373:0.57735026 #
-0.12614125463603648169552684521477 55:0.5 139:0.5 456:0.5 2163:0.5 #
1.0000000248699565386090171159594 561:0.70710677 1704:0.70710677 #
-0.05752562310682740598366535778041 71:1 #
-0.37620065504279720514091422955971 1373:0.70710677 2416:0.70710677 #
-0.10548389471455985044734404709743 28:0.57735026 135:0.57735026 977:0.57735026 #
-1.0000000248699565386090171159594 1153:1 #
-0.025737823226488210082152363611385 1408:1 #
1.0000000248699565386090171159594 649:1 #
-1.0000000248699565386090171159594 1134:0.57735026 1370:0.57735026 1430:0.57735026 #
-0.19627868404918796807478997834551 382:0.70710677 1359:0.70710677 #
-0.3097383414793677403054061869625 1341:1 #
-1.0000000248699565386090171159594 14:1 #
-0.15499436494329221769561399923987 70:0.44721359 192:0.44721359 1135:0.44721359 1630:0.44721359 2467:0.44721359 #
-0.013725604894904708253022818098543 93:1 #
-0.26778039042810114489512329782883 53:0.28867513 375:0.28867513 1431:0.86602539 1490:0.28867513 #
-0.11597446752504680933526515218546 478:1 #
-0.069167062545010815632906542305136 164:0.70710677 1272:0.70710677 #
1.0000000248699565386090171159594 987:1 #
1.0000000248699565386090171159594 987:0.70710677 1832:0.70710677 #
-0.29101547818945938672641204902902 5:0.2236068 30:0.44721359 70:0.2236068 113:0.44721359 355:0.44721359 522:0.2236068 987:0.44721359 1149:0.2236068 #
-0.21291136677107347363602229961543 389:1 #
-0.36019782985611020764693535056722 58:0.30151135 178:0.30151135 351:0.30151135 359:0.30151135 460:0.30151135 758:0.30151135 987:0.30151135 1161:0.30151135 1310:0.30151135 1986:0.30151135 2418:0.30151135 #
-0.0016444704537468659080734489918996 440:0.57735026 490:0.57735026 2183:0.57735026 #
-1.0000000248699565386090171159594 24:0.70710677 1386:0.70710677 #
1.0000000248699565386090171159594 649:1 #
-0.037148981375037470886724122465239 1029:0.70710677 2229:0.70710677 #
-0.44503798428775953599512149594375 2405:1 #
1.0000000248699565386090171159594 349:0.70710677 399:0.70710677 #
1.0000000248699565386090171159594 110:0.70710677 952:0.70710677 #
-0.027035129236698485222234467073577 187:1 #
1.0000000248699565386090171159594 649:1 #
-0.65936168999057476192149351845728 349:1 #
-0.064568319411771324389803794474574 595:1 #
-0.065317998510019403823889660998248 2252:1 #
1.0000000248699565386090171159594 310:0.57735026 314:0.57735026 659:0.57735026 #
1.0000000248699565386090171159594 24:0.5 981:0.5 1927:0.5 1931:0.5 #
1.0000000248699565386090171159594 59:0.25819889 120:0.77459669 206:0.25819889 226:0.25819889 282:0.25819889 649:0.25819889 951:0.25819889 #
-1.0000000248699565386090171159594 491:0.44721359 1364:0.44721359 1408:0.44721359 1953:0.44721359 2451:0.44721359 #
-0.20799331748768534744442604278447 242:0.70710677 652:0.70710677 #
1.0000000248699565386090171159594 35:0.44721359 56:0.44721359 320:0.44721359 1381:0.44721359 2415:0.44721359 #
-0.67411758986013681216320492239902 745:1 #
1.0000000248699565386090171159594 14:0.40824831 24:0.40824831 320:0.40824831 442:0.40824831 477:0.40824831 750:0.40824831 #
1.0000000248699565386090171159594 62:0.63245553 95:0.31622776 114:0.31622776 638:0.31622776 1136:0.31622776 1865:0.31622776 2417:0.31622776 #
-1.0000000248699565386090171159594 14:1 #
-0.58573470427762874823685024239239 16:1 #
-1.0000000248699565386090171159594 14:0.25819889 58:0.25819889 141:0.25819889 263:0.25819889 310:0.25819889 483:0.51639777 1170:0.25819889 1189:0.25819889 1325:0.25819889 1663:0.25819889 1702:0.25819889 2096:0.25819889 #
-1.0000000248699565386090171159594 14:0.23570226 24:0.23570226 28:0.23570226 54:0.23570226 137:0.23570226 139:0.23570226 268:0.23570226 314:0.23570226 380:0.23570226 438:0.23570226 567:0.23570226 916:0.23570226 983:0.23570226 1010:0.23570226 1136:0.23570226 1428:0.23570226 1987:0.23570226 2461:0.23570226 #
-0.52683456948834916921953208657214 263:0.70710677 442:0.70710677 #
1.0000000248699565386090171159594 163:0.70710677 977:0.70710677 #
1.0000000248699565386090171159594 42:0.40824831 977:0.40824831 1145:0.40824831 1153:0.40824831 1687:0.40824831 1939:0.40824831 #
-0.865360915809713970858751963533 338:0.70710677 977:0.70710677 #
-1.0000000248699565386090171159594 1380:1 #
-0.13270580976978652021358584534028 28:0.44721359 55:0.44721359 71:0.44721359 81:0.44721359 2457:0.44721359 #
1.0000000248699565386090171159594 14:0.44721359 18:0.44721359 28:0.44721359 73:0.44721359 1431:0.44721359 #
1.0000000248699565386090171159594 14:0.5 207:0.5 487:0.5 974:0.5 #
1.0000000248699565386090171159594 14:0.44721359 151:0.44721359 476:0.44721359 543:0.44721359 645:0.44721359 #
-1.0000000248699565386090171159594 163:0.63960212 166:0.21320072 441:0.42640144 475:0.21320072 487:0.21320072 568:0.21320072 628:0.21320072 657:0.21320072 662:0.21320072 1065:0.21320072 2416:0.21320072 #
-0.097883469439659864796965393907158 163:1 #
-0.026131917156763051490742100213538 200:0.5 483:0.5 653:0.5 2276:0.5 #
1.0000000248699565386090171159594 27:0.2773501 143:0.2773501 165:0.2773501 262:0.2773501 338:0.2773501 430:0.2773501 558:0.2773501 651:0.2773501 1134:0.2773501 1861:0.2773501 1937:0.2773501 1953:0.2773501 2448:0.2773501 #
1.0000000248699565386090171159594 23:0.70710677 537:0.70710677 #
1.0000000248699565386090171159594 313:0.40824831 399:0.81649661 2456:0.40824831 #
1.0000000248699565386090171159594 87:0.40824831 545:0.81649661 2460:0.40824831 #
-1.0000000248699565386090171159594 18:0.70710677 1703:0.70710677 #
-0.67018897933957788382031139917672 1123:0.70710677 2460:0.70710677 #
1.0000000248699565386090171159594 2457:1 #
1.0000000248699565386090171159594 1130:0.57735026 1429:0.57735026 2446:0.57735026 #
1.0000000248699565386090171159594 15:0.37796447 347:0.37796447 441:0.37796447 975:0.37796447 1430:0.37796447 1687:0.37796447 2466:0.37796447 #
-0.17103443370214088670167029704317 195:0.5 481:0.5 1362:0.5 2453:0.5 #
-1.0000000248699565386090171159594 15:0.28867513 16:0.28867513 141:0.28867513 261:0.28867513 347:0.28867513 422:0.57735026 608:0.28867513 975:0.28867513 1113:0.28867513 #
-0.26072725686023601188168186126859 15:1 #
-0.13490048021701217528800498257624 577:1 #
-1.0000000248699565386090171159594 2448:1 #
-0.015801203523073629325645939047718 27:0.70710677 616:0.70710677 #
-0.072392057074854160303445382851351 167:0.70710677 246:0.70710677 #
-0.076024091440566210486906584264943 120:0.5 134:0.5 1071:0.5 2137:0.5 #
-0.08909057243675994053333511146775 87:0.70710677 1195:0.70710677 #
-1.0000000248699565386090171159594 23:0.57735026 513:0.57735026 764:0.57735026 #
-0.064385619889672618398890335811302 697:0.5 705:0.5 1631:0.5 2232:0.5 #
-0.93271381275267595256650565715972 2451:1 #
1.0000000248699565386090171159594 120:0.89442718 1754:0.44721359 #
1.0000000248699565386090171159594 120:1 #
-0.0012336920363903991493259582057362 58:0.37796447 139:0.37796447 379:0.37796447 431:0.75592893 #
1.0000000248699565386090171159594 15:0.70710677 764:0.70710677 #
-0.89022343626754041334692146847374 27:0.37796447 43:0.37796447 70:0.37796447 128:0.37796447 316:0.37796447 382:0.37796447 2467:0.37796447 #
-0.0055620840714723117012563413652515 144:0.57735026 1081:0.57735026 2145:0.57735026 #
-0.3166443178197560492925788366847 220:0.57735026 1088:0.57735026 1942:0.57735026 #
-1.0000000248699565386090171159594 69:0.25819889 86:0.25819889 147:0.25819889 160:0.25819889 198:0.25819889 215:0.77459669 1468:0.25819889 #
1.0000000248699565386090171159594 487:1 #
-0.43414670616609851716560797285638 480:0.37796447 487:0.37796447 488:0.37796447 876:0.37796447 1120:0.37796447 1513:0.37796447 1996:0.37796447 #
-0.064089824121433158765626103559043 1262:1 #
-0.48790581131696975081268874419038 579:0.70710677 1986:0.70710677 #
-0.36249667946791785944071762060048 574:0.70710677 1964:0.70710677 #
-1.0000000248699565386090171159594 980:0.70710677 1149:0.70710677 #
-1.0000000248699565386090171159594 79:0.28867513 292:0.28867513 391:0.86602539 1688:0.28867513 #
-0.083274398694241691387674109137151 290:1 #
-0.97776830143025028618808391911443 351:1 #
1.0000000248699565386090171159594 187:1 #
1.0000000248699565386090171159594 1:0.33333334 210:0.33333334 1430:0.33333334 1688:0.66666669 1819:0.33333334 1936:0.33333334 #
1.0000000248699565386090171159594 5:0.70710677 1923:0.70710677 #
1.0000000248699565386090171159594 5:0.75592893 102:0.37796447 1751:0.37796447 2455:0.37796447 #
1.0000000248699565386090171159594 310:0.70710677 1990:0.70710677 #
1.0000000248699565386090171159594 649:1 #
1.0000000248699565386090171159594 9:0.30151135 14:0.30151135 74:0.30151135 160:0.30151135 199:0.60302269 1372:0.30151135 1409:0.30151135 2453:0.30151135 #
1.0000000248699565386090171159594 12:0.28867513 14:0.28867513 42:0.28867513 90:0.28867513 231:0.28867513 238:0.28867513 1136:0.28867513 1414:0.28867513 1428:0.28867513 1904:0.28867513 1992:0.28867513 2454:0.28867513 #
1.0000000248699565386090171159594 766:0.5 987:0.5 1807:0.5 1952:0.5 #
1.0000000248699565386090171159594 399:0.70710677 1401:0.70710677 #
1.0000000248699565386090171159594 165:0.57735026 284:0.57735026 978:0.57735026 #
1.0000000248699565386090171159594 649:1 #
1.0000000248699565386090171159594 40:0.44721359 165:0.44721359 912:0.44721359 2006:0.44721359 2456:0.44721359 #
-0.3526882792795953402986697255983 650:1 #
-1.0000000248699565386090171159594 14:1 #
1.0000000248699565386090171159594 188:1 #
1.0000000248699565386090171159594 28:0.57735026 43:0.57735026 1987:0.57735026 #
1.0000000248699565386090171159594 28:0.2773501 87:0.2773501 567:0.83205032 650:0.2773501 2454:0.2773501 #
1.0000000248699565386090171159594 28:0.5 45:0.5 74:0.5 1936:0.5 #
1.0000000248699565386090171159594 28:0.57735026 547:0.57735026 978:0.57735026 #
-1.0000000248699565386090171159594 649:1 #
1.0000000248699565386090171159594 30:0.57735026 189:0.57735026 1971:0.57735026 #
1.0000000248699565386090171159594 58:0.57735026 485:0.57735026 1114:0.57735026 #
1.0000000248699565386090171159594 445:0.70710677 1703:0.70710677 #
1.0000000248699565386090171159594 338:0.81649661 380:0.40824831 568:0.40824831 #
1.0000000248699565386090171159594 58:0.44721359 1415:0.89442718 #
-1.0000000248699565386090171159594 187:1 #
-1.0000000248699565386090171159594 27:0.44721359 59:0.44721359 310:0.44721359 1144:0.44721359 1698:0.44721359 #
1.0000000248699565386090171159594 13:0.57735026 436:0.57735026 1350:0.57735026 #
1.0000000248699565386090171159594 13:0.30151135 27:0.30151135 87:0.30151135 113:0.30151135 200:0.30151135 490:0.30151135 557:0.30151135 650:0.30151135 939:0.30151135 963:0.30151135 2460:0.30151135 #
1.0000000248699565386090171159594 444:0.70710677 913:0.70710677 #
1.0000000248699565386090171159594 113:0.57735026 478:0.57735026 1988:0.57735026 #
1.0000000248699565386090171159594 16:0.70710677 391:0.70710677 #
-1.0000000248699565386090171159594 399:1 #
-1.0000000248699565386090171159594 978:1 #
-0.12945737856171612989442110119853 42:0.70710677 399:0.70710677 #
1.0000000248699565386090171159594 45:0.70710677 1366:0.70710677 #
1.0000000248699565386090171159594 567:0.70710677 1965:0.70710677 #
1.0000000248699565386090171159594 195:0.70710677 482:0.70710677 #
1.0000000248699565386090171159594 23:0.40824831 58:0.40824831 263:0.40824831 320:0.40824831 738:0.40824831 1987:0.40824831 #
1.0000000248699565386090171159594 27:0.5 67:0.5 1998:0.5 2407:0.5 #
-1.0000000248699565386090171159594 62:0.44721359 165:0.44721359 541:0.44721359 2001:0.44721359 2462:0.44721359 #
-0.7504622605389168477074690599693 45:0.2773501 65:0.2773501 148:0.2773501 354:0.5547002 391:0.2773501 1160:0.2773501 1381:0.2773501 1687:0.2773501 2278:0.2773501 2428:0.2773501 #
-1.0000000248699565386090171159594 15:1 #
-1.0000000248699565386090171159594 24:0.70710677 487:0.70710677 #
-1.0000000248699565386090171159594 11:0.44721359 23:0.44721359 120:0.44721359 1971:0.44721359 1989:0.44721359 #
-0.77143500287241051349695908356807 1401:1 #
-1.0000000248699565386090171159594 95:0.70710677 987:0.70710677 #
-0.16293080710986951320506932461285 143:1 #
1.0000000248699565386090171159594 2462:1 #
0.82461716572393384261374649213394 151:0.5 349:0.5 1147:0.5 2444:0.5 #
0.77667672325573389180419781041564 141:0.5 216:0.5 443:0.5 1918:0.5 #
1.0000000248699565386090171159594 14:0.26726124 16:0.53452247 29:0.26726124 338:0.26726124 552:0.26726124 648:0.53452247 914:0.26726124 1154:0.26726124 #
-1.0000000248699565386090171159594 2457:1 #
-1.0000000248699565386090171159594 1429:1 #
-1.0000000248699565386090171159594 43:0.40824831 1368:0.40824831 1429:0.81649661 #
-0.99927421756750922643419698943035 545:1 #
1.0000000248699565386090171159594 27:0.40824831 48:0.40824831 95:0.81649661 #
1.0000000248699565386090171159594 120:0.37796447 436:0.75592893 774:0.37796447 978:0.37796447 #
1.0000000248699565386090171159594 1114:1 #
-0.96373006589702125967988877164316 43:1 #
-0.064615811058342464967552132293349 2080:1 #
-1.0000000248699565386090171159594 28:1 #
-0.064898439470545118967770292783825 1050:0.70710677 1585:0.70710677 #
1.0000000248699565386090171159594 912:1 #
1.0000000248699565386090171159594 662:1 #
1.0000000248699565386090171159594 1702:1 #
-0.87975715203789417451218923815759 165:0.70710677 1702:0.70710677 #
-1.0000000248699565386090171159594 55:0.70710677 568:0.70710677 #
-1.0000000248699565386090171159594 430:1 #
-0.035112829794023407703473793617377 430:0.57735026 491:0.57735026 1431:0.57735026 #
1.0000000248699565386090171159594 926:0.70710677 978:0.70710677 #
1.0000000248699565386090171159594 87:0.57735026 978:0.57735026 1799:0.57735026 #
1.0000000248699565386090171159594 27:0.57735026 79:0.57735026 978:0.57735026 #
1.0000000248699565386090171159594 87:0.5 152:0.5 978:0.5 1430:0.5 #
1.0000000248699565386090171159594 380:0.5 918:0.5 978:0.5 1422:0.5 #
-1.0000000248699565386090171159594 1430:1 #
-0.82937538913785513461363052556408 473:1 #
-0.75509912013771696148722867292236 18:0.2773501 27:0.2773501 131:0.2773501 730:0.2773501 978:0.5547002 987:0.5547002 2464:0.2773501 #
