SVM-light Version V6.02
0 # kernel type
3 # kernel parameter -d 
1 # kernel parameter -g 
1 # kernel parameter -s 
1 # kernel parameter -r 
empty# kernel parameter -u 
3500 # highest feature index 
17140 # number of training documents 
2849 # number of support vectors plus 1 
0.81119143 # threshold b, each following line is a SV (starting with alpha*y)
-0.35533388328165222 215:0.42640144 216:0.42640144 228:0.21320072 408:0.21320072 628:0.21320072 698:0.42640144 823:0.21320072 1120:0.21320072 2216:0.21320072 2374:0.21320072 2431:0.21320072 3205:0.21320072 3406:0.21320072 #
-0.18869228382361058 3099:1 #
-0.1890871980676665 1465:1 #
-0.2902426437562784 1915:1 #
1.0000000245699991 568:0.37796447 608:0.37796447 918:0.37796447 1022:0.37796447 1307:0.37796447 2996:0.37796447 3246:0.37796447 #
1.0000000245699991 1371:0.37796447 1456:0.75592893 1628:0.37796447 2598:0.37796447 #
1.0000000245699991 392:0.70710677 2120:0.70710677 #
-0.83943721146976868 261:0.37796447 1206:0.75592893 2431:0.37796447 3433:0.37796447 #
1.0000000245699991 573:0.2773501 764:0.2773501 1091:0.2773501 1421:0.2773501 1534:0.2773501 1628:0.2773501 2735:0.2773501 2967:0.2773501 3264:0.5547002 3314:0.2773501 #
-0.084890573897492994 1899:1 #
-1.0000000245699991 573:0.70710677 1456:0.70710677 #
-0.18832272508527337 1438:1 #
-0.18842282873802674 2359:1 #
1.0000000245699991 405:1 #
1.0000000245699991 405:0.70710677 1433:0.70710677 #
1.0000000245699991 405:0.70710677 756:0.70710677 #
1.0000000245699991 405:0.70710677 538:0.70710677 #
1.0000000245699991 405:0.70710677 2229:0.70710677 #
-0.002525647559053823 3264:1 #
1.0000000245699991 529:0.21320072 573:0.63960212 803:0.21320072 836:0.21320072 887:0.21320072 1943:0.42640144 2127:0.42640144 3126:0.21320072 #
1.0000000245699991 573:0.81649661 1305:0.40824831 2412:0.40824831 #
1.0000000245699991 1638:0.57735026 1943:0.57735026 2482:0.57735026 #
1.0000000245699991 926:0.57735026 1943:0.57735026 3170:0.57735026 #
1.0000000245699991 3205:1 #
-1.0000000245699991 55:0.57735026 538:0.57735026 2229:0.57735026 #
-1.0000000245699991 538:1 #
1.0000000245699991 971:0.35355338 1628:0.35355338 1668:0.35355338 3039:0.70710677 3205:0.35355338 #
-1.0000000245699991 855:1 #
1.0000000245699991 517:0.57735026 1456:0.57735026 2668:0.57735026 #
-0.36227498208233444 452:0.25819889 1371:0.25819889 1452:0.25819889 2133:0.51639777 2140:0.25819889 2499:0.25819889 2731:0.25819889 3050:0.25819889 3233:0.51639777 #
-0.012353979617647504 2309:1 #
-0.071844592272901492 1466:0.70710677 3305:0.70710677 #
-1.0000000245699991 349:0.33333334 945:0.66666669 1551:0.66666669 #
-0.18845486462316641 1768:1 #
-1.0000000245699991 34:0.43643579 349:0.21821789 579:0.21821789 945:0.65465367 1731:0.21821789 1756:0.21821789 1910:0.21821789 2697:0.21821789 3050:0.21821789 3375:0.21821789 #
1.0000000245699991 538:0.70710677 573:0.70710677 #
1.0000000245699991 55:0.70710677 255:0.70710677 #
1.0000000245699991 55:0.57735026 1911:0.57735026 2812:0.57735026 #
1.0000000245699991 1135:0.57735026 1386:0.57735026 3231:0.57735026 #
-0.73613525310598293 2996:1 #
-0.31476748643160524 558:0.70710677 763:0.70710677 #
-0.10790926917135779 419:0.5 1213:0.5 1268:0.5 1412:0.5 #
-0.99516700384013401 55:1 #
1.0000000245699991 349:0.70710677 603:0.35355338 1551:0.35355338 1628:0.35355338 3242:0.35355338 #
1.0000000245699991 3264:1 #
1.0000000245699991 3039:1 #
-1.0000000245699991 2812:1 #
-0.03938657514861843 1817:1 #
-0.1892898187009423 783:1 #
1.0000000245699991 573:0.70710677 608:0.70710677 #
0.76823188264614117 770:0.5 926:0.5 2574:0.5 3472:0.5 #
-0.88017543967503853 1134:0.5 1588:0.5 2923:0.5 3062:0.5 #
-1.0000000245699991 7:0.37796447 405:0.75592893 945:0.37796447 1525:0.37796447 #
-1.0000000245699991 354:0.25819889 437:0.51639777 502:0.25819889 562:0.25819889 871:0.25819889 945:0.51639777 1731:0.25819889 3039:0.25819889 3242:0.25819889 #
-1.0000000245699991 267:0.40824831 573:0.81649661 945:0.40824831 #
-0.18813700087966923 626:1 #
-1.0000000245699991 349:0.57735026 1125:0.57735026 1135:0.57735026 #
1.0000000245699991 2236:0.44721359 2276:0.44721359 2390:0.44721359 2812:0.44721359 3229:0.44721359 #
1.0000000245699991 254:0.57735026 2812:0.57735026 3059:0.57735026 #
1.0000000245699991 288:0.57735026 1185:0.57735026 2812:0.57735026 #
1.0000000245699991 1456:0.5 1638:0.5 1956:0.5 2812:0.5 #
-1.0000000245699991 1456:0.70710677 1956:0.70710677 #
-0.037348959283643901 725:1 #
1.0000000245699991 349:0.70710677 1125:0.70710677 #
1.0000000245699991 1125:1 #
1.0000000245699991 573:0.70710677 1756:0.70710677 #
-1.0000000245699991 349:0.35355338 756:0.35355338 1638:0.70710677 2929:0.35355338 3029:0.35355338 #
-1.0000000245699991 405:0.14744195 573:0.14744195 608:0.14744195 847:0.14744195 1057:0.14744195 1628:0.14744195 1638:0.88465172 1639:0.14744195 2021:0.14744195 3352:0.14744195 3391:0.14744195 #
-1.0000000245699991 3229:1 #
1.0000000245699991 437:1 #
1.0000000245699991 185:0.70710677 437:0.70710677 #
1.0000000245699991 3352:1 #
-0.04473897310099776 1279:0.70710677 1766:0.70710677 #
1.0000000245699991 798:0.70710677 1638:0.70710677 #
1.0000000245699991 756:0.57735026 1638:0.57735026 2996:0.57735026 #
1.0000000245699991 3229:1 #
-0.050105694430110592 3352:1 #
1.0000000245699991 349:0.70710677 1956:0.70710677 #
1.0000000245699991 945:0.70710677 1956:0.70710677 #
1.0000000245699991 794:0.26726124 816:0.26726124 940:0.26726124 941:0.26726124 1638:0.53452247 1639:0.26726124 1683:0.53452247 2658:0.26726124 #
1.0000000245699991 244:0.57735026 945:0.57735026 3333:0.57735026 #
1.0000000245699991 55:0.31622776 261:0.31622776 1371:0.31622776 1427:0.31622776 1660:0.31622776 1751:0.31622776 2055:0.31622776 2241:0.31622776 3039:0.31622776 3156:0.31622776 #
-1.0000000245699991 1381:0.70710677 2120:0.70710677 #
-0.04812558376280951 2855:1 #
-0.98876812654098833 262:0.44721359 1956:0.44721359 2120:0.44721359 2876:0.44721359 3039:0.44721359 #
-0.18825045635423632 2342:1 #
1.0000000245699991 330:0.2773501 1051:0.2773501 1074:0.2773501 1813:0.2773501 2202:0.5547002 2824:0.2773501 2878:0.2773501 3050:0.2773501 3118:0.2773501 3452:0.2773501 #
1.0000000245699991 3352:1 #
1.0000000245699991 3162:0.70710677 3352:0.70710677 #
1.0000000245699991 2657:0.70710677 3352:0.70710677 #
1.0000000245699991 1551:1 #
-1.0000000245699991 3352:1 #
1.0000000245699991 1120:0.44721359 1915:0.44721359 2606:0.44721359 3056:0.44721359 3264:0.44721359 #
1.0000000245699991 1022:0.37796447 1381:0.37796447 1456:0.37796447 2942:0.37796447 2996:0.37796447 3039:0.37796447 3169:0.37796447 #
1.0000000245699991 262:0.44721359 559:0.44721359 969:0.44721359 1381:0.44721359 1581:0.44721359 #
1.0000000245699991 3039:1 #
-0.11123009499307034 19:0.70710677 349:0.70710677 #
-1.0000000245699991 421:0.37796447 1120:0.37796447 1551:0.75592893 2821:0.37796447 #
-0.88334357805281594 1551:1 #
1.0000000245699991 292:0.57735026 1057:0.57735026 3231:0.57735026 #
1.0000000245699991 1458:0.23570226 1762:0.23570226 1943:0.23570226 1987:0.23570226 2802:0.47140452 3145:0.23570226 3229:0.70710677 #
1.0000000245699991 267:0.70710677 509:0.70710677 #
1.0000000245699991 349:0.5 568:0.5 1129:0.5 1956:0.5 #
-1.0000000245699991 1956:0.70710677 2657:0.70710677 #
-0.058210455840248809 1734:1 #
-1.0000000245699991 1821:0.5 2207:0.5 2657:0.5 3352:0.5 #
-1.0000000245699991 267:0.70710677 2657:0.70710677 #
-0.55212138353210627 1185:0.57735026 2131:0.57735026 2802:0.57735026 #
1.0000000245699991 287:0.70710677 1551:0.70710677 #
1.0000000245699991 261:0.70710677 1551:0.70710677 #
1.0000000245699991 1551:0.57735026 2154:0.57735026 3408:0.57735026 #
1.0000000245699991 1136:0.57735026 1458:0.57735026 1551:0.57735026 #
0.62930947843649876 230:0.30151135 1151:0.30151135 1161:0.30151135 1551:0.60302269 2113:0.30151135 2425:0.30151135 3189:0.30151135 3195:0.30151135 #
-0.15377103677760795 3429:1 #
-0.062964395189174835 472:0.31622776 558:0.63245553 637:0.31622776 736:0.31622776 744:0.31622776 857:0.31622776 2113:0.31622776 #
-0.0060139993116717413 2113:1 #
-0.46665069585350072 1353:1 #
-0.18882122871871021 1093:1 #
-0.1876901751335156 2154:1 #
1.0000000245699991 349:0.5 457:0.5 2083:0.5 3352:0.5 #
-1.0000000245699991 261:0.57735026 349:0.57735026 1551:0.57735026 #
-0.18868319443902215 759:1 #
1.0000000245699991 2154:0.70710677 3399:0.70710677 #
1.0000000245699991 1337:0.70710677 2154:0.70710677 #
1.0000000245699991 262:0.57735026 764:0.57735026 2154:0.57735026 #
1.0000000245699991 13:0.37796447 530:0.37796447 1426:0.37796447 2154:0.37796447 2357:0.37796447 2558:0.37796447 3369:0.37796447 #
1.0000000245699991 3434:1 #
-0.28058497301472862 457:1 #
-0.18899297335756382 3248:1 #
-0.86248505082748428 3056:1 #
1.0000000245699991 3352:1 #
1.0000000245699991 1750:0.57735026 2443:0.57735026 3352:0.57735026 #
1.0000000245699991 349:0.40824831 730:0.40824831 1397:0.40824831 1531:0.40824831 1551:0.40824831 2390:0.40824831 #
1.0000000245699991 53:0.25819889 349:0.25819889 514:0.25819889 775:0.25819889 1384:0.25819889 1516:0.25819889 1821:0.25819889 1910:0.25819889 1956:0.51639777 1994:0.25819889 2764:0.25819889 3102:0.25819889 #
-1.0000000245699991 3352:1 #
1.0000000245699991 1563:0.70710677 3056:0.70710677 #
1.0000000245699991 2113:1 #
1.0000000245699991 267:0.5 1228:0.5 1821:0.5 2113:0.5 #
-0.012126188478448582 1255:0.57735026 1903:0.57735026 2685:0.57735026 #
-0.80458400130948826 287:1 #
1.0000000245699991 421:0.33333334 428:0.33333334 713:0.33333334 1443:0.33333334 1487:0.33333334 2113:0.33333334 2691:0.33333334 2958:0.33333334 3050:0.33333334 #
-1.0000000245699991 262:0.40824831 756:0.40824831 2113:0.81649661 #
-0.76174289053623978 2113:1 #
1.0000000245699991 287:0.70710677 2888:0.70710677 #
-0.18846295696429338 2624:1 #
1.0000000245699991 1750:1 #
-1.0000000245699991 2503:0.40824831 2929:0.40824831 3094:0.81649661 #
-0.99621940371535056 868:1 #
-1.0000000245699991 1956:0.70710677 2888:0.70710677 #
-0.99926150339591646 1228:1 #
1.0000000245699991 261:0.40824831 269:0.40824831 2113:0.81649661 #
1.0000000245699991 1147:0.70710677 2113:0.70710677 #
-0.11225372081009649 1703:0.70710677 2188:0.70710677 #
-1.0000000245699991 2113:1 #
1.0000000245699991 1956:1 #
1.0000000245699991 1956:0.70710677 3179:0.70710677 #
1.0000000245699991 608:0.5 756:0.5 1639:0.5 2267:0.5 #
-1.0000000245699991 261:0.44721359 349:0.44721359 530:0.44721359 1956:0.44721359 2942:0.44721359 #
-1.0000000245699991 261:0.30151135 303:0.30151135 1001:0.30151135 1956:0.60302269 2606:0.60302269 #
0.84547384870519282 511:0.44721359 1057:0.44721359 1132:0.44721359 2657:0.44721359 3232:0.44721359 #
-0.046370575860744556 3264:1 #
-0.50597401336088776 1101:0.2 1147:0.60000002 1601:0.40000001 1785:0.2 1943:0.2 2055:0.2 2814:0.2 3047:0.2 3348:0.40000001 3352:0.2 3485:0.2 #
1.0000000245699991 2113:1 #
1.0000000245699991 2113:0.70710677 3195:0.70710677 #
1.0000000245699991 260:0.70710677 2113:0.70710677 #
-1.0000000245699991 2113:1 #
1.0000000245699991 349:0.44721359 726:0.44721359 1079:0.44721359 1882:0.44721359 1956:0.44721359 #
1.0000000245699991 262:0.5 971:0.5 1956:0.5 2499:0.5 #
-0.030304154303066318 1687:0.70710677 3175:0.70710677 #
-1.0000000245699991 3195:1 #
1.0000000245699991 1601:1 #
1.0000000245699991 530:0.70710677 2929:0.70710677 #
1.0000000245699991 485:0.37796447 2059:0.37796447 2942:0.37796447 3047:0.75592893 #
1.0000000245699991 985:0.70710677 1601:0.70710677 #
-0.16154923355456058 2113:0.70710677 2267:0.70710677 #
-0.18898439433597691 2147:1 #
-1.0000000245699991 461:0.44721359 573:0.44721359 756:0.44721359 1639:0.44721359 3047:0.44721359 #
-0.029645895883348539 2676:1 #
-0.18892585579157406 3449:1 #
1.0000000245699991 1249:0.57735026 2405:0.57735026 3195:0.57735026 #
0.67372537795609666 985:0.35355338 1161:0.35355338 1925:0.35355338 2921:0.35355338 3195:0.70710677 #
1.0000000245699991 1117:0.57735026 1892:0.57735026 3195:0.57735026 #
1.0000000245699991 244:0.44721359 261:0.44721359 1013:0.44721359 2985:0.44721359 3195:0.44721359 #
1.0000000245699991 349:0.47140452 1151:0.23570226 1161:0.23570226 1279:0.47140452 1551:0.23570226 1956:0.23570226 2154:0.23570226 3039:0.23570226 3195:0.47140452 #
-0.33917950198166158 883:1 #
-1.0000000245699991 3195:1 #
-0.070680151278762038 2212:1 #
1.0000000245699991 2113:1 #
1.0000000245699991 1639:0.57735026 1896:0.57735026 2113:0.57735026 #
1.0000000245699991 1641:0.70710677 2113:0.70710677 #
1.0000000245699991 2113:0.57735026 2474:0.57735026 3114:0.57735026 #
1.0000000245699991 1222:0.57735026 2113:0.57735026 2119:0.57735026 #
-1.0000000245699991 2113:1 #
1.0000000245699991 1120:0.37796447 1279:0.37796447 1601:0.37796447 2606:0.37796447 2742:0.37796447 3141:0.37796447 3195:0.37796447 #
1.0000000245699991 926:0.44721359 2889:0.44721359 3195:0.44721359 3407:0.44721359 3434:0.44721359 #
0.34535033059648224 70:0.5 1120:0.5 1275:0.5 3195:0.5 #
-0.10898605995215935 423:0.70710677 3425:0.70710677 #
-0.35771907135808645 1896:1 #
1.0000000245699991 573:0.94280905 2781:0.23570226 2942:0.23570226 #
1.0000000245699991 573:0.70710677 2431:0.70710677 #
-1.0000000245699991 573:1 #
1.0000000245699991 730:1 #
1.0000000245699991 1738:0.37796447 3080:0.37796447 3123:0.75592893 3352:0.37796447 #
-0.5942040684821619 405:0.2773501 415:0.2773501 437:0.2773501 1120:0.2773501 1297:0.2773501 1408:0.2773501 1756:0.2773501 2431:0.5547002 2923:0.2773501 3242:0.2773501 #
-0.10938753253879889 790:0.70710677 2007:0.70710677 #
-0.086789003177075108 2196:0.57735026 2814:0.57735026 3339:0.57735026 #
-1.0000000245699991 1022:0.37796447 1370:0.37796447 1551:0.37796447 1556:0.37796447 1756:0.37796447 2431:0.37796447 3242:0.37796447 #
1.0000000245699991 428:1 #
1.0000000245699991 663:0.5 1645:0.5 2814:0.5 3029:0.5 #
-1.0000000245699991 428:1 #
1.0000000245699991 573:1 #
1.0000000245699991 1756:1 #
1.0000000245699991 405:0.40824831 529:0.40824831 573:0.40824831 756:0.40824831 1756:0.40824831 1864:0.40824831 #
-1.0000000245699991 1656:0.57735026 1892:0.57735026 3039:0.57735026 #
-0.1895434179395582 1957:1 #
-0.0021709086045292869 1070:1 #
1.0000000245699991 3038:0.70710677 3242:0.70710677 #
1.0000000245699991 2311:0.70710677 3242:0.70710677 #
1.0000000245699991 2431:1 #
1.0000000245699991 453:0.33333334 1113:0.33333334 1890:0.33333334 2326:0.33333334 3242:0.66666669 3341:0.33333334 #
-0.4390573699847149 663:1 #
-0.11122422494909336 2074:0.70710677 3257:0.70710677 #
1.0000000245699991 2796:0.70710677 3039:0.70710677 #
1.0000000245699991 1913:0.70710677 3039:0.70710677 #
1.0000000245699991 1637:0.57735026 2695:0.57735026 3039:0.57735026 #
1.0000000245699991 403:0.5 1777:0.5 3016:0.5 3039:0.5 #
-1.0000000245699991 3242:1 #
1.0000000245699991 608:0.44721359 1458:0.44721359 1821:0.44721359 2127:0.44721359 2431:0.44721359 #
1.0000000245699991 1476:0.57735026 2229:0.57735026 2431:0.57735026 #
1.0000000245699991 764:0.81649661 1551:0.40824831 1657:0.40824831 #
1.0000000245699991 178:0.35355338 405:0.35355338 860:0.35355338 1001:0.35355338 1478:0.35355338 1791:0.35355338 2431:0.35355338 2943:0.35355338 #
-0.11051575786832143 2855:0.70710677 2988:0.70710677 #
-1.0000000245699991 985:0.44721359 1304:0.44721359 2814:0.44721359 3334:0.44721359 3350:0.44721359 #
-0.11089365224285397 2567:0.70710677 2749:0.70710677 #
-0.18870200671256965 432:1 #
-0.24721202473604587 3038:1 #
1.0000000245699991 620:0.57735026 993:0.57735026 3242:0.57735026 #
1.0000000245699991 2274:0.57735026 2704:0.57735026 3242:0.57735026 #
1.0000000245699991 1422:0.5 3106:0.5 3242:0.5 3487:0.5 #
1.0000000245699991 349:0.40824831 756:0.40824831 1160:0.40824831 1656:0.40824831 2267:0.40824831 2304:0.40824831 #
1.0000000245699991 945:0.70710677 1656:0.70710677 #
-1.0000000245699991 3242:1 #
1.0000000245699991 2814:1 #
1.0000000245699991 573:0.57735026 2929:0.57735026 3152:0.57735026 #
1.0000000245699991 405:0.33333334 1228:0.33333334 1456:0.66666669 1457:0.33333334 1557:0.33333334 2929:0.33333334 #
1.0000000245699991 450:0.30151135 960:0.30151135 996:0.30151135 1458:0.60302269 1756:0.30151135 1910:0.30151135 1940:0.30151135 3202:0.30151135 #
-0.1122983971890209 2864:0.70710677 2942:0.70710677 #
-1.0000000245699991 349:1 #
-0.032076889419240806 3052:1 #
1.0000000245699991 2923:1 #
-0.56748068813697627 3489:1 #
1.0000000245699991 349:1 #
1.0000000245699991 349:0.57735026 1279:0.57735026 1925:0.57735026 #
1.0000000245699991 349:0.57735026 947:0.57735026 2814:0.57735026 #
-1.0000000245699991 261:0.37796447 267:0.37796447 945:0.37796447 1112:0.37796447 1756:0.37796447 2996:0.37796447 3208:0.37796447 #
-1.0000000245699991 267:0.57735026 544:0.57735026 945:0.57735026 #
-1.0000000245699991 405:0.37796447 568:0.37796447 956:0.37796447 993:0.75592893 #
-1.0000000245699991 993:0.70710677 1279:0.70710677 #
1.0000000245699991 2888:1 #
1.0000000245699991 1789:0.57735026 2568:0.57735026 2929:0.57735026 #
1.0000000245699991 350:0.44721359 405:0.44721359 511:0.44721359 1548:0.44721359 1551:0.44721359 #
-1.0000000245699991 1606:0.57735026 2431:0.57735026 2888:0.57735026 #
-1.0000000245699991 756:0.70710677 1551:0.70710677 #
1.0000000245699991 2503:1 #
-0.0087928469780192975 477:1 #
1.0000000245699991 993:1 #
1.0000000245699991 267:0.70710677 1168:0.70710677 #
-1.0000000245699991 1168:0.70710677 1601:0.70710677 #
-0.18914884361794704 1857:1 #
1.0000000245699991 405:0.5 1279:0.5 1756:0.5 2345:0.5 #
1.0000000245699991 499:0.37796447 688:0.37796447 1279:0.37796447 1606:0.37796447 1883:0.37796447 1956:0.37796447 2848:0.37796447 #
1.0000000245699991 1279:0.89442718 3126:0.44721359 #
1.0000000245699991 945:0.70710677 1279:0.70710677 #
-0.17600691937635315 2170:1 #
-0.18875777058756027 2054:1 #
-0.26484210896047489 1210:1 #
-0.088346028782075869 499:1 #
1.0000000245699991 913:0.5 1349:0.5 1601:0.5 1906:0.5 #
1.0000000245699991 1111:0.40824831 1180:0.40824831 1389:0.40824831 1601:0.40824831 1756:0.40824831 3289:0.40824831 #
1.0000000245699991 350:0.70710677 1890:0.70710677 #
-1.0000000245699991 1601:1 #
1.0000000245699991 499:1 #
-1.0000000245699991 269:0.57735026 608:0.57735026 1349:0.57735026 #
-1.0000000245699991 1496:0.5 1890:0.5 2642:0.5 2662:0.5 #
-0.41063136215592944 1389:1 #
1.0000000245699991 599:0.44721359 604:0.44721359 2431:0.44721359 2996:0.44721359 3242:0.44721359 #
1.0000000245699991 18:0.30151135 1210:0.30151135 1279:0.60302269 2113:0.30151135 2498:0.60302269 #
1.0000000245699991 123:0.35355338 164:0.35355338 499:0.35355338 1305:0.35355338 1575:0.35355338 1601:0.35355338 2046:0.35355338 2804:0.35355338 #
-0.18880599198767412 2403:1 #
0.72035686489446915 1125:0.37796447 1161:0.37796447 1388:0.37796447 3094:0.75592893 #
-0.11138930656426967 1233:0.70710677 2064:0.70710677 #
-1.0000000245699991 1279:0.57735026 2431:0.57735026 2657:0.57735026 #
-0.18304468680814134 1173:1 #
1.0000000245699991 2642:1 #
1.0000000245699991 688:0.37796447 882:0.37796447 945:0.37796447 1811:0.37796447 3047:0.37796447 3050:0.37796447 3123:0.37796447 #
1.0000000245699991 2642:0.57735026 2997:0.57735026 3327:0.57735026 #
1.0000000245699991 2349:0.5 2366:0.5 2642:0.5 2753:0.5 #
-1.0000000245699991 2642:1 #
-0.036219323840085527 669:0.5 855:0.5 1585:0.5 1741:0.5 #
-0.18813182211749124 2561:1 #
-0.10934420519908084 210:1 #
-0.16061440314060144 357:0.70710677 384:0.70710677 #
1.0000000245699991 511:1 #
1.0000000245699991 511:0.70710677 3395:0.70710677 #
1.0000000245699991 262:0.5547002 349:0.2773501 637:0.2773501 755:0.2773501 946:0.2773501 1057:0.2773501 1353:0.2773501 1551:0.2773501 1756:0.2773501 2431:0.2773501 #
1.0000000245699991 55:0.25 79:0.25 85:0.25 97:0.25 98:0.25 99:0.25 130:0.25 131:0.25 182:0.25 465:0.25 529:0.25 969:0.25 971:0.25 1497:0.25 1818:0.25 2431:0.25 #
-1.0000000245699991 511:0.89442718 1639:0.44721359 #
-0.18858424844292077 460:1 #
1.0000000245699991 269:0.57735026 787:0.57735026 3050:0.57735026 #
0.82976034868317805 101:0.33333334 330:0.33333334 2332:0.33333334 3050:0.66666669 3100:0.33333334 3102:0.33333334 #
-0.13291985515691762 1367:1 #
1.0000000245699991 882:1 #
1.0000000245699991 519:0.5 2048:0.5 2113:0.5 3050:0.5 #
-0.18948884304254221 2689:1 #
1.0000000245699991 511:0.5 855:0.5 1546:0.5 3055:0.5 #
1.0000000245699991 356:0.44721359 511:0.44721359 1674:0.44721359 1889:0.44721359 2248:0.44721359 #
1.0000000245699991 166:0.40824831 471:0.40824831 511:0.40824831 964:0.40824831 1910:0.40824831 3436:0.40824831 #
0.89154198107121507 102:0.33333334 147:0.33333334 248:0.33333334 1120:0.33333334 1528:0.33333334 1866:0.33333334 2567:0.33333334 2874:0.33333334 3209:0.33333334 #
-1.0000000245699991 405:0.33333334 465:0.66666669 971:0.33333334 1115:0.33333334 1120:0.33333334 1756:0.33333334 #
-1.0000000245699991 350:0.28867513 529:0.57735026 726:0.28867513 875:0.28867513 1120:0.28867513 1305:0.28867513 2065:0.28867513 2127:0.28867513 2133:0.28867513 #
-0.63652366484386846 1115:1 #
-0.18796491400395476 893:1 #
1.0000000245699991 544:0.5 1303:0.5 1639:0.5 3434:0.5 #
0.92616924865305039 2657:1 #
-0.049804184577510235 987:1 #
-1.0000000245699991 3434:1 #
1.0000000245699991 75:0.44721359 86:0.44721359 90:0.44721359 1179:0.44721359 3050:0.44721359 #
-0.059477410225956984 764:1 #
1.0000000245699991 854:0.5 875:0.5 1691:0.5 2715:0.5 #
-1.0000000245699991 262:0.57735026 1944:0.57735026 2657:0.57735026 #
-1.0000000245699991 1303:1 #
1.0000000245699991 757:0.70710677 3434:0.70710677 #
1.0000000245699991 1755:0.37796447 2838:0.37796447 3246:0.37796447 3434:0.75592893 #
-0.5224945660527659 261:0.33333334 1371:0.33333334 1628:0.33333334 1691:0.33333334 2838:0.66666669 2842:0.33333334 #
-1.0000000245699991 3434:1 #
1.0000000245699991 1303:1 #
1.0000000245699991 926:0.70710677 1944:0.70710677 #
1.0000000245699991 262:0.33333334 511:0.33333334 1277:0.33333334 1893:0.33333334 1985:0.66666669 2324:0.33333334 #
1.0000000245699991 428:0.70710677 523:0.35355338 1059:0.35355338 2230:0.35355338 2995:0.35355338 #
-1.0000000245699991 349:0.37796447 855:0.37796447 1057:0.37796447 1632:0.37796447 2113:0.37796447 2784:0.37796447 3050:0.37796447 #
-0.1884069845056997 3279:1 #
-1.0000000245699991 244:0.35355338 945:0.35355338 2113:0.35355338 2558:0.35355338 3039:0.35355338 3050:0.35355338 3205:0.35355338 3424:0.35355338 #
-0.95278418287672817 784:0.35355338 945:0.35355338 1721:0.35355338 1961:0.35355338 2204:0.35355338 2345:0.35355338 2431:0.35355338 3460:0.35355338 #
-1.0000000245699991 945:0.57735026 1551:0.57735026 2927:0.57735026 #
1.0000000245699991 3434:1 #
1.0000000245699991 267:0.5 709:0.5 1522:0.5 3434:0.5 #
1.0000000245699991 2538:0.57735026 2868:0.57735026 3434:0.57735026 #
1.0000000245699991 261:0.57735026 1632:0.57735026 3434:0.57735026 #
-1.0000000245699991 3434:1 #
1.0000000245699991 511:0.70710677 945:0.70710677 #
1.0000000245699991 1062:0.5 1200:0.5 1551:0.5 2927:0.5 #
-0.073626743682899343 480:1 #
-0.22708579474385623 2179:0.70710677 3123:0.70710677 #
-0.0016300412844922896 2868:1 #
1.0000000245699991 935:0.5 1731:0.5 2514:0.5 3211:0.5 #
1.0000000245699991 855:0.5 1181:0.5 1551:0.5 1788:0.5 #
1.0000000245699991 507:0.33333334 643:0.66666669 784:0.33333334 2048:0.33333334 2443:0.33333334 2567:0.33333334 #
-0.10800226748802265 2410:0.70710677 3284:0.70710677 #
-1.0000000245699991 3434:1 #
1.0000000245699991 267:0.70710677 1168:0.70710677 #
1.0000000245699991 267:0.31622776 461:0.31622776 570:0.31622776 573:0.31622776 945:0.31622776 1619:0.31622776 2443:0.31622776 2841:0.31622776 3022:0.31622776 3265:0.31622776 #
1.0000000245699991 1458:0.70710677 1721:0.70710677 #
-0.1893801718460999 3427:1 #
-1.0000000245699991 573:1 #
-1.0000000245699991 261:0.5 573:0.5 2802:0.5 3424:0.5 #
1.0000000245699991 2654:0.57735026 3434:0.57735026 3436:0.57735026 #
-1.0000000245699991 1129:0.70710677 3436:0.70710677 #
-0.64781654986926152 855:1 #
-0.18841794482305374 1861:1 #
-0.11189413454685146 304:0.70710677 2814:0.70710677 #
1.0000000245699991 244:0.57735026 573:0.57735026 1456:0.57735026 #
1.0000000245699991 573:0.70710677 1270:0.70710677 #
1.0000000245699991 573:0.70710677 2210:0.70710677 #
-1.0000000245699991 573:1 #
1.0000000245699991 450:1 #
1.0000000245699991 465:0.37796447 697:0.37796447 969:0.37796447 1910:0.37796447 2431:0.37796447 2486:0.37796447 3263:0.37796447 #
0.89249458462230324 2248:1 #
-1.0000000245699991 1456:0.70710677 1756:0.70710677 #
-1.0000000245699991 580:0.5 1704:0.5 1706:0.5 2814:0.5 #
-0.18269329709164084 2871:1 #
-0.88722966092835076 1755:1 #
1.0000000245699991 262:0.30151135 1279:0.30151135 1821:0.60302269 1975:0.30151135 2149:0.30151135 2657:0.30151135 3094:0.30151135 3436:0.30151135 #
1.0000000245699991 2120:1 #
1.0000000245699991 965:0.5 2007:0.5 3346:0.5 3398:0.5 #
0.74268050236889915 726:0.44721359 993:0.44721359 1556:0.44721359 2588:0.44721359 2716:0.44721359 #
-0.03389096752791132 2308:1 #
-1.0000000245699991 1821:1 #
-0.18897427367393116 2616:1 #
1.0000000245699991 416:0.57735026 658:0.57735026 2048:0.57735026 #
1.0000000245699991 376:0.57735026 573:0.57735026 2048:0.57735026 #
1.0000000245699991 330:0.40824831 1099:0.40824831 2691:0.40824831 2764:0.40824831 2962:0.40824831 3358:0.40824831 #
-1.0000000245699991 349:0.37796447 363:0.37796447 965:0.75592893 2654:0.37796447 #
-0.83529466431847776 730:1 #
1.0000000245699991 1821:1 #
1.0000000245699991 484:0.70710677 1821:0.70710677 #
1.0000000245699991 1346:0.57735026 1756:0.57735026 2423:0.57735026 #
1.0000000245699991 836:0.44721359 945:0.44721359 1115:0.44721359 1198:0.44721359 1821:0.44721359 #
-0.76556503963097156 2423:1 #
-0.13041141280809687 1821:1 #
1.0000000245699991 1062:1 #
1.0000000245699991 327:0.44721359 3047:0.89442718 #
1.0000000245699991 3094:1 #
-0.18915721742970626 236:1 #
-1.0000000245699991 244:0.57735026 2120:0.57735026 2127:0.57735026 #
1.0000000245699991 56:0.5 995:0.5 1001:0.5 1079:0.5 #
1.0000000245699991 13:0.37796447 244:0.37796447 1821:0.37796447 2048:0.75592893 #
1.0000000245699991 384:0.70710677 1476:0.70710677 #
1.0000000245699991 1138:0.35355338 1476:0.35355338 1593:0.35355338 1800:0.35355338 1821:0.35355338 2576:0.35355338 2578:0.35355338 2628:0.35355338 #
-0.18867444693779667 1049:1 #
-0.1307839480349276 67:0.89442718 1570:0.44721359 #
1.0000000245699991 2127:0.70710677 2266:0.70710677 #
1.0000000245699991 2127:0.70710677 2974:0.70710677 #
-0.18826279000360757 522:1 #
-1.0000000245699991 2048:1 #
1.0000000245699991 1228:0.37796447 1476:0.37796447 1639:0.37796447 2551:0.37796447 2583:0.37796447 3374:0.37796447 3420:0.37796447 #
-0.18882122871871021 1690:1 #
-1.0000000245699991 706:0.25819889 738:0.25819889 761:0.25819889 993:0.25819889 1458:0.25819889 2127:0.51639777 3039:0.25819889 3205:0.25819889 3264:0.51639777 #
-0.7082518374234027 2113:0.70710677 3123:0.70710677 #
-1.0000000245699991 2113:1 #
1.0000000245699991 56:0.70710677 482:0.70710677 #
1.0000000245699991 56:0.70710677 1320:0.70710677 #
1.0000000245699991 1934:0.70710677 2742:0.70710677 #
1.0000000245699991 2041:0.70710677 2742:0.70710677 #
-0.18881420355611356 1064:1 #
-0.27104517951760304 354:0.37796447 487:0.37796447 756:0.37796447 1554:0.37796447 2392:0.37796447 3268:0.37796447 3448:0.37796447 #
-0.024820932987782762 335:1 #
1.0000000245699991 1394:0.57735026 2113:0.57735026 2575:0.57735026 #
1.0000000245699991 683:0.5 2113:0.5 2263:0.5 2301:0.5 #
-1.0000000245699991 2113:1 #
1.0000000245699991 3264:1 #
-1.0000000245699991 405:0.70710677 1639:0.70710677 #
-0.0057253171775931699 2:1 #
-1.0000000245699991 509:0.35355338 511:0.70710677 1040:0.35355338 1371:0.35355338 2390:0.35355338 #
-1.0000000245699991 1062:0.5 1346:0.5 1691:0.5 2924:0.5 #
1.0000000245699991 580:0.44721359 755:0.44721359 2130:0.44721359 3039:0.44721359 3213:0.44721359 #
1.0000000245699991 511:0.33333334 872:0.33333334 1234:0.33333334 1551:0.33333334 1592:0.33333334 1755:0.33333334 2591:0.33333334 3039:0.33333334 3423:0.33333334 #
1.0000000245699991 1013:0.37796447 1120:0.37796447 2113:0.37796447 2598:0.37796447 2812:0.37796447 2814:0.37796447 3288:0.37796447 #
1.0000000245699991 3434:1 #
1.0000000245699991 694:0.70710677 2443:0.70710677 #
-0.10917960782979637 550:0.70710677 1811:0.70710677 #
-1.0000000245699991 992:0.40824831 1120:0.40824831 1551:0.40824831 1756:0.40824831 3205:0.40824831 3434:0.40824831 #
-1.0000000245699991 3434:1 #
1.0000000245699991 405:0.44721359 424:0.44721359 906:0.44721359 1628:0.44721359 3489:0.44721359 #
1.0000000245699991 405:0.5 2212:0.5 2273:0.5 3391:0.5 #
1.0000000245699991 405:0.57735026 809:0.57735026 1050:0.57735026 #
1.0000000245699991 405:0.57735026 1638:0.57735026 3041:0.57735026 #
-0.79616432588462061 405:1 #
1.0000000245699991 1639:0.57735026 1785:0.57735026 3080:0.57735026 #
1.0000000245699991 868:1 #
-1.0000000245699991 261:0.57735026 511:0.57735026 2443:0.57735026 #
-0.72776154707278595 573:1 #
-0.10896620208792954 705:0.70710677 2727:0.70710677 #
-0.11196598650657841 2339:1 #
1.0000000245699991 2055:1 #
1.0000000245699991 1222:0.70710677 2439:0.70710677 #
1.0000000245699991 1009:0.70710677 1222:0.70710677 #
-1.0000000245699991 1222:1 #
1.0000000245699991 261:0.40824831 1305:0.40824831 2101:0.40824831 2271:0.40824831 2273:0.40824831 3434:0.40824831 #
1.0000000245699991 261:0.57735026 3039:0.57735026 3205:0.57735026 #
1.0000000245699991 1476:0.31622776 1632:0.31622776 1738:0.31622776 2453:0.31622776 3079:0.31622776 3080:0.63245553 3211:0.31622776 #
-0.54877051744889316 2055:1 #
-0.20422339381834331 971:1 #
1.0000000245699991 1497:0.70710677 2332:0.70710677 #
1.0000000245699991 349:0.31622776 375:0.31622776 1057:0.31622776 1639:0.31622776 2133:0.31622776 2390:0.31622776 2477:0.31622776 2855:0.31622776 3123:0.31622776 3162:0.31622776 #
1.0000000245699991 580:0.70710677 2326:0.70710677 #
1.0000000245699991 1237:0.44721359 1279:0.44721359 1497:0.44721359 3134:0.44721359 3136:0.44721359 #
1.0000000245699991 405:0.40824831 511:0.40824831 656:0.40824831 945:0.40824831 2936:0.40824831 2975:0.40824831 #
-0.18876285569307805 1518:1 #
-1.0000000245699991 854:0.37796447 1123:0.37796447 1628:0.37796447 2304:0.75592893 #
-0.063650634335679745 3205:1 #
-0.1110301744986002 3446:1 #
-1.0000000245699991 1638:0.44721359 2814:0.44721359 3080:0.44721359 3179:0.44721359 3391:0.44721359 #
1.0000000245699991 971:0.70710677 1131:0.70710677 #
1.0000000245699991 1691:0.5 1739:0.5 2942:0.5 3495:0.5 #
1.0000000245699991 139:0.37796447 713:0.37796447 794:0.75592893 2948:0.37796447 #
1.0000000245699991 1456:0.81649661 2924:0.40824831 3080:0.40824831 #
-1.0000000245699991 1456:0.70710677 1551:0.70710677 #
-0.11189413454685146 1501:0.70710677 2814:0.70710677 #
-1.0000000245699991 405:0.57735026 1456:0.57735026 3405:0.57735026 #
-0.0016703492406285791 1694:0.70710677 2205:0.70710677 #
-0.39409042374042647 1384:0.70710677 2942:0.70710677 #
1.0000000245699991 1123:0.70710677 2304:0.70710677 #
1.0000000245699991 836:0.70710677 2111:0.70710677 #
1.0000000245699991 657:0.57735026 854:0.57735026 3451:0.57735026 #
1.0000000245699991 529:0.5 1123:0.5 2304:0.5 2356:0.5 #
1.0000000245699991 573:0.5 1953:0.5 2298:0.5 3049:0.5 #
-1.0000000245699991 657:1 #
1.0000000245699991 649:0.5 1551:0.5 2942:0.5 3020:0.5 #
1.0000000245699991 2539:0.70710677 2942:0.70710677 #
1.0000000245699991 1040:0.5 1062:0.5 2189:0.5 2942:0.5 #
-0.76575425118322382 3451:1 #
-0.31605866840082009 18:1 #
-0.89091333377118487 1953:1 #
1.0000000245699991 241:0.44721359 883:0.44721359 1551:0.44721359 2967:0.44721359 3151:0.44721359 #
1.0000000245699991 657:1 #
-0.80259575497089686 794:1 #
-1.0000000245699991 579:0.57735026 1079:0.57735026 1817:0.57735026 #
1.0000000245699991 405:0.37796447 877:0.37796447 985:0.37796447 1389:0.37796447 1892:0.37796447 1953:0.37796447 3039:0.37796447 #
1.0000000245699991 3179:1 #
1.0000000245699991 1639:0.5 2048:0.5 2814:0.5 3152:0.5 #
-0.11140786474067499 1279:0.70710677 3416:0.70710677 #
-1.0000000245699991 405:0.70710677 2326:0.70710677 #
-0.111963605251847 2126:0.70710677 2309:0.70710677 #
-0.51410078984953278 713:0.63245553 718:0.31622776 2314:0.63245553 2315:0.31622776 #
-1.0000000245699991 573:0.57735026 906:0.57735026 3039:0.57735026 #
1.0000000245699991 579:0.57735026 608:0.57735026 3021:0.57735026 #
1.0000000245699991 339:0.70710677 579:0.70710677 #
1.0000000245699991 8:0.33333334 1570:0.33333334 1691:0.33333334 2384:0.33333334 2898:0.66666669 3272:0.33333334 #
1.0000000245699991 738:1 #
1.0000000245699991 2397:0.70710677 3485:0.70710677 #
-0.18854088611013942 928:1 #
-1.0000000245699991 738:1 #
1.0000000245699991 405:0.40824831 529:0.40824831 836:0.40824831 883:0.40824831 1985:0.40824831 2127:0.40824831 #
-0.68176727109712321 2898:1 #
-0.55219283655949947 3021:1 #
-1.0000000245699991 1704:0.57735026 2575:0.57735026 3485:0.57735026 #
1.0000000245699991 906:0.57735026 1691:0.57735026 3401:0.57735026 #
1.0000000245699991 906:1 #
1.0000000245699991 267:0.5 619:0.5 1386:0.5 3264:0.5 #
-0.18899749916030928 2076:1 #
-0.10932981684477411 333:0.70710677 428:0.70710677 #
-0.039367332443229985 3195:1 #
-0.11153112138126518 2494:0.70710677 2814:0.70710677 #
-0.18937092548378431 2765:1 #
1.0000000245699991 993:0.70710677 1704:0.70710677 #
1.0000000245699991 405:0.40824831 756:0.40824831 1704:0.81649661 #
1.0000000245699991 945:0.70710677 1817:0.70710677 #
1.0000000245699991 405:0.5 1704:0.5 1743:0.5 1987:0.5 #
-0.14243170547366102 1704:1 #
-1.0000000245699991 405:0.37796447 568:0.37796447 956:0.37796447 993:0.75592893 #
-1.0000000245699991 1704:1 #
1.0000000245699991 1121:0.5 1817:0.5 2573:0.5 2814:0.5 #
-1.0000000245699991 836:1 #
-1.0000000245699991 2814:1 #
1.0000000245699991 450:0.5 530:0.5 1456:0.5 2127:0.5 #
-0.23963678832743274 424:1 #
-0.99657419648683787 450:1 #
1.0000000245699991 2297:0.70710677 2814:0.70710677 #
1.0000000245699991 1345:0.5 1483:0.5 2201:0.5 2814:0.5 #
-0.18879782175429627 3483:1 #
-0.043027131546906072 2679:1 #
-1.0000000245699991 349:0.70710677 350:0.35355338 608:0.35355338 926:0.35355338 1956:0.35355338 #
-1.0000000245699991 2127:1 #
1.0000000245699991 450:0.57735026 1185:0.57735026 1456:0.57735026 #
-1.0000000245699991 405:0.25819889 573:0.25819889 882:0.25819889 1022:0.25819889 1371:0.25819889 1456:0.51639777 1956:0.51639777 2929:0.25819889 3454:0.25819889 #
-1.0000000245699991 1456:0.57735026 1756:0.57735026 2441:0.57735026 #
-1.0000000245699991 573:0.57735026 1456:0.57735026 3463:0.57735026 #
-1.0000000245699991 1458:1 #
1.0000000245699991 349:0.89442718 1069:0.44721359 #
1.0000000245699991 349:0.70710677 1401:0.70710677 #
-1.0000000245699991 349:1 #
1.0000000245699991 573:0.57735026 3109:0.57735026 3404:0.57735026 #
-0.037274171843044011 529:0.28867513 1347:0.28867513 1586:0.28867513 2933:0.86602539 #
-0.36293160204825903 559:1 #
-0.37279199525202877 2814:1 #
1.0000000245699991 56:0.23570226 437:0.23570226 713:0.23570226 760:0.23570226 1860:0.70710677 1956:0.23570226 2245:0.23570226 2499:0.23570226 2796:0.23570226 3078:0.23570226 #
1.0000000245699991 555:0.75 608:0.25 926:0.25 992:0.25 1456:0.25 1956:0.25 2929:0.25 2942:0.25 #
-0.41766536357127437 2814:1 #
-0.18850992744386552 2495:1 #
-0.93701269533197706 555:1 #
-0.59706296496264188 2212:1 #
1.0000000245699991 349:1 #
1.0000000245699991 349:0.70710677 1162:0.70710677 #
1.0000000245699991 349:0.5 1125:0.5 2443:0.5 3242:0.5 #
-1.0000000245699991 450:0.20412415 517:0.20412415 608:0.20412415 756:0.20412415 801:0.61237246 1022:0.20412415 1323:0.20412415 1551:0.20412415 1639:0.40824831 2302:0.20412415 2443:0.20412415 2929:0.20412415 3142:0.20412415 #
-0.20850890887224383 1721:1 #
1.0000000245699991 1390:1 #
1.0000000245699991 228:0.5 1115:0.5 2212:0.5 2563:0.5 #
1.0000000245699991 228:0.57735026 627:0.57735026 2402:0.57735026 #
1.0000000245699991 220:0.26726124 836:0.26726124 837:0.26726124 883:0.26726124 1371:0.53452247 1551:0.26726124 1639:0.53452247 1925:0.26726124 #
-1.0000000245699991 883:0.57735026 906:0.57735026 1956:0.57735026 #
-1.0000000245699991 13:0.57735026 883:0.57735026 1305:0.57735026 #
-0.054498502629541125 2175:0.70710677 2771:0.70710677 #
-0.18870200671256965 2879:1 #
-0.1187905825958608 2030:0.81649661 3123:0.40824831 3264:0.40824831 #
1.0000000245699991 233:0.44721359 412:0.44721359 801:0.44721359 1721:0.44721359 3415:0.44721359 #
1.0000000245699991 375:0.35355338 579:0.35355338 801:0.70710677 3080:0.35355338 3247:0.35355338 #
1.0000000245699991 738:0.40824831 1551:0.40824831 2592:0.81649661 #
-0.18928193983247521 2944:1 #
-1.0000000245699991 405:0.70710677 2592:0.70710677 #
-0.11009879639009271 2486:0.70710677 3478:0.70710677 #
-0.037152530574150355 3080:1 #
1.0000000245699991 13:0.5 62:0.5 883:0.5 2942:0.5 #
1.0000000245699991 883:0.57735026 986:0.57735026 3341:0.57735026 #
1.0000000245699991 13:0.5 349:0.5 791:0.5 1040:0.5 #
-0.11142912213223603 573:0.70710677 2963:0.70710677 #
-0.48142280260704962 1864:1 #
-0.68474283736889063 1476:0.26726124 2113:0.53452247 2438:0.26726124 2544:0.53452247 2653:0.26726124 2896:0.26726124 3036:0.26726124 3037:0.26726124 #
-0.078324568130533456 579:1 #
1.0000000245699991 1649:0.57735026 3080:0.57735026 3229:0.57735026 #
1.0000000245699991 798:0.33333334 810:0.33333334 889:0.33333334 906:0.33333334 1155:0.33333334 2768:0.33333334 2769:0.33333334 2814:0.33333334 3080:0.33333334 #
1.0000000245699991 529:0.37796447 935:0.37796447 936:0.37796447 1639:0.37796447 2137:0.37796447 3080:0.37796447 3194:0.37796447 #
-1.0000000245699991 375:0.35355338 680:0.35355338 1639:0.35355338 1751:0.35355338 3080:0.70710677 #
-1.0000000245699991 784:0.57735026 1639:0.57735026 3039:0.57735026 #
-0.73483809459810867 349:1 #
1.0000000245699991 1632:1 #
1.0000000245699991 855:0.70710677 1632:0.70710677 #
1.0000000245699991 714:0.70710677 1632:0.70710677 #
1.0000000245699991 179:0.53452247 349:0.26726124 794:0.26726124 1282:0.26726124 1632:0.53452247 1913:0.26726124 2265:0.26726124 3350:0.26726124 #
-1.0000000245699991 1632:1 #
1.0000000245699991 340:0.31622776 350:0.31622776 423:0.31622776 828:0.31622776 1456:0.31622776 1756:0.31622776 1954:0.31622776 1972:0.31622776 3039:0.31622776 3156:0.31622776 #
-0.15309649718270557 450:1 #
-0.1890871980676665 685:1 #
-0.1100781144162305 2048:0.70710677 2277:0.70710677 #
-1.0000000245699991 855:1 #
1.0000000245699991 497:0.28867513 756:0.28867513 1632:0.28867513 1639:0.28867513 1657:0.57735026 1704:0.28867513 2503:0.28867513 2975:0.28867513 3433:0.28867513 #
1.0000000245699991 319:0.28867513 1013:0.28867513 1034:0.28867513 1309:0.28867513 2220:0.28867513 2316:0.57735026 3009:0.28867513 3086:0.28867513 3231:0.28867513 #
1.0000000245699991 178:0.57735026 517:0.57735026 1564:0.57735026 #
1.0000000245699991 1222:0.57735026 1864:0.57735026 2657:0.57735026 #
-1.0000000245699991 1402:0.57735026 3094:0.57735026 3179:0.57735026 #
-0.74975840707088648 714:1 #
1.0000000245699991 855:0.57735026 1216:0.57735026 3264:0.57735026 #
1.0000000245699991 448:0.5 855:0.5 2966:0.5 3264:0.5 #
1.0000000245699991 359:0.57735026 855:0.57735026 1183:0.57735026 #
-0.062204352168833021 2298:1 #
-0.051747512088534675 349:0.40824831 2053:0.81649661 3205:0.40824831 #
-1.0000000245699991 241:0.44721359 1785:0.89442718 #
-0.92644237420943543 1216:0.70710677 3264:0.70710677 #
0.14654862050343773 246:0.57735026 1120:0.57735026 2434:0.57735026 #
1.0000000245699991 1109:0.37796447 1115:0.75592893 3304:0.37796447 3497:0.37796447 #
1.0000000245699991 1120:0.44721359 1304:0.44721359 1308:0.44721359 1580:0.44721359 3094:0.44721359 #
-0.51834826404291867 3094:1 #
1.0000000245699991 1623:0.57735026 2323:0.57735026 3264:0.57735026 #
-0.026308870161608433 538:1 #
-1.0000000245699991 1632:1 #
1.0000000245699991 3094:1 #
1.0000000245699991 112:0.40824831 627:0.40824831 764:0.40824831 1811:0.40824831 2682:0.40824831 3080:0.40824831 #
1.0000000245699991 349:0.44721359 969:0.44721359 993:0.44721359 1704:0.44721359 2431:0.44721359 #
-1.0000000245699991 824:0.37796447 870:0.37796447 1308:0.37796447 1985:0.37796447 2154:0.37796447 2904:0.37796447 3020:0.37796447 #
-1.0000000245699991 517:0.70710677 2189:0.70710677 #
1.0000000245699991 738:0.5 1161:0.5 2113:0.5 2499:0.5 #
-0.1141261855549861 1449:1 #
-1.0000000245699991 1222:0.57735026 2304:0.57735026 3195:0.57735026 #
1.0000000245699991 795:0.57735026 1632:0.57735026 2485:0.57735026 #
1.0000000245699991 1632:0.44721359 2099:0.44721359 2501:0.44721359 2835:0.44721359 3162:0.44721359 #
1.0000000245699991 1284:0.5 2575:0.5 2609:0.5 2722:0.5 #
-0.060847009454800455 1632:0.70710677 2485:0.70710677 #
-1.0000000245699991 1632:1 #
1.0000000245699991 477:0.57735026 2967:0.57735026 3301:0.57735026 #
1.0000000245699991 228:0.37796447 1662:0.37796447 2904:0.75592893 3245:0.37796447 #
-1.0000000245699991 3162:1 #
1.0000000245699991 1632:1 #
1.0000000245699991 1222:0.57735026 1379:0.57735026 2209:0.57735026 #
1.0000000245699991 631:0.5 2089:0.5 2485:0.5 2548:0.5 #
-0.084629060473636053 2567:1 #
-0.11188379078014615 608:0.70710677 1453:0.70710677 #
-1.0000000245699991 228:0.70710677 507:0.70710677 #
-0.24695159673030942 349:1 #
-0.67659270824202733 657:0.40824831 868:0.40824831 1327:0.40824831 1987:0.40824831 2396:0.40824831 3260:0.40824831 #
1.0000000245699991 3162:1 #
1.0000000245699991 819:0.40824831 3096:0.40824831 3162:0.81649661 #
1.0000000245699991 1640:0.25 2190:0.25 2229:0.25 3050:0.25 3162:0.25 3179:0.25 3180:0.75 3205:0.25 #
1.0000000245699991 486:0.40824831 1059:0.40824831 1374:0.40824831 2613:0.40824831 2855:0.40824831 2976:0.40824831 #
-1.0000000245699991 3162:1 #
-0.15412397118225551 535:0.37796447 1720:0.37796447 2699:0.37796447 2788:0.75592893 #
1.0000000245699991 228:0.57735026 2479:0.57735026 2996:0.57735026 #
1.0000000245699991 868:1 #
-1.0000000245699991 2229:0.70710677 2431:0.70710677 #
-1.0000000245699991 864:0.40824831 868:0.40824831 1022:0.40824831 1497:0.40824831 1756:0.40824831 1943:0.40824831 #
-0.10920867313147753 315:0.70710677 1527:0.70710677 #
-0.68943295270313232 62:1 #
1.0000000245699991 1222:0.57735026 2283:0.57735026 3166:0.57735026 #
1.0000000245699991 477:0.57735026 1539:0.57735026 2673:0.57735026 #
1.0000000245699991 507:1 #
-0.10880703670079644 1780:0.70710677 3048:0.70710677 #
-0.18568367726144611 632:0.57735026 2967:0.57735026 3166:0.57735026 #
-1.0000000245699991 1177:0.57735026 1219:0.57735026 3166:0.57735026 #
-0.088133090746036563 298:0.37796447 477:0.37796447 480:0.37796447 1670:0.37796447 2062:0.37796447 3113:0.37796447 3126:0.37796447 #
1.0000000245699991 406:0.35355338 490:0.35355338 1060:0.35355338 1551:0.35355338 1910:0.35355338 2663:0.35355338 2764:0.35355338 3159:0.35355338 #
1.0000000245699991 2229:1 #
-1.0000000245699991 405:0.33333334 2229:0.66666669 2543:0.66666669 #
-1.0000000245699991 2229:0.70710677 2927:0.70710677 #
-0.29156605854587325 511:0.5 2133:0.5 2229:0.5 2478:0.5 #
-1.0000000245699991 349:0.40824831 544:0.40824831 1120:0.40824831 1551:0.40824831 2969:0.40824831 3477:0.40824831 #
1.0000000245699991 561:0.70710677 1219:0.70710677 #
1.0000000245699991 399:0.60302269 2073:0.60302269 2094:0.30151135 2760:0.30151135 2967:0.30151135 #
1.0000000245699991 1959:0.70710677 3166:0.70710677 #
-0.029172521431850784 378:1 #
-0.11168097118985418 517:0.70710677 2473:0.70710677 #
-0.11159855886752225 1261:0.70710677 2786:0.70710677 #
-1.0000000245699991 1125:0.5 1219:0.5 1551:0.5 1910:0.5 #
-0.18021619095554584 1798:0.70710677 2901:0.70710677 #
0.93802699900553765 241:0.70710677 2229:0.70710677 #
1.0000000245699991 349:0.57735026 494:0.57735026 2229:0.57735026 #
0.36780016971328894 84:0.44721359 1014:0.44721359 1151:0.44721359 2946:0.44721359 3126:0.44721359 #
0.13424890699749609 330:0.40824831 545:0.40824831 2229:0.40824831 2727:0.40824831 3029:0.40824831 3080:0.40824831 #
-0.077479847714814268 1081:0.70710677 2996:0.70710677 #
-0.18875309339493018 3368:1 #
-0.1884069845056997 1356:1 #
-0.39175701159463039 3029:1 #
1.0000000245699991 498:0.40824831 1125:0.40824831 1551:0.40824831 2431:0.40824831 3205:0.40824831 3277:0.40824831 #
1.0000000245699991 1120:0.33333334 1551:0.33333334 1821:0.33333334 2241:0.33333334 3147:0.66666669 3477:0.33333334 #
1.0000000245699991 1551:0.44721359 1962:0.89442718 #
1.0000000245699991 1187:0.81649661 1512:0.40824831 1551:0.40824831 #
-1.0000000245699991 44:0.5 885:0.5 1551:0.5 1959:0.5 #
1.0000000245699991 952:0.5 2120:0.5 2189:0.5 3029:0.5 #
-1.0000000245699991 375:0.37796447 1476:0.37796447 1821:0.37796447 2575:0.75592893 #
-0.94813643343118437 2241:0.70710677 3147:0.70710677 #
-0.064191558954599159 1390:1 #
-0.1125898542978678 530:0.70710677 2520:0.70710677 #
-0.18871485096958196 1415:1 #
1.0000000245699991 452:0.5 1854:0.5 2825:0.5 3231:0.5 #
1.0000000245699991 1456:0.37796447 3029:0.37796447 3080:0.37796447 3318:0.75592893 #
1.0000000245699991 1738:0.5 1825:0.5 1890:0.5 2927:0.5 #
-0.26489548054070455 1738:1 #
-1.0000000245699991 27:0.24253562 57:0.24253562 261:0.24253562 424:0.24253562 511:0.24253562 564:0.24253562 1022:0.24253562 1071:0.24253562 1215:0.24253562 2127:0.24253562 2227:0.48507124 2668:0.24253562 3195:0.24253562 3352:0.24253562 #
-1.0000000245699991 12:0.26726124 44:0.26726124 424:0.26726124 756:0.26726124 1001:0.26726124 1008:0.53452247 1639:0.26726124 1925:0.26726124 2101:0.26726124 2241:0.26726124 2870:0.26726124 #
1.0000000245699991 2241:0.70710677 2912:0.70710677 #
-0.71552565749196717 1925:0.70710677 2825:0.70710677 #
-1.0000000245699991 405:0.2773501 497:0.2773501 947:0.2773501 993:0.2773501 1371:0.5547002 1456:0.2773501 1718:0.5547002 #
-1.0000000245699991 726:0.40824831 756:0.40824831 835:0.40824831 2171:0.40824831 3047:0.40824831 3080:0.40824831 #
-0.44954916477237927 471:1 #
1.0000000245699991 1738:1 #
1.0000000245699991 2575:0.70710677 2959:0.70710677 #
1.0000000245699991 220:0.35355338 262:0.35355338 481:0.35355338 511:0.35355338 1383:0.35355338 1581:0.35355338 2016:0.35355338 2304:0.35355338 #
-0.18830837645725618 1799:1 #
-1.0000000245699991 1738:1 #
1.0000000245699991 1295:0.70710677 1925:0.70710677 #
1.0000000245699991 321:0.70710677 3047:0.70710677 #
1.0000000245699991 947:1 #
1.0000000245699991 324:0.57735026 595:0.57735026 3047:0.57735026 #
-1.0000000245699991 220:1 #
1.0000000245699991 262:0.70710677 351:0.70710677 #
1.0000000245699991 262:0.44721359 1991:0.44721359 2327:0.44721359 2896:0.44721359 3168:0.44721359 #
1.0000000245699991 1268:0.57735026 3367:0.57735026 3485:0.57735026 #
1.0000000245699991 157:0.57735026 1129:0.57735026 2932:0.57735026 #
-1.0000000245699991 787:0.5 906:0.5 1581:0.5 3242:0.5 #
-1.0000000245699991 267:0.70710677 2959:0.70710677 #
-0.13182894290946931 593:0.70710677 2785:0.70710677 #
-0.18927721650297757 322:1 #
-0.18509837733288248 1750:1 #
1.0000000245699991 109:0.5 349:0.25 350:0.25 357:0.25 618:0.25 973:0.5 1057:0.25 1943:0.25 2395:0.25 2555:0.25 #
1.0000000245699991 124:0.44721359 544:0.44721359 1057:0.44721359 1759:0.44721359 2960:0.44721359 #
1.0000000245699991 604:0.57735026 1228:0.57735026 2253:0.57735026 #
1.0000000245699991 470:1 #
-0.11556089142788106 1750:1 #
-0.10842476104656795 2899:1 #
-1.0000000245699991 7:0.43759498 267:0.14586499 408:0.14586499 582:0.14586499 1057:0.58345997 1210:0.14586499 1268:0.14586499 1323:0.14586499 1336:0.14586499 1721:0.14586499 2113:0.14586499 2234:0.14586499 2431:0.29172999 2679:0.14586499 2915:0.14586499 2965:0.14586499 3231:0.29172999 3352:0.14586499 #
-0.74211192177801555 349:1 #
-1.0000000245699991 349:0.35355338 608:0.35355338 830:0.35355338 1057:0.35355338 1206:0.70710677 #
1.0000000245699991 267:0.5 1198:0.5 1546:0.5 1547:0.5 #
-1.0000000245699991 1704:0.70710677 3022:0.70710677 #
-1.0000000245699991 833:0.44721359 1551:0.44721359 1638:0.44721359 1639:0.44721359 3047:0.44721359 #
-0.20784265836863353 267:0.70710677 1121:0.70710677 #
-1.0000000245699991 267:0.70710677 509:0.70710677 #
1.0000000245699991 1759:1 #
1.0000000245699991 277:0.25 511:0.25 568:0.25 1531:0.25 1847:0.25 2347:0.25 2572:0.75 2795:0.25 #
1.0000000245699991 294:0.5 511:0.5 985:0.5 3268:0.5 #
-0.18826853060376469 1042:1 #
-0.10920391333897211 1056:0.70710677 3193:0.70710677 #
-0.111796835852234 1759:0.70710677 2678:0.70710677 #
1.0000000245699991 1121:1 #
1.0000000245699991 509:1 #
-0.18880674502797845 1571:1 #
-0.18813700087966923 811:1 #
1.0000000245699991 177:0.44721359 267:0.44721359 1151:0.44721359 2072:0.44721359 3179:0.44721359 #
0.53766229908094376 115:0.37796447 267:0.37796447 1057:0.75592893 1875:0.37796447 #
-1.0000000245699991 241:0.57735026 1737:0.57735026 3047:0.57735026 #
-1.0000000245699991 261:0.2773501 262:0.2773501 511:0.5547002 945:0.2773501 1456:0.2773501 1561:0.2773501 1940:0.2773501 2631:0.2773501 2855:0.2773501 3397:0.2773501 #
-1.0000000245699991 57:0.25819889 405:0.25819889 527:0.25819889 1022:0.25819889 1601:0.25819889 1910:0.51639777 1956:0.25819889 2467:0.25819889 3403:0.51639777 #
-1.0000000245699991 899:0.44721359 1938:0.44721359 2556:0.44721359 2657:0.44721359 3047:0.44721359 #
-0.72357052151822931 1683:1 #
1.0000000245699991 3268:1 #
1.0000000245699991 330:0.57735026 349:0.57735026 3268:0.57735026 #
1.0000000245699991 637:0.37796447 1796:0.37796447 2121:0.37796447 2552:0.37796447 2653:0.37796447 3015:0.37796447 3050:0.37796447 #
1.0000000245699991 150:0.37796447 151:0.37796447 153:0.37796447 154:0.37796447 178:0.37796447 3050:0.37796447 3387:0.37796447 #
-0.18867967812954112 1945:1 #
-0.93986808599933169 178:0.31622776 349:0.31622776 1125:0.31622776 1392:0.63245553 1661:0.31622776 2996:0.31622776 3050:0.31622776 #
-0.020244765064060991 882:0.70710677 2101:0.70710677 #
-0.12095403816282235 481:1 #
-1.0000000245699991 330:0.33333334 349:0.33333334 568:0.33333334 1943:0.33333334 2113:0.33333334 2946:0.33333334 3046:0.33333334 3195:0.33333334 3264:0.33333334 #
1.0000000245699991 261:0.57735026 1305:0.57735026 2042:0.57735026 #
1.0000000245699991 135:0.57735026 261:0.57735026 1704:0.57735026 #
-1.0000000245699991 57:0.5 261:0.5 1279:0.5 3462:0.5 #
-0.90011014841758152 637:0.70710677 1037:0.70710677 #
-1.0000000245699991 1531:0.40824831 2005:0.40824831 2682:0.81649661 #
-1.0000000245699991 56:0.40824831 66:0.40824831 261:0.40824831 437:0.40824831 1696:0.40824831 2006:0.40824831 #
-0.18826279000360757 3484:1 #
-1.0000000245699991 49:0.5 261:0.5 349:0.5 847:0.5 #
-0.18806887135085448 957:1 #
0.6524148023729327 814:0.28867513 1120:0.28867513 1134:0.57735026 2228:0.28867513 2493:0.28867513 2608:0.28867513 2657:0.28867513 2744:0.28867513 2996:0.28867513 #
-0.9979458412097757 947:1 #
1.0000000245699991 1035:0.5 1963:0.5 2657:0.5 2802:0.5 #
1.0000000245699991 252:0.57735026 1517:0.57735026 2682:0.57735026 #
1.0000000245699991 1880:0.5 2113:0.5 2143:0.5 3126:0.5 #
-0.01406849110786464 1895:0.70710677 2007:0.70710677 #
1.0000000245699991 203:0.63245553 349:0.31622776 1222:0.31622776 1551:0.31622776 1784:0.31622776 1925:0.31622776 2187:0.31622776 #
1.0000000245699991 741:0.37796447 947:0.37796447 1456:0.37796447 1639:0.37796447 2071:0.37796447 2095:0.37796447 2838:0.37796447 #
1.0000000245699991 220:0.44721359 269:0.44721359 405:0.44721359 709:0.44721359 2959:0.44721359 #
1.0000000245699991 349:0.5 573:0.5 1206:0.5 1249:0.5 #
-1.0000000245699991 29:0.44721359 755:0.44721359 985:0.44721359 1020:0.44721359 3485:0.44721359 #
-0.0087939288736001986 1351:0.5 1757:0.5 2598:0.5 3179:0.5 #
-0.63544748940353046 3213:1 #
-0.64251026059336758 472:0.5 694:0.5 1282:0.5 2386:0.5 #
1.0000000245699991 257:0.81649661 614:0.40824831 2814:0.40824831 #
1.0000000245699991 947:0.5 1022:0.5 1953:0.5 2996:0.5 #
1.0000000245699991 56:0.37796447 395:0.37796447 875:0.37796447 945:0.75592893 #
-1.0000000245699991 764:1 #
1.0000000245699991 1282:1 #
1.0000000245699991 357:0.57735026 451:0.57735026 2807:0.57735026 #
1.0000000245699991 511:0.57735026 755:0.57735026 1120:0.57735026 #
-1.0000000245699991 627:0.75592893 1185:0.37796447 1386:0.37796447 2942:0.37796447 #
-0.18823388827038179 845:1 #
-0.10672991028248324 1407:1 #
-1.0000000245699991 405:0.2773501 461:0.2773501 496:0.2773501 582:0.2773501 614:0.2773501 1022:0.2773501 1096:0.2773501 1458:0.2773501 1493:0.2773501 1551:0.2773501 2055:0.2773501 2431:0.2773501 2996:0.2773501 #
-1.0000000245699991 2814:1 #
1.0000000245699991 935:0.35355338 971:0.35355338 1362:0.35355338 1821:0.35355338 1871:0.35355338 2654:0.35355338 3243:0.35355338 3430:0.35355338 #
1.0000000245699991 1997:0.70710677 3349:0.70710677 #
1.0000000245699991 410:0.70710677 2381:0.70710677 #
-0.71394250065864384 2381:1 #
-0.18896810860247581 160:1 #
-1.0000000245699991 262:0.5 1222:0.5 2657:0.5 2757:0.5 #
-0.027459544736125219 2179:1 #
1.0000000245699991 3389:1 #
-0.48457029572992188 178:0.70710677 3391:0.70710677 #
-1.0000000245699991 178:0.66666669 511:0.33333334 587:0.33333334 927:0.33333334 962:0.33333334 2824:0.33333334 #
-0.80608726159926269 935:0.44721359 2092:0.44721359 2212:0.44721359 3039:0.44721359 3080:0.44721359 #
-1.0000000245699991 1551:0.40824831 2943:0.81649661 3144:0.40824831 #
-0.10924585022773972 861:0.70710677 3271:0.70710677 #
1.0000000245699991 1007:1 #
1.0000000245699991 1137:0.70710677 1190:0.70710677 #
1.0000000245699991 69:0.70710677 1189:0.70710677 #
-0.35685755954769555 422:0.44721359 1205:0.44721359 2676:0.44721359 2896:0.44721359 2948:0.44721359 #
-0.02422620433933842 2102:1 #
-0.18888648780585249 1052:1 #
-1.0000000245699991 507:0.44721359 984:0.44721359 2205:0.44721359 2431:0.44721359 2480:0.44721359 #
-0.094831683235909514 339:1 #
1.0000000245699991 2943:1 #
1.0000000245699991 178:0.70710677 2360:0.70710677 #
1.0000000245699991 1:0.5 178:0.5 517:0.5 1564:0.5 #
-0.89579766544160222 2360:1 #
1.0000000245699991 507:0.70710677 2996:0.70710677 #
-0.92199591541285053 178:0.40824831 295:0.40824831 568:0.40824831 1023:0.40824831 1657:0.40824831 1706:0.40824831 #
-0.13727054426132759 178:0.57735026 1785:0.57735026 2227:0.57735026 #
-0.086434657696385531 699:0.70710677 1562:0.70710677 #
1.0000000245699991 953:1 #
1.0000000245699991 558:0.70710677 3474:0.70710677 #
1.0000000245699991 1141:1 #
1.0000000245699991 1475:1 #
1.0000000245699991 1529:1 #
-1.0000000245699991 558:0.70710677 3474:0.70710677 #
-0.18805007586882716 1677:1 #
-0.18828829378824696 2003:1 #
-0.10118370511269636 1302:0.70710677 1669:0.70710677 #
1.0000000245699991 1706:1 #
1.0000000245699991 906:0.75592893 1462:0.37796447 2929:0.37796447 3462:0.37796447 #
0.89380062293053197 178:0.70710677 2474:0.70710677 #
-0.83300371700031417 573:1 #
-0.032974288964809091 262:0.57735026 807:0.57735026 2943:0.57735026 #
-0.18801041984972644 834:1 #
-1.0000000245699991 28:0.5 2048:0.5 3215:0.5 3341:0.5 #
-0.58440877600564567 412:0.5 553:0.5 2575:0.5 2719:0.5 #
1.0000000245699991 430:0.70710677 558:0.70710677 #
1.0000000245699991 1019:0.70710677 3373:0.70710677 #
1.0000000245699991 2454:1 #
1.0000000245699991 863:0.70710677 1552:0.70710677 #
1.0000000245699991 1744:1 #
-0.74184298556016703 2454:1 #
1.0000000245699991 1811:1 #
1.0000000245699991 769:0.70710677 1919:0.70710677 #
-0.58663472180402043 376:1 #
-0.2513975323811668 1121:0.40824831 1203:0.40824831 1419:0.40824831 1554:0.40824831 3020:0.40824831 3308:0.40824831 #
-1.0000000245699991 949:0.57735026 2654:0.57735026 3268:0.57735026 #
-0.80124799422126625 529:1 #
-0.81639630165837651 276:0.35355338 630:0.35355338 743:0.35355338 2113:0.35355338 2181:0.35355338 3307:0.35355338 3386:0.35355338 3389:0.35355338 #
1.0000000245699991 261:0.30151135 568:0.30151135 1044:0.30151135 1456:0.30151135 1531:0.30151135 1943:0.30151135 2048:0.30151135 2113:0.30151135 2199:0.30151135 3231:0.30151135 3242:0.30151135 #
-1.0000000245699991 1811:1 #
1.0000000245699991 573:0.57735026 726:0.57735026 2265:0.57735026 #
1.0000000245699991 804:1 #
1.0000000245699991 652:0.5 2457:0.5 2461:0.5 2797:0.5 #
-1.0000000245699991 503:0.57735026 1517:0.57735026 1943:0.57735026 #
-0.10898971442748677 1288:0.70710677 1608:0.70710677 #
-0.18879782175429627 1212:1 #
1.0000000245699991 1811:1 #
1.0000000245699991 2692:1 #
1.0000000245699991 1510:1 #
1.0000000245699991 3:1 #
1.0000000245699991 505:1 #
-1.0000000245699991 1811:1 #
1.0000000245699991 573:0.57735026 756:0.57735026 2996:0.57735026 #
-0.97576973559297875 405:0.35355338 824:0.35355338 1192:0.35355338 2265:0.70710677 3286:0.35355338 #
-0.43631341171756888 21:0.5 2009:0.5 2265:0.5 3231:0.5 #
-0.38559955155927761 573:0.5 1873:0.5 1922:0.5 2265:0.5 #
-0.1123459115840072 980:0.70710677 3434:0.70710677 #
-0.72113691769262278 3170:1 #
-0.077845693759186665 3091:0.57735026 3170:0.57735026 3393:0.57735026 #
-1.0000000245699991 349:0.31622776 1125:0.31622776 1551:0.31622776 1612:0.31622776 1902:0.31622776 2319:0.63245553 2722:0.31622776 #
-1.0000000245699991 1797:0.57735026 2670:0.57735026 2722:0.57735026 #
1.0000000245699991 726:0.44721359 2265:0.89442718 #
1.0000000245699991 922:1 #
1.0000000245699991 1074:1 #
1.0000000245699991 2226:0.70710677 3335:0.70710677 #
-0.036407593181642994 2647:1 #
1.0000000245699991 2722:1 #
1.0000000245699991 2722:0.70710677 3069:0.70710677 #
-0.5368037675335865 747:0.57735026 1013:0.57735026 1074:0.57735026 #
-0.188747415826098 571:1 #
-0.96395749074737025 573:0.57735026 1860:0.57735026 2321:0.57735026 #
1.0000000245699991 301:0.70710677 2428:0.70710677 #
1.0000000245699991 2709:1 #
1.0000000245699991 45:0.37796447 944:0.37796447 1144:0.37796447 1481:0.37796447 1615:0.37796447 2222:0.37796447 3325:0.37796447 #
1.0000000245699991 2737:1 #
1.0000000245699991 781:1 #
-0.30091739286907149 4:0.37796447 56:0.37796447 486:0.75592893 2233:0.37796447 #
-1.0000000245699991 1059:0.57735026 2639:0.57735026 2735:0.57735026 #
-0.96239044090519776 52:0.40824831 452:0.40824831 563:0.40824831 788:0.40824831 2113:0.40824831 2367:0.40824831 #
-0.58897585645265482 1754:0.70710677 2975:0.70710677 #
-1.0000000245699991 450:0.70710677 1144:0.70710677 #
-0.9233846915827657 269:0.5 349:0.5 462:0.5 1732:0.5 #
-0.31344964074320847 8:1 #
-0.49504590772853868 349:0.31622776 1667:0.31622776 1686:0.31622776 1750:0.31622776 2192:0.31622776 2575:0.31622776 2588:0.31622776 2720:0.31622776 3047:0.31622776 3338:0.31622776 #
1.0000000245699991 52:1 #
1.0000000245699991 2206:1 #
1.0000000245699991 1396:0.57735026 1595:0.57735026 2088:0.57735026 #
1.0000000245699991 1293:1 #
-1.0000000245699991 2206:1 #
-0.92767280537053987 52:1 #
1.0000000245699991 188:0.33333334 269:0.33333334 349:0.66666669 914:0.33333334 1079:0.33333334 2833:0.33333334 #
1.0000000245699991 529:0.60302269 709:0.30151135 855:0.30151135 912:0.30151135 1956:0.30151135 2502:0.30151135 3042:0.30151135 3486:0.30151135 #
0.61030111441779722 349:0.40824831 1892:0.40824831 2723:0.81649661 #
-1.0000000245699991 1396:0.70710677 2691:0.70710677 #
-0.35235509485213001 1396:1 #
1.0000000245699991 244:0.5 529:0.5 701:0.5 1135:0.5 #
-0.34104674531696533 244:1 #
1.0000000245699991 785:0.70710677 2691:0.70710677 #
1.0000000245699991 938:1 #
1.0000000245699991 1809:1 #
1.0000000245699991 1699:0.70710677 3129:0.70710677 #
-1.0000000245699991 855:1 #
1.0000000245699991 1746:1 #
1.0000000245699991 2452:0.70710677 3065:0.70710677 #
1.0000000245699991 1930:1 #
1.0000000245699991 2862:1 #
1.0000000245699991 2383:1 #
-0.90657376267171874 1383:0.57735026 1956:0.57735026 2796:0.57735026 #
-0.3062808854632752 59:0.28867513 267:0.28867513 349:0.28867513 411:0.28867513 1040:0.28867513 1120:0.28867513 1419:0.28867513 1642:0.28867513 1922:0.28867513 1961:0.28867513 2192:0.28867513 2897:0.28867513 #
-1.0000000245699991 529:1 #
1.0000000245699991 426:1 #
0.96141542007837788 92:0.89442718 2595:0.44721359 #
1.0000000245699991 2336:1 #
1.0000000245699991 512:0.70710677 3217:0.70710677 #
-0.29074167987515909 3042:0.70710677 3264:0.70710677 #
-1.0000000245699991 3264:1 #
1.0000000245699991 797:0.70710677 1753:0.70710677 #
-1.0000000245699991 801:0.70710677 1639:0.70710677 #
-0.88517392035138343 1623:0.70710677 2466:0.70710677 #
-0.091969158069923937 367:0.2773501 1694:0.5547002 2206:0.5547002 2304:0.2773501 2457:0.2773501 2893:0.2773501 2996:0.2773501 #
-0.4889132957333614 2486:1 #
1.0000000245699991 709:0.57735026 1951:0.57735026 3276:0.57735026 #
1.0000000245699991 1535:1 #
1.0000000245699991 2475:1 #
1.0000000245699991 1897:1 #
-0.1114763674324134 3271:1 #
-0.73833716163674057 483:0.35355338 1371:0.35355338 1535:0.70710677 2346:0.35355338 2886:0.35355338 #
1.0000000245699991 615:0.5 801:0.5 1709:0.5 3227:0.5 #
1.0000000245699991 573:0.31622776 756:0.31622776 1456:0.31622776 1639:0.31622776 1881:0.31622776 2262:0.31622776 2727:0.63245553 #
1.0000000245699991 159:0.70710677 1639:0.70710677 #
-0.68867445922279613 1709:1 #
-0.1887664555858013 1053:1 #
-1.0000000245699991 841:0.5 2351:0.5 2925:0.5 3126:0.5 #
-1.0000000245699991 54:0.44721359 349:0.44721359 464:0.44721359 2737:0.44721359 3038:0.44721359 #
1.0000000245699991 103:1 #
1.0000000245699991 263:0.70710677 1633:0.70710677 #
1.0000000245699991 147:0.57735026 168:0.57735026 1165:0.57735026 #
1.0000000245699991 3012:0.70710677 3155:0.70710677 #
1.0000000245699991 120:0.5 382:0.5 1947:0.5 2068:0.5 #
-0.016454116553219711 2401:1 #
1.0000000245699991 583:0.57735026 841:0.57735026 3075:0.57735026 #
1.0000000245699991 2934:1 #
-1.0000000245699991 615:0.70710677 2431:0.70710677 #
-1.0000000245699991 615:0.70710677 3268:0.70710677 #
-0.76627637999916698 3075:1 #
-1.0000000245699991 2927:0.70710677 3152:0.70710677 #
1.0000000245699991 144:0.26726124 190:0.26726124 191:0.26726124 349:0.26726124 605:0.26726124 608:0.26726124 1120:0.26726124 1161:0.26726124 1165:0.26726124 1551:0.26726124 2154:0.26726124 2606:0.26726124 3142:0.26726124 3375:0.26726124 #
1.0000000245699991 1411:1 #
1.0000000245699991 2437:1 #
1.0000000245699991 1485:0.70710677 3004:0.70710677 #
1.0000000245699991 1491:0.70710677 1912:0.70710677 #
-1.0000000245699991 2437:1 #
1.0000000245699991 615:1 #
-0.10988837140302456 8:0.70710677 9:0.70710677 #
-0.044637837107944889 1365:1 #
-0.41310844558195181 657:1 #
0.010768828317022285 244:0.19611613 1120:0.19611613 1874:0.19611613 1943:0.39223227 2657:0.19611613 2868:0.19611613 2936:0.19611613 3152:0.78446454 #
1.0000000245699991 57:0.5 1913:0.5 3050:0.5 3152:0.5 #
-0.73896575556560729 16:0.76980036 34:0.19245009 713:0.19245009 819:0.19245009 1057:0.19245009 1391:0.19245009 1632:0.19245009 3050:0.38490018 3152:0.19245009 #
-0.0025611674588094102 1843:1 #
-0.23739689974966385 277:0.70710677 841:0.70710677 #
-1.0000000245699991 376:0.26726124 408:0.26726124 877:0.53452247 913:0.26726124 1370:0.26726124 1892:0.53452247 2885:0.26726124 3039:0.26726124 #
-0.11156581515245821 390:0.70710677 2217:0.70710677 #
-0.71325327106370973 1282:1 #
1.0000000245699991 510:1 #
1.0000000245699991 1026:0.70710677 2830:0.70710677 #
1.0000000245699991 1116:0.57735026 1742:0.57735026 2408:0.57735026 #
1.0000000245699991 1707:1 #
-0.29660922109506505 2923:1 #
1.0000000245699991 287:0.35355338 405:0.35355338 877:0.35355338 1892:0.70710677 2723:0.35355338 #
-0.8918407558971122 2830:1 #
-0.10787431283788737 854:0.70710677 2675:0.70710677 #
-0.10943516621870701 1780:0.70710677 2163:0.70710677 #
-0.1889493735497661 3030:0.70710677 3249:0.70710677 #
1.0000000245699991 359:0.40824831 841:0.40824831 855:0.40824831 1183:0.40824831 1311:0.40824831 3417:0.40824831 #
1.0000000245699991 450:0.5 841:0.5 1022:0.5 3229:0.5 #
1.0000000245699991 1776:1 #
1.0000000245699991 1184:1 #
1.0000000245699991 336:0.70710677 1780:0.70710677 #
-0.031862398457294772 2546:1 #
1.0000000245699991 1752:1 #
1.0000000245699991 3342:1 #
1.0000000245699991 155:1 #
1.0000000245699991 2577:1 #
-0.89963975117032258 287:0.57735026 903:0.57735026 1752:0.57735026 #
-0.18515450749356188 1695:1 #
-0.39992826318464786 405:0.57735026 564:0.57735026 3407:0.57735026 #
-1.0000000245699991 563:0.40824831 1013:0.40824831 1752:0.40824831 1821:0.40824831 2844:0.40824831 2959:0.40824831 #
1.0000000245699991 1780:0.90453404 2437:0.30151135 2858:0.30151135 #
1.0000000245699991 2492:1 #
1.0000000245699991 1435:0.5 2364:0.5 3132:0.5 3173:0.5 #
1.0000000245699991 1576:1 #
-0.64867688550112712 1780:1 #
1.0000000245699991 271:0.40824831 511:0.40824831 1764:0.40824831 2618:0.40824831 3024:0.40824831 3407:0.40824831 #
-0.11781392905537852 1558:0.57735026 1966:0.57735026 2690:0.57735026 #
-0.47763029962052561 2437:1 #
1.0000000245699991 452:0.70710677 903:0.70710677 #
-0.1886626569451666 3261:1 #
-0.11163629842059324 530:0.70710677 990:0.70710677 #
-0.0044454627341892206 2830:1 #
1.0000000245699991 578:0.5 615:0.5 2007:0.5 2519:0.5 #
1.0000000245699991 2086:1 #
1.0000000245699991 513:0.70710677 560:0.70710677 #
-1.0000000245699991 2519:1 #
-0.81884087767289238 578:0.70710677 2942:0.70710677 #
-0.11187711847812705 2524:0.70710677 2696:0.70710677 #
1.0000000245699991 857:1 #
1.0000000245699991 543:0.70710677 621:0.70710677 #
1.0000000245699991 3413:1 #
1.0000000245699991 1133:1 #
-1.0000000245699991 857:1 #
-1.0000000245699991 267:0.25819889 511:0.25819889 573:0.25819889 756:0.25819889 1551:0.25819889 1639:0.51639777 2048:0.25819889 2929:0.51639777 3045:0.25819889 #
-0.18916226233336986 961:1 #
-0.095507034787722725 446:0.44721359 857:0.44721359 1167:0.44721359 1172:0.44721359 2773:0.44721359 #
1.0000000245699991 760:0.70710677 2519:0.70710677 #
1.0000000245699991 2069:1 #
-0.78828511632135223 215:0.37796447 216:0.37796447 760:0.37796447 1487:0.37796447 1731:0.37796447 1771:0.37796447 2141:0.37796447 #
-0.5947764668097274 2618:1 #
-0.23028663136941874 2519:1 #
-0.077991359778331826 2546:1 #
-1.0000000245699991 573:1 #
1.0000000245699991 548:0.57735026 1423:0.57735026 2036:0.57735026 #
1.0000000245699991 1511:0.70710677 2450:0.70710677 #
1.0000000245699991 2078:1 #
-0.7064841352943787 1463:0.57735026 3162:0.57735026 3404:0.57735026 #
-1.0000000245699991 548:1 #
1.0000000245699991 444:0.25819889 573:0.25819889 1022:0.25819889 1185:0.25819889 1748:0.25819889 1756:0.25819889 2020:0.51639777 2326:0.25819889 2499:0.25819889 2996:0.25819889 3067:0.25819889 3255:0.25819889 #
0.65218829899061515 261:0.14142136 573:0.56568545 895:0.56568545 908:0.28284273 1022:0.42426407 1383:0.14142136 1553:0.14142136 2225:0.14142136 2381:0.14142136 #
1.0000000245699991 573:0.5 756:0.5 1638:0.5 2814:0.5 #
1.0000000245699991 217:0.5 573:0.5 945:0.5 1080:0.5 #
-1.0000000245699991 405:0.44721359 511:0.44721359 660:0.44721359 756:0.44721359 2841:0.44721359 #
-0.24657125624944037 228:1 #
1.0000000245699991 305:0.37796447 330:0.37796447 786:0.37796447 822:0.37796447 2431:0.37796447 2790:0.37796447 3162:0.37796447 #
1.0000000245699991 373:0.37796447 548:0.37796447 637:0.37796447 1834:0.37796447 2018:0.37796447 2113:0.37796447 2783:0.37796447 #
1.0000000245699991 1191:0.57735026 1495:0.57735026 2547:0.57735026 #
1.0000000245699991 533:0.57735026 1606:0.57735026 2622:0.57735026 #
-0.044342109876364888 2044:1 #
1.0000000245699991 405:0.44721359 511:0.44721359 987:0.44721359 1161:0.44721359 1186:0.44721359 #
-0.36774142211198058 3098:1 #
-0.10566191285238202 704:1 #
-0.18801041984972644 1602:1 #
-0.64149076493071644 553:0.40824831 836:0.40824831 1185:0.40824831 2113:0.40824831 2661:0.40824831 3050:0.40824831 #
-0.29289715551950524 2637:0.70710677 3109:0.70710677 #
1.0000000245699991 2278:0.57735026 3341:0.57735026 3489:0.57735026 #
1.0000000245699991 33:0.35355338 349:0.35355338 764:0.35355338 1456:0.35355338 1531:0.35355338 1910:0.35355338 2970:0.35355338 3489:0.35355338 #
-1.0000000245699991 3489:1 #
-0.56665535507987208 2018:1 #
-1.0000000245699991 835:0.37796447 945:0.37796447 969:0.37796447 1910:0.37796447 2254:0.37796447 3229:0.37796447 3283:0.37796447 #
-0.45434233007156355 262:0.5 1123:0.5 1521:0.5 3343:0.5 #
1.0000000245699991 553:0.5 1059:0.5 1182:0.5 2789:0.5 #
1.0000000245699991 1144:1 #
-0.23368440425338399 3277:1 #
-1.0000000245699991 405:0.30151135 517:0.30151135 573:0.30151135 674:0.30151135 1022:0.30151135 1089:0.30151135 1990:0.30151135 2929:0.30151135 3080:0.30151135 3162:0.30151135 3229:0.30151135 #
-0.55099996422864128 428:1 #
1.0000000245699991 262:0.57735026 1131:0.57735026 1444:0.57735026 #
1.0000000245699991 756:0.33333334 1497:0.33333334 1910:0.66666669 2170:0.33333334 2532:0.33333334 3093:0.33333334 #
1.0000000245699991 186:0.70710677 3069:0.70710677 #
-1.0000000245699991 1874:0.44721359 2241:0.89442718 #
-0.14340603730865975 2241:1 #
1.0000000245699991 428:0.44721359 881:0.44721359 993:0.44721359 1267:0.44721359 2089:0.44721359 #
1.0000000245699991 1540:0.70710677 2588:0.70710677 #
-0.10362904807761103 1748:0.70710677 3135:0.70710677 #
-0.11173650895139275 2806:1 #
-0.11152111921224672 841:0.70710677 2108:0.70710677 #
1.0000000245699991 101:0.70710677 1869:0.70710677 #
-0.76627637999916698 2807:1 #
-0.97977325520460379 357:1 #
1.0000000245699991 339:0.5 1320:0.5 1910:0.5 2503:0.5 #
1.0000000245699991 2716:0.57735026 3022:0.57735026 3179:0.57735026 #
-1.0000000245699991 57:0.28867513 349:0.57735026 350:0.28867513 926:0.28867513 1379:0.28867513 1404:0.28867513 1497:0.28867513 1551:0.28867513 3195:0.28867513 #
-1.0000000245699991 3069:0.70710677 3142:0.70710677 #
-0.99573095127878619 2170:1 #
1.0000000245699991 357:0.37796447 568:0.37796447 900:0.37796447 1783:0.37796447 1890:0.37796447 2460:0.37796447 3016:0.37796447 #
1.0000000245699991 352:0.57735026 2867:0.57735026 3016:0.57735026 #
1.0000000245699991 13:0.35355338 64:0.35355338 240:0.35355338 633:0.35355338 1839:0.35355338 2691:0.35355338 3098:0.35355338 3345:0.35355338 #
-0.18947751469394969 417:1 #
-0.044335729366328791 1817:1 #
-0.18823388827038179 2300:1 #
-1.0000000245699991 1303:1 #
1.0000000245699991 241:0.70710677 2170:0.70710677 #
1.0000000245699991 1105:0.5 1551:0.5 2515:0.5 3106:0.5 #
1.0000000245699991 349:0.35355338 552:0.35355338 945:0.35355338 972:0.35355338 1536:0.35355338 1574:0.35355338 3026:0.35355338 3047:0.35355338 #
-1.0000000245699991 56:0.57735026 2814:0.57735026 3016:0.57735026 #
-1.0000000245699991 2888:0.44721359 3039:0.89442718 #
-0.18902626167910697 2772:1 #
-1.0000000245699991 13:0.60302269 339:0.30151135 1756:0.30151135 1864:0.30151135 1956:0.30151135 2345:0.30151135 2606:0.30151135 2942:0.30151135 #
1.0000000245699991 579:0.57735026 2536:0.57735026 3156:0.57735026 #
1.0000000245699991 261:0.5 1841:0.5 1959:0.5 3264:0.5 #
1.0000000245699991 1397:0.40824831 1623:0.40824831 3192:0.81649661 #
1.0000000245699991 264:0.70710677 2248:0.70710677 #
-0.60509779464531288 3192:1 #
-0.18929154220467448 1519:1 #
-0.29356491250256733 1458:1 #
-0.11195416396346969 1646:1 #
1.0000000245699991 945:0.5 2186:0.5 2642:0.5 2814:0.5 #
1.0000000245699991 262:0.5 664:0.5 1994:0.5 2888:0.5 #
-1.0000000245699991 261:0.37796447 365:0.37796447 517:0.37796447 1628:0.37796447 2601:0.37796447 2664:0.37796447 3231:0.37796447 #
-0.85080182768191526 423:1 #
1.0000000245699991 52:0.13130644 267:0.13130644 330:0.26261288 349:0.13130644 362:0.13130644 364:0.26261288 405:0.26261288 509:0.13130644 511:0.13130644 732:0.13130644 1022:0.13130644 1120:0.13130644 1211:0.13130644 1215:0.13130644 1371:0.13130644 1456:0.13130644 1556:0.13130644 1711:0.13130644 1757:0.13130644 1821:0.13130644 1956:0.65653217 2151:0.13130644 2197:0.13130644 3377:0.13130644 3407:0.13130644 #
-1.0000000245699991 499:0.40824831 906:0.40824831 1476:0.40824831 1756:0.40824831 1956:0.40824831 3156:0.40824831 #
-1.0000000245699991 499:1 #
1.0000000245699991 256:0.20851441 517:0.20851441 608:0.20851441 682:0.20851441 836:0.41702881 1022:0.20851441 1639:0.62554324 1852:0.20851441 2414:0.20851441 2850:0.20851441 2855:0.20851441 3080:0.20851441 #
-1.0000000245699991 437:0.40824831 1959:0.40824831 2657:0.40824831 2910:0.40824831 2950:0.40824831 3047:0.40824831 #
-1.0000000245699991 3211:1 #
1.0000000245699991 499:0.57735026 1062:0.57735026 1200:0.57735026 #
-0.63604042636088731 2985:1 #
-1.0000000245699991 1062:1 #
1.0000000245699991 1721:0.70710677 2657:0.70710677 #
1.0000000245699991 453:1 #
-1.0000000245699991 1721:0.89442718 2502:0.44721359 #
-0.57059193606569469 47:0.26726124 262:0.26726124 511:0.26726124 731:0.26726124 842:0.26726124 1115:0.26726124 1120:0.26726124 1704:0.26726124 1821:0.26726124 1836:0.26726124 2272:0.26726124 2345:0.26726124 2647:0.26726124 3161:0.26726124 #
-0.11121287497999573 1393:0.70710677 2518:0.70710677 #
1.0000000245699991 199:0.40824831 997:0.40824831 1717:0.40824831 1947:0.40824831 1950:0.40824831 3154:0.40824831 #
-1.0000000245699991 1601:0.57735026 2069:0.57735026 3391:0.57735026 #
-0.31282791927761111 868:1 #
-1.0000000245699991 2154:1 #
-1.0000000245699991 244:0.40824831 1345:0.40824831 1456:0.40824831 1821:0.40824831 2522:0.40824831 3080:0.40824831 #
-1.0000000245699991 1821:1 #
-1.0000000245699991 241:0.5 1943:0.5 2586:0.5 2646:0.5 #
1.0000000245699991 1563:0.70710677 3434:0.70710677 #
-1.0000000245699991 3407:0.70710677 3434:0.70710677 #
-0.17953618365831098 7:0.5 405:0.5 1308:0.5 2722:0.5 #
-1.0000000245699991 2748:0.57735026 3179:0.57735026 3434:0.57735026 #
-1.0000000245699991 349:0.35355338 453:0.70710677 1001:0.35355338 3102:0.35355338 3397:0.35355338 #
1.0000000245699991 2027:0.57735026 2591:0.57735026 2732:0.57735026 #
-0.10933717785008248 2996:0.70710677 3065:0.70710677 #
-1.0000000245699991 2996:1 #
1.0000000245699991 349:0.44721359 427:0.44721359 1151:0.44721359 1943:0.44721359 2888:0.44721359 #
-0.33417180168604455 769:1 #
-1.0000000245699991 1551:0.57735026 2838:0.57735026 3179:0.57735026 #
-0.90456541426027737 1497:1 #
-0.44663174401802608 444:1 #
-0.44662813290978143 3255:1 #
1.0000000245699991 812:0.5 993:0.5 1551:0.5 2101:0.5 #
1.0000000245699991 405:0.31622776 1022:0.31622776 1497:0.31622776 2567:0.31622776 2996:0.31622776 3010:0.31622776 3068:0.63245553 #
-0.83986745055301693 2101:1 #
1.0000000245699991 101:0.57735026 1001:0.57735026 3407:0.57735026 #
0.80136352056761428 926:0.33333334 1057:0.33333334 1860:0.33333334 2005:0.66666669 2142:0.33333334 2887:0.33333334 #
-0.092740661665663637 855:1 #
-0.063539481399469466 367:0.13736056 368:0.41208169 535:0.13736056 767:0.13736056 1803:0.13736056 1988:0.13736056 3123:0.13736056 3158:0.13736056 3169:0.82416338 3457:0.13736056 #
-1.0000000245699991 349:0.44721359 350:0.44721359 1266:0.44721359 1456:0.44721359 2855:0.44721359 #
0.45734505730938491 1182:0.70710677 3341:0.70710677 #
-1.0000000245699991 883:0.81649661 2888:0.40824831 2955:0.40824831 #
1.0000000245699991 82:0.70710677 1379:0.70710677 #
-0.37183912067840241 1305:1 #
1.0000000245699991 1875:1 #
-0.9966093305387711 3242:1 #
-0.081606545454496859 480:1 #
-1.0000000245699991 35:0.33333334 262:0.33333334 467:0.33333334 651:0.33333334 1057:0.33333334 1144:0.33333334 1551:0.33333334 1757:0.33333334 3205:0.33333334 #
-1.0000000245699991 2485:1 #
-0.033143157163147974 234:0.5 853:0.5 2086:0.5 2485:0.5 #
1.0000000245699991 913:1 #
-1.0000000245699991 99:0.28867513 130:0.28867513 131:0.28867513 132:0.28867513 173:0.28867513 179:0.57735026 200:0.28867513 511:0.28867513 2684:0.28867513 #
-0.37929400466319874 2515:0.70710677 2965:0.70710677 #
-0.29864759240569078 803:0.89442718 1012:0.44721359 #
-1.0000000245699991 755:0.57735026 1639:0.57735026 2128:0.57735026 #
-0.51047719001255532 356:1 #
1.0000000245699991 148:0.5 1147:0.5 2653:0.5 3253:0.5 #
0.42373288394374931 1456:0.89442718 2575:0.44721359 #
-0.10966485657281011 2089:1 #
-0.10623201669699331 2648:0.70710677 2893:0.70710677 #
1.0000000245699991 179:0.70710677 2178:0.70710677 #
1.0000000245699991 424:0.44721359 714:0.44721359 1120:0.44721359 1125:0.44721359 2967:0.44721359 #
1.0000000245699991 1442:0.44721359 2189:0.89442718 #
-0.82969884790208936 1349:0.57735026 2189:0.57735026 3458:0.57735026 #
-1.0000000245699991 2178:0.70710677 2567:0.70710677 #
-1.0000000245699991 226:0.17149858 405:0.34299716 639:0.85749292 1022:0.17149858 1292:0.17149858 1345:0.17149858 1756:0.17149858 #
-0.42765722906440429 1262:0.5 1535:0.5 1932:0.5 3003:0.5 #
-1.0000000245699991 749:0.57735026 2055:0.57735026 2912:0.57735026 #
1.0000000245699991 816:1 #
1.0000000245699991 1959:1 #
-0.21344996692763707 2558:1 #
1.0000000245699991 545:1 #
1.0000000245699991 231:0.57735026 841:0.57735026 1057:0.57735026 #
1.0000000245699991 2912:0.70710677 3181:0.70710677 #
-0.71352208890515667 439:0.24253562 545:0.48507124 2079:0.72760689 2289:0.24253562 3042:0.24253562 3441:0.24253562 #
-0.44911243067047724 1381:0.63245553 2657:0.31622776 3060:0.63245553 3485:0.31622776 #
-0.82101732830338015 2450:0.57735026 2498:0.57735026 2967:0.57735026 #
-0.32041359871941988 2197:1 #
0.084951388509762291 184:0.20412415 1161:0.40824831 1517:0.40824831 1780:0.20412415 1943:0.20412415 2005:0.20412415 2956:0.20412415 3069:0.20412415 3081:0.61237246 3169:0.20412415 #
1.0000000245699991 166:0.70710677 250:0.70710677 #
1.0000000245699991 551:0.57735026 2225:0.57735026 2959:0.57735026 #
1.0000000245699991 261:0.31622776 405:0.31622776 1517:0.63245553 2348:0.31622776 2567:0.31622776 2642:0.31622776 2657:0.31622776 #
-0.85853214902589936 2225:1 #
-0.10958332355008682 3122:1 #
-0.47968475618432471 2642:1 #
1.0000000245699991 1057:0.57735026 2588:0.57735026 2967:0.57735026 #
1.0000000245699991 1346:0.57735026 2327:0.57735026 2540:0.57735026 #
-0.1064980917675773 1254:0.70710677 2942:0.70710677 #
-0.18845486462316641 1420:1 #
-0.61439966571286719 3081:1 #
1.0000000245699991 796:0.81649661 1456:0.40824831 2298:0.40824831 #
-1.0000000245699991 796:1 #
1.0000000245699991 343:0.40824831 1117:0.40824831 1531:0.40824831 1551:0.40824831 2799:0.40824831 3031:0.40824831 #
1.0000000245699991 872:1 #
1.0000000245699991 92:0.70710677 606:0.70710677 #
-1.0000000245699991 2298:1 #
1.0000000245699991 459:0.40824831 2592:0.40824831 2632:0.40824831 2737:0.40824831 3325:0.40824831 3421:0.40824831 #
-0.18882747062503946 2809:1 #
-0.98386887741307361 349:0.40824831 1074:0.40824831 1222:0.40824831 1263:0.40824831 1650:0.40824831 2499:0.40824831 #
-0.48731623588418244 645:0.44721359 684:0.44721359 1680:0.44721359 1723:0.44721359 2588:0.44721359 #
-0.18866023154085365 1054:1 #
1.0000000245699991 330:0.37796447 375:0.37796447 752:0.37796447 1606:0.37796447 2834:0.37796447 3172:0.37796447 3291:0.37796447 #
1.0000000245699991 1790:0.70710677 3398:0.70710677 #
1.0000000245699991 603:1 #
-0.56701251066972236 3291:1 #
-0.18875198712430363 707:1 #
-1.0000000245699991 511:0.31622776 1120:0.31622776 1476:0.31622776 1691:0.31622776 2727:0.63245553 2929:0.31622776 2941:0.31622776 #
-1.0000000245699991 405:0.44721359 652:0.44721359 985:0.44721359 1705:0.44721359 2454:0.44721359 #
1.0000000245699991 488:0.28867513 1057:0.28867513 1161:0.28867513 1222:0.57735026 1956:0.57735026 1971:0.28867513 #
1.0000000245699991 702:0.70710677 1135:0.70710677 #
-0.6434668621980949 1132:0.70710677 2631:0.70710677 #
-0.47717616588451639 488:1 #
-1.0000000245699991 608:0.40824831 1031:0.40824831 1135:0.40824831 1251:0.40824831 1488:0.40824831 2962:0.40824831 #
-1.0000000245699991 1222:1 #
1.0000000245699991 511:0.44721359 694:0.44721359 1120:0.44721359 1345:0.44721359 2202:0.44721359 #
1.0000000245699991 285:0.70710677 985:0.70710677 #
-1.0000000245699991 490:0.25 511:0.75 1120:0.25 1731:0.5 3356:0.25 #
-0.09358580642911099 385:0.70710677 2978:0.70710677 #
1.0000000245699991 2654:1 #
-0.66274539088406692 2457:1 #
-0.3980464578238202 682:1 #
-1.0000000245699991 2936:1 #
1.0000000245699991 1987:1 #
0.96415867453276516 241:1 #
-1.0000000245699991 349:0.2773501 1120:0.2773501 1121:0.2773501 1279:0.2773501 1321:0.5547002 1989:0.2773501 2812:0.2773501 2892:0.2773501 3029:0.2773501 3277:0.2773501 #
-0.48303672773571321 262:0.25819889 529:0.25819889 622:0.25819889 799:0.25819889 831:0.25819889 1120:0.25819889 1551:0.25819889 1657:0.25819889 2194:0.51639777 2587:0.25819889 3162:0.25819889 3498:0.25819889 #
1.0000000245699991 1796:1 #
-0.18908931891713654 2420:1 #
-1.0000000245699991 882:1 #
1.0000000245699991 81:0.33333334 100:0.33333334 171:0.33333334 330:0.33333334 855:0.33333334 1085:0.33333334 1222:0.33333334 2329:0.33333334 3050:0.33333334 #
1.0000000245699991 405:0.40824831 875:0.40824831 1120:0.40824831 1396:0.40824831 1456:0.40824831 3277:0.40824831 #
-1.0000000245699991 875:1 #
1.0000000245699991 124:0.89442718 753:0.44721359 #
1.0000000245699991 1136:0.70710677 1611:0.70710677 #
1.0000000245699991 77:0.57735026 185:0.57735026 1360:0.57735026 #
-0.82328756850744234 989:0.57735026 1817:0.57735026 3407:0.57735026 #
-0.11180111645993944 901:0.70710677 2096:0.70710677 #
-0.84284007427007701 166:0.44721359 853:0.44721359 934:0.44721359 1933:0.44721359 2367:0.44721359 #
-0.021768877598416947 2102:1 #
-0.57711644124805939 1397:0.5 2122:0.5 2390:0.5 3438:0.5 #
1.0000000245699991 658:0.70710677 1005:0.70710677 #
1.0000000245699991 3289:1 #
1.0000000245699991 191:0.57735026 192:0.57735026 1125:0.57735026 #
-0.57435542691678931 349:0.40824831 1125:0.40824831 1318:0.81649661 #
-1.0000000245699991 1063:0.70710677 1456:0.35355338 1476:0.35355338 3039:0.35355338 3080:0.35355338 #
-1.0000000245699991 349:0.40824831 1041:0.40824831 1304:0.40824831 1456:0.40824831 1458:0.40824831 1657:0.40824831 #
-1.0000000245699991 13:0.40824831 405:0.40824831 888:0.40824831 1896:0.40824831 2301:0.40824831 2638:0.40824831 #
1.0000000245699991 960:0.35355338 1639:0.70710677 2111:0.35355338 2113:0.35355338 2390:0.35355338 #
1.0000000245699991 628:0.57735026 1249:0.57735026 2631:0.57735026 #
-1.0000000245699991 778:0.35355338 1094:0.35355338 1165:0.70710677 1639:0.35355338 2846:0.35355338 #
-0.69158237192291006 44:0.22941573 290:0.22941573 661:0.22941573 992:0.22941573 1381:0.22941573 1452:0.22941573 1500:0.22941573 1639:0.6882472 1956:0.22941573 1961:0.22941573 3272:0.22941573 #
-0.066332948495406052 2631:1 #
-1.0000000245699991 511:0.70710677 579:0.35355338 926:0.35355338 2113:0.35355338 3047:0.35355338 #
-1.0000000245699991 261:0.40824831 511:0.40824831 1323:0.40824831 1606:0.40824831 2113:0.40824831 2390:0.40824831 #
1.0000000245699991 798:1 #
1.0000000245699991 330:0.40824831 1650:0.40824831 2097:0.40824831 2219:0.40824831 2521:0.40824831 3080:0.40824831 #
1.0000000245699991 71:0.5 149:0.5 168:0.5 3126:0.5 #
-0.80058632903880156 1656:0.44721359 2248:0.44721359 2340:0.44721359 2386:0.44721359 2766:0.44721359 #
-1.0000000245699991 755:0.5 849:0.5 993:0.5 3080:0.5 #
-0.38925774023198356 2103:0.5 2111:0.5 2543:0.5 2942:0.5 #
-0.73105674433681334 1282:0.57735026 2949:0.57735026 3129:0.57735026 #
-1.0000000245699991 1819:0.5 1987:0.5 2599:0.5 3434:0.5 #
1.0000000245699991 720:0.57735026 1767:0.57735026 1892:0.57735026 #
-0.18845569932042872 318:1 #
-1.0000000245699991 602:0.30151135 801:0.30151135 945:0.30151135 1811:0.30151135 1967:0.30151135 2814:0.30151135 3039:0.30151135 3118:0.30151135 3205:0.30151135 3404:0.30151135 3423:0.30151135 #
-0.96421861163016642 405:0.37796447 886:0.37796447 993:0.37796447 1628:0.37796447 2132:0.37796447 2418:0.37796447 3039:0.37796447 #
-0.32491280863662486 855:0.44721359 1382:0.44721359 2965:0.44721359 3050:0.44721359 3156:0.44721359 #
1.0000000245699991 1379:0.5 1985:0.5 2919:0.5 2962:0.5 #
-0.41424074047081472 1268:1 #
1.0000000245699991 2120:0.66666669 3156:0.33333334 3324:0.66666669 #
-0.97653023704860775 2007:1 #
-0.25712846289339097 220:1 #
1.0000000245699991 269:0.70710677 270:0.70710677 #
0.9942909009412968 1162:0.70710677 3252:0.70710677 #
-0.98981235280404511 269:0.70710677 929:0.70710677 #
-0.33526449152799526 758:0.40824831 1473:0.40824831 2133:0.40824831 2331:0.40824831 2912:0.40824831 3189:0.40824831 #
-0.0875393887966055 2893:1 #
-0.17170374271116706 553:1 #
-0.25873153572639612 519:0.70710677 1108:0.70710677 #
1.0000000245699991 3346:1 #
1.0000000245699991 92:0.81649661 2352:0.40824831 3344:0.40824831 #
-1.0000000245699991 92:0.44721359 2996:0.44721359 3188:0.44721359 3190:0.44721359 3330:0.44721359 #
-0.93876209915014752 92:0.44721359 568:0.44721359 2232:0.44721359 2565:0.44721359 2967:0.44721359 #
-1.0000000245699991 1279:0.57735026 3039:0.57735026 3346:0.57735026 #
-1.0000000245699991 92:0.57735026 350:0.57735026 1476:0.57735026 #
1.0000000245699991 1164:0.5 1889:0.5 2721:0.5 2723:0.5 #
0.83724848107671856 1161:0.40824831 1443:0.40824831 1731:0.40824831 1845:0.40824831 2525:0.40824831 2644:0.40824831 #
-0.10045940338445664 11:0.70710677 1443:0.35355338 1949:0.35355338 2343:0.35355338 3344:0.35355338 #
-0.17095832452468029 1553:1 #
1.0000000245699991 654:0.57735026 1891:0.57735026 2657:0.57735026 #
-0.86277748599924653 529:1 #
1.0000000245699991 13:0.5 868:0.5 2428:0.5 3081:0.5 #
1.0000000245699991 423:0.5 615:0.5 1074:0.5 1134:0.5 #
1.0000000245699991 499:0.57735026 2069:0.57735026 2918:0.57735026 #
1.0000000245699991 926:0.57735026 2012:0.57735026 3142:0.57735026 #
1.0000000245699991 261:0.31622776 349:0.31622776 769:0.31622776 1200:0.31622776 1649:0.31622776 3229:0.63245553 3246:0.31622776 #
-1.0000000245699991 499:1 #
1.0000000245699991 756:0.44721359 3027:0.89442718 #
-0.3840106362634208 3375:1 #
-1.0000000245699991 339:1 #
1.0000000245699991 3401:1 #
-0.69763032804340175 267:0.37796447 1260:0.37796447 1544:0.37796447 1632:0.37796447 1892:0.37796447 2443:0.37796447 3163:0.37796447 #
-0.74401172766142121 854:1 #
-0.07240526309703206 987:0.57735026 1029:0.57735026 2974:0.57735026 #
1.0000000245699991 80:0.33333334 2472:0.33333334 2474:0.33333334 2492:0.33333334 2837:0.33333334 3267:0.66666669 #
-1.0000000245699991 1551:1 #
-0.6823589296827165 354:0.70710677 1531:0.70710677 #
-0.084759338436681819 699:1 #
-0.20004103750889191 497:1 #
-1.0000000245699991 2642:0.81649661 2918:0.40824831 3311:0.40824831 #
-1.0000000245699991 2812:1 #
-0.1882435218325873 1724:1 #
-0.18812953468374527 2869:1 #
-0.1882435218325873 286:1 #
-0.18805942103188589 1024:1 #
-0.11309006331816007 2559:1 #
-0.1023013950363986 3029:0.70710677 3388:0.70710677 #
-0.18864033073332509 425:1 #
-0.022932065690577041 532:1 #
-0.21808346353528307 3229:1 #
-0.14369229063020361 481:1 #
-0.098968328497181846 2872:1 #
-0.26373066856083405 2579:0.70710677 3065:0.70710677 #
-0.0088616087862748421 329:0.57735026 1017:0.57735026 2773:0.57735026 #
-0.51800654808731783 58:0.35355338 349:0.35355338 739:0.35355338 1125:0.35355338 1209:0.35355338 1228:0.35355338 3136:0.35355338 3298:0.35355338 #
-1.0000000245699991 2267:0.89442718 3352:0.44721359 #
-0.189438481108824 1885:1 #
-1.0000000245699991 841:1 #
-1.0000000245699991 632:0.57735026 971:0.57735026 1125:0.57735026 #
-0.072913755420665069 1360:0.70710677 3047:0.70710677 #
-0.1893801718460999 1816:1 #
-0.18829849108158192 1343:1 #
-0.11128397271200619 1862:1 #
-1.0000000245699991 231:0.70710677 428:0.70710677 #
-0.52243419793231682 1057:0.40824831 1263:0.40824831 1327:0.40824831 1756:0.40824831 2114:0.40824831 3021:0.40824831 #
-0.77625721783547386 562:0.37796447 1125:0.37796447 2562:0.37796447 2598:0.75592893 #
-0.18874614944450929 2510:1 #
-0.18870360519211549 1350:1 #
-0.058406102477953747 2134:1 #
-1.0000000245699991 228:0.37796447 1228:0.37796447 1632:0.37796447 1748:0.37796447 1759:0.37796447 3246:0.37796447 3434:0.37796447 #
-0.18879822616486863 1403:1 #
-0.18866680332341634 2146:1 #
1.0000000245699991 1121:0.40824831 1653:0.40824831 1985:0.40824831 2353:0.40824831 2502:0.40824831 2939:0.40824831 #
-0.59679118200685133 2353:1 #
-0.59684803896640226 2939:1 #
-1.0000000245699991 1115:1 #
0.99493373293652443 1162:0.70710677 3110:0.70710677 #
-0.41752242908051962 1166:1 #
-0.11231406741537286 1513:1 #
-0.14416227564884854 548:1 #
-0.096236894405931861 3229:1 #
-0.18896962248454507 594:1 #
-0.15245158805453751 2343:1 #
-0.18951538772267085 407:1 #
-0.074170161335190846 445:0.70710677 712:0.70710677 #
-0.18951538772267085 3207:1 #
0.61883032624452083 655:0.57735026 1120:0.57735026 2206:0.57735026 #
-1.0000000245699991 769:0.30151135 1120:0.30151135 1656:0.30151135 1795:0.60302269 1821:0.30151135 1935:0.30151135 1956:0.30151135 3136:0.30151135 #
-1.0000000245699991 349:0.25819889 926:0.25819889 1490:0.51639777 1551:0.51639777 2154:0.25819889 2206:0.25819889 2328:0.25819889 2891:0.25819889 2892:0.25819889 #
-0.18939552337412524 2701:1 #
-0.18865689309928535 3115:1 #
-0.061110545017741311 357:0.70710677 3113:0.70710677 #
1.0000000245699991 639:0.70710677 1456:0.70710677 #
1.0000000245699991 3153:0.70710677 3227:0.70710677 #
1.0000000245699991 609:0.57735026 993:0.57735026 2747:0.57735026 #
-1.0000000245699991 836:1 #
1.0000000245699991 760:1 #
1.0000000245699991 926:0.5 933:0.5 1828:0.5 2608:0.5 #
-1.0000000245699991 756:0.44721359 868:0.44721359 2735:0.44721359 2967:0.44721359 3162:0.44721359 #
-1.0000000245699991 726:0.57735026 2412:0.57735026 2691:0.57735026 #
-1.0000000245699991 3242:1 #
1.0000000245699991 2653:0.70710677 2686:0.70710677 #
-0.92265450739150845 947:1 #
-1.0000000245699991 55:0.37796447 709:0.37796447 993:0.37796447 1610:0.37796447 1688:0.37796447 2824:0.37796447 2920:0.37796447 #
-0.08632118319805937 487:1 #
-0.10961689391295457 947:0.70710677 1504:0.70710677 #
1.0000000245699991 261:0.75592893 917:0.37796447 1114:0.37796447 3242:0.37796447 #
1.0000000245699991 203:1 #
-0.59606674017892791 768:0.57735026 1662:0.57735026 2326:0.57735026 #
-1.0000000245699991 2048:1 #
1.0000000245699991 875:0.70710677 1913:0.70710677 #
0.83589480573877595 1059:1 #
1.0000000245699991 3389:1 #
1.0000000245699991 2959:1 #
-1.0000000245699991 244:0.33333334 1913:0.33333334 2057:0.66666669 2085:0.33333334 3039:0.33333334 3080:0.33333334 #
-0.18875198712430363 2504:1 #
-0.18817883485606923 1100:1 #
-0.18817883485606923 2528:1 #
-0.059544555288318368 1815:1 #
1.0000000245699991 802:0.5 945:0.5 1577:0.5 3375:0.5 #
1.0000000245699991 1079:1 #
1.0000000245699991 1892:0.70710677 1979:0.70710677 #
0.96984270475016576 1892:0.70710677 3468:0.70710677 #
1.0000000245699991 2539:1 #
-0.015833880261935412 15:0.70710677 499:0.70710677 #
-0.092222658342048874 730:0.70710677 3149:0.70710677 #
-0.18914884361794704 1480:1 #
-1.0000000245699991 573:1 #
-0.87394159352658618 1979:1 #
-0.029948012609767632 1979:0.70710677 2260:0.70710677 #
-0.18942647524570411 1541:1 #
-0.18816707453206671 1296:1 #
-0.1887572485864063 1146:1 #
1.0000000245699991 2041:1 #
1.0000000245699991 757:1 #
1.0000000245699991 1633:1 #
-0.18858424844292077 2635:1 #
-0.18880736925295349 221:1 #
-0.099203385091412799 6:1 #
-0.18865967471382472 1808:1 #
-0.11850414654482744 2127:1 #
1.0000000245699991 1161:0.44721359 1851:0.44721359 1990:0.44721359 2241:0.44721359 2288:0.44721359 #
-0.46583510014800811 2878:1 #
-0.090461936722569969 2872:1 #
1.0000000245699991 234:0.70710677 261:0.70710677 #
1.0000000245699991 12:0.2236068 44:0.2236068 166:0.67082042 1022:0.2236068 1551:0.2236068 1601:0.2236068 1639:0.2236068 1756:0.2236068 2234:0.2236068 2657:0.2236068 2927:0.2236068 3083:0.2236068 #
-0.12249355431281539 2234:1 #
-0.053579859074206128 1305:0.70710677 2430:0.70710677 #
-0.027334539533461433 1115:1 #
-0.33645990889039834 262:0.28867513 935:0.57735026 1345:0.28867513 1470:0.57735026 2355:0.28867513 3039:0.28867513 #
-0.17231094603572025 1065:0.57735026 2270:0.57735026 3083:0.57735026 #
1.0000000245699991 926:0.57735026 1581:0.57735026 3407:0.57735026 #
1.0000000245699991 1137:0.70710677 1180:0.70710677 #
1.0000000245699991 1135:1 #
-0.10322950034446698 2822:1 #
-0.99860175790262673 79:0.35355338 85:0.35355338 97:0.35355338 98:0.35355338 99:0.35355338 131:0.35355338 182:0.35355338 1639:0.35355338 #
-0.18927478261619102 1315:1 #
0.68196872664456298 88:0.5 1151:0.5 1272:0.5 2794:0.5 #
1.0000000245699991 350:0.37796447 1022:0.37796447 1354:0.37796447 1643:0.37796447 1779:0.37796447 2025:0.37796447 3032:0.37796447 #
1.0000000245699991 231:0.70710677 509:0.70710677 #
-0.3362133537625186 3032:1 #
-0.5666493457720192 1354:1 #
-0.18805007586882716 1119:1 #
1.0000000245699991 452:1 #
0.9577942125128931 482:0.70710677 2186:0.70710677 #
1.0000000245699991 985:1 #
-1.0000000245699991 2814:1 #
-0.14978752279931845 349:0.40824831 992:0.40824831 1985:0.40824831 2314:0.40824831 2955:0.40824831 3029:0.40824831 #
-0.18553225837373749 3064:1 #
-0.10498672566920447 1256:0.70710677 3064:0.70710677 #
-0.11155963920208914 1104:0.70710677 1330:0.70710677 #
0.92556908965478568 507:1 #
-0.1889873000328175 2455:1 #
-0.057669052304001767 1432:1 #
-0.1123939606155735 1701:1 #
-0.079272413569082545 3453:1 #
-0.18954738975496555 1681:1 #
1.0000000245699991 945:0.44721359 1122:0.44721359 2668:0.44721359 2812:0.44721359 3064:0.44721359 #
1.0000000245699991 993:1 #
-0.18799063009348038 2984:1 #
-0.18799063009348038 1617:1 #
-0.1886163130521703 2125:1 #
-0.1886163130521703 3480:1 #
0.68175066366181847 94:0.33333334 179:0.66666669 764:0.33333334 1151:0.33333334 2229:0.33333334 3080:0.33333334 #
-0.17676373028973202 323:1 #
-0.18881274720251884 1886:1 #
-0.095626618032860281 1227:0.44721359 1815:0.89442718 #
1.0000000245699991 2654:1 #
0.53077753477258682 213:0.37796447 214:0.37796447 926:0.37796447 995:0.37796447 1222:0.37796447 1249:0.37796447 3211:0.37796447 #
-0.18832627029681948 3372:1 #
-0.18847288336939927 1214:1 #
-0.18808748718829793 2138:1 #
-0.188720748704722 2444:1 #
-0.18923306969622133 40:1 #
-0.18956430355240039 1929:1 #
-0.18956430355240039 355:1 #
-0.18956430355240039 2161:1 #
-0.18863169392585211 3353:1 #
-0.18857317876072077 1073:1 #
-0.1017863026544298 971:0.57735026 1931:0.57735026 3198:0.57735026 #
-0.18872815542321519 495:1 #
-0.11179877187828509 2533:0.70710677 2731:0.70710677 #
-0.11152538213495311 1056:1 #
0.078631117605703918 506:0.40824831 1777:0.40824831 2631:0.40824831 2657:0.40824831 2716:0.40824831 3421:0.40824831 #
0.92833436163127481 576:0.44721359 1022:0.44721359 1040:0.44721359 2936:0.44721359 3278:0.44721359 #
0.6265450867623289 1133:0.40824831 1151:0.40824831 1817:0.40824831 2029:0.40824831 3499:0.40824831 3500:0.40824831 #
1.0000000245699991 330:0.40824831 1871:0.40824831 3102:0.81649661 #
-0.18928193983247521 2688:1 #
-0.11167537200696796 1223:0.70710677 1407:0.70710677 #
-0.12648789291012247 1188:0.70710677 2800:0.70710677 #
-0.026448888664475922 485:1 #
-0.18908931891713654 3306:1 #
-0.18825045635423632 3392:1 #
-0.0545461771189516 627:1 #
0.84487460730916419 89:0.5 1120:0.5 1551:0.5 2344:0.5 #
-0.69308206535378891 566:0.5 1360:0.5 1632:0.5 1915:0.5 #
-1.0000000245699991 262:0.40824831 287:0.40824831 1892:0.40824831 2269:0.40824831 3350:0.40824831 3352:0.40824831 #
-1.0000000245699991 730:0.44721359 1379:0.44721359 1680:0.44721359 1990:0.44721359 2742:0.44721359 #
-1.0000000245699991 267:0.15075567 349:0.15075567 378:0.15075567 397:0.15075567 464:0.15075567 477:0.15075567 787:0.15075567 993:0.45226702 1057:0.45226702 1124:0.15075567 1601:0.15075567 1606:0.15075567 1670:0.15075567 1952:0.15075567 1956:0.15075567 2005:0.15075567 2153:0.15075567 2206:0.15075567 2303:0.15075567 2304:0.15075567 2868:0.15075567 3038:0.15075567 3142:0.15075567 3161:0.30151135 3229:0.15075567 #
-1.0000000245699991 639:0.57735026 969:0.57735026 2588:0.57735026 #
1.0000000245699991 875:0.57735026 945:0.57735026 1303:0.57735026 #
-1.0000000245699991 693:0.28867513 774:0.28867513 945:0.28867513 954:0.28867513 1818:0.28867513 2089:0.28867513 2113:0.28867513 2491:0.28867513 2868:0.57735026 #
-1.0000000245699991 985:0.57735026 1756:0.57735026 1954:0.57735026 #
-1.0000000245699991 798:0.5 1582:0.5 3093:0.5 3434:0.5 #
-1.0000000245699991 688:0.44721359 1162:0.44721359 1279:0.44721359 2929:0.44721359 3231:0.44721359 #
0.87152382200848977 92:1 #
0.57183446606969612 3341:1 #
-0.6044897735520931 636:0.44721359 1135:0.44721359 1609:0.44721359 2973:0.44721359 3391:0.44721359 #
-1.0000000245699991 485:0.5 877:0.5 2086:0.5 3050:0.5 #
0.81046231669143109 1563:0.70710677 2906:0.70710677 #
0.81170148434841871 3106:1 #
-0.068424051474602829 215:0.44721359 216:0.44721359 1718:0.44721359 2539:0.44721359 2812:0.44721359 #
-0.84341575421560078 580:1 #
-0.91914948305594091 5:0.81649661 568:0.40824831 993:0.40824831 #
-1.0000000245699991 397:0.40824831 579:0.40824831 608:0.40824831 864:0.40824831 985:0.40824831 1817:0.40824831 #
0.6232191040759919 228:0.57735026 826:0.57735026 1120:0.57735026 #
1.0000000245699991 1120:0.57735026 1632:0.57735026 3242:0.57735026 #
-1.0000000245699991 1581:1 #
-1.0000000245699991 178:0.30151135 262:0.30151135 273:0.30151135 274:0.30151135 350:0.30151135 628:0.30151135 929:0.30151135 945:0.30151135 1551:0.30151135 2113:0.30151135 2453:0.30151135 #
-0.18877729242819485 1461:1 #
-0.064705707078895447 68:0.70710677 2182:0.70710677 #
-1.0000000245699991 511:0.44721359 561:0.44721359 1456:0.44721359 1551:0.44721359 1821:0.44721359 #
-0.70181671990782646 261:0.28867513 773:0.28867513 1369:0.28867513 1632:0.28867513 1941:0.28867513 1953:0.28867513 2281:0.28867513 2640:0.28867513 2642:0.28867513 2849:0.28867513 3118:0.28867513 3123:0.28867513 #
-0.13504387938057325 1439:0.70710677 2216:0.70710677 #
-0.11396524711374523 2286:1 #
-0.23143890340598278 778:0.35355338 1094:0.35355338 1165:0.70710677 1639:0.35355338 2846:0.35355338 #
-0.97953225006824385 1045:0.40824831 1943:0.40824831 2113:0.40824831 2431:0.40824831 2503:0.40824831 3225:0.40824831 #
-0.043759611513012997 2625:1 #
-0.78149424280875568 56:0.83205032 211:0.2773501 452:0.2773501 3050:0.2773501 3328:0.2773501 #
-0.18949610477993239 1086:1 #
-0.18881016288854124 1148:1 #
-0.18881016288854124 1775:1 #
-0.15998656289440683 2489:1 #
-0.11156246670245654 2875:0.70710677 2877:0.70710677 #
-1.0000000245699991 517:1 #
1.0000000245699991 639:0.81649661 1022:0.40824831 3336:0.40824831 #
0.8668202091891748 178:0.21320072 180:0.21320072 196:0.42640144 262:0.42640144 306:0.21320072 349:0.21320072 553:0.21320072 842:0.21320072 1057:0.42640144 1267:0.21320072 1379:0.21320072 1531:0.21320072 3154:0.21320072 #
-1.0000000245699991 875:1 #
-1.0000000245699991 709:0.2773501 1013:0.2773501 1120:0.2773501 1361:0.2773501 1925:0.2773501 2802:0.2773501 3047:0.2773501 3094:0.5547002 3136:0.2773501 3141:0.2773501 #
1.0000000245699991 499:0.60302269 1057:0.30151135 1379:0.60302269 2451:0.30151135 3360:0.30151135 #
-0.49068854199534118 2451:1 #
-1.0000000245699991 46:0.28867513 205:0.28867513 261:0.14433756 267:0.28867513 405:0.14433756 471:0.14433756 608:0.14433756 926:0.14433756 1120:0.28867513 1458:0.14433756 1493:0.14433756 1628:0.43301269 1756:0.14433756 1840:0.14433756 1910:0.28867513 1952:0.14433756 2044:0.14433756 2234:0.14433756 3229:0.28867513 3242:0.14433756 3264:0.14433756 3462:0.14433756 #
-0.15387534534187886 579:1 #
-0.3867703907934591 836:1 #
0.92740425895771872 1022:0.44721359 1115:0.44721359 1765:0.44721359 2310:0.44721359 2841:0.44721359 #
-0.18929981108735094 1110:1 #
-0.11225088277059678 1946:0.70710677 3052:0.70710677 #
-0.18857882558677608 1714:1 #
-0.18883327608112943 572:1 #
-0.18888726541977818 525:1 #
1.0000000245699991 261:0.70710677 2287:0.70710677 #
0.68172716275442702 241:0.5 1930:0.5 2019:0.5 3107:0.5 #
-0.18897317379172851 3035:1 #
-0.18875198712430363 3240:1 #
-0.18838587102876225 3422:1 #
-0.18813461647102447 492:1 #
-0.11178704001670325 1410:0.70710677 2996:0.70710677 #
-0.18941484509153628 1503:1 #
-0.12600191042654157 1920:0.70710677 2778:0.70710677 #
1.0000000245699991 985:1 #
-0.1889366059752271 2215:1 #
-0.18876285569307805 2758:1 #
-0.1883376528392513 388:1 #
-0.18957996465478133 227:1 #
-0.18841583082193325 2118:1 #
-0.11180748275161514 1864:0.70710677 3321:0.70710677 #
-0.1892549189307704 2305:1 #
-0.1886682831377634 2368:1 #
-0.18867454437517928 2013:1 #
-1.0000000245699991 499:1 #
0.79298607132432308 517:0.37796447 756:0.37796447 1639:0.37796447 1890:0.37796447 2127:0.37796447 3146:0.37796447 3423:0.37796447 #
-0.61063531113376113 933:0.89442718 2390:0.44721359 #
-1.0000000245699991 1637:0.19611613 1650:0.19611613 1738:0.39223227 2034:0.39223227 2195:0.19611613 2229:0.39223227 2598:0.19611613 2650:0.19611613 2777:0.39223227 2903:0.19611613 3050:0.19611613 3123:0.19611613 3328:0.19611613 3341:0.19611613 #
-0.1876842719729086 1303:1 #
-0.15209873603885937 3242:1 #
-1.0000000245699991 13:0.70710677 1496:0.35355338 1628:0.35355338 1670:0.35355338 3434:0.35355338 #
-0.11184146101097325 2907:1 #
-0.054741328231884268 1570:1 #
-0.18871614163780359 438:1 #
-0.1883376528392513 2793:1 #
-0.14034272187214114 1565:0.70710677 2667:0.70710677 #
-0.1883376528392513 1878:1 #
1.0000000245699991 13:1 #
0.62543601520462377 279:0.37796447 680:0.37796447 1161:0.37796447 1394:0.37796447 2485:0.37796447 3006:0.37796447 3050:0.37796447 #
-0.18868451310834877 3482:1 #
-0.18868451310834877 3177:1 #
-0.18882682522773864 2409:1 #
-0.12106140388275533 3294:1 #
-0.17174505857733335 2100:1 #
-0.023078669719272527 2082:1 #
-1.0000000245699991 2764:1 #
-0.3949996451195984 3277:1 #
-1.0000000245699991 405:0.44721359 906:0.44721359 1382:0.44721359 1601:0.44721359 2742:0.44721359 #
-0.18864278484277763 1678:1 #
-0.18864279124868583 2058:0.70710677 2853:0.70710677 #
-0.81279062159189408 349:0.33333334 350:0.66666669 926:0.33333334 1956:0.33333334 2453:0.33333334 3050:0.33333334 #
-0.18860117973097656 2981:1 #
-0.18949610477993239 1549:1 #
-1.0000000245699991 477:1 #
-0.18880512488223933 247:1 #
-0.1886626569451666 1004:1 #
-0.36958181049520678 2606:1 #
-0.18550447369962619 328:1 #
-0.11131881840950114 1679:0.70710677 2945:0.70710677 #
-0.042601471499114515 1820:0.70710677 3297:0.70710677 #
-0.18899749916030928 1174:1 #
