SVM-light Version V6.02
0 # kernel type
3 # kernel parameter -d 
1 # kernel parameter -g 
1 # kernel parameter -s 
1 # kernel parameter -r 
empty# kernel parameter -u 
4500 # highest feature index 
6307 # number of training documents 
1842 # number of support vectors plus 1 
-0.19643318 # threshold b, each following line is a SV (starting with alpha*y)
-1.684772144701813356704178659129 85:0.57735026 1341:0.57735026 1379:0.57735026 #
-1.1966512219854357201853645165102 1772:0.70710677 1958:0.70710677 #
-1.2488696143142739014564313038136 301:0.57735026 351:0.57735026 3386:0.57735026 #
10 2:1 #
-1.1966511810442466146042761465651 204:1 #
0.53163220484959405887082084518624 1374:0.70710677 2066:0.70710677 #
6.5762463741946692863393764127977 293:1 #
-0.15240251496277901210874006210361 2:0.17677669 3:0.17677669 5:0.53033006 12:0.17677669 15:0.17677669 24:0.17677669 36:0.17677669 177:0.17677669 279:0.17677669 291:0.17677669 325:0.17677669 1186:0.17677669 1250:0.17677669 2076:0.53033006 3377:0.17677669 3394:0.17677669 #
0.80314354084381811560433561680838 3563:1 #
-0.88247423120018608777570534584811 2:0.39223227 1063:0.19611613 1708:0.39223227 1754:0.19611613 1909:0.19611613 2022:0.58834839 2032:0.19611613 2452:0.19611613 2966:0.19611613 3000:0.19611613 3020:0.19611613 3294:0.19611613 #
-4.1092640683943617574414020054974 3:0.5 293:0.5 1637:0.5 1651:0.5 #
-1.6190186943723683388185463627451 265:0.5 293:0.5 403:0.5 1946:0.5 #
-1.1969245186827379701099971498479 1284:0.70710677 1953:0.70710677 #
-0.74869659001791999397568133645109 76:0.40824831 293:0.40824831 319:0.40824831 1649:0.40824831 2045:0.40824831 2600:0.40824831 #
10 25:0.70710677 53:0.70710677 #
10 1:1 #
1.8063911768934453050405863905326 25:0.57735026 959:0.57735026 3915:0.57735026 #
3.0948362091807219975692078151042 25:0.57735026 156:0.57735026 1493:0.57735026 #
-1.5560628005724803646359077902162 8:0.35355338 55:0.35355338 169:0.35355338 296:0.35355338 384:0.35355338 1162:0.35355338 3312:0.35355338 3390:0.35355338 #
1.1851856025312739184585097973468 48:0.44721359 1451:0.44721359 3385:0.44721359 3537:0.44721359 3662:0.44721359 #
-0.39877772526918187079303379505291 5:0.23570226 10:0.23570226 31:0.23570226 41:0.23570226 108:0.23570226 113:0.23570226 145:0.23570226 190:0.23570226 339:0.23570226 385:0.23570226 410:0.23570226 639:0.23570226 741:0.23570226 1380:0.23570226 1796:0.23570226 2344:0.23570226 3259:0.23570226 3326:0.23570226 #
-0.70219669419239494345674756914377 2:0.70710677 2595:0.70710677 #
10 3:1 #
10 2:0.57735026 3:0.57735026 2049:0.57735026 #
10 2:0.57735026 3:0.57735026 1382:0.57735026 #
10 2:0.57735026 3:0.57735026 1630:0.57735026 #
-0.10508591209435172442177020002418 230:0.57735026 1260:0.57735026 1956:0.57735026 #
-6.4451362814463664108188822865486 2:0.57735026 3:0.57735026 2049:0.57735026 #
10 1:0.57735026 6:0.57735026 25:0.57735026 #
10 1:0.70710677 186:0.70710677 #
10 1:0.70710677 442:0.70710677 #
-0.44353629857103643585602981147531 55:0.35355338 96:0.35355338 98:0.35355338 391:0.35355338 1062:0.35355338 1867:0.35355338 2141:0.35355338 2292:0.35355338 #
-10 1:0.5 171:0.5 186:0.5 251:0.5 #
10 2:1 #
6.5877140288271682777576643275097 2:0.57735026 3:0.57735026 4159:0.57735026 #
10 2:1 #
1.5495624629687712037195979064563 6:0.40824831 68:0.40824831 88:0.40824831 547:0.40824831 1448:0.40824831 1602:0.40824831 #
10 1:0.70710677 91:0.70710677 #
-0.78438921763289659594420299981721 13:0.40824831 27:0.40824831 49:0.40824831 156:0.40824831 311:0.40824831 813:0.40824831 #
-2.2067700104453726872577590256697 25:1 #
-0.20902625448123512974518689588876 7:0.33333334 235:0.66666669 459:0.33333334 494:0.33333334 2482:0.33333334 2625:0.33333334 #
10 1:0.31622776 11:0.31622776 25:0.31622776 32:0.63245553 46:0.31622776 292:0.31622776 354:0.31622776 #
-10 6:1 #
-2.2640098792497873603224434191361 6:0.28867513 46:0.28867513 53:0.57735026 252:0.28867513 346:0.28867513 624:0.28867513 1251:0.28867513 1376:0.28867513 2016:0.28867513 #
-1.1955275483680898318539220781531 1:0.70710677 171:0.70710677 #
-5.2093569553771761349025837262161 2:0.57735026 3:0.57735026 1630:0.57735026 #
-0.37229090522732466439492782228626 2:0.57735026 3:0.57735026 2049:0.57735026 #
3.2647682219164950723211404692847 6:0.70710677 965:0.70710677 #
8.8656577177919633214742134441622 6:0.63245553 156:0.63245553 1132:0.31622776 3724:0.31622776 #
-0.46146851699380497802138734186883 2:0.33333334 409:0.66666669 2152:0.66666669 #
10 6:0.44721359 8:0.44721359 53:0.44721359 120:0.44721359 741:0.44721359 #
-9.5891666602412808373401276185177 25:1 #
1.5501240716792512586152952280827 252:0.40824831 1419:0.40824831 1468:0.40824831 1578:0.40824831 3665:0.40824831 3975:0.40824831 #
10 2:0.5 3:0.5 48:0.5 4084:0.5 #
-0.96528051495069622234268535976298 2:0.5 155:0.5 638:0.5 2949:0.5 #
-8.6515197145075735107866421458311 43:1 #
0.99784149792565468573002362973057 6:0.28867513 25:0.28867513 104:0.28867513 395:0.28867513 620:0.28867513 2016:0.28867513 3374:0.28867513 3388:0.28867513 3459:0.28867513 3461:0.28867513 3462:0.28867513 4414:0.28867513 #
5.2398635512682911752335712662898 1:0.57735026 1641:0.57735026 3736:0.57735026 #
-10 1:0.5 11:0.5 63:0.5 113:0.5 #
-4.3534498601234981052243711019401 2:0.40824831 53:0.81649661 1170:0.40824831 #
-2.0694482149071653509508905699477 3:0.57735026 1255:0.57735026 2049:0.57735026 #
6.0351594319904355856465372198727 1374:1 #
-2.1677502752991553158778970100684 2:0.57735026 289:0.57735026 351:0.57735026 #
-1.1540273025386766914124336835812 1306:0.70710677 1956:0.70710677 #
10 1:0.44721359 2:0.44721359 6:0.44721359 142:0.44721359 215:0.44721359 #
10 1:0.83205032 2:0.2773501 3:0.2773501 71:0.2773501 81:0.2773501 #
10 1:0.70710677 2:0.70710677 #
-1.1964887663791603511498351508635 1939:1 #
2.8467302715308293592499921942363 53:0.44721359 363:0.44721359 945:0.44721359 1376:0.44721359 4478:0.44721359 #
10 26:0.81649661 53:0.40824831 282:0.40824831 #
1.75390824084842988916932426946 6:0.35355338 53:0.35355338 153:0.35355338 449:0.35355338 741:0.35355338 1456:0.35355338 1599:0.35355338 4206:0.35355338 #
10 104:1 #
-8.2687647696198691704694283544086 26:1 #
-2.7329446970136546113394615531433 2:0.5 347:0.5 962:0.5 2048:0.5 #
-1.2367694945239802173375665006461 2:0.40824831 11:0.40824831 46:0.40824831 47:0.40824831 200:0.40824831 3216:0.40824831 #
1.5076324782731429507975917658769 144:0.57735026 558:0.57735026 3451:0.57735026 #
-1.1730213337861223887870210091933 27:0.57735026 49:0.57735026 1382:0.57735026 #
10 6:0.40824831 46:0.40824831 730:0.40824831 871:0.40824831 1640:0.40824831 2039:0.40824831 #
0.30803355603617388336346039068303 236:0.70710677 1649:0.70710677 #
-5.2191125695598277189901637029834 18:0.33333334 53:0.33333334 87:0.33333334 1132:0.66666669 1681:0.33333334 1710:0.33333334 #
-1.8316022349535010516063948671217 26:0.81649661 53:0.40824831 282:0.40824831 #
-2.1695267354373743984297107090242 6:0.40824831 46:0.40824831 730:0.40824831 871:0.40824831 1640:0.40824831 2039:0.40824831 #
-1.1089706616772516678537385814707 2:0.33333334 46:0.33333334 200:0.33333334 205:0.66666669 1174:0.33333334 2016:0.33333334 #
7.3481317435809838656268766499124 6:0.28867513 53:0.28867513 87:0.28867513 98:0.28867513 614:0.28867513 1132:0.57735026 1641:0.28867513 1645:0.28867513 1646:0.28867513 #
-10 8:1 #
-7.3664538598468762842230717069469 6:0.21320072 8:0.21320072 31:0.21320072 53:0.42640144 70:0.21320072 120:0.21320072 384:0.21320072 488:0.63960212 741:0.21320072 821:0.21320072 2053:0.21320072 #
-0.85086815899769119297957331582438 1:0.5 2:0.5 293:0.5 1103:0.5 #
-10 1:0.53452247 2:0.80178374 71:0.26726124 #
8.8504396821347768309351522475481 2:0.40824831 8:0.40824831 35:0.40824831 169:0.40824831 530:0.40824831 914:0.40824831 #
8.1513357461674473825041786767542 6:0.44721359 23:0.44721359 87:0.44721359 241:0.44721359 1575:0.44721359 #
-0.40927610517511736620832607513876 6:0.35355338 25:0.35355338 26:0.35355338 46:0.35355338 53:0.35355338 172:0.35355338 245:0.35355338 741:0.35355338 #
-8.2303127189208549197019237908535 6:0.40824831 46:0.40824831 730:0.40824831 871:0.40824831 1640:0.40824831 2039:0.40824831 #
-10 1:0.70710677 91:0.70710677 #
-3.7312190298408993704981639893958 292:1 #
0.81311657339979226399862000107532 8:0.44721359 351:0.44721359 532:0.44721359 880:0.44721359 3836:0.44721359 #
5.9786875056190744714967877371237 7:0.44721359 63:0.44721359 295:0.44721359 925:0.44721359 3907:0.44721359 #
3.2422117201191218427425155823585 6:0.35355338 13:0.35355338 30:0.35355338 75:0.35355338 91:0.35355338 147:0.35355338 2074:0.35355338 3416:0.35355338 #
-10 12:0.5 23:0.5 104:0.5 186:0.5 #
-0.46702811385445958114459585885925 848:0.57735026 1056:0.57735026 1647:0.57735026 #
10 1:0.70710677 2:0.70710677 #
-1.1281867518493389201950094502536 8:0.57735026 1903:0.57735026 2686:0.57735026 #
1.9467868089138982146124590144609 6:0.40824831 119:0.40824831 153:0.40824831 235:0.40824831 430:0.40824831 1400:0.40824831 #
-1.4369545070355731475331140245544 2:0.25 6:0.5 10:0.25 32:0.25 77:0.25 139:0.25 293:0.25 354:0.25 495:0.25 741:0.25 1803:0.25 3212:0.25 3390:0.25 #
-0.17898710527423788985146302366047 2:0.37796447 10:0.37796447 46:0.37796447 156:0.37796447 324:0.37796447 1913:0.37796447 3038:0.37796447 #
-0.71799415895141927013156646353309 184:0.57735026 680:0.57735026 2795:0.57735026 #
1.1309992785420637240179075888591 6:0.30151135 46:0.30151135 77:0.30151135 741:0.30151135 3427:0.30151135 3433:0.30151135 3437:0.30151135 3467:0.30151135 3595:0.30151135 3873:0.30151135 4461:0.30151135 #
-4.2343321602913777113030846521724 169:0.57735026 201:0.57735026 2398:0.57735026 #
1.4883854866309929043666215875419 476:0.70710677 4160:0.70710677 #
-3.0931528325674615409468515281333 15:0.28867513 49:0.28867513 221:0.28867513 223:0.28867513 280:0.28867513 295:0.28867513 396:0.28867513 556:0.28867513 1192:0.28867513 1653:0.28867513 1655:0.28867513 2063:0.28867513 #
10 2:0.40824831 12:0.40824831 20:0.40824831 115:0.40824831 167:0.40824831 280:0.40824831 #
-10 148:1 #
-5.004640701558717985619750834303 20:1 #
-10 2:0.40824831 12:0.40824831 20:0.40824831 115:0.40824831 167:0.40824831 280:0.40824831 #
-1.3689065894673895229516347171739 6:0.66666669 46:0.33333334 159:0.33333334 1122:0.33333334 1835:0.33333334 3361:0.33333334 #
-10 2:0.44721359 46:0.44721359 53:0.44721359 352:0.44721359 741:0.44721359 #
10 1:0.5 2:0.5 20:0.5 2073:0.5 #
10 1:0.57735026 2:0.57735026 126:0.57735026 #
10 2:0.70710677 10:0.70710677 #
10 1:0.57735026 2:0.57735026 17:0.57735026 #
-1.9702004349668889027213936060434 1:0.37796447 3:0.37796447 6:0.37796447 177:0.37796447 223:0.37796447 277:0.37796447 3368:0.37796447 #
-0.11409507504082760931396478554234 1:0.30151135 2:0.30151135 11:0.30151135 177:0.30151135 266:0.30151135 356:0.30151135 366:0.30151135 529:0.30151135 676:0.30151135 1673:0.30151135 3305:0.30151135 #
7.1325956815153315204725004150532 2:0.44721359 46:0.44721359 281:0.44721359 352:0.44721359 436:0.44721359 #
-10 8:0.70710677 120:0.70710677 #
-0.227123627094867414077938860828 11:0.2773501 20:0.2773501 157:0.2773501 210:0.2773501 242:0.2773501 320:0.5547002 355:0.2773501 382:0.2773501 646:0.2773501 3029:0.2773501 #
-2.0434903687530958649176682229154 30:0.37796447 264:0.37796447 333:0.37796447 530:0.37796447 628:0.37796447 731:0.37796447 1054:0.37796447 #
-0.84839359195530839041765602814849 8:0.70710677 10:0.70710677 #
10 1:0.44721359 2:0.89442718 #
-0.82964149936150655140210119498079 309:0.44721359 1138:0.44721359 1179:0.44721359 1240:0.44721359 3035:0.44721359 #
-0.10197600097583336964390809953329 2:0.41702881 6:0.41702881 156:0.20851441 186:0.20851441 209:0.20851441 215:0.20851441 261:0.20851441 389:0.20851441 453:0.20851441 475:0.20851441 495:0.20851441 749:0.20851441 1031:0.20851441 1131:0.20851441 1271:0.20851441 1965:0.20851441 3363:0.20851441 #
-0.98213939282251039308846429776167 1964:1 #
-1.6773850540434560585367762541864 124:0.70710677 1199:0.70710677 #
-2.7761554964772807707618085260037 25:0.57735026 51:0.57735026 104:0.57735026 #
-0.081600245284234318443594702330302 1636:0.70710677 2054:0.70710677 #
-10 1:0.37796447 2:0.75592893 71:0.37796447 182:0.37796447 #
-3.2565830365725805251031488296576 15:0.31622776 31:0.31622776 77:0.31622776 87:0.31622776 157:0.31622776 249:0.31622776 384:0.63245553 #
10 3:0.70710677 166:0.70710677 #
-0.38102797954820033510259236209095 2:0.40824831 155:0.40824831 176:0.40824831 406:0.40824831 817:0.40824831 3312:0.40824831 #
-0.13813289106057113908576639005332 2:0.35355338 3:0.35355338 75:0.35355338 80:0.35355338 209:0.35355338 367:0.35355338 530:0.35355338 2415:0.35355338 #
10 1:0.37796447 2:0.75592893 71:0.37796447 182:0.37796447 #
10 1:0.70710677 2:0.70710677 #
3.0840180300637838328725592873525 68:0.70710677 728:0.70710677 #
10 3:0.70710677 154:0.70710677 #
9.5193562486404292855013409280218 3:0.57735026 483:0.57735026 3362:0.57735026 #
-10 3:0.57735026 483:0.57735026 3362:0.57735026 #
-0.43556560966716684202282294791075 51:0.57735026 809:0.57735026 2290:0.57735026 #
-2.566744949238614736941599403508 1:0.5 2:0.5 91:0.5 3360:0.5 #
-2.3726678400520277989471651380882 1:0.5 342:0.5 1132:0.5 1641:0.5 #
10 3:0.44721359 5:0.44721359 194:0.44721359 879:0.44721359 2074:0.44721359 #
-0.075729772260753072665728780066274 19:0.28867513 31:0.28867513 70:0.28867513 87:0.28867513 158:0.28867513 616:0.28867513 732:0.28867513 1041:0.28867513 1134:0.28867513 1190:0.28867513 1862:0.28867513 1954:0.28867513 #
-10 1:0.57735026 2:0.57735026 71:0.57735026 #
-3.4943639056867152881125093699666 22:0.5 63:0.5 78:0.5 1132:0.5 #
0.3203185325413183126563865243952 171:0.70710677 1448:0.70710677 #
10 1:0.70710677 133:0.70710677 #
10 1:0.70710677 423:0.70710677 #
0.65859137744069018438608509313781 22:0.5 928:0.5 1607:0.5 4313:0.5 #
-10 1:0.70710677 91:0.70710677 #
-6.7995871733238253398212691536173 1:0.37796447 7:0.37796447 91:0.37796447 154:0.75592893 #
0.012672043797386034827412437664407 21:0.37796447 1103:0.37796447 3590:0.37796447 3696:0.37796447 3991:0.37796447 4185:0.37796447 4312:0.37796447 #
-4.2031050023977423180099322053138 2:0.57735026 3:0.57735026 1630:0.57735026 #
-4.5634341145977614928597176913172 2:0.80178374 25:0.26726124 46:0.26726124 156:0.26726124 879:0.26726124 1210:0.26726124 #
0.056538549172961256872316226917974 2:0.44721359 182:0.44721359 354:0.44721359 537:0.44721359 3739:0.44721359 #
-10 2:0.2773501 3:0.2773501 39:0.2773501 48:0.2773501 75:0.2773501 168:0.2773501 186:0.2773501 196:0.2773501 277:0.2773501 965:0.5547002 #
-8.682550407897656086220194993075 2:0.40824831 12:0.40824831 20:0.40824831 115:0.40824831 167:0.40824831 280:0.40824831 #
10 91:1 #
5.0510199896954617315714131109416 2:0.57735026 32:0.57735026 958:0.57735026 #
10 2:0.70710677 1651:0.70710677 #
10 2:0.57735026 12:0.57735026 177:0.57735026 #
-10 2:1 #
-0.07013074514201975140359479610197 2:0.40824831 150:0.40824831 814:0.40824831 1129:0.40824831 2769:0.40824831 2836:0.40824831 #
-1.5407376381914330565336967993062 3:0.44721359 161:0.44721359 186:0.44721359 530:0.44721359 3066:0.44721359 #
10 1:0.57735026 3:0.57735026 234:0.57735026 #
-10 2:1 #
-10 1:0.70710677 91:0.70710677 #
-10 2:0.81649661 104:0.40824831 171:0.40824831 #
-10 2:1 #
-10 1:0.70710677 442:0.70710677 #
10 2:0.70710677 171:0.70710677 #
-1.1436909530627969999727611138951 2:0.37796447 91:0.37796447 138:0.37796447 622:0.75592893 #
-10 1:0.57735026 71:0.57735026 962:0.57735026 #
0.84542350863202198052448466114583 2:0.40824831 945:0.40824831 1465:0.40824831 3743:0.40824831 3945:0.40824831 4290:0.40824831 #
-10 2:1 #
10 2:0.70710677 31:0.70710677 #
10 2:0.70710677 22:0.70710677 #
10 2:0.57735026 26:0.57735026 100:0.57735026 #
-1.1251664156313030407119413212058 1148:0.70710677 2257:0.70710677 #
10 2:1 #
10 2:0.57735026 91:0.57735026 186:0.57735026 #
10 2:0.70710677 91:0.70710677 #
2.8072133195841786346136359497905 1:0.63245553 91:0.31622776 116:0.31622776 481:0.31622776 484:0.31622776 690:0.31622776 698:0.31622776 #
1.6640661420185358654322271831916 157:0.57735026 435:0.57735026 3524:0.57735026 #
-0.76532280699221511000018836057279 2:0.35355338 10:0.35355338 12:0.35355338 104:0.35355338 205:0.35355338 842:0.35355338 1645:0.35355338 3394:0.35355338 #
10 2:0.44721359 3:0.44721359 69:0.44721359 479:0.44721359 1639:0.44721359 #
-0.012508501569523100549474747822387 1:0.37796447 2:0.37796447 186:0.37796447 3203:0.75592893 #
1.3274911444698496154614986153319 125:0.5 558:0.5 934:0.5 4167:0.5 #
7.8978308118091291589735192246735 1:0.57735026 71:0.57735026 962:0.57735026 #
-10 1:0.75592893 2:0.37796447 71:0.37796447 171:0.37796447 #
0.24619713738689713578011719619099 104:0.5 717:0.5 3570:0.5 3995:0.5 #
4.6743720114692486333751730853692 2:0.30151135 3:0.30151135 222:0.30151135 279:0.30151135 382:0.30151135 611:0.30151135 891:0.30151135 1475:0.30151135 3375:0.30151135 3629:0.30151135 4250:0.30151135 #
-3.4443470658823427399397587578278 3:0.5 202:0.5 354:0.5 1641:0.5 #
-10 1:0.70710677 91:0.70710677 #
-0.3538703477594749013945829574368 8:0.70710677 179:0.70710677 #
-0.4734207363975461713145875819464 261:0.70710677 843:0.70710677 #
10 2:0.57735026 91:0.57735026 530:0.57735026 #
-5.1940473706943235399080549541395 166:0.37796447 194:0.37796447 526:0.37796447 530:0.37796447 623:0.37796447 729:0.37796447 1214:0.37796447 #
-3.7743717393353950484424785827287 2:0.5 3:0.5 530:0.5 1625:0.5 #
-0.67384117754741446049138176022097 276:0.70710677 583:0.70710677 #
10 1:0.44721359 2:0.44721359 5:0.44721359 13:0.44721359 30:0.44721359 #
-10 1:0.5 2:0.5 5:0.5 71:0.5 #
1.5281708701272451733643720217515 65:0.5 133:0.5 4157:0.5 4451:0.5 #
-10 1:0.35355338 11:0.35355338 13:0.35355338 48:0.35355338 71:0.35355338 80:0.35355338 156:0.35355338 1112:0.35355338 #
-0.082579070879767152435491084361274 9:0.37796447 19:0.37796447 30:0.37796447 66:0.37796447 280:0.37796447 611:0.37796447 1307:0.37796447 #
10 1:0.70710677 2:0.70710677 #
10 1:0.40824831 2:0.81649661 277:0.40824831 #
10 1:0.5 2:0.5 628:0.5 963:0.5 #
0.96354371862490906242015853422345 91:0.57735026 1395:0.57735026 3484:0.57735026 #
-1.4008257086290045734244813502301 1:0.31622776 2:0.63245553 154:0.63245553 3345:0.31622776 #
-0.15224814995917276827519515336462 42:1 #
10 2:1 #
-0.065240245745698199897333324770443 2:0.35355338 3:0.35355338 75:0.35355338 80:0.35355338 209:0.35355338 367:0.35355338 530:0.35355338 2375:0.35355338 #
-10 1:0.57735026 2:0.57735026 71:0.57735026 #
-10 234:1 #
-0.79379944400448987362750585816684 548:0.70710677 562:0.70710677 #
6.7642187670503748364581042551436 2:0.5 477:0.5 623:0.5 4103:0.5 #
-0.65542415130997877525942385545932 2:0.57735026 276:0.57735026 1799:0.57735026 #
-10 2:1 #
0.36549851481991402213367337026284 2:0.44721359 483:0.44721359 1541:0.44721359 2054:0.44721359 4023:0.44721359 #
10 2:0.31622776 3:0.31622776 4:0.31622776 31:0.31622776 70:0.31622776 108:0.31622776 119:0.31622776 198:0.31622776 225:0.31622776 382:0.31622776 #
0.68409824829601173501458788450691 719:0.57735026 1513:0.57735026 4252:0.57735026 #
-10 2:0.57735026 479:0.57735026 559:0.57735026 #
-0.56488404031156291829063320619753 2:0.37796447 25:0.37796447 53:0.37796447 479:0.37796447 1233:0.37796447 1840:0.37796447 2524:0.37796447 #
-10 2:1 #
-10 2:0.70710677 32:0.70710677 #
-0.012515069935338352102860426384723 2:0.57735026 182:0.57735026 252:0.57735026 #
-8.5102173906558746807604620698839 2:0.44721359 126:0.44721359 611:0.44721359 1639:0.44721359 3017:0.44721359 #
-0.85446808476292845924149332859088 2:0.57735026 317:0.57735026 762:0.57735026 #
10 1:0.60302269 2:0.30151135 46:0.60302269 61:0.30151135 241:0.30151135 #
-9.3996212863100581103026343043894 1:0.5 46:0.5 91:0.5 2019:0.5 #
-0.74625401615311970360266968782526 2:0.5 3:0.5 442:0.5 1992:0.5 #
-10 2:0.70710677 46:0.70710677 #
-10 2:0.57735026 46:0.57735026 741:0.57735026 #
10 2:0.70710677 46:0.70710677 #
4.0375010422542825239133890136145 2:0.5 46:0.5 77:0.5 3650:0.5 #
3.5227357826361105352930280787405 2:0.44721359 46:0.44721359 431:0.44721359 484:0.44721359 1379:0.44721359 #
0.049506595266546937761376057096641 2:0.44721359 46:0.44721359 274:0.44721359 313:0.44721359 4176:0.44721359 #
-10 2:0.70710677 46:0.70710677 #
-1.2461069577128380814201591419987 61:0.5 453:0.5 580:0.5 1633:0.5 #
-1.5598958360136525591599365725415 477:0.70710677 2439:0.70710677 #
-0.63534195222544065373426747100893 2:0.44721359 63:0.44721359 189:0.44721359 790:0.44721359 3370:0.44721359 #
-1.7918105327162470175039743480738 2:0.33333334 19:0.33333334 30:0.33333334 163:0.33333334 166:0.33333334 207:0.33333334 222:0.33333334 492:0.33333334 628:0.33333334 #
-10 2:1 #
-10 1:0.70710677 442:0.70710677 #
0.80964989430642664292037125051138 8:0.2236068 195:0.2236068 212:0.44721359 273:0.2236068 478:0.2236068 614:0.2236068 1106:0.44721359 1545:0.2236068 1620:0.2236068 3418:0.2236068 3491:0.2236068 3680:0.2236068 3681:0.2236068 4218:0.2236068 #
-10 1:0.57735026 71:0.57735026 962:0.57735026 #
-0.30466112903204656259248395144823 2:0.65465367 46:0.21821789 53:0.43643579 91:0.21821789 223:0.21821789 302:0.21821789 554:0.21821789 868:0.21821789 1129:0.21821789 1301:0.21821789 #
-10 2:0.70710677 32:0.70710677 #
5.9678200074979566025490385072771 2:0.40824831 63:0.40824831 113:0.40824831 128:0.40824831 868:0.40824831 1511:0.40824831 #
-10 1:0.70710677 91:0.70710677 #
10 2:1 #
0.6657357950697901927128441457171 741:0.70710677 3842:0.70710677 #
-6.9660450048771123121582604653668 1:0.44721359 2:0.44721359 8:0.44721359 21:0.44721359 120:0.44721359 #
0.98652414637061880409163450167398 295:0.40824831 909:0.40824831 1431:0.40824831 3722:0.40824831 3936:0.40824831 4421:0.40824831 #
-0.64895774426554120317689466901356 2:0.44721359 106:0.44721359 127:0.44721359 351:0.44721359 1114:0.44721359 #
9.7177419616369196120331253041513 2:0.5 11:0.5 292:0.5 1609:0.5 #
-1.3285757331038077211360359797254 10:0.25819889 11:0.51639777 241:0.25819889 354:0.25819889 808:0.25819889 868:0.25819889 1132:0.25819889 1377:0.25819889 1700:0.25819889 2514:0.25819889 2717:0.25819889 3042:0.25819889 #
0.84897105489688862167696470351075 28:0.5 314:0.5 1655:0.5 2063:0.5 #
-7.8454912653450366022411799349356 104:0.70710677 112:0.70710677 #
0.51822058151098460143657575827092 1431:0.70710677 3663:0.70710677 #
7.8947714054617872392327626585029 1:0.57735026 2:0.57735026 3444:0.57735026 #
10 1:0.57735026 2:0.57735026 345:0.57735026 #
-0.14865692128235602487151822970191 219:0.70710677 1011:0.70710677 #
-6.6063171767752226770653578569181 2:0.5 292:0.5 382:0.5 1389:0.5 #
10 1:0.31622776 2:0.63245553 5:0.31622776 112:0.31622776 279:0.31622776 950:0.31622776 3371:0.31622776 #
0.53658798792722117720899177584215 539:0.57735026 897:0.57735026 4360:0.57735026 #
-3.1779699288192104766892498446396 6:0.57735026 670:0.57735026 963:0.57735026 #
10 1:0.5 2:0.5 317:0.5 558:0.5 #
-3.9832055052661221594689777703024 1:0.37796447 2:0.75592893 91:0.37796447 2016:0.37796447 #
-10 2:0.57735026 156:0.57735026 1132:0.57735026 #
-4.7195621936710079324939215439372 1:0.31622776 2:0.63245553 131:0.31622776 156:0.31622776 345:0.31622776 1888:0.31622776 2137:0.31622776 #
-1.5961915939601789560242650622968 586:0.70710677 1099:0.70710677 #
10 2:0.44721359 41:0.44721359 85:0.44721359 1102:0.44721359 1640:0.44721359 #
10 2:0.44721359 11:0.44721359 42:0.44721359 185:0.44721359 1130:0.44721359 #
-1.935125473099066573112736477924 2:0.57735026 3:0.57735026 1100:0.57735026 #
-4.6445551452287618943159941409249 61:0.40824831 185:0.40824831 241:0.40824831 484:0.40824831 578:0.40824831 978:0.40824831 #
-0.48364016776589380253170702417265 5:0.2773501 10:0.2773501 35:0.2773501 46:0.2773501 50:0.2773501 91:0.2773501 101:0.2773501 130:0.2773501 162:0.2773501 169:0.2773501 177:0.2773501 374:0.2773501 3299:0.2773501 #
10 104:1 #
-0.33888992455703881301332103248569 383:0.2773501 557:0.2773501 665:0.2773501 827:0.2773501 986:0.2773501 2015:0.2773501 2718:0.2773501 2804:0.5547002 2813:0.2773501 2941:0.2773501 #
-0.14121034274958432774838001932949 2:0.70710677 91:0.35355338 126:0.35355338 299:0.35355338 317:0.35355338 #
-2.8840241211959765088579388248036 5:0.25 13:0.25 19:0.25 30:0.25 53:0.25 66:0.25 104:0.25 156:0.25 279:0.25 295:0.25 363:0.25 423:0.25 611:0.25 1325:0.25 1919:0.25 2667:0.25 #
-0.37832615580677864119962805489195 2:0.40824831 26:0.40824831 100:0.40824831 123:0.40824831 1086:0.40824831 2076:0.40824831 #
10 2:0.57735026 317:0.57735026 738:0.57735026 #
-10 2:1 #
-3.1911981871557086876123321417253 48:1 #
0.99128221854370346388662937897607 91:0.5 1641:0.5 3525:0.5 4292:0.5 #
-0.33451663272780829405661506825709 171:0.37796447 221:0.37796447 264:0.37796447 381:0.37796447 1005:0.37796447 1061:0.37796447 1661:0.37796447 #
-0.63047229347154409850872980314307 2:0.44721359 3:0.44721359 331:0.44721359 1130:0.44721359 1917:0.44721359 #
1.9981778644531242861148712108843 5:0.33333334 62:0.33333334 253:0.33333334 1641:0.66666669 3517:0.33333334 4462:0.33333334 #
-0.073615915904687606596823457039136 10:0.40824831 556:0.40824831 1288:0.40824831 1861:0.40824831 1988:0.40824831 3334:0.40824831 #
-0.3492758212522080740747298932547 1:0.5 142:0.5 277:0.5 2639:0.5 #
-1.1461438326311372826182832795894 1:0.37796447 3:0.37796447 11:0.37796447 118:0.37796447 166:0.37796447 348:0.37796447 529:0.37796447 #
-1.016020179801700340505021813442 874:1 #
-0.64930330640035727185477298917249 2:0.66666669 53:0.33333334 154:0.33333334 223:0.33333334 355:0.33333334 1153:0.33333334 #
-0.59502053016791478512459434568882 1:0.57735026 364:0.57735026 1847:0.57735026 #
-10 2:0.57735026 91:0.57735026 317:0.57735026 #
2.6426007965099787000440301198978 2:0.44721359 172:0.44721359 280:0.44721359 922:0.44721359 4377:0.44721359 #
3.3903975271144721759242202097084 2:0.5 477:0.5 3901:0.5 4384:0.5 #
5.9826730404748387215363436553162 2:0.53452247 20:0.26726124 148:0.26726124 348:0.26726124 494:0.26726124 529:0.26726124 2033:0.26726124 3515:0.26726124 3596:0.26726124 3648:0.26726124 4132:0.26726124 #
1.970608523088089203412209826638 2:0.5 920:0.5 1121:0.5 3542:0.5 #
-10 2:0.44721359 119:0.44721359 186:0.44721359 225:0.44721359 235:0.44721359 #
-2.4597067467328175283114433113951 2:0.5547002 46:0.2773501 53:0.2773501 74:0.5547002 741:0.2773501 2421:0.2773501 2917:0.2773501 #
10 1:0.70710677 2:0.70710677 #
-1.189853216429377136265088665823 175:0.57735026 278:0.57735026 1792:0.57735026 #
-0.42913770280235619125619450642262 4:0.30151135 13:0.30151135 100:0.30151135 277:0.30151135 672:0.30151135 1047:0.30151135 1082:0.30151135 1122:0.30151135 1812:0.30151135 1932:0.30151135 2705:0.30151135 #
2.1517885793668005689482924935874 23:0.70710677 174:0.35355338 273:0.35355338 1512:0.35355338 1522:0.35355338 #
2.0274545267080030797046674706507 2:0.44721359 81:0.44721359 115:0.44721359 443:0.44721359 3584:0.44721359 #
-0.66686144839584038379598496248946 5:0.23570226 10:0.23570226 35:0.23570226 46:0.23570226 50:0.23570226 91:0.47140452 101:0.23570226 130:0.23570226 162:0.23570226 169:0.23570226 177:0.23570226 374:0.23570226 409:0.23570226 1738:0.23570226 3299:0.23570226 #
-5.2520263797929391813568145153113 98:0.57735026 108:0.57735026 388:0.57735026 #
-0.59254160788057141928675264352933 2:0.40824831 156:0.40824831 294:0.40824831 1296:0.40824831 2708:0.40824831 3282:0.40824831 #
-0.36485480882850468420386391699139 5:0.37796447 13:0.37796447 106:0.37796447 419:0.37796447 530:0.37796447 2937:0.37796447 3137:0.37796447 #
-0.12856710318060865505529477559321 2:0.25819889 13:0.25819889 91:0.51639777 110:0.25819889 306:0.25819889 384:0.25819889 2024:0.25819889 2279:0.25819889 2408:0.25819889 2409:0.25819889 2793:0.25819889 3395:0.25819889 #
10 2:0.70710677 388:0.70710677 #
3.4488669622208019127640454826178 2:0.5 5:0.5 1518:0.5 3456:0.5 #
5.9051906615154745594509222428314 2:0.57735026 352:0.57735026 1458:0.57735026 #
-0.90836612354853052408998337341473 2:0.70710677 388:0.70710677 #
-1.3418446840702598077399443354807 17:0.37796447 24:0.37796447 38:0.37796447 423:0.37796447 882:0.37796447 1087:0.37796447 1864:0.37796447 #
-1.3860334519937951291979061352322 17:0.31622776 30:0.31622776 76:0.31622776 184:0.31622776 310:0.31622776 423:0.31622776 424:0.31622776 735:0.31622776 1334:0.31622776 2920:0.31622776 #
0.66574592737319959745434516662499 741:0.70710677 3531:0.70710677 #
-6.44894984487314193444262855337 2:0.23570226 3:0.23570226 4:0.23570226 5:0.47140452 17:0.23570226 26:0.23570226 194:0.23570226 280:0.23570226 392:0.23570226 417:0.23570226 447:0.23570226 478:0.23570226 480:0.23570226 879:0.23570226 2074:0.23570226 #
-0.74709294472903020611909141734941 580:0.57735026 2321:0.57735026 2683:0.57735026 #
-0.088292078268700668886026505788323 1:0.57735026 1013:0.57735026 3291:0.57735026 #
-2.8969810145182939287167300790315 36:0.5 279:0.5 352:0.5 881:0.5 #
0.1151794432665126932668897552503 542:1 #
-0.031943595311020242522026535425539 3:0.35355338 159:0.35355338 270:0.35355338 283:0.35355338 672:0.35355338 876:0.35355338 1763:0.35355338 2049:0.35355338 #
-1.633736259590611750169841798197 254:0.70710677 391:0.70710677 #
3.433732828785949653394027336617 2:0.40824831 87:0.40824831 95:0.40824831 741:0.40824831 1105:0.40824831 1132:0.40824831 #
-10 3:0.70710677 61:0.70710677 #
10 1:0.57735026 2:0.57735026 71:0.57735026 #
10 1:0.44721359 2:0.44721359 184:0.44721359 392:0.44721359 3455:0.44721359 #
-0.57900483423815674033363620765158 6:0.44721359 242:0.44721359 571:0.44721359 2400:0.44721359 3033:0.44721359 #
1.2949851216875436499265106249368 2059:0.5 2075:0.5 2076:0.5 4265:0.5 #
-0.094912849979925439924954844173044 2:0.5 250:0.5 253:0.5 1253:0.5 #
10 2:0.44721359 62:0.44721359 167:0.44721359 1635:0.44721359 2042:0.44721359 #
-9.4020293783905355411434356938116 2:0.44721359 62:0.44721359 167:0.44721359 1635:0.44721359 2042:0.44721359 #
-3.8819953156143922612386631953996 18:0.5 87:0.5 241:0.5 3106:0.5 #
-0.70252150848851446784948393542436 487:0.40824831 2150:0.40824831 2199:0.40824831 3166:0.40824831 3221:0.40824831 3383:0.40824831 #
10 1:0.5 2:0.5 200:0.5 1636:0.5 #
-8.7139132464530053567841605399735 1:0.70710677 2:0.35355338 100:0.35355338 272:0.35355338 964:0.35355338 #
-10 2:0.44721359 46:0.44721359 53:0.44721359 352:0.44721359 741:0.44721359 #
-2.2648838351099356280826668808004 226:0.57735026 663:0.57735026 1647:0.57735026 #
10 2:0.70710677 964:0.70710677 #
-0.41148096371751768929314607703418 2:0.18569534 14:0.18569534 15:0.18569534 19:0.18569534 43:0.18569534 51:0.18569534 63:0.18569534 78:0.18569534 156:0.18569534 278:0.18569534 325:0.18569534 682:0.18569534 856:0.18569534 2030:0.74278134 #
-0.06530593082605343213664639279159 2:0.35355338 3:0.35355338 75:0.35355338 80:0.35355338 209:0.35355338 367:0.35355338 530:0.35355338 2375:0.35355338 #
1.2735061968596448345181215699995 200:0.57735026 555:0.57735026 1401:0.57735026 #
10 2:1 #
0.17018209403783021715916845550964 710:0.70710677 3495:0.70710677 #
-0.078498653265435702763852532370947 2:0.40824831 73:0.40824831 155:0.40824831 200:0.40824831 241:0.40824831 324:0.40824831 #
9.8030199904572121738510759314522 1:0.5 2:0.5 1113:0.5 1437:0.5 #
10 1:0.5 2:0.5 149:0.5 197:0.5 #
-2.2950290332752021349449478293536 1:0.70710677 30:0.70710677 #
10 2:0.57735026 442:0.57735026 480:0.57735026 #
-0.12759997181582249936582229565829 2:1 #
-0.49915424973588662371781765614287 8:0.5 35:0.5 259:0.5 2668:0.5 #
-10 2:0.70710677 197:0.70710677 #
-10 1:0.75592893 2:0.37796447 71:0.37796447 171:0.37796447 #
-0.65236933386476914087381828721846 2:0.35355338 10:0.35355338 26:0.35355338 46:0.35355338 618:0.35355338 741:0.35355338 1010:0.35355338 2676:0.35355338 #
0.17321940145841374647517341145431 2:0.44721359 197:0.44721359 1384:0.44721359 1582:0.44721359 1604:0.44721359 #
-3.4847275123469128033093511476181 3:0.57735026 69:0.57735026 529:0.57735026 #
0.69002375220327927252128574764356 13:0.23570226 47:0.47140452 59:0.23570226 153:0.23570226 156:0.23570226 275:0.23570226 278:0.23570226 953:0.23570226 1093:0.23570226 1396:0.23570226 1494:0.23570226 1600:0.23570226 3393:0.23570226 4457:0.23570226 4464:0.23570226 #
-0.55793841070558403139045822172193 2:0.35355338 3:0.35355338 81:0.70710677 875:0.35355338 1785:0.35355338 #
-10 2:1 #
-2.5068310234302337846656882902607 2:0.5 17:0.5 113:0.5 336:0.5 #
10 1:0.57735026 2:0.57735026 144:0.57735026 #
-10 1:0.57735026 2:0.57735026 144:0.57735026 #
10 2:0.5 113:0.5 427:0.5 551:0.5 #
-10 1:0.31622776 2:0.63245553 71:0.31622776 149:0.31622776 197:0.31622776 558:0.31622776 964:0.31622776 #
2.4091558919081577094800650229445 2:0.40824831 353:0.40824831 741:0.40824831 3597:0.40824831 3780:0.40824831 4240:0.40824831 #
10 1:0.53452247 2:0.80178374 71:0.26726124 #
-2.3944114262086531041973103128839 8:0.37796447 26:0.37796447 31:0.37796447 53:0.37796447 120:0.37796447 450:0.37796447 1114:0.37796447 #
-0.36991793941196693396022965316661 2:0.5 3:0.5 389:0.5 1003:0.5 #
10 2:0.5 50:0.5 176:0.5 1624:0.5 #
0.57064163346662133413644824031508 8:0.28867513 23:0.28867513 113:0.28867513 395:0.28867513 441:0.28867513 532:0.28867513 689:0.28867513 720:0.28867513 916:0.28867513 945:0.28867513 958:0.28867513 3401:0.28867513 #
10 2:0.86602539 13:0.28867513 71:0.28867513 3867:0.28867513 #
-10 2:1 #
-0.28981806459242309692569961043773 118:0.70710677 1109:0.70710677 #
-6.103088173733732801906626264099 1:0.28867513 317:0.28867513 351:0.28867513 353:0.57735026 741:0.28867513 1329:0.28867513 1832:0.28867513 2016:0.28867513 2043:0.28867513 #
-1.5122328701370586490071445950889 84:0.57735026 241:0.57735026 401:0.57735026 #
10 1:0.35355338 2:0.70710677 6:0.35355338 126:0.35355338 186:0.35355338 #
-0.23061071041152464422552270661981 5:0.24253562 6:0.24253562 82:0.24253562 91:0.48507124 96:0.24253562 100:0.24253562 130:0.24253562 354:0.24253562 363:0.24253562 385:0.24253562 1376:0.24253562 1843:0.24253562 2016:0.24253562 2437:0.24253562 #
-10 1:0.70710677 1641:0.70710677 #
10 2:0.35355338 84:0.35355338 145:0.35355338 1094:0.35355338 1643:0.35355338 1648:0.35355338 2016:0.35355338 4447:0.35355338 #
-3.720746718205979686189266431029 3:0.23570226 13:0.23570226 75:0.23570226 166:0.23570226 168:0.23570226 194:0.23570226 227:0.23570226 285:0.23570226 520:0.23570226 530:0.47140452 546:0.23570226 615:0.23570226 1140:0.23570226 1652:0.23570226 2195:0.23570226 #
-1.3765925806098022743384490240715 2:0.26726124 5:0.26726124 107:0.26726124 176:0.53452247 277:0.26726124 378:0.26726124 621:0.26726124 743:0.26726124 1635:0.26726124 1725:0.26726124 1937:0.26726124 #
0.3118497692735023307797348479653 2:0.40824831 428:0.40824831 546:0.40824831 1449:0.40824831 3948:0.40824831 4279:0.40824831 #
-10 31:1 #
-3.4079936225038980346369044127641 5:0.44721359 479:0.44721359 780:0.44721359 963:0.44721359 2492:0.44721359 #
-10 1:0.57735026 2:0.57735026 144:0.57735026 #
-1.1969198866155934535271398999612 1852:1 #
-0.56774931073162715478019890724681 37:0.5 87:0.5 2724:0.5 2765:0.5 #
-6.0883373937930240771265744115226 1:0.5 2:0.5 91:0.5 3360:0.5 #
0.090172346686869186971335921043647 153:0.37796447 3903:0.75592893 4260:0.37796447 4337:0.37796447 #
10 1:0.44721359 2:0.44721359 65:0.44721359 171:0.44721359 1117:0.44721359 #
-10 2:0.70710677 65:0.70710677 #
-10 2:0.57735026 741:0.57735026 1648:0.57735026 #
0.99103546615120285956379575509345 2:0.41702881 182:0.20851441 440:0.41702881 702:0.41702881 719:0.20851441 908:0.41702881 1650:0.41702881 3647:0.20851441 #
10 2:0.57735026 91:0.57735026 444:0.57735026 #
-10 2:0.57735026 91:0.57735026 444:0.57735026 #
-0.8642242516015634645754062148626 2:0.35355338 3:0.35355338 81:0.70710677 875:0.35355338 1785:0.35355338 #
-2.2269002980524486012825491343392 31:0.70710677 1934:0.70710677 #
10 2:0.70710677 65:0.70710677 #
3.3295036585537971518533595371991 2:0.57735026 741:0.57735026 3838:0.57735026 #
-0.015825838903413998182134747594318 10:0.44721359 218:0.44721359 246:0.44721359 1757:0.44721359 3370:0.44721359 #
-1.6362103066988056276898078067461 25:0.44721359 100:0.44721359 302:0.44721359 320:0.44721359 475:0.44721359 #
-0.28235113621832036434611268305162 124:0.5 616:0.5 1650:0.5 1820:0.5 #
-9.5983471886830180608285445487127 2:0.5 29:0.5 91:0.5 222:0.5 #
-1.1496134369526567198249722423498 2:0.5 476:0.5 1047:0.5 2539:0.5 #
9.3246831559654896892652686801739 1:0.6868028 2:0.13736056 91:0.13736056 627:0.6868028 964:0.13736056 #
-1.5933640313190029491607901945827 3:0.70710677 3384:0.70710677 #
-3.0183997176876018464497519744327 2:0.40824831 31:0.40824831 46:0.40824831 75:0.40824831 2280:0.40824831 2710:0.40824831 #
-1.307209559462614745228847823455 5:0.37796447 15:0.37796447 47:0.37796447 156:0.37796447 294:0.37796447 1246:0.37796447 1842:0.37796447 #
-1.1961223725789082994452883212944 768:1 #
-5.22959456856710858119186013937 6:0.70710677 396:0.70710677 #
-10 1:0.5 2:0.5 71:0.5 1631:0.5 #
5.9953892451773409533188896602951 2:0.51639777 5:0.25819889 41:0.25819889 148:0.25819889 279:0.25819889 900:0.25819889 963:0.25819889 1110:0.25819889 1479:0.25819889 1504:0.25819889 1614:0.25819889 2055:0.25819889 #
-0.62959554001488648999895758606726 2:0.40824831 17:0.40824831 33:0.40824831 110:0.40824831 177:0.40824831 1069:0.40824831 #
-2.2084758836883309207621550740441 2:0.33333334 17:0.33333334 113:0.33333334 277:0.33333334 759:0.33333334 1129:0.33333334 1675:0.33333334 2125:0.33333334 2542:0.33333334 #
2.1638796959339345882256111508468 134:0.57735026 432:0.57735026 741:0.57735026 #
1.259270211351900758955935089034 152:0.37796447 385:0.37796447 486:0.37796447 1461:0.37796447 1523:0.37796447 3598:0.37796447 4150:0.37796447 #
10 2:0.70710677 29:0.70710677 #
10 30:0.70710677 628:0.70710677 #
-10 2:0.70710677 96:0.70710677 #
-0.52464524331455641981136750473524 2:0.53452247 3:0.26726124 22:0.26726124 97:0.26726124 166:0.26726124 220:0.26726124 227:0.26726124 402:0.26726124 494:0.26726124 599:0.26726124 623:0.26726124 #
-10 1:0.5 22:0.5 126:0.5 144:0.5 #
5.0051114570852135443601582664996 2:0.57735026 1640:0.57735026 3620:0.57735026 #
-2.4738470961304925843649016314885 2:0.57735026 8:0.57735026 119:0.57735026 #
1.2947653942694308248917423043167 53:0.37796447 394:0.37796447 428:0.37796447 740:0.37796447 4073:0.37796447 4086:0.37796447 4413:0.37796447 #
10 2:0.57735026 31:0.57735026 144:0.57735026 #
10 2:1 #
-2.2264559585820626885777073766803 31:0.70710677 416:0.70710677 #
-1.0694980079894447211330543723307 31:0.44721359 326:0.44721359 425:0.44721359 879:0.44721359 2086:0.44721359 #
2.9321652041975427849251900624949 2:0.40824831 126:0.40824831 928:0.40824831 1589:0.40824831 1644:0.40824831 3520:0.40824831 #
-0.63172853295741471235658082150621 2:0.57735026 12:0.28867513 74:0.57735026 135:0.28867513 1057:0.28867513 2559:0.28867513 #
-1.1960176012902268283255580172408 1819:1 #
0.1436907504822240444486425303694 48:0.5 201:0.5 240:0.5 4134:0.5 #
-10 2:1 #
-10 2:0.70710677 65:0.70710677 #
-0.38765969853362663988249892099702 28:0.24253562 70:0.24253562 210:0.24253562 319:0.24253562 346:0.24253562 347:0.24253562 369:0.24253562 448:0.24253562 487:0.24253562 584:0.24253562 593:0.24253562 799:0.24253562 869:0.24253562 1378:0.24253562 2078:0.24253562 2988:0.24253562 3337:0.24253562 #
-8.6620565752524498748243786394596 2:0.5 156:0.5 1125:0.5 1639:0.5 #
10 2:0.70710677 132:0.70710677 #
-0.12729493835871430462702846853063 2:0.37796447 8:0.37796447 18:0.37796447 447:0.37796447 591:0.37796447 651:0.37796447 3208:0.37796447 #
-10 2:0.44721359 132:0.89442718 #
-0.91818917890126017233853872312466 872:1 #
-0.3081481603907771926742498180829 2:0.24253562 10:0.48507124 25:0.24253562 46:0.24253562 176:0.24253562 251:0.24253562 281:0.48507124 469:0.24253562 1132:0.24253562 2035:0.24253562 3362:0.24253562 #
-2.969544991410611345372672076337 2:0.40824831 91:0.40824831 171:0.40824831 873:0.40824831 1641:0.40824831 2900:0.40824831 #
-0.14966593896188445933503885498794 55:0.31622776 148:0.31622776 263:0.31622776 522:0.31622776 624:0.31622776 740:0.31622776 745:0.31622776 1144:0.31622776 2033:0.31622776 2037:0.31622776 #
-0.73517781573988250087836604507174 6:0.70710677 748:0.70710677 #
-10 2:1 #
-1.9992037359128795870333306083921 2:0.37796447 293:0.37796447 405:0.37796447 489:0.37796447 2042:0.37796447 2562:0.37796447 2749:0.37796447 #
10 2:1 #
-10 2:1 #
-0.61668481069787728365838574973168 2:0.57735026 2039:0.57735026 2198:0.57735026 #
-10 3:0.57735026 388:0.57735026 615:0.57735026 #
-1.193701769664831102701896270446 2:0.5 479:0.5 2248:0.5 2994:0.5 #
10 2:1 #
-10 2:1 #
-0.70219812524537927878043319651624 2:0.70710677 1259:0.70710677 #
-10 2:1 #
9.7870969259519604577235440956429 1:0.57735026 2:0.57735026 71:0.57735026 #
10 2:1 #
0.61362506760556201346190619005938 2:0.33333334 744:0.33333334 1471:0.33333334 1596:0.33333334 2017:0.33333334 2070:0.66666669 #
4.2555672682686926933115501014981 2:0.57735026 552:0.57735026 3446:0.57735026 #
0.92382004520411009629299314838136 2:0.57735026 2078:0.57735026 4488:0.57735026 #
0.065707891726673323118390612762596 2062:0.70710677 4209:0.70710677 #
-5.3789164074299984363847215718124 2:0.26726124 8:0.53452247 128:0.26726124 132:0.26726124 146:0.26726124 365:0.26726124 868:0.53452247 1652:0.26726124 #
-10 2:1 #
10 2:1 #
-2.6769722300023177652406047855038 2:0.60302269 5:0.30151135 29:0.30151135 95:0.30151135 177:0.30151135 180:0.30151135 815:0.30151135 1797:0.30151135 #
-1.2309960933846033626082316914108 2:0.70710677 148:0.70710677 #
-5.1849550358820852835606274311431 2:0.5 87:0.5 442:0.5 493:0.5 #
0.71587462155090275661706300525111 2:0.57735026 967:0.57735026 4449:0.57735026 #
1.1597100769655872554153575038072 2:0.57735026 432:0.57735026 4249:0.57735026 #
4.0969667212497622443834188743494 2:0.57735026 537:0.57735026 550:0.57735026 #
-10 2:1 #
-0.33837840155486054172229160030838 2:0.57735026 22:0.57735026 660:0.57735026 #
-0.3178557370157704675683874029346 219:0.70710677 1011:0.70710677 #
3.8062066441811746031476104690228 139:0.70710677 3989:0.70710677 #
-10 1:0.57735026 2:0.57735026 144:0.57735026 #
3.2977949029339304054531112342374 2:0.70710677 3931:0.70710677 #
3.2977470297082351891049256664701 2:0.70710677 4415:0.70710677 #
3.2977949029339304054531112342374 2:0.70710677 3575:0.70710677 #
-10 2:0.37796447 113:0.37796447 386:0.37796447 741:0.75592893 #
-4.4332000350836455737635333207436 2:0.44721359 53:0.44721359 741:0.44721359 868:0.44721359 2822:0.44721359 #
10 2:0.70710677 2016:0.70710677 #
10 2:0.70710677 91:0.70710677 #
-1.3084638597002999915730470092967 25:0.44721359 171:0.44721359 496:0.44721359 818:0.44721359 2755:0.44721359 #
-0.82294592726251791781066913245013 2:0.33333334 53:0.33333334 279:0.33333334 282:0.33333334 352:0.33333334 363:0.33333334 1687:0.33333334 1974:0.33333334 2768:0.33333334 #
4.0056101560887329426918768149335 2:0.57735026 4:0.28867513 559:0.28867513 876:0.28867513 1388:0.28867513 1500:0.28867513 1552:0.28867513 3715:0.28867513 4494:0.28867513 #
-0.80143515084526173453127739776392 2:0.40824831 3:0.40824831 879:0.40824831 1201:0.40824831 2113:0.40824831 3270:0.40824831 #
-10 2:1 #
10 2:1 #
-0.34557083473529376371757848573907 2:0.60302269 63:0.60302269 487:0.30151135 826:0.30151135 1221:0.30151135 #
0.53088707007577684571231202426134 2:0.40824831 430:0.40824831 967:0.40824831 1498:0.40824831 2051:0.40824831 4283:0.40824831 #
3.2977470297082378536401847668458 2:0.70710677 4187:0.70710677 #
2.652448767424123055036488949554 2:0.70710677 187:0.70710677 #
-10 2:1 #
-10 2:1 #
10 2:1 #
-10 2:1 #
3.2980164172919410603412870841566 2:0.70710677 3634:0.70710677 #
10 2:0.70710677 251:0.70710677 #
3.297655689861072936253094667336 2:0.70710677 1478:0.70710677 #
3.2977470297092121853665958042257 2:0.70710677 3895:0.70710677 #
10 2:1 #
-0.1174650819588798356107872677967 2:0.5 379:0.5 2145:0.5 3331:0.5 #
3.2980021259001452982317914575106 2:0.70710677 921:0.70710677 #
3.2977004841017012459758461773163 2:0.70710677 1533:0.70710677 #
-1.4400825196438271635912542478763 2:0.40824831 41:0.40824831 46:0.40824831 885:0.40824831 1067:0.40824831 2011:0.40824831 #
-10 2:1 #
10 91:1 #
-0.87662758508238380894539432119927 28:0.5 328:0.5 1850:0.5 3076:0.5 #
-0.21603565136935665158546271413798 1:0.40824831 2:0.40824831 74:0.40824831 200:0.40824831 1848:0.40824831 2523:0.40824831 #
-10 2:1 #
7.0893930257088362267836600949522 2:0.5 379:0.5 918:0.5 1100:0.5 #
-0.48996733508035905657607145258226 3:0.70710677 1083:0.70710677 #
10 2:1 #
3.2976831681296383536050598195288 2:0.70710677 1621:0.70710677 #
10 2:0.89442718 1104:0.44721359 #
10 2:1 #
-0.21418735058561869100124397391482 2:0.31622776 114:0.31622776 246:0.31622776 592:0.31622776 604:0.31622776 678:0.31622776 1814:0.63245553 #
5.6263624372233573822654761897866 2:0.90453404 71:0.30151135 3944:0.30151135 #
-10 2:1 #
-10 2:1 #
10 2:0.70710677 91:0.70710677 #
2.0619524706225447197027733636787 2:0.70710677 428:0.70710677 #
-2.0801813374891979790959339879919 2:0.63245553 479:0.31622776 1378:0.31622776 2052:0.31622776 2064:0.31622776 2853:0.31622776 3379:0.31622776 #
-10 2:1 #
3.0922879425219820248571522824932 2:0.57735026 322:0.57735026 4383:0.57735026 #
0.44529505745090341983782877832709 2:0.57735026 428:0.57735026 3601:0.57735026 #
8.4396043079651850149502934073098 2:0.70710677 1384:0.70710677 #
-0.76133015668984449497713740129257 2:0.5 393:0.5 1830:0.5 3040:0.5 #
4.8568001337029667041633729240857 2:0.57735026 1380:0.57735026 1645:0.57735026 #
-0.79057675036431107606915702490369 470:1 #
0.32768074722781448393504888372263 2:0.44721359 363:0.44721359 550:0.44721359 739:0.44721359 913:0.44721359 #
3.507697412524605429240409648628 46:0.57735026 450:0.57735026 3728:0.57735026 #
-10 2:1 #
-10 2:1 #
-1.1811478452090391488837894939934 37:0.70710677 442:0.70710677 #
-1.7881457766120194552428301904001 234:1 #
-1.3338967105332180107524209233816 2:0.5 600:0.5 1655:0.5 1841:0.5 #
-0.21782423042611109842425776150776 2:0.5 501:0.5 3234:0.5 3358:0.5 #
4.8630287797710884944990539224818 2:0.5 111:0.5 279:0.5 3486:0.5 #
-3.9395630073673464366379448620137 1130:0.70710677 2009:0.70710677 #
-5.1076331570981139407194859813899 2:0.37796447 5:0.37796447 628:0.37796447 789:0.37796447 1289:0.37796447 2016:0.37796447 3371:0.37796447 #
-3.318022374107608030158189649228 103:0.53452247 279:0.53452247 490:0.53452247 869:0.26726124 1017:0.26726124 #
-3.8688950823745429374866944272071 44:0.5 200:0.5 462:0.5 1117:0.5 #
-1.1291796072961626240527266418212 11:0.57735026 251:0.57735026 1343:0.57735026 #
8.1795032235677673781992780277506 5:0.70710677 91:0.35355338 222:0.35355338 272:0.35355338 1514:0.35355338 #
0.28372154436310742520177541337034 77:0.5 2042:0.5 3796:0.5 4440:0.5 #
10 1:0.40824831 2:0.40824831 8:0.40824831 18:0.40824831 144:0.40824831 212:0.40824831 #
2.4826534631060996893836545496015 222:0.70710677 4041:0.70710677 #
10 1:0.5 317:0.5 353:0.5 2043:0.5 #
-10 1:0.5 2:0.5 20:0.5 2073:0.5 #
-3.5884934843575648777402875566622 1:0.5 22:0.5 477:0.5 1117:0.5 #
10 200:1 #
10 7:0.70710677 156:0.70710677 #
10 9:0.57735026 75:0.57735026 321:0.57735026 #
-6.8503039928211739706398475391325 48:0.70710677 1646:0.70710677 #
-6.8584026226733811881786095909774 422:0.70710677 1651:0.70710677 #
-1.7566081049174999684225895180134 1:0.57735026 156:0.57735026 619:0.57735026 #
-0.29309704613119941241095034456521 7:0.44721359 28:0.44721359 63:0.44721359 737:0.44721359 1645:0.44721359 #
-0.081545092602371055390264587003912 93:0.35355338 110:0.35355338 444:0.35355338 625:0.35355338 1880:0.70710677 #
9.6571083511588398096137098036706 1:0.37796447 2:0.37796447 22:0.37796447 155:0.37796447 489:0.37796447 1416:0.37796447 4268:0.37796447 #
10 1:0.33333334 2:0.33333334 19:0.33333334 32:0.33333334 42:0.33333334 51:0.33333334 87:0.33333334 211:0.33333334 495:0.33333334 #
10 1:0.70710677 186:0.70710677 #
7.8943890987361147182355125551112 1:0.57735026 118:0.57735026 1530:0.57735026 #
-3.328150548232586380947850557277 1:0.37796447 137:0.37796447 149:0.37796447 175:0.37796447 197:0.37796447 451:0.37796447 3239:0.37796447 #
10 20:1 #
10 386:1 #
10 193:0.37796447 627:0.37796447 962:0.75592893 1112:0.37796447 #
10 559:1 #
-3.4196658218460664890869793453021 10:0.44721359 184:0.89442718 #
-3.2436055707329072284039739315631 3:0.5 5:0.5 62:0.5 398:0.5 #
-5.0338647275130465885695230099373 172:0.57735026 277:0.57735026 1961:0.57735026 #
-2.3586651690063180630829720030306 19:0.37796447 177:0.37796447 230:0.37796447 243:0.37796447 657:0.37796447 1075:0.37796447 2233:0.37796447 #
10 1:0.37796447 2:0.37796447 62:0.37796447 75:0.37796447 234:0.37796447 478:0.37796447 743:0.37796447 #
10 1:0.44721359 2:0.44721359 46:0.44721359 71:0.44721359 388:0.44721359 #
10 1:0.75592893 2:0.37796447 71:0.37796447 171:0.37796447 #
10 1:0.57735026 80:0.57735026 318:0.57735026 #
0.65561280960584766841492410094361 197:0.89442718 446:0.44721359 #
4.1049455770819589517373060516547 25:0.40824831 148:0.40824831 351:0.40824831 447:0.40824831 3581:0.40824831 4483:0.40824831 #
7.4397370597879959319698173203506 21:0.70710677 103:0.70710677 #
10 50:0.70710677 133:0.70710677 #
4.8646348339642262459392441087402 19:0.57735026 148:0.57735026 1507:0.57735026 #
-1.810177717231267635611402511131 25:0.40824831 279:0.40824831 321:0.40824831 418:0.40824831 1286:0.40824831 2621:0.40824831 #
10 1:0.5 2:0.5 71:0.5 1631:0.5 #
-0.22184404531275703220671857707202 2:0.40824831 299:0.40824831 458:0.40824831 630:0.40824831 2570:0.40824831 2921:0.40824831 #
-1.6730873737323215255656805311446 12:0.40824831 86:0.81649661 87:0.40824831 #
-2.485167976507335119151775870705 58:0.57735026 443:0.57735026 3375:0.57735026 #
-0.82137451682790407758716355601791 349:0.70710677 801:0.70710677 #
-0.87912295923300798339283801396959 15:0.44721359 47:0.44721359 104:0.44721359 849:0.44721359 2025:0.44721359 #
10 2:0.31622776 10:0.31622776 11:0.31622776 27:0.31622776 46:0.31622776 49:0.31622776 87:0.31622776 422:0.31622776 3367:0.31622776 3380:0.31622776 #
10 1:0.35355338 2:0.35355338 11:0.35355338 32:0.35355338 135:0.35355338 142:0.35355338 156:0.35355338 1642:0.35355338 #
10 1:0.40824831 2:0.40824831 77:0.40824831 91:0.40824831 142:0.40824831 317:0.40824831 #
-0.14159833851895201051185324558901 3:0.70710677 630:0.70710677 #
10 61:1 #
10 223:0.70710677 741:0.70710677 #
7.564076082274925560966494231252 43:0.81649661 1655:0.40824831 3616:0.40824831 #
10 12:0.51639777 48:0.51639777 113:0.25819889 147:0.51639777 1451:0.25819889 3539:0.25819889 #
10 611:1 #
-10 11:0.75592893 133:0.37796447 256:0.37796447 480:0.37796447 #
-8.3867430717606961110277552506886 11:0.35355338 46:0.35355338 110:0.35355338 289:0.35355338 443:0.35355338 480:0.35355338 1981:0.35355338 2016:0.35355338 #
-0.85675246332107857227811109623872 866:0.70710677 1650:0.70710677 #
-1.7074838821973474800586245692102 10:0.35355338 15:0.35355338 48:0.35355338 423:0.35355338 1703:0.35355338 2303:0.35355338 2433:0.35355338 2806:0.35355338 #
10 1:0.5 2:0.5 5:0.5 71:0.5 #
7.3819906315332595170275453710929 1:0.44721359 2:0.44721359 71:0.44721359 81:0.44721359 277:0.44721359 #
6.1506961712271230879878203268163 11:0.57735026 390:0.57735026 548:0.57735026 #
1.6355631933397349886405436336645 11:0.44721359 96:0.44721359 2040:0.44721359 3965:0.44721359 4365:0.44721359 #
3.5655936211590213424926787411096 15:0.70710677 1531:0.70710677 #
1.9477684265859493972783411663841 11:0.57735026 935:0.57735026 4168:0.57735026 #
1.0612157341539829591425814214745 11:0.57735026 315:0.57735026 4308:0.57735026 #
-0.29764568585588924154450296555297 15:0.63245553 41:0.31622776 221:0.31622776 223:0.31622776 423:0.31622776 837:0.31622776 1861:0.31622776 #
-0.084082221397990680733514068379009 8:0.5 13:0.5 22:0.5 185:0.5 #
-6.66978560679111964759613329079 41:1 #
10 23:0.57735026 104:0.57735026 294:0.57735026 #
2.4098795881940038299262596410699 490:0.57735026 1392:0.57735026 3639:0.57735026 #
1.5114682652435562637549537612358 156:0.5 280:0.5 729:0.5 1445:0.5 #
3.296739308875547447286180613446 165:0.60302269 493:0.30151135 1131:0.30151135 1563:0.30151135 3483:0.30151135 3664:0.30151135 3999:0.30151135 4397:0.30151135 #
10 31:1 #
-1.8154571940797035178860596715822 6:0.28867513 109:0.28867513 165:0.28867513 392:0.28867513 427:0.57735026 442:0.28867513 1087:0.28867513 1735:0.28867513 2656:0.28867513 #
-0.094526245270596526149020633056352 10:0.57735026 3185:0.57735026 3393:0.57735026 #
-3.7954118860131331736340598581592 103:0.5 494:0.5 1900:0.5 2024:0.5 #
-2.2510935503597728768454544479027 2:0.70710677 1109:0.70710677 #
10 91:0.70710677 425:0.70710677 #
-0.81732506991451114863878046890022 548:0.70710677 562:0.70710677 #
10 5:0.22941573 28:0.6882472 70:0.22941573 91:0.22941573 95:0.22941573 1110:0.45883146 1638:0.22941573 3391:0.22941573 #
1.7465696854146814942509990942199 17:0.44721359 344:0.44721359 558:0.44721359 886:0.44721359 1409:0.44721359 #
1.3162741262470420977592766575981 1:0.40824831 2:0.40824831 71:0.40824831 318:0.40824831 1487:0.40824831 1535:0.40824831 #
-4.3171115774419037691700395953376 2:0.31622776 29:0.31622776 40:0.31622776 50:0.31622776 135:0.31622776 1102:0.31622776 1123:0.31622776 1128:0.31622776 1906:0.31622776 3388:0.31622776 #
10 2:0.37796447 113:0.37796447 386:0.37796447 741:0.75592893 #
4.0586073411739604921422142069787 63:0.57735026 114:0.57735026 3831:0.57735026 #
10 12:1 #
4.8098417862569622371893274248578 2:0.37796447 10:0.37796447 87:0.37796447 110:0.37796447 3976:0.37796447 4229:0.37796447 4230:0.37796447 #
10 2:0.31622776 8:0.31622776 41:0.31622776 63:0.31622776 132:0.63245553 870:0.31622776 1426:0.31622776 #
-5.3554531682285579918811890820507 63:0.75592893 870:0.37796447 2055:0.37796447 2553:0.37796447 #
-0.25304766825798602480901422495663 2:0.40824831 46:0.40824831 175:0.40824831 1074:0.40824831 2488:0.40824831 3145:0.40824831 #
10 8:1 #
7.112605247049678780513204401359 2:0.35355338 6:0.35355338 8:0.35355338 94:0.35355338 146:0.35355338 448:0.35355338 868:0.35355338 1484:0.35355338 #
6.2439795756477947108464832126629 8:0.40824831 11:0.40824831 32:0.40824831 63:0.40824831 116:0.40824831 703:0.40824831 #
10 8:0.44721359 25:0.44721359 113:0.44721359 868:0.44721359 1647:0.44721359 #
6.9184817172841892585211098776199 2:0.44721359 13:0.44721359 442:0.44721359 1389:0.44721359 4419:0.44721359 #
1.3074137991792076363140040484723 2:0.35355338 174:0.35355338 213:0.35355338 291:0.35355338 1123:0.35355338 2079:0.35355338 4224:0.35355338 4444:0.35355338 #
5.0588325015893769176500427420251 1:0.37796447 140:0.37796447 2019:0.75592893 3391:0.37796447 #
9.1601070393962356064321284065954 1:0.5 111:0.5 396:0.5 4304:0.5 #
10 5:0.44721359 47:0.44721359 156:0.44721359 172:0.44721359 869:0.44721359 #
-0.75657800854176104898840549140004 172:0.70710677 848:0.70710677 #
-4.2464267403975490822176652727649 12:0.28867513 19:0.28867513 31:0.28867513 35:0.28867513 93:0.28867513 1645:0.28867513 1660:0.28867513 2016:0.57735026 3052:0.28867513 #
10 2:0.35355338 46:0.70710677 175:0.35355338 289:0.35355338 395:0.35355338 #
10 2:0.44721359 46:0.44721359 53:0.44721359 352:0.44721359 741:0.44721359 #
1.1818706942298387030376716211322 21:0.44721359 487:0.44721359 890:0.44721359 1091:0.44721359 2053:0.44721359 #
10 120:0.70710677 441:0.70710677 #
10 19:0.70710677 615:0.70710677 #
-0.08142590038968502974547902795166 2:0.63245553 142:0.31622776 592:0.31622776 1046:0.31622776 1274:0.31622776 2908:0.31622776 3180:0.31622776 #
10 10:0.70710677 46:0.70710677 #
-0.47000406944789752117230818839744 2:0.40824831 46:0.40824831 103:0.40824831 730:0.40824831 740:0.40824831 964:0.40824831 #
2.2415251779520661834510519838659 48:0.57735026 1463:0.57735026 1528:0.57735026 #
-2.4176640367507413742487187846564 2:0.57735026 77:0.57735026 304:0.57735026 #
-2.4176605044798016308504884364083 2:0.57735026 77:0.57735026 2698:0.57735026 #
7.8942956841215616847762248653453 1:0.57735026 133:0.57735026 4426:0.57735026 #
4.099832046145817088245166814886 22:0.57735026 223:0.57735026 3547:0.57735026 #
10 2:0.33333334 50:0.33333334 91:0.33333334 201:0.33333334 3360:0.66666669 3457:0.33333334 #
10 2:0.33333334 42:0.33333334 71:0.33333334 81:0.66666669 351:0.33333334 477:0.33333334 #
-0.16621511301958416528812279011618 48:0.5 426:0.5 1240:0.5 1381:0.5 #
10 1:0.35355338 11:0.35355338 13:0.35355338 48:0.35355338 71:0.35355338 80:0.35355338 156:0.35355338 1112:0.35355338 #
4.650352332573516100922006444307 13:0.40824831 124:0.40824831 492:0.40824831 741:0.40824831 3706:0.40824831 3952:0.40824831 #
-2.3665111153815825417723317514174 2:0.31622776 27:0.63245553 77:0.31622776 507:0.31622776 1198:0.31622776 1639:0.31622776 1740:0.31622776 #
-2.3651598445879500332011957652867 2:0.57735026 2961:0.57735026 3360:0.57735026 #
-0.065117955691221141023561358451843 2:0.48507124 25:0.24253562 86:0.24253562 113:0.24253562 171:0.24253562 251:0.24253562 343:0.24253562 369:0.24253562 387:0.24253562 391:0.24253562 469:0.24253562 480:0.24253562 495:0.24253562 2048:0.24253562 #
10 82:0.70710677 741:0.70710677 #
9.6502607518361198657430577441119 119:0.28867513 132:0.57735026 225:0.28867513 235:0.57735026 239:0.28867513 3432:0.28867513 #
10 1:0.57735026 2:0.57735026 71:0.57735026 #
10 46:1 #
2.0246956202803483293450881319586 8:0.70710677 199:0.70710677 #
2.0244507070307236062944866716862 8:0.70710677 3494:0.70710677 #
3.0920557599625437816825979098212 5:0.2773501 91:0.2773501 200:0.2773501 241:0.2773501 731:0.5547002 3828:0.5547002 4490:0.2773501 #
-3.5664874377658479787100986868609 17:0.40824831 68:0.40824831 186:0.40824831 200:0.40824831 517:0.40824831 1382:0.40824831 #
3.2146209209039882104264052031795 48:0.5 115:0.5 392:0.5 4110:0.5 #
-0.77640934023565244537223861698294 2:1 #
-0.14049548039915674135791334720125 6:0.30151135 11:0.30151135 24:0.30151135 150:0.30151135 964:0.60302269 1285:0.30151135 1990:0.30151135 2123:0.30151135 #
-2.1849597207169848545049717358779 2:0.25819889 166:0.25819889 321:0.25819889 673:0.25819889 771:0.25819889 1118:0.25819889 1234:0.25819889 1655:0.25819889 2816:0.51639777 2845:0.25819889 3230:0.25819889 3301:0.25819889 #
6.6599922350610691879069236165378 1:0.57735026 62:0.57735026 1383:0.57735026 #
-0.33782626854076075462174344465893 6:0.2 11:0.2 46:0.2 48:0.40000001 189:0.2 205:0.2 349:0.2 486:0.2 505:0.2 550:0.2 660:0.2 741:0.40000001 1043:0.2 1059:0.2 1112:0.2 1208:0.2 1364:0.2 2246:0.2 3144:0.2 #
-2.0526052300290098528989801707212 2:0.40824831 63:0.40824831 113:0.40824831 303:0.40824831 620:0.40824831 2342:0.40824831 #
10 1:0.5 77:0.5 99:0.5 548:0.5 #
4.381593462902205970976865501143 2:0.25 6:0.25 13:0.25 46:0.25 71:0.25 120:0.25 442:0.25 699:0.25 1110:0.25 1377:0.25 1652:0.5 4000:0.25 4379:0.25 #
-0.48805778597225968340467261441518 2:0.31622776 77:0.31622776 322:0.31622776 740:0.31622776 857:0.31622776 1344:0.31622776 1634:0.31622776 2045:0.31622776 2321:0.31622776 2974:0.31622776 #
-2.0605036701977672564112253894564 2:0.25819889 19:0.25819889 68:0.25819889 177:0.25819889 473:0.25819889 529:0.25819889 549:0.51639777 550:0.25819889 602:0.25819889 791:0.25819889 2048:0.25819889 3078:0.25819889 #
10 529:1 #
1.6376126613058916703380418766756 19:0.40824831 88:0.40824831 168:0.40824831 1573:0.40824831 3892:0.40824831 3896:0.40824831 #
10 488:0.70710677 1641:0.70710677 #
1.7402370528096788859784282976761 19:0.21320072 28:0.21320072 67:0.42640144 91:0.21320072 105:0.21320072 361:0.21320072 446:0.21320072 547:0.21320072 880:0.21320072 1405:0.21320072 1423:0.21320072 1540:0.21320072 2068:0.21320072 3523:0.21320072 3690:0.21320072 3863:0.21320072 3882:0.21320072 3883:0.21320072 4356:0.21320072 #
3.1997425901141807180749765393557 68:0.44721359 104:0.44721359 1131:0.44721359 3392:0.44721359 3998:0.44721359 #
-2.2487870253358797079101805138635 5:0.2773501 39:0.2773501 77:0.5547002 145:0.2773501 255:0.2773501 425:0.2773501 472:0.2773501 480:0.2773501 1037:0.2773501 1374:0.2773501 #
-2.2533994206755991740465105976909 296:0.5 335:0.5 480:0.5 869:0.5 #
10 91:1 #
8.9687894601289084306472432217561 8:0.57735026 127:0.57735026 620:0.57735026 #
3.7469439752599260629040145431645 2024:1 #
-1.8285891611675342272036459689843 2:0.5 91:0.5 251:0.5 1750:0.5 #
0.12566208863880304336113624685822 91:0.57735026 200:0.57735026 1547:0.57735026 #
3.4270661584004256106084085331531 119:0.57735026 235:0.57735026 1464:0.57735026 #
-2.7652459257551242899353383108974 2:0.57735026 5:0.57735026 155:0.57735026 #
-1.2045111506269319257000915968092 103:0.44721359 492:0.44721359 512:0.44721359 550:0.44721359 1701:0.44721359 #
10 91:0.70710677 96:0.70710677 #
2.0246956202803496616127176821465 8:0.70710677 4021:0.70710677 #
5.1333959082847808730321048642509 7:0.70710677 691:0.70710677 #
2.1573975030409058284419643314322 1:0.30151135 2:0.30151135 708:0.30151135 1588:0.30151135 2079:0.30151135 3384:0.30151135 3719:0.30151135 3720:0.30151135 3772:0.30151135 3921:0.30151135 4232:0.30151135 #
4.2761523407217083558862213976681 120:0.44721359 1612:0.44721359 1641:0.44721359 3387:0.44721359 4366:0.44721359 #
-1.7319870613069963116714689022047 63:0.70710677 3129:0.70710677 #
10 8:0.70710677 148:0.70710677 #
-0.85493805431714009479549076786498 349:0.5 1326:0.5 2082:0.5 2629:0.5 #
1.2363699796853024892584471672308 2:0.33333334 84:0.33333334 433:0.33333334 3698:0.33333334 3928:0.33333334 4006:0.33333334 4015:0.33333334 4087:0.33333334 4273:0.33333334 #
10 383:1 #
10 8:1 #
2.7438172438097145899860151985195 2:0.37796447 148:0.37796447 1096:0.37796447 3564:0.37796447 3707:0.37796447 3950:0.37796447 4022:0.37796447 #
-0.54302878838801571514949273478123 261:0.70710677 642:0.70710677 #
1.4636819058398491399941576673882 8:0.57735026 1561:0.57735026 2018:0.57735026 #
-0.42630057070895244208941221586429 2:0.70710677 2679:0.70710677 #
1.1087200551608962229011012823321 8:0.40824831 939:0.81649661 1486:0.40824831 #
1.4611656718590437797899994620821 8:0.57735026 894:0.57735026 4448:0.57735026 #
-7.2401542538481509225789523043204 441:1 #
-0.15988841368798789588367981195915 3:0.22941573 5:0.45883146 19:0.22941573 155:0.22941573 200:0.22941573 253:0.22941573 275:0.22941573 280:0.22941573 355:0.22941573 445:0.22941573 588:0.22941573 646:0.22941573 972:0.22941573 1012:0.22941573 2045:0.22941573 3220:0.22941573 #
-9.6382347079823258440001154667698 7:0.5 75:0.5 156:0.5 1643:0.5 #
-4.1526866921957363842921040486544 212:1 #
6.7088838406753961152162446524017 2:0.35355338 77:0.70710677 91:0.35355338 1115:0.35355338 4284:0.35355338 #
10 2:0.2773501 3:0.2773501 39:0.2773501 48:0.2773501 75:0.2773501 168:0.2773501 186:0.2773501 196:0.2773501 277:0.2773501 965:0.5547002 #
7.9726372129088813878183827910107 2:0.70710677 1639:0.70710677 #
4.6884438913277977079019365191925 2048:1 #
10 2:0.57735026 91:0.57735026 126:0.57735026 #
-4.7382403276094482436064936337061 2:0.5 91:0.5 669:0.5 2043:0.5 #
-10 1:0.6868028 2:0.13736056 91:0.13736056 627:0.6868028 964:0.13736056 #
-4.0140018368405288029521216230933 2:0.37796447 267:0.37796447 301:0.37796447 2043:0.75592893 #
-6.2525380568309536499782552709803 8:0.70710677 211:0.70710677 #
-8.9520358276024172283769075875171 2:0.44721359 27:0.44721359 50:0.44721359 68:0.44721359 1384:0.44721359 #
10 68:0.57735026 479:0.57735026 2016:0.57735026 #
10 11:0.75592893 133:0.37796447 256:0.37796447 480:0.37796447 #
1.262911686135902211702841668739 31:0.5 63:0.5 144:0.5 915:0.5 #
-5.1853674132909457483719961601309 395:1 #
-1.8982384650742953891011666200939 11:0.5 51:0.5 113:0.5 1698:0.5 #
-8.7492233857321046741617465158924 99:0.70710677 133:0.70710677 #
-2.3236368463912850934605103248032 11:0.57735026 386:0.57735026 511:0.57735026 #
-0.03289014295257761816282382483223 35:0.2773501 89:0.2773501 109:0.2773501 205:0.2773501 400:0.5547002 449:0.2773501 1786:0.2773501 1951:0.2773501 2016:0.2773501 2315:0.2773501 #
-10 1:0.70710677 1641:0.70710677 #
-10 51:0.70710677 495:0.70710677 #
-3.1744537944888824299027874076273 1:0.57735026 1642:0.57735026 3385:0.57735026 #
-10 8:1 #
1.2204625444234042941360485201585 53:0.57735026 741:0.57735026 1428:0.57735026 #
2.9487403955431092938965775829274 157:0.70710677 3810:0.70710677 #
-0.081020558446760052029311793830857 27:0.44721359 49:0.44721359 62:0.44721359 76:0.44721359 656:0.44721359 #
-5.5390391270750756191887376189698 19:0.45883146 62:0.22941573 75:0.22941573 166:0.22941573 280:0.22941573 356:0.22941573 530:0.22941573 546:0.22941573 572:0.22941573 623:0.22941573 628:0.22941573 734:0.22941573 989:0.22941573 1281:0.22941573 1347:0.22941573 1995:0.22941573 #
-2.5063894745304242661632088129409 19:0.67082042 444:0.2236068 472:0.2236068 480:0.2236068 611:0.2236068 865:0.2236068 868:0.2236068 2115:0.2236068 2148:0.2236068 2535:0.2236068 3213:0.2236068 3388:0.2236068 #
-0.21546655045398033223591482965276 2:0.57735026 182:0.57735026 252:0.57735026 #
-2.8279083392767163651626560749719 79:0.22941573 106:0.22941573 145:0.22941573 164:0.22941573 290:0.45883146 292:0.22941573 294:0.22941573 817:0.22941573 1112:0.22941573 1640:0.45883146 2681:0.22941573 2726:0.22941573 3367:0.22941573 #
1.1507578172021957207959985680645 2042:1 #
3.5878255469516338038715730363037 85:0.70710677 3790:0.70710677 #
-6.6843376431979368845759381656535 32:0.70710677 425:0.70710677 #
-5.1806485296298516729507355194073 8:0.5 32:0.5 113:0.5 609:0.5 #
-9.0108523598480445571112795732915 84:0.57735026 87:0.57735026 743:0.57735026 #
-3.8388197064642350930796510510845 5:0.40824831 62:0.40824831 87:0.40824831 340:0.40824831 743:0.40824831 1058:0.40824831 #
-2.9888593754411223457623236754443 1:0.35355338 2:0.35355338 11:0.35355338 71:0.35355338 82:0.35355338 87:0.35355338 883:0.35355338 1039:0.35355338 #
-0.33852839691580532965886618512741 2:0.33333334 9:0.33333334 95:0.33333334 148:0.33333334 224:0.33333334 842:0.33333334 2442:0.33333334 2573:0.33333334 2948:0.33333334 #
7.1490242097271190502283388923388 2:0.26726124 111:0.26726124 115:0.26726124 186:0.26726124 234:0.26726124 622:0.53452247 881:0.26726124 2056:0.26726124 3386:0.26726124 3454:0.26726124 3782:0.26726124 #
-2.2004631523197168974093074211851 2:0.57735026 114:0.57735026 135:0.57735026 #
-0.028241737227663543663425116392318 2:0.57735026 29:0.57735026 2323:0.57735026 #
0.28936335958406655954888719861628 42:0.57735026 115:0.57735026 3430:0.57735026 #
10 10:0.70710677 46:0.35355338 87:0.35355338 883:0.35355338 3511:0.35355338 #
1.9392852717942568041564754821593 87:0.5 477:0.5 3479:0.5 4234:0.5 #
1.8996159858182857238517726727878 2:0.28867513 6:0.28867513 53:0.28867513 87:0.28867513 272:0.28867513 547:0.28867513 3441:0.28867513 3453:0.28867513 3521:0.28867513 3869:0.28867513 4153:0.28867513 4327:0.28867513 #
-10 10:0.70710677 46:0.70710677 #
-0.23081945030740591562334884656593 13:0.37796447 68:0.37796447 104:0.37796447 257:0.37796447 399:0.37796447 465:0.37796447 3273:0.37796447 #
-10 1:0.5 46:0.5 87:0.5 200:0.5 #
-3.8992998833424503679623285279376 9:0.40824831 33:0.40824831 46:0.40824831 317:0.40824831 1389:0.40824831 1644:0.40824831 #
6.2454202378676528795153899409343 11:0.40824831 77:0.40824831 87:0.40824831 391:0.40824831 868:0.40824831 4300:0.40824831 #
-10 11:0.57735026 42:0.57735026 156:0.57735026 #
-2.2576275717298539547073232824914 2:0.44721359 294:0.44721359 319:0.44721359 1076:0.44721359 1380:0.44721359 #
-5.5436614992789339240175650047604 2:1 #
-7.5112833233394473708699479175266 80:0.89442718 90:0.44721359 #
-1.1670612396650079656268417238607 283:1 #
-0.60882307750843311922039902128745 2:0.28867513 12:0.28867513 22:0.28867513 33:0.28867513 61:0.28867513 90:0.28867513 91:0.28867513 129:0.28867513 177:0.28867513 208:0.28867513 655:0.28867513 2760:0.28867513 #
-1.7093833767755806096744208844029 23:0.40824831 75:0.40824831 478:0.40824831 743:0.40824831 2707:0.40824831 2729:0.40824831 #
-6.4145419283986555569754273165017 7:0.70710677 156:0.70710677 #
-1.6893583948704402608598229562631 318:0.70710677 2577:0.70710677 #
-5.6543188214004249658728440408595 2:0.70710677 318:0.70710677 #
-2.010005737499952704894212729414 294:0.57735026 1715:0.57735026 1759:0.57735026 #
-10 81:0.70710677 200:0.70710677 #
-10 7:0.57735026 200:0.57735026 3386:0.57735026 #
-1.0440359434631816260008463359554 353:0.57735026 680:0.57735026 2307:0.57735026 #
1.3143709288050717809426259918837 2:0.40824831 65:0.40824831 91:0.40824831 3699:0.40824831 3781:0.40824831 4136:0.40824831 #
-0.018878496411218415040877971478039 3:0.35355338 159:0.35355338 270:0.35355338 283:0.35355338 672:0.35355338 876:0.35355338 1763:0.35355338 2049:0.35355338 #
-6.833564738748439282289837137796 1:0.5 91:0.5 1641:0.5 3392:0.5 #
-10 8:1 #
-6.1718515181778350608965411083773 5:0.5 147:0.5 223:0.5 628:0.5 #
-1.5464056119922693355306364537682 2:0.37796447 91:0.37796447 126:0.37796447 464:0.37796447 852:0.37796447 1110:0.37796447 2215:0.37796447 #
-6.6173247515751913994108690530993 126:0.57735026 148:0.57735026 617:0.57735026 #
-1.8834362518638312344876339921029 126:0.70710677 1084:0.70710677 #
-10 8:1 #
-0.7017507134270353219562821323052 441:0.70710677 1851:0.70710677 #
1.9999907908027700909059376499499 2:0.5 322:0.5 940:0.5 4500:0.5 #
-0.7217284531567950134345323931484 17:0.2773501 23:0.2773501 104:0.2773501 156:0.2773501 243:0.2773501 250:0.2773501 251:0.2773501 275:0.2773501 325:0.2773501 495:0.2773501 1287:0.2773501 1348:0.2773501 3223:0.2773501 #
-1.9091402907109211728453601608635 23:0.5 218:0.5 241:0.5 559:0.5 #
-10 1:0.5 171:0.5 186:0.5 251:0.5 #
-2.8071059270211469183209374023136 47:1 #
4.5758176788364597342706474591978 1:0.31622776 2:0.31622776 11:0.31622776 274:0.31622776 442:0.31622776 479:0.31622776 949:0.31622776 3379:0.31622776 3389:0.31622776 3559:0.31622776 #
3.8620811391195437600742934591835 2:0.40824831 91:0.40824831 186:0.40824831 209:0.40824831 3460:0.40824831 4370:0.40824831 #
-0.020808858942780839029751405178104 13:0.37796447 62:0.37796447 66:0.37796447 813:0.37796447 1688:0.37796447 1876:0.37796447 3072:0.37796447 #
-3.7594719654107917605756483681034 305:0.5 478:0.5 1156:0.5 1645:0.5 #
-0.70700864992206791104223384536454 2:0.31622776 10:0.31622776 11:0.31622776 27:0.31622776 46:0.31622776 49:0.31622776 87:0.31622776 422:0.31622776 3367:0.31622776 3380:0.31622776 #
-1.2196276864366204506495705572888 261:0.44721359 870:0.44721359 2371:0.44721359 2721:0.44721359 3161:0.44721359 #
-7.0654369522373583478724867745768 1:0.57735026 96:0.57735026 386:0.57735026 #
-5.7468829803503780340179218910635 1:0.35355338 8:0.35355338 19:0.35355338 254:0.35355338 615:0.35355338 620:0.35355338 1652:0.35355338 2663:0.35355338 #
-0.87378394558175620510098724480486 10:0.5 46:0.5 352:0.5 1312:0.5 #
-3.9765300713499729390321135724662 111:0.57735026 1647:0.57735026 1685:0.57735026 #
-4.2174370633571118816007583518513 2:0.40824831 4:0.20412415 88:0.20412415 156:0.20412415 160:0.20412415 250:0.20412415 380:0.20412415 608:0.20412415 626:0.20412415 988:0.20412415 2077:0.40824831 3211:0.20412415 3373:0.20412415 3379:0.20412415 3380:0.40824831 #
-5.8680727828916054988894757116213 19:0.57735026 321:0.57735026 869:0.57735026 #
10 91:1 #
-1.1959454764206980392771129118046 770:1 #
0.57030160737219381950069418962812 1601:0.57735026 4020:0.57735026 4474:0.57735026 #
-4.7056223368450638133708707755432 50:1 #
-10 50:0.57735026 75:0.57735026 1624:0.57735026 #
-0.3313296288381675225309663801454 20:0.5 63:0.5 77:0.5 195:0.5 #
-0.84587264896337632791301075485535 652:0.57735026 2102:0.57735026 2940:0.57735026 #
-3.6329053423405910372423477383563 1:0.35355338 2:0.35355338 11:0.35355338 71:0.35355338 82:0.35355338 87:0.35355338 883:0.35355338 1039:0.35355338 #
-6.4397450167404270970905599824619 9:0.35355338 12:0.35355338 30:0.35355338 62:0.35355338 280:0.35355338 628:0.35355338 664:0.35355338 1165:0.35355338 #
-10 133:1 #
-3.2623865990729012942495046445401 5:0.44721359 3387:0.89442718 #
-3.5031364100177828646565103554167 489:1 #
-1.4785561470814729823075595049886 11:0.57735026 126:0.57735026 3123:0.57735026 #
-0.17874128456545784748854543977359 8:0.28867513 11:0.28867513 54:0.28867513 57:0.28867513 85:0.28867513 119:0.28867513 235:0.28867513 480:0.28867513 548:0.28867513 742:0.28867513 1899:0.28867513 2044:0.28867513 #
-1.0247957510970773231662178659462 2:0.5 7:0.5 13:0.5 390:0.5 #
-2.3217223454234585666711154772202 48:0.40824831 107:0.40824831 294:0.40824831 2005:0.40824831 2040:0.40824831 2107:0.40824831 #
-10 5:0.22941573 28:0.6882472 70:0.22941573 91:0.22941573 95:0.22941573 1110:0.45883146 1638:0.22941573 3391:0.22941573 #
-0.46087519685873828967359600028431 73:0.40824831 185:0.40824831 337:0.40824831 1076:0.40824831 1380:0.40824831 3306:0.40824831 #
-0.8309800674088025917995992131182 2:0.33333334 63:0.33333334 156:0.33333334 200:0.33333334 219:0.33333334 251:0.33333334 1818:0.33333334 3167:0.33333334 3201:0.33333334 #
6.1253463833196137855452434450854 2:0.40824831 200:0.40824831 317:0.40824831 392:0.40824831 969:0.40824831 1639:0.40824831 #
-3.8618574701543315619289842288708 1:0.40824831 91:0.40824831 317:0.40824831 1027:0.40824831 1383:0.40824831 1807:0.40824831 #
-4.8031839961328541832585869997274 6:0.28867513 25:0.28867513 47:0.28867513 49:0.28867513 156:0.57735026 504:0.28867513 1132:0.28867513 1711:0.28867513 3363:0.28867513 #
-0.74260521584278182949390156863956 5:0.37796447 82:0.37796447 320:0.37796447 491:0.37796447 529:0.37796447 547:0.37796447 581:0.37796447 #
-2.2652689670550145706329203676432 157:0.35355338 382:0.35355338 488:0.35355338 497:0.35355338 976:0.35355338 1952:0.35355338 2918:0.35355338 3367:0.35355338 #
-0.2053820918145650709085714424873 247:0.57735026 478:0.57735026 517:0.57735026 #
-0.80524456734178939676382924517384 12:0.35355338 56:0.35355338 64:0.35355338 186:0.35355338 442:0.35355338 630:0.35355338 1141:0.35355338 2167:0.35355338 #
-10 383:1 #
-1.1382503453756931399709628749406 353:0.35355338 786:0.35355338 1776:0.35355338 1935:0.70710677 1982:0.35355338 #
-10 1:0.70710677 91:0.70710677 #
-2.6780746735216278686664281849517 341:0.70710677 386:0.70710677 #
-3.7845735569034033574098430108279 2:0.2236068 5:0.44721359 39:0.2236068 49:0.2236068 194:0.2236068 442:0.2236068 530:0.2236068 582:0.2236068 637:0.2236068 822:0.2236068 868:0.2236068 963:0.2236068 1655:0.44721359 3039:0.2236068 #
-1.4846040503448700853539321542485 42:1 #
0.64554378731051342832358841405949 31:0.44721359 741:0.44721359 1114:0.44721359 3745:0.44721359 4109:0.44721359 #
-10 9:0.57735026 75:0.57735026 321:0.57735026 #
-3.1468189812600546595433570473688 68:0.70710677 2051:0.70710677 #
-1.8287324752091862478664552327245 62:0.44721359 450:0.44721359 839:0.44721359 1032:0.44721359 2001:0.44721359 #
-3.3922468843511390801381821802352 5:0.75592893 353:0.37796447 514:0.37796447 1653:0.37796447 #
-2.7195101904648106838635612803046 5:0.2773501 13:0.2773501 17:0.2773501 77:0.2773501 145:0.2773501 219:0.2773501 232:0.2773501 499:0.2773501 1014:0.2773501 1104:0.2773501 1115:0.2773501 1275:0.2773501 1311:0.2773501 #
-1.2529286652663118584172252667486 5:0.51639777 23:0.25819889 40:0.25819889 63:0.25819889 146:0.25819889 156:0.25819889 256:0.25819889 322:0.25819889 616:0.25819889 870:0.25819889 1641:0.25819889 1817:0.25819889 #
-1.9192052594109378915732122550253 1:0.35355338 71:0.35355338 161:0.35355338 175:0.35355338 209:0.35355338 310:0.35355338 392:0.35355338 2530:0.35355338 #
-0.26491832812311710831920663622441 8:0.35355338 26:0.35355338 32:0.35355338 87:0.35355338 103:0.35355338 246:0.35355338 2255:0.35355338 2952:0.35355338 #
-2.1252986405141194303780594054842 48:0.5 200:0.5 351:0.5 1893:0.5 #
-10 10:0.57735026 46:0.57735026 1640:0.57735026 #
-1.9304090011633061596540983373416 1096:0.70710677 2505:0.70710677 #
-5.5111463845542765227492054691538 1636:1 #
-0.14322675044715632575176300633757 3:0.33333334 61:0.33333334 202:0.33333334 272:0.33333334 342:0.33333334 628:0.33333334 843:0.33333334 2610:0.33333334 3113:0.33333334 #
-1.7297009838686925320416776230559 11:0.31622776 64:0.31622776 77:0.31622776 173:0.31622776 223:0.31622776 548:0.31622776 819:0.31622776 1374:0.31622776 1375:0.31622776 2618:0.31622776 #
-1.5381477956511908633530083534424 61:0.57735026 2461:0.57735026 3341:0.57735026 #
-7.8190889157914549301153783744667 2:0.57735026 495:0.57735026 2023:0.57735026 #
-4.634940363899863413621460495051 1:0.57735026 62:0.57735026 118:0.57735026 #
-9.9323166029153622247349630924873 5:0.5 147:0.5 223:0.5 628:0.5 #
-1.9620780432906481660637609820697 96:0.70710677 2214:0.70710677 #
-0.71131975429204274963268517240067 126:0.5 467:0.5 522:0.5 991:0.5 #
-0.69903163727723072184971897513606 20:0.70710677 421:0.70710677 #
-1.6781934690893958173063538197312 4:0.44721359 20:0.44721359 764:0.44721359 1112:0.44721359 2916:0.44721359 #
-2.2880926619066634941646043444052 48:0.5 200:0.5 351:0.5 1893:0.5 #
-1.7962455475894651968360449245665 138:0.35355338 200:0.35355338 318:0.35355338 513:0.35355338 1794:0.35355338 2024:0.35355338 2764:0.35355338 2958:0.35355338 #
-10 5:0.44721359 394:0.44721359 530:0.44721359 1381:0.44721359 1641:0.44721359 #
-0.91646503803944945332204952137545 5:0.28867513 12:0.57735026 46:0.28867513 91:0.28867513 96:0.28867513 180:0.28867513 291:0.28867513 297:0.28867513 1126:0.28867513 #
-1.476866143346654780543758533895 5:0.44721359 70:0.44721359 156:0.44721359 420:0.44721359 1650:0.44721359 #
-1.6772764458910698337490430276375 124:0.70710677 1632:0.70710677 #
-1.6772008445750892224879180503194 124:0.70710677 1670:0.70710677 #
-0.018383922400619472081739758095864 2:0.31622776 29:0.31622776 40:0.31622776 50:0.31622776 135:0.31622776 1102:0.31622776 1123:0.31622776 1128:0.31622776 1906:0.31622776 3388:0.31622776 #
-1.3088130472428334272194661025424 169:0.30151135 556:0.30151135 579:0.30151135 800:0.30151135 1000:0.30151135 1030:0.30151135 1152:0.30151135 1936:0.30151135 2046:0.30151135 2346:0.30151135 2715:0.30151135 #
-1.5263389491205705539300652162638 32:0.40824831 148:0.40824831 179:0.40824831 1642:0.40824831 1803:0.40824831 2561:0.40824831 #
-2.5016066815473916307155377580784 5:0.35355338 75:0.35355338 215:0.35355338 268:0.35355338 488:0.35355338 550:0.35355338 570:0.35355338 2859:0.35355338 #
-3.2699964180525724621872996067395 8:0.40824831 18:0.40824831 157:0.40824831 448:0.40824831 616:0.40824831 758:0.40824831 #
-2.1347218013381614731827085051918 622:0.70710677 1241:0.70710677 #
-1.0537585163696352452689097844996 20:0.5 63:0.5 77:0.5 195:0.5 #
-0.47323259522361416085090013439185 25:0.5 251:0.5 288:0.5 1008:0.5 #
-1.2078946600356361695816076462506 134:0.2773501 155:0.2773501 294:0.2773501 403:0.2773501 583:0.2773501 1647:0.5547002 1722:0.2773501 2047:0.2773501 2066:0.2773501 2320:0.2773501 #
-1.3689561288911766823161997308489 8:0.70710677 306:0.70710677 #
-1.0675917793903664243515549969743 12:0.35355338 19:0.35355338 34:0.35355338 94:0.35355338 158:0.35355338 510:0.35355338 1728:0.35355338 1933:0.35355338 #
-0.81270756294630441818327426517499 22:0.31622776 77:0.31622776 94:0.31622776 103:0.31622776 151:0.31622776 157:0.31622776 178:0.31622776 226:0.31622776 459:0.31622776 868:0.31622776 #
-1.976136334561549467991881101625 8:0.70710677 1323:0.70710677 #
-0.99437762596221368482929392484948 2:0.39223227 1063:0.19611613 1708:0.39223227 1754:0.19611613 1909:0.19611613 2022:0.58834839 2032:0.19611613 2452:0.19611613 2966:0.19611613 3000:0.19611613 3020:0.19611613 3294:0.19611613 #
-2.3304452827093022904136887518689 1:0.35355338 25:0.35355338 87:0.35355338 104:0.35355338 257:0.35355338 601:0.35355338 969:0.35355338 1829:0.35355338 #
-0.007271487715118422900939521014152 11:0.31622776 22:0.31622776 85:0.31622776 142:0.31622776 169:0.31622776 253:0.31622776 398:0.31622776 448:0.31622776 2772:0.31622776 3065:0.31622776 #
-9.7838349348247923842336604138836 1:0.35355338 2:0.35355338 77:0.35355338 91:0.35355338 303:0.35355338 529:0.35355338 868:0.35355338 1102:0.35355338 #
-9.9926346962877303781169757712632 2:0.70710677 559:0.70710677 #
10 27:0.57735026 49:0.57735026 1382:0.57735026 #
10 32:0.70710677 1374:0.70710677 #
10 28:0.40824831 171:0.81649661 444:0.40824831 #
10 276:1 #
0.23611959360329559665103715815349 346:0.37796447 393:0.37796447 620:0.37796447 1373:0.37796447 3464:0.37796447 4079:0.37796447 4318:0.37796447 #
-2.4916919079089341337862606451381 1666:0.57735026 2048:0.57735026 3250:0.57735026 #
-5.0620044825024734791441005654633 127:1 #
-3.131518635767783997891910985345 36:0.40824831 279:0.40824831 373:0.40824831 388:0.40824831 442:0.40824831 611:0.40824831 #
6.5316802166880343349930626573041 2:0.37796447 32:0.37796447 51:0.37796447 1618:0.37796447 2043:0.37796447 3377:0.37796447 3388:0.37796447 #
10 1:0.37796447 2:0.37796447 62:0.37796447 75:0.37796447 234:0.37796447 478:0.37796447 743:0.37796447 #
9.1824108102885375615187513176352 1:0.35355338 2:0.35355338 50:0.35355338 110:0.35355338 177:0.35355338 200:0.35355338 240:0.35355338 1097:0.35355338 #
-1.3372743641161553007634665846126 1:0.5 1752:0.5 2016:0.5 2607:0.5 #
-7.1904775753900178614230753737502 32:0.70710677 425:0.70710677 #
-1.1399664767039721091634874028387 1:0.44721359 172:0.44721359 735:0.44721359 1392:0.44721359 1657:0.44721359 #
-0.21804156619866099653393121116096 2:0.20851441 8:0.20851441 12:0.20851441 43:0.41702881 135:0.20851441 193:0.20851441 369:0.20851441 389:0.20851441 422:0.20851441 615:0.41702881 1102:0.20851441 1150:0.20851441 1723:0.20851441 1740:0.20851441 1788:0.20851441 2719:0.20851441 2818:0.20851441 #
-4.5919714256451316103380122513045 2:0.25 87:0.5 91:0.25 603:0.25 636:0.25 741:0.5 881:0.25 975:0.25 1051:0.25 1139:0.25 #
-10 2:0.70710677 548:0.70710677 #
-9.7332402110857643151575757656246 1:0.57735026 91:0.57735026 2056:0.57735026 #
-0.41070703943724562456907278829021 6:0.28867513 12:0.57735026 61:0.28867513 130:0.28867513 885:0.28867513 1363:0.28867513 1753:0.28867513 2031:0.28867513 2925:0.28867513 #
-1.1212143835044519057930756389396 2:0.44721359 1758:0.44721359 1780:0.44721359 1816:0.44721359 3360:0.44721359 #
-1.5138995835472925932663201820105 2:0.31622776 48:0.31622776 118:0.31622776 177:0.31622776 516:0.31622776 1702:0.31622776 2004:0.63245553 #
-2.1534733516400779151922506571282 82:0.57735026 1742:0.57735026 3377:0.57735026 #
-2.5180438246696263959734096715692 2:0.31622776 1009:0.31622776 1108:0.63245553 1196:0.31622776 2017:0.31622776 2441:0.31622776 2891:0.31622776 #
-5.1428918377030621300605162105057 165:0.86602539 393:0.28867513 427:0.28867513 490:0.28867513 #
-3.4133022776354229321782440820243 1:0.30151135 2:0.30151135 156:0.30151135 377:0.60302269 741:0.30151135 868:0.30151135 1639:0.30151135 1640:0.30151135 #
-0.58554452712647631074105447623879 1:0.33333334 2:0.33333334 11:0.33333334 21:0.33333334 820:0.33333334 1091:0.33333334 1922:0.33333334 2050:0.33333334 2679:0.33333334 #
-1.4993883167598696104505506809801 51:0.40824831 1040:0.81649661 2062:0.40824831 #
-1.7921337166522333106399855751079 479:0.57735026 2027:0.57735026 2443:0.57735026 #
-1.7023691362905823964979390439112 2:0.44721359 1719:0.44721359 2048:0.44721359 2325:0.44721359 3075:0.44721359 #
-2.4996716004192753857182651699986 2:0.44721359 209:0.44721359 442:0.44721359 600:0.44721359 611:0.44721359 #
-0.50477633190456194789419441804057 2:0.40824831 7:0.40824831 61:0.40824831 91:0.40824831 1273:0.40824831 3389:0.40824831 #
-1.6070774860802554684369169990532 8:0.5 188:0.5 765:0.5 2028:0.5 #
-0.058663204101092603082179266493767 8:0.40824831 180:0.40824831 188:0.40824831 385:0.40824831 884:0.40824831 2000:0.40824831 #
-0.71444904263889508211349266275647 120:0.37796447 172:0.37796447 210:0.37796447 334:0.37796447 382:0.37796447 468:0.37796447 594:0.37796447 #
-2.1449950740061631826449684012914 2:0.37796447 87:0.37796447 91:0.37796447 525:0.37796447 555:0.37796447 1270:0.37796447 3130:0.37796447 #
-5.8115562421359499012396554462612 43:0.31622776 70:0.31622776 77:0.63245553 145:0.31622776 744:0.31622776 868:0.31622776 1115:0.31622776 #
-0.0058638240724242507440067129209638 2:0.57735026 111:0.57735026 1627:0.57735026 #
-8.6011368437348245663542911643162 2:1 #
-10 42:0.70710677 111:0.70710677 #
-2.0639335256022088849192641646368 5:0.37796447 172:0.37796447 501:0.37796447 674:0.37796447 1801:0.37796447 1890:0.37796447 2016:0.37796447 #
-2.539835823287744709375601814827 25:0.57735026 615:0.57735026 1317:0.57735026 #
-1.1427163416367938086892763749347 2036:0.5 2252:0.5 2403:0.5 2571:0.5 #
-1.2279870535135997133835417116643 2:0.35355338 87:0.35355338 353:0.35355338 403:0.35355338 1824:0.35355338 2016:0.35355338 2615:0.35355338 3376:0.35355338 #
-0.26341917665945402404759079217911 19:0.31622776 62:0.31622776 122:0.31622776 268:0.31622776 311:0.31622776 453:0.31622776 570:0.31622776 1337:0.31622776 1362:0.31622776 1365:0.31622776 #
-0.71773168596810266173235959286103 19:0.5 474:0.5 1080:0.5 1345:0.5 #
-0.11004906985504045446866427937493 6:0.28867513 12:0.57735026 61:0.28867513 130:0.28867513 885:0.28867513 1363:0.28867513 1753:0.28867513 2031:0.28867513 2925:0.28867513 #
-0.080856491949850894940254875109531 2:0.2773501 5:0.2773501 11:0.2773501 13:0.2773501 46:0.2773501 75:0.2773501 95:0.2773501 130:0.2773501 194:0.2773501 245:0.2773501 413:0.2773501 1112:0.2773501 1349:0.2773501 #
-9.2676856127507427629552694270387 27:0.57735026 49:0.57735026 1382:0.57735026 #
-3.3535881557314608514275278139394 8:0.37796447 35:0.37796447 94:0.37796447 181:0.37796447 1374:0.37796447 2633:0.37796447 2807:0.37796447 #
0.16105163134652816792069529583387 21:0.60302269 23:0.30151135 889:0.30151135 1555:0.30151135 3365:0.30151135 3701:0.30151135 3821:0.30151135 4257:0.30151135 #
10 7:0.70710677 200:0.70710677 #
5.7055652689552669443173726904206 475:0.5 617:0.5 2057:0.5 3669:0.5 #
4.1731742224748327174665973871015 166:0.44721359 254:0.44721359 1625:0.44721359 1652:0.44721359 4203:0.44721359 #
10 7:0.57735026 1106:0.57735026 1641:0.57735026 #
2.8676645366353308297391322412295 210:0.57735026 393:0.57735026 2062:0.57735026 #
-2.1067097428940182446410744887544 1:0.40824831 478:0.81649661 2302:0.40824831 #
-1.0919856694037872735236760490807 276:0.57735026 363:0.57735026 1189:0.57735026 #
-6.7671603730261278286661763559096 134:0.70710677 276:0.70710677 #
6.7852134423226306836340882000513 2:0.30151135 27:0.60302269 185:0.30151135 2017:0.60302269 2056:0.30151135 #
2.5684240883556666013021185790421 27:0.57735026 1495:0.57735026 4498:0.57735026 #
6.2760853162567205032473793835379 2:0.35355338 27:0.70710677 46:0.35355338 140:0.35355338 3449:0.35355338 #
4.8165026817744944764854153618217 27:0.5 144:0.5 545:0.5 3990:0.5 #
6.5486085751510465513547387672588 134:0.57735026 141:0.57735026 142:0.57735026 #
1.8781896937589934726275942011853 35:0.40824831 46:0.40824831 290:0.40824831 1512:0.40824831 1583:0.40824831 4453:0.40824831 #
10 94:0.57735026 1132:0.57735026 1648:0.57735026 #
10 8:0.70710677 46:0.70710677 #
-10 1:0.33333334 2:0.33333334 19:0.33333334 116:0.33333334 154:0.33333334 171:0.33333334 545:0.33333334 732:0.33333334 2046:0.33333334 #
-0.10868444330801962927068871067604 2:0.33333334 266:0.33333334 356:0.33333334 407:0.66666669 852:0.33333334 1655:0.33333334 #
-10 31:0.70710677 85:0.70710677 #
-1.3923819227743083892789854871808 31:0.5 159:0.5 391:0.5 1727:0.5 #
-0.87392893440360785994869274873054 19:0.70710677 1344:0.70710677 #
4.5286687820596700504438558709808 50:0.5 186:0.5 709:0.5 885:0.5 #
10 5:1 #
10 9:0.57735026 75:0.57735026 321:0.57735026 #
10 320:1 #
-10 27:0.44721359 77:0.44721359 82:0.44721359 96:0.44721359 1374:0.44721359 #
7.3450271211195277132333103509154 8:0.44721359 43:0.44721359 441:0.44721359 480:0.44721359 4380:0.44721359 #
1.518768594386048276234646436933 19:0.5 907:0.5 937:0.5 3858:0.5 #
6.6045800916814307868207833962515 2046:1 #
10 96:1 #
3.4628510043712057431264383922098 23:0.5 1633:0.5 3576:0.5 4270:0.5 #
-10 111:1 #
-10 132:1 #
2.5983183915780068140577441226924 27:0.5 75:0.5 1470:0.5 3424:0.5 #
2.7432401265442765136981506657321 156:0.70710677 3363:0.70710677 #
-1.997126922912727309267211239785 587:0.70710677 1382:0.70710677 #
-2.0169192120988426175642871385207 6:0.2236068 8:0.2236068 11:0.2236068 12:0.44721359 13:0.2236068 32:0.2236068 75:0.2236068 91:0.2236068 114:0.2236068 156:0.2236068 271:0.2236068 276:0.2236068 741:0.2236068 1641:0.44721359 #
4.5334228781709375866171285451856 10:0.75592893 2040:0.37796447 3419:0.37796447 4067:0.37796447 #
1.9397949068311499676298126360052 17:0.35355338 628:0.35355338 968:0.35355338 1113:0.35355338 1396:0.35355338 1615:0.35355338 2045:0.35355338 3594:0.35355338 #
1.607200253214982277327749216056 490:0.37796447 727:0.37796447 1381:0.37796447 1446:0.37796447 1566:0.37796447 3940:0.37796447 4090:0.37796447 #
2.3905831307713318878427344316151 13:0.35355338 18:0.35355338 75:0.35355338 1497:0.70710677 4375:0.35355338 #
-2.2605990909323843141010002000257 9:0.35355338 75:0.35355338 171:0.35355338 280:0.35355338 444:0.35355338 520:0.35355338 1834:0.35355338 1883:0.35355338 #
-0.81241342086364132235587476316141 26:0.23570226 74:0.47140452 132:0.47140452 407:0.23570226 1676:0.47140452 3189:0.47140452 #
-0.54143421274209346805150744330604 276:0.70710677 583:0.70710677 #
6.852681790958331298213579430012 5:0.5 23:0.5 628:0.5 1558:0.5 #
10 5:0.57735026 12:0.57735026 546:0.57735026 #
2.899938553525495343876627885038 7:0.22941573 88:0.22941573 106:0.22941573 322:0.22941573 441:0.22941573 543:0.22941573 619:0.22941573 868:0.22941573 952:0.22941573 1581:0.22941573 1602:0.22941573 2044:0.45883146 3649:0.22941573 4004:0.22941573 4106:0.22941573 4286:0.22941573 #
-0.70212454510521449257964832213474 150:0.70710677 974:0.70710677 #
-0.98410725413808042283392296667444 103:0.70710677 1959:0.70710677 #
10 280:1 #
1.9544534228210792559110586807947 51:0.44721359 280:0.44721359 956:0.44721359 3498:0.44721359 3899:0.44721359 #
1.8263405935204977126318226510193 2:0.33333334 8:0.33333334 16:0.33333334 91:0.33333334 156:0.33333334 422:0.33333334 888:0.33333334 3412:0.33333334 3733:0.33333334 #
2.5880249259097980463195654010633 124:0.5 1521:0.5 1538:0.5 2034:0.5 #
-0.71788309131296190734872197936056 150:0.70710677 276:0.70710677 #
-1.6569740663333021313263770935009 396:0.70710677 2419:0.70710677 #
10 5:0.44721359 394:0.44721359 530:0.44721359 1381:0.44721359 1641:0.44721359 #
7.4704769453675350376897768001072 5:0.75592893 87:0.37796447 1641:0.37796447 4199:0.37796447 #
2.0622601233214270521898470178712 109:0.57735026 1641:0.57735026 3582:0.57735026 #
1.1518954235092306870313905164949 394:0.57735026 2071:0.57735026 3519:0.57735026 #
1.5699500327682778255677931156242 616:0.70710677 4253:0.70710677 #
0.95265727145397349762134808770497 5:0.70710677 255:0.35355338 530:0.35355338 900:0.35355338 2078:0.35355338 #
1.7646879732364089132801154846675 5:0.57735026 726:0.57735026 1444:0.57735026 #
-0.40980602909457675142590460382053 27:0.44721359 49:0.44721359 62:0.44721359 76:0.44721359 656:0.44721359 #
6.6466980161009470151611822075211 15:0.5 155:0.5 1110:0.5 4266:0.5 #
0.83648246068443654621660243719816 435:0.5 553:0.5 954:0.5 1476:0.5 #
1.9949758916701483268951733407448 437:0.70710677 1640:0.70710677 #
5.8706333898223839184993266826496 51:0.57735026 145:0.57735026 2073:0.57735026 #
3.3268512532428764494341066892957 91:0.57735026 347:0.57735026 3431:0.57735026 #
-0.7585346034009798898978260695003 1:0.40824831 2:0.40824831 77:0.40824831 446:0.40824831 1240:0.40824831 2875:0.40824831 #
2.8694991483004685939306455111364 133:0.57735026 364:0.57735026 932:0.57735026 #
0.18014697272026497509855857970251 539:0.40824831 1517:0.40824831 1557:0.40824831 2016:0.40824831 4135:0.40824831 4412:0.40824831 #
1.9437678286644886060940962124732 19:0.26726124 110:0.26726124 385:0.53452247 440:0.53452247 723:0.26726124 905:0.26726124 1567:0.26726124 1570:0.26726124 #
2.2574180605569282853650747711072 4:0.26726124 394:0.26726124 481:0.26726124 696:0.26726124 710:0.26726124 2016:0.26726124 3376:0.53452247 4130:0.53452247 #
1.9137571046332444435478237210191 253:0.57735026 881:0.57735026 3500:0.57735026 #
10 495:1 #
-0.064175511902362702976176933589159 19:0.5 30:0.5 130:0.5 1000:0.5 #
2.107843015259897256896692852024 317:0.70710677 4080:0.70710677 #
2.5237098632001782050338078988716 2051:0.70710677 3372:0.70710677 #
10 7:0.30151135 91:0.60302269 154:0.30151135 479:0.60302269 2043:0.30151135 #
2.2997589758578484975259925704449 2077:1 #
10 387:0.70710677 2035:0.70710677 #
3.1725120492262246507664258388104 165:0.70710677 1611:0.70710677 #
0.27475849676995212078622898843605 125:0.70710677 868:0.70710677 #
3.0831230231765598404081174521707 2:0.35355338 115:0.35355338 132:0.35355338 169:0.35355338 212:0.35355338 382:0.35355338 1474:0.35355338 4233:0.35355338 #
-0.88635436367436715165979421726661 276:0.70710677 1636:0.70710677 #
2.5878117026390055066542572603794 312:0.33333334 558:0.66666669 687:0.33333334 1544:0.33333334 4208:0.33333334 4254:0.33333334 #
2.3074382115432316986414207349299 1109:0.70710677 1585:0.70710677 #
2.3103838628886772532666782353772 445:0.70710677 4438:0.70710677 #
1.0820858355175084763999393544509 389:0.70710677 953:0.70710677 #
0.92568642145156554423834904810064 624:0.5 2060:0.5 3799:0.5 4455:0.5 #
0.1198479968615423635336370011828 540:0.70710677 1405:0.70710677 #
10 74:1 #
8.2397579514429182268031581770629 109:0.70710677 1655:0.70710677 #
1.0279494966652473753043750548386 5:0.40824831 45:0.40824831 549:0.40824831 725:0.40824831 2064:0.40824831 2078:0.40824831 #
-10 11:0.70710677 477:0.70710677 #
1.4979111476216699916363950251252 11:0.40824831 16:0.40824831 422:0.40824831 924:0.40824831 3682:0.40824831 4354:0.40824831 #
3.4564900479359099705334301688708 5:0.57735026 7:0.28867513 75:0.28867513 1427:0.28867513 1469:0.28867513 1492:0.28867513 3783:0.28867513 4071:0.28867513 4335:0.28867513 #
-4.7020724645977765021598315797746 74:0.89442718 2939:0.44721359 #
-1.2294334516195473128163939691149 5:0.35355338 145:0.35355338 224:0.35355338 385:0.35355338 488:0.35355338 1055:0.35355338 1350:0.35355338 1796:0.35355338 #
-2.1839550647105108183154698053841 6:0.40824831 12:0.40824831 235:0.40824831 546:0.40824831 993:0.40824831 1697:0.40824831 #
-10 387:0.70710677 2035:0.70710677 #
10 559:1 #
6.1679532749046028783368456060998 11:0.33333334 19:0.33333334 99:0.33333334 171:0.33333334 251:0.33333334 257:0.33333334 357:0.33333334 3406:0.33333334 3770:0.33333334 #
10 111:1 #
4.6356092730007381064183391572442 82:0.70710677 483:0.70710677 #
1.6667723752132044268137178733014 87:0.57735026 1378:0.57735026 3809:0.57735026 #
-10 7:0.57735026 1106:0.57735026 1641:0.57735026 #
-5.4986279436837834921902867790777 109:0.70710677 139:0.70710677 #
-4.2887530548179046974155426141806 7:0.70710677 322:0.70710677 #
-0.42481769489041409926244341477286 7:0.57735026 741:0.57735026 3050:0.57735026 #
10 2:0.28867513 6:0.28867513 32:0.28867513 51:0.28867513 63:0.28867513 113:0.57735026 424:0.28867513 495:0.28867513 742:0.28867513 #
10 13:0.44721359 200:0.44721359 442:0.44721359 964:0.44721359 3386:0.44721359 #
5.6703673542032166920989766367711 8:0.5 59:0.5 2023:0.5 3390:0.5 #
-2.8531492948898389272471831645817 2:0.5 13:0.5 2057:0.5 2281:0.5 #
-10 475:0.70710677 479:0.70710677 #
-6.0397263285486539885482670797501 2:0.37796447 81:0.37796447 200:0.37796447 379:0.75592893 #
-10 13:1 #
4.4284236817379101225355952919926 132:0.5 1641:0.5 2065:0.5 3381:0.5 #
-0.5759677865749730507616277463967 2:0.2773501 5:0.2773501 11:0.2773501 13:0.2773501 46:0.2773501 75:0.2773501 95:0.2773501 130:0.2773501 194:0.2773501 245:0.2773501 413:0.2773501 1112:0.2773501 1349:0.2773501 #
-3.8801354027886323372342758375453 3:0.33333334 69:0.33333334 1374:0.33333334 1641:0.33333334 1700:0.33333334 3381:0.66666669 #
3.0208417036558325996509211108787 13:0.5 49:0.5 3425:0.5 3458:0.5 #
10 156:1 #
-1.2521800750321545603327422213624 394:0.70710677 1895:0.70710677 #
-2.3337120440265137766289171850076 253:0.70710677 1662:0.70710677 #
7.7198839878073322040563652990386 1:0.28867513 2:0.28867513 111:0.28867513 149:0.28867513 197:0.57735026 1382:0.28867513 1389:0.28867513 1646:0.28867513 4402:0.28867513 #
-3.5150788924944786906223725964082 1:0.17407766 5:0.17407766 13:0.17407766 22:0.34815532 74:0.34815532 75:0.17407766 130:0.17407766 530:0.17407766 1282:0.17407766 1641:0.69631064 2020:0.17407766 2346:0.17407766 #
-4.1348829468635042161395176663063 5:0.40824831 66:0.40824831 295:0.40824831 423:0.40824831 611:0.40824831 1325:0.40824831 #
2.6922031952718019631731749541359 25:0.40824831 251:0.40824831 530:0.40824831 1529:0.40824831 3773:0.40824831 4195:0.40824831 #
2.0267103023027095431984889728483 157:0.57735026 4149:0.57735026 4332:0.57735026 #
10 2:0.30151135 8:0.60302269 25:0.30151135 171:0.60302269 444:0.30151135 #
-2.1652423735306971508407514193095 8:0.35355338 74:0.70710677 157:0.35355338 375:0.35355338 444:0.35355338 #
-8.1262051193453164188440496218391 28:0.70710677 444:0.70710677 #
0.067843804052502842960592488452676 116:0.35355338 712:0.70710677 1460:0.35355338 1580:0.35355338 4019:0.35355338 #
2.0846730257314152190417644305853 611:0.57735026 1128:0.57735026 4066:0.57735026 #
-10 2:1 #
-2.9157151276735495670777709165122 5:0.57735026 87:0.57735026 2092:0.57735026 #
-0.4287763227128997267634247236856 5:0.40824831 62:0.40824831 142:0.40824831 331:0.40824831 338:0.40824831 461:0.40824831 #
0.95351629221871869734883375713252 879:0.70710677 1482:0.70710677 #
-1.822076475121084726538356335368 8:0.25 74:0.5 109:0.25 170:0.25 191:0.25 293:0.25 355:0.25 667:0.25 1034:0.25 1109:0.25 1761:0.25 2311:0.25 2890:0.25 #
-0.012763656748348953945404460341706 5:0.48507124 10:0.24253562 48:0.24253562 66:0.24253562 108:0.24253562 113:0.24253562 291:0.24253562 351:0.24253562 384:0.24253562 423:0.24253562 512:0.24253562 611:0.24253562 628:0.24253562 729:0.24253562 #
-0.26426061306731096767208555320394 5:0.44721359 96:0.44721359 467:0.44721359 1974:0.44721359 2728:0.44721359 #
0.62252084302655685821292763648671 237:0.40824831 1653:0.81649661 2079:0.40824831 #
-1.1745269325236107338383817477734 387:1 #
3.2195519773573706423519524832955 1:0.40824831 75:0.40824831 442:0.40824831 1641:0.40824831 3642:0.40824831 4242:0.40824831 #
-10 2:0.57735026 558:0.57735026 1641:0.57735026 #
-1.2335003227619680821192105213413 486:0.57735026 1267:0.57735026 3233:0.57735026 #
-1.24888477443131562516498433979 347:0.70710677 2101:0.70710677 #
-0.014985766401028222105651366291568 2:0.5 600:0.5 1655:0.5 1841:0.5 #
1.2088829537734095964651714893989 133:0.35355338 152:0.35355338 936:0.70710677 1586:0.35355338 4439:0.35355338 #
-0.87563806633725316252991888177348 96:0.40824831 872:0.40824831 1747:0.81649661 #
-1.5752502899876348330110431561479 32:0.37796447 106:0.37796447 164:0.37796447 212:0.37796447 456:0.37796447 835:0.37796447 1094:0.37796447 #
-1.6947429878903383926314063501195 32:0.70710677 3141:0.70710677 #
-1.283646538728490549274852128292 13:0.44721359 30:0.44721359 1760:0.44721359 2170:0.44721359 3305:0.44721359 #
-0.054408500519853103538636673874862 1:0.5 2045:0.5 2463:0.5 2874:0.5 #
-1.1966584090304190901576930627925 2354:0.70710677 2972:0.70710677 #
-1.1956651499499990620734024560079 2826:1 #
-0.37624698254984295653358117306198 2:0.5 4:0.5 113:0.5 244:0.5 #
-1.1957938840366164612305510672741 1686:1 #
-0.6506059949783788987076604826143 26:0.37796447 95:0.37796447 493:0.37796447 617:0.37796447 1132:0.37796447 1374:0.37796447 1986:0.37796447 #
-1.196531281947877278781788845663 1884:1 #
0.2626688327188753113716757070506 237:0.37796447 364:0.37796447 705:0.37796447 2067:0.75592893 #
-1.7881885475624115233728161911131 145:0.70710677 3264:0.70710677 #
-3.7947241375711326938358070037793 5:0.31622776 22:0.31622776 30:0.31622776 90:0.31622776 145:0.31622776 184:0.31622776 397:0.31622776 552:0.31622776 611:0.31622776 731:0.31622776 #
-1.1972466946771236351310108148027 816:1 #
-1.196435031555804107128437863139 228:0.70710677 1202:0.70710677 #
-1.196688243923308192506738123484 370:1 #
-1.3089488592844142900162296427879 2:0.44721359 30:0.44721359 653:0.44721359 1853:0.44721359 3043:0.44721359 #
-1.196809604298606277694716482074 2549:1 #
-1.196968265077398285711751668714 1977:1 #
-0.92752509502605162694521823141258 1056:1 #
-1.1970064933523956174354907489032 1938:1 #
-1.1970324099461486788698039163137 1231:1 #
