SVM-light Version V6.02
0 # kernel type
3 # kernel parameter -d 
1 # kernel parameter -g 
1 # kernel parameter -s 
1 # kernel parameter -r 
empty# kernel parameter -u 
3000 # highest feature index 
3565 # number of training documents 
2734 # number of support vectors plus 1 
-0.039621141 # threshold b, each following line is a SV (starting with alpha*y)
0.52004801100387898493693228374468 882:1 #
-1.0000000241417625890250064912834 1582:0.57735026 2446:0.57735026 2955:0.57735026 #
-1.0000000241417625890250064912834 210:0.70710677 1445:0.70710677 #
0.58347298182345197492537636207999 2662:1 #
-1.0000000241417625890250064912834 776:0.5 853:0.5 960:0.5 2149:0.5 #
-0.066245294669722121216892674055998 372:0.44721359 705:0.44721359 1760:0.44721359 1920:0.44721359 2109:0.44721359 #
0.5573398116643136779302381000889 2934:1 #
-0.58969740374488333056746114380076 367:0.33333334 641:0.33333334 683:0.33333334 798:0.33333334 950:0.33333334 1159:0.33333334 1967:0.33333334 2365:0.33333334 2460:0.33333334 #
1.0000000241417625890250064912834 1409:0.57735026 1431:0.57735026 2410:0.57735026 #
1.0000000241417625890250064912834 344:0.40824831 1475:0.81649661 2812:0.40824831 #
-0.50731776116508919827197132690344 130:0.40824831 1231:0.40824831 1359:0.40824831 1848:0.40824831 2934:0.40824831 2981:0.40824831 #
-1.0000000241417625890250064912834 956:0.40824831 1089:0.40824831 1142:0.40824831 2460:0.40824831 2531:0.40824831 2934:0.40824831 #
-1.0000000241417625890250064912834 1021:0.70710677 1431:0.70710677 #
-1.0000000241417625890250064912834 1431:0.70710677 2570:0.70710677 #
-1.0000000241417625890250064912834 538:0.70710677 2829:0.70710677 #
1.0000000241417625890250064912834 210:0.70710677 1153:0.70710677 #
1.0000000241417625890250064912834 210:1 #
-1.0000000241417625890250064912834 210:1 #
-1.0000000241417625890250064912834 210:0.70710677 1153:0.70710677 #
1.0000000241417625890250064912834 454:1 #
1.0000000241417625890250064912834 287:0.70710677 1445:0.70710677 #
0.26468966023088119632333814479352 1089:0.44721359 2484:0.44721359 2559:0.44721359 2578:0.44721359 2666:0.44721359 #
1.0000000241417625890250064912834 843:0.40824831 1229:0.81649661 2044:0.40824831 #
1.0000000241417625890250064912834 182:0.70710677 529:0.70710677 #
-1.0000000241417625890250064912834 287:0.37796447 529:0.75592893 2039:0.37796447 2282:0.37796447 #
-1.0000000241417625890250064912834 254:0.15249857 329:0.15249857 1190:0.15249857 1524:0.60999429 1537:0.30499715 2150:0.60999429 2231:0.30499715 #
-1.0000000241417625890250064912834 287:0.40824831 329:0.40824831 494:0.40824831 602:0.40824831 2150:0.40824831 2697:0.40824831 #
-0.82701101401151966285851813154295 527:0.37796447 948:0.37796447 1042:0.37796447 1677:0.37796447 2154:0.37796447 2316:0.37796447 2934:0.37796447 #
-1.0000000241417625890250064912834 287:1 #
1.0000000241417625890250064912834 210:1 #
1.0000000241417625890250064912834 210:0.57735026 1153:0.57735026 2662:0.57735026 #
1.0000000241417625890250064912834 210:0.44721359 428:0.44721359 756:0.44721359 1153:0.44721359 2572:0.44721359 #
-1.0000000241417625890250064912834 210:0.57735026 1153:0.57735026 2662:0.57735026 #
-1.0000000241417625890250064912834 210:0.44721359 428:0.44721359 756:0.44721359 1153:0.44721359 2572:0.44721359 #
-1.0000000241417625890250064912834 210:1 #
1.0000000241417625890250064912834 287:1 #
-1.0000000241417625890250064912834 210:1 #
1.0000000241417625890250064912834 2829:1 #
0.32556212879344009758497691109369 868:0.44721359 2307:0.89442718 #
1.0000000241417625890250064912834 210:1 #
1.0000000241417625890250064912834 210:0.70710677 2150:0.70710677 #
-0.63089538477470552546577664543292 586:0.44721359 1012:0.89442718 #
-1.0000000241417625890250064912834 287:1 #
1.0000000241417625890250064912834 2829:1 #
1.0000000241417625890250064912834 527:1 #
-1.0000000241417625890250064912834 182:0.70710677 529:0.70710677 #
-1.0000000241417625890250064912834 527:0.70710677 920:0.70710677 #
1.0000000241417625890250064912834 287:1 #
-1.0000000241417625890250064912834 287:1 #
1.0000000241417625890250064912834 948:1 #
1.0000000241417625890250064912834 2316:1 #
1.0000000241417625890250064912834 550:1 #
1.0000000241417625890250064912834 130:0.57735026 956:0.57735026 2697:0.57735026 #
1.0000000241417625890250064912834 818:0.44721359 1042:0.44721359 1566:0.44721359 2316:0.44721359 2661:0.44721359 #
1.0000000241417625890250064912834 287:1 #
1.0000000241417625890250064912834 329:0.44721359 1142:0.89442718 #
1.0000000241417625890250064912834 314:0.40824831 329:0.40824831 650:0.40824831 1153:0.40824831 1825:0.40824831 2572:0.40824831 #
1.0000000241417625890250064912834 329:0.70710677 1190:0.70710677 #
1.0000000241417625890250064912834 210:0.40824831 655:0.40824831 683:0.40824831 956:0.40824831 1462:0.40824831 2531:0.40824831 #
1.0000000241417625890250064912834 1431:0.70710677 2570:0.70710677 #
1.0000000241417625890250064912834 287:0.31622776 466:0.31622776 818:0.31622776 1431:0.63245553 1862:0.31622776 2460:0.31622776 2845:0.31622776 #
1.0000000241417625890250064912834 287:0.70710677 2697:0.70710677 #
1.0000000241417625890250064912834 210:0.40824831 287:0.81649661 397:0.40824831 #
1.0000000241417625890250064912834 527:0.70710677 920:0.70710677 #
1.0000000241417625890250064912834 529:1 #
1.0000000241417625890250064912834 130:0.35355338 527:0.35355338 613:0.35355338 714:0.35355338 920:0.35355338 1819:0.35355338 2121:0.35355338 2460:0.35355338 #
1.0000000241417625890250064912834 1848:0.70710677 2460:0.70710677 #
1.0000000241417625890250064912834 269:0.44721359 527:0.44721359 1069:0.44721359 1089:0.44721359 2460:0.44721359 #
1.0000000241417625890250064912834 1359:1 #
1.0000000241417625890250064912834 627:0.57735026 1021:0.57735026 2819:0.57735026 #
-0.4271149276014951090552074219886 126:0.33333334 683:0.33333334 1420:0.33333334 1588:0.33333334 1771:0.33333334 1825:0.33333334 2009:0.33333334 2330:0.33333334 2734:0.33333334 #
-1.0000000241417625890250064912834 287:0.37796447 314:0.37796447 1760:0.37796447 2460:0.75592893 #
-1.0000000241417625890250064912834 58:0.35355338 329:0.35355338 347:0.35355338 627:0.35355338 940:0.35355338 1431:0.35355338 1591:0.35355338 2819:0.35355338 #
-0.58271969510106902401247452871758 397:0.2773501 700:0.2773501 1312:0.2773501 2460:0.83205032 2856:0.2773501 #
-1.0000000241417625890250064912834 321:0.37796447 627:0.37796447 2150:0.37796447 2166:0.37796447 2168:0.37796447 2460:0.37796447 2819:0.37796447 #
1.0000000241417625890250064912834 2039:1 #
0.80357642632268055926658689713804 529:0.57735026 2531:0.57735026 2546:0.57735026 #
1.0000000241417625890250064912834 784:0.5 2039:0.5 2150:0.5 2762:0.5 #
-1.0000000241417625890250064912834 2039:1 #
-1.0000000241417625890250064912834 328:0.25819889 527:0.25819889 714:0.25819889 745:0.25819889 1290:0.25819889 1475:0.25819889 1819:0.25819889 2003:0.25819889 2112:0.25819889 2155:0.25819889 2224:0.25819889 2526:0.25819889 2572:0.25819889 2721:0.25819889 2854:0.25819889 #
-1.0000000241417625890250064912834 650:0.57735026 1622:0.57735026 2039:0.57735026 #
1.0000000241417625890250064912834 2460:1 #
-1.0000000241417625890250064912834 529:0.70710677 2682:0.70710677 #
-0.079689273179967629046061006192758 2647:0.70710677 2829:0.70710677 #
-1.0000000241417625890250064912834 130:0.57735026 956:0.57735026 2697:0.57735026 #
-1.0000000241417625890250064912834 210:0.40824831 655:0.40824831 683:0.40824831 956:0.40824831 1462:0.40824831 2531:0.40824831 #
-1.0000000241417625890250064912834 269:0.70710677 956:0.70710677 #
1.0000000241417625890250064912834 329:0.70710677 1431:0.70710677 #
1.0000000241417625890250064912834 314:0.25 329:0.5 367:0.5 627:0.25 818:0.25 1021:0.25 1093:0.25 1190:0.25 2763:0.25 2819:0.25 #
1.0000000241417625890250064912834 329:0.5 538:0.5 940:0.5 1760:0.5 #
1.0000000241417625890250064912834 700:0.70710677 920:0.70710677 #
-0.99405889553971882310889895961736 821:1 #
1.0000000241417625890250064912834 956:1 #
1.0000000241417625890250064912834 529:0.70710677 2682:0.70710677 #
-1.0000000241417625890250064912834 700:0.70710677 2546:0.70710677 #
-1.0000000241417625890250064912834 314:0.25 329:0.5 367:0.5 627:0.25 818:0.25 1021:0.25 1093:0.25 1190:0.25 2763:0.25 2819:0.25 #
-1.0000000241417625890250064912834 329:0.5 538:0.5 940:0.5 1760:0.5 #
-1.0000000241417625890250064912834 700:0.70710677 920:0.70710677 #
-1.0000000241417625890250064912834 314:0.2236068 329:0.2236068 818:0.2236068 1615:0.2236068 1760:0.2236068 2268:0.2236068 2762:0.67082042 2763:0.2236068 2864:0.44721359 #
1.0000000241417625890250064912834 529:0.70710677 2109:0.70710677 #
1.0000000241417625890250064912834 2109:1 #
-0.38338094417644991152016586966056 206:0.40824831 225:0.40824831 505:0.40824831 912:0.40824831 2229:0.40824831 2595:0.40824831 #
1.0000000241417625890250064912834 956:0.70710677 2697:0.70710677 #
1.0000000241417625890250064912834 210:0.5 287:0.5 536:0.5 2682:0.5 #
-1.0000000241417625890250064912834 367:1 #
-1.0000000241417625890250064912834 296:0.33333334 818:0.33333334 1359:0.66666669 1796:0.33333334 1993:0.33333334 2044:0.33333334 #
-1.0000000241417625890250064912834 367:0.89442718 766:0.44721359 #
-1.0000000241417625890250064912834 536:1 #
1.0000000241417625890250064912834 1591:1 #
1.0000000241417625890250064912834 210:0.44721359 1760:0.44721359 2206:0.44721359 2301:0.44721359 2632:0.44721359 #
1.0000000241417625890250064912834 269:0.40824831 655:0.40824831 1553:0.40824831 1799:0.40824831 2168:0.40824831 2460:0.40824831 #
1.0000000241417625890250064912834 210:0.70710677 2632:0.70710677 #
1.0000000241417625890250064912834 1553:0.70710677 1677:0.70710677 #
-0.67643720473412460858497752269614 329:0.57735026 760:0.57735026 2188:0.57735026 #
-1.0000000241417625890250064912834 210:0.44721359 1760:0.44721359 2206:0.44721359 2301:0.44721359 2632:0.44721359 #
-1.0000000241417625890250064912834 210:0.70710677 2632:0.70710677 #
-0.85268008124064487152082847387646 1591:1 #
-1.0000000241417625890250064912834 210:0.5 1591:0.5 2492:0.5 2660:0.5 #
1.0000000241417625890250064912834 367:0.89442718 766:0.44721359 #
1.0000000241417625890250064912834 818:0.57735026 1440:0.57735026 2674:0.57735026 #
1.0000000241417625890250064912834 367:0.70710677 1336:0.70710677 #
1.0000000241417625890250064912834 367:0.70710677 491:0.70710677 #
-1.0000000241417625890250064912834 367:0.70710677 1336:0.70710677 #
-1.0000000241417625890250064912834 329:0.21320072 367:0.63960212 701:0.21320072 818:0.21320072 2737:0.21320072 2966:0.63960212 #
-0.86772658203948360711166287728702 328:0.57735026 367:0.57735026 450:0.57735026 #
1.0000000241417625890250064912834 536:1 #
-1.0000000241417625890250064912834 210:0.5 287:0.5 536:0.5 2682:0.5 #
-1.0000000241417625890250064912834 287:0.5 491:0.5 839:0.5 2420:0.5 #
-1.0000000241417625890250064912834 491:0.5 1760:0.5 1781:0.5 2762:0.5 #
-1.0000000241417625890250064912834 287:0.37796447 305:0.37796447 491:0.37796447 1554:0.75592893 #
-0.28586846883720717915622344662552 287:0.37796447 491:0.37796447 605:0.37796447 1958:0.37796447 2236:0.37796447 2346:0.37796447 2507:0.37796447 #
1.0000000241417625890250064912834 329:0.21320072 367:0.63960212 701:0.21320072 818:0.21320072 2737:0.21320072 2966:0.63960212 #
1.0000000241417625890250064912834 236:0.28867513 328:0.28867513 329:0.28867513 367:0.28867513 454:0.28867513 655:0.28867513 1592:0.28867513 1963:0.28867513 2460:0.57735026 #
1.0000000241417625890250064912834 367:1 #
1.0000000241417625890250064912834 1359:0.25819889 1427:0.25819889 1985:0.25819889 1993:0.51639777 2044:0.25819889 2247:0.25819889 2597:0.51639777 2604:0.25819889 2737:0.25819889 #
-1.0000000241417625890250064912834 374:0.28867513 391:0.28867513 732:0.28867513 1826:0.28867513 2121:0.57735026 2201:0.28867513 2460:0.28867513 2853:0.28867513 2964:0.28867513 #
-0.16809993846376175552492782117042 1359:0.25819889 1427:0.25819889 1985:0.25819889 1993:0.51639777 2044:0.25819889 2247:0.25819889 2597:0.51639777 2604:0.25819889 2737:0.25819889 #
-1.0000000241417625890250064912834 367:0.57735026 549:0.57735026 1265:0.57735026 #
1.0000000241417625890250064912834 287:0.89442718 1760:0.44721359 #
1.0000000241417625890250064912834 287:0.70710677 1554:0.70710677 #
1.0000000241417625890250064912834 287:1 #
-1.0000000241417625890250064912834 287:1 #
-0.039843826533182330473792376324127 683:0.28867513 1247:0.28867513 1502:0.28867513 1575:0.28867513 1826:0.28867513 2229:0.28867513 2406:0.57735026 2460:0.28867513 2595:0.28867513 #
1.0000000241417625890250064912834 20:0.30151135 328:0.30151135 491:0.60302269 1442:0.30151135 2150:0.30151135 2460:0.30151135 2572:0.30151135 2682:0.30151135 #
-1.0000000241417625890250064912834 287:1 #
1.0000000241417625890250064912834 314:0.70710677 329:0.70710677 #
1.0000000241417625890250064912834 329:1 #
0.73615506359682736370331213038298 1558:1 #
-1.0000000241417625890250064912834 329:0.57735026 940:0.57735026 1554:0.57735026 #
-1.0000000241417625890250064912834 314:0.5 329:0.5 818:0.5 1760:0.5 #
-1.0000000241417625890250064912834 329:0.70710677 1431:0.70710677 #
1.0000000241417625890250064912834 287:0.5 1153:0.5 2566:0.5 2763:0.5 #
1.0000000241417625890250064912834 269:1 #
1.0000000241417625890250064912834 1796:1 #
1.0000000241417625890250064912834 287:0.5 428:0.5 467:0.5 2763:0.5 #
-1.0000000241417625890250064912834 287:1 #
-1.0000000241417625890250064912834 1796:1 #
-1.0000000241417625890250064912834 269:1 #
-1.0000000241417625890250064912834 181:0.28867513 269:0.57735026 535:0.28867513 551:0.28867513 687:0.28867513 1291:0.28867513 2595:0.28867513 2652:0.28867513 2925:0.28867513 #
-0.5585209393891399365372762986226 2211:0.57735026 2566:0.57735026 2763:0.57735026 #
1.0000000241417625890250064912834 329:0.70710677 1554:0.70710677 #
1.0000000241417625890250064912834 329:0.70710677 940:0.70710677 #
1.0000000241417625890250064912834 329:1 #
-1.0000000241417625890250064912834 442:0.35355338 650:0.35355338 1078:0.35355338 1237:0.35355338 1464:0.35355338 2150:0.35355338 2316:0.35355338 2658:0.35355338 #
1.0000000241417625890250064912834 314:0.57735026 1760:0.57735026 2762:0.57735026 #
1.0000000241417625890250064912834 1760:0.70710677 2168:0.70710677 #
1.0000000241417625890250064912834 314:0.40824831 1760:0.81649661 2460:0.40824831 #
-1.0000000241417625890250064912834 329:0.70710677 940:0.70710677 #
-1.0000000241417625890250064912834 329:0.5 940:0.5 1554:0.5 2693:0.5 #
1.0000000241417625890250064912834 182:0.70710677 940:0.70710677 #
1.0000000241417625890250064912834 329:0.5 940:0.5 1554:0.5 2693:0.5 #
1.0000000241417625890250064912834 58:0.5 329:0.5 940:0.5 2551:0.5 #
-1.0000000241417625890250064912834 466:1 #
-1.0000000241417625890250064912834 2460:1 #
1.0000000241417625890250064912834 329:0.5 1265:0.5 1760:0.5 1762:0.5 #
0.10865845032311149953585527327959 766:0.5 773:0.5 940:0.5 1781:0.5 #
-1.0000000241417625890250064912834 329:0.37796447 467:0.37796447 491:0.37796447 1064:0.37796447 1445:0.37796447 2377:0.37796447 2845:0.37796447 #
-1.0000000241417625890250064912834 176:0.44721359 329:0.44721359 940:0.44721359 1445:0.44721359 2717:0.44721359 #
1.0000000241417625890250064912834 1554:0.70710677 2460:0.70710677 #
0.10846929864534515797203084730427 1284:0.57735026 1483:0.57735026 1696:0.57735026 #
-1.0000000241417625890250064912834 130:0.35355338 527:0.35355338 613:0.35355338 714:0.35355338 920:0.35355338 1819:0.35355338 2121:0.35355338 2460:0.35355338 #
-0.25734433119617827756542283168528 269:0.44721359 527:0.44721359 1069:0.44721359 1089:0.44721359 2460:0.44721359 #
-1.0000000241417625890250064912834 1848:0.70710677 2460:0.70710677 #
1.0000000241417625890250064912834 329:1 #
-1.0000000241417625890250064912834 1069:1 #
-1.0000000241417625890250064912834 329:0.28867513 527:0.28867513 586:0.28867513 600:0.28867513 1110:0.28867513 1252:0.28867513 1257:0.28867513 1553:0.28867513 1679:0.28867513 1760:0.28867513 2121:0.28867513 2572:0.28867513 #
-1.0000000241417625890250064912834 920:0.57735026 1566:0.57735026 1848:0.57735026 #
-1.0000000241417625890250064912834 80:0.18257418 152:0.18257418 210:0.18257418 391:0.18257418 449:0.18257418 501:0.18257418 927:0.18257418 1078:0.18257418 1525:0.18257418 1566:0.36514837 1718:0.18257418 2109:0.36514837 2122:0.18257418 2150:0.18257418 2179:0.18257418 2190:0.18257418 2201:0.18257418 2268:0.18257418 2272:0.18257418 2349:0.18257418 2478:0.18257418 2572:0.18257418 2721:0.18257418 2920:0.18257418 #
0.98575729044425997038558762142202 2198:1 #
0.55960777703096653556968931297888 99:0.44721359 210:0.44721359 296:0.44721359 940:0.44721359 1628:0.44721359 #
-1.0000000241417625890250064912834 940:0.70710677 2109:0.70710677 #
-1.0000000241417625890250064912834 329:0.70710677 940:0.70710677 #
-1.0000000241417625890250064912834 940:0.57735026 2109:0.57735026 2314:0.57735026 #
1.0000000241417625890250064912834 329:0.70710677 586:0.70710677 #
1.0000000241417625890250064912834 329:0.53452247 700:0.26726124 797:0.26726124 920:0.26726124 1325:0.26726124 1566:0.26726124 1760:0.26726124 1762:0.26726124 2144:0.26726124 2531:0.26726124 2598:0.26726124 #
1.0000000241417625890250064912834 329:0.57735026 586:0.57735026 2778:0.57735026 #
-0.91061713346072148400622836561524 329:0.57735026 586:0.57735026 2778:0.57735026 #
-1.0000000241417625890250064912834 329:0.53452247 700:0.26726124 797:0.26726124 920:0.26726124 1325:0.26726124 1566:0.26726124 1760:0.26726124 1762:0.26726124 2144:0.26726124 2531:0.26726124 2598:0.26726124 #
-1.0000000241417625890250064912834 99:0.40824831 650:0.40824831 689:0.40824831 1628:0.40824831 2531:0.40824831 2546:0.40824831 #
1.0000000241417625890250064912834 665:0.57735026 822:0.57735026 2595:0.57735026 #
-1.0000000241417625890250064912834 724:0.5 887:0.5 1336:0.5 1359:0.5 #
-1.0000000241417625890250064912834 527:0.70710677 2661:0.70710677 #
-1.0000000241417625890250064912834 586:0.81649661 1617:0.40824831 2198:0.40824831 #
-1.0000000241417625890250064912834 210:1 #
1.0000000241417625890250064912834 314:0.44721359 329:0.44721359 1064:0.44721359 1615:0.44721359 2702:0.44721359 #
1.0000000241417625890250064912834 329:1 #
-1.0000000241417625890250064912834 181:0.28867513 527:0.28867513 655:0.28867513 687:0.57735026 920:0.28867513 1566:0.28867513 2201:0.28867513 2460:0.28867513 2931:0.28867513 #
-1.0000000241417625890250064912834 314:0.44721359 329:0.44721359 1064:0.44721359 1615:0.44721359 2702:0.44721359 #
-1.0000000241417625890250064912834 314:0.35355338 329:0.35355338 818:0.35355338 1034:0.35355338 1531:0.35355338 1716:0.35355338 2282:0.35355338 2572:0.35355338 #
-1.0000000241417625890250064912834 314:0.70710677 329:0.70710677 #
-1.0000000241417625890250064912834 314:0.44721359 1153:0.44721359 1613:0.44721359 1615:0.44721359 2521:0.44721359 #
-0.92221445538232837968450894550188 628:0.33333334 785:0.33333334 971:0.33333334 996:0.33333334 1084:0.33333334 1210:0.33333334 1213:0.33333334 2591:0.33333334 2626:0.33333334 #
1.0000000241417625890250064912834 1477:0.70710677 1760:0.70710677 #
1.0000000241417625890250064912834 305:0.70710677 1554:0.70710677 #
-0.13799801459434524186775661291904 305:0.44721359 1554:0.89442718 #
-0.39172713244656731657045156680397 403:0.35355338 513:0.35355338 550:0.35355338 1464:0.35355338 1760:0.35355338 2121:0.35355338 2632:0.35355338 2952:0.35355338 #
-0.40347288934529457193889356858563 329:0.57735026 1229:0.57735026 2887:0.57735026 #
-1.0000000241417625890250064912834 550:1 #
1.0000000241417625890250064912834 329:0.57735026 1531:0.57735026 2702:0.57735026 #
0.45782159084952844807503424817696 314:0.35355338 329:0.35355338 818:0.35355338 1034:0.35355338 1531:0.35355338 1716:0.35355338 2282:0.35355338 2572:0.35355338 #
1.0000000241417625890250064912834 329:1 #
-0.86747861005337656425950854099938 328:0.35355338 512:0.35355338 650:0.35355338 920:0.35355338 1240:0.35355338 2652:0.35355338 2822:0.35355338 2961:0.35355338 #
1.0000000241417625890250064912834 305:0.44721359 1554:0.89442718 #
-1.0000000241417625890250064912834 948:1 #
-0.1654239257215084635266322266034 948:0.70710677 2763:0.70710677 #
-1.0000000241417625890250064912834 314:0.30151135 329:0.30151135 491:0.30151135 701:0.30151135 1971:0.30151135 2572:0.60302269 2702:0.30151135 2812:0.30151135 #
-1.0000000241417625890250064912834 329:0.28867513 710:0.28867513 940:0.28867513 1288:0.28867513 1380:0.28867513 1554:0.28867513 1558:0.28867513 1638:0.28867513 2282:0.28867513 2572:0.28867513 2602:0.28867513 2829:0.28867513 #
-1.0000000241417625890250064912834 941:0.70710677 1762:0.70710677 #
1.0000000241417625890250064912834 296:0.5 1034:0.5 1615:0.5 1760:0.5 #
1.0000000241417625890250064912834 1760:1 #
-1.0000000241417625890250064912834 1760:1 #
1.0000000241417625890250064912834 329:0.28867513 710:0.28867513 940:0.28867513 1288:0.28867513 1380:0.28867513 1554:0.28867513 1558:0.28867513 1638:0.28867513 2282:0.28867513 2572:0.28867513 2602:0.28867513 2829:0.28867513 #
1.0000000241417625890250064912834 329:0.44721359 948:0.44721359 1418:0.44721359 2501:0.44721359 2845:0.44721359 #
1.0000000241417625890250064912834 329:0.5 710:0.5 1380:0.5 2013:0.5 #
1.0000000241417625890250064912834 329:0.57735026 2201:0.57735026 2597:0.57735026 #
0.73479012494458073589953528426122 1632:1 #
-1.0000000241417625890250064912834 1034:1 #
-1.0000000241417625890250064912834 1760:1 #
-1.0000000241417625890250064912834 956:1 #
-1.0000000241417625890250064912834 507:0.37796447 527:0.37796447 650:0.37796447 956:0.37796447 1078:0.37796447 2150:0.37796447 2697:0.37796447 #
1.0000000241417625890250064912834 329:0.70710677 1034:0.70710677 #
1.0000000241417625890250064912834 1760:1 #
-0.49940993028917241014497108153591 94:0.5 282:0.5 791:0.5 1048:0.5 #
-1.0000000241417625890250064912834 2675:1 #
-0.40036170392896730518828007916454 287:0.89442718 1760:0.44721359 #
-1.0000000241417625890250064912834 843:0.40824831 1229:0.81649661 2044:0.40824831 #
-0.090705572075767945672275516244554 210:0.53452247 655:0.26726124 924:0.26726124 1034:0.26726124 1048:0.26726124 1461:0.26726124 1538:0.26726124 1869:0.26726124 2385:0.26726124 2632:0.26726124 2653:0.26726124 #
-1.0000000241417625890250064912834 428:1 #
-1.0000000241417625890250064912834 329:0.31622776 529:0.31622776 818:0.31622776 1029:0.63245553 1286:0.31622776 2186:0.31622776 2566:0.31622776 #
-1.0000000241417625890250064912834 818:0.37796447 1246:0.37796447 1464:0.75592893 2829:0.37796447 #
1.0000000241417625890250064912834 329:0.70710677 650:0.70710677 #
1.0000000241417625890250064912834 956:0.44721359 2614:0.89442718 #
0.008402849953375764180396600977474 882:1 #
1.0000000241417625890250064912834 329:0.40824831 2562:0.40824831 2576:0.81649661 #
-1.0000000241417625890250064912834 329:0.40824831 2562:0.40824831 2576:0.81649661 #
-1.0000000241417625890250064912834 329:0.70710677 940:0.70710677 #
-1.0000000241417625890250064912834 314:0.40824831 329:0.40824831 650:0.40824831 1153:0.40824831 1825:0.40824831 2572:0.40824831 #
1.0000000241417625890250064912834 305:0.37796447 397:0.37796447 1246:0.37796447 1554:0.75592893 #
1.0000000241417625890250064912834 329:0.57735026 1286:0.57735026 2497:0.57735026 #
-1.0000000241417625890250064912834 1554:1 #
-1.0000000241417625890250064912834 1265:0.70710677 2923:0.70710677 #
-1.0000000241417625890250064912834 329:0.5 1265:0.5 1760:0.5 1762:0.5 #
-1.0000000241417625890250064912834 33:0.5 182:0.5 548:0.5 650:0.5 #
1.0000000241417625890250064912834 329:0.40824831 2585:0.40824831 2635:0.81649661 #
1.0000000241417625890250064912834 329:0.57735026 1559:0.57735026 2662:0.57735026 #
-1.0000000241417625890250064912834 329:0.40824831 2585:0.40824831 2635:0.81649661 #
-1.0000000241417625890250064912834 329:0.57735026 1559:0.57735026 2662:0.57735026 #
-1.0000000241417625890250064912834 1559:1 #
-1.0000000241417625890250064912834 454:1 #
1.0000000241417625890250064912834 1760:1 #
-1.0000000241417625890250064912834 1760:1 #
1.0000000241417625890250064912834 329:0.5 548:0.5 1554:0.5 2328:0.5 #
1.0000000241417625890250064912834 329:1 #
1.0000000241417625890250064912834 1063:0.44721359 1325:0.44721359 1357:0.44721359 1615:0.44721359 2940:0.44721359 #
1.0000000241417625890250064912834 1760:1 #
-1.0000000241417625890250064912834 1760:1 #
1.0000000241417625890250064912834 314:0.5 329:0.5 409:0.5 2963:0.5 #
1.0000000241417625890250064912834 329:0.57735026 1066:0.57735026 1540:0.57735026 #
1.0000000241417625890250064912834 329:0.57735026 391:0.57735026 1919:0.57735026 #
1.0000000241417625890250064912834 329:0.57735026 474:0.57735026 1160:0.57735026 #
-1.0000000241417625890250064912834 329:0.89442718 2576:0.44721359 #
-1.0000000241417625890250064912834 20:0.70710677 329:0.70710677 #
-1.0000000241417625890250064912834 287:0.35355338 397:0.35355338 840:0.35355338 2100:0.35355338 2109:0.35355338 2128:0.35355338 2570:0.35355338 2635:0.35355338 #
1.0000000241417625890250064912834 1760:1 #
-1.0000000241417625890250064912834 1760:1 #
-1.0000000241417625890250064912834 329:0.35355338 940:0.35355338 1193:0.35355338 1358:0.35355338 2682:0.70710677 #
-1.0000000241417625890250064912834 287:0.5 329:0.5 397:0.5 1160:0.5 #
1.0000000241417625890250064912834 329:0.44721359 471:0.44721359 1035:0.44721359 2201:0.44721359 2595:0.44721359 #
1.0000000241417625890250064912834 287:0.57735026 329:0.57735026 2771:0.57735026 #
-0.36238822321436170437181090164813 315:0.40824831 541:0.40824831 932:0.40824831 1189:0.40824831 1285:0.40824831 1554:0.40824831 #
-1.0000000241417625890250064912834 333:0.37796447 2168:0.37796447 2687:0.37796447 2771:0.75592893 #
-1.0000000241417625890250064912834 329:0.35355338 367:0.35355338 436:0.35355338 471:0.35355338 1142:0.35355338 1336:0.35355338 1632:0.35355338 2238:0.35355338 #
1.0000000241417625890250064912834 1554:1 #
1.0000000241417625890250064912834 287:0.5 329:0.5 397:0.5 1160:0.5 #
-1.0000000241417625890250064912834 289:0.28867513 329:0.28867513 397:0.28867513 412:0.28867513 831:0.28867513 1144:0.28867513 1325:0.28867513 1730:0.28867513 1760:0.28867513 2576:0.28867513 2848:0.28867513 2940:0.28867513 #
-1.0000000241417625890250064912834 1554:1 #
1.0000000241417625890250064912834 1760:1 #
1.0000000241417625890250064912834 1554:1 #
-1.0000000241417625890250064912834 1760:1 #
1.0000000241417625890250064912834 329:0.37796447 1554:0.37796447 2407:0.37796447 2460:0.37796447 2652:0.37796447 2718:0.37796447 2864:0.37796447 #
-0.078134181120039072898642018571991 2043:0.70710677 2829:0.70710677 #
1.0000000241417625890250064912834 1760:1 #
-1.0000000241417625890250064912834 1760:1 #
-1.0000000241417625890250064912834 2460:0.57735026 2652:0.57735026 2697:0.57735026 #
1.0000000241417625890250064912834 1760:1 #
-1.0000000241417625890250064912834 1760:1 #
-0.72261052046582974206501148728421 1073:0.70710677 1490:0.70710677 #
1.0000000241417625890250064912834 1554:1 #
-1.0000000241417625890250064912834 1554:1 #
1.0000000241417625890250064912834 329:0.40824831 1551:0.40824831 1592:0.40824831 2147:0.40824831 2460:0.40824831 2697:0.40824831 #
1.0000000241417625890250064912834 329:0.5 695:0.5 1559:0.5 2763:0.5 #
1.0000000241417625890250064912834 329:0.70710677 758:0.70710677 #
-1.0000000241417625890250064912834 300:0.5 600:0.5 2572:0.5 2763:0.5 #
-1.0000000241417625890250064912834 210:0.5 329:0.5 920:0.5 1142:0.5 #
-1.0000000241417625890250064912834 329:0.53452247 700:0.26726124 797:0.26726124 920:0.26726124 1325:0.26726124 1566:0.26726124 1760:0.26726124 1762:0.26726124 2144:0.26726124 2531:0.26726124 2598:0.26726124 #
1.0000000241417625890250064912834 1554:1 #
-1.0000000241417625890250064912834 1554:1 #
1.0000000241417625890250064912834 329:1 #
-0.6793656963708283313962965621613 48:0.24253562 895:0.24253562 920:0.24253562 1472:0.24253562 1475:0.24253562 1530:0.24253562 1554:0.24253562 1760:0.24253562 1805:0.24253562 1890:0.24253562 2602:0.48507124 2700:0.24253562 2721:0.24253562 2839:0.24253562 #
1.0000000241417625890250064912834 1554:1 #
1.0000000241417625890250064912834 766:0.28867513 1035:0.28867513 1440:0.28867513 1462:0.28867513 1554:0.28867513 1760:0.57735026 2492:0.28867513 2546:0.28867513 2652:0.28867513 #
-1.0000000241417625890250064912834 766:0.28867513 1035:0.28867513 1440:0.28867513 1462:0.28867513 1554:0.28867513 1760:0.57735026 2492:0.28867513 2546:0.28867513 2652:0.28867513 #
-1.0000000241417625890250064912834 1554:1 #
1.0000000241417625890250064912834 329:1 #
-1.0000000241417625890250064912834 212:0.57735026 287:0.57735026 2282:0.57735026 #
-0.3293052727648155819650810371968 210:0.48507124 367:0.24253562 403:0.24253562 655:0.24253562 886:0.24253562 1540:0.48507124 1566:0.24253562 1614:0.24253562 2316:0.24253562 2584:0.24253562 2922:0.24253562 #
-1.0000000241417625890250064912834 2229:0.70710677 2282:0.70710677 #
1.0000000241417625890250064912834 329:0.89442718 2201:0.44721359 #
1.0000000241417625890250064912834 329:1 #
-0.73233255960079179924804293477791 424:0.5 858:0.5 1885:0.5 2135:0.5 #
-1.0000000241417625890250064912834 1341:1 #
-0.7095005136567339443232071971579 535:0.35355338 1063:0.35355338 1718:0.35355338 2201:0.35355338 2391:0.35355338 2403:0.35355338 2489:0.35355338 2719:0.35355338 #
1.0000000241417625890250064912834 210:0.44721359 329:0.44721359 650:0.44721359 1325:0.44721359 1615:0.44721359 #
-1.0000000241417625890250064912834 210:0.44721359 329:0.44721359 650:0.44721359 1325:0.44721359 1615:0.44721359 #
1.0000000241417625890250064912834 2397:1 #
1.0000000241417625890250064912834 329:1 #
-0.19765105630699739136524328841915 536:0.30151135 718:0.30151135 956:0.30151135 1271:0.30151135 1639:0.30151135 2109:0.30151135 2369:0.30151135 2409:0.30151135 2532:0.30151135 2772:0.30151135 2778:0.30151135 #
1.0000000241417625890250064912834 1554:1 #
1.0000000241417625890250064912834 1760:1 #
1.0000000241417625890250064912834 329:1 #
-0.57684233785831517948849977983627 329:0.70710677 1982:0.70710677 #
1.0000000241417625890250064912834 329:1 #
-1.0000000241417625890250064912834 329:0.5 940:0.5 1383:0.5 1407:0.5 #
-1.0000000241417625890250064912834 314:0.5 329:0.5 409:0.5 2963:0.5 #
-1.0000000241417625890250064912834 58:0.5 329:0.5 940:0.5 2551:0.5 #
-1.0000000241417625890250064912834 329:0.44721359 940:0.44721359 1469:0.44721359 1921:0.44721359 1962:0.44721359 #
1.0000000241417625890250064912834 329:0.57735026 1105:0.57735026 2282:0.57735026 #
1.0000000241417625890250064912834 314:0.2236068 329:0.2236068 818:0.2236068 1615:0.2236068 1760:0.2236068 2268:0.2236068 2762:0.67082042 2763:0.2236068 2864:0.44721359 #
1.0000000241417625890250064912834 397:0.70710677 2977:0.70710677 #
-1.0000000241417625890250064912834 329:0.57735026 1105:0.57735026 2282:0.57735026 #
-1.0000000241417625890250064912834 329:0.57735026 1066:0.57735026 1540:0.57735026 #
0.96677931002325934173313726205379 650:0.70710677 1420:0.70710677 #
1.0000000241417625890250064912834 329:1 #
-1.0000000241417625890250064912834 329:0.44721359 940:0.44721359 1540:0.44721359 2045:0.44721359 2366:0.44721359 #
-0.75108088117541949024769110110356 329:0.40824831 1551:0.40824831 1592:0.40824831 2147:0.40824831 2460:0.40824831 2697:0.40824831 #
1.0000000241417625890250064912834 329:0.70710677 2463:0.70710677 #
1.0000000241417625890250064912834 329:0.70710677 1982:0.70710677 #
1.0000000241417625890250064912834 305:0.5547002 329:0.5547002 1190:0.5547002 1554:0.2773501 #
-1.0000000241417625890250064912834 49:0.35355338 117:0.35355338 173:0.35355338 203:0.35355338 559:0.35355338 2350:0.35355338 2488:0.35355338 2762:0.35355338 #
-0.95538266144559536030556046171114 279:0.37796447 367:0.37796447 645:0.37796447 858:0.37796447 1146:0.37796447 1382:0.37796447 1760:0.37796447 #
-1.0000000241417625890250064912834 329:0.57735026 474:0.57735026 1160:0.57735026 #
-1.0000000241417625890250064912834 329:0.44721359 948:0.44721359 1418:0.44721359 2501:0.44721359 2845:0.44721359 #
-1.0000000241417625890250064912834 329:0.35355338 444:0.35355338 977:0.35355338 1554:0.35355338 2617:0.35355338 2682:0.35355338 2758:0.35355338 2926:0.35355338 #
-0.032503057704059978849642220666283 287:0.70710677 2468:0.70710677 #
1.0000000241417625890250064912834 329:1 #
-0.57097834582556639126948994089616 329:0.70710677 758:0.70710677 #
1.0000000241417625890250064912834 1554:1 #
-1.0000000241417625890250064912834 329:0.5 710:0.5 1380:0.5 2013:0.5 #
-0.79740648568788463634859908779617 329:0.57735026 1286:0.57735026 2497:0.57735026 #
-0.73515752224478214671421483217273 159:0.35355338 329:0.35355338 770:0.35355338 773:0.35355338 1554:0.35355338 2443:0.35355338 2594:0.35355338 2988:0.35355338 #
1.0000000241417625890250064912834 329:1 #
-1.0000000241417625890250064912834 287:0.57735026 329:0.57735026 2771:0.57735026 #
1.0000000241417625890250064912834 20:0.70710677 329:0.70710677 #
1.0000000241417625890250064912834 329:0.70710677 2845:0.70710677 #
-0.98590772741940946310990057099843 320:0.16666667 349:0.16666667 613:0.16666667 655:0.5 832:0.16666667 921:0.16666667 1238:0.16666667 1492:0.16666667 1566:0.16666667 1663:0.16666667 1718:0.16666667 1727:0.16666667 1739:0.16666667 2183:0.16666667 2229:0.16666667 2341:0.16666667 2371:0.16666667 2595:0.16666667 2632:0.16666667 2697:0.33333334 2718:0.16666667 2793:0.16666667 2818:0.16666667 2880:0.16666667 2940:0.16666667 #
-1.0000000241417625890250064912834 1029:0.57735026 2460:0.57735026 2897:0.57735026 #
-1.0000000241417625890250064912834 329:0.44721359 2845:0.89442718 #
1.0000000241417625890250064912834 329:0.28867513 471:0.28867513 940:0.57735026 1034:0.28867513 1359:0.57735026 2595:0.28867513 #
0.61783807628681641777035338236601 1420:1 #
-1.0000000241417625890250064912834 314:0.37796447 329:0.37796447 602:0.37796447 940:0.37796447 1153:0.37796447 2293:0.37796447 2762:0.37796447 #
-1.0000000241417625890250064912834 329:0.30151135 549:0.30151135 714:0.30151135 1189:0.30151135 1285:0.30151135 1819:0.30151135 2013:0.30151135 2572:0.60302269 #
1.0000000241417625890250064912834 329:1 #
-0.10230894568890644413805546264484 2109:0.70710677 2758:0.70710677 #
1.0000000241417625890250064912834 1760:1 #
-1.0000000241417625890250064912834 329:0.44721359 1142:0.89442718 #
0.046203795026336279272438645193688 2635:1 #
1.0000000241417625890250064912834 329:1 #
1.0000000241417625890250064912834 329:0.70710677 1246:0.70710677 #
-1.0000000241417625890250064912834 329:0.70710677 1246:0.70710677 #
-1.0000000241417625890250064912834 329:0.44721359 397:0.44721359 1592:0.44721359 2468:0.44721359 2705:0.44721359 #
-1.0000000241417625890250064912834 842:0.5 1418:0.5 2643:0.5 2812:0.5 #
0.64587794945508725241722913779086 2121:1 #
-0.409675548131828048958880117425 512:0.44721359 941:0.44721359 1413:0.44721359 1973:0.44721359 2011:0.44721359 #
1.0000000241417625890250064912834 329:0.70710677 940:0.70710677 #
0.11824240271354440057205437142329 1:0.44721359 329:0.44721359 940:0.44721359 1554:0.44721359 2170:0.44721359 #
1.0000000241417625890250064912834 1760:1 #
0.66260084129942753428110790991923 314:0.5 329:0.5 818:0.5 1760:0.5 #
-1.0000000241417625890250064912834 329:0.40824831 818:0.40824831 1410:0.40824831 1440:0.40824831 2090:0.40824831 2694:0.40824831 #
-0.61019274453781424671916511215386 140:0.35355338 907:0.35355338 913:0.35355338 1086:0.35355338 1258:0.35355338 1460:0.35355338 1799:0.35355338 2429:0.35355338 #
-1.0000000241417625890250064912834 1760:1 #
-1.0000000241417625890250064912834 314:0.40824831 1760:0.81649661 2460:0.40824831 #
-1.0000000241417625890250064912834 314:0.57735026 1760:0.57735026 2762:0.57735026 #
1.0000000241417625890250064912834 538:0.57735026 2109:0.57735026 2268:0.57735026 #
1.0000000241417625890250064912834 2109:1 #
-1.0000000241417625890250064912834 1554:1 #
1.0000000241417625890250064912834 466:1 #
1.0000000241417625890250064912834 130:0.19611613 314:0.19611613 527:0.39223227 619:0.39223227 1069:0.19611613 1153:0.19611613 1252:0.19611613 1566:0.19611613 1620:0.19611613 1725:0.19611613 1740:0.19611613 2572:0.39223227 2652:0.39223227 2897:0.19611613 #
1.0000000241417625890250064912834 328:0.2773501 821:0.2773501 1093:0.2773501 1153:0.2773501 2190:0.2773501 2233:0.2773501 2460:0.2773501 2721:0.2773501 2881:0.2773501 2963:0.5547002 #
1.0000000241417625890250064912834 222:0.57735026 1153:0.57735026 1538:0.57735026 #
1.0000000241417625890250064912834 1069:1 #
-0.17182466701723458912809405774169 527:0.25 649:0.25 654:0.25 671:0.25 824:0.25 1045:0.25 1280:0.25 1461:0.25 1707:0.25 1924:0.25 1934:0.25 2185:0.25 2232:0.25 2506:0.25 2597:0.25 2939:0.25 #
-1.0000000241417625890250064912834 921:0.2773501 940:0.2773501 1170:0.5547002 1359:0.5547002 1760:0.2773501 2572:0.2773501 2643:0.2773501 #
-0.58737010440871439964638511810335 58:0.43643579 96:0.21821789 412:0.21821789 759:0.21821789 762:0.21821789 1359:0.21821789 1431:0.43643579 1894:0.21821789 2314:0.43643579 2369:0.21821789 2473:0.21821789 2721:0.21821789 #
-1.0000000241417625890250064912834 328:0.37796447 412:0.37796447 818:0.37796447 1760:0.37796447 2492:0.37796447 2716:0.37796447 2721:0.37796447 #
-1.0000000241417625890250064912834 1246:0.57735026 1308:0.57735026 1760:0.57735026 #
1.0000000241417625890250064912834 329:0.31622776 529:0.31622776 818:0.31622776 1029:0.63245553 1286:0.31622776 2186:0.31622776 2566:0.31622776 #
1.0000000241417625890250064912834 956:1 #
1.0000000241417625890250064912834 1029:1 #
1.0000000241417625890250064912834 941:0.70710677 1762:0.70710677 #
1.0000000241417625890250064912834 412:0.37796447 738:0.37796447 819:0.37796447 1153:0.37796447 1760:0.37796447 2572:0.37796447 2664:0.37796447 #
1.0000000241417625890250064912834 180:0.5 1122:0.5 1760:0.5 2039:0.5 #
1.0000000241417625890250064912834 512:0.37796447 535:0.37796447 1359:0.37796447 1760:0.37796447 1982:0.37796447 2595:0.37796447 2693:0.37796447 #
-1.0000000241417625890250064912834 217:0.5 314:0.5 1029:0.5 1760:0.5 #
1.0000000241417625890250064912834 210:0.48507124 367:0.24253562 403:0.24253562 655:0.24253562 886:0.24253562 1540:0.48507124 1566:0.24253562 1614:0.24253562 2316:0.24253562 2584:0.24253562 2922:0.24253562 #
1.0000000241417625890250064912834 386:0.35355338 1078:0.35355338 1438:0.35355338 1440:0.35355338 2150:0.35355338 2316:0.35355338 2572:0.35355338 2668:0.35355338 #
1.0000000241417625890250064912834 1196:0.40824831 1359:0.81649661 1617:0.40824831 #
1.0000000241417625890250064912834 2316:0.5 2652:0.5 2730:0.5 2923:0.5 #
-1.0000000241417625890250064912834 1554:1 #
1.0000000241417625890250064912834 700:1 #
0.29120113780986511820003670436563 437:0.5 818:0.5 2492:0.5 2967:0.5 #
1.0000000241417625890250064912834 687:0.5 1715:0.5 1760:0.5 2546:0.5 #
1.0000000241417625890250064912834 130:0.35355338 527:0.35355338 983:0.35355338 1025:0.35355338 1475:0.35355338 1760:0.35355338 2186:0.35355338 2460:0.35355338 #
-0.49862142339095161247541909688152 796:0.44721359 1715:0.44721359 1760:0.44721359 1948:0.44721359 2201:0.44721359 #
-1.0000000241417625890250064912834 687:0.5 1715:0.5 1760:0.5 2546:0.5 #
-0.77751109271270846257095854525687 288:0.40824831 585:0.40824831 1025:0.40824831 1760:0.40824831 2330:0.40824831 2466:0.40824831 #
1.0000000241417625890250064912834 821:0.70710677 1554:0.70710677 #
1.0000000241417625890250064912834 531:0.70710677 1554:0.70710677 #
-0.1749694061850209647612786056925 31:0.20851441 56:0.20851441 247:0.62554324 650:0.20851441 921:0.20851441 1176:0.20851441 1554:0.20851441 1564:0.20851441 1600:0.20851441 1613:0.20851441 2198:0.20851441 2245:0.20851441 2403:0.20851441 2460:0.20851441 2979:0.20851441 #
1.0000000241417625890250064912834 328:0.44721359 1554:0.44721359 2013:0.44721359 2721:0.44721359 2771:0.44721359 #
-1.0000000241417625890250064912834 1554:1 #
-1.0000000241417625890250064912834 329:0.44721359 433:0.44721359 818:0.44721359 821:0.44721359 1632:0.44721359 #
1.0000000241417625890250064912834 1825:0.70710677 2039:0.70710677 #
1.0000000241417625890250064912834 314:0.40824831 701:0.40824831 1620:0.40824831 1760:0.40824831 2083:0.40824831 2268:0.40824831 #
1.0000000241417625890250064912834 451:0.57735026 1825:0.57735026 2039:0.57735026 #
-1.0000000241417625890250064912834 314:0.40824831 701:0.40824831 1620:0.40824831 1760:0.40824831 2083:0.40824831 2268:0.40824831 #
1.0000000241417625890250064912834 1025:0.57735026 1632:0.57735026 2377:0.57735026 #
1.0000000241417625890250064912834 1632:0.89442718 2632:0.44721359 #
-1.0000000241417625890250064912834 314:0.44721359 601:0.44721359 610:0.44721359 1614:0.44721359 1760:0.44721359 #
1.0000000241417625890250064912834 314:0.30151135 329:0.30151135 491:0.30151135 701:0.30151135 1971:0.30151135 2572:0.60302269 2702:0.30151135 2812:0.30151135 #
1.0000000241417625890250064912834 437:0.37796447 920:0.37796447 2083:0.37796447 2229:0.37796447 2595:0.37796447 2597:0.37796447 2981:0.37796447 #
1.0000000241417625890250064912834 920:0.57735026 1566:0.57735026 1848:0.57735026 #
1.0000000241417625890250064912834 650:0.35355338 700:0.35355338 920:0.35355338 1237:0.35355338 1243:0.35355338 1462:0.35355338 1566:0.35355338 2652:0.35355338 #
1.0000000241417625890250064912834 2763:1 #
1.0000000241417625890250064912834 367:0.57735026 549:0.57735026 1265:0.57735026 #
1.0000000241417625890250064912834 2229:0.70710677 2282:0.70710677 #
-1.0000000241417625890250064912834 1554:1 #
1.0000000241417625890250064912834 1559:1 #
1.0000000241417625890250064912834 181:0.57735026 212:0.57735026 287:0.57735026 #
1.0000000241417625890250064912834 287:0.57735026 321:0.57735026 2460:0.57735026 #
1.0000000241417625890250064912834 1464:1 #
1.0000000241417625890250064912834 1035:0.57735026 1554:0.57735026 2957:0.57735026 #
1.0000000241417625890250064912834 1160:0.5 1554:0.5 1963:0.5 2317:0.5 #
-1.0000000241417625890250064912834 1554:1 #
1.0000000241417625890250064912834 1921:0.70710677 2460:0.70710677 #
1.0000000241417625890250064912834 1760:0.40824831 2109:0.40824831 2460:0.81649661 #
1.0000000241417625890250064912834 2460:1 #
-1.0000000241417625890250064912834 714:0.37796447 1760:0.37796447 2460:0.37796447 2864:0.75592893 #
-1.0000000241417625890250064912834 207:0.16439898 314:0.16439898 339:0.16439898 424:0.16439898 655:0.16439898 818:0.16439898 921:0.16439898 949:0.16439898 1373:0.16439898 1443:0.16439898 1566:0.49319696 1704:0.16439898 1760:0.49319696 2292:0.16439898 2352:0.16439898 2460:0.16439898 2466:0.16439898 2572:0.16439898 2768:0.16439898 2977:0.16439898 2981:0.16439898 #
0.25937106175437663058147563788225 20:0.57735026 852:0.57735026 2532:0.57735026 #
-0.94356216194749698011889904591953 722:0.44721359 1063:0.44721359 1649:0.44721359 1760:0.44721359 1805:0.44721359 #
1.0000000241417625890250064912834 586:0.81649661 1617:0.40824831 2198:0.40824831 #
1.0000000241417625890250064912834 586:0.70710677 1833:0.70710677 #
1.0000000241417625890250064912834 1142:0.5 1229:0.5 1440:0.5 2546:0.5 #
1.0000000241417625890250064912834 210:0.70710677 2546:0.70710677 #
-1.0000000241417625890250064912834 271:0.2773501 418:0.2773501 818:0.2773501 920:0.2773501 956:0.2773501 1121:0.2773501 1190:0.2773501 1721:0.2773501 1760:0.2773501 1799:0.2773501 2229:0.2773501 2471:0.2773501 2474:0.2773501 #
1.0000000241417625890250064912834 714:0.37796447 1760:0.37796447 2460:0.37796447 2864:0.75592893 #
1.0000000241417625890250064912834 475:0.37796447 1048:0.37796447 1360:0.37796447 1760:0.37796447 1987:0.37796447 2121:0.37796447 2239:0.37796447 #
-0.48287206067694876665541414695326 852:0.33333334 1150:0.33333334 1153:0.33333334 1464:0.66666669 1982:0.33333334 2132:0.33333334 #
-1.0000000241417625890250064912834 412:0.70710677 1760:0.70710677 #
-0.61552825437223257498686734834337 1760:0.5 1907:0.5 2696:0.5 2706:0.5 #
1.0000000241417625890250064912834 269:0.40824831 551:0.40824831 1566:0.40824831 1826:0.40824831 2168:0.40824831 2229:0.40824831 #
1.0000000241417625890250064912834 210:0.5547002 269:0.2773501 396:0.2773501 687:0.2773501 920:0.2773501 1178:0.2773501 1509:0.2773501 2072:0.2773501 2229:0.2773501 2492:0.2773501 #
1.0000000241417625890250064912834 212:0.57735026 428:0.57735026 897:0.57735026 #
1.0000000241417625890250064912834 1064:0.89442718 2762:0.44721359 #
1.0000000241417625890250064912834 689:1 #
-1.0000000241417625890250064912834 295:0.40824831 320:0.40824831 920:0.40824831 988:0.40824831 1509:0.40824831 1850:0.40824831 #
-1.0000000241417625890250064912834 1617:1 #
-0.91223838996574213577872569658211 208:0.57735026 2079:0.57735026 2236:0.57735026 #
1.0000000241417625890250064912834 130:0.26726124 527:0.53452247 983:0.26726124 1069:0.26726124 1157:0.26726124 1620:0.26726124 1743:0.26726124 1879:0.26726124 2460:0.26726124 2697:0.26726124 2856:0.26726124 #
1.0000000241417625890250064912834 48:0.44721359 210:0.2236068 650:0.44721359 821:0.2236068 1451:0.44721359 1461:0.2236068 1968:0.2236068 2231:0.44721359 #
-1.0000000241417625890250064912834 940:0.44721359 1049:0.44721359 2109:0.44721359 2277:0.44721359 2377:0.44721359 #
-0.048015552397659137795482564570193 690:0.28867513 940:0.28867513 1153:0.28867513 1288:0.28867513 1440:0.28867513 1883:0.28867513 2107:0.28867513 2109:0.28867513 2205:0.28867513 2223:0.28867513 2403:0.28867513 2572:0.28867513 #
-1.0000000241417625890250064912834 64:0.2773501 652:0.2773501 1438:0.2773501 1451:0.2773501 1542:0.2773501 1620:0.2773501 1718:0.2773501 1892:0.2773501 2109:0.2773501 2572:0.5547002 #
-0.40887376797688079754777845664648 250:0.32025629 258:0.16012815 294:0.16012815 505:0.16012815 606:0.16012815 920:0.16012815 978:0.16012815 1991:0.32025629 2080:0.16012815 2109:0.64051259 2460:0.16012815 2546:0.32025629 2697:0.16012815 2808:0.16012815 2836:0.16012815 #
-0.048631657147906036386952877137446 367:0.28867513 429:0.28867513 527:0.28867513 536:0.28867513 691:0.28867513 935:0.28867513 1475:0.28867513 1479:0.28867513 1975:0.28867513 2412:0.28867513 2460:0.28867513 2737:0.28867513 #
1.0000000241417625890250064912834 1760:0.70710677 2706:0.70710677 #
1.0000000241417625890250064912834 1246:0.57735026 1308:0.57735026 1760:0.57735026 #
1.0000000241417625890250064912834 1617:0.57735026 1760:0.57735026 1978:0.57735026 #
1.0000000241417625890250064912834 412:0.70710677 1760:0.70710677 #
1.0000000241417625890250064912834 1760:0.70710677 2133:0.70710677 #
-1.0000000241417625890250064912834 1760:0.70710677 2133:0.70710677 #
0.96324357897119039506605986389332 714:0.57735026 920:0.57735026 2003:0.57735026 #
-1.0000000241417625890250064912834 475:0.37796447 1048:0.37796447 1360:0.37796447 1760:0.37796447 1987:0.37796447 2121:0.37796447 2239:0.37796447 #
-1.0000000241417625890250064912834 130:0.35355338 527:0.35355338 983:0.35355338 1025:0.35355338 1475:0.35355338 1760:0.35355338 2186:0.35355338 2460:0.35355338 #
1.0000000241417625890250064912834 181:0.28867513 269:0.57735026 535:0.28867513 551:0.28867513 687:0.28867513 1291:0.28867513 2595:0.28867513 2652:0.28867513 2925:0.28867513 #
-1.0000000241417625890250064912834 864:0.57735026 1566:0.57735026 2652:0.57735026 #
-1.0000000241417625890250064912834 586:0.70710677 1833:0.70710677 #
-1.0000000241417625890250064912834 1461:0.70710677 1566:0.70710677 #
-1.0000000241417625890250064912834 437:0.57735026 2229:0.57735026 2652:0.57735026 #
-1.0000000241417625890250064912834 1566:0.70710677 2460:0.70710677 #
1.0000000241417625890250064912834 796:0.44721359 1715:0.44721359 1760:0.44721359 1948:0.44721359 2201:0.44721359 #
1.0000000241417625890250064912834 650:0.57735026 1234:0.57735026 1760:0.57735026 #
1.0000000241417625890250064912834 1760:0.57735026 2316:0.57735026 2812:0.57735026 #
0.80261858984997691557339294377016 578:0.57735026 818:0.57735026 1760:0.57735026 #
1.0000000241417625890250064912834 9:0.33333334 408:0.33333334 634:0.33333334 1477:0.66666669 1760:0.33333334 2847:0.33333334 #
1.0000000241417625890250064912834 1566:0.70710677 2460:0.70710677 #
1.0000000241417625890250064912834 437:0.2773501 921:0.2773501 949:0.2773501 1179:0.2773501 1265:0.2773501 1799:0.2773501 1853:0.2773501 2229:0.2773501 2460:0.5547002 2595:0.2773501 #
-1.0000000241417625890250064912834 1760:0.70710677 2706:0.70710677 #
-0.64036629739005179740019002565532 9:0.47140452 643:0.23570226 650:0.23570226 691:0.23570226 1069:0.23570226 1477:0.47140452 1541:0.23570226 2150:0.23570226 2317:0.23570226 2572:0.23570226 2654:0.23570226 2925:0.23570226 #
-1.0000000241417625890250064912834 412:0.37796447 738:0.37796447 819:0.37796447 1153:0.37796447 1760:0.37796447 2572:0.37796447 2664:0.37796447 #
-1.0000000241417625890250064912834 774:0.37796447 1628:0.37796447 1758:0.37796447 1984:0.37796447 1985:0.37796447 2247:0.37796447 2450:0.37796447 #
1.0000000241417625890250064912834 250:0.66666669 1718:0.33333334 1745:0.33333334 2121:0.33333334 2384:0.33333334 2460:0.33333334 #
1.0000000241417625890250064912834 1048:0.44721359 1461:0.44721359 2385:0.44721359 2460:0.44721359 2694:0.44721359 #
-1.0000000241417625890250064912834 2460:1 #
1.0000000241417625890250064912834 287:0.5 367:0.5 412:0.5 1760:0.5 #
-1.0000000241417625890250064912834 250:0.66666669 1718:0.33333334 1745:0.33333334 2121:0.33333334 2384:0.33333334 2460:0.33333334 #
-0.98796530310448738010364877482061 181:0.26726124 210:0.26726124 527:0.26726124 528:0.26726124 991:0.26726124 1048:0.26726124 1196:0.26726124 1325:0.26726124 1538:0.26726124 2201:0.26726124 2316:0.26726124 2317:0.26726124 2385:0.26726124 2460:0.26726124 #
-1.0000000241417625890250064912834 1825:1 #
-1.0000000241417625890250064912834 451:0.25 530:0.25 551:0.25 1210:0.25 1693:0.25 2274:0.25 2316:0.5 2396:0.25 2416:0.25 2417:0.25 2759:0.25 2805:0.25 2963:0.25 #
1.0000000241417625890250064912834 956:0.40824831 1089:0.40824831 1142:0.40824831 2460:0.40824831 2531:0.40824831 2934:0.40824831 #
1.0000000241417625890250064912834 130:0.40824831 428:0.40824831 512:0.40824831 748:0.40824831 818:0.40824831 2737:0.40824831 #
-1.0000000241417625890250064912834 956:1 #
-1.0000000241417625890250064912834 180:1 #
-1.0000000241417625890250064912834 718:0.57735026 956:0.57735026 2595:0.57735026 #
1.0000000241417625890250064912834 600:0.5 2121:0.5 2316:0.5 2460:0.5 #
1.0000000241417625890250064912834 294:0.31622776 314:0.31622776 1064:0.31622776 1078:0.31622776 2150:0.31622776 2316:0.31622776 2460:0.63245553 #
-0.99141728859267130857801930687856 600:0.5 2121:0.5 2316:0.5 2460:0.5 #
-1.0000000241417625890250064912834 294:0.31622776 314:0.31622776 1064:0.31622776 1078:0.31622776 2150:0.31622776 2316:0.31622776 2460:0.63245553 #
-1.0000000241417625890250064912834 748:0.40824831 2282:0.40824831 2460:0.81649661 #
-1.0000000241417625890250064912834 1160:0.70710677 1617:0.70710677 #
-1.0000000241417625890250064912834 443:0.53452247 920:0.26726124 993:0.26726124 1317:0.53452247 1603:0.26726124 2267:0.26726124 2721:0.26726124 2829:0.26726124 #
-1.0000000241417625890250064912834 1160:1 #
-1.0000000241417625890250064912834 920:0.44721359 1826:0.44721359 2229:0.44721359 2460:0.44721359 2595:0.44721359 #
1.0000000241417625890250064912834 463:0.24253562 551:0.24253562 714:0.24253562 743:0.24253562 956:0.24253562 1089:0.24253562 1114:0.24253562 1325:0.24253562 1333:0.24253562 1727:0.24253562 1799:0.24253562 2430:0.24253562 2460:0.48507124 2492:0.24253562 #
1.0000000241417625890250064912834 2236:0.44721359 2460:0.89442718 #
1.0000000241417625890250064912834 1114:0.37796447 1507:0.37796447 2460:0.75592893 2572:0.37796447 #
1.0000000241417625890250064912834 718:0.31622776 913:0.31622776 1205:0.31622776 2460:0.63245553 2551:0.31622776 2595:0.31622776 2993:0.31622776 #
-1.0000000241417625890250064912834 2460:1 #
1.0000000241417625890250064912834 58:0.22941573 212:0.6882472 650:0.45883146 897:0.22941573 1176:0.22941573 1815:0.22941573 1892:0.22941573 2721:0.22941573 #
1.0000000241417625890250064912834 2:0.6882472 650:0.6882472 1760:0.22941573 #
-0.027722675624180407455421359941283 643:0.57735026 1057:0.57735026 1102:0.57735026 #
-1.0000000241417625890250064912834 463:0.24253562 551:0.24253562 714:0.24253562 743:0.24253562 956:0.24253562 1089:0.24253562 1114:0.24253562 1325:0.24253562 1333:0.24253562 1727:0.24253562 1799:0.24253562 2430:0.24253562 2460:0.48507124 2492:0.24253562 #
-1.0000000241417625890250064912834 1114:0.70710677 2460:0.70710677 #
-1.0000000241417625890250064912834 1114:0.5 2144:0.5 2460:0.5 2963:0.5 #
1.0000000241417625890250064912834 920:0.57735026 2460:0.57735026 2507:0.57735026 #
1.0000000241417625890250064912834 745:0.40824831 1105:0.40824831 1477:0.40824831 1531:0.40824831 1555:0.40824831 1760:0.40824831 #
-1.0000000241417625890250064912834 650:0.35355338 700:0.35355338 920:0.35355338 1237:0.35355338 1243:0.35355338 1462:0.35355338 1566:0.35355338 2652:0.35355338 #
0.57597705438402868605152207237552 2545:1 #
-1.0000000241417625890250064912834 269:0.5 578:0.5 920:0.5 1477:0.5 #
-1.0000000241417625890250064912834 897:1 #
-0.83815398078491276656620811991161 561:0.35355338 1196:0.35355338 1438:0.35355338 1465:0.35355338 2460:0.35355338 2595:0.35355338 2597:0.35355338 2690:0.35355338 #
1.0000000241417625890250064912834 1114:0.70710677 2460:0.70710677 #
-1.0000000241417625890250064912834 2460:1 #
0.074443017591797944199072389892535 828:1 #
-1.0000000241417625890250064912834 212:1 #
1.0000000241417625890250064912834 210:0.28867513 379:0.28867513 424:0.28867513 437:0.28867513 920:0.28867513 1242:0.28867513 1718:0.28867513 2460:0.57735026 2653:0.28867513 #
1.0000000241417625890250064912834 40:0.44721359 236:0.44721359 1288:0.44721359 1532:0.44721359 2460:0.44721359 #
1.0000000241417625890250064912834 1252:0.70710677 2460:0.70710677 #
1.0000000241417625890250064912834 1237:0.44721359 2236:0.44721359 2303:0.44721359 2460:0.44721359 2912:0.44721359 #
0.45185378488585808964828061107255 613:0.40824831 757:0.40824831 920:0.40824831 2361:0.40824831 2697:0.40824831 2718:0.40824831 #
-0.99864034256987554982742949505337 916:0.35355338 922:0.35355338 1057:0.35355338 2013:0.35355338 2235:0.35355338 2503:0.35355338 2611:0.35355338 2923:0.35355338 #
-1.0000000241417625890250064912834 983:0.57735026 1507:0.57735026 2460:0.57735026 #
-0.67119645392174509535010429317481 983:0.37796447 1069:0.37796447 1620:0.37796447 1743:0.37796447 1879:0.37796447 2460:0.37796447 2856:0.37796447 #
1.0000000241417625890250064912834 172:0.40824831 1061:0.40824831 1227:0.40824831 1848:0.40824831 2460:0.40824831 2721:0.40824831 #
1.0000000241417625890250064912834 314:0.44721359 635:0.44721359 1064:0.44721359 1971:0.44721359 2460:0.44721359 #
1.0000000241417625890250064912834 505:0.26726124 650:0.26726124 1240:0.26726124 1325:0.26726124 1718:0.26726124 2460:0.53452247 2514:0.26726124 2546:0.26726124 2579:0.26726124 2674:0.26726124 2921:0.26726124 #
-0.93431152310486653700394299448817 1064:0.89442718 2762:0.44721359 #
-1.0000000241417625890250064912834 314:0.44721359 635:0.44721359 1064:0.44721359 1971:0.44721359 2460:0.44721359 #
-1.0000000241417625890250064912834 852:0.57735026 1240:0.57735026 2721:0.57735026 #
1.0000000241417625890250064912834 2190:1 #
-1.0000000241417625890250064912834 2531:0.44721359 2721:0.89442718 #
1.0000000241417625890250064912834 983:0.57735026 1507:0.57735026 2460:0.57735026 #
1.0000000241417625890250064912834 920:0.44721359 1826:0.44721359 2229:0.44721359 2460:0.44721359 2595:0.44721359 #
1.0000000241417625890250064912834 527:0.28867513 983:0.28867513 1105:0.28867513 1507:0.28867513 1566:0.28867513 1919:0.28867513 2403:0.28867513 2460:0.57735026 2477:0.28867513 #
1.0000000241417625890250064912834 687:0.70710677 2531:0.70710677 #
1.0000000241417625890250064912834 1069:1 #
-1.0000000241417625890250064912834 505:0.26726124 650:0.26726124 1240:0.26726124 1325:0.26726124 1718:0.26726124 2460:0.53452247 2514:0.26726124 2546:0.26726124 2579:0.26726124 2674:0.26726124 2921:0.26726124 #
-1.0000000241417625890250064912834 687:0.25819889 825:0.25819889 1093:0.25819889 1819:0.25819889 1921:0.25819889 2460:0.77459669 2897:0.25819889 #
-1.0000000241417625890250064912834 2460:1 #
1.0000000241417625890250064912834 527:0.57735026 2531:0.57735026 2546:0.57735026 #
1.0000000241417625890250064912834 328:0.37796447 412:0.37796447 818:0.37796447 1760:0.37796447 2492:0.37796447 2716:0.37796447 2721:0.37796447 #
-1.0000000241417625890250064912834 1069:1 #
-1.0000000241417625890250064912834 1760:1 #
-1.0000000241417625890250064912834 1069:1 #
-1.0000000241417625890250064912834 554:0.57735026 1069:0.57735026 1963:0.57735026 #
1.0000000241417625890250064912834 2460:1 #
1.0000000241417625890250064912834 687:0.25819889 825:0.25819889 1093:0.25819889 1819:0.25819889 1921:0.25819889 2460:0.77459669 2897:0.25819889 #
-1.0000000241417625890250064912834 920:0.57735026 2460:0.57735026 2507:0.57735026 #
-1.0000000241417625890250064912834 2460:1 #
-1.0000000241417625890250064912834 920:0.5 1670:0.5 2229:0.5 2460:0.5 #
1.0000000241417625890250064912834 1069:1 #
1.0000000241417625890250064912834 471:0.40824831 1545:0.40824831 1760:0.40824831 2204:0.40824831 2396:0.40824831 2397:0.40824831 #
-1.0000000241417625890250064912834 527:0.57735026 2389:0.57735026 2546:0.57735026 #
-1.0000000241417625890250064912834 1142:0.5 1229:0.5 1440:0.5 2546:0.5 #
-1.0000000241417625890250064912834 650:0.70710677 2492:0.70710677 #
1.0000000241417625890250064912834 920:0.5 1670:0.5 2229:0.5 2460:0.5 #
1.0000000241417625890250064912834 2460:1 #
1.0000000241417625890250064912834 556:0.25 687:0.25 714:0.25 1743:0.25 2221:0.25 2316:0.25 2460:0.75 2652:0.25 #
-1.0000000241417625890250064912834 556:0.25 687:0.25 714:0.25 1743:0.25 2221:0.25 2316:0.25 2460:0.75 2652:0.25 #
1.0000000241417625890250064912834 210:0.70710677 2546:0.70710677 #
-1.0000000241417625890250064912834 210:0.70710677 2546:0.70710677 #
-1.0000000241417625890250064912834 210:0.5547002 269:0.2773501 396:0.2773501 687:0.2773501 920:0.2773501 1178:0.2773501 1509:0.2773501 2072:0.2773501 2229:0.2773501 2492:0.2773501 #
-1.0000000241417625890250064912834 255:0.25819889 328:0.25819889 818:0.25819889 930:0.25819889 1015:0.25819889 1059:0.25819889 1438:0.25819889 1632:0.25819889 1759:0.25819889 1760:0.25819889 2503:0.25819889 2507:0.25819889 2572:0.25819889 2656:0.25819889 2682:0.25819889 #
-1.0000000241417625890250064912834 1035:0.57735026 1554:0.57735026 2957:0.57735026 #
1.0000000241417625890250064912834 748:0.40824831 2282:0.40824831 2460:0.81649661 #
1.0000000241417625890250064912834 538:0.57735026 1477:0.57735026 2460:0.57735026 #
1.0000000241417625890250064912834 391:0.70710677 2460:0.70710677 #
1.0000000241417625890250064912834 2460:0.70710677 2464:0.70710677 #
-1.0000000241417625890250064912834 2460:1 #
-1.0000000241417625890250064912834 1921:0.70710677 2460:0.70710677 #
-0.74403096225742659797219857864548 1064:0.40824831 1160:0.40824831 1272:0.40824831 1455:0.40824831 1464:0.40824831 2024:0.40824831 #
-1.0000000241417625890250064912834 28:0.70710677 2546:0.70710677 #
-1.0000000241417625890250064912834 1474:0.70710677 2546:0.70710677 #
-1.0000000241417625890250064912834 634:0.30151135 691:0.30151135 1440:0.30151135 1615:0.30151135 2531:0.30151135 2546:0.30151135 2664:0.30151135 2925:0.60302269 #
1.0000000241417625890250064912834 130:0.35355338 687:0.35355338 1069:0.35355338 1588:0.35355338 2460:0.35355338 2697:0.35355338 2895:0.35355338 2908:0.35355338 #
1.0000000241417625890250064912834 2460:0.70710677 2897:0.70710677 #
-1.0000000241417625890250064912834 130:0.35355338 687:0.35355338 1069:0.35355338 1588:0.35355338 2460:0.35355338 2697:0.35355338 2895:0.35355338 2908:0.35355338 #
-1.0000000241417625890250064912834 130:0.26726124 745:0.26726124 920:0.26726124 1388:0.26726124 1725:0.26726124 1952:0.26726124 2056:0.26726124 2077:0.26726124 2460:0.53452247 2572:0.26726124 2790:0.26726124 #
-1.0000000241417625890250064912834 451:0.40824831 1438:0.40824831 1632:0.40824831 1707:0.40824831 2626:0.40824831 2916:0.40824831 #
-0.9726874865210179965657744105556 181:0.31622776 451:0.31622776 528:0.31622776 529:0.31622776 650:0.31622776 1240:0.31622776 1853:0.31622776 2201:0.31622776 2604:0.31622776 2881:0.31622776 #
-0.36058579930016604331299845398462 130:0.30151135 531:0.30151135 1034:0.30151135 1359:0.30151135 1668:0.30151135 2092:0.30151135 2093:0.30151135 2396:0.30151135 2595:0.30151135 2597:0.30151135 2990:0.30151135 #
-1.0000000241417625890250064912834 1477:1 #
1.0000000241417625890250064912834 523:0.44721359 1464:0.44721359 2221:0.44721359 2460:0.44721359 2803:0.44721359 #
-0.25524381628583681091981816280168 1998:0.5 2061:0.5 2820:0.5 2969:0.5 #
-0.77590632903769662931381390080787 328:0.28867513 818:0.28867513 876:0.28867513 919:0.28867513 1069:0.28867513 1205:0.28867513 1308:0.28867513 1867:0.28867513 1913:0.28867513 2460:0.28867513 2477:0.28867513 2914:0.28867513 #
-1.0000000241417625890250064912834 40:0.33333334 247:0.33333334 268:0.33333334 745:0.33333334 1151:0.33333334 1532:0.33333334 1711:0.33333334 2531:0.33333334 2576:0.33333334 #
-1.0000000241417625890250064912834 858:0.70710677 1677:0.70710677 #
-1.0000000241417625890250064912834 181:0.57735026 212:0.57735026 287:0.57735026 #
-1.0000000241417625890250064912834 250:0.45883146 367:0.22941573 512:0.22941573 527:0.45883146 538:0.22941573 940:0.22941573 1011:0.22941573 1122:0.22941573 1359:0.22941573 1620:0.22941573 1963:0.22941573 2384:0.22941573 2699:0.22941573 #
0.96042845263713916281744786829222 973:1 #
1.0000000241417625890250064912834 2460:1 #
-1.0000000241417625890250064912834 407:0.37796447 475:0.37796447 1826:0.37796447 2168:0.37796447 2397:0.37796447 2460:0.37796447 2597:0.37796447 #
0.39775460224717962276486105110962 296:0.5 818:0.5 949:0.5 2870:0.5 #
-1.0000000241417625890250064912834 271:0.5 287:0.5 1760:0.5 2994:0.5 #
-1.0000000241417625890250064912834 650:0.70710677 2653:0.70710677 #
-0.081463170329259773638774788651062 857:0.31622776 1004:0.31622776 1760:0.31622776 1884:0.31622776 1899:0.31622776 2039:0.31622776 2208:0.31622776 2435:0.31622776 2483:0.31622776 2510:0.31622776 #
-0.34014562194435316033747085384675 100:0.26726124 687:0.26726124 1554:0.26726124 1865:0.26726124 1874:0.26726124 1903:0.26726124 2244:0.26726124 2460:0.26726124 2595:0.26726124 2610:0.26726124 2718:0.26726124 2760:0.26726124 2812:0.26726124 2897:0.26726124 #
1.0000000241417625890250064912834 1715:0.70710677 2460:0.70710677 #
1.0000000241417625890250064912834 1243:0.70710677 2460:0.70710677 #
1.0000000241417625890250064912834 451:0.5 2221:0.5 2460:0.5 2508:0.5 #
-1.0000000241417625890250064912834 69:0.35355338 505:0.35355338 1069:0.35355338 2198:0.35355338 2256:0.35355338 2460:0.35355338 2625:0.35355338 2697:0.35355338 #
-1.0000000241417625890250064912834 451:0.5 2221:0.5 2460:0.5 2508:0.5 #
-1.0000000241417625890250064912834 1715:0.70710677 2460:0.70710677 #
-1.0000000241417625890250064912834 1243:0.70710677 2460:0.70710677 #
-1.0000000241417625890250064912834 391:0.70710677 2460:0.70710677 #
1.0000000241417625890250064912834 269:0.57735026 956:0.57735026 2144:0.57735026 #
1.0000000241417625890250064912834 1160:0.57735026 1170:0.57735026 1617:0.57735026 #
1.0000000241417625890250064912834 314:0.25819889 644:0.25819889 1078:0.25819889 1475:0.25819889 1620:0.25819889 2316:0.25819889 2572:0.51639777 2652:0.25819889 2674:0.51639777 #
1.0000000241417625890250064912834 250:0.5 1034:0.25 2109:0.75 2201:0.25 2925:0.25 #
1.0000000241417625890250064912834 691:1 #
-0.51230270852539983028606229709112 745:0.40824831 1105:0.40824831 1477:0.40824831 1531:0.40824831 1555:0.40824831 1760:0.40824831 #
-1.0000000241417625890250064912834 437:0.40824831 613:0.40824831 2229:0.40824831 2595:0.40824831 2611:0.40824831 2632:0.40824831 #
1.0000000241417625890250064912834 130:0.26726124 505:0.26726124 1114:0.26726124 2144:0.26726124 2416:0.26726124 2460:0.53452247 2776:0.26726124 2963:0.53452247 #
1.0000000241417625890250064912834 2460:0.57735026 2652:0.57735026 2697:0.57735026 #
-1.0000000241417625890250064912834 2460:0.70710677 2464:0.70710677 #
-1.0000000241417625890250064912834 523:0.44721359 1464:0.44721359 2221:0.44721359 2460:0.44721359 2803:0.44721359 #
-1.0000000241417625890250064912834 1252:0.70710677 2460:0.70710677 #
-1.0000000241417625890250064912834 531:0.40824831 900:0.40824831 1680:0.40824831 1740:0.40824831 2652:0.40824831 2719:0.40824831 #
-0.53825215248261448763855696597602 40:0.44721359 236:0.44721359 1288:0.44721359 1532:0.44721359 2460:0.44721359 #
1.0000000241417625890250064912834 210:0.30151135 527:0.30151135 650:0.30151135 676:0.30151135 691:0.30151135 920:0.30151135 991:0.30151135 1265:0.30151135 1477:0.30151135 1603:0.30151135 2925:0.30151135 #
1.0000000241417625890250064912834 2168:0.70710677 2205:0.70710677 #
1.0000000241417625890250064912834 527:0.57735026 2389:0.57735026 2546:0.57735026 #
1.0000000241417625890250064912834 650:0.57735026 1240:0.57735026 2771:0.57735026 #
1.0000000241417625890250064912834 9:0.5 1069:0.5 1477:0.5 1566:0.5 #
-1.0000000241417625890250064912834 81:0.31622776 650:0.31622776 1056:0.31622776 1240:0.31622776 1477:0.63245553 1498:0.31622776 1815:0.31622776 #
-1.0000000241417625890250064912834 412:0.5 1697:0.5 2546:0.5 2829:0.5 #
-1.0000000241417625890250064912834 1477:0.70710677 1566:0.70710677 #
-1.0000000241417625890250064912834 527:0.44721359 650:0.44721359 1034:0.44721359 2121:0.44721359 2927:0.44721359 #
1.0000000241417625890250064912834 890:0.57735026 1963:0.57735026 2460:0.57735026 #
1.0000000241417625890250064912834 2150:0.57735026 2460:0.57735026 2568:0.57735026 #
-1.0000000241417625890250064912834 222:0.57735026 1153:0.57735026 1538:0.57735026 #
-1.0000000241417625890250064912834 451:0.40824831 1533:0.40824831 2150:0.40824831 2316:0.40824831 2595:0.40824831 2697:0.40824831 #
-1.0000000241417625890250064912834 1507:1 #
-1.0000000241417625890250064912834 1462:0.40824831 1538:0.40824831 2150:0.40824831 2317:0.40824831 2826:0.40824831 2965:0.40824831 #
-1.0000000241417625890250064912834 20:0.20851441 428:0.62554324 650:0.20851441 763:0.20851441 940:0.20851441 1237:0.20851441 1307:0.20851441 1336:0.20851441 1359:0.20851441 1461:0.20851441 1573:0.20851441 2150:0.20851441 2223:0.20851441 2403:0.20851441 2695:0.20851441 #
1.0000000241417625890250064912834 2829:1 #
1.0000000241417625890250064912834 1107:0.57735026 1464:0.57735026 2121:0.57735026 #
1.0000000241417625890250064912834 1622:1 #
1.0000000241417625890250064912834 531:0.40824831 900:0.40824831 1680:0.40824831 1740:0.40824831 2652:0.40824831 2719:0.40824831 #
-1.0000000241417625890250064912834 748:0.5 798:0.5 1107:0.5 1551:0.5 #
-1.0000000241417625890250064912834 766:0.5 2119:0.5 2829:0.5 2993:0.5 #
-0.88266368516014859224583233299199 689:0.57735026 1773:0.57735026 2040:0.57735026 #
-1.0000000241417625890250064912834 408:1 #
1.0000000241417625890250064912834 650:0.40824831 683:0.40824831 1507:0.40824831 2403:0.40824831 2460:0.40824831 2721:0.40824831 #
1.0000000241417625890250064912834 1063:0.70710677 1507:0.70710677 #
1.0000000241417625890250064912834 1153:0.40824831 2233:0.40824831 2403:0.81649661 #
1.0000000241417625890250064912834 403:0.28867513 551:0.28867513 650:0.28867513 700:0.28867513 1265:0.28867513 1964:0.28867513 2190:0.28867513 2235:0.28867513 2316:0.28867513 2460:0.28867513 2558:0.28867513 2674:0.28867513 #
1.0000000241417625890250064912834 451:0.40824831 1533:0.40824831 2150:0.40824831 2316:0.40824831 2595:0.40824831 2697:0.40824831 #
-1.0000000241417625890250064912834 650:0.5 1042:0.5 1243:0.5 2403:0.5 #
-1.0000000241417625890250064912834 210:0.26726124 403:0.26726124 650:0.53452247 920:0.26726124 1048:0.26726124 2385:0.26726124 2572:0.26726124 2652:0.26726124 2870:0.26726124 2922:0.26726124 2963:0.26726124 #
-1.0000000241417625890250064912834 531:0.25819889 650:0.51639777 724:0.25819889 763:0.25819889 897:0.25819889 1048:0.25819889 1680:0.25819889 1815:0.25819889 1892:0.25819889 2403:0.25819889 2492:0.25819889 2526:0.25819889 #
1.0000000241417625890250064912834 408:1 #
1.0000000241417625890250064912834 766:0.5 2119:0.5 2829:0.5 2993:0.5 #
1.0000000241417625890250064912834 2993:1 #
1.0000000241417625890250064912834 798:1 #
-1.0000000241417625890250064912834 412:0.40824831 798:0.40824831 1507:0.40824831 2662:0.40824831 2721:0.40824831 2968:0.40824831 #
-1.0000000241417625890250064912834 2460:0.70710677 2897:0.70710677 #
-0.058436958463945448682963501596532 130:0.30151135 687:0.30151135 1472:0.30151135 1588:0.30151135 1760:0.30151135 2460:0.60302269 2697:0.30151135 2908:0.30151135 #
1.0000000241417625890250064912834 531:0.25819889 650:0.51639777 724:0.25819889 763:0.25819889 897:0.25819889 1048:0.25819889 1680:0.25819889 1815:0.25819889 1892:0.25819889 2403:0.25819889 2492:0.25819889 2526:0.25819889 #
1.0000000241417625890250064912834 650:0.70710677 2492:0.70710677 #
1.0000000241417625890250064912834 210:0.26726124 403:0.26726124 650:0.53452247 920:0.26726124 1048:0.26726124 2385:0.26726124 2572:0.26726124 2652:0.26726124 2870:0.26726124 2922:0.26726124 2963:0.26726124 #
1.0000000241417625890250064912834 650:1 #
-1.0000000241417625890250064912834 48:0.37796447 253:0.37796447 650:0.75592893 1452:0.37796447 #
-1.0000000241417625890250064912834 650:0.66666669 1240:0.33333334 2150:0.33333334 2316:0.33333334 2412:0.33333334 2632:0.33333334 #
-1.0000000241417625890250064912834 650:0.70710677 2526:0.70710677 #
1.0000000241417625890250064912834 2460:0.70710677 2897:0.70710677 #
1.0000000241417625890250064912834 1029:0.57735026 2460:0.57735026 2897:0.57735026 #
1.0000000241417625890250064912834 328:0.40824831 391:0.40824831 2176:0.40824831 2460:0.40824831 2572:0.40824831 2721:0.40824831 #
1.0000000241417625890250064912834 130:0.2236068 527:0.2236068 667:0.2236068 745:0.2236068 777:0.2236068 919:0.2236068 991:0.2236068 1205:0.2236068 1477:0.44721359 2460:0.2236068 2595:0.44721359 2610:0.2236068 2718:0.2236068 2897:0.2236068 #
-1.0000000241417625890250064912834 2460:0.70710677 2897:0.70710677 #
1.0000000241417625890250064912834 210:0.70710677 2859:0.70710677 #
0.67136658627656553566254160614335 940:0.21320072 1078:0.21320072 1080:0.21320072 1160:0.42640144 1413:0.21320072 2150:0.63960212 2312:0.42640144 2785:0.21320072 #
-1.0000000241417625890250064912834 491:0.18898223 619:0.18898223 655:0.18898223 683:0.37796447 777:0.18898223 812:0.18898223 1255:0.18898223 1690:0.18898223 2072:0.18898223 2460:0.18898223 2595:0.56694669 2614:0.18898223 2663:0.18898223 2664:0.18898223 2735:0.18898223 2812:0.18898223 2957:0.18898223 #
-0.79505393445910521599273579340661 374:0.23570226 449:0.23570226 598:0.23570226 1389:0.23570226 1617:0.23570226 1895:0.23570226 1963:0.23570226 2036:0.23570226 2329:0.23570226 2385:0.23570226 2517:0.23570226 2547:0.23570226 2674:0.47140452 2694:0.23570226 2699:0.23570226 #
-1.0000000241417625890250064912834 94:0.2236068 287:0.2236068 451:0.2236068 791:0.67082042 1333:0.2236068 1726:0.2236068 2531:0.2236068 2652:0.2236068 2654:0.2236068 2737:0.2236068 2763:0.2236068 2853:0.2236068 #
-1.0000000241417625890250064912834 130:0.28867513 379:0.28867513 1069:0.28867513 1615:0.28867513 1676:0.28867513 1862:0.28867513 1948:0.28867513 1982:0.28867513 2190:0.28867513 2201:0.28867513 2245:0.28867513 2931:0.28867513 #
-1.0000000241417625890250064912834 527:0.70710677 619:0.70710677 #
1.0000000241417625890250064912834 650:0.66666669 1240:0.33333334 2150:0.33333334 2316:0.33333334 2412:0.33333334 2632:0.33333334 #
1.0000000241417625890250064912834 48:0.37796447 253:0.37796447 650:0.75592893 1452:0.37796447 #
1.0000000241417625890250064912834 650:0.5 1042:0.5 1243:0.5 2403:0.5 #
1.0000000241417625890250064912834 1196:0.37796447 1461:0.37796447 1462:0.37796447 1760:0.37796447 2317:0.37796447 2595:0.37796447 2653:0.37796447 #
1.0000000241417625890250064912834 428:0.57735026 650:0.57735026 2150:0.57735026 #
-1.0000000241417625890250064912834 640:0.70710677 650:0.70710677 #
-1.0000000241417625890250064912834 650:0.70710677 1825:0.70710677 #
1.0000000241417625890250064912834 527:0.70710677 619:0.70710677 #
1.0000000241417625890250064912834 791:1 #
1.0000000241417625890250064912834 527:0.70710677 2661:0.70710677 #
1.0000000241417625890250064912834 527:1 #
-1.0000000241417625890250064912834 527:0.70710677 619:0.70710677 #
-1.0000000241417625890250064912834 527:1 #
1.0000000241417625890250064912834 640:0.70710677 650:0.70710677 #
1.0000000241417625890250064912834 1825:1 #
-0.93172430429837971299633636590443 471:0.37796447 992:0.37796447 1442:0.37796447 1462:0.37796447 2317:0.37796447 2595:0.37796447 2812:0.37796447 #
-1.0000000241417625890250064912834 650:0.31622776 1034:0.31622776 1093:0.31622776 1628:0.31622776 2121:0.31622776 2317:0.31622776 2963:0.63245553 #
-1.0000000241417625890250064912834 391:0.40824831 1078:0.40824831 1220:0.40824831 1461:0.40824831 2150:0.40824831 2659:0.40824831 #
0.87690226901018664129594526457367 650:0.35355338 738:0.35355338 976:0.35355338 1325:0.35355338 1707:0.35355338 1718:0.35355338 2039:0.35355338 2559:0.35355338 #
-1.0000000241417625890250064912834 222:0.40824831 397:0.40824831 626:0.40824831 966:0.40824831 1351:0.40824831 2829:0.40824831 #
-1.0000000241417625890250064912834 1105:0.70710677 2176:0.70710677 #
-1.0000000241417625890250064912834 328:0.21821789 655:0.21821789 700:0.21821789 766:0.21821789 818:0.21821789 1319:0.21821789 1325:0.21821789 1461:0.21821789 1566:0.21821789 1718:0.21821789 2321:0.21821789 2389:0.21821789 2492:0.21821789 2632:0.21821789 2653:0.21821789 2721:0.21821789 2966:0.43643579 2969:0.21821789 #
1.0000000241417625890250064912834 180:1 #
1.0000000241417625890250064912834 1551:1 #
0.99893193534273905243026092648506 619:1 #
-1.0000000241417625890250064912834 527:0.37796447 619:0.75592893 1934:0.37796447 2514:0.37796447 #
-1.0000000241417625890250064912834 133:0.28867513 619:0.28867513 864:0.28867513 1075:0.28867513 1076:0.28867513 1888:0.28867513 2381:0.28867513 2776:0.28867513 2777:0.28867513 2912:0.28867513 2985:0.28867513 2993:0.28867513 #
-1.0000000241417625890250064912834 20:0.57735026 43:0.57735026 1551:0.57735026 #
-1.0000000241417625890250064912834 697:0.40824831 890:0.40824831 1153:0.40824831 2196:0.40824831 2198:0.40824831 2963:0.40824831 #
1.0000000241417625890250064912834 1105:0.57735026 1679:0.57735026 2176:0.57735026 #
1.0000000241417625890250064912834 218:0.2236068 676:0.2236068 689:0.2236068 1105:0.44721359 1357:0.2236068 1359:0.2236068 1566:0.2236068 1615:0.44721359 1718:0.2236068 1918:0.2236068 2258:0.2236068 2533:0.2236068 2925:0.2236068 2970:0.2236068 #
1.0000000241417625890250064912834 1105:0.70710677 2176:0.70710677 #
1.0000000241417625890250064912834 1105:1 #
1.0000000241417625890250064912834 1461:0.57735026 1907:0.57735026 2931:0.57735026 #
-1.0000000241417625890250064912834 1105:0.57735026 1679:0.57735026 2176:0.57735026 #
-0.81718454882347846268686453186092 218:0.2236068 676:0.2236068 689:0.2236068 1105:0.44721359 1357:0.2236068 1359:0.2236068 1566:0.2236068 1615:0.44721359 1718:0.2236068 1918:0.2236068 2258:0.2236068 2533:0.2236068 2925:0.2236068 2970:0.2236068 #
-1.0000000241417625890250064912834 25:0.5 361:0.5 1105:0.5 1208:0.5 #
1.0000000241417625890250064912834 20:0.30151135 130:0.30151135 287:0.30151135 613:0.30151135 1620:0.30151135 2201:0.30151135 2460:0.30151135 2663:0.30151135 2664:0.30151135 2776:0.30151135 2837:0.30151135 #
1.0000000241417625890250064912834 527:0.37796447 619:0.75592893 1934:0.37796447 2514:0.37796447 #
1.0000000241417625890250064912834 20:0.57735026 43:0.57735026 1551:0.57735026 #
1.0000000241417625890250064912834 437:0.35355338 921:0.35355338 1048:0.35355338 1069:0.35355338 2229:0.35355338 2245:0.35355338 2595:0.35355338 2961:0.35355338 #
1.0000000241417625890250064912834 43:1 #
-1.0000000241417625890250064912834 625:0.57735026 1237:0.57735026 1461:0.57735026 #
-0.52594584057992288528282642801059 250:0.66666669 514:0.33333334 1198:0.33333334 1860:0.33333334 1991:0.33333334 2347:0.33333334 #
1.0000000241417625890250064912834 210:0.44721359 287:0.44721359 467:0.44721359 940:0.44721359 2503:0.44721359 #
1.0000000241417625890250064912834 222:0.70710677 2662:0.70710677 #
1.0000000241417625890250064912834 2897:1 #
1.0000000241417625890250064912834 602:0.37796447 2221:0.75592893 2393:0.37796447 2632:0.37796447 #
1.0000000241417625890250064912834 40:0.30151135 236:0.30151135 253:0.30151135 886:0.30151135 1153:0.30151135 1593:0.30151135 2631:0.60302269 2897:0.30151135 #
1.0000000241417625890250064912834 864:0.57735026 1566:0.57735026 2652:0.57735026 #
-1.0000000241417625890250064912834 40:0.30151135 236:0.30151135 253:0.30151135 886:0.30151135 1153:0.30151135 1593:0.30151135 2631:0.60302269 2897:0.30151135 #
-1.0000000241417625890250064912834 1059:0.35355338 1063:0.35355338 1194:0.35355338 1715:0.35355338 2953:0.70710677 #
-1.0000000241417625890250064912834 341:0.37796447 2221:0.37796447 2373:0.37796447 2393:0.37796447 2632:0.37796447 2670:0.37796447 2892:0.37796447 #
-1.0000000241417625890250064912834 40:0.25 210:0.5 236:0.25 1799:0.25 2205:0.25 2221:0.25 2229:0.25 2548:0.25 2595:0.25 2601:0.25 2631:0.25 2697:0.25 2897:0.25 #
1.0000000241417625890250064912834 625:0.57735026 1237:0.57735026 1461:0.57735026 #
1.0000000241417625890250064912834 1461:1 #
1.0000000241417625890250064912834 287:0.70710677 644:0.70710677 #
1.0000000241417625890250064912834 287:0.70710677 2654:0.70710677 #
-1.0000000241417625890250064912834 287:0.70710677 2654:0.70710677 #
-1.0000000241417625890250064912834 287:0.70710677 1978:0.70710677 #
0.4277555180487634389763229592063 412:0.53452247 467:0.80178374 2829:0.26726124 #
-0.77258529925171681718154559348477 287:0.70710677 841:0.70710677 #
-1.0000000241417625890250064912834 287:0.70710677 2967:0.70710677 #
1.0000000241417625890250064912834 463:0.44721359 655:0.44721359 1799:0.44721359 2229:0.44721359 2595:0.44721359 #
1.0000000241417625890250064912834 655:0.57735026 1811:0.57735026 2601:0.57735026 #
1.0000000241417625890250064912834 437:0.40824831 1333:0.40824831 1503:0.40824831 1799:0.40824831 2595:0.40824831 2611:0.40824831 #
1.0000000241417625890250064912834 437:0.35355338 451:0.35355338 655:0.35355338 1134:0.35355338 2229:0.35355338 2460:0.35355338 2480:0.35355338 2595:0.35355338 #
-0.16456965399194348198541604233469 437:0.35355338 451:0.35355338 655:0.35355338 1134:0.35355338 2229:0.35355338 2460:0.35355338 2480:0.35355338 2595:0.35355338 #
-1.0000000241417625890250064912834 437:1 #
-1.0000000241417625890250064912834 867:0.31622776 1016:0.31622776 1461:0.31622776 1770:0.31622776 2317:0.31622776 2397:0.63245553 2595:0.31622776 #
1.0000000241417625890250064912834 287:1 #
-1.0000000241417625890250064912834 578:1 #
-1.0000000241417625890250064912834 242:0.5 1158:0.5 2252:0.5 2829:0.5 #
-1.0000000241417625890250064912834 27:0.25819889 104:0.25819889 116:0.25819889 371:0.25819889 650:0.25819889 1335:0.25819889 1461:0.25819889 1528:0.25819889 1561:0.25819889 1612:0.25819889 1628:0.25819889 1747:0.25819889 1760:0.25819889 2136:0.25819889 2403:0.25819889 #
-1.0000000241417625890250064912834 181:0.37796447 528:0.37796447 650:0.37796447 882:0.37796447 1245:0.37796447 1461:0.37796447 2175:0.37796447 #
1.0000000241417625890250064912834 2316:0.70710677 2654:0.70710677 #
1.0000000241417625890250064912834 287:0.70710677 1978:0.70710677 #
1.0000000241417625890250064912834 287:0.70710677 2967:0.70710677 #
1.0000000241417625890250064912834 287:0.70710677 841:0.70710677 #
1.0000000241417625890250064912834 527:0.35355338 882:0.35355338 920:0.35355338 956:0.35355338 993:0.35355338 1770:0.35355338 2316:0.35355338 2923:0.35355338 #
1.0000000241417625890250064912834 181:0.33333334 403:0.33333334 451:0.33333334 528:0.33333334 650:0.33333334 1034:0.33333334 1048:0.33333334 2856:0.33333334 2940:0.33333334 #
-1.0000000241417625890250064912834 287:0.70710677 841:0.70710677 #
-0.82971976277674253097416112723295 287:0.70710677 1590:0.70710677 #
1.0000000241417625890250064912834 578:0.89442718 1308:0.44721359 #
1.0000000241417625890250064912834 2172:0.70710677 2507:0.70710677 #
1.0000000241417625890250064912834 451:0.57735026 1464:0.57735026 2181:0.57735026 #
1.0000000241417625890250064912834 578:0.5 1796:0.5 1978:0.5 2377:0.5 #
-1.0000000241417625890250064912834 2121:0.70710677 2316:0.70710677 #
-0.72300369655673590862932087475201 83:0.25 185:0.25 451:0.25 618:0.25 655:0.25 700:0.25 1048:0.25 1061:0.25 1176:0.25 1462:0.25 2397:0.25 2572:0.25 2771:0.25 2931:0.25 2935:0.25 2938:0.25 #
-0.25815377137627892878413149446715 2182:0.57735026 2316:0.57735026 2719:0.57735026 #
-1.0000000241417625890250064912834 527:0.57735026 833:0.57735026 920:0.57735026 #
1.0000000241417625890250064912834 287:0.70710677 1590:0.70710677 #
1.0000000241417625890250064912834 287:1 #
-0.043735716907208864456801933329189 73:0.25 210:0.5 476:0.25 566:0.25 1704:0.25 1760:0.25 2104:0.25 2109:0.25 2268:0.25 2425:0.25 2463:0.25 2762:0.25 2778:0.25 #
-1.0000000241417625890250064912834 287:0.57735026 321:0.57735026 2460:0.57735026 #
-1.0000000241417625890250064912834 287:0.57735026 2328:0.57735026 2557:0.57735026 #
-0.84746334516742627407381860393798 287:0.57735026 300:0.57735026 2298:0.57735026 #
1.0000000241417625890250064912834 451:0.28867513 505:0.28867513 528:0.28867513 535:0.28867513 650:0.28867513 1170:0.28867513 1208:0.28867513 1240:0.28867513 2121:0.28867513 2595:0.28867513 2694:0.28867513 2969:0.28867513 #
1.0000000241417625890250064912834 536:0.37796447 650:0.37796447 1566:0.37796447 2121:0.37796447 2140:0.37796447 2532:0.37796447 2721:0.37796447 #
0.74608926854202617384714812942548 271:0.57735026 650:0.57735026 2963:0.57735026 #
1.0000000241417625890250064912834 190:0.31622776 650:0.31622776 1245:0.31622776 1363:0.31622776 1438:0.63245553 2536:0.31622776 2652:0.31622776 #
1.0000000241417625890250064912834 650:0.31622776 1034:0.31622776 1093:0.31622776 1628:0.31622776 2121:0.31622776 2317:0.31622776 2963:0.63245553 #
-1.0000000241417625890250064912834 650:0.70710677 1825:0.70710677 #
-0.37718689899191537584499656077242 516:0.70710677 2700:0.70710677 #
-1.0000000241417625890250064912834 338:0.44721359 650:0.44721359 1240:0.44721359 1553:0.44721359 1853:0.44721359 #
-1.0000000241417625890250064912834 650:0.57735026 1291:0.57735026 1825:0.57735026 #
1.0000000241417625890250064912834 287:0.70710677 1780:0.70710677 #
1.0000000241417625890250064912834 287:1 #
-1.0000000241417625890250064912834 428:0.70710677 451:0.70710677 #
-1.0000000241417625890250064912834 773:0.70710677 2591:0.70710677 #
-0.97516741496417047585509862983599 644:0.57735026 695:0.57735026 1145:0.57735026 #
1.0000000241417625890250064912834 941:0.5 2109:0.5 2369:0.5 2460:0.5 #
1.0000000241417625890250064912834 300:1 #
1.0000000241417625890250064912834 433:0.70710677 821:0.70710677 #
1.0000000241417625890250064912834 1462:0.40824831 1538:0.40824831 2150:0.40824831 2317:0.40824831 2826:0.40824831 2965:0.40824831 #
1.0000000241417625890250064912834 1921:0.57735026 2268:0.57735026 2925:0.57735026 #
-1.0000000241417625890250064912834 821:0.70710677 1025:0.70710677 #
-1.0000000241417625890250064912834 650:0.40824831 821:0.40824831 1041:0.40824831 2150:0.40824831 2539:0.40824831 2961:0.40824831 #
-1.0000000241417625890250064912834 2186:0.70710677 2268:0.70710677 #
-1.0000000241417625890250064912834 2109:0.70710677 2697:0.70710677 #
1.0000000241417625890250064912834 428:0.70710677 451:0.70710677 #
1.0000000241417625890250064912834 773:0.70710677 2591:0.70710677 #
1.0000000241417625890250064912834 428:0.70710677 467:0.70710677 #
1.0000000241417625890250064912834 428:0.5 650:0.5 1892:0.5 2597:0.5 #
-1.0000000241417625890250064912834 272:0.37796447 428:0.37796447 539:0.37796447 650:0.37796447 1359:0.37796447 1892:0.37796447 2250:0.37796447 #
-1.0000000241417625890250064912834 2597:1 #
-1.0000000241417625890250064912834 49:0.37796447 212:0.37796447 253:0.37796447 306:0.37796447 428:0.37796447 523:0.37796447 2572:0.37796447 #
1.0000000241417625890250064912834 821:1 #
1.0000000241417625890250064912834 821:0.70710677 1747:0.70710677 #
1.0000000241417625890250064912834 821:0.70710677 1025:0.70710677 #
1.0000000241417625890250064912834 2186:1 #
-1.0000000241417625890250064912834 296:0.31622776 424:0.31622776 744:0.31622776 821:0.31622776 1093:0.31622776 1753:0.31622776 2121:0.31622776 2190:0.31622776 2870:0.31622776 2963:0.31622776 #
-1.0000000241417625890250064912834 198:0.26726124 367:0.26726124 403:0.26726124 434:0.26726124 451:0.26726124 609:0.53452247 821:0.26726124 1312:0.26726124 1508:0.26726124 1636:0.26726124 1986:0.26726124 #
0.54114103790275636107764967164258 2546:1 #
1.0000000241417625890250064912834 212:1 #
1.0000000241417625890250064912834 272:0.37796447 428:0.37796447 539:0.37796447 650:0.37796447 1359:0.37796447 1892:0.37796447 2250:0.37796447 #
-1.0000000241417625890250064912834 212:0.70710677 451:0.35355338 650:0.35355338 2803:0.35355338 2940:0.35355338 #
0.91047726194389411169538561807713 650:0.60302269 906:0.30151135 2150:0.30151135 2282:0.30151135 2314:0.60302269 #
-0.60994077600537766059574096288998 172:0.35355338 941:0.35355338 1280:0.35355338 1333:0.35355338 1762:0.35355338 1876:0.35355338 1998:0.35355338 2841:0.35355338 #
1.0000000241417625890250064912834 40:0.26726124 236:0.26726124 329:0.26726124 2150:0.53452247 2268:0.26726124 2572:0.53452247 2635:0.26726124 2763:0.26726124 #
1.0000000241417625890250064912834 2109:0.70710677 2697:0.70710677 #
1.0000000241417625890250064912834 2697:1 #
1.0000000241417625890250064912834 321:0.5 2169:0.5 2697:0.5 2812:0.5 #
-0.91107056394302665669471252840594 538:0.28867513 814:0.57735026 1022:0.28867513 1031:0.28867513 1977:0.28867513 2098:0.28867513 2282:0.28867513 2584:0.28867513 2847:0.28867513 #
-1.0000000241417625890250064912834 551:1 #
1.0000000241417625890250064912834 212:0.70710677 451:0.35355338 650:0.35355338 2803:0.35355338 2940:0.35355338 #
1.0000000241417625890250064912834 253:0.63245553 374:0.31622776 412:0.31622776 687:0.31622776 1059:0.31622776 1611:0.31622776 2503:0.31622776 #
1.0000000241417625890250064912834 650:0.23570226 1176:0.23570226 1357:0.47140452 1427:0.23570226 1615:0.23570226 1707:0.47140452 2489:0.23570226 2597:0.23570226 2664:0.47140452 #
1.0000000241417625890250064912834 314:0.5 609:0.5 1336:0.5 1359:0.5 #
-1.0000000241417625890250064912834 253:0.63245553 374:0.31622776 412:0.31622776 687:0.31622776 1059:0.31622776 1611:0.31622776 2503:0.31622776 #
-0.3746568647702326892989788120758 1359:1 #
-1.0000000241417625890250064912834 190:0.2236068 253:0.44721359 287:0.2236068 412:0.2236068 414:0.2236068 481:0.2236068 1359:0.2236068 1918:0.2236068 2019:0.2236068 2546:0.2236068 2683:0.2236068 2815:0.2236068 2918:0.2236068 2970:0.44721359 #
-1.0000000241417625890250064912834 58:0.22941573 212:0.6882472 650:0.45883146 897:0.22941573 1176:0.22941573 1815:0.22941573 1892:0.22941573 2721:0.22941573 #
1.0000000241417625890250064912834 551:1 #
1.0000000241417625890250064912834 992:0.37796447 1034:0.37796447 1415:0.37796447 2721:0.75592893 #
1.0000000241417625890250064912834 287:0.70710677 2584:0.70710677 #
1.0000000241417625890250064912834 210:0.70710677 1333:0.70710677 #
1.0000000241417625890250064912834 250:0.81649661 296:0.40824831 1061:0.40824831 #
0.66419863082670016485309361087275 1946:0.70710677 2190:0.70710677 #
-1.0000000241417625890250064912834 1034:0.57735026 1467:0.57735026 2635:0.57735026 #
-1.0000000241417625890250064912834 1034:0.70710677 2702:0.70710677 #
-0.45691326513915797580267508237739 437:0.28867513 1034:0.28867513 1515:0.28867513 2064:0.28867513 2150:0.28867513 2250:0.28867513 2316:0.28867513 2689:0.28867513 2823:0.28867513 2881:0.28867513 2896:0.28867513 2939:0.28867513 #
1.0000000241417625890250064912834 1359:1 #
1.0000000241417625890250064912834 1359:0.70710677 2121:0.70710677 #
1.0000000241417625890250064912834 212:0.60302269 897:0.30151135 1815:0.60302269 2028:0.30151135 2597:0.30151135 #
1.0000000241417625890250064912834 212:1 #
-1.0000000241417625890250064912834 212:0.60302269 897:0.30151135 1815:0.60302269 2028:0.30151135 2597:0.30151135 #
0.33451606656386784210965856800613 2013:0.70710677 2190:0.70710677 #
0.37746376259439901046377485727135 920:0.70710677 2963:0.70710677 #
-1.0000000241417625890250064912834 513:0.40824831 897:0.40824831 1359:0.40824831 1673:0.40824831 1815:0.40824831 2029:0.40824831 #
1.0000000241417625890250064912834 1034:1 #
1.0000000241417625890250064912834 1034:0.57735026 1467:0.57735026 2635:0.57735026 #
1.0000000241417625890250064912834 1034:0.70710677 2702:0.70710677 #
1.0000000241417625890250064912834 74:0.21320072 472:0.21320072 654:0.21320072 1034:0.63960212 1438:0.21320072 1987:0.21320072 2201:0.42640144 2396:0.21320072 2460:0.21320072 2597:0.21320072 2883:0.21320072 #
-1.0000000241417625890250064912834 886:0.57735026 1034:0.57735026 2201:0.57735026 #
-1.0000000241417625890250064912834 857:0.44721359 1034:0.44721359 1269:0.44721359 1558:0.44721359 2049:0.44721359 #
-1.0000000241417625890250064912834 74:0.25819889 531:0.25819889 592:0.25819889 1034:0.25819889 1167:0.25819889 1175:0.25819889 1680:0.25819889 1987:0.25819889 2597:0.51639777 2817:0.25819889 2932:0.25819889 2935:0.25819889 #
1.0000000241417625890250064912834 212:0.70710677 527:0.70710677 #
1.0000000241417625890250064912834 897:0.70710677 1815:0.70710677 #
-0.50730929495833787523650926232222 130:0.26726124 527:0.53452247 983:0.26726124 1069:0.26726124 1157:0.26726124 1620:0.26726124 1743:0.26726124 1879:0.26726124 2460:0.26726124 2697:0.26726124 2856:0.26726124 #
-1.0000000241417625890250064912834 527:1 #
1.0000000241417625890250064912834 1474:0.70710677 2546:0.70710677 #
1.0000000241417625890250064912834 412:0.5 1697:0.5 2546:0.5 2829:0.5 #
1.0000000241417625890250064912834 20:0.2236068 586:0.2236068 852:0.2236068 1153:0.2236068 1160:0.2236068 1337:0.2236068 1416:0.44721359 2223:0.2236068 2763:0.67082042 #
1.0000000241417625890250064912834 287:0.57735026 1337:0.57735026 2762:0.57735026 #
1.0000000241417625890250064912834 734:0.35355338 919:0.35355338 1048:0.35355338 2316:0.35355338 2493:0.35355338 2546:0.35355338 2631:0.35355338 2632:0.35355338 #
-1.0000000241417625890250064912834 578:0.89442718 1308:0.44721359 #
-1.0000000241417625890250064912834 126:0.33333334 463:0.33333334 619:0.33333334 1894:0.33333334 2192:0.66666669 2221:0.33333334 #
-1.0000000241417625890250064912834 2763:1 #
-1.0000000241417625890250064912834 1048:0.40824831 1265:0.40824831 1478:0.40824831 2385:0.40824831 2664:0.40824831 2897:0.40824831 #
-1.0000000241417625890250064912834 412:0.70710677 2721:0.70710677 #
-1.0000000241417625890250064912834 457:0.2236068 476:0.2236068 646:0.2236068 818:0.2236068 821:0.2236068 1061:0.2236068 1336:0.2236068 1387:0.2236068 1438:0.2236068 1440:0.2236068 1580:0.2236068 1632:0.2236068 1689:0.2236068 1760:0.2236068 2121:0.2236068 2431:0.2236068 2626:0.2236068 2674:0.2236068 2829:0.2236068 2962:0.2236068 #
1.0000000241417625890250064912834 527:1 #
-0.93007226234531004127603637243737 1963:0.57735026 2752:0.57735026 2905:0.57735026 #
-1.0000000241417625890250064912834 773:0.57735026 858:0.28867513 1214:0.28867513 1488:0.28867513 2290:0.57735026 2685:0.28867513 #
-1.0000000241417625890250064912834 1978:1 #
1.0000000241417625890250064912834 527:0.5 858:0.5 2576:0.5 2977:0.5 #
1.0000000241417625890250064912834 527:0.70710677 687:0.70710677 #
1.0000000241417625890250064912834 181:0.28867513 527:0.28867513 655:0.28867513 687:0.57735026 920:0.28867513 1566:0.28867513 2201:0.28867513 2460:0.28867513 2931:0.28867513 #
1.0000000241417625890250064912834 527:1 #
-1.0000000241417625890250064912834 527:1 #
1.0000000241417625890250064912834 1978:1 #
1.0000000241417625890250064912834 554:0.57735026 1069:0.57735026 1963:0.57735026 #
1.0000000241417625890250064912834 650:0.44721359 1240:0.44721359 1461:0.44721359 2316:0.44721359 2939:0.44721359 #
-1.0000000241417625890250064912834 527:0.70710677 687:0.70710677 #
-1.0000000241417625890250064912834 687:0.70710677 1477:0.70710677 #
-1.0000000241417625890250064912834 527:0.5 858:0.5 2576:0.5 2977:0.5 #
-0.94396236102061181760802810458699 489:0.31622776 527:0.31622776 655:0.31622776 818:0.31622776 1141:0.31622776 2010:0.31622776 2129:0.31622776 2493:0.31622776 2652:0.31622776 2870:0.31622776 #
1.0000000241417625890250064912834 250:0.5 253:0.5 2109:0.5 2740:0.5 #
1.0000000241417625890250064912834 1620:1 #
1.0000000241417625890250064912834 886:1 #
-1.0000000241417625890250064912834 250:0.45883146 524:0.22941573 529:0.22941573 650:0.22941573 901:0.22941573 1769:0.22941573 1827:0.22941573 1979:0.22941573 1985:0.22941573 2247:0.22941573 2252:0.22941573 2397:0.22941573 2551:0.22941573 2922:0.22941573 2931:0.22941573 2934:0.22941573 #
-1.0000000241417625890250064912834 250:0.70710677 287:0.35355338 724:0.35355338 2190:0.35355338 2464:0.35355338 #
-1.0000000241417625890250064912834 16:0.18569534 451:0.37139067 886:0.37139067 936:0.18569534 1061:0.18569534 1359:0.37139067 1461:0.37139067 1584:0.18569534 1661:0.18569534 2175:0.18569534 2229:0.18569534 2261:0.18569534 2380:0.18569534 2774:0.18569534 2838:0.18569534 2930:0.18569534 2935:0.18569534 #
-1.0000000241417625890250064912834 20:0.30151135 130:0.30151135 287:0.30151135 613:0.30151135 1620:0.30151135 2201:0.30151135 2460:0.30151135 2663:0.30151135 2664:0.30151135 2776:0.30151135 2837:0.30151135 #
1.0000000241417625890250064912834 9:0.28867513 380:0.28867513 527:0.57735026 687:0.28867513 1477:0.57735026 1564:0.28867513 #
1.0000000241417625890250064912834 687:0.70710677 1477:0.70710677 #
-0.93207387150399167996539517844212 9:0.28867513 380:0.28867513 527:0.57735026 687:0.28867513 1477:0.57735026 1564:0.28867513 #
-1.0000000241417625890250064912834 527:1 #
1.0000000241417625890250064912834 250:0.70710677 287:0.35355338 724:0.35355338 2190:0.35355338 2464:0.35355338 #
1.0000000241417625890250064912834 181:0.24253562 528:0.24253562 592:0.24253562 650:0.24253562 1035:0.24253562 1063:0.24253562 1440:0.24253562 1461:0.24253562 1853:0.24253562 2201:0.24253562 2551:0.24253562 2596:0.24253562 2652:0.24253562 2704:0.24253562 2719:0.24253562 2935:0.24253562 2939:0.24253562 #
1.0000000241417625890250064912834 858:0.70710677 1677:0.70710677 #
1.0000000241417625890250064912834 287:0.5 724:0.5 2044:0.5 2926:0.5 #
-1.0000000241417625890250064912834 181:0.37796447 528:0.37796447 592:0.37796447 1061:0.37796447 1147:0.37796447 1357:0.37796447 2201:0.37796447 #
-1.0000000241417625890250064912834 858:0.57735026 1677:0.57735026 2953:0.57735026 #
-0.82114406445114385135752854694147 309:0.24253562 622:0.24253562 634:0.24253562 650:0.48507124 724:0.24253562 788:0.24253562 897:0.24253562 1438:0.24253562 1533:0.24253562 1674:0.24253562 1983:0.24253562 2727:0.24253562 2744:0.24253562 2931:0.24253562 #
1.0000000241417625890250064912834 527:1 #
1.0000000241417625890250064912834 527:0.75592893 1566:0.37796447 2036:0.37796447 2572:0.37796447 #
-1.0000000241417625890250064912834 527:0.40824831 586:0.40824831 1428:0.40824831 1818:0.40824831 2036:0.40824831 2121:0.40824831 #
-1.0000000241417625890250064912834 85:0.31622776 527:0.31622776 920:0.31622776 1176:0.31622776 1297:0.31622776 1330:0.31622776 2177:0.31622776 2235:0.31622776 2280:0.31622776 2532:0.31622776 #
-1.0000000241417625890250064912834 527:1 #
1.0000000241417625890250064912834 650:0.70710677 2397:0.70710677 #
1.0000000241417625890250064912834 218:0.40824831 650:0.40824831 813:0.40824831 1477:0.40824831 2403:0.40824831 2970:0.40824831 #
1.0000000241417625890250064912834 650:0.57735026 1440:0.57735026 2870:0.57735026 #
1.0000000241417625890250064912834 8:0.40824831 1461:0.40824831 1913:0.40824831 1919:0.40824831 2190:0.40824831 2316:0.40824831 #
-0.72745038232791281451738996111089 218:0.40824831 650:0.40824831 813:0.40824831 1477:0.40824831 2403:0.40824831 2970:0.40824831 #
-1.0000000241417625890250064912834 650:0.57735026 1440:0.57735026 2870:0.57735026 #
-1.0000000241417625890250064912834 8:0.40824831 1461:0.40824831 1913:0.40824831 1919:0.40824831 2190:0.40824831 2316:0.40824831 #
-1.0000000241417625890250064912834 296:0.28867513 650:0.57735026 687:0.28867513 697:0.28867513 920:0.28867513 941:0.28867513 1747:0.28867513 2316:0.28867513 2868:0.28867513 #
1.0000000241417625890250064912834 527:1 #
1.0000000241417625890250064912834 527:0.57735026 833:0.57735026 920:0.57735026 #
1.0000000241417625890250064912834 527:0.70710677 1189:0.70710677 #
-1.0000000241417625890250064912834 527:0.70710677 1189:0.70710677 #
-1.0000000241417625890250064912834 527:1 #
1.0000000241417625890250064912834 1428:0.70710677 2696:0.70710677 #
1.0000000241417625890250064912834 697:1 #
1.0000000241417625890250064912834 941:1 #
-1.0000000241417625890250064912834 253:0.35355338 1063:0.35355338 2397:0.70710677 2570:0.35355338 2906:0.35355338 #
-0.23950889753955414973596305117098 148:0.23570226 210:0.23570226 655:0.23570226 886:0.23570226 920:0.23570226 931:0.23570226 1035:0.23570226 1892:0.23570226 1914:0.23570226 2150:0.23570226 2317:0.23570226 2632:0.47140452 2701:0.23570226 2824:0.23570226 2839:0.23570226 #
-1.0000000241417625890250064912834 1599:0.70710677 2501:0.70710677 #
-1.0000000241417625890250064912834 461:0.40824831 1265:0.40824831 1477:0.40824831 1620:0.40824831 2514:0.40824831 2897:0.40824831 #
1.0000000241417625890250064912834 527:1 #
1.0000000241417625890250064912834 49:0.5 527:0.5 1538:0.5 1590:0.5 #
1.0000000241417625890250064912834 527:0.57735026 1718:0.57735026 2977:0.57735026 #
1.0000000241417625890250064912834 527:0.5 1359:0.5 1440:0.5 2532:0.5 #
-1.0000000241417625890250064912834 527:1 #
-1.0000000241417625890250064912834 49:0.5 527:0.5 1538:0.5 1590:0.5 #
1.0000000241417625890250064912834 461:0.70710677 1477:0.70710677 #
1.0000000241417625890250064912834 1599:0.70710677 2501:0.70710677 #
1.0000000241417625890250064912834 1477:1 #
-1.0000000241417625890250064912834 1477:1 #
-1.0000000241417625890250064912834 461:0.70710677 1477:0.70710677 #
-1.0000000241417625890250064912834 1188:0.5 1553:0.5 2038:0.5 2977:0.5 #
1.0000000241417625890250064912834 2397:1 #
-1.0000000241417625890250064912834 650:0.31622776 1035:0.31622776 1440:0.31622776 1507:0.31622776 1616:0.31622776 2084:0.31622776 2242:0.31622776 2748:0.31622776 2760:0.31622776 2940:0.31622776 #
-1.0000000241417625890250064912834 498:0.35355338 700:0.35355338 888:0.35355338 1363:0.35355338 1539:0.35355338 2127:0.35355338 2397:0.35355338 2692:0.35355338 #
-0.5589814931627096195043691295723 640:0.30151135 650:0.30151135 679:0.30151135 1286:0.30151135 1891:0.30151135 1987:0.30151135 2268:0.30151135 2331:0.30151135 2397:0.30151135 2501:0.30151135 2597:0.30151135 #
1.0000000241417625890250064912834 449:0.40824831 828:0.40824831 920:0.40824831 1078:0.40824831 2317:0.40824831 2595:0.40824831 #
1.0000000241417625890250064912834 130:0.81649661 1210:0.40824831 2126:0.40824831 #
-1.0000000241417625890250064912834 130:0.81649661 1210:0.40824831 2126:0.40824831 #
-1.0000000241417625890250064912834 1538:0.70710677 2595:0.70710677 #
-1.0000000241417625890250064912834 181:0.33333334 210:0.33333334 529:0.33333334 1359:0.33333334 1538:0.33333334 2245:0.33333334 2317:0.33333334 2572:0.33333334 2653:0.33333334 #
1.0000000241417625890250064912834 1410:1 #
1.0000000241417625890250064912834 2190:0.5 2242:0.5 2459:0.5 2514:0.5 #
0.61525919794459238421069358082605 1558:0.5 2328:0.5 2883:0.5 2897:0.5 #
1.0000000241417625890250064912834 2881:1 #
1.0000000241417625890250064912834 600:0.31622776 1228:0.31622776 1442:0.31622776 2201:0.31622776 2643:0.31622776 2812:0.63245553 2940:0.31622776 #
-0.95222020505151139246891034417786 164:0.33333334 538:0.33333334 2201:0.33333334 2287:0.33333334 2316:0.33333334 2572:0.33333334 2812:0.33333334 2829:0.33333334 2940:0.33333334 #
1.0000000241417625890250064912834 1538:0.70710677 2595:0.70710677 #
-1.0000000241417625890250064912834 308:0.25819889 527:0.25819889 617:0.25819889 686:0.25819889 1234:0.25819889 1862:0.51639777 1877:0.25819889 1924:0.25819889 2401:0.25819889 2604:0.25819889 2837:0.25819889 2850:0.25819889 #
-1.0000000241417625890250064912834 1624:0.70710677 2702:0.70710677 #
-1.0000000241417625890250064912834 1782:0.70710677 2702:0.70710677 #
-1.0000000241417625890250064912834 818:0.57735026 2109:0.57735026 2194:0.57735026 #
