SVM-light Version V6.02
0 # kernel type
3 # kernel parameter -d 
1 # kernel parameter -g 
1 # kernel parameter -s 
1 # kernel parameter -r 
empty# kernel parameter -u 
2999 # highest feature index 
1928 # number of training documents 
644 # number of support vectors plus 1 
0.86352163 # threshold b, each following line is a SV (starting with alpha*y)
-0.13682141679386117250061261074734 2339:1 #
-0.13682141679386117250061261074734 254:1 #
-0.10466664669585790115036161296302 2226:1 #
-0.11710447972835701102578553900457 2224:0.70710677 2441:0.70710677 #
-1.000000017990847034354828792857 2:0.16903085 3:0.84515423 76:0.16903085 82:0.16903085 278:0.16903085 408:0.16903085 1648:0.16903085 2236:0.33806169 #
1.000000017990847034354828792857 3:0.40824831 1613:0.81649661 2223:0.40824831 #
-0.15213894405654482255840775906108 3:0.57735026 1872:0.57735026 2579:0.57735026 #
1.000000017990847034354828792857 1:0.2 2:0.2 3:0.40000001 6:0.60000002 53:0.2 158:0.2 176:0.2 359:0.2 680:0.2 844:0.2 1595:0.2 1852:0.2 1883:0.2 2236:0.2 #
1.000000017990847034354828792857 1:0.38313052 3:0.38313052 6:0.76626104 95:0.09578263 153:0.09578263 228:0.09578263 340:0.09578263 365:0.09578263 669:0.09578263 697:0.09578263 734:0.09578263 808:0.09578263 1226:0.09578263 1340:0.09578263 1899:0.09578263 2232:0.09578263 #
0.54664649636632434148708625798463 1:0.5 198:0.5 247:0.5 2850:0.5 #
-0.10420066480320933077763356777723 105:0.70710677 1779:0.70710677 #
-1.000000017990847034354828792857 1:0.75526321 3:0.16783628 6:0.58742696 26:0.083918139 88:0.083918139 152:0.083918139 516:0.083918139 542:0.083918139 1612:0.083918139 1620:0.083918139 1689:0.083918139 #
-1.000000017990847034354828792857 1:0.84431708 6:0.49251828 9:0.070359752 46:0.070359752 92:0.070359752 151:0.070359752 311:0.070359752 417:0.070359752 1622:0.070359752 2038:0.070359752 2837:0.070359752 #
-1.000000017990847034354828792857 1:0.84927577 3:0.2049976 5:0.029285371 6:0.43928057 7:0.029285371 11:0.058570743 26:0.029285371 27:0.029285371 108:0.029285371 121:0.029285371 273:0.029285371 286:0.029285371 342:0.087856114 392:0.029285371 409:0.029285371 426:0.029285371 434:0.029285371 484:0.029285371 519:0.029285371 539:0.029285371 1488:0.029285371 1589:0.029285371 1614:0.029285371 1630:0.029285371 1684:0.029285371 1721:0.029285371 1734:0.029285371 1846:0.029285371 2036:0.029285371 2231:0.029285371 2237:0.058570743 2317:0.029285371 2590:0.029285371 2598:0.058570743 2838:0.029285371 2869:0.029285371 2871:0.029285371 #
1.000000017990847034354828792857 52:0.28867513 96:0.28867513 307:0.28867513 368:0.28867513 415:0.28867513 785:0.28867513 909:0.28867513 961:0.28867513 1077:0.28867513 1423:0.28867513 1622:0.28867513 1905:0.28867513 #
1.000000017990847034354828792857 102:0.40824831 414:0.81649661 811:0.40824831 #
1.000000017990847034354828792857 2861:1 #
1.000000017990847034354828792857 1364:1 #
1.000000017990847034354828792857 125:0.70710677 1361:0.70710677 #
0.56715720535476399355445664696163 1:0.44721359 3:0.44721359 34:0.44721359 857:0.44721359 1626:0.44721359 #
-0.078231077396631820697336934244959 3:0.70710677 2385:0.70710677 #
-0.074788488419763266001893953216495 345:0.70710677 1935:0.70710677 #
1.000000017990847034354828792857 1:0.62469506 3:0.62469506 796:0.15617377 941:0.15617377 989:0.15617377 1071:0.15617377 1318:0.15617377 1401:0.15617377 1594:0.15617377 1893:0.15617377 2851:0.15617377 #
1.000000017990847034354828792857 1:0.56568545 6:0.70710677 192:0.14142136 208:0.14142136 678:0.14142136 823:0.14142136 994:0.14142136 998:0.14142136 1436:0.14142136 1593:0.14142136 1612:0.14142136 #
1.000000017990847034354828792857 1:0.34815532 3:0.17407766 6:0.87038827 196:0.17407766 279:0.17407766 1921:0.17407766 #
1.000000017990847034354828792857 1:0.84615386 3:0.07692308 6:0.30769232 94:0.07692308 120:0.07692308 178:0.07692308 206:0.07692308 233:0.07692308 276:0.07692308 278:0.07692308 419:0.07692308 491:0.07692308 603:0.07692308 677:0.07692308 705:0.07692308 745:0.07692308 945:0.07692308 951:0.07692308 1195:0.07692308 1326:0.07692308 1348:0.15384616 1593:0.07692308 1621:0.07692308 1630:0.07692308 1853:0.07692308 1872:0.07692308 1904:0.07692308 2216:0.15384616 #
1.000000017990847034354828792857 1:0.49507377 3:0.39605901 6:0.69310325 20:0.099014752 210:0.099014752 219:0.099014752 642:0.099014752 986:0.099014752 1049:0.099014752 1300:0.099014752 1302:0.099014752 1394:0.099014752 1857:0.099014752 1918:0.099014752 2215:0.099014752 #
-0.020119853849314393162694969419135 1608:0.70710677 1690:0.70710677 #
-0.065009025245091403566455312557082 105:0.70710677 256:0.70710677 #
-1.000000017990847034354828792857 3:0.37796447 336:0.37796447 1613:0.75592893 1614:0.37796447 #
-1.000000017990847034354828792857 1:0.62858725 3:0.20952909 6:0.6984303 27:0.069843031 191:0.20952909 557:0.13968606 602:0.069843031 #
0.31297863508777207242061990655202 1:0.80178374 3:0.53452247 414:0.26726124 #
1.000000017990847034354828792857 34:0.18569534 196:0.37139067 212:0.18569534 220:0.18569534 340:0.18569534 357:0.18569534 414:0.18569534 496:0.18569534 595:0.18569534 610:0.18569534 756:0.18569534 782:0.18569534 793:0.18569534 883:0.18569534 957:0.18569534 1052:0.18569534 1101:0.18569534 1107:0.18569534 1205:0.18569534 1227:0.18569534 1236:0.18569534 1429:0.18569534 1615:0.18569534 1905:0.18569534 2231:0.18569534 2876:0.18569534 #
1.000000017990847034354828792857 152:0.70710677 1854:0.70710677 #
1.000000017990847034354828792857 1884:1 #
1.000000017990847034354828792857 1173:0.70710677 2884:0.70710677 #
-0.6709540509736710012234084388183 1905:1 #
-0.083352513105751535604781565780286 152:0.57735026 558:0.57735026 595:0.57735026 #
-0.22796084548201386854593408770597 152:0.70710677 1943:0.70710677 #
-0.080029886446610812300583859268954 1483:0.70710677 1905:0.70710677 #
-0.036514243005795414542813404068511 1612:0.57735026 1909:0.57735026 2698:0.57735026 #
1.000000017990847034354828792857 1:0.5 2:0.5 6:0.5 1597:0.5 #
1.000000017990847034354828792857 1:0.30460384 3:0.20306924 6:0.91381156 346:0.10153462 1280:0.10153462 2237:0.10153462 #
1.000000017990847034354828792857 1:0.23942606 3:0.07980869 6:0.95770425 1213:0.07980869 1595:0.07980869 2845:0.07980869 #
1.000000017990847034354828792857 1:0.69094223 3:0.21259761 6:0.63779283 94:0.053149402 211:0.053149402 233:0.053149402 351:0.053149402 600:0.053149402 603:0.053149402 605:0.053149402 762:0.053149402 963:0.053149402 1054:0.053149402 1248:0.053149402 1332:0.053149402 1363:0.053149402 1614:0.053149402 1621:0.053149402 1626:0.053149402 1904:0.1062988 2216:0.1062988 2879:0.053149402 #
-1.000000017990847034354828792857 1:0.31622776 3:0.63245553 5:0.63245553 1599:0.31622776 #
1.000000017990847034354828792857 1:0.37796447 3:0.75592893 44:0.37796447 139:0.37796447 #
-0.45797387564292790784747921861708 3:0.89442718 152:0.44721359 #
1.000000017990847034354828792857 1:0.79056942 3:0.47434166 52:0.15811388 279:0.15811388 414:0.15811388 487:0.15811388 1627:0.15811388 1851:0.15811388 #
1.000000017990847034354828792857 3:0.70710677 152:0.35355338 159:0.35355338 1314:0.35355338 2858:0.35355338 #
1.000000017990847034354828792857 1:0.2773501 3:0.5547002 139:0.2773501 414:0.2773501 595:0.5547002 1012:0.2773501 1855:0.2773501 #
1.000000017990847034354828792857 622:0.57735026 1863:0.57735026 1906:0.57735026 #
1.000000017990847034354828792857 71:1 #
-0.76255286030679503284090969827957 3:1 #
1.000000017990847034354828792857 1:0.032025632 3:0.096076891 6:0.99279457 102:0.032025632 1037:0.032025632 1277:0.032025632 1630:0.032025632 #
1.000000017990847034354828792857 1:0.28867513 6:0.86602539 1139:0.28867513 1586:0.28867513 #
-0.13706624296119881978306409564539 377:0.57735026 2399:0.57735026 2559:0.57735026 #
-0.078235506828525966382947842703288 383:0.70710677 1984:0.70710677 #
-0.74476007341024907937310217675986 595:1 #
-0.41076026756517391991252452498884 3:0.40824831 307:0.81649661 1906:0.40824831 #
-1.000000017990847034354828792857 1:0.20412415 3:0.81649661 52:0.20412415 140:0.20412415 1791:0.20412415 2210:0.20412415 2218:0.20412415 2277:0.20412415 2544:0.20412415 #
1.000000017990847034354828792857 3:0.5 6:0.5 29:0.25 499:0.25 604:0.25 1864:0.25 1905:0.25 2236:0.25 2237:0.25 2846:0.25 #
1.000000017990847034354828792857 1:0.75526321 3:0.41959068 6:0.33567256 34:0.083918139 191:0.16783628 204:0.083918139 482:0.16783628 601:0.083918139 602:0.083918139 605:0.083918139 684:0.083918139 893:0.083918139 1885:0.16783628 2849:0.083918139 #
-1.000000017990847034354828792857 1:0.57735026 6:0.57735026 71:0.57735026 #
0.23117030539679561673693797274609 1:0.40824831 3:0.40824831 45:0.40824831 71:0.40824831 806:0.40824831 2853:0.40824831 #
1.000000017990847034354828792857 1:0.6882472 3:0.45883146 9:0.22941573 45:0.22941573 102:0.22941573 243:0.22941573 1324:0.22941573 1897:0.22941573 #
1.000000017990847034354828792857 45:0.70710677 835:0.70710677 #
1.000000017990847034354828792857 2868:1 #
1.000000017990847034354828792857 157:1 #
0.49449422085812883009836582459684 44:0.70710677 1020:0.70710677 #
1.000000017990847034354828792857 1080:0.70710677 1344:0.70710677 #
-1.000000017990847034354828792857 3:0.57735026 1917:0.57735026 2868:0.57735026 #
-0.074835906258969631110744558100123 29:1 #
1.000000017990847034354828792857 1:0.13768567 3:0.13768567 6:0.96379977 21:0.068842836 93:0.068842836 196:0.068842836 615:0.068842836 822:0.068842836 1319:0.068842836 1915:0.068842836 #
-1.000000017990847034354828792857 1:0.33333334 3:0.66666669 4:0.33333334 107:0.33333334 611:0.33333334 1530:0.33333334 #
1.000000017990847034354828792857 1:0.33333334 3:0.66666669 140:0.33333334 1353:0.33333334 1891:0.33333334 2218:0.33333334 #
1.000000017990847034354828792857 1:0.62217104 3:0.7258662 29:0.10369517 355:0.10369517 498:0.10369517 731:0.10369517 836:0.10369517 1074:0.10369517 1202:0.10369517 1630:0.10369517 #
0.58411603140433343561710444191704 1:0.57735026 3:0.28867513 29:0.28867513 244:0.28867513 363:0.28867513 419:0.28867513 595:0.28867513 643:0.28867513 2859:0.28867513 #
1.000000017990847034354828792857 1:0.53452247 3:0.53452247 122:0.26726124 195:0.26726124 307:0.26726124 596:0.26726124 979:0.26726124 1630:0.26726124 #
1.000000017990847034354828792857 1:0.66258913 3:0.55215764 101:0.11043153 121:0.11043153 241:0.11043153 307:0.11043153 358:0.11043153 414:0.11043153 483:0.11043153 672:0.11043153 824:0.11043153 856:0.22086306 1233:0.11043153 1303:0.11043153 1614:0.11043153 1902:0.22086306 1904:0.11043153 #
-1.000000017990847034354828792857 1:0.31622776 3:0.63245553 21:0.31622776 122:0.31622776 196:0.31622776 499:0.31622776 2752:0.31622776 #
-0.85793795193329880355292971216841 1:0.2773501 3:0.5547002 125:0.2773501 140:0.2773501 196:0.2773501 596:0.2773501 614:0.2773501 1630:0.2773501 1844:0.2773501 2908:0.2773501 #
-1.000000017990847034354828792857 1:0.35355338 3:0.70710677 196:0.35355338 406:0.35355338 2865:0.35355338 #
-1.000000017990847034354828792857 1:0.37796447 3:0.75592893 279:0.37796447 492:0.37796447 #
-1.000000017990847034354828792857 1:0.40824831 3:0.81649661 121:0.40824831 #
1.000000017990847034354828792857 6:0.98093152 102:0.044587795 409:0.089175589 484:0.089175589 616:0.044587795 688:0.044587795 743:0.044587795 768:0.044587795 1163:0.044587795 1630:0.089175589 2875:0.044587795 #
1.000000017990847034354828792857 6:0.97735554 122:0.12216944 729:0.12216944 1630:0.12216944 #
1.000000017990847034354828792857 6:0.94280905 933:0.23570226 2844:0.23570226 #
1.000000017990847034354828792857 2:0.082478613 3:0.24743582 6:0.90726471 195:0.24743582 605:0.082478613 831:0.082478613 834:0.082478613 845:0.082478613 1047:0.082478613 1215:0.082478613 2232:0.082478613 #
-0.70332122054786738729603712272365 1:0.68041384 3:0.13608277 6:0.54433107 103:0.13608277 133:0.13608277 162:0.13608277 435:0.13608277 614:0.13608277 1531:0.13608277 1599:0.13608277 1688:0.13608277 1908:0.13608277 2100:0.13608277 2615:0.13608277 2788:0.13608277 #
1.000000017990847034354828792857 3:1 #
1.000000017990847034354828792857 3:0.85280287 245:0.21320072 276:0.21320072 353:0.21320072 1596:0.21320072 1597:0.21320072 1867:0.21320072 #
1.000000017990847034354828792857 1:0.14586499 3:0.87518996 97:0.14586499 201:0.14586499 480:0.14586499 738:0.14586499 1021:0.14586499 1038:0.14586499 1346:0.14586499 1412:0.14586499 1598:0.14586499 2234:0.14586499 #
1.000000017990847034354828792857 1:0.28867513 3:0.86602539 659:0.28867513 1630:0.28867513 #
1.000000017990847034354828792857 1:0.40824831 3:0.81649661 366:0.40824831 #
-0.2333732325661236339797710570565 605:1 #
-1.000000017990847034354828792857 3:0.70710677 44:0.23570226 414:0.23570226 419:0.47140452 2130:0.23570226 2405:0.23570226 2601:0.23570226 #
-1.000000017990847034354828792857 1:0.25 3:0.75 9:0.25 27:0.25 318:0.25 324:0.25 1568:0.25 2883:0.25 #
1.000000017990847034354828792857 1:0.5 307:0.5 614:0.5 2233:0.5 #
1.000000017990847034354828792857 1:0.56694669 3:0.18898223 27:0.18898223 122:0.18898223 196:0.18898223 307:0.18898223 492:0.18898223 770:0.18898223 908:0.18898223 1615:0.18898223 1846:0.18898223 2878:0.56694669 #
0.15010636220862616507787379305228 1:0.75592893 176:0.37796447 248:0.37796447 692:0.37796447 #
1.000000017990847034354828792857 1:0.6882472 3:0.3441236 26:0.11470786 121:0.11470786 490:0.11470786 600:0.22941573 615:0.11470786 657:0.22941573 676:0.11470786 698:0.11470786 699:0.22941573 944:0.11470786 1009:0.11470786 1124:0.11470786 1172:0.11470786 1320:0.11470786 1345:0.11470786 1400:0.11470786 1614:0.11470786 1849:0.11470786 1881:0.22941573 #
-0.078087743392254799212892635296157 3:0.70710677 2375:0.70710677 #
-1.000000017990847034354828792857 1:0.75592893 6:0.37796447 315:0.37796447 2236:0.37796447 #
1.000000017990847034354828792857 3:0.54554474 6:0.76376259 279:0.10910895 1024:0.10910895 1193:0.10910895 1338:0.10910895 1624:0.10910895 1630:0.10910895 2216:0.21821789 #
-1.000000017990847034354828792857 1:0.73029673 3:0.18257418 6:0.36514837 14:0.18257418 35:0.18257418 83:0.18257418 88:0.18257418 192:0.18257418 418:0.18257418 470:0.18257418 598:0.18257418 2884:0.18257418 #
-1.000000017990847034354828792857 1:0.61237246 2:0.20412415 3:0.40824831 6:0.40824831 93:0.20412415 276:0.20412415 1630:0.40824831 #
-1.000000017990847034354828792857 1:0.66666669 3:0.33333334 6:0.33333334 27:0.33333334 122:0.33333334 415:0.33333334 #
-1.000000017990847034354828792857 1:0.5 489:0.5 564:0.5 1630:0.5 #
-1.000000017990847034354828792857 1:0.5 106:0.5 143:0.5 1630:0.5 #
1.000000017990847034354828792857 6:0.70710677 93:0.70710677 #
1.000000017990847034354828792857 3:0.69109476 6:0.6047079 53:0.086386845 122:0.086386845 415:0.17277369 733:0.086386845 1339:0.17277369 1405:0.086386845 1427:0.17277369 1870:0.086386845 2236:0.17277369 #
1.000000017990847034354828792857 27:0.44721359 44:0.44721359 925:0.44721359 1870:0.44721359 1904:0.44721359 #
-0.13680316914432089081543608699576 2386:1 #
-0.834425757046225569091291163204 1615:1 #
-0.069992686277679294626352657360258 2844:1 #
-0.62645116160616798328675258744624 1:0.2773501 3:0.5547002 17:0.2773501 81:0.2773501 122:0.2773501 560:0.5547002 2759:0.2773501 #
-0.73974941016298945140050591362524 3:0.44721359 599:0.44721359 612:0.44721359 1489:0.44721359 2878:0.44721359 #
-0.078324749387871109296277438716061 1615:0.70710677 2716:0.70710677 #
1.000000017990847034354828792857 2:0.53452247 3:0.80178374 6:0.26726124 #
1.000000017990847034354828792857 1:0.44721359 3:0.44721359 196:0.44721359 414:0.44721359 605:0.44721359 #
1.000000017990847034354828792857 1:0.7947194 3:0.26490647 4:0.13245323 197:0.13245323 251:0.13245323 276:0.3973597 278:0.13245323 414:0.13245323 1614:0.13245323 1630:0.13245323 1867:0.13245323 #
0.33537097682610950144521666516084 1:0.85714287 3:0.2857143 27:0.14285715 102:0.14285715 282:0.14285715 414:0.14285715 416:0.14285715 481:0.14285715 970:0.14285715 1910:0.14285715 2881:0.14285715 #
1.000000017990847034354828792857 1:0.80178374 3:0.26726124 27:0.26726124 46:0.26726124 240:0.26726124 2236:0.26726124 #
-1.000000017990847034354828792857 1:0.84615386 3:0.15384616 6:0.42307693 9:0.07692308 20:0.03846154 102:0.07692308 140:0.03846154 274:0.03846154 310:0.03846154 414:0.11538462 489:0.03846154 536:0.03846154 595:0.03846154 596:0.03846154 610:0.03846154 1502:0.03846154 1577:0.07692308 1630:0.07692308 1653:0.11538462 1674:0.03846154 1676:0.03846154 1705:0.03846154 1794:0.03846154 1816:0.03846154 1835:0.03846154 1873:0.03846154 2235:0.03846154 2236:0.03846154 2331:0.03846154 2884:0.03846154 #
-1.000000017990847034354828792857 1:0.80225748 3:0.29172999 6:0.43759498 20:0.072932497 454:0.072932497 605:0.072932497 1463:0.072932497 1540:0.072932497 1936:0.072932497 2223:0.072932497 2228:0.072932497 2289:0.072932497 2318:0.072932497 2358:0.072932497 2561:0.072932497 2657:0.072932497 2695:0.072932497 2802:0.072932497 #
-1.000000017990847034354828792857 1:0.77781749 3:0.28284273 6:0.49497473 7:0.070710681 34:0.070710681 39:0.070710681 64:0.070710681 420:0.070710681 424:0.070710681 498:0.070710681 1612:0.070710681 1614:0.070710681 1772:0.070710681 1908:0.070710681 2205:0.070710681 2393:0.070710681 2931:0.070710681 #
1.000000017990847034354828792857 6:0.44721359 44:0.44721359 343:0.44721359 419:0.44721359 727:0.44721359 #
1.000000017990847034354828792857 1391:1 #
-0.096607445467960628704418013512623 343:1 #
-0.079423310715531797443489381294057 78:0.70710677 343:0.70710677 #
1.000000017990847034354828792857 1:0.66666669 3:0.66666669 8:0.11111111 93:0.11111111 767:0.11111111 1611:0.22222222 1859:0.11111111 2216:0.11111111 #
-0.2672817924668849931535419273132 1:0.44721359 28:0.44721359 124:0.44721359 1630:0.44721359 2830:0.44721359 #
1.000000017990847034354828792857 1:0.84016806 3:0.42008403 102:0.14002801 121:0.14002801 1385:0.14002801 1615:0.14002801 1620:0.14002801 1917:0.14002801 #
1.000000017990847034354828792857 1:0.88388348 3:0.17677669 6:0.17677669 101:0.17677669 102:0.17677669 663:0.17677669 1448:0.17677669 1630:0.17677669 #
1.000000017990847034354828792857 1:0.37796447 3:0.75592893 6:0.37796447 9:0.37796447 #
-1.000000017990847034354828792857 1:0.63116872 2:0.090166964 3:0.5410018 6:0.45083481 28:0.090166964 124:0.090166964 278:0.090166964 1535:0.090166964 1586:0.090166964 1596:0.090166964 1904:0.090166964 1915:0.090166964 2845:0.18033393 #
-1.000000017990847034354828792857 1:0.30151135 3:0.90453404 102:0.30151135 #
-1.000000017990847034354828792857 1:0.38490018 3:0.76980036 46:0.19245009 252:0.19245009 480:0.19245009 600:0.19245009 606:0.19245009 1907:0.19245009 2863:0.19245009 #
-1.000000017990847034354828792857 1:0.38490018 3:0.76980036 4:0.19245009 474:0.19245009 480:0.19245009 493:0.38490018 #
1.000000017990847034354828792857 6:0.57735026 191:0.57735026 1885:0.57735026 #
1.000000017990847034354828792857 1:0.20412415 125:0.40824831 222:0.20412415 352:0.81649661 1066:0.20412415 1905:0.20412415 #
1.000000017990847034354828792857 2:0.44721359 6:0.44721359 34:0.44721359 1613:0.44721359 2217:0.44721359 #
1.000000017990847034354828792857 2:0.5 6:0.5 207:0.5 1228:0.5 #
-1.000000017990847034354828792857 1:0.71842122 3:0.17960531 6:0.53881592 23:0.17960531 403:0.17960531 1851:0.17960531 2301:0.17960531 2611:0.17960531 #
-1.000000017990847034354828792857 1:0.68853039 3:0.34426519 4:0.086066298 6:0.51639777 9:0.086066298 11:0.086066298 44:0.086066298 416:0.086066298 515:0.086066298 595:0.086066298 602:0.086066298 1611:0.086066298 1725:0.086066298 1904:0.1721326 1910:0.1721326 2083:0.086066298 #
1.000000017990847034354828792857 1:0.48666427 3:0.8111071 20:0.16222142 139:0.16222142 150:0.16222142 1630:0.16222142 #
1.000000017990847034354828792857 1:0.34299716 3:0.85749292 601:0.17149858 1085:0.17149858 1323:0.17149858 1630:0.17149858 1901:0.17149858 #
-0.58326048893825088725861860439181 3:0.75592893 191:0.37796447 196:0.37796447 1597:0.37796447 #
-0.58536100842854210668519954197109 1:0.30151135 3:0.60302269 9:0.30151135 138:0.30151135 196:0.30151135 335:0.30151135 443:0.30151135 2236:0.30151135 #
-1.000000017990847034354828792857 1:0.33333334 3:0.66666669 273:0.33333334 498:0.33333334 1720:0.33333334 2237:0.33333334 #
-1.000000017990847034354828792857 1:0.44721359 91:0.44721359 196:0.44721359 1630:0.44721359 2864:0.44721359 #
1.000000017990847034354828792857 1:0.33333334 6:0.66666669 1621:0.33333334 2827:0.33333334 2861:0.33333334 2885:0.33333334 #
-1.000000017990847034354828792857 1:0.67082042 6:0.44721359 52:0.2236068 72:0.2236068 134:0.2236068 1602:0.2236068 1604:0.2236068 2047:0.2236068 2060:0.2236068 #
-1.000000017990847034354828792857 1:0.70710677 6:0.53033006 20:0.17677669 176:0.17677669 1904:0.35355338 2791:0.17677669 #
-1.000000017990847034354828792857 1:0.72760689 6:0.48507124 347:0.24253562 1639:0.24253562 1987:0.24253562 2877:0.24253562 #
-1.000000017990847034354828792857 1:0.75592893 6:0.56694669 430:0.18898223 581:0.18898223 1630:0.18898223 #
0.25386963107143989404335115978029 1:0.43643579 2:0.21821789 3:0.65465367 276:0.21821789 942:0.21821789 1597:0.21821789 2216:0.43643579 #
1.000000017990847034354828792857 3:0.81649661 46:0.40824831 612:0.40824831 #
1.000000017990847034354828792857 3:0.5 278:0.5 640:0.5 1615:0.5 #
1.000000017990847034354828792857 3:0.75592893 6:0.37796447 26:0.18898223 847:0.18898223 1106:0.18898223 1144:0.18898223 1214:0.18898223 1301:0.18898223 1597:0.18898223 2857:0.18898223 #
-1.000000017990847034354828792857 3:1 #
0.50297043412142006246767778065987 1:0.66666669 3:0.33333334 825:0.33333334 826:0.33333334 884:0.33333334 1360:0.33333334 #
0.53463736472418976752862818102585 1:0.70710677 3:0.35355338 273:0.35355338 1444:0.35355338 1889:0.35355338 #
-0.096190995552804414714387348794844 3:0.40824831 329:0.81649661 2774:0.40824831 #
-0.12253776247087144746217290958157 3:0.57735026 19:0.57735026 2827:0.57735026 #
-1.000000017990847034354828792857 3:0.57735026 1710:0.57735026 2884:0.57735026 #
-1.000000017990847034354828792857 3:0.57735026 278:0.57735026 2020:0.57735026 #
-0.32410457514967799808047743681527 3:0.89442718 1849:0.44721359 #
-0.078455263234735492239302345751639 3:0.70710677 1464:0.70710677 #
1.000000017990847034354828792857 1:0.70710677 3:0.23570226 51:0.23570226 273:0.23570226 1606:0.47140452 1630:0.23570226 2830:0.23570226 #
1.000000017990847034354828792857 3:0.5 6:0.5 1591:0.5 1630:0.5 #
-1.000000017990847034354828792857 1:0.74278134 6:0.37139067 32:0.18569534 38:0.18569534 41:0.18569534 152:0.18569534 280:0.18569534 281:0.18569534 595:0.18569534 2054:0.18569534 2096:0.18569534 #
-1.000000017990847034354828792857 1:0.78113347 3:0.13018891 4:0.13018891 6:0.39056674 18:0.13018891 108:0.13018891 149:0.13018891 284:0.13018891 416:0.13018891 1585:0.13018891 1934:0.13018891 2018:0.13018891 2665:0.13018891 2758:0.13018891 2840:0.13018891 2999:0.13018891 #
-1.000000017990847034354828792857 1:0.77459669 3:0.086066298 6:0.60246408 29:0.086066298 191:0.086066298 282:0.086066298 1916:0.086066298 #
-0.050327348022548568096112830971833 1:0.25 3:0.75 4:0.5 324:0.25 588:0.25 #
1.000000017990847034354828792857 3:0.81649661 1143:0.40824831 1587:0.40824831 #
1.000000017990847034354828792857 3:0.81649661 938:0.40824831 1620:0.40824831 #
1.000000017990847034354828792857 3:0.75592893 704:0.37796447 901:0.37796447 1426:0.37796447 #
-1.000000017990847034354828792857 3:1 #
1.000000017990847034354828792857 1:0.5 6:0.5 44:0.5 1607:0.5 #
1.000000017990847034354828792857 1:0.57735026 11:0.57735026 2837:0.57735026 #
0.085186148991881011083293628871616 1:0.76980036 6:0.19245009 250:0.19245009 367:0.19245009 650:0.19245009 772:0.19245009 1407:0.19245009 1618:0.19245009 1863:0.19245009 2853:0.19245009 2855:0.19245009 2863:0.19245009 #
1.000000017990847034354828792857 1:0.63960212 3:0.42640144 63:0.21320072 348:0.21320072 412:0.21320072 596:0.21320072 654:0.21320072 783:0.21320072 821:0.21320072 1438:0.21320072 1914:0.21320072 #
-1.000000017990847034354828792857 1:0.53452247 6:0.26726124 27:0.53452247 102:0.26726124 488:0.53452247 #
0.48142222522023708775051886732399 1:0.60302269 231:0.30151135 1044:0.30151135 1198:0.30151135 1288:0.30151135 1862:0.30151135 2215:0.30151135 2855:0.30151135 #
1.000000017990847034354828792857 1:0.40824831 3:0.40824831 6:0.40824831 278:0.40824831 703:0.40824831 878:0.40824831 #
1.000000017990847034354828792857 1:0.37796447 3:0.75592893 6:0.37796447 340:0.37796447 #
1.000000017990847034354828792857 1:0.60000002 3:0.60000002 6:0.2 92:0.2 108:0.2 613:0.2 1117:0.2 1875:0.2 2834:0.2 #
1.000000017990847034354828792857 1:0.7372098 3:0.44232586 6:0.29488391 38:0.14744195 139:0.14744195 866:0.14744195 1063:0.14744195 1088:0.14744195 1369:0.14744195 1415:0.14744195 1609:0.14744195 #
-1.000000017990847034354828792857 1:0.33129457 3:0.88345224 20:0.11043153 46:0.11043153 279:0.11043153 410:0.11043153 413:0.11043153 1597:0.11043153 1602:0.11043153 1613:0.11043153 2843:0.11043153 #
-1.000000017990847034354828792857 1:0.30151135 3:0.90453404 1482:0.30151135 #
-1.000000017990847034354828792857 1:0.37796447 3:0.75592893 20:0.37796447 1544:0.37796447 #
1.000000017990847034354828792857 3:0.57735026 962:0.57735026 1630:0.57735026 #
1.000000017990847034354828792857 1:0.5 99:0.5 595:0.5 2830:0.5 #
-0.41189866213210363232732902361022 139:0.70710677 1695:0.70710677 #
-1.000000017990847034354828792857 1:0.28867513 3:0.57735026 39:0.28867513 253:0.28867513 475:0.28867513 560:0.28867513 1532:0.28867513 1610:0.28867513 2575:0.28867513 #
-0.18015261271436400214440709532937 1:0.62994081 5:0.50395262 6:0.37796447 1461:0.12598816 1536:0.12598816 1559:0.25197631 1614:0.12598816 1826:0.12598816 1906:0.12598816 1915:0.12598816 2236:0.12598816 2632:0.12598816 2890:0.12598816 #
-0.31290269704435574871226322102302 139:0.70710677 2038:0.70710677 #
0.34870418696841992689527955917583 1:0.62469506 3:0.62469506 230:0.15617377 367:0.15617377 754:0.15617377 817:0.15617377 904:0.15617377 981:0.15617377 1097:0.15617377 1190:0.15617377 2233:0.15617377 #
1.000000017990847034354828792857 1:0.26726124 3:0.80178374 20:0.26726124 202:0.26726124 1095:0.26726124 1404:0.26726124 #
1.000000017990847034354828792857 1:0.19245009 3:0.76980036 27:0.19245009 102:0.38490018 349:0.19245009 350:0.19245009 928:0.19245009 1365:0.19245009 2885:0.19245009 #
1.000000017990847034354828792857 1:0.48154342 3:0.72231513 6:0.12038586 108:0.12038586 690:0.12038586 1208:0.12038586 1217:0.12038586 1374:0.12038586 1417:0.12038586 1597:0.12038586 1630:0.36115757 #
-1.000000017990847034354828792857 1:0.35355338 3:0.70710677 9:0.35355338 291:0.35355338 2830:0.35355338 #
-0.069848105773539503893232449627249 1:0.51639777 3:0.25819889 5:0.25819889 6:0.25819889 133:0.25819889 165:0.25819889 414:0.25819889 489:0.25819889 558:0.25819889 1722:0.25819889 1809:0.25819889 2082:0.25819889 #
-0.078284056465960372150902912835591 2105:1 #
-1.000000017990847034354828792857 1:0.31330419 3:0.78326046 27:0.23497814 57:0.078326046 103:0.078326046 150:0.078326046 173:0.078326046 595:0.078326046 1560:0.15665209 1609:0.23497814 1614:0.078326046 1666:0.23497814 1690:0.15665209 1774:0.078326046 2215:0.078326046 2345:0.078326046 2437:0.078326046 2724:0.078326046 2883:0.078326046 #
1.000000017990847034354828792857 3:0.37796447 139:0.37796447 621:0.37796447 728:0.37796447 735:0.37796447 776:0.37796447 1877:0.37796447 #
1.000000017990847034354828792857 3:0.37796447 236:0.37796447 415:0.37796447 416:0.37796447 848:0.37796447 1402:0.37796447 1919:0.37796447 #
1.000000017990847034354828792857 3:0.53881592 25:0.17960531 100:0.35921061 139:0.17960531 480:0.35921061 633:0.17960531 634:0.17960531 912:0.17960531 978:0.17960531 1039:0.17960531 1104:0.17960531 1160:0.17960531 1240:0.17960531 1328:0.17960531 1893:0.17960531 1907:0.17960531 2865:0.17960531 #
-0.34133989111545393058122499496676 1:0.37796447 3:0.37796447 6:0.37796447 53:0.37796447 73:0.37796447 104:0.37796447 428:0.37796447 #
-0.0806949796446756878465222939667 2437:0.70710677 2522:0.70710677 #
0.15104498442508390576577426145377 1:0.70710677 1079:0.70710677 #
-0.47670213208316958297672272237833 487:0.57735026 605:0.57735026 2855:0.57735026 #
1.000000017990847034354828792857 1:0.40824831 3:0.40824831 85:0.40824831 279:0.40824831 851:0.40824831 1355:0.40824831 #
1.000000017990847034354828792857 1:0.37796447 3:0.75592893 27:0.37796447 227:0.37796447 #
1.000000017990847034354828792857 1:0.67612338 3:0.67612338 4:0.16903085 151:0.16903085 1073:0.16903085 #
1.000000017990847034354828792857 1:0.57735026 3:0.72168785 26:0.14433756 51:0.14433756 196:0.14433756 203:0.14433756 355:0.14433756 1590:0.14433756 1865:0.14433756 #
-1.000000017990847034354828792857 1:0.26726124 3:0.80178374 103:0.26726124 1552:0.26726124 2690:0.26726124 2865:0.26726124 #
-1.000000017990847034354828792857 1:0.15430336 3:0.92582011 11:0.15430336 1703:0.15430336 1713:0.15430336 2236:0.15430336 2781:0.15430336 #
-1.000000017990847034354828792857 1:0.36514837 3:0.73029673 38:0.18257418 253:0.18257418 407:0.18257418 411:0.18257418 502:0.18257418 609:0.18257418 1995:0.18257418 2381:0.18257418 2642:0.18257418 2985:0.18257418 #
-1.000000017990847034354828792857 1:0.36650833 3:0.73301667 4:0.12216944 60:0.12216944 121:0.24433888 279:0.12216944 294:0.12216944 416:0.12216944 493:0.12216944 518:0.24433888 1607:0.12216944 1658:0.12216944 1850:0.12216944 2034:0.12216944 2156:0.12216944 2203:0.12216944 2208:0.12216944 2580:0.12216944 #
1.000000017990847034354828792857 3:0.50709254 102:0.16903085 120:0.16903085 647:0.16903085 664:0.16903085 758:0.16903085 915:0.16903085 1138:0.16903085 1147:0.16903085 1251:0.33806169 1293:0.50709254 1313:0.16903085 1413:0.16903085 1625:0.16903085 2232:0.16903085 2872:0.16903085 #
1.000000017990847034354828792857 3:0.57735026 177:0.57735026 1596:0.57735026 #
1.000000017990847034354828792857 3:0.44721359 367:0.44721359 613:0.44721359 816:0.44721359 1264:0.44721359 #
-0.43713479294581658596285933526815 1596:1 #
-0.37646346206161740433060458599357 2193:0.70710677 2837:0.70710677 #
-0.18544789250408882930187814963574 3:0.25 323:0.25 362:0.25 1490:0.25 1613:0.25 1614:0.25 1763:0.25 1822:0.5 1905:0.25 2129:0.25 2160:0.25 2288:0.25 2350:0.25 #
-0.58780249145448038028405335353455 1:0.60302269 3:0.30151135 6:0.45226702 133:0.15075567 154:0.15075567 297:0.15075567 552:0.15075567 613:0.15075567 1494:0.15075567 1531:0.15075567 1585:0.15075567 1608:0.15075567 1688:0.15075567 1931:0.30151135 1955:0.15075567 #
-0.018267584991906504754410889290739 172:0.70710677 2514:0.70710677 #
1.000000017990847034354828792857 3:0.66666669 36:0.33333334 46:0.33333334 1441:0.33333334 1630:0.33333334 1896:0.33333334 #
1.000000017990847034354828792857 1:0.17677669 3:0.70710677 26:0.17677669 191:0.17677669 361:0.17677669 416:0.17677669 646:0.17677669 832:0.17677669 871:0.17677669 988:0.17677669 1184:0.17677669 1192:0.17677669 1585:0.17677669 1627:0.17677669 2219:0.17677669 2234:0.17677669 2870:0.17677669 #
-1.000000017990847034354828792857 3:1 #
-1.000000017990847034354828792857 1:0.76063883 3:0.16903085 6:0.50709254 49:0.084515423 168:0.084515423 180:0.084515423 451:0.084515423 589:0.084515423 1457:0.16903085 1557:0.084515423 1669:0.084515423 1789:0.084515423 1936:0.084515423 1957:0.084515423 2236:0.084515423 2289:0.084515423 2319:0.084515423 2337:0.084515423 2695:0.084515423 #
-1.000000017990847034354828792857 1:0.70710677 6:0.35355338 62:0.35355338 67:0.35355338 596:0.35355338 #
1.000000017990847034354828792857 3:0.75592893 661:0.37796447 784:0.37796447 1889:0.37796447 #
1.000000017990847034354828792857 3:0.57735026 627:0.57735026 1449:0.57735026 #
1.000000017990847034354828792857 3:0.57735026 235:0.57735026 1435:0.57735026 #
1.000000017990847034354828792857 3:0.57735026 869:0.57735026 2855:0.57735026 #
-1.000000017990847034354828792857 3:1 #
-1.000000017990847034354828792857 1:0.56694669 6:0.37796447 42:0.18898223 50:0.18898223 72:0.18898223 120:0.18898223 163:0.18898223 424:0.18898223 1604:0.18898223 1615:0.37796447 2406:0.18898223 2445:0.18898223 2553:0.18898223 2658:0.18898223 #
-1.000000017990847034354828792857 1:0.33333334 3:0.66666669 271:0.33333334 1510:0.33333334 1630:0.33333334 1681:0.33333334 #
-1.000000017990847034354828792857 1:0.44721359 1585:0.44721359 1630:0.44721359 2219:0.44721359 2244:0.44721359 #
-1.000000017990847034354828792857 1:0.34299716 3:0.68599433 47:0.17149858 74:0.17149858 153:0.17149858 459:0.17149858 613:0.17149858 615:0.34299716 1521:0.17149858 2171:0.17149858 2276:0.17149858 2797:0.17149858 2988:0.17149858 #
-1.000000017990847034354828792857 1:0.35355338 3:0.70710677 11:0.35355338 2228:0.35355338 2880:0.35355338 #
1.000000017990847034354828792857 3:0.5 791:0.5 1891:0.5 2215:0.5 #
1.000000017990847034354828792857 3:0.5 700:0.5 1420:0.5 1610:0.5 #
1.000000017990847034354828792857 1:0.74535596 3:0.44721359 6:0.1490712 8:0.1490712 27:0.1490712 413:0.1490712 414:0.1490712 732:0.1490712 830:0.1490712 965:0.1490712 1146:0.1490712 1370:0.1490712 1381:0.1490712 #
-0.029356647028770187224377963275401 3:0.57735026 255:0.57735026 2364:0.57735026 #
-1.000000017990847034354828792857 1:0.23570226 3:0.70710677 51:0.23570226 295:0.23570226 414:0.23570226 2099:0.23570226 2194:0.23570226 2215:0.23570226 2235:0.23570226 2442:0.23570226 #
-1.000000017990847034354828792857 1:0.37796447 3:0.75592893 414:0.37796447 2589:0.37796447 #
-0.38891899079238489989052141027059 3:0.70710677 276:0.70710677 #
1.000000017990847034354828792857 1:0.63245553 3:0.31622776 277:0.31622776 599:0.31622776 837:0.31622776 1585:0.31622776 2873:0.31622776 #
1.000000017990847034354828792857 1:0.60302269 3:0.30151135 251:0.30151135 599:0.30151135 952:0.30151135 1150:0.30151135 1597:0.30151135 2882:0.30151135 #
1.000000017990847034354828792857 1:0.5 3:0.5 6:0.25 25:0.25 102:0.25 244:0.25 353:0.25 489:0.25 1630:0.25 2830:0.25 #
1.000000017990847034354828792857 1:0.77459669 3:0.25819889 155:0.25819889 712:0.25819889 780:0.25819889 1189:0.25819889 1630:0.25819889 #
1.000000017990847034354828792857 3:0.57735026 84:0.57735026 2237:0.57735026 #
1.000000017990847034354828792857 2:0.11867817 3:0.83074719 6:0.11867817 122:0.11867817 151:0.11867817 278:0.23735633 480:0.11867817 499:0.11867817 1586:0.11867817 1588:0.11867817 1618:0.11867817 1852:0.35603449 #
-1.000000017990847034354828792857 3:1 #
-1.000000017990847034354828792857 1:0.26726124 3:0.53452247 33:0.26726124 34:0.26726124 102:0.26726124 152:0.26726124 487:0.26726124 1620:0.26726124 1912:0.26726124 2128:0.26726124 2737:0.26726124 #
-1.000000017990847034354828792857 1:0.35355338 3:0.70710677 77:0.35355338 1597:0.35355338 1941:0.35355338 #
-0.11512951177863495200170973475906 1834:0.70710677 2838:0.70710677 #
-1.000000017990847034354828792857 1:0.40824831 85:0.40824831 343:0.40824831 414:0.40824831 1613:0.40824831 1630:0.40824831 #
-1.000000017990847034354828792857 1:0.33333334 3:0.66666669 22:0.33333334 311:0.33333334 573:0.33333334 2481:0.33333334 #
1.000000017990847034354828792857 1:0.37796447 3:0.37796447 26:0.37796447 278:0.37796447 896:0.37796447 1278:0.37796447 1619:0.37796447 #
-0.77597034600618397526261560415151 84:1 #
-0.30622887471343596121897689954494 25:1 #
-0.13661134312852374339541938752518 1605:1 #
-0.011772597763756869476692301645926 127:1 #
1.000000017990847034354828792857 1:0.17960531 3:0.71842122 27:0.17960531 34:0.17960531 71:0.17960531 152:0.17960531 276:0.17960531 673:0.17960531 932:0.17960531 1169:0.17960531 1185:0.17960531 1272:0.17960531 1299:0.17960531 1447:0.17960531 1586:0.17960531 1589:0.17960531 #
1.000000017990847034354828792857 1:0.40824831 3:0.61237246 29:0.20412415 93:0.20412415 191:0.40824831 781:0.20412415 2215:0.20412415 2219:0.20412415 2843:0.20412415 2864:0.20412415 #
-1.000000017990847034354828792857 1:0.26726124 3:0.80178374 149:0.26726124 378:0.26726124 1589:0.26726124 2794:0.26726124 #
-1.000000017990847034354828792857 1:0.35355338 3:0.70710677 27:0.35355338 548:0.35355338 2872:0.35355338 #
-1.000000017990847034354828792857 1:0.35355338 3:0.70710677 16:0.35355338 26:0.35355338 133:0.35355338 #
-1.000000017990847034354828792857 1:0.37796447 3:0.75592893 4:0.18898223 109:0.18898223 190:0.18898223 480:0.18898223 490:0.18898223 1572:0.18898223 1910:0.18898223 2115:0.18898223 #
-1.000000017990847034354828792857 1:0.35355338 3:0.70710677 599:0.35355338 1630:0.35355338 2410:0.35355338 #
-1.000000017990847034354828792857 1:0.33333334 3:0.66666669 416:0.33333334 1527:0.33333334 1611:0.33333334 2409:0.33333334 #
-1.000000017990847034354828792857 1:0.2773501 3:0.5547002 86:0.2773501 175:0.2773501 306:0.2773501 396:0.2773501 437:0.2773501 481:0.2773501 611:0.2773501 1906:0.2773501 #
-1.000000017990847034354828792857 1:0.31622776 3:0.63245553 73:0.31622776 403:0.31622776 1585:0.31622776 1709:0.31622776 1737:0.31622776 #
-0.78926341597314919606986904909718 3:0.35355338 71:0.35355338 497:0.35355338 2189:0.70710677 2237:0.35355338 #
1.000000017990847034354828792857 1:0.29488391 3:0.7372098 84:0.14744195 242:0.14744195 411:0.14744195 702:0.14744195 786:0.14744195 882:0.14744195 968:0.14744195 1110:0.14744195 1126:0.14744195 1199:0.14744195 1616:0.14744195 2218:0.14744195 2227:0.29488391 2859:0.14744195 #
-1.000000017990847034354828792857 1:0.36363637 3:0.72727275 5:0.18181819 33:0.090909094 139:0.090909094 146:0.090909094 152:0.090909094 167:0.090909094 279:0.090909094 299:0.090909094 480:0.090909094 489:0.090909094 492:0.090909094 497:0.090909094 1613:0.36363637 1614:0.090909094 1630:0.18181819 1909:0.090909094 2021:0.090909094 2167:0.090909094 2217:0.090909094 2687:0.090909094 #
-1.000000017990847034354828792857 1:0.26726124 3:0.80178374 20:0.26726124 26:0.26726124 613:0.26726124 2236:0.26726124 #
-1.000000017990847034354828792857 1:0.35355338 3:0.70710677 7:0.35355338 140:0.35355338 1764:0.35355338 #
1.000000017990847034354828792857 1:0.39223227 3:0.39223227 63:0.39223227 413:0.19611613 737:0.19611613 966:0.19611613 1036:0.39223227 1151:0.19611613 1325:0.19611613 1879:0.39223227 2231:0.19611613 #
1.000000017990847034354828792857 1:0.80178374 3:0.40089187 9:0.13363062 108:0.26726124 249:0.13363062 498:0.13363062 1322:0.13363062 1386:0.13363062 2236:0.13363062 2849:0.13363062 #
1.000000017990847034354828792857 1:0.30151135 3:0.60302269 152:0.30151135 623:0.30151135 675:0.30151135 1003:0.30151135 1591:0.30151135 2851:0.30151135 #
0.86153700381646891592879455856746 1:0.43643579 3:0.21821789 152:0.21821789 176:0.21821789 230:0.43643579 415:0.43643579 889:0.21821789 1297:0.21821789 1919:0.43643579 #
-1.000000017990847034354828792857 1:0.5 6:0.25 390:0.25 557:0.5 606:0.25 1536:0.25 2215:0.5 #
1.000000017990847034354828792857 2:0.22298825 3:0.89195299 34:0.074329413 125:0.074329413 495:0.074329413 730:0.14865883 771:0.14865883 1014:0.14865883 1433:0.14865883 1451:0.074329413 1869:0.074329413 1905:0.074329413 1920:0.074329413 2217:0.14865883 2864:0.074329413 #
1.000000017990847034354828792857 1:0.40824831 3:0.40824831 1613:0.81649661 #
1.000000017990847034354828792857 1:0.84016806 3:0.28005603 9:0.14002801 27:0.14002801 489:0.14002801 490:0.14002801 492:0.14002801 619:0.14002801 827:0.14002801 1092:0.14002801 1430:0.14002801 1597:0.14002801 1890:0.14002801 #
1.000000017990847034354828792857 1:0.74535596 3:0.44721359 20:0.1490712 195:0.1490712 205:0.1490712 273:0.1490712 1610:0.1490712 1630:0.2981424 2839:0.1490712 2885:0.1490712 #
-1.000000017990847034354828792857 1:0.73301667 3:0.36650833 6:0.36650833 69:0.12216944 102:0.12216944 282:0.12216944 597:0.12216944 1683:0.12216944 1700:0.12216944 2005:0.12216944 2223:0.12216944 2436:0.12216944 2541:0.24433888 #
-1.000000017990847034354828792857 1:0.63245553 3:0.31622776 6:0.31622776 297:0.31622776 1458:0.31622776 1637:0.31622776 1851:0.31622776 #
-1.000000017990847034354828792857 1:0.60302269 3:0.30151135 6:0.30151135 30:0.30151135 58:0.30151135 422:0.30151135 1906:0.30151135 2650:0.30151135 #
-0.13605334325495993530452665254415 166:0.70710677 2204:0.70710677 #
0.81671956469360074137853189313319 1:0.80178374 3:0.26726124 596:0.26726124 930:0.26726124 1628:0.26726124 2880:0.26726124 #
1.000000017990847034354828792857 1:0.20851441 2:0.20851441 3:0.83405763 20:0.20851441 93:0.20851441 797:0.20851441 1256:0.20851441 1630:0.20851441 #
1.000000017990847034354828792857 1:0.37796447 3:0.75592893 51:0.37796447 2850:0.37796447 #
1.000000017990847034354828792857 1:0.48507124 3:0.72760689 25:0.24253562 210:0.24253562 766:0.24253562 1601:0.24253562 #
1.000000017990847034354828792857 3:0.5 93:0.5 177:0.5 205:0.5 #
1.000000017990847034354828792857 1:0.44721359 3:0.44721359 953:0.44721359 1254:0.44721359 2856:0.44721359 #
1.000000017990847034354828792857 1:0.33333334 3:0.66666669 751:0.33333334 1354:0.33333334 1622:0.33333334 2237:0.33333334 #
1.000000017990847034354828792857 1:0.51639777 3:0.51639777 200:0.51639777 214:0.25819889 224:0.25819889 1614:0.25819889 #
1.000000017990847034354828792857 1:0.47140452 3:0.47140452 5:0.23570226 20:0.23570226 991:0.23570226 1068:0.23570226 1263:0.23570226 1443:0.23570226 2231:0.47140452 #
1.000000017990847034354828792857 1:0.44721359 3:0.44721359 249:0.44721359 341:0.44721359 1040:0.44721359 #
0.6058507068236107517833488600445 1:0.60302269 3:0.30151135 139:0.30151135 151:0.30151135 152:0.30151135 601:0.30151135 1296:0.30151135 2215:0.30151135 #
1.000000017990847034354828792857 1:0.44721359 3:0.44721359 232:0.44721359 277:0.44721359 629:0.44721359 #
1.000000017990847034354828792857 1:0.51639777 3:0.51639777 250:0.25819889 747:0.25819889 924:0.25819889 1016:0.25819889 1075:0.25819889 1136:0.25819889 1203:0.25819889 #
1.000000017990847034354828792857 1:0.37139067 3:0.74278134 625:0.18569534 971:0.18569534 1098:0.18569534 1174:0.18569534 1181:0.18569534 1270:0.18569534 1390:0.18569534 1591:0.18569534 1629:0.18569534 #
-1.000000017990847034354828792857 1:0.5 28:0.5 122:0.5 124:0.5 #
-1.000000017990847034354828792857 1:0.33333334 3:0.66666669 87:0.33333334 137:0.33333334 273:0.33333334 2818:0.33333334 #
-0.13676320824003673770619116112357 512:1 #
-1.000000017990847034354828792857 1:0.31622776 3:0.63245553 169:0.31622776 288:0.31622776 370:0.31622776 412:0.31622776 1596:0.31622776 #
1.000000017990847034354828792857 2:0.37796447 3:0.75592893 108:0.37796447 235:0.37796447 #
1.000000017990847034354828792857 1:0.35355338 3:0.70710677 177:0.35355338 1218:0.35355338 1244:0.35355338 #
1.000000017990847034354828792857 1:0.51639777 3:0.51639777 98:0.25819889 721:0.25819889 977:0.25819889 1129:0.25819889 1597:0.25819889 1919:0.25819889 2884:0.25819889 #
-1.000000017990847034354828792857 1:0.33333334 3:0.66666669 20:0.33333334 32:0.33333334 176:0.33333334 2354:0.33333334 #
-1.000000017990847034354828792857 1:0.2 3:0.80000001 25:0.2 139:0.2 334:0.2 461:0.2 1694:0.2 1838:0.2 1914:0.2 2413:0.2 #
0.43623237867820163771170882682782 1:0.57735026 3:0.28867513 159:0.28867513 498:0.28867513 910:0.28867513 954:0.57735026 #
-1.000000017990847034354828792857 1:0.73029673 3:0.18257418 6:0.36514837 192:0.18257418 413:0.18257418 500:0.18257418 595:0.18257418 1907:0.18257418 1918:0.18257418 2236:0.18257418 2509:0.18257418 2600:0.18257418 #
-1.000000017990847034354828792857 1:0.63245553 6:0.31622776 23:0.31622776 135:0.31622776 310:0.31622776 1571:0.31622776 1939:0.31622776 #
-1.000000017990847034354828792857 1:0.71428573 3:0.14285715 6:0.42857143 12:0.14285715 38:0.14285715 89:0.14285715 274:0.14285715 284:0.14285715 475:0.14285715 485:0.14285715 562:0.14285715 1506:0.14285715 1906:0.14285715 2016:0.14285715 2113:0.14285715 2224:0.14285715 2897:0.14285715 #
-1.000000017990847034354828792857 1:0.5547002 3:0.2773501 6:0.2773501 12:0.2773501 371:0.2773501 415:0.2773501 458:0.2773501 1552:0.2773501 1985:0.2773501 2175:0.2773501 #
1.000000017990847034354828792857 1:0.17960531 2:0.17960531 3:0.89802653 53:0.17960531 101:0.17960531 995:0.17960531 1852:0.17960531 #
1.000000017990847034354828792857 1:0.33333334 3:0.66666669 1613:0.66666669 #
-1.000000017990847034354828792857 1:0.67612338 3:0.33806169 6:0.50709254 491:0.16903085 1476:0.16903085 1907:0.16903085 1982:0.16903085 2845:0.16903085 2882:0.16903085 #
-1.000000017990847034354828792857 1:0.69631064 3:0.34815532 6:0.52223295 16:0.17407766 1668:0.17407766 1770:0.17407766 2866:0.17407766 #
-1.000000017990847034354828792857 1:0.30151135 3:0.60302269 139:0.30151135 1663:0.30151135 1795:0.30151135 2128:0.30151135 2552:0.30151135 2844:0.30151135 #
-1.000000017990847034354828792857 1:0.25819889 3:0.51639777 36:0.25819889 46:0.25819889 414:0.51639777 427:0.25819889 610:0.25819889 1766:0.25819889 1847:0.25819889 #
-1.000000017990847034354828792857 1:0.064282432 3:0.9642365 11:0.064282432 17:0.064282432 27:0.064282432 102:0.064282432 145:0.064282432 255:0.064282432 392:0.064282432 446:0.064282432 499:0.064282432 507:0.064282432 1511:0.064282432 1680:0.064282432 1813:0.064282432 1915:0.064282432 2008:0.064282432 2635:0.064282432 #
-1.000000017990847034354828792857 1:0.69631064 6:0.52223295 408:0.17407766 414:0.17407766 473:0.17407766 1603:0.17407766 1647:0.17407766 1780:0.17407766 1899:0.17407766 2231:0.17407766 #
-1.000000017990847034354828792857 1613:0.57735026 2217:0.57735026 2832:0.57735026 #
-1.000000017990847034354828792857 1:0.75526321 3:0.083918139 6:0.58742696 25:0.083918139 27:0.083918139 79:0.083918139 92:0.083918139 139:0.083918139 381:0.083918139 520:0.083918139 1596:0.083918139 1614:0.083918139 2236:0.083918139 2837:0.083918139 #
-0.45218018897039363723777682935179 1501:0.57735026 1816:0.57735026 2218:0.57735026 #
1.000000017990847034354828792857 1:0.75 3:0.5 414:0.25 1030:0.25 1611:0.25 #
1.000000017990847034354828792857 1:0.63960212 3:0.63960212 102:0.21320072 491:0.21320072 1005:0.21320072 1086:0.21320072 #
1.000000017990847034354828792857 1:0.5 7:0.5 410:0.5 899:0.5 #
-1.000000017990847034354828792857 1:0.2517544 3:0.83918136 7:0.2517544 11:0.16783628 28:0.083918139 60:0.16783628 161:0.083918139 272:0.083918139 413:0.083918139 522:0.083918139 534:0.083918139 599:0.083918139 2018:0.083918139 2030:0.083918139 2193:0.083918139 2223:0.083918139 2236:0.083918139 2568:0.083918139 2675:0.083918139 2815:0.083918139 2874:0.083918139 #
-1.000000017990847034354828792857 3:1 #
-1.000000017990847034354828792857 1:0.66666669 6:0.33333334 20:0.33333334 122:0.33333334 128:0.33333334 1905:0.33333334 #
1.000000017990847034354828792857 1:0.58345997 3:0.72932494 25:0.14586499 357:0.14586499 854:0.14586499 918:0.14586499 1409:0.14586499 1625:0.14586499 #
1.000000017990847034354828792857 1:0.5 3:0.75 239:0.25 855:0.25 1586:0.25 #
1.000000017990847034354828792857 1:0.57735026 3:0.57735026 683:0.57735026 #
-1.000000017990847034354828792857 3:1 #
1.000000017990847034354828792857 1:0.57735026 1368:0.57735026 2865:0.57735026 #
-1.000000017990847034354828792857 3:0.44721359 29:0.44721359 36:0.44721359 191:0.44721359 1890:0.44721359 #
-0.86211917771461932247234472015407 1:0.25819889 3:0.51639777 102:0.25819889 316:0.25819889 342:0.25819889 411:0.51639777 1524:0.25819889 1574:0.25819889 1685:0.25819889 #
-0.74942035225699277223299077377305 1:0.25819889 3:0.51639777 123:0.25819889 138:0.25819889 147:0.25819889 152:0.25819889 411:0.25819889 499:0.25819889 541:0.25819889 1731:0.25819889 1770:0.25819889 2220:0.25819889 #
-0.17813928954028201978587730991421 3:0.44721359 76:0.44721359 1587:0.44721359 1598:0.44721359 2796:0.44721359 #
-0.34434580124222757824270502169384 3:0.44721359 150:0.44721359 165:0.44721359 257:0.44721359 1601:0.44721359 #
-1.000000017990847034354828792857 1:0.28867513 3:0.57735026 415:0.28867513 1597:0.28867513 1950:0.57735026 1991:0.28867513 #
-0.89058104573537388848336604496581 1:0.72980046 3:0.1042572 6:0.52128601 9:0.1042572 23:0.1042572 27:0.1042572 36:0.1042572 55:0.1042572 60:0.1042572 190:0.1042572 273:0.1042572 305:0.1042572 430:0.1042572 487:0.1042572 1745:0.1042572 1976:0.1042572 2074:0.1042572 2223:0.1042572 2631:0.1042572 2909:0.1042572 #
-0.72720648860439340843697664240608 1:0.28867513 3:0.57735026 39:0.28867513 109:0.28867513 280:0.28867513 547:0.28867513 596:0.28867513 1504:0.28867513 1580:0.28867513 #
-0.97489795289702141367627064028056 1:0.2773501 3:0.5547002 31:0.2773501 69:0.2773501 121:0.5547002 1616:0.2773501 1832:0.2773501 #
-0.43188336644560110233470595630934 3:0.70710677 603:0.70710677 #
-1.000000017990847034354828792857 1:0.28867513 3:0.57735026 18:0.28867513 319:0.28867513 408:0.28867513 1611:0.28867513 1960:0.28867513 1989:0.28867513 2882:0.28867513 #
-0.93664682902540830067295019034646 1:0.24253562 3:0.48507124 113:0.24253562 144:0.24253562 185:0.24253562 347:0.24253562 614:0.24253562 1477:0.24253562 1909:0.24253562 2447:0.24253562 2715:0.48507124 #
-0.84184935176131114875630601090961 1:0.31622776 3:0.63245553 32:0.31622776 408:0.31622776 410:0.31622776 1555:0.31622776 2128:0.31622776 #
-0.95242486114476243574955560688977 1:0.33333334 3:0.66666669 382:0.33333334 482:0.33333334 1630:0.33333334 2829:0.33333334 #
-0.67767051700330305230579597264295 1:0.30151135 3:0.60302269 5:0.30151135 43:0.30151135 141:0.30151135 376:0.30151135 614:0.30151135 1694:0.30151135 #
-0.85199013700750148014861906631268 1:0.44721359 313:0.44721359 600:0.44721359 1630:0.44721359 2950:0.44721359 #
-0.95505516820634772656717359495815 1:0.27160725 46:0.090535745 82:0.090535745 108:0.90535748 136:0.18107149 161:0.090535745 274:0.090535745 290:0.090535745 414:0.090535745 2053:0.090535745 2059:0.090535745 2951:0.090535745 #
-1.000000017990847034354828792857 1:0.70710677 6:0.35355338 26:0.35355338 27:0.35355338 102:0.35355338 #
-0.59964671157179960658822892582975 1:0.40824831 111:0.40824831 117:0.40824831 291:0.40824831 1630:0.40824831 2831:0.40824831 #
-0.38684588012805809498217968211975 1:0.35355338 9:0.35355338 108:0.70710677 164:0.35355338 280:0.35355338 #
1.000000017990847034354828792857 1:0.61237246 3:0.61237246 711:0.20412415 718:0.20412415 1310:0.20412415 1388:0.20412415 1418:0.20412415 2836:0.20412415 #
1.000000017990847034354828792857 1:0.57735026 3:0.57735026 499:0.28867513 1001:0.28867513 1880:0.28867513 2232:0.28867513 #
-1.000000017990847034354828792857 3:1 #
1.000000017990847034354828792857 1:0.77459669 27:0.25819889 191:0.25819889 1608:0.25819889 1630:0.25819889 1846:0.25819889 2236:0.25819889 #
0.52099262372674326471155836770777 1:0.44721359 71:0.44721359 765:0.44721359 1004:0.44721359 1207:0.44721359 #
0.6053980931255772413024374145607 1:0.57735026 913:0.57735026 1898:0.57735026 #
0.60539809312630599169580136731383 1:0.57735026 973:0.57735026 1224:0.57735026 #
-0.29567625086099019737773119231861 1609:0.70710677 2851:0.70710677 #
-0.096119373383304340663357834273484 498:1 #
1.000000017990847034354828792857 1:0.80000001 3:0.2 120:0.2 598:0.2 600:0.40000001 801:0.2 2236:0.2 #
0.13973763681030043626307701742917 1:0.72760689 3:0.24253562 102:0.24253562 419:0.24253562 617:0.24253562 1197:0.24253562 1268:0.24253562 1868:0.24253562 2236:0.24253562 #
-1.000000017990847034354828792857 1:0.35921061 3:0.71842122 55:0.17960531 57:0.17960531 103:0.17960531 121:0.17960531 140:0.17960531 188:0.17960531 309:0.17960531 412:0.17960531 613:0.17960531 1812:0.17960531 1917:0.17960531 #
-0.85430616818982296756246341828955 1:0.30151135 3:0.60302269 35:0.30151135 187:0.30151135 596:0.30151135 1583:0.30151135 1597:0.30151135 2120:0.30151135 #
1.000000017990847034354828792857 1:0.57735026 6:0.28867513 71:0.28867513 1057:0.28867513 1166:0.28867513 1212:0.28867513 1884:0.28867513 1900:0.28867513 2884:0.28867513 #
0.28376582800362754044343205350742 1:0.57735026 195:0.57735026 1612:0.57735026 #
-0.97172702385059084306817567266989 1:0.21821789 3:0.65465367 152:0.21821789 499:0.21821789 615:0.21821789 1498:0.43643579 1748:0.21821789 2157:0.21821789 2248:0.21821789 2690:0.21821789 #
0.52218135763851081243558382993797 1:0.37796447 63:0.37796447 95:0.37796447 367:0.37796447 833:0.37796447 858:0.37796447 1176:0.37796447 #
0.57662458086061985085279957274906 1:0.5 679:0.5 867:0.5 1896:0.5 #
0.31649677245819396453896388266003 1:0.30151135 125:0.30151135 191:0.30151135 682:0.30151135 804:0.30151135 1274:0.30151135 1903:0.60302269 2830:0.30151135 #
-0.60759570459826550692383761997917 1606:1 #
-0.017060775475578857790504017089006 3:0.70710677 2367:0.70710677 #
-1.000000017990847034354828792857 1:0.40824831 43:0.40824831 414:0.40824831 605:0.40824831 1630:0.40824831 1846:0.40824831 #
-0.86074612399999206324707756721182 1:0.5 1597:0.5 1630:0.5 2251:0.5 #
-0.53711679268300593914631235747947 1:0.44721359 137:0.44721359 344:0.44721359 1630:0.44721359 2880:0.44721359 #
1.000000017990847034354828792857 1:0.48507124 3:0.24253562 6:0.48507124 44:0.48507124 419:0.48507124 #
-1.000000017990847034354828792857 1:0.65759593 3:0.32879797 6:0.49319696 13:0.16439898 21:0.16439898 307:0.16439898 607:0.16439898 1518:0.16439898 1595:0.16439898 1597:0.16439898 2219:0.16439898 #
-1.000000017990847034354828792857 1:0.6882472 6:0.45883146 54:0.22941573 102:0.22941573 273:0.22941573 547:0.22941573 2236:0.22941573 2869:0.22941573 #
-1.000000017990847034354828792857 1:0.63960212 3:0.21320072 6:0.42640144 25:0.21320072 85:0.21320072 120:0.21320072 431:0.21320072 456:0.21320072 480:0.21320072 615:0.21320072 1743:0.21320072 #
-1.000000017990847034354828792857 1:0.66666669 6:0.33333334 190:0.33333334 492:0.33333334 1597:0.33333334 2235:0.33333334 #
0.59589116759462068539932033672812 1:0.51639777 3:0.25819889 150:0.25819889 1118:0.25819889 1343:0.25819889 1378:0.25819889 1450:0.25819889 2218:0.51639777 2868:0.25819889 #
1.000000017990847034354828792857 1:0.75592893 685:0.37796447 1630:0.37796447 2868:0.37796447 #
1.000000017990847034354828792857 1:0.81373346 3:0.3487429 5:0.11624764 20:0.11624764 342:0.11624764 749:0.11624764 760:0.11624764 778:0.11624764 1034:0.11624764 1182:0.11624764 1599:0.11624764 1615:0.11624764 1630:0.11624764 1847:0.11624764 1857:0.11624764 1858:0.11624764 2224:0.11624764 2867:0.11624764 #
0.70213812025481170397966934615397 1:0.39223227 3:0.39223227 159:0.39223227 347:0.19611613 803:0.19611613 1171:0.19611613 1311:0.19611613 1624:0.19611613 2858:0.58834839 #
-0.69879344202033522037709190044552 1:0.2236068 3:0.67082042 33:0.2236068 40:0.2236068 47:0.2236068 74:0.2236068 188:0.2236068 400:0.2236068 1472:0.2236068 1536:0.2236068 2692:0.2236068 2755:0.2236068 #
1.000000017990847034354828792857 1:0.77459669 3:0.25819889 6:0.25819889 191:0.25819889 602:0.25819889 605:0.25819889 2833:0.25819889 #
-0.94456443145890811585729807120515 1:0.57735026 3:0.28867513 6:0.28867513 9:0.28867513 414:0.28867513 508:0.28867513 600:0.28867513 607:0.28867513 1462:0.28867513 #
0.87199898468100078829934318491723 1:0.58834839 3:0.58834839 208:0.19611613 228:0.19611613 356:0.19611613 752:0.19611613 894:0.19611613 1352:0.19611613 1452:0.19611613 2233:0.19611613 #
-0.49997499552124469168745690694777 1:0.26726124 3:0.53452247 76:0.26726124 85:0.26726124 146:0.26726124 184:0.26726124 413:0.26726124 458:0.26726124 480:0.26726124 1641:0.26726124 2492:0.26726124 #
-0.75345394761021644569609634345397 1:0.5 20:0.5 444:0.5 1630:0.5 #
0.33150573861432364175527709448943 1:0.5547002 37:0.2773501 151:0.2773501 761:0.2773501 1222:0.2773501 1234:0.2773501 1257:0.2773501 1398:0.2773501 2225:0.2773501 2860:0.2773501 #
0.80362346076625601476450810878305 1:0.6882472 20:0.22941573 194:0.45883146 748:0.22941573 923:0.22941573 1062:0.22941573 1140:0.22941573 1336:0.22941573 #
-0.94029800830921428378417203930439 1:0.66815311 6:0.66815311 10:0.13363062 395:0.13363062 595:0.13363062 1769:0.13363062 1904:0.13363062 2958:0.13363062 #
-0.19476105468196025505278612399707 333:0.70710677 1608:0.70710677 #
-0.29756428541520918429341691080481 1:0.65465367 4:0.21821789 6:0.43643579 21:0.21821789 22:0.21821789 59:0.21821789 80:0.21821789 445:0.21821789 480:0.21821789 2308:0.21821789 #
-0.27269847340438901905912416623323 46:0.57735026 575:0.57735026 2269:0.57735026 #
-0.5702852761053103236577044299338 1:0.71554178 3:0.089442722 6:0.62609905 11:0.089442722 20:0.089442722 413:0.089442722 596:0.089442722 1482:0.089442722 1505:0.089442722 1585:0.089442722 1614:0.089442722 1813:0.089442722 2191:0.089442722 2576:0.089442722 #
0.91005658667292066432707997591933 2:0.40824831 3:0.61237246 34:0.20412415 53:0.20412415 216:0.40824831 595:0.20412415 636:0.20412415 907:0.20412415 1154:0.20412415 2847:0.20412415 #
1.000000017990847034354828792857 1:0.5 3:0.66666669 125:0.16666667 151:0.16666667 177:0.16666667 280:0.16666667 486:0.16666667 600:0.16666667 667:0.16666667 1292:0.16666667 1909:0.16666667 2230:0.16666667 2233:0.16666667 #
-1.000000017990847034354828792857 1:0.67134511 3:0.33567256 6:0.41959068 7:0.083918139 23:0.083918139 25:0.083918139 27:0.083918139 75:0.083918139 114:0.2517544 137:0.083918139 138:0.083918139 152:0.083918139 330:0.083918139 346:0.083918139 409:0.083918139 418:0.083918139 484:0.083918139 596:0.083918139 600:0.083918139 616:0.083918139 1528:0.083918139 1635:0.16783628 1907:0.083918139 1908:0.083918139 1998:0.083918139 2252:0.083918139 2314:0.083918139 2326:0.083918139 2619:0.083918139 #
-0.34693996253167258547733808882185 307:0.75592893 569:0.37796447 597:0.37796447 2941:0.37796447 #
-0.21830205541665603785617122412077 2843:1 #
-0.17776723491588347636493949721626 70:0.44721359 307:0.44721359 1600:0.44721359 2249:0.44721359 2792:0.44721359 #
-0.21524621165084023566294035845203 527:0.57735026 1728:0.57735026 2865:0.57735026 #
-0.017140728459139113054598979601906 559:0.70710677 2843:0.70710677 #
1.000000017990847034354828792857 1:0.65465367 3:0.43643579 21:0.21821789 53:0.21821789 62:0.21821789 191:0.21821789 218:0.21821789 354:0.21821789 358:0.21821789 1597:0.21821789 #
-1.000000017990847034354828792857 1:0.69109476 3:0.34554738 6:0.43193421 7:0.086386845 18:0.086386845 20:0.086386845 23:0.17277369 35:0.086386845 48:0.17277369 131:0.086386845 152:0.086386845 176:0.17277369 345:0.086386845 478:0.086386845 530:0.086386845 1479:0.086386845 1653:0.086386845 1674:0.086386845 1687:0.086386845 2024:0.086386845 2215:0.086386845 2463:0.086386845 2835:0.086386845 #
-1.000000017990847034354828792857 1:0.68599433 3:0.25724787 6:0.60024506 20:0.085749291 84:0.085749291 143:0.085749291 146:0.085749291 195:0.085749291 292:0.085749291 418:0.085749291 532:0.085749291 589:0.085749291 593:0.085749291 1528:0.085749291 1556:0.085749291 1585:0.085749291 2090:0.085749291 #
-0.12362277525191624205636031774702 275:0.57735026 483:0.57735026 2432:0.57735026 #
-0.93576120383668082158834522488178 3:0.63245553 277:0.63245553 600:0.31622776 1597:0.31622776 #
1.000000017990847034354828792857 1:0.70710677 3:0.70710677 #
0.50665551455139823389117736951448 1:0.70710677 1908:0.70710677 #
-0.11204592758756215520321575240814 1:0.44721359 6:0.44721359 127:0.44721359 2293:0.44721359 2616:0.44721359 #
-1.000000017990847034354828792857 1:0.56427652 3:0.56427652 6:0.49374193 7:0.070534565 58:0.070534565 102:0.070534565 173:0.070534565 342:0.070534565 465:0.070534565 529:0.070534565 581:0.070534565 1848:0.070534565 1929:0.070534565 2087:0.070534565 2205:0.070534565 2215:0.070534565 2236:0.070534565 2237:0.14106913 2262:0.070534565 2295:0.070534565 2329:0.070534565 2663:0.070534565 2748:0.070534565 2916:0.070534565 #
0.59360817124770404173972337957821 1:0.75592893 3:0.37796447 127:0.37796447 1899:0.37796447 #
-1.000000017990847034354828792857 1:0.64617068 3:0.51693654 6:0.48462799 11:0.032308534 16:0.032308534 25:0.032308534 26:0.032308534 30:0.064617068 35:0.032308534 41:0.032308534 58:0.032308534 75:0.032308534 90:0.032308534 102:0.032308534 120:0.032308534 125:0.032308534 137:0.032308534 181:0.032308534 193:0.032308534 275:0.032308534 309:0.032308534 310:0.032308534 333:0.032308534 334:0.064617068 341:0.032308534 401:0.064617068 404:0.032308534 421:0.032308534 436:0.032308534 439:0.032308534 449:0.032308534 463:0.032308534 477:0.064617068 487:0.032308534 492:0.032308534 531:0.032308534 1461:0.032308534 1484:0.032308534 1485:0.032308534 1576:0.032308534 1586:0.064617068 1597:0.032308534 1630:0.032308534 1730:0.032308534 1836:0.032308534 1905:0.032308534 1966:0.032308534 2005:0.032308534 2013:0.032308534 2085:0.096925601 2226:0.032308534 2571:0.032308534 2626:0.032308534 2803:0.032308534 2833:0.032308534 2882:0.032308534 2891:0.032308534 #
-1.000000017990847034354828792857 1:0.66666669 3:0.33333334 6:0.5 21:0.16666667 133:0.16666667 162:0.16666667 420:0.16666667 600:0.16666667 1599:0.16666667 1801:0.16666667 #
0.88643047820292886207482752070064 1:0.68599433 3:0.51449573 1168:0.17149858 1219:0.17149858 1397:0.17149858 1595:0.17149858 1861:0.17149858 1882:0.17149858 1890:0.17149858 2848:0.17149858 2852:0.17149858 #
1.000000017990847034354828792857 1:0.80295509 3:0.45883146 6:0.11470786 488:0.11470786 759:0.11470786 891:0.11470786 1041:0.11470786 1281:0.11470786 1629:0.11470786 2867:0.22941573 #
0.74265905192470049733799442037707 1:0.60302269 3:0.30151135 121:0.30151135 671:0.30151135 895:0.30151135 922:0.30151135 1210:0.30151135 1591:0.30151135 #
0.8624960340640724920646675855096 1:0.67082042 3:0.44721359 674:0.2236068 774:0.2236068 1006:0.2236068 1200:0.2236068 1304:0.2236068 1892:0.2236068 2871:0.2236068 #
0.57665757459876632040618460450787 1:0.57735026 1604:0.57735026 2856:0.57735026 #
-0.29975339448518389939835060431506 2871:1 #
-0.0073788130317698017585081871061448 413:0.57735026 1665:0.57735026 2683:0.57735026 #
-0.1059051439306240294246919120269 183:0.70710677 598:0.70710677 #
-0.1269833673212784896922045163592 91:0.70710677 1621:0.70710677 #
-0.051057965785901014699188493750626 91:0.57735026 423:0.57735026 2237:0.57735026 #
-0.32168280748582267491997299657669 1810:0.70710677 2827:0.70710677 #
-0.13694565096237276691226725233719 2754:1 #
-0.13709726210750361463652780003031 545:1 #
-0.13709726210750361463652780003031 524:1 #
-0.081550359718312592782751835329691 24:1 #
0.44029495379975697177954430117097 1:0.70710677 3:0.35355338 694:0.35355338 1235:0.35355338 1589:0.35355338 #
-0.13670973346725667774137491505826 2343:1 #
-0.13670973346725667774137491505826 2041:1 #
-0.13691311693896257573044294986175 1970:1 #
-0.081210578056630011722916151484242 1723:1 #
-0.1366930777645783967599868446996 2895:1 #
0.18353798324350592552356431497174 1:0.83405763 3:0.20851441 273:0.20851441 605:0.20851441 689:0.20851441 1051:0.20851441 1916:0.20851441 2236:0.20851441 #
-0.13600635909533287382089383754646 1542:1 #
-0.13600635909533287382089383754646 1782:1 #
-0.13600635909533287382089383754646 2424:1 #
-0.13600635909533287382089383754646 129:1 #
-0.13583109723635278243136781384237 2221:1 #
-0.11792184110572967448149483971065 2082:1 #
-0.13583109723635278243136781384237 1940:1 #
-0.13605333856569812311931855219882 263:1 #
-0.13605333856569812311931855219882 2501:1 #
-0.13605333856569812311931855219882 2056:1 #
-0.13587320946042125147101842230768 1792:1 #
-0.13569547048779906361914981971495 2183:0.70710677 2787:0.70710677 #
-0.13585906324347374329875037801685 2139:1 #
-0.15239523925362608025579902459867 3:0.44721359 172:0.44721359 450:0.44721359 1603:0.44721359 1610:0.44721359 #
-0.11562379207880235654215539398137 68:1 #
-0.13698305013313483158299277420156 2003:1 #
-0.022055341355387891866257632500492 479:1 #
-0.13698305013313483158299277420156 2378:1 #
-1.000000017990847034354828792857 1:0.67269158 3:0.37371755 4:0.22423053 5:0.074743509 6:0.44846106 12:0.074743509 80:0.22423053 196:0.074743509 259:0.14948702 394:0.074743509 1497:0.074743509 1552:0.074743509 1677:0.14948702 1719:0.074743509 1729:0.074743509 2308:0.074743509 2705:0.074743509 2922:0.074743509 #
-0.61390851760869757924865552922711 1:0.47140452 3:0.23570226 6:0.23570226 29:0.23570226 30:0.23570226 38:0.23570226 173:0.23570226 307:0.23570226 414:0.23570226 1609:0.23570226 2334:0.23570226 2804:0.47140452 #
-0.82138559263923816011754297505831 1:0.31622776 3:0.63245553 9:0.31622776 52:0.31622776 167:0.31622776 1917:0.31622776 2651:0.31622776 #
0.58290158736021280283523537946166 1:0.5 277:0.5 949:0.5 2229:0.5 #
-0.13661134779019978857661499205278 1642:0.70710677 2263:0.70710677 #
-0.081257854224887543503896836227796 380:0.70710677 1539:0.70710677 #
-0.13700454833291261791394788360776 1466:0.70710677 1632:0.70710677 #
-0.13676844777612354175921893784107 1788:0.57735026 1841:0.57735026 2094:0.57735026 #
0.48664643844076688194988378199923 1:0.60302269 3:0.30151135 202:0.30151135 985:0.30151135 1178:0.30151135 1287:0.30151135 1868:0.30151135 1873:0.30151135 #
-0.13704392883177574091746464546304 1740:1 #
-0.13704392883177574091746464546304 1797:1 #
-0.13680884449796948398869744778494 1968:0.70710677 2055:0.70710677 #
-0.13704392883177574091746464546304 2015:1 #
-0.13658896289720068306650091471965 2965:1 #
-0.13691311693896257573044294986175 1937:1 #
-0.087070184942018083451564791630517 465:0.70710677 2513:0.70710677 #
-0.35724060009558389339190398459323 1:0.30151135 3:0.30151135 26:0.30151135 108:0.60302269 126:0.30151135 294:0.30151135 2236:0.30151135 2580:0.30151135 #
-0.21092917156143117796140984410158 1612:0.70710677 2806:0.70710677 #
-0.095361446861705057020941467271768 1:0.2236068 3:0.2236068 108:0.89442718 523:0.2236068 2057:0.2236068 #
-0.079884107291197437028529293456813 494:1 #
-0.080615288655787514793260584156087 494:0.70710677 2528:0.70710677 #
0.46480714626128261102167016360909 1:0.60302269 51:0.30151135 98:0.30151135 121:0.30151135 281:0.30151135 902:0.30151135 1134:0.30151135 2884:0.30151135 #
0.38273774969987073291122214868665 1:0.60302269 3:0.30151135 37:0.30151135 51:0.30151135 342:0.30151135 1123:0.30151135 1455:0.30151135 1848:0.30151135 #
0.58028830208723258810010747765773 1:0.5 3:0.5 159:0.5 665:0.5 #
0.66287033650586746347244115895592 1:0.6882472 3:0.22941573 27:0.22941573 37:0.22941573 277:0.22941573 892:0.22941573 946:0.22941573 1164:0.22941573 1608:0.22941573 1921:0.22941573 2236:0.22941573 #
-0.95943397970730781576520485032233 1:0.60000002 3:0.40000001 6:0.40000001 28:0.2 53:0.2 124:0.2 490:0.2 1597:0.2 1608:0.2 2366:0.2 2714:0.2 #
-0.13575942503328364274750583717832 260:1 #
-0.13661134312852374339541938752518 457:1 #
-0.13599921806246917377336558274692 1777:1 #
-0.13590939202567975385704812651966 301:1 #
-1.000000017990847034354828792857 1:0.6882472 3:0.3441236 4:0.11470786 6:0.57353932 13:0.11470786 143:0.11470786 479:0.11470786 1641:0.11470786 2080:0.11470786 #
-0.1361096029162555121061473073496 130:1 #
-0.1363780502874917255340392330254 1701:1 #
-0.1363780502874917255340392330254 2253:1 #
-0.13573761870019884767657458723988 2198:1 #
-0.11092753072390422464099657418046 258:0.57735026 2689:0.57735026 2710:0.57735026 #
-0.081756653414326918571930491452804 1984:1 #
-0.13625158993907762750019685427105 2696:0.70710677 2817:0.70710677 #
-0.13625158993907762750019685427105 466:0.70710677 2222:0.70710677 #
-0.13680316914432089081543608699576 1515:1 #
-0.13672976044146126217704306782252 535:0.70710677 1768:0.70710677 #
-0.13573761870019884767657458723988 556:1 #
-0.13619117813702086294824766810052 1771:0.70710677 2434:0.70710677 #
-0.13587320946042125147101842230768 510:1 #
-0.13580177342679700114302931979182 1493:1 #
-0.13580177342679700114302931979182 1830:1 #
-0.1368877235914404133509947314451 592:1 #
-0.13650254918683346616603557777125 132:1 #
-0.13585906324347374329875037801685 160:1 #
-0.13593009017325341503124036535155 2725:1 #
-0.10998072452934835874227559315841 289:0.70710677 2181:0.70710677 #
-0.13593009017325341503124036535155 374:1 #
-0.13706623807123952119013665651437 1969:1 #
-0.13700454367785175335825442743953 312:1 #
-0.13700454833291261791394788360776 1736:0.70710677 2176:0.70710677 #
-0.13670973813486816950124591585336 320:0.70710677 1638:0.70710677 #
-0.13622382570762048281665101967519 2887:1 #
-0.12150125941152578601389677714906 261:1 #
-0.13616556999905979341569661755784 2199:0.70710677 2347:0.70710677 #
-0.043093802086980083354550430385643 616:0.57735026 1911:0.57735026 1913:0.57735026 #
-0.11284988635336661022545712285137 1500:0.70710677 2013:0.70710677 #
-0.2272109177913365918310972801919 120:0.57735026 2741:0.57735026 2833:0.57735026 #
-0.081558398806990561880070345068816 1983:0.70710677 2105:0.70710677 #
-0.10086057345208776503397984924959 434:1 #
-0.13664519409714248610043796361424 2093:1 #
-0.10360131592026966540487364909495 531:1 #
-0.10375438031375339154038783817668 90:1 #
-0.10375438031375339154038783817668 439:1 #
-0.056484658108135410437000700767385 282:0.5 442:0.5 504:0.5 2530:0.5 #
-0.19801288937467337314402016090753 417:0.57735026 1738:0.57735026 2624:0.57735026 #
-0.069731986836802747897756660222512 172:0.70710677 2514:0.70710677 #
-0.048095172896694515785043222422246 552:1 #
-0.78050096766431331651858727127546 1:0.44721359 27:0.44721359 102:0.44721359 482:0.44721359 1630:0.44721359 #
-0.60182106460250994750538211519597 3:0.5 139:0.5 307:0.5 2769:0.5 #
-0.25854051890175355765677522867918 3:0.57735026 1678:0.57735026 2834:0.57735026 #
-0.4232874206417575058125635223405 1:0.2773501 3:0.5547002 5:0.2773501 57:0.2773501 85:0.2773501 92:0.2773501 103:0.2773501 139:0.2773501 152:0.2773501 1930:0.2773501 #
0.24471313351697485116709174235439 1:0.44721359 157:0.44721359 158:0.44721359 221:0.44721359 1070:0.44721359 #
0.50416200907591757207626415038249 1:0.70710677 3:0.35355338 417:0.35355338 608:0.35355338 1223:0.35355338 #
0.36030433196821259889119914987532 1:0.66666669 603:0.33333334 1103:0.33333334 1243:0.33333334 1367:0.33333334 1873:0.33333334 #
0.32131676505526624021413795162516 1:0.44721359 3:0.44721359 34:0.44721359 211:0.44721359 1593:0.44721359 #
-0.88562166894483762558110129248234 1:0.16903085 3:0.84515423 121:0.16903085 152:0.16903085 571:0.16903085 1597:0.16903085 1826:0.16903085 1992:0.16903085 2215:0.16903085 2393:0.16903085 2780:0.16903085 #
-0.24135988873363642404079598691169 1:0.26726124 3:0.53452247 27:0.26726124 147:0.26726124 180:0.26726124 266:0.26726124 411:0.26726124 492:0.26726124 1682:0.26726124 2575:0.26726124 2653:0.26726124 #
-0.13604618718249905651163089714828 1755:1 #
-0.13641506012742221631839356632554 293:1 #
-0.078033950134091062400543137300701 15:0.70710677 174:0.70710677 #
-0.078033950142653962789296429036767 15:0.70710677 2355:0.70710677 #
0.35118170522826669399663046533533 1:0.76980036 3:0.38490018 213:0.19245009 1115:0.19245009 1290:0.19245009 1389:0.19245009 1393:0.19245009 1454:0.19245009 1585:0.19245009 #
-0.26941953618680025694942514746799 1:0.21320072 3:0.42640144 60:0.21320072 72:0.21320072 120:0.21320072 303:0.21320072 487:0.42640144 565:0.21320072 1722:0.42640144 2215:0.21320072 2526:0.21320072 2647:0.21320072 2776:0.21320072 #
-0.34167193015667468580787158316525 595:0.70710677 2847:0.70710677 #
-0.16097415230307221545302809317946 194:0.70710677 271:0.70710677 #
-0.11137471997022518888087461164105 46:0.5 470:0.5 1575:0.5 1821:0.5 #
-0.076626724540876128832778135802073 1:0.30151135 3:0.60302269 27:0.30151135 57:0.30151135 103:0.30151135 121:0.30151135 343:0.30151135 2125:0.30151135 #
-0.12389304048371654887183979099063 3:0.5 497:0.5 2237:0.5 2800:0.5 #
-0.10391453267836960050463090965422 3:0.5 152:0.5 587:0.5 1994:0.5 #
-0.078515975441650606714283355813677 1655:0.70710677 1723:0.70710677 #
-0.22760770921697814905826362519292 127:1 #
-0.073598642783337997475001657221583 154:0.70710677 1823:0.70710677 #
-0.075225160736130239347296821961208 292:0.70710677 537:0.70710677 #
0.37444203660158104085553532058839 1:0.83333331 3:0.33333334 223:0.16666667 361:0.16666667 487:0.16666667 492:0.16666667 1258:0.16666667 1395:0.16666667 2235:0.16666667 #
-0.046334690807395904899035343760261 15:0.57735026 256:0.57735026 1545:0.57735026 #
-0.059756291643379123856849588491968 126:0.70710677 2187:0.70710677 #
-0.086121043852300169230140625131753 3:0.77459669 52:0.25819889 155:0.25819889 1751:0.25819889 1807:0.25819889 2202:0.25819889 2981:0.25819889 #
-0.085233442104428361330015206931421 3:0.57735026 2415:0.57735026 2438:0.57735026 #
-0.074946536957692599933977817272535 3:0.57735026 2367:0.57735026 2708:0.57735026 #
-0.085465869170163882850843606320268 3:0.57735026 2150:0.57735026 2390:0.57735026 #
-0.078545645724920176711236763367197 3:0.70710677 2471:0.70710677 #
-0.10423821889844378518752421314275 3:0.57735026 279:0.57735026 490:0.57735026 #
-0.078087743391386910118967534799594 3:0.70710677 300:0.70710677 #
-0.078231077396632209275395553049748 3:0.70710677 1783:0.70710677 #
-0.078364284234018199981619545724243 3:0.70710677 1784:0.70710677 #
-0.078545645725425050631685053303954 3:0.70710677 2011:0.70710677 #
-0.07484955366115002284299606571949 3:0.57735026 559:0.57735026 1828:0.57735026 #
-0.075900398082160341894919497462979 3:0.57735026 2710:0.57735026 2879:0.57735026 #
-0.11940813076624695598937364593439 3:0.57735026 483:0.57735026 1990:0.57735026 #
-0.078137252123671369075097459244716 3:0.70710677 2065:0.70710677 #
-0.07808774339246295215222204433303 3:0.70710677 2261:0.70710677 #
-0.078455263234735783672846309855231 3:0.70710677 2669:0.70710677 #
-0.078545645725425355943016825222003 3:0.70710677 577:0.70710677 #
-0.078254366602875061187383209926338 3:0.70710677 2260:0.70710677 #
-0.078137252123592251806805109026755 3:0.70710677 525:0.70710677 #
-0.078455263234735769795058502040774 3:0.70710677 1517:0.70710677 #
-0.078193179734080089926528955857066 3:0.70710677 2419:0.70710677 #
-0.070741625665047824789155583857791 127:1 #
-0.078314184984295431846135215891991 380:1 #
-0.065992262658898709348775923899666 281:0.57735026 289:0.57735026 1598:0.57735026 #
-0.06516090767670378036680034483652 1486:0.57735026 1850:0.57735026 2320:0.57735026 #
-0.11162461788731951883857362872732 19:0.57735026 1598:0.57735026 2673:0.57735026 #
-0.13583109723635278243136781384237 116:1 #
-0.045825171697153055383466835337458 3:0.57735026 438:0.57735026 463:0.57735026 #
-0.0593285041361559795092261992977 1577:1 #
-0.051955068612169474917550360260066 516:1 #
-0.052333444460500477823927667486714 381:1 #
-0.050121877869439557251496353273978 1556:1 #
-0.052128628186955600076757377792092 3:0.44721359 120:0.44721359 325:0.44721359 410:0.44721359 1612:0.44721359 #
-0.087159625797332607177736463199835 179:0.63245553 616:0.31622776 1911:0.31622776 1913:0.31622776 2374:0.31622776 2685:0.31622776 2986:0.31622776 #
-0.047937981071820970346841761511314 1747:0.70710677 1769:0.70710677 #
-0.048019548762693542443003025255166 25:0.5 266:0.5 1543:0.5 1675:0.5 #
-0.078151134628441032425882895040559 605:0.70710677 2460:0.70710677 #
-0.078151134628441032425882895040559 605:0.70710677 2395:0.70710677 #
-0.044946645678102435661482871864791 499:0.70710677 2505:0.70710677 #
-0.078334409374514607504735863585665 24:0.70710677 1702:0.70710677 #
-0.13626736715692178147918411923456 2550:1 #
-0.021359258054332475040837380220182 68:1 #
-0.056365606547199020859295615082374 1600:1 #
-1.000000017990847034354828792857 1:0.5 3:0.5 6:0.5 276:0.5 #
-0.062452700311618314366057802544674 3:0.44721359 1582:0.44721359 1942:0.44721359 2215:0.44721359 2325:0.44721359 #
-0.078309409848975192192099825660989 29:0.70710677 2659:0.70710677 #
-0.078077865340112045933196327496262 29:0.70710677 2302:0.70710677 #
0.075510504750714815824785830500332 1:0.75 3:0.25 597:0.25 753:0.25 818:0.25 890:0.25 1230:0.25 1862:0.25 #
-0.14552960903614309273734761518426 1:0.41208169 3:0.41208169 9:0.27472112 27:0.13736056 38:0.13736056 42:0.13736056 43:0.13736056 50:0.13736056 72:0.13736056 102:0.27472112 108:0.54944223 193:0.13736056 331:0.13736056 2047:0.13736056 2230:0.13736056 2478:0.13736056 #
-0.093722909987203284476464659746853 1:0.68599433 3:0.17149858 6:0.51449573 20:0.17149858 83:0.17149858 115:0.17149858 136:0.17149858 272:0.17149858 572:0.17149858 1630:0.17149858 2270:0.17149858 #
-0.064536978809598327666563477578165 3:0.75592893 429:0.37796447 588:0.37796447 2095:0.37796447 #
-0.026786378638621936160157943618287 136:0.57735026 2266:0.57735026 2335:0.57735026 #
-0.035403191484728230298273388143571 107:0.40824831 261:0.40824831 1610:0.40824831 1611:0.40824831 2188:0.40824831 2852:0.40824831 #
-0.0608834747480671012453967705369 183:1 #
-0.029283285636125033768450975912856 1:0.44721359 3:0.44721359 6:0.44721359 438:0.44721359 2160:0.44721359 #
-0.033242128411998479731170874629242 26:0.31622776 332:0.31622776 616:0.63245553 1691:0.31622776 1901:0.31622776 2174:0.31622776 2215:0.31622776 #
-0.031330029456097641116230079205707 275:1 #
-0.023507594332579904300439821440705 3:0.44721359 25:0.44721359 283:0.44721359 2022:0.44721359 2070:0.44721359 #
-0.020995839822576099764628310140324 165:0.70710677 1846:0.70710677 #
-0.042486811561771656298169830279221 1:0.45749572 3:0.15249857 6:0.15249857 61:0.15249857 108:0.60999429 193:0.15249857 413:0.15249857 434:0.15249857 454:0.15249857 616:0.15249857 1488:0.30499715 1518:0.15249857 1603:0.15249857 1630:0.15249857 1817:0.15249857 1911:0.15249857 1913:0.15249857 #
0.033436711797502016718652839699644 1:0.83205032 20:0.2773501 1298:0.2773501 1419:0.2773501 1894:0.2773501 #
-0.0078681810431872646616202615632574 485:0.70710677 536:0.70710677 #
-0.033693111915928330990510630726931 1:0.30151135 3:0.60302269 33:0.30151135 196:0.30151135 1597:0.30151135 1941:0.30151135 2236:0.30151135 2812:0.30151135 #
-0.020619090974495657420106908830348 1813:1 #
-0.026431505732026960853175978627405 1:0.5 28:0.5 122:0.5 124:0.5 #
-0.0068543659163063574632501762096126 1614:0.70710677 2049:0.70710677 #
-0.0021755548851143543219455178672206 163:0.70710677 2446:0.70710677 #
-0.02631979661994315877748817911197 3:0.90453404 152:0.30151135 398:0.30151135 #
-0.00068369065427154041003632300999016 275:1 #
